0.0272276007317669,-0.019934836013005,-0.0898516469115268,0.12151463407697,0.033796221771564,0.369435779201361,-0.304941348198422,-0.104613675860904,0.350249573735632,0.184988955026142,-0.0256899790443896,0.13758036511966,0.152270290494718,-0.0697802681484618,-0.217708130348575,-0.215487956322513,0.441596408783669,-0.0376018350112348,-0.181716516868972,-0.0983872067473503,0.297046429983129,0.186620887408966,0.0497072158173521,0.292263864463608
0.11542585503475,-0.072146552757702,-0.0180350796263282,0.0884289834777795,-0.00386111051291396,0.305718445166798,-0.22558111431348,-0.09068120777038,0.36822122922502,0.16985135816918,-0.0392595517592285,0.111586444124512,-0.0756057613130798,-0.108392439579836,-0.226359190110475,-0.243911379202338,0.455913491461388,-0.00616657771153889,-0.208918468702369,-0.0538360178750913,0.302301798997901,0.204185506265291,0.044407856400604,0.26187625147137
0.180230819284875,-0.120311099320569,0.0408703634735692,0.0591101820784091,-0.0271416255393798,0.247698911866188,-0.14922829535075,-0.077211496193152,0.381443410644379,0.159035166594226,-0.0394838166627089,0.0811973774086085,-0.0171595626613076,-0.141442512285107,-0.219861749514337,-0.260771819008407,0.460535606664737,0.00998900097302214,-0.230958462800943,-0.0213507936982167,0.308360360190295,0.217151133794189,0.0415919545458123,0.236172926335935
0.127205095588381,-0.110752441357394,0.00565670711936569,0.0816028641824808,-0.0144754228158509,0.294954493141704,-0.184808505424873,-0.0903325833559171,0.374475003503497,0.189858603646631,-0.0234519207741342,0.0860594100057304,-0.0717582954952255,-0.116641616358873,-0.20772919485611,-0.255218781437044,0.454278861587927,-0.0061456910659775,-0.21280289296323,-0.0567129270874024,0.306467618782767,0.201374697751392,0.0477043960793595,0.267648301706815
0.118028770633178,-0.0451018163872236,-0.0378463294109967,0.0899762510574594,0.00801256619635655,0.299501393785387,-0.250233902898537,-0.0729282772916446,0.363100461504762,0.144654373531381,-0.0565723595834021,0.133765359218371,0.0604062177240555,-0.0954723073438787,-0.251092223739532,-0.234140476665685,0.462106811056312,0.000335495259846221,-0.216165774993772,-0.031429100074213,0.295151815137158,0.197838472526536,0.0283094638605876,0.260051870680762
0.178605694396092,-0.0676820006352791,0.00479220421479075,0.0684556378680425,0.0019350149441425,0.245313186116042,-0.204110302465014,-0.0466858407057816,0.371778869507307,0.118191822702083,-0.0685727039076317,0.121743393634375,0.00731343709223379,-0.111402760584233,-0.256827906509797,-0.247431951076466,0.474056821713477,0.0197990641612976,-0.247435511453096,0.00650209023435584,0.302782524843951,0.201664341127816,0.0152953718743722,0.240301208724665
0.197178917555379,-0.108890896123441,0.0456501603855702,0.0550506740834087,-0.0147658798185229,0.228452184721883,-0.151909562694194,-0.0597236105668442,0.379609022384113,0.134617928803461,-0.0515809067492096,0.0892046140099681,-0.000872844930477488,-0.141948082424875,-0.227376331946523,-0.260596501143177,0.470554329977483,0.0173473193526982,-0.247196963071607,-0.00428729170822646,0.31369719143147,0.219421909551475,0.0316390373464928,0.228205750757375
0.226646675102566,-0.107462341927283,0.0692923316880487,0.0468639856957248,0.0135740443696598,0.186013498264534,-0.137624545742578,0.0223178272889388,0.374871646418717,0.106783831561326,-0.0654401037099341,0.0863599141347115,-0.0226332702648661,-0.137630375744019,-0.228991623957868,-0.266820494636611,0.487424823719459,0.0301553861621207,-0.283727247113284,0.0224918761891817,0.322898407104107,0.216295779887979,0.012803821446847,0.225854433383773
0.272577065297835,-0.0803424431240987,-0.150783538023482,-0.0570527330385251,0.116560313946672,0.0757445173782383,-0.122419867254669,-0.104874823018937,0.36885482732178,0.0674017055036438,-0.106498473939951,-0.0625705782321102,-0.032817842032892,-0.0499539029222469,0.230484555753553,-0.277839538113355,-0.520303165333218,0.0564109165525333,-0.374362884936202,0.0678268835260078,0.322366455218927,0.147003716709093,-0.0385925276183546,0.263140935627421
0.266917203585443,-0.116783282201397,0.157390464381333,-0.0518370708344351,0.0843484438427435,0.0975649905336718,-0.0953714371418843,-0.0530808686334143,0.36784096814653,0.0924010264206973,-0.07847669649248,0.0400821895397585,-0.0155054026568968,-0.125568070237319,0.183256852543549,-0.299443896986981,-0.512281193172305,0.0462785107704314,-0.345758029715647,0.0319842850798619,0.345248263149718,0.193701814927061,-0.00718612043360633,0.225070542156583
0.260963161641166,-0.154588865989957,0.16746448439876,-0.0397594808450535,0.0526643596894636,0.109355332121867,-0.0578114204657417,-0.0112924417110769,0.364028264997533,0.107839881597622,-0.0538193095928097,0.0183998236299214,-0.0117503087440709,-0.182734487261227,-0.147628614552107,-0.305922525824495,-0.500909464589138,0.0388979218106025,-0.320233392756316,0.00763120428647633,0.358047953813506,0.234676641184645,0.0196439337900536,0.196396080497077
-0.11299586626712,-0.018438546350777,-0.173957471989897,-0.213985031900244,0.205876458364651,-0.300883901651889,-0.151456578546957,0.0509635612858032,0.143361070311458,0.180700796491546,0.237285954859342,0.113874121443275,0.0785384942258598,0.0205578727470022,0.065412007971457,-0.342797833821328,0.177295265733524,0.0779181915146521,-0.38650855505498,-0.234973316896695,-0.292056210412747,0.10696238265785,0.262635050293841,0.248989889202682
-0.122298826945742,-0.0010114891881138,-0.225003883289957,-0.211384566629289,0.224829401464622,-0.354261967758752,-0.152848332881139,0.0535090375892923,0.168817043594029,0.140219045202721,0.24155874736235,0.130322483679689,0.111141669651103,0.00523937381468754,0.119603427977916,-0.328057146285833,0.226575526167176,0.120692897360692,-0.37192194437308,-0.261284490750866,-0.368976973539094,0.098303777992901,0.230297844188851,0.219415039662694
-0.0828275409856618,0.0418298682792554,-0.302123403986248,0.0912823364412089,-0.0584565782830148,-0.010810845500091,0.0211825427599246,0.00107662286580319,-0.178811383742626,0.00881849420814618,-0.116003863219599,-0.2904386371708,-0.0873640205708068,-0.104223150812377,-0.0831232258010414,-0.246141992743602,-0.243055293556452,0.0746652871356609,-0.284964491999258,-0.273370950177256,-0.376710037956531,0.0823900373362904,-0.0246917776335772,0.000388896278294677
-0.0648826063987655,-0.0275568575889567,-0.306066701629191,0.157007745474967,-0.0630546665970185,0.0290861642143588,0.0526999254938309,0.0398543254188988,-0.232723734221312,0.00104364438492973,-0.0806667053207312,-0.273559150860235,-0.0634951882811168,-0.108141114846951,-0.0684818853182639,-0.218349626639573,0.307247547376012,0.0983032124191994,-0.282899595184983,-0.241003533608955,-0.349143941629568,0.143686954130364,-0.0134023562222003,0.0504893172918009
-0.103123612706569,0.0572489488756113,-0.286241344312632,0.107486025447067,-0.0925273206390097,0.0252005297043296,0.0196320965149455,0.0276917530096853,-0.191514418760754,8.30135165835882e-05,-0.130148767705488,-0.29053630145181,-0.0729447720957493,-0.119809063490624,-0.087403329585846,-0.211400170367707,0.28205512622637,0.103363578500876,-0.207088559008968,-0.268306010287555,-0.35671398714378,0.0810517467244389,0.016410997793744,0.00305452429070686
-0.114678344552386,0.0264985643267968,-0.288478553232358,0.144887453167308,-0.0837840890206031,0.0432369501985472,0.0341586429275358,0.0253069187091007,-0.211945760671497,0.00312385809943223,-0.101492411439575,-0.292038139381726,-0.0453192617139614,-0.12199155158122,-0.0703343161980607,-0.193131521245779,0.306281494745104,0.127184500388627,-0.205890769294566,-0.272155106934523,-0.351324527747513,0.107690689780186,0.0197047447301471,0.0222780087462707
0.151353538126151,-0.0875721410185584,-0.267084555591111,-0.127922164378614,0.423892564692681,-0.107127749410346,-0.147264055694098,0.266187556376013,0.146862089675703,0.322641025903736,0.170180114005832,-0.0992428083878416,0.1819774906507,-0.0904914211566829,0.00142413769207683,-0.142125605762306,0.111981129032365,0.0598617330466859,-0.331720758371804,-0.158673911720193,-0.239274930079932,0.321973483151119,0.286351945867615,-0.211085434847164
0.112796479863912,-0.0982075721492777,-0.229708346707488,-0.200195370246744,0.431261576927131,-0.153570014064719,-0.0814132932439083,0.185232523538305,0.189788430579834,0.253654652533219,0.208380073695471,-0.136849231306572,0.250396679128212,-0.082536986068395,0.176140834248533,-0.219426784044179,0.177388420806841,-0.103425881230217,-0.381255999078387,-0.274230218290449,-0.414633713134612,0.222840507971919,0.260308204216775,-0.125006540960051
0.0682444207355804,-0.107188501835748,-0.198682749408007,-0.225821298845572,0.395975630464095,-0.213817355833098,-0.0580986063962534,0.146404499181232,0.191250064320165,0.153073445837794,0.249644258995891,-0.12426851379813,0.303757702468471,-0.116203278705164,0.338666014512561,-0.273242512358235,0.244405533510508,-0.150389122606819,-0.396897383566197,-0.362924616813389,-0.562486708953696,0.204584346738299,0.212398992925842,0.079705570481084
0.119872003911121,-0.126836852257075,-0.184789575815763,-0.237827117301962,0.414383676008318,-0.17921024680044,-0.0581395424839868,0.184215818112038,0.157855736366027,0.169991043154677,0.246838818985272,-0.166332374051903,0.334469880187101,-0.132646305748789,0.35732538892095,-0.272573346665073,0.209654896873771,-0.119881507316084,-0.38848164874064,-0.384813441561392,-0.548827687345904,0.23201642542416,0.23869606678552,-0.0667899332877756
0.0504081064706028,-0.106044530545116,-0.188017696285031,-0.229259568470702,0.374045991160988,-0.240387828381795,-0.0612648197726768,0.135459458200832,0.184478308564622,0.110732794210807,0.262209622320988,-0.100455557876558,0.316559890244838,-0.127610259849982,0.377039275880532,-0.281343123668019,0.276488718887884,-0.165430033467863,-0.394208508295725,-0.381272504020744,-0.600485084606351,0.212568185135278,0.188703799384906,0.0784845702616864
-0.0851018983620032,-0.0498518396389097,-0.155874132124971,-0.259032499664347,0.228838179345459,-0.255172182147708,-0.180328567094214,0.0351991858029783,0.114555806710194,0.146198384098373,0.246058275721439,0.10346697906839,0.117324087973758,0.0171364880088778,0.0696865271352121,-0.341388959745013,-0.175154662873832,0.0434615054704889,-0.433835972462599,-0.219706540122144,-0.292705229490473,0.1338565100808,0.284799618553053,0.249545066780485
-0.113468633825698,-0.0239034834728152,-0.196908802286863,-0.251433489386544,0.229638233501412,0.312532826277943,-0.1752386370615,0.0428954180568426,0.141334155756543,0.113375428942762,0.249270043382825,0.135377036468376,0.129119923808585,0.00205697916663607,0.111930898739183,-0.329565060177975,0.215025440221243,0.0830865942229829,-0.401078719752658,-0.241328133881787,-0.343198645000921,0.121237796205426,0.256275629163666,0.222103996075268
-0.105783377256124,-0.0179968648072301,-0.231289491086883,-0.256613319996663,0.257793660025006,0.346129306411247,-0.173330960373137,0.0467361718073525,0.161242009876692,0.0593381822620565,0.260434992065079,0.136239579449101,0.181957763074526,-0.0271144181007286,0.19013289152582,-0.309053048398956,0.278817903248196,0.132898264885799,-0.390406716027402,-0.272183605692982,-0.437978478633541,0.129769922491164,0.222112415862672,0.187326130251401
-0.0852199938050618,-0.0230160147178785,-0.244787744320088,-0.240434377776439,0.27912734917916,0.364030239359985,-0.145421186608556,0.0581445358807851,0.188086788228177,0.0474635196436653,0.271111347007855,0.102392579586037,0.221361611883222,-0.0523936958994776,0.257930472143105,-0.292785375420621,0.318474327045961,-0.1829916275675,-0.377654113488327,-0.31029843516744,-0.520721785987799,0.135642324379375,0.180328811469229,0.159546400665235
0.0113412331587245,-0.0855079558697441,-0.188871690115778,-0.236603087475725,0.336777793158521,-0.294103695883325,-0.085843775529815,0.106474109548234,0.17960246810287,0.0451783841699984,0.275767196059094,-0.0267074987183605,0.317659032463137,-0.124235710626728,0.386271586278896,-0.275133244343084,0.339411169534534,-0.193771202256348,-0.380758561542465,-0.376580646813661,-0.623812242331962,0.213923753584727,0.152161327243996,0.099647796442034
0.0432423177768907,-0.108064636083472,-0.173677306503387,-0.238198042628121,0.355037105266355,-0.258528413651208,-0.0688483276452815,0.131201146951309,0.172414631920265,0.0725903530542809,0.270936542008408,-0.0787422553788122,0.333413914286823,-0.13968579839749,0.403707412528735,-0.28280030396643,0.308300630826098,-0.171598433809448,-0.386288079693128,-0.393773235844427,-0.624810384687032,0.22997066908285,0.170146795739471,0.0806280787133915
0.0664331189083739,-0.120454595561491,-0.166468871430301,-0.240440639516205,0.367241857228827,-0.234858927244061,-0.0609703039936198,0.147553964699328,0.164435493177379,0.0910833010127755,0.267049422125336,-0.110518990038605,0.342601687370769,-0.146434861345777,0.410496283242538,-0.286302796589253,0.283832431725876,-0.155043735709273,-0.388352605813279,-0.403225562582641,-0.619115141925961,0.237468126695514,0.185400091906911,0.0696117369539722
-0.0898764433965404,-0.0248453609652063,-0.229770701347776,-0.280837125068015,0.275022296249608,0.335144425076171,-0.188027900037644,0.0432640368641553,0.147328123794095,0.00960086595071429,0.263491842141561,0.140446170694322,0.220357660420235,-0.0454882445581895,0.22707535047648,-0.294529818342262,0.311365287104109,-0.135932087889711,-0.394113438319889,-0.272817138340426,-0.46866200898888,0.15222091969058,-0.220782462919829,0.170722847630975
-0.0742145161780003,-0.0323736465965018,-0.228653276251374,-0.274187188707271,0.284661947826327,0.342437100377502,-0.169341710579488,0.0516587974546746,0.160406943428077,0.00383313788979865,0.272615346588547,0.118000750974622,0.245371912273981,-0.0620497849381609,0.268250607434754,-0.286260300362393,0.335689797439877,-0.163395372855706,-0.386210314810937,-0.297900410079514,-0.515404901420144,0.161742072255877,-0.197176939094592,0.157791930166639
-0.0495757274954587,-0.0481270217560646,-0.219358323132713,-0.26294876480538,0.300046918519916,0.33910109859118,-0.140643412310075,0.0643246337140951,0.173050632099169,0.00172073274926935,0.278961119946953,0.0776581054629856,0.277455045071254,-0.0864835175914456,0.32157023047522,-0.276572814695683,0.359306392044721,-0.190110834918344,-0.378456215523713,-0.32755860689765,-0.570313499196232,0.179404760414549,-0.168969847297013,0.137620144452562
-0.0202552461774524,-0.0662967657699469,-0.201962533988585,-0.251549467091924,0.315125510182813,-0.322887634237802,-0.114234436237366,0.0815437019555282,0.175815471864725,0.00908700252540826,0.281300716269319,0.0327583567377944,0.303952113140895,-0.108221200538287,0.363062336894459,-0.27095981952644,0.364260285140606,-0.200475825754658,-0.375935846878099,-0.353978582813388,-0.607469710282533,0.200435061497015,-0.151113269218973,0.119657387149981
-0.00308932382536559,-0.0779888918265353,-0.19057118014703,-0.244396149006749,0.32476609258658,-0.308158617300173,-0.0983546500494754,0.0934559385141257,0.176057995623299,0.0193902622264652,0.281045979086911,0.00308594394420191,0.316191484383763,-0.120354180745103,0.383081069576664,-0.270466173737926,0.358100526254969,-0.200500140781867,-0.376808398762491,-0.367999803670208,-0.622591122103508,0.211859547029532,-0.14575295792011,0.108171820086402
0.172220932004852,-0.264285889870688,0.311070202550143,0.228384073626898,0.00719595089132969,-0.066894619270109,0.12845430421695,-0.308543001331854,0.250911762049918,-0.0474337557342767,-0.0277390585059444,-0.200672005752287,-0.144279166996975,0.0218892770376566,-0.000257641345403715,-0.317006556682732,0.286563286046478,0.0347249163955569,-0.460647252942496,0.0250620967744016,-0.185302518974101,0.201090991975663,-0.15096896661815,0.147741584873234
-0.0339066487830732,-0.00561172932883206,-0.316542325627549,0.0767604539197066,0.00529901388056104,-0.0565469591832854,0.0493681525548114,-0.0220676405623109,-0.201158029309252,0.0159930323943695,-0.0671747086347198,-0.268532419116565,-0.112659365168316,-0.0766098150029652,-0.0845171182959009,-0.25847961666061,-0.216343772825776,0.0618747012369092,-0.39064559683516,-0.246675016802467,-0.387015663681514,0.103265874952615,-0.077995113777169,0.0242897522199203
-0.00369947960689818,-0.0364927824006656,-0.312331673402583,0.108583265220743,-0.0117158161155861,-0.0288012831008095,0.0590334615912662,0.0264410957895202,-0.237519552085755,0.00259307372443635,-0.0569422805543194,-0.246431889736443,-0.11084032547323,-0.0783529332011072,-0.0812431287193753,-0.252568698640805,-0.255017181749812,0.0624232843876306,-0.387804322249138,-0.216778748046949,-0.372772814659375,0.135344692988338,-0.0651910346407441,0.0513036833748346
0.229589133000589,-0.0177563965574485,-0.31236759643508,0.0486461793802995,-0.432576500991406,-0.107294348954335,-0.238167635646184,-0.380268185674614,0.0928003853019232,0.381356749099014,0.110552838406344,-0.116756618097709,0.222300906441547,-0.18496758087561,0.00664763329445497,-0.141729507605466,0.0902061519780212,0.0717892303640088,-0.250804639628115,-0.174124999372383,-0.243442988491988,0.38105696546735,0.244112677545816,-0.165748689868343
0.288251529880795,-0.0112009167667473,-0.300472249789395,0.0875926858556348,-0.460138361783009,-0.103453160264792,-0.226474341464148,-0.407871439438174,0.0731242700070406,0.370253451087722,0.130637788662931,-0.172021105433964,0.312718769220481,-0.205277777627145,0.14297600358237,-0.167214058753955,0.0543132257170552,0.0786116764794116,-0.23776830884898,-0.278261346083171,-0.318250398202541,0.34751158317624,0.252051314397431,-0.0893149681435763
0.298852435114368,0.00445630995984573,-0.300730947022045,0.106164135940525,-0.450899411634297,-0.118454326677285,-0.228626580280107,-0.405758282115465,0.0763723692810029,0.353441362163101,0.143643805567502,-0.182703917998501,0.357556589216595,-0.207033219168738,0.219988140498466,-0.183075222992827,0.0355188990424151,0.0841129804267244,-0.221898783505114,-0.334673409674413,-0.365030916767887,0.320320432524044,0.242724290533603,-0.0514271533491779
0.285976891334217,-0.062548412334638,-0.26489129064605,-0.132107814772264,0.47449298955403,-0.0918007656477293,-0.173168840420257,0.385016552057096,0.0687567305482444,0.342054894489255,0.164437204553024,-0.200120005774497,0.326366566886941,-0.185738867525495,0.191904743731342,-0.178840204603397,0.0513454894698989,0.0696418995034549,-0.274512216864343,-0.308967651460003,-0.33635998929937,0.336130342910783,0.282813188584383,-0.0907896698176036
0.309708511993244,-0.0413808558233791,-0.264948860759942,-0.145346008743862,0.465414690708217,-0.104023209565034,-0.180018421586342,-0.39331728046684,0.0630272464646687,0.326868497748291,0.173492345545902,-0.215898357544883,0.377629011626531,-0.19137644276463,0.276853701280394,-0.191482403903251,0.022198987015223,0.0778976912159485,-0.250167793842506,-0.371155325869403,-0.380724841401121,0.307945926765021,0.270554003788617,-0.0462615917570753
0.296351607879245,-0.0110095792129143,-0.27526111850933,-0.14188784508545,0.433637139487452,-0.133911518594399,-0.199087438582392,-0.38621382981386,0.0799813885978441,0.316085450983864,0.17721999072498,-0.202471736486577,0.39869380822625,-0.190305244409284,0.317872417394787,-0.205740507137856,0.0152965581696608,0.0867139851342423,-0.228736261163029,-0.405702827768778,-0.420075779311605,0.288887781382004,0.242842770944866,-0.027064155488896
0.206812812561754,-0.10785453551851,-0.240044311776855,-0.158698403684375,0.460613210130624,-0.0944696297151178,-0.123881708866104,0.306425881306192,0.113201107208486,0.314924971502772,0.186213577340462,-0.171883755948264,0.263655206769135,-0.136616019189837,0.130272928102625,-0.180739782479482,0.102162841545364,0.0625137017984901,-0.334585751779989,-0.256137678622972,-0.322570464271864,0.32370101887131,0.296341900249623,-0.142921507237908
0.256469454812604,-0.105775275096622,-0.229721155795726,-0.180427766357514,0.474021372028316,-0.0955619898773121,-0.120986638052657,0.334584527763654,0.0836642465866189,0.300433521359913,0.196071786194154,-0.214920199405838,0.334937098497124,-0.16351577363965,0.242615641601891,-0.203647067690808,0.0770136878357791,0.0664194112580827,-0.316304866241199,-0.337666977022569,-0.380659809870624,0.310133487787571,0.297743155875313,-0.0865700664137618
0.287903370900589,-0.0883403561129585,-0.228029162371379,-0.189795913232274,0.465159960976623,-0.106328254469098,-0.12999231101158,0.351454433824509,0.0680596393901417,0.285743525702046,0.202850126378042,-0.233003984173334,0.386744368541741,-0.173960804293863,0.326252198436954,-0.214547688151366,0.0462634544647011,0.0727154527589004,-0.28899318602816,-0.399455999296373,-0.419548476963174,0.291396399378308,0.286640575771121,-0.0461101413059181
0.297291702881656,-0.0619563737638424,-0.229920302759089,-0.18570716291628,0.437848085107644,-0.12554433382564,-0.146369879457714,0.359275805905562,0.0663934798618159,0.276707584021605,0.205387195886282,-0.234228793451649,0.416135911799733,-0.172437754722188,0.376057763151565,-0.223161739960769,0.0217997475185144,0.0784866633033961,-0.263908848964357,-0.443988111680049,-0.450533039018124,0.276408603706023,0.26322441759732,-0.0229394489325126
0.276673741050349,-0.0333914467821087,-0.235178934849767,-0.16917628310347,0.396945635814459,-0.157493785698215,-0.164386881613414,0.357858592706635,0.0864868057680153,0.271969459071302,0.209354489694505,-0.21799025404963,0.423254123956487,-0.168844746909514,0.398812390668769,-0.236092176869361,0.0156736398912247,0.0898777934124173,-0.246394969207175,-0.473309041996858,-0.485570557337609,0.265265270733193,0.228707070713854,-0.017383808609404
0.20665424519464,-0.127009961925053,-0.206822104105055,-0.212761252589124,0.460117090851381,-0.114157354229308,-0.0852511525286888,0.271632877529065,0.113540020047523,0.25899705851165,0.216418046568261,-0.208360417150062,0.329310489802428,-0.140879983502045,0.272878372686239,-0.229767229543366,0.122098635657804,0.0745509881635603,-0.355211498294301,-0.349738626476721,-0.432590710240262,0.27828452273483,0.290780304669915,-0.0840338079722865
0.242035975974653,-0.121252455817857,-0.198440803449257,-0.224059635599903,0.452520114862614,-0.122005877025875,-0.0913258408112603,0.294485055636733,0.0874659214217293,0.240814759789941,0.224283164307356,-0.230178893119258,0.382391941312733,-0.158778830891799,0.357189305168502,-0.242759408454856,0.0973702314351866,0.0747772579944719,-0.330461654388739,-0.412117524874167,-0.471038744195021,0.274447342099494,0.283972648918968,-0.0483796454326813
0.261128938608235,-0.103320216363227,-0.195822722616756,-0.221950145598774,0.429644492347658,-0.137909236846078,-0.105316222649338,0.31209571960255,0.0777219190152614,0.229992628542769,0.229403318729081,-0.235679290271723,0.417090992563394,-0.164484478118722,0.41122835527136,-0.248695315113662,0.0724516731604493,0.0791780039647354,-0.303360895571784,-0.459834975225358,-0.499023847615312,0.2682235214196,0.264698510710262,-0.0270436742225022
0.259395024725439,-0.0806256424432142,-0.194834655056058,-0.206597881053661,0.3945372947538,-0.160814083025258,-0.120993414082101,0.324592612970335,0.0853085190627496,0.226704211202306,0.234207451375509,-0.23014854618407,0.431597782129489,-0.163654774619244,0.437659152409985,0.255034968575646,0.0555584073871052,0.088403527641141,-0.282458577071473,-0.49522652670232,-0.526539984709919,0.262785428729797,0.234639602408912,-0.0197627372086601
0.235983791005306,-0.0599260634211504,-0.191684117431961,-0.179021550978617,0.35013978694583,-0.189717272368113,-0.13320519216343,0.33130378062276,0.106093225987152,0.228793402125542,0.239519077149104,-0.217377509145094,0.42589592896863,-0.162304193045701,0.441982102337322,-0.267575258297735,0.0538531665800917,0.102254450795215,-0.272174708215421,-0.519695415120187,-0.559482930512892,0.260407231314145,0.196239049947356,-0.0254898510997476
0.178706350807863,-0.13375985250848,-0.184344877239594,-0.240024297197786,0.433504847202247,-0.148951851939605,-0.067656732703567,0.234430414332952,0.123205877518556,0.199406773262047,0.239841457587738,-0.203300382810185,0.362633053481187,-0.147091007539851,0.366365260353376,-0.263396580481569,0.159171704108211,0.0935683930866862,-0.365295375585436,-0.403796860812205,-0.518122378781446,0.254375897016735,0.264871614826771,-0.0557499612371549
0.216492381721988,-0.114848560542738,-0.165208402669594,-0.233377837908688,0.383820603235098,-0.17891289473808,-0.0905915705733347,0.279980761356237,0.0984684751972092,0.177868438524508,0.251964867958441,-0.215967722078415,0.426167397478984,-0.166717648133673,0.455142269773508,-0.275873912853451,0.127393338120722,0.0946176967208592,-0.318558507947467,-0.495914108030299,-0.575716343048649,0.267169426518602,0.223627405899627,-0.0275510949436713
0.210982464558266,-0.0999565119749279,-0.156908954325389,-0.209341145421807,0.344216535046212,-0.199434771713453,-0.101071117398738,0.29917530149605,0.109082640673871,0.180625019053196,0.258417995718278,-0.213322257784838,0.429680431344248,-0.169030275549903,0.462583433521356,0.282231976570351,0.116786304444687,0.104350454445998,-0.303986159110668,-0.526932456281409,-0.6036256298919,0.269905430518948,0.188527971920844,-0.0291280632658256
0.185326807622365,-0.0895916096029152,-0.145786918515843,-0.173688717405125,0.29850147883495,-0.221528112501873,-0.105511119223094,0.311512711694193,0.129880911959276,0.187004614364307,0.266283482200709,-0.205494531850683,0.41262353136263,-0.173827725578276,0.451945424807452,0.294193154996818,0.120026734310186,0.121174333414688,-0.300331408734796,-0.544100763322067,-0.634295895861134,0.273118793722926,0.148035230638817,-0.0411758965008049
0.142334884212577,-0.133932302166657,-0.164595383266689,-0.248668977977076,0.397530770922748,-0.189112161377996,-0.0639008443628332,0.204168722956827,0.131196285660666,0.142146992395062,0.256189902295369,-0.174653095980201,0.37616009371756,-0.154598874212282,0.417128253502129,-0.282874286463948,0.21295695372632,0.114311912981556,-0.371922520406888,-0.431494955240205,-0.585421330083847,0.254387297191802,0.226028108460871,-0.0511601130376634
0.158524595066396,-0.132875591335221,-0.147296188967339,-0.246457232135955,0.369857452119751,-0.204377500824432,-0.072267496858696,0.229487002423654,0.119488968390941,0.128219825330997,0.262850892968669,-0.178702052153888,0.405833458254213,-0.169727622934853,0.452473054051847,-0.287965190905829,0.211122192027409,0.112259375520264,-0.350419959987394,-0.47371386617352,-0.615701729162045,0.272363033055794,0.202003858234894,-0.042615659244863
0.169294015360353,-0.127348435269073,-0.1311788023464,-0.227924445748771,0.334212148035011,-0.217428413986737,-0.0792616269794114,0.259673743836798,0.118372073631735,0.12998107694797,0.268483074296285,-0.186513003668335,0.419694682263706,-0.178996777744989,0.464140785150307,-0.291814673701591,0.198832726682068,0.112826852636673,-0.332228935259724,-0.511805262546256,-0.642639549175597,0.284634120176855,0.17004310691253,-0.0391406314668705
0.158208283016278,-0.122216159102454,-0.116516871739474,-0.195705374470176,0.291212057383491,-0.232112658791837,-0.0818053998307883,0.282840664868989,0.132611490621839,0.136669055428769,0.278189334412833,-0.187758898966032,0.411335095075281,-0.188037768804496,0.456237175963981,0.298206772953754,0.192939632108223,0.12513127027793,-0.324190050613763,-0.535315158131064,-0.670649330915474,0.290994084622866,-0.13085029961788,-0.0447024565883931
0.130801194486542,-0.12074890191369,-0.101986939515425,-0.156666317876372,0.247919115052729,-0.243843612737528,-0.0794420458496659,0.296209159123775,0.152378296531827,0.146085090373734,0.288090786812926,-0.184629972939735,0.385983654451104,-0.199192299414818,0.43775551635697,0.308814011492873,0.19527925574392,0.143793906851248,-0.323987402584663,-0.541808353510644,-0.693512705998694,0.29386074075911,-0.0937306352411534,-0.0573877046638799
-0.0849680890174921,-0.0509541265988244,-0.162610127774492,-0.277375053684833,0.234530517611774,-0.251848956780181,-0.196706735804145,0.0284311862709799,0.102432269166458,0.116393211422794,0.244773320412304,0.118987702060662,0.131137085875907,0.0159149166218322,0.0744508358744729,-0.334058011750147,-0.176189932462216,0.0297761566780055,-0.439835359464355,-0.211236558713854,-0.290498899174875,0.13861172874565,0.290422531290366,0.240667427709612
-0.0978370510724042,-0.0404595345926307,-0.179999444247765,-0.276038377759247,0.238026452479968,0.273605526644855,-0.196485624236694,0.0308636669003023,0.113104910290203,0.100160605306931,0.245069826759111,0.132218331157904,0.137802417712296,0.00719091266201555,0.0942241894371918,-0.330318223430344,0.196820963648207,0.0462524325815009,-0.428317175409194,-0.218389991285305,-0.314086796925395,0.135073371780404,0.280589955242099,0.227866869002373
-0.106922854928299,-0.0256047682843492,-0.208121719321354,-0.274386588887425,0.248153754665061,0.30794288048002,-0.196091320900297,0.0363735426230541,0.129086337677846,0.0678721637771899,0.249688737987175,0.148024081637199,0.1594061123523,-0.00887066342067917,0.13682141471116,-0.318624735791415,0.235901529779335,0.079653256825368,-0.410855152013595,-0.236685048510118,-0.365343490419361,0.134119017081346,0.259589464460718,0.20659117222829
0.0257555955775384,-0.100338363020652,-0.164349011271335,-0.249648811901792,0.333457736381645,-0.282201668231428,-0.0861234404863643,0.111001841984804,0.160962453898886,0.0201747680051824,0.277407095602267,-0.031797237208365,0.340445048529288,-0.141299582673184,0.410716909198048,-0.272212074640385,0.356947134983362,-0.184834483753437,-0.376380120010767,-0.384391859959173,-0.635411646796334,0.242096807296323,-0.148383966572078,0.0946609429080988
0.0445436262102308,-0.110369614570253,-0.15638998692803,-0.24995356287474,0.339546908106451,-0.269446146642335,-0.0803035102827172,0.126316587377444,0.154361703622201,0.0323876818246132,0.274597680517793,-0.0551919802255212,0.349944253369951,-0.147862892546421,0.417968680548237,-0.275919636163486,0.344532565312398,-0.173099725878329,-0.377489542176023,-0.39682995298405,-0.638287002237599,0.252685144577776,-0.154963263994101,0.0880623158620952
0.0912465866374014,-0.130472821403444,-0.144972414887177,-0.248826716099008,0.35528213321361,-0.236455410827131,-0.0676267275062272,0.169127537409253,0.142266932696211,0.0744759739644197,0.268648942631279,-0.116440953282556,0.371309157553227,-0.161558881515903,0.432212729343933,-0.285438399891179,0.295450212609069,-0.143527015789728,-0.375208521148594,-0.428737577646231,-0.635899718390052,0.268062892406769,0.175867794492433,0.0679319855168779
0.127660789048143,-0.141133377582459,-0.114442822205676,-0.236927940384963,0.325506725378679,-0.235222750211102,-0.0689882306562783,0.217161949123479,0.122981602342927,0.0784475823103542,0.269871154029247,-0.144561480685479,0.400113979956406,-0.181583243289547,0.44998913661627,-0.288556778442044,-0.280311626382298,0.125624666697459,-0.354109604835417,-0.477798724319827,-0.662519518332169,0.300104003430589,-0.150779332661863,0.0583261905846039
0.125537450129987,-0.144600208590913,-0.0951096737591054,-0.208021598765674,0.286594503707589,-0.243481919264103,-0.0654523594288638,0.24904433481094,0.133177068011794,0.086398579028998,0.27889563129199,-0.154773321493022,0.397719400386828,-0.197990448243528,0.445531667417672,-0.292860644310196,-0.270636262237324,0.130953496784741,-0.342955152146397,-0.505069548976576,-0.688721441241645,0.311877838647543,-0.114339252671307,0.0570851113273767
0.0992750110713655,-0.151741775371703,-0.0738895821133893,-0.164167533941897,0.237050418537601,-0.2504368965038,-0.0574809713059412,-0.270861520314351,0.153262356502745,0.0926176848199646,0.29434673606129,-0.155647258845151,0.371829173555516,-0.218756771062052,0.42416502566148,0.299822555397998,-0.272090212197464,0.150605070771377,-0.342717398341277,-0.512818274961968,-0.716476066872846,0.319215814245623,-0.0687970659655871,0.0657964604674284
0.0952674723273732,-0.142673344635246,-0.0744790528781001,-0.139671176595436,0.215571002161259,-0.250014934661965,-0.0628981343871687,-0.286875942622373,0.162382428949269,0.119565747217985,0.300022968610799,-0.168502986872539,0.361547928942233,-0.219877516510564,0.418833389126528,0.312020613132154,-0.243174473433054,0.158990729482874,-0.337568412520427,-0.525880105139113,-0.72056343673024,0.308919536883901,-0.058857941118924,0.0688827220061511
-0.0952703130008302,-0.0315297655744883,-0.200849196638069,-0.285621055911534,0.260850127901505,0.272170111844585,-0.217923512312347,0.0218936498823876,0.0999301750158216,0.0666178351140185,0.228617421214726,0.140384267935644,0.154337113117644,0.00136114944863991,0.110900460629789,-0.326173265020039,0.21724220726455,0.0408750346994031,-0.436790440114216,-0.208763189685499,-0.333170268070457,0.143084966957404,-0.287976670933544,0.212404904109342
-0.0963989045150457,-0.0191862409537273,-0.225050834711702,-0.283489923962429,0.272872643487494,0.314174515198125,-0.208237286372137,0.0351905039625347,0.123452075746433,0.0269554468798918,0.240114306781963,0.149823178079019,0.190990266861698,-0.0253728313023272,0.177299593747216,-0.308566438779535,0.279170666109094,0.0931618129774029,-0.40979706496058,-0.242460724658483,-0.411630414293664,0.150043863424729,-0.254274718379822,0.186220582330781
-0.0733048842701722,-0.0294752811169198,-0.225013834033624,-0.290456789594828,0.290256810642506,0.326274833475966,-0.193063900045472,0.0443814574691149,0.134786735899684,-0.0147214828370594,0.252714815989222,0.13355596212036,0.242342711150315,-0.0578291674707379,0.25102253970837,-0.287977928448458,0.341076101230227,-0.13486107383983,-0.393329403449231,-0.273183955955539,-0.489221561808716,0.17462154090602,-0.223154851152581,0.162056743380972
-0.0387607103419993,-0.0496568283047392,-0.208527074332973,-0.288605927754734,0.303268927690806,0.324168636024508,-0.166162362666907,0.0582137363712482,0.142638567711942,-0.0318532048819962,0.266426268819706,0.0968412273080272,0.287402597468485,-0.0867199109034762,0.31524616313466,-0.271238642210055,0.378858636720932,-0.166818127067537,-0.38066480301048,-0.308265561144023,-0.552047633293017,0.202352337477473,-0.191291224915849,0.144334847614583
-0.00716029683999965,-0.0744937596561083,-0.184847886790712,-0.278442151154082,0.314497532817186,0.310774848016234,-0.133347630446641,-0.0760138457516498,0.147875322773373,-0.0295255356153812,0.273206384101128,0.0493796694268397,0.319723302903006,-0.113580872883658,0.365500018752367,-0.262544149257639,-0.394212143494329,-0.182850374467664,-0.373383860901968,-0.339278434450849,-0.597369676758791,0.229668755608135,-0.165643562187373,0.127227335951444
0.0695956706313013,-0.129588908683126,-0.125152409731439,-0.257318920716025,0.329332976421194,-0.261122878134691,-0.0808729659703131,0.14045208724588,0.128931111142289,0.00736668136235035,0.26735006643897,-0.0594154765759294,0.367440153624218,-0.160522866094919,0.423679808970741,-0.26613769389883,-0.371684638358146,-0.15721029136711,-0.369288359354559,-0.402705101290711,-0.644333060485191,0.293761528587533,-0.148465799815164,0.0957381399488401
0.0963623465067307,-0.148323045766697,-0.101474476979831,-0.242391395729479,-0.318046798508401,-0.248788107072738,-0.0676534006930433,0.179143516229765,0.120347096643363,0.0251235930243773,0.265656558743455,-0.0959716470052797,0.379356873411445,-0.178081811505188,0.43000140041422,-0.270740617264749,-0.352377086676365,0.13960874208354,-0.363872291036349,-0.433616082171797,-0.660045930199999,0.31825325882336,-0.1372550819459,0.0864933853529987
0.104711353598046,-0.159255864694819,-0.0811334269719108,-0.215914307741672,-0.289934523760403,-0.247912620842747,-0.0581989295034956,-0.215372310714913,0.122778286747462,0.0378524117370711,0.271683881401591,-0.117173567885251,0.379650291553054,-0.19566048488135,0.426027782186559,-0.274555443878565,-0.336261172197617,0.135347605804488,-0.357182512343183,-0.461612413925894,-0.68230618250323,0.333899974369695,-0.109571275320587,0.0813035594012987
0.0935868029398744,-0.166460312231301,-0.0652161421590323,-0.181692169891971,-0.253749196422659,-0.25032916788304,-0.0492692612185313,-0.243082834696807,0.1374805445696,0.0496346116982265,0.284424166726525,-0.128254818857798,0.36622763844852,-0.21453994687175,0.413478368371993,0.27994757202216,-0.32376963029068,0.144761062707553,-0.354241351946647,-0.478524445141936,-0.705948483689897,0.339238217392263,-0.0745443405342895,0.0793790399477454
0.0769833850601429,-0.17107297281218,-0.0549921780497164,-0.157309881197103,-0.227284650408941,-0.25201869095813,-0.042296746552919,-0.255984152718905,0.151748668114386,0.0562850373054873,0.29387457623234,-0.131417582400524,0.351417992350111,-0.229254645553522,0.402815596998111,0.284772158634336,-0.319605500353987,0.155794749255983,-0.352971269456695,-0.482484378292308,-0.720185483593684,0.339278575508826,-0.0494392120761679,0.078495639134728
0.158748351788311,-0.141378566694188,0.26962312140965,-0.0876728330486027,0.0399308585970058,-0.0827574063273872,0.129388256284564,0.171005790018224,-0.342319663772761,-0.0561684167916514,0.0202522170447643,-0.113884553040047,-0.214688521668631,0.0625729336185465,-0.140370330828043,-0.176095069342275,-0.275969289137459,-0.0434711453050347,-0.467946994533016,-0.000248255323476439,-0.273458514444346,0.166689122626909,-0.120445724699538,0.16661374211153
0.19619531025151,-0.181751756052326,0.251118339874428,-0.116980896483046,0.0344317107838207,-0.0833192567112992,0.133060636055314,-0.245711336173705,-0.345679866934567,-0.0727199782270766,0.0217550294786413,-0.096889238688821,-0.223747086996116,0.0644186756546295,-0.129071063789404,-0.181820991253914,-0.280187791692305,-0.0208889701809919,-0.474356773470641,0.0612177043119018,-0.224784473682126,0.179812840824572,-0.137429613605856,0.190962719753096
0.189926724651068,-0.182547598400719,0.252412792749533,-0.0975943017699128,0.0524180410263151,-0.0968477520477764,0.162316831083368,-0.234425665288504,-0.38107045782919,-0.0814571193432168,0.0539698814945863,-0.0710024580064958,-0.227856497133548,0.0729853173470089,-0.160615593575259,-0.118739403435405,-0.292752609874361,-0.0436412767841904,-0.459549629501879,0.074509310688693,-0.224659869112321,0.16323302953821,-0.124771089251261,-0.211314338084609
-0.105788727085021,0.119569843714961,-0.380260890591636,-0.0858624894981522,0.271238318778416,-0.293823556061736,0.335891790491135,0.234661488073457,0.184261846356133,0.293983795152503,0.0933079050488955,-0.0090635093743863,0.325832396342499,-0.200302533332062,-0.167660245640282,-0.260591246315399,0.200432025406153,0.0490536779841987,-0.130301886396442,-0.303158050916963,-0.47087548327786,0.282977300272633,0.102394797850137,-0.0673996913449377
0.252613091681639,0.0502240706597771,-0.330351243772787,-0.0909957276668153,-0.404019647527295,-0.16730379056198,0.270065761877389,-0.374503077390307,0.110271388058985,0.349288949637863,0.126246200774769,-0.139225453025157,0.351113569025949,-0.207768197308216,-0.205756301587245,-0.20563789597082,0.0733850680194542,0.0842876532134778,-0.197669548295412,-0.332149367115703,-0.401967080095954,0.311929874880354,0.200669702764981,-0.0502572848422124
0.195087186587466,0.0807508106420143,-0.342907021526601,-0.0964235927733873,0.342383281607382,-0.229669269934865,-0.287614722249824,0.328871724582397,0.146393103068219,0.319634202046658,0.136025912286687,-0.0987375345256179,0.369167049117551,-0.201269812517926,-0.253806842400674,-0.240715646838271,0.0979274982691768,0.0808650755509355,-0.173275837980971,-0.371711275246174,-0.468457145630567,0.286706261998163,0.156039408337184,-0.0386907211764123
-0.130127197771138,-0.0970923563587444,-0.347878296348323,-0.0905438816645422,0.280576850198744,-0.29170667970922,-0.296237866938936,0.277679671222689,0.174832747799896,0.289574733856331,0.14125448213795,-0.0496802804773044,0.368157902383675,-0.196300819908973,-0.276985953516844,-0.271257196319088,0.13816900876113,0.0731845956320841,-0.152296981307913,-0.389527003740877,-0.517201358724624,0.271612488761992,0.110762254457826,-0.0496373503404673
0.257447555779366,0.0230711425910077,-0.287149493832984,-0.12829413934383,0.383965776121939,-0.178790578844168,-0.222529211963001,0.366959166999776,0.107637497520527,0.308117237190487,0.17653386337154,-0.174577515822524,0.402186743826017,-0.184951081545774,-0.335742471071795,-0.229770440398954,0.0280020943421479,0.091455131501757,-0.211667514558666,-0.430967707240555,-0.46616986206841,0.276595819940134,0.20247787723568,-0.022749466046412
0.198032151925074,-0.0475363600886041,-0.292433234515932,-0.108073888172264,0.325385586155747,-0.233722180024341,-0.235415723241652,0.33733544858093,0.141615935928151,0.295350205482831,0.179688801099888,-0.136282017630054,0.392353071687871,-0.181652946285915,-0.347198789975117,-0.25988308037713,0.0586464354124167,0.0971233214882043,-0.199350171806865,-0.450301733931117,-0.517371367778372,0.266416007893292,0.155949036918683,-0.0322485679766662
0.131992835618142,-0.0586541881727506,-0.288042499586539,-0.0765005558305476,0.267405288172951,-0.290156081842304,-0.237285059241456,0.301495522267122,0.167199222123145,0.281234424903748,0.177956396318989,-0.0925883654816148,0.36499034367007,-0.183896452434612,-0.340691295833106,-0.291238152214219,0.11406188323575,0.101810215463955,-0.190800100550197,-0.453541665816176,-0.561762303556875,0.266156677751758,0.108515082220365,-0.0614434456245544
-0.0690173433318584,-0.0542797848582195,-0.26999821812595,-0.0339276097538074,0.215033647967167,-0.338779038104377,-0.224870915280212,0.258793725818733,0.174787804842582,0.26045486411961,0.167959319398107,-0.0448763152740644,0.318887335264345,-0.191770716895157,-0.315009604689791,-0.315101601834038,0.196628519840058,0.106438777164248,-0.180898288583628,-0.432761233318917,-0.588824808961378,0.27544995939992,0.0655957739063522,-0.111141842661444
0.233923775072378,0.00923827450992022,-0.236815256958226,-0.141810615576194,0.346252435408856,-0.198419242283835,-0.177789454701115,0.34896709540304,0.116110004809156,0.2701511409799,0.212958043713769,-0.193245248716476,0.411862329300248,-0.166615692280831,-0.402934399884005,-0.257900130163714,0.0298946397935134,0.102838177879206,-0.238207017987607,-0.493338705495666,-0.527922307994643,0.259895159158561,0.186110940296613,-0.0260606203876039
0.176011670364136,-0.00441610414617067,-0.229923704195182,-0.103315936127212,0.291239283618802,-0.243728162894051,-0.181219317521458,0.333308936015272,0.145340906088394,0.268642442340508,0.214789130870749,-0.163157217389281,0.382481122706128,-0.17102981274574,-0.392168981758079,-0.287162650666253,0.0691936329224129,0.117625919179433,-0.237445512833727,-0.501508185230572,-0.573481299512278,0.262435969523044,0.139057631685902,-0.0497866163775415
0.110206192029045,-0.00437014710755914,-0.21028162947024,-0.0527199048259729,0.236163143500468,-0.286472009573655,-0.17113854795018,0.309767435606541,0.16383145845257,0.263216993858482,0.211594326643559,-0.127485549131122,0.333815227453896,-0.185456623397483,-0.366266553545737,-0.317577407391847,0.139124735585825,0.135001159117956,-0.23806470287442,-0.489504318103615,-0.61250775875956,0.274347377796025,0.091178342995945,-0.0904605248356405
0.193177278679652,0.0473101421450746,-0.182372340253663,-0.140178989270565,0.299979827989965,-0.222131789099373,-0.137403691034007,0.331314837484949,0.132651465100004,0.233008219632006,0.244824837903822,-0.199359223669827,0.400599628098378,-0.166736135340351,0.429737221812276,-0.288440987094028,0.0739482315480554,0.120564893188686,-0.272544266669661,-0.531543407636116,-0.597865219869804,0.2635556891845,0.152437586796313,-0.0437685664196653
0.13496522630935,0.0469525497815442,-0.162734285923161,-0.0902624854416057,0.247143142657532,-0.253413550929932,-0.130050839365951,0.323136949772335,0.155785071887362,0.235291721575855,0.248140218544213,-0.17572226865357,0.356009204174395,-0.182426502538406,-0.404616667028313,-0.315434814915054,0.122416787904997,0.14336436158235,-0.279035106499073,-0.525051765672919,-0.636190267383949,0.274414744796144,-0.106063412419656,-0.0749581619157754
0.0660636904294427,0.0584700444770187,-0.128727472036475,-0.030125150932563,0.192072134193785,-0.275954853122972,-0.108765822555284,0.303103025794238,0.165863268143754,0.230223379466908,0.24505041739462,-0.144121576429418,0.292032063715251,-0.209405876697111,-0.368229139693917,-0.341250916004993,0.201409522604223,0.168998513270483,-0.28165162626264,-0.491532773885295,-0.662504751762853,0.290697195300146,-0.0599098631201929,-0.117474792994119
-0.0049774994940906,-0.0751802050609888,-0.0800468843434873,0.0335749068515685,0.134677896265933,-0.280662972841894,-0.0742599930023195,0.268105639057144,0.156156021816647,0.212780936327143,0.229921380700855,-0.104448058220087,0.213268691366021,-0.237528935646883,-0.32298890542006,-0.354475857521871,0.29884952955756,0.191319676067178,-0.268599679748596,-0.427358609150172,-0.661543314042708,0.30309496747045,-0.0186215028331353,-0.162709569090201
0.141234333332141,-0.0893414112280968,-0.128097506678688,-0.129063392234001,0.2503767122295,-0.241788306437936,-0.100800682442401,0.314696352877649,0.152620140579893,0.192361383999751,0.274067132256721,-0.192033359688889,0.376656052868312,-0.187585630323592,0.429230853365206,0.312534881144827,0.145398850512799,0.143744761649455,-0.305897494355637,-0.542710013115689,-0.665219444437866,0.280655471701322,-0.105993168343172,-0.0632718748013021
0.0795053265835836,-0.101983190700262,-0.0990169825218285,-0.0757609531602674,0.199974805657738,-0.255362507737071,-0.0844301587547488,0.306118520891417,0.169185216377555,0.192040127370181,0.27910606576058,-0.170429614722744,0.322184871218676,-0.215131871109857,0.398202569749231,0.335214960805495,0.200493589554377,0.17088255114907,-0.314750012198813,-0.515721816913228,-0.691129929061929,0.294416201548584,-0.0638993846328951,-0.0950050494164803
0.010411618217307,-0.118450320220136,-0.0574044908841374,-0.015640168833313,0.144171209564156,-0.255933706437595,-0.0603228094489106,-0.283421713359581,0.167988691936355,0.185376630189278,0.272913610279667,-0.140987716114615,0.252718482093151,-0.247750968671486,0.35826804335896,0.355923363744061,0.279075802906194,0.195716219922101,-0.313064924056096,-0.461307412912393,-0.699882785465884,0.306921570825387,-0.0241109101881133,0.131951270696847
-0.0654587107544099,-0.130571150142001,-0.00738991232037214,0.0424708414317607,0.0858034071203542,-0.242439421659174,-0.0277933296900634,-0.24481282744476,0.154895656093542,0.170605747470231,0.2507219224993,-0.101213776352702,0.175390506523128,-0.27461905573913,0.317022315230931,-0.36647470050915,0.36458598795566,0.209993472060198,-0.29112013852011,-0.382360366953734,-0.680990608463214,0.307743531631228,0.00860229853583138,-0.162762243972431
-0.120499647357332,-0.129329331769646,0.0316209940104535,0.0824696654130827,0.038968801256131,0.225918050283642,-0.0013291926471003,-0.205326730423753,0.135062442525946,0.153094727310236,0.219218808977983,-0.0630085680947852,0.115452866907459,-0.282677365194049,0.283526704646662,-0.363086367335273,0.429651533798684,0.209322672866527,-0.255367700254824,-0.31083223285173,-0.64690690315467,0.297744894839171,0.0287048154827963,-0.179113347460163
0.0921581642477054,-0.130119152513026,-0.0819093927694245,-0.116314624864168,0.20815697784431,-0.24907691928493,-0.0707238667394716,-0.297394757239563,0.16497493783004,0.148285131493667,0.29636871436657,-0.174835195843085,0.348617519432845,-0.218201129606927,0.413054432640325,0.322216716547169,0.221403151672839,0.164657090342832,-0.331971561299102,-0.526501040576552,-0.712322129193086,0.302551757818547,-0.0612295074519047,0.0779833622668178
0.0216453735356718,-0.156099116560427,-0.0457433511607253,-0.0645445918939748,0.160749644688986,-0.243989816840225,-0.0470902394422718,-0.282236708546281,0.176086028916502,0.140740825158358,0.302670625875794,-0.150616574412253,0.287539111206508,-0.256511168645386,0.38235694414614,0.340663007635399,0.283471149461601,0.192615334215402,-0.342619164708417,-0.474634935476844,-0.72422575702853,0.316823430269786,-0.0266936716540597,0.108466172452254
-0.069879385221105,-0.179737401579119,0.00712157921413535,-0.00362929184619627,0.0973128534836251,0.222405469794954,-0.0155437859980886,-0.247428379965899,0.173642140149154,0.131246615074392,0.291331078638707,-0.115558232552215,0.207570525745638,-0.296593037260893,0.344884257529509,0.362497066794207,0.363992503683738,0.212215174781065,-0.33501072049475,-0.390632735509603,-0.713332050458637,0.319381828004168,0.00658613970745734,0.138345925596658
-0.15297663739532,-0.17772938998776,0.0596218430158981,0.0502859609466161,0.0345549011562893,0.195818429709576,0.0143038515525555,-0.199212681705601,0.153497275196698,0.122051825193964,0.248304834367112,-0.0719354350306165,0.130740219481628,-0.310506033200759,0.306844869853251,0.374105998545506,0.441070373042451,0.205785000984195,-0.295537521213158,-0.299315506465835,-0.67390464952197,0.303043611671364,0.028388237010721,0.155947600850182
-0.167444503382471,-0.150375300767213,0.0689644113653621,-0.0806757326477211,0.00698143440714554,0.197844343841205,0.0188413852232208,-0.180076087214897,0.134212152057657,0.127327319020093,0.215253014013244,-0.0486395033275056,0.0963913617900268,-0.297390223460407,0.280955392325785,-0.368942338688999,0.466998955465074,0.201198578403485,-0.254022874319413,-0.269196509578373,-0.643768086876475,0.28828897034719,0.0380007830199256,-0.167271042447095
0.0620910109416443,-0.179059644608647,-0.0481214398767709,-0.138157926649506,-0.212017662500614,-0.247545467910504,-0.0374084111218331,-0.261414625808906,0.158697309189774,0.061465716859041,0.302547945150065,-0.132772179772569,0.335772850133261,-0.240295030648586,0.394732561415361,0.289634232174366,-0.31854535942824,0.16621167536779,-0.358255482223386,-0.475607390949909,-0.725337539724008,0.340792253759271,-0.0391169215063103,0.0858352048619279
0.0420026808803515,-0.176147173739896,-0.0457006777773484,-0.109769713434586,0.189685066844855,-0.243689799479292,-0.0383644113994822,-0.273256888836014,0.172899473846265,0.0940441071914574,0.310482596904414,-0.144923709793197,0.318552109784828,-0.253004555395474,0.395250581270425,0.312840569754131,-0.298747375853217,0.180509600927426,-0.356141407184611,-0.478841412859475,-0.730699019959298,0.329923396451784,-0.0324300709280748,0.0908576897935729
-0.0511073551833418,-0.217805211886449,0.00194593510259221,-0.0460848470364226,-0.137496703479463,0.213386371014668,-0.00480393886802689,-0.249777677569888,0.181129376093018,0.086682017672687,0.316024736979978,-0.119274861415365,0.238615665760506,-0.302373967332451,0.361754778603614,0.332562184231481,-0.359188052902343,0.20854286479996,-0.370806608811057,-0.392982468314232,-0.721977824442266,0.340966773283857,-0.00523398076476537,0.126065451012089
-0.113408471506178,-0.219834191039291,0.0380689337374082,-0.00457409459177399,-0.0836614284387928,0.193976737691999,0.007630120465927,-0.225521801463086,0.176192837225372,0.0959622556354631,0.300750837988021,-0.100455423617106,0.187442144817212,-0.322332580218968,0.339302116618887,0.35860607684609,0.401213233056393,0.213846580623002,-0.353494042007197,-0.34092155441604,-0.709675306348194,0.327043289297378,0.0136525886995797,0.139194984155378
-0.13646049727461,-0.20662738913857,0.050653350140631,0.0187172524420612,-0.0604738896730597,0.192138760696784,0.0123762187773079,-0.21426977293411,0.170472352008472,0.108193268846491,0.281451450354827,-0.0910848040271147,0.162343223321997,-0.322764379176429,0.327741054226474,0.369896768651788,0.416881085234692,0.21173212052347,-0.332722175389748,-0.322407103447382,-0.696829426197412,0.316816697230164,0.0215267782484218,0.143974513818294
0.00184512108302938,-0.0684793885147235,-0.179872736984254,-0.295800767522039,0.316988182229974,0.303286481592366,-0.158617082515825,-0.0685921729882733,0.116468864000479,-0.0587679728581509,0.2470591464536,0.0756498948375721,0.313209657410359,-0.102420860443691,0.34123928603934,-0.253714941984758,-0.421450314473734,-0.159718280189997,-0.370077089188794,-0.309681234624698,-0.566606129361041,0.249341674420348,-0.19378649169426,0.144842941676245
0.0356842302133957,-0.100895681163912,-0.147406030356697,-0.285125646163137,0.322335603884849,0.284886268733972,-0.123526942248,-0.0893410391071961,0.117313095703665,-0.0545985474195099,0.25580758243254,0.0271694321857002,0.341872762837007,-0.128855939177905,0.382638203892134,-0.243703624739647,-0.428779547766371,-0.168035838073066,-0.364352212814339,-0.338645461416414,-0.60132802630933,0.281945629255125,-0.168474774484657,0.13341513707157
0.0672710936691819,-0.12874216784335,-0.116641327849027,-0.270364483546116,-0.323487414327218,0.265718263569069,-0.0961723889152068,-0.11755405305912,0.109841561233144,-0.0411374337714591,0.256487211801981,-0.0179012302717195,0.358775652556134,-0.149034708933353,0.403303637829549,-0.241249544189295,-0.421234161666674,-0.159922007099706,-0.363482751273738,-0.36553335441509,-0.622429909286397,0.312562305039985,-0.152561305427843,0.125013096875377
0.0866591387940787,-0.153838604503442,-0.0907200319572977,-0.250142671222889,-0.317028971471567,-0.251541064998899,-0.0733505989885501,-0.149401861660251,0.104793290240185,-0.0262971430313239,0.255567918595301,-0.0529541587786602,0.362544031455952,-0.16716017340049,0.407540207779324,-0.241990202910134,-0.408450792709628,0.147284825218151,-0.364884446996207,-0.386669039548602,-0.63672058353498,0.339415731819402,-0.139085640708923,0.120648753471714
0.0916010287137906,-0.173751700787688,-0.0713003824646393,-0.220558812953006,-0.301027215564453,-0.244291639076602,-0.0536158172489822,-0.183002825846785,0.108542699251904,-0.0103359918226036,0.26096030981888,-0.0785554242266635,0.35545378279892,-0.185680525646368,0.401922170060328,-0.244654458812952,-0.390787026868921,0.14205491786729,-0.368363426094574,-0.405748753870322,-0.653781476793816,0.357377473411322,-0.118902986844995,0.118148326194186
0.0805457821613495,-0.189316012624786,-0.0557879187856854,-0.18322378170576,-0.274419830547297,-0.240847287069425,-0.0365442345585698,-0.214320766598574,0.122658406078572,0.00638414357707865,0.274328207316711,-0.0966163002565797,0.339879876443787,-0.208154835163563,0.391976879565965,-0.250799060985468,-0.37189979095384,0.148156311218983,-0.3726190042406,-0.420925817786846,-0.675665588486316,0.365730323855856,-0.0899911224855629,0.115457214859034
0.0561958655466827,-0.199108746605708,-0.0426261237771231,-0.14372654583696,-0.237382882617585,0.238623745061774,-0.0244485842169586,-0.240785818955974,0.145228275023638,0.0284616637613996,0.293224517489899,-0.111714613240433,0.320823803324883,-0.235436621399491,0.383641295905977,0.266129608670676,-0.352433485755731,0.163491076914971,-0.374320833443202,-0.433902336184911,-0.701475204295952,0.362537648554169,-0.0559682155653155,0.109122376897541
0.0169186541407637,-0.213744095592416,-0.0269498101226486,-0.103509616603566,-0.202136164780082,0.228696777078138,-0.0122880460022175,-0.252384076942288,0.165356598276996,0.0478614868503681,0.310017128555304,-0.118520372971608,0.289952176511364,-0.265138553128937,0.37458531804598,0.285631354582989,-0.346497060650968,0.184352841838426,-0.380211359125276,-0.422646461448119,-0.714561318538552,0.358661966826552,-0.0322862803963504,0.114329954288232
-0.00760942684039217,-0.216569090234536,-0.0169962646879003,-0.080485458737677,-0.172983355535858,0.222747499622395,-0.0112290141073559,-0.256518305158269,0.174890650564554,0.0652627476486425,0.31943293726969,-0.122891596311584,0.27259395613227,-0.282157953431676,0.370115636833456,0.305278367480537,-0.344077240798046,0.196862799246853,-0.378748351786793,-0.417627629313865,-0.723518114819725,0.350273092357135,-0.0179987020645955,0.116555580565779
-0.204474477545178,-0.196232975466958,0.0950393880457636,-0.0548575414611053,-0.00703798196696357,0.165244709452534,0.0345445176798829,-0.168322047871132,0.148620852704259,0.0975175539715001,0.233949847575251,-0.0509352806988997,0.104210331495372,-0.321883022103147,0.297721484961443,0.376502223151494,0.4795407491887,0.191351486746933,-0.290450183868337,-0.243994734623197,-0.656580831815244,0.293284097767413,0.0331543400273134,0.149957189094303
-0.0914029068134574,-0.254332263410367,0.0260767746844634,-0.0298052035475191,-0.135131188563507,0.184972425566387,0.0197198441612198,-0.230813504224397,0.178078090414967,0.0611985140127068,0.317546585210254,-0.102510541894473,0.204836075416924,-0.32256396100282,0.347358029355997,0.32280194069084,-0.389171815625768,0.212480036272953,-0.389713258399331,-0.333404598552971,-0.701771309941749,0.354128196705138,-0.00596679757632,0.143312865411554
-0.124319140087944,-0.24794373491247,0.0454239355404652,-0.00990061648948457,-0.101267267061402,0.176981961607415,0.0221340394968925,-0.218870995121147,0.176239725191477,0.072877664427446,0.306824140563947,-0.0947656240386503,0.18265224149199,-0.331325749422683,0.339650355819031,0.343807205669052,-0.409635485063533,0.212173475055255,-0.374387792355628,-0.313855544107089,-0.699638734934112,0.340660813238965,0.00502481609461276,0.144697534346268
-0.232253230800171,-0.202883089756215,0.11411949435309,-0.0590224793966869,0.00274801448091024,0.147453105492385,0.0467595345900009,-0.1533610882405,0.145647137218344,0.0887295460299665,0.218961585551044,-0.0404932855742845,0.0893546102300941,-0.322730822968874,0.292639268104187,0.377411434806975,0.495379734924424,0.176999022760771,-0.286407462598697,-0.214366339803232,-0.642046104333858,0.28622677787366,0.0308201917569951,0.146366216771942
0.0688802772682227,-0.128270596512729,-0.11204412190973,-0.279625329690478,-0.328443370240148,0.260234345548573,-0.10788012558453,-0.0993529352260594,0.0879533072823432,-0.0804403030624083,0.233838356905352,0.017201457629313,0.337008860097401,-0.131930710358515,0.372383940697763,-0.214925712698043,-0.460779061296763,-0.154915562639622,-0.358483946890001,-0.318080394478998,-0.581844329818556,0.330316695666866,-0.177998100599519,0.158118069481245
0.0883908307569368,-0.157575064481521,-0.0855046275710715,-0.258609679020833,-0.326624308047264,0.244042648042371,-0.0803971569459976,-0.124407947410261,0.0845324708028841,-0.0703323377177748,0.239505694022626,-0.0171937177589744,0.341164983021212,-0.148837014255134,0.380205577323411,-0.209259654663752,-0.449324891564431,-0.150416490502842,-0.364638101715897,-0.335072011922647,-0.596194760566775,0.356986559562723,-0.16093078001566,0.158150108051416
0.090192324454995,-0.186949556199893,-0.0651660349323738,-0.225114110360278,-0.321716077303035,0.23067972441649,-0.0510219435502101,-0.152514668399271,0.0883725339890012,-0.0572672264211456,0.246007581798393,-0.0434405367382334,0.326738636658409,-0.166498731577404,0.373932205546789,-0.205829974680712,-0.43218994315139,0.147887592023138,-0.377648814902338,-0.342516176914842,-0.605982752713546,0.379269060072341,-0.145861529094078,0.163375739344926
0.0763365455889877,-0.2148841974098,-0.0488214045646952,-0.181944270515807,-0.308930646194324,0.219259297174919,-0.0223513893349608,-0.182203341400293,0.1009064986887,-0.0403847997495421,0.25949172917965,-0.0650499863173169,0.303457873816411,-0.189663930014529,0.363873896547784,-0.207497386193493,-0.409745371062178,0.152693334719281,-0.393918356463089,-0.346870492439266,-0.620052921798599,0.393903735633365,-0.124783058092742,0.167715550896023
0.0459339701182751,-0.238703868542824,-0.0332588123064074,-0.134338037005144,-0.284553740025335,0.208714963375238,0.00228267212420888,-0.209310601004755,0.121696688172978,-0.0181158774742432,0.278501048031615,-0.0828044133731991,0.276170266465195,-0.220803910923413,0.35587368037074,0.219701545030189,-0.388078351946006,0.165606541260665,-0.408127289826124,-0.348453844883623,-0.639820486523323,0.398468986735413,-0.0972041041495806,0.167753460993143
3.56524721252553e-05,-0.256657585295504,-0.0141920622590618,-0.0882973390221082,-0.246460923067653,0.197225928071011,0.0198806049744738,-0.227899076252242,0.14587625034573,0.0093200797103074,0.297602155105023,-0.0959539717622452,0.2472708959071,-0.258953876232622,0.352111671521024,0.246433770116585,-0.376007365352025,0.183478221837942,-0.415411295522232,-0.343992072366615,-0.661761092096036,0.392835683940258,-0.0667681804367964,0.163969002631702
-0.0605912713810441,-0.26252271484685,0.0123809488586861,-0.0460355095225499,-0.185245279878532,0.185933480440999,0.0268451829051324,-0.233788116548189,0.168780696696286,0.043505745984597,0.310804720466543,-0.103206906879488,0.217218795134683,-0.301529318986336,0.350739695428077,0.292400092484026,-0.379965053040134,0.201893427877783,-0.406938649771772,-0.334464025146021,-0.685206313044645,0.373483160319783,-0.0315935023859202,0.15423406187225
-0.133390996245365,-0.277081449839726,0.0535299449100751,-0.004669200815595,-0.135591781262532,0.154205670390227,0.0437812638949112,-0.212470271604753,0.169409976944494,0.0548092263651178,0.301394011812081,-0.0895765930704549,0.167512428703923,-0.330538976017747,0.335248136485737,0.322270048958268,-0.413162185303766,0.205238741934079,-0.399985391407747,-0.276237213743993,-0.672199632358755,0.359514347988146,-0.0164836386457808,0.163822903772637
-0.171488732543233,-0.266344071197942,0.074853545984079,0.0150062710236591,-0.0952700630598619,0.147673575624563,0.0473848999544166,-0.197061981256809,0.169173611007988,0.0667963999975042,0.285052165264842,-0.0802736422477312,0.143997703653035,-0.341261781542223,0.327455376252941,0.345344430753581,0.434909875292853,0.201857274885874,-0.37600839587614,-0.255622700857587,-0.667834438430879,0.341435071965248,-0.000270187852653973,0.156910206817698
0.192925399955205,-0.255773229738129,0.22273750632367,-0.14541078494265,0.10720211976119,-0.131398743062303,0.198949891717788,-0.342574431491392,0.368103006682154,-0.0900732543381311,0.0530950623028058,-0.0914525675417098,0.224323240629951,0.102667530669917,-0.14739566440918,-0.0877675132965657,-0.279181503026898,-0.00683218569149214,-0.462621357919176,0.162449250854225,-0.123365737352061,0.175467174897803,-0.174409860568998,0.257906885752483
0.0901960079333808,-0.19436149689322,-0.0608304900497498,-0.225531635658823,-0.349812011225212,0.209313335529806,-0.0464548141064938,-0.125106887891346,0.0666972639748891,-0.0995427972241892,0.223206680987114,-0.010221677535823,0.285422301809786,-0.140714405368932,0.338456484219188,-0.164504781084153,-0.463668271224276,-0.152940232433659,-0.385149984076104,-0.272634939640133,-0.542208028802262,0.394977168656913,-0.189403380076545,0.21116756021616
0.0771636446424813,-0.238189280722505,-0.0414009424367643,-0.175745839043125,-0.353075978738235,0.185340979769853,-0.00449702720453845,-0.149038731979867,0.0760810802379022,-0.0873586356179741,0.238386302551591,-0.0358438010990531,0.253677243788545,-0.16145584244595,0.327901170511143,-0.154099226065472,-0.435437100199602,0.159345043542704,-0.414528417019171,-0.260706911420283,-0.541995923642633,0.417838662796221,-0.176080545577006,0.22841098155631
0.0432182276725339,-0.278816504631439,-0.0229543892760305,-0.117297561724771,-0.345801909166289,0.16222242136201,0.0357587778033848,-0.173707812038542,0.0936372172555419,-0.0646845755429234,0.256721586897388,-0.0585987782290072,0.215591876704993,-0.191142124655436,0.318676165088794,0.157579026696469,-0.404249796371794,0.169597980889889,-0.443886636180874,-0.246191218574074,-0.547188580075973,0.4302106213003,-0.156717155028789,0.239937328197507
-0.00915839458403598,-0.308175620761146,-0.00107720521768408,-0.0611186702659716,-0.318363245763206,0.143459151317435,-0.0655387388994841,-0.195268331854055,0.116790633471083,-0.0318510540574464,0.274125455858809,-0.0765994374830441,0.181398340227587,-0.23178471365606,0.316431572691062,0.18292037900195,-0.383557725251114,0.181380290255292,-0.461217873778695,-0.234968421355617,-0.563699526817315,0.429332085352592,-0.128528630383674,0.238818756983817
-0.143799763544277,-0.317192367068825,0.0672841304137127,0.0192453127295954,-0.200837998910361,0.11196207384348,0.0845360092785959,-0.201083837168905,0.150768797977847,0.038349528979483,0.277833511732436,-0.0843335485731698,0.127868863329779,-0.312679585526413,0.319091865723775,0.281961198032282,-0.406409252272577,0.189740667333754,-0.438603214638464,-0.207075824310709,-0.604706217944003,0.387501842421277,-0.0630659693165851,0.209582557074645
0.0710811997665185,-0.213944323389093,0.169056386819787,-0.0484620032832635,0.248620017178709,-0.0929849270804684,0.217126068399987,-0.310403561428661,0.283067024491878,-0.0202834143835147,-0.118684241126042,-0.153009547490973,0.202645913827864,-0.1340056826118,-0.248404412815218,-0.00513439047223394,-0.304619439608593,0.0788593094961964,-0.347433741836189,0.162739548467138,-0.0382586022942032,0.212461662814078,-0.128871523237718,-0.287077024743545
0.101696577845287,-0.224948952890766,0.170105644829843,-0.0653363897559362,0.240399479888721,-0.10772100214306,0.225947760798827,-0.339312251928077,0.286571333720117,-0.0365916350431753,-0.0933339699584248,-0.152349953492494,0.218681812728003,-0.130690646324505,-0.207999517406227,-0.0308267147185321,-0.27702688510247,0.0697177560152122,-0.384070305842747,0.169682410476229,-0.0424277591115118,0.204349855823718,-0.153843793376141,-0.272478579402793
0.148511703905684,-0.252674289055834,0.204957111782624,-0.115435530181979,0.172633238333462,-0.125689791706155,0.226042149548201,-0.347653893116399,0.343217051304308,-0.0613701012373852,-0.0104470539267706,-0.123771300787001,0.216213242032853,-0.125894876688082,-0.18347033534053,-0.0464708151555005,-0.279674916594849,0.0358543268807091,-0.421045216129012,0.169207573047855,-0.0774447919525818,0.188512614015459,-0.161883489480347,0.271675167879639
0.135868981765818,-0.247642745453864,0.184289202690174,-0.106940324547908,0.218631169891502,-0.137906034706655,0.224757878421132,-0.359930981329842,0.293104716069832,-0.0618826932076059,-0.0346603473349387,-0.150105211406202,0.225101730982773,0.119865823127343,-0.148532051420964,-0.0698909981567384,-0.246881168877335,0.0460283066784742,-0.440937608149875,0.170051180850776,-0.060529507442885,0.195249484559888,-0.198062359289528,0.258363942147687
0.169003218991095,-0.260894199374917,0.219765332020411,-0.133959881441186,0.1356714974758,-0.127856912452037,0.223512701428464,-0.347422664468581,0.37031631515656,-0.0733151433765342,0.0262186208740442,-0.105036810554051,0.214617305398023,-0.121988500541209,-0.176620213279014,-0.0504739613947131,-0.285894311638188,0.017241865347919,-0.43043583749498,0.167886290939647,-0.0960199300475937,0.178204005455064,-0.157283283924703,0.270585153528738
0.170836243132205,-0.261480448991931,0.211709177202165,-0.139498519271728,0.151592179468209,-0.140950214141813,0.213284522033566,-0.354100128591712,0.343312152649515,-0.0797071683104524,0.0273985687448314,-0.117497857040821,0.221888305399349,0.111974930929411,-0.145620502302256,-0.0785859199089348,-0.266202611730631,0.0124612354141605,-0.458407250309156,0.168727604465454,-0.0958209938645001,0.182868545494533,-0.189276889142166,0.262012233938128
-0.17442044129583,-0.260006231851121,0.231400990438209,-0.143269076316195,0.107624655389052,-0.118987136503617,0.219809543918511,-0.340405280659936,0.3896895420039,-0.0822626224689882,0.047505717433007,-0.0870019715956279,0.207697098068579,-0.119751636948511,-0.178100882773463,-0.0477821829672644,-0.298269417576833,0.00473861950188826,-0.426399547259203,0.157730052324044,-0.114770329498221,0.16796257985537,-0.142902711813474,0.269617502724587
0.185529089319091,-0.261737111153716,0.218167926964201,-0.142187824245952,0.119055582737443,-0.133120956129002,0.211185070272727,-0.34795518443514,0.371182614609147,-0.0849397869152502,0.0499320899972715,-0.094779979395349,0.223316710355917,0.113450302070846,-0.15952566196683,-0.0685646822060588,-0.277031410980496,-0.00054893337584454,-0.45342166707649,0.170001596007068,-0.108233096945791,0.174298341111022,-0.171508927665774,0.266921547339128
0.0689248992570776,-0.254561483926989,-0.0240556686903848,-0.154232495911343,-0.40262647188388,0.136122606545517,0.0266264288898082,0.117988039106614,0.0504584942776301,-0.132035517255722,0.201960758114776,-0.0066379431388931,0.173132180690621,-0.127747717931454,0.274424649485891,-0.0940988184117028,-0.452057122642856,-0.167668425811017,-0.43152325944629,-0.156692145504864,-0.436280726797359,0.433956971512809,-0.242059019160844,0.290872080618096
0.0410132003609294,-0.312125605629151,-0.00463679989248464,-0.0899231905864306,-0.410721103788793,0.0991627151347328,-0.0785983707686815,0.134727997801813,0.064058158292417,-0.111821134935772,0.223786894806425,-0.0375899140543074,0.132379213520126,-0.151511696378049,0.266714574835017,0.0828526410056602,-0.405056235240797,0.177328187227296,-0.473203543502342,-0.128108816218261,-0.42500781996361,0.451780309551041,-0.226344899938101,0.31438769808205
-0.0203974180907183,-0.366240039654934,0.0264535671358572,-0.00934074655087364,-0.406814649783693,0.0531552587557736,-0.135749431479704,0.149700530662566,0.0820310477711206,-0.0724229354639788,0.234997007089653,-0.0657982697937329,0.0736794071426682,-0.183667697967489,0.255690778933012,0.091351204454999,-0.357418190179255,0.18292918622163,-0.511103327784411,-0.0837851697809036,-0.40404086058701,0.455507981016974,-0.209585344011689,0.333234584022497
-0.0042243148767356,-0.38039853001593,0.04718763264069,0.0111343000630588,-0.466324486029349,-0.012062049483984,-0.175768890983047,0.110237872045468,0.0488199294354381,-0.119686733538256,0.195636944236389,-0.0517104978891457,0.00585914741651579,-0.130961412016644,0.198162115086317,0.00766760534014637,-0.337233793598153,-0.188521113577995,-0.523832073877765,0.0207619262471805,-0.270494569888546,0.461306780028868,-0.273517143825709,0.390199932720146
-0.0039562979431056,-0.18819407236442,0.151939738168234,-0.00980155222977905,0.296771963034787,-0.0727359130310639,0.188440711842299,-0.246528521912498,0.23662985926868,0.0041521660541251,-0.172644730741552,-0.158641887220056,0.169295775024213,-0.119317836601151,-0.296495432785221,0.0317727459050088,-0.350350369164913,0.085335928223194,-0.285911037137809,0.15196571437365,-0.0263655062358627,0.228777888582117,-0.106910711744186,-0.307393964174822
-0.0255869628483202,-0.194239545916654,0.188709480263482,0.0446282433642433,0.299777871818511,-0.0892384736670569,0.181529012679336,-0.219046111038515,0.251593632922051,0.0013122676544544,-0.15000699435821,-0.143827104665318,0.125374252610393,-0.114258535256924,-0.29002475903227,0.0461121108496548,-0.362461966530283,0.0969564275985507,-0.281029948118104,0.131891431299901,-0.034371305058723,0.23372266263105,-0.113145943861123,-0.307633925739793
0.0369183162337339,-0.209548061047765,0.184383700059498,0.0545171378003627,0.25777721831681,-0.0901210346384303,0.205635666095219,-0.277879700643459,0.282444221186589,-0.012157089065759,-0.124788046667249,-0.147841047715929,0.169082514892933,-0.129665391546644,-0.266942917164236,0.0153411629971575,-0.330975977902185,0.0868825345962232,-0.320734003495926,0.147296559673227,-0.041179772430033,0.21912537535757,-0.116933887824133,-0.295685545397577
0.0862380240862404,-0.226465973503615,0.192307211430725,-0.0760166605822315,0.222043421467476,-0.101692120890098,0.220125336123154,-0.313134057519604,0.311529108141257,-0.0286623396058445,-0.0858713292917061,-0.141938659087271,0.191638166848876,-0.133780662772184,-0.237872384934161,-0.00826200265465013,-0.308196328276165,0.0736399873292191,-0.357893714084813,0.156646883831068,-0.05304272131817,0.207818418264119,-0.128880642651214,-0.28474059719706
-0.0688749136130902,-0.231123324427777,0.221964023553263,0.102550311871572,0.208040988326725,-0.100198986908698,0.216637179484024,-0.294308730534405,0.331424755459459,-0.0291434305559557,-0.0693491582032238,-0.129323511532523,0.153661668038406,-0.129909086876067,-0.23923722323667,0.00483960999405747,-0.331658200524013,0.0779389972872181,-0.339069124707859,0.13619169003995,-0.0665947648655547,0.204989287069643,-0.113430472317065,-0.284144066701869
0.116997618068685,-0.242975109818782,0.211931987833745,-0.106270189622658,0.182959479371316,-0.110085209992815,0.226007711120455,-0.327690262082297,0.344480177565043,-0.0453452530876995,-0.0392169335492878,-0.125914836880759,0.192245114917586,-0.132062004668203,-0.215807011180655,-0.0202380194483311,-0.304841558512187,0.056127609063948,-0.38053976654639,0.155969042453669,-0.0721831831337506,0.194537338541364,-0.132677655887134,-0.278721494602235
-0.101988928178177,-0.248608250490954,0.246985471700747,0.136771854228342,0.156220157908527,-0.0999560244093522,0.227598479160925,-0.311721260115662,0.372633062207323,-0.0500355022942331,-0.0178179700483576,-0.108508352743403,0.148726205877872,-0.126156068941651,-0.213021021912357,-0.00554742917633236,-0.33711670491898,0.0567435533935143,-0.351987767590035,0.129083132083712,-0.0941103673827812,0.18448402657509,-0.103776723943096,-0.272869339334015
-0.150887107533176,-0.257947831085066,0.23187171966667,-0.135517249086687,0.131721038381516,-0.114231305392763,0.228309170606848,-0.337160856679874,0.38165091924769,-0.06676688081493,0.016179678266704,-0.101401588492273,0.19370307926886,-0.126947709380879,-0.195206986525246,-0.0307984220335404,-0.307474041391913,0.0283589802936378,-0.400369957270005,0.154492172654979,-0.0986129713804653,0.176228328026725,-0.130754091026757,-0.273198534163812
-0.133532915491146,-0.259295545445653,0.266866461105583,0.160255079311726,0.100932712297377,-0.0919935148036623,0.236339311649492,-0.321452201026224,0.410078105515025,-0.0766195106970429,0.0341425225841566,-0.0807165071349007,0.148638849712302,-0.11802124636833,-0.189476694566246,-0.0123558192841788,-0.349031811139269,0.0243699959216205,-0.358914303425775,0.119968983304094,-0.128412132698499,0.158770506207783,-0.0878774770955133,-0.261311094809821
-0.161800139904297,-0.261662274815049,0.243292513839009,-0.147215383939631,0.10527267895142,-0.110539850050848,0.229134103584638,-0.337110143998364,0.400286509588782,-0.0762321816606725,0.0383538289282448,-0.0872131580939163,0.189224062840161,-0.124064980187218,-0.190004104838566,-0.0307771771008006,-0.315757864939802,0.0165848215376925,-0.399318232994923,0.149493979382468,-0.11325168942228,0.165970030144991,-0.120876725526502,-0.269835735082168
-0.0921720322175455,-0.416791586974193,0.0776469563155894,0.0825165639123649,-0.418334359707829,-0.0309364111045909,-0.205389187705837,0.138963454779321,0.0795967708381407,-0.0370703354572499,0.21140837154183,-0.0827842820213668,-0.0218184293603493,-0.187160055085863,0.217431079304693,0.0768589891633438,-0.300554836172576,0.173825247171248,-0.541356812208073,0.0195060878969258,-0.306749206240359,0.445975233026223,-0.223616123104767,0.373887997731735
-0.0781679186716585,-0.434645826024267,0.107087912525835,0.111562320928301,-0.472939048886424,-0.102091137729258,-0.263050302039757,0.0961887090545841,0.0534531076884965,-0.0713159845327304,0.168646838620232,-0.0879092134080912,0.108341383152295,-0.131631096699074,-0.158210288332928,-0.007746415757694,-0.253768790226613,-0.178520552566717,-0.551658047201361,0.120090858250229,-0.162584681694697,0.440117977988468,-0.272046789749162,0.417004654048207
-0.105626163493436,-0.449899748202849,0.19391305781722,0.195729633486324,-0.493531193914337,-0.234811786605971,-0.376173581901021,0.0332571232946948,0.0206892525225579,-0.0811693328441714,0.0837549003984503,-0.117489051668939,0.272639343775422,-0.0681756844458435,-0.0572031805475896,-0.104959806515667,-0.137454997433676,-0.171440231216671,-0.531704254201015,0.277784287765087,0.0787129164476734,0.384620430933183,-0.299114633933373,0.431277851936311
-0.153127814522227,-0.468004871779771,0.197192974816539,0.206851744255331,-0.456059569933098,-0.21313579486531,0.365073782981029,0.0577594198721438,0.0497170750896278,-0.00831985376825676,0.102342025689172,-0.136143783886417,0.22804578812789,-0.101912947515088,-0.0949807609536406,-0.0294372191673478,-0.142349125426836,-0.142902696211983,-0.540333328048002,0.234608811938257,0.00497822485858067,0.380844472438793,-0.263392994779469,0.419215517739242
-0.310202371321532,0.0318825181703092,0.395479627068092,0.180395109198646,0.132567109613575,-0.176118173485386,-0.402888085600901,0.0783480480255244,-0.0895674803886637,0.0150584183064168,0.357237243608183,-0.0183376782621603,0.544991299851596,0.0629830470545114,0.220218543435967,-0.0624204073854136,-0.0172823422248536,-0.17678701605325,0.143109577721433,0.200378246582066,-0.370168779108741,-0.0385039149715188,-0.12991122846574,-0.227635348648518
0.0377298796269831,0.274950446837861,-0.336638257284997,0.0266420296252897,0.0196241704183556,0.310450236125041,-0.154340725345971,-0.118146354530411,-0.0661640172209542,0.110643166360595,-0.017737411855637,0.385588672838046,0.187750200654875,0.0334021178248535,-0.0690564777341188,-0.0494649539740765,-0.197400909201408,0.134313095156165,0.238411450326237,0.053933496413195,0.367958905217553,0.175687667399403,0.264180388046321,0.0988462043149989
0.0403038244082288,0.262769415780875,-0.318316404152674,-0.00983905448084498,0.0248866363943766,0.290497188062109,-0.167471388471273,-0.119649899925689,0.0934579037866347,0.102963802106236,0.0179764672448967,0.383475306320599,0.153119062697893,0.0290758146700185,-0.0526390773913371,-0.0415281852504391,-0.173923339202518,0.145891055837396,0.215256992347986,0.0398298371194839,0.329599401483302,0.183187135064058,0.279465156421612,0.105260238870757
0.0283087208787807,0.270235393138699,-0.337026332406449,0.0248479495308543,0.0144392533117395,0.313222194476202,-0.145312606830158,-0.113185030791387,-0.0789148371866736,0.101659748612589,-0.0107777273892141,0.387838232550928,0.190488378651153,0.0316406622267848,-0.0643669146764909,-0.0521289761600904,-0.188884818418646,0.142763782388909,0.239550461260351,0.054560184893927,0.357771710552676,0.183745100174979,0.261062843701564,0.0955456031728232
0.0485555922764691,0.239133251992545,-0.321006078245108,0.0822991872588033,0.0521635475497673,0.293766239871958,-0.197564220369919,-0.155906062299324,0.131728006793578,0.0873357991628,0.0884850590343683,0.37684762556139,0.0701598170042742,0.0408595811896361,-0.010305489048882,-0.0134177845808281,-0.147373459138876,0.155685059113011,0.158600426306674,-0.0325434504965942,0.226342637174768,0.221203297177895,0.322978728836564,0.114698460561519
0.056182556309907,0.246330265962628,-0.30081231705849,-0.0647448241273249,0.0367902932218785,0.269590496974341,-0.195386950863303,-0.139600272660412,0.110638490814666,0.0935804474107705,0.0702607198655814,0.377663261139617,0.0953270288016953,0.0274370665176415,-0.0256212808470932,-0.0231040292871037,-0.154729539527189,0.152726260275893,0.176559882160169,0.00217284945576426,0.271705682416681,0.19299618929834,0.310786294229825,0.113463318902172
0.0195992504975293,0.279832303361098,-0.355981978922319,0.0443154570763525,0.00578237990186821,0.331045797452281,-0.138307403199307,-0.109320734918609,-0.0569101974368983,0.102945103905479,-0.0363494275095343,0.393358324497687,0.214120647843217,0.0453668846815493,-0.0807175039020852,-0.0550292542877288,-0.20683869898554,0.119145994220322,0.25297331310006,0.0607486978445947,0.380106076400193,0.178856661021953,0.254758350609746,0.0898692460185245
0.0138626491440334,0.262791292237302,-0.341093618467721,-0.00184772211481365,0.017780090248468,0.315084563017466,-0.152875162765018,-0.108061824587018,0.115301709284895,0.0839744382877332,0.011736895483764,0.399376217838816,0.165793147150166,0.0414668812042809,-0.0567701550198705,-0.0532050833142113,-0.161745523438078,0.145466862532443,0.222360267260381,0.0456331316175109,0.315893480515479,0.200958520899319,0.269613904739978,0.100880208498269
0.0127660231149351,0.270845141060898,-0.346268844106569,0.0233883785754903,0.0078835160508809,0.321983192211574,-0.141196347009853,-0.104625085209429,0.0896924315613162,0.0911416269328162,-0.0116273805728522,0.397472506919383,0.194679257430417,0.0414907527595204,-0.0687068989329541,-0.0560445352878562,-0.181701496337965,0.136132140946421,0.240436047122074,0.0571381465092495,0.348975808086462,0.190670729606587,0.259070708425561,0.094281419026695
0.0287317768010591,0.237432317283174,-0.337878778420775,0.0715343887341443,0.0562544274491335,0.309748242153275,-0.183562766268337,-0.142968113151421,0.153432173590643,0.0820362412203451,0.0739438496060362,0.383654162744309,0.0806935245608846,0.0493660393189857,-0.0183027450734158,-0.0254999828197583,-0.139035447380728,0.152089208492252,0.165286479723687,-0.0198690054202692,0.226120548040407,0.229217879158761,0.312022291258626,0.114068609240998
0.0267230314548121,0.249636505838165,-0.330052611389706,-0.0398278880223465,0.0349991174696932,0.303534605813348,-0.169869775314423,-0.125203504109834,0.132805598840234,0.0847596230408162,0.0476957516281542,0.389246335252755,0.121558169647699,0.0388619239283833,-0.0347037849529724,-0.0382599973150081,-0.148628153780107,0.154640724965428,0.194220444375045,0.0147046203067781,0.273660313145586,0.210841349387222,0.291457850608594,0.107530796161923
-0.000291533603213205,0.258687938877329,-0.351259238946644,-0.0146008775833312,0.0217852420458447,0.322723598396533,-0.154767729880584,-0.102362668604346,0.137775879173536,0.0726002859813913,0.018250973877422,0.408831012696591,0.153987897636206,0.0540022642352537,-0.0574552053095375,-0.0574079253155509,-0.145915387522943,0.139558640511891,0.213523739359848,0.0431330840585679,0.293344595960714,0.210700239422525,0.272691799378404,0.104878117308062
-0.0179649509296536,0.272598623747788,-0.362010223793051,0.0162226312354783,-0.00167831299402758,0.336300656472525,-0.137208321893746,-0.0853712164338845,0.113544013522799,0.071785849942846,-0.0147567485642118,0.416950759001652,0.197181188136572,0.063461734465123,-0.0792586346130987,-0.0641482237104478,-0.163413536506422,0.11864408097912,0.239444465003281,0.063685321961378,0.330707767643892,0.200558483536248,0.255149450792171,0.0943555229800385
0.0212837622398384,0.225430655131293,-0.34888646887775,0.0860938066129306,0.0727819571106645,0.315800159929289,-0.184619682990782,-0.146115360812813,0.172671375258946,0.0786864051879777,0.0825438165420811,0.382670921364932,0.0611020653173429,0.0616227311536888,-0.0165751478605987,-0.0271947674490816,-0.130312504875529,0.143186060277257,0.149278994000724,-0.0292812576538461,0.203577619731017,0.23603779965893,0.320392281789167,0.12194184707075
-0.0541076828722275,0.290748703517239,-0.379972960698182,0.0325169993530325,-0.0384711230278209,0.360754442476171,-0.121208900561739,-0.0575803694781907,0.0855837973919232,0.063426882839708,-0.0554917923334343,0.428810250073137,0.237266446635502,0.0911476429498821,-0.107416869922908,-0.0592356258722076,-0.179159971840477,0.0623577803128068,0.263789553888017,0.0722875095696249,-0.354656277201049,0.189409768641802,0.238419915110081,0.0723976480119988
-0.0342065625483834,0.262712055542722,-0.368112664341524,0.015761439551945,0.0105618494953864,0.337284234126981,-0.147847543550228,-0.0763948437768154,0.153170106862563,0.0558254746017564,0.000658840674419344,0.429547253053331,0.164323284150575,0.0799072494056317,-0.0777712964090984,-0.0704014741556931,-0.130278560512273,0.108962293434878,0.219454478515651,0.0607002180246861,0.291703563528907,-0.208465961983477,0.262826605924954,0.104175815695777
-0.056293330389283,0.281078366386612,-0.375407485603921,-0.0133977025948557,-0.0217291756924282,0.351042996642052,-0.131082927682752,-0.0557024138738317,0.125580723111031,0.0533025073049211,-0.0334199321408378,0.438290465544918,0.210022210637745,0.091265016768967,-0.0997274342566718,-0.0711880912242895,-0.148564953941374,0.0827245336424289,0.246666413021919,0.07739049535107,-0.326226714324249,0.199189320464365,0.243671930366179,0.0885822685738716
