0.0994184633840631,-0.0538089813927384,0.104597742682666,-0.0180996140931174,0.100086032931651,-0.0138456965918899,0.353120653557834,-0.316075998175473,-0.310614492534459,0.398206110051158,0.148625032890018,0.196467482328953,0.0337002335257806,0.400879479135897,0.277573346931902,-0.148710220449425,-0.103027933463426,0.0865211268877988,-0.608380338542793,0.127660394770585,-0.172200539610092,-0.122247738232209,0.119983097952391,-0.0544973621618024
0.0917349930936101,-0.0743673363633484,0.121070290743869,0.000788541968090806,0.138982107727507,0.022594409874855,0.341246790630124,-0.273879398744902,-0.266438961125241,0.420543484379216,0.107329672539402,0.195910113188147,0.0451818602478369,0.397534520752198,0.276156799704804,-0.142026355464334,-0.124286485808441,0.0638499362734268,-0.572370519762363,0.116401728694089,-0.119013238784253,-0.152072022972212,0.162022215361574,-0.037243855292335
0.0302892048440247,-0.0225214966544586,0.182135542101063,-0.00919775104026279,0.0384046637125801,0.0757070120993838,0.383105377979881,-0.318454183721993,-0.284865003056538,0.356501463091165,0.103188040969844,0.219494911305454,0.0238767950609266,0.380780057605697,0.332462665239726,-0.113297785144619,0.123822391113642,0.081500492265545,-0.589455766616996,0.125363448151369,-0.156033792260858,-0.173216343156348,0.183286673807343,-0.0177460871746242
0.0525350873467079,-0.0509180728723849,0.166399220365746,0.00246200425286424,0.0906530805772633,0.0709415067527913,0.367209484690164,-0.285243516788707,-0.260639566432088,0.387482051687598,0.0850801985094699,0.213969528384822,0.0395019588156635,0.381722391606275,0.315557555275273,-0.12508024384674,-0.13350919095716,0.0677629158507675,-0.571515574126582,0.110912777318057,-0.122400041354047,-0.179314344986366,0.197134086250217,-0.016539736665897
-0.0131867294117565,-0.103754877289688,0.152007217804736,0.225212065282104,0.406875859718539,0.116291964151232,0.366521089727226,-0.234157213695254,0.143930159888868,0.398126117609593,0.0578723936478149,0.079993783741046,0.0221010536583474,0.25992330276828,0.461382012403595,0.369225390850523,-0.222110534668331,-0.0787451029150816,-0.284341326227103,0.279637765549733,-0.115181313729312,0.459949336023303,0.0669005873062392,-0.00357782123742157
-0.0694088308844072,-0.151501129441361,0.172812958433203,0.326771646275225,0.415788483513173,0.0693940742165185,0.347901779963966,-0.283002276321556,0.168081802926436,0.392409218192827,0.0227092672967759,0.0548480542224353,0.0529399365548285,0.258870024234065,0.48017808328138,0.275026272742962,-0.205450474618814,-0.0329385483297259,-0.366645126886314,0.249057230038194,-0.198635226171867,0.438723008830762,0.0482201338619798,-0.00390593398530096
-0.142372695191723,-0.148545790651107,0.159837822084537,0.3958325488486,0.426328685499285,-0.0244648924915277,0.297318037808964,-0.344286789569573,0.228047587847863,0.34706232760919,0.0312838264194779,0.030784573347747,0.108433102115097,0.250379696940824,0.489653443617862,-0.15545480827675,-0.153698059442077,0.0263885964776902,-0.461441795422388,0.190652782609895,-0.303481606100384,0.365424736556153,-0.0282930035685291,-0.0345215590303688
0.0140112691087532,-0.0593301328303859,0.131041746060003,0.160626339285986,0.407564629691831,0.121728384127947,0.362175656607827,-0.211070709687558,0.142920810351798,0.386713890429564,0.0991389864942323,0.0977492251360507,0.0145588998997018,0.257817891043965,0.45345421740118,0.412708610094324,-0.220742730542362,-0.0995363537140462,-0.244148631999517,0.289327839014486,-0.0782900674887056,0.456552422540427,0.0590241611296965,-0.0133265489761079
0.0322636387909365,0.0252304608247362,0.0899131425158806,0.0634907841992367,0.401587446500489,0.11279055363556,0.331567898749901,-0.175143456912972,0.13784176167852,0.356675612808426,0.185364961925849,0.131084626967086,0.0246763527293275,0.261115998073626,0.430429321629641,0.458046054953757,-0.199826187731082,-0.128662516071562,-0.185220955561695,0.2772918183817,-0.0299469973343151,0.428915675762066,0.028895957040753,-0.0447893803849945
0.0434048679356853,0.0933371573827932,-0.0564867973027177,-0.0139646110419754,0.40126521466461,0.076809729931497,0.277075488198428,-0.150823186596917,-0.131760015269075,0.313160343931523,0.275913152656415,0.166378489748077,0.0330449778959613,0.258465179597829,0.403357498514479,0.470431828993403,-0.17166288258954,-0.152170429194441,-0.13691036023977,0.261073900955542,-0.0071426497513426,-0.384067209701724,-0.00338812759871936,-0.0777801327991887
0.00411851919094967,-0.0931123183820319,0.161599681342881,0.220134741213919,0.442173336098707,0.0845149692959948,0.345333090355052,-0.240990602512294,0.1533726166496,0.36342468671651,0.0653847826093029,0.0830983294666163,0.000633784916099639,0.240422811719847,0.503022468568729,0.367646574471764,-0.227325228879173,-0.0691697857582396,-0.281863928530154,0.275146454869844,-0.118014056832686,0.469272189253622,0.0584647709132802,-0.0147782238372043
0.0417805898374102,-0.0304413047043708,0.135791339736269,0.120261845167864,0.44050068079859,0.0902386720972997,0.330185461938617,-0.203857943742329,0.136788780983629,0.344514885627929,0.132556896739479,0.113166708117765,-0.0139456113964733,0.240157958198294,0.483783953836719,0.425000891317386,-0.221935521296915,-0.103029079070276,-0.215221861668254,0.280011698784614,-0.059840338535875,0.458601744660305,0.0519040430739933,-0.0304759392296614
0.0518689482154457,0.0222543499708119,0.108850540870688,0.0553039655334006,0.434169114071292,0.0720466899626844,0.295132033403588,-0.182226550062635,0.126512894995951,0.318199815510533,0.205959395444749,0.14473587529678,-0.00573476759842836,0.24576726550434,0.464405389131645,0.439169664165491,-0.200948195753822,-0.12423154950187,-0.176624182552273,0.272136283691007,-0.0380999797928227,0.432774334306303,0.0311531780579262,-0.0497593460391359
0.0364911978339613,0.109341524698709,-0.0568127359475169,-0.0294261036389135,0.406728288132519,0.0447869860029158,0.225387642922837,-0.147686315551229,-0.109768755073288,0.276343437852755,0.322340137106332,0.195039754296,0.0312389345476734,0.255701572294873,0.407002896822803,0.437549874325093,-0.157345838685934,-0.157194096224403,-0.121843460867243,0.24240938010415,-0.0164306225828769,-0.368777528043686,-0.00794223009887426,-0.0889839379714016
0.0448278154582887,-0.0597706259558173,0.168112013662668,0.163368835910573,0.45987081336175,0.0783020343483295,0.316365348684272,-0.213636008513006,0.125668100547221,0.325482232815054,0.0963446863637635,0.102462250440198,-0.0376198584378851,0.227579701674712,0.528911419673329,0.389636175894779,-0.234009649175223,-0.0777261263082041,-0.231699203477527,0.272889987670716,-0.0745288072566576,0.490040102416578,0.0662498949558307,-0.019348503300424
0.0565942052653028,-0.0104498046633411,0.141536858031879,0.0919008944445163,0.451131275657738,0.0651333157851524,0.289056190148025,-0.19357896564695,0.113578616854028,0.303797706716943,0.171366295864003,0.136502079381191,-0.0295693872894807,0.237206537712568,0.50633122921416,0.406546906123949,-0.213094257844039,-0.101571439026618,-0.194158247677507,0.269813807919445,-0.054633103938298,0.464260064032257,0.050723018032559,-0.0331394598148586
0.0470771947359219,0.0402885979270373,0.110461975519444,0.0374048517733431,0.435975528940853,0.0497697148128702,0.251174957094921,-0.176292560834758,-0.102401274432515,0.27826066219541,0.246111711140794,0.172551033722548,-0.00682136742185358,0.247472172631778,0.477821523904158,0.400674654439353,-0.185753179049115,-0.121101013303941,-0.169275911497088,0.256366449385093,-0.0504266594383679,-0.430825685271859,0.0307596254155737,-0.0501570484266316
0.0234740078129936,0.103775919340573,0.0678076234322755,-0.0210238620122208,0.405285738243712,0.0286500271763303,0.180680911284802,-0.150162277698222,-0.0760558445444423,0.240379841102577,0.347558221121523,0.224069268494032,-0.0267519061389785,0.253848128422836,0.433890670821427,0.367666352857254,-0.148888107392827,-0.141161446851547,-0.136876268419478,0.22993632550602,-0.0535732754957598,-0.384237761990284,0.00978742869013141,-0.0659763147855555
0.0461872111668517,-0.0131631435443137,0.157033123610974,0.118825745053164,0.451893117373033,0.0757785203379605,0.277633604858332,-0.193533939638619,0.101486681720587,0.287158259043384,0.155689002569504,0.136455491223601,-0.0295244734130369,0.244651135047963,0.534075867220144,0.361071822450958,-0.210942390348104,-0.0730387560133191,-0.219391885774618,0.269100516870686,-0.0788196954406084,0.497282272787438,0.0602642106685841,-0.0123394424617408
0.0297006446645784,0.0513800785435438,0.113194116585939,0.0375209538556502,0.425697127104971,0.0506484343925987,0.220881321932803,-0.171590577521073,-0.0786941941713141,0.245442307378387,0.265721431867139,0.194427014814298,-0.00288063564642847,0.25467484591035,0.494505371167986,0.338876245607844,-0.172367975687653,-0.101599355821773,-0.188322825985395,0.247124183014914,-0.0827722370273546,-0.445160863291601,0.0417222177527591,-0.0284174046367212
0.017604483330329,0.0844808485933583,0.0845256265666938,-0.00066413562400029,0.404661717924787,0.0336197114739867,0.180369542817391,-0.158104056979766,-0.0636999858017422,0.223466345529144,0.327235222559968,0.225365777791947,-0.0216081649424835,0.255238868016592,0.464927727815068,0.319227164435347,-0.149195092171603,-0.116028331648086,-0.168816423019391,0.230846530300615,-0.0866088730369436,-0.411617154960912,0.0297893892968057,-0.0360705524055526
0.0416790411064948,-0.0731942739091565,0.192732324325728,0.213638700145134,0.465465791774157,0.0849784451010765,0.30402826203918,-0.213118072733489,0.118109959130514,0.30545336534413,0.0495459674730111,0.0844889174608702,-0.0516653622902902,0.225574475880495,0.568853623906118,-0.342144946036513,-0.236018281106963,-0.0371339905583356,-0.258886515947266,0.267768427054373,-0.091406914400173,0.534676322954188,0.0715041348861014,-0.00118971649783089
0.000518111990411362,0.119736553998622,0.0621082098280913,-0.0288935979018734,0.386262133085917,0.0392922597092892,0.146437295272122,-0.141965678416632,-0.0455226364067088,0.211787804907883,0.373969675581166,0.250718065425623,-0.0375046601970388,0.253478948924643,0.441058393166053,0.300202624123647,-0.139433425939576,-0.122491956192452,-0.155346782580909,0.217341747380265,-0.0868825345730116,-0.395636779324405,0.02853494016301,-0.0372937670177829
-0.0266017646479901,0.166772026208376,0.039572321022543,-0.0608713652164888,0.357995741479067,0.0786453029804633,0.102628810416476,-0.116986630042019,-0.0062585150530404,0.203363560631049,0.422347598487704,0.279959658124232,-0.0518607525852419,0.247758457465732,0.421565350912244,0.256666526275091,-0.142178867330336,-0.10958921787199,-0.150086509480664,0.20375135680159,-0.0944743621741096,-0.404333840235281,0.0497190983657539,-0.0128392690323313
0.0210655147160296,0.0383820530112442,0.139481439973617,0.0856458447394921,0.426262102169901,0.100023250293084,0.242227148368665,-0.173687522399677,-0.0775677240834141,0.251770754980883,0.206170168546082,0.167911111949438,-0.00172513989118036,0.269047725528235,0.526690919542546,0.293975077585532,-0.184539428082459,-0.0491619398883603,-0.238289222755407,0.269272627215541,-0.115779753919626,0.507317346878958,0.0634552477832107,0.0166454155418129
0.00525059077874371,0.0868120521480442,0.0920249103162117,0.0138756146038594,0.397710823332326,0.0659760785565522,0.183792407414426,-0.156274038205672,-0.0538754912331324,0.220731978057874,0.311558403263614,0.222628460875671,-0.0278843486732392,0.263339028814526,0.482744136018916,0.277496206731366,-0.154071608745272,-0.0848562787779066,-0.201863048143289,0.240604835168047,-0.11524550229667,-0.446767188301068,0.048873357312262,-0.00141883943764949
-0.0112808651667688,0.122578596683523,0.0642022252667094,-0.0240596235653404,0.37581181809901,0.0616007232504344,0.143219741836483,-0.139664690769311,-0.0328761382765707,0.203188372018721,0.368532672399846,0.254417018059524,-0.0429213914590391,0.255762017413967,0.453726690929598,0.257389607024029,-0.140763500342343,-0.0983433618499228,-0.182280929127234,0.220426376692295,-0.113965439402359,-0.418657513313276,0.0468407331393767,-0.00624877568891407
0.0322891028029903,-0.069754825697316,0.195010302829231,0.253986377024269,0.460941127013839,0.0948816444404282,0.30135887661148,-0.212147572612293,0.130863155068419,0.296745756650626,0.0116597888523319,0.0636514708652677,-0.0497432511448969,0.235641738934708,0.578956741152041,-0.307970078875158,-0.221444542033806,-0.00110951669532202,-0.29309786958291,0.267623105396307,-0.112901878591232,0.560655744974141,0.0569604534034126,0.00795279476979168
-0.0513522473315822,0.236928234314619,0.0202344632319082,-0.129608499690416,0.31356353383948,0.182219664077551,0.0328538775379184,-0.0696427784879402,0.0819664044928795,0.213430270218957,0.47363580493455,0.304754751235494,-0.0357868184227226,0.224830217032231,0.391338827463061,0.216230011644693,-0.179732318361775,-0.0694631299430932,-0.112815019817087,0.182369948737512,-0.0725045675569299,-0.446633794580837,0.119557609493584,0.043787716923495
-0.0373264266146408,0.180382810357,0.0452940074111513,-0.0640731554893829,0.342174199962574,0.148580267694482,0.115941748797403,-0.110240359414465,0.00533359789647228,0.209283623777926,0.396222876090765,0.263926084776809,-0.0566561258418964,0.260545157653353,0.434662533199232,0.203130117295999,-0.15395121425491,-0.0503784943105056,-0.199925462396205,0.2313800335421,-0.136722755029906,-0.458783587566235,0.0889786018506788,0.055321723490762
-0.0457635480085219,0.207611825171808,0.0256590254605374,-0.0949971886785055,0.331672412631708,0.134240801497924,0.0638802974887145,-0.0910995239560487,0.0406351721693929,0.205545201388337,0.454556435267175,0.297851913526423,-0.0506458005970938,0.236680078757391,0.406272215890517,0.224349104784806,-0.159371079851679,-0.0876715401003316,-0.137790534037821,0.192168263636234,-0.0906266680829269,-0.427032492076086,0.0852798969947449,0.0198864270513956
0.00867215362973799,0.0626398635195647,0.149010422407781,0.105421385242226,0.414675948564639,0.168768037892361,0.255639996428721,-0.161863427759933,-0.0828941638066855,0.257428600925379,0.166240701297688,0.14021690149183,-0.0149324927012334,0.299586850559616,0.520822207013676,-0.252377640371624,-0.180483963998919,0.00911620205494047,-0.279903393139865,0.301003345285041,-0.148403745950455,0.555255959849461,0.0714943169608509,0.0609093984333549
-0.00582047539445943,0.095862004191333,0.106765307528333,0.0380865399449799,0.390249262521181,0.135047038365016,0.206971954678913,-0.151267405761919,-0.0552173557016562,0.232528915322743,0.265918295885145,0.195070900786159,-0.037212906381341,0.2866372622897,0.496094541577775,0.235207644963862,-0.163418975838037,-0.0266777796473511,-0.252011242786408,0.273253051530376,-0.15147420171397,-0.505357150893842,0.0707959121245069,0.0518525047495095
-0.0198913546954481,0.132072146283635,0.0687234866547094,-0.0189067347509552,0.368564311108981,0.104893228834325,0.152746268704623,-0.135225742229281,-0.0279189190493356,0.209512306147511,0.351730019058162,0.244248747761075,-0.0493342167482448,0.266522915390954,0.462464983629727,0.228190864674096,-0.14862977006836,-0.0644655473208987,-0.212196976523284,0.237952611063606,-0.137375590926482,-0.453666746727964,0.0658247224169818,0.0301164250478071
-0.0589463194672906,0.282013634366219,-0.071991661637969,-0.158000505581862,0.234714243293901,0.262022395697791,-0.0906189661477785,0.0273951649548639,0.160900898644227,0.25560207860997,0.454186232372969,0.276695480254868,-0.059891026101526,0.292800995386932,0.344486107948845,0.259569594620851,0.310645242120432,-0.00731280376445215,-0.0476166246898493,0.0980430098054352,-0.0357053661086971,0.433650773585812,0.252683541761027,-0.0237804238097774
-0.0497993675132076,0.282273387661009,-0.0511359317071235,-0.178914807643327,0.262714742063362,0.266361393192076,-0.0559772631665756,-0.000684252003288804,0.156159803343072,0.2512661375945,0.4734579423918,0.285681453516828,-0.0268362776458657,0.260311508876363,0.350689476419233,0.255302535389993,0.266522665547583,-0.0210046198634987,-0.0423732409853005,0.136711986778567,-0.0255221134915398,-0.460013934555155,0.223047258560274,0.0256577297165862
-0.0441557395267397,0.273651065611634,0.0355790674538749,-0.184585439791093,0.281913201850671,0.260196800965591,-0.02016473514506,-0.027225534580681,0.141325638959831,0.239380378614201,0.476867187653065,0.291341210813479,-0.00851348098741775,0.234049514317377,0.362097739418123,0.236634486961255,0.23028252743528,-0.0276220516271281,-0.0605834869114903,0.166100290002456,-0.0353502891901108,-0.473744841506381,0.196455790175413,0.0641352048733058
-0.0429512039043224,0.248051287130657,0.029522635184288,-0.152225155276486,0.303013849154159,0.239538628599885,0.0476163930958082,-0.0635386736843254,0.0823928790320609,0.225694860714454,0.446188404100621,0.278224265365966,-0.0271498698807831,0.242653773590534,0.389968662641309,0.200508468523693,0.188199263717462,-0.0176924234715237,-0.139618147363169,0.214969291972277,-0.0956817795024891,-0.484473115991283,0.158674659364866,0.0985743672754929
-0.0492990930608704,0.256513697749685,0.0231742795561643,-0.160616935082917,0.298402276003256,0.223985425401871,0.00724943508870444,-0.0508948626715931,0.11637436260411,0.223142041600988,0.4797165357291,0.302635122495744,-0.0171083830646366,0.219408599104531,0.378076371175313,0.218185390076342,0.201491221608802,-0.0493693116882046,-0.087210052447592,0.174874615406678,-0.0537173678713963,-0.463777710083629,0.155906860900835,0.0627081639966492
-0.0267637829461272,0.187607693341944,0.0825863942888275,-0.0330896253311766,0.348860421967283,0.250338058394551,0.183137911308103,-0.112179829686502,-0.0406409259557493,0.243048368035161,0.292564152124071,0.181398203270726,-0.0651296394955958,0.329867849125794,0.434475681658907,0.190072891811457,-0.156187151378605,0.0473867296088542,-0.272711515342465,0.316896797873468,-0.188479696392708,0.536490214776566,0.104650210645583,0.123072467956968
-0.0377885082673968,0.201813686811301,0.0532920640406218,-0.0764149845075845,0.330663463011278,0.219082652027229,0.132342723244237,-0.100556365818444,0.00181521679514339,0.225237782631423,0.365507167587425,0.232720485733504,-0.0603182651236559,0.287938228269863,0.426564004538755,0.182649996512023,-0.160765879993979,0.00677960080544607,-0.231796617672543,0.26978058870559,-0.163584178587526,-0.501304817605949,0.117784661736981,0.108073586883232
-0.045055467392848,0.219662066230822,0.0320070126591799,-0.109789213679892,0.319956918811325,0.19633193209125,0.08010820331587,-0.0857841777006347,0.04455062999006,0.215438236571125,0.427831401618739,0.275371360572188,-0.0472945880331986,0.250415228818609,0.410729515088562,0.193293849776745,-0.168723344055359,-0.0337462385773107,-0.174785716295294,0.223402442746883,-0.121524228955157,-0.471132274955875,0.121949758376475,0.0803910788679864
-0.0128567188896072,0.129064879688888,0.11247679304075,0.0378318729738255,0.379557566560572,0.211250164804356,0.222223857394235,-0.137821150980733,-0.0645677907292464,0.247101217387805,0.233589919362456,0.162660730406542,-0.0493800375120218,0.321732685653929,0.476350835455544,0.211078172265335,-0.161788224983077,0.0312964348356214,-0.284869196093325,0.313454157726455,-0.179222011436189,0.546573098219142,0.0814405504692407,0.0959697789183079
-0.0275641786567656,0.153261201763436,0.0755907290048671,-0.0184199024286222,0.357121737823857,0.176783812326057,0.170575797909047,-0.125900780422954,-0.0298313206990767,0.223616795220768,0.320192266137386,0.217096468007804,-0.0589941926181253,0.291456062286086,0.459882742828256,0.196528784187506,-0.155900693502449,-0.00826809662237548,-0.251740281011153,0.273461230401505,-0.168740399300497,-0.500808070925013,0.0893164029895663,0.0827480494088899
-0.0154759662148671,0.319422597479274,-0.0762290249310747,-0.181496622661129,0.174960929798703,0.274747567565115,-0.14000767642496,0.100500871448271,0.144050261048893,0.268918573379024,0.433157127140189,0.243507358529666,-0.0925924183770287,0.317551410998169,0.302876447739035,0.272873912299424,0.388200539644563,0.0845807560389326,-0.103306642086364,0.0415878958820184,-0.0902330658499606,0.380578177317264,0.326611880054276,-0.0474781397385883
-0.00831533333189124,0.326593652224431,-0.0632217705334076,-0.204763806601146,0.204113591835787,0.299462739408426,-0.110796061053686,0.0795355914953023,0.14671408187003,0.284468053038993,0.455994566412077,0.244692631743676,-0.063009917122643,0.316169469889038,0.306496701531467,0.29117171813793,0.345146299019384,0.0694338546089283,-0.0762444498534395,0.0997091553627825,-0.0634534640803114,0.430902755110727,0.306390189733153,0.00335704001119968
-0.0180775780709712,0.317895144495356,-0.0592073414250918,-0.213809814143716,0.241089435571134,0.315383444019547,-0.0672576689747165,0.0386130547573712,0.142119793343782,0.281501419102505,0.457969301975829,0.251376308730084,-0.0292035151327629,0.29948836282711,0.323094292315275,0.280593951758604,0.292185658128695,0.0455809431503189,-0.0646754227209867,0.153619358154807,-0.0467882181705841,0.474015263015892,0.278234159569622,0.0557404283020311
-0.0226541230136012,0.29851683909956,-0.0492288674290523,-0.217905155349282,0.263257804713787,0.310468679830388,-0.0316153436126494,0.00159938620298504,0.141914559331772,0.264769350295209,0.459424439230174,0.261494091633632,-0.00252928052678297,0.2669205413845,0.340146032161521,0.25894118917277,0.254309598684395,0.0231192215024333,-0.0622246620564285,0.181712525684724,-0.0397577373508353,-0.492138512357131,0.249226273504108,0.0900842650677699
-0.0169809729142857,0.28661610003749,0.0477096304492919,-0.214115062498445,0.278038008418413,0.322405317687313,0.0247759990698324,-0.0275516844323341,0.101287289414474,0.258735986678896,0.429256384586545,0.240689899344422,-0.00154809186472736,0.278196258325667,0.352026691373774,-0.234718610799859,0.214971869935125,0.0448289225319355,-0.112298480347431,0.23996360266328,-0.0778856349164225,-0.516896873380159,0.231114087737766,0.140831140509661
-0.0228372519759542,0.286608093405311,0.044477656997396,-0.216751916965909,0.273788290331268,0.309162483458342,-0.00347369518377094,-0.0192457740586776,0.130682472018215,0.254775171378786,0.450724797595488,0.260400024768266,0.006143734171808,0.25521425241565,0.351046180689188,0.240766227258236,0.231407924095746,0.0216414932865377,-0.0790130338105902,0.204071972315452,-0.0507929877771808,-0.502859797071729,0.23450199393314,0.115877720750564
-0.0219488929693162,0.267755955344966,0.0566932847734863,-0.158229033644565,0.30290607745744,0.317263972052715,0.0970156294214378,-0.0596354856017094,0.0254470725897271,0.257671256317564,0.374376142417664,0.203011820735642,-0.0413794390073141,0.327915964607012,0.369819218617084,-0.211512428667906,0.176694071649013,0.069958926598737,-0.19713454557369,0.302966068365513,-0.145841182345347,-0.532738951279101,0.179714045127365,0.154864548262183
-0.028633150342418,0.26607387066592,0.0430480832120023,-0.177919081361992,0.293476525685979,0.294571644914209,0.0574962369435682,-0.0518558641373051,0.0731391669923121,0.245353294924846,0.4183333768846,0.243601921265649,-0.021563593596778,0.277763047043418,0.374228576132534,0.209565753326811,0.19383010950697,0.0324226502134027,-0.152151178170015,0.252270750577993,-0.108282356618258,-0.51370728377517,0.193696040390566,0.13762552844024
-0.0349577612366784,0.268821238541282,0.0353103350646895,-0.188150437082188,0.288100919410839,0.276762754688,0.0186418486958225,-0.0416606460170881,0.11331341336324,0.238918387031498,0.453014498728754,0.2730573629162,-0.00689115844321827,0.243503005466567,0.370376106864389,0.218701735638218,0.210264313362025,-0.000577022313698904,-0.103535440429735,0.207046879128156,-0.068572614220438,-0.495087326144581,0.197056782352228,0.108627931113764
-0.0173114866516772,0.23363430427108,0.0898042862646673,-0.0621607421668517,0.345432278893329,0.317072121218387,0.181852282830496,-0.0935588088691268,-0.0546641221905305,0.265923520079132,0.276254927887027,0.142906363039833,-0.0652205019796065,0.380191867159639,0.389374025392881,-0.210883204501393,-0.150471556730884,0.0971059020983542,-0.268823959675828,0.361175587713532,-0.192929510988707,0.559117354090805,0.111444747278319,0.144279907566982
-0.029070894210467,0.233142482394021,0.0640976233300246,-0.0994622442637728,0.324044049382074,0.28559434985072,0.140868616381202,-0.0865212994803347,-0.00974730109999548,0.24743697392924,0.339549182662179,0.194742115507281,-0.0600962644256859,0.330301689207658,0.399541275519553,0.192071298702828,-0.162099963498673,0.0596792768307628,-0.241715589437735,0.313183593612215,-0.175346381291262,0.532534614269896,0.138581795992991,0.14283348645058
-0.0370497040043121,0.238816516434644,0.0432499087469718,-0.130746841037904,0.310374319402311,0.25926022354126,0.0941158535648108,-0.076088199847565,0.0379344390951819,0.233448634589719,0.398020829636442,0.241460494747132,-0.0446884109714358,0.281799568829973,0.398750503056128,0.18926915270563,0.174691287690949,0.0200243468265156,-0.195893100962652,0.262522447980843,-0.140522665199619,-0.507171358977699,0.15407883840341,0.12677564108767
-0.0135132096416756,0.180744285068577,0.117756872722515,0.0147001494556336,0.374799455194549,0.282955397480032,0.225555331259779,-0.118640607983595,-0.0802744094578207,0.260604076193342,0.215016949258292,0.130667702609548,-0.0571633755929245,0.367347848753508,0.433324557084732,-0.212953051638654,-0.152410431000577,0.0808091552413321,-0.294145401850618,0.355410136486445,-0.192239788616117,0.569046442358087,0.084656503550039,0.120466384065206
0.029374874976635,-0.0315462816032097,-0.00647037751497325,0.0471069526482774,0.110939139909763,0.0446761403581543,0.363978723610861,-0.348076503805709,-0.347123206869558,0.43778612473542,0.142022749564303,0.141809912314978,-0.0141678160904055,0.388869209421312,0.1359759104126,0.0539903569385849,0.0225786509775595,0.069344961340937,-0.524525153161332,-0.214798286971276,-0.233448081484709,0.132311432591355,-0.0680872479390526,0.0614014084181686
0.0485160927922039,0.395884842491653,-0.04464933917439,-0.222406481809028,0.160259371400866,0.291305491506828,-0.169347076754524,0.165083946559709,0.114311633428725,0.295432377231957,0.463531369844674,0.207971559692977,-0.098973331374643,0.337377125043083,0.240507806592155,0.33594895911438,0.366975299440437,0.178991250741789,-0.121464184784157,0.0312225677701812,-0.107098856854254,0.37124172563696,0.330679179104082,-0.0180610379575683
0.0159457750622114,0.357212430031584,-0.0632491790226695,-0.201631272805376,0.163369905194075,0.280819112939798,-0.156362307638387,0.137123779944902,0.125632552231639,0.278429158438558,0.441080685088638,0.226024366492797,-0.100751189857347,0.322578636324918,0.272494527449513,0.297486558781445,0.392864960260016,0.135940139282658,-0.12556520035707,0.024990224625248,-0.109771837398432,0.36377161361419,0.339389470290327,-0.0398311525126102
0.0379107594541686,0.379233631477825,-0.0494829005742744,-0.229389240706643,0.178211241212989,0.314751539800505,-0.139755571059546,0.138152973880751,0.122293044848679,0.306734381244989,0.462763596770945,0.21463810828971,-0.078340520545668,0.339844694592121,0.259499834119408,0.330726222728527,0.355126056226035,0.145499065453656,-0.102754638815447,0.082615422428278,-0.0872267841459902,0.413259408238873,0.330812505145366,0.0129855003439237
0.0312600295993534,0.376095101965379,-0.0545145824818753,-0.245863605325568,0.212210519938485,0.354921609464112,-0.0932565382893422,0.100523147192429,0.111610732768358,0.321997906683548,0.455553024373179,0.206535455824059,-0.0437763183112643,0.354334176897409,0.268617974911492,0.33333181321906,0.300568142977668,0.130330177158934,-0.084561876178824,0.167052997265868,-0.065892487756518,0.476492544440767,0.315941265364432,0.0779402056378599
0.00880001610360905,0.334241312839227,-0.0557543056242247,-0.246266565772648,0.247766011591624,0.35593515032347,-0.0323864114589967,0.0323323785443353,0.113142174701944,0.296261527920997,0.442585227874523,0.220942269750943,-0.00804194569611673,0.320056349769805,0.306348792890629,-0.292516867121662,0.254497234848995,0.0861312795589869,-0.0805893041089723,0.219214727128686,-0.0571632265940321,0.509771053929874,0.282412472169272,0.121715576973838
-0.0106392808750757,0.302399237220587,-0.0507359226630157,-0.234043141011706,0.263183489380893,0.331700688356853,-0.0154577476395864,-0.00060371691506082,0.131750080738921,0.269490985954225,0.446053092676142,0.246215709727925,0.0085805749736327,0.273202127707286,0.334987805796889,-0.259178300585709,0.244030512733636,0.0446432887187562,-0.0725009797227785,0.20794896259946,-0.0471252172197008,-0.507824388130022,0.259885271829513,0.12213390906435
0.00317454363299366,0.315963324317426,0.0569930286607597,-0.23731336384544,0.264569839930088,0.358782170941153,0.0129821632277691,-0.000748128001548677,0.0877079105310634,0.28482938810907,0.418743140991747,0.210609966979941,-0.00495732174000124,0.322691537740666,0.320763203416354,-0.268327753952523,0.22147154766539,0.0864602081061854,-0.10904967814027,0.26196432205933,-0.078883846538813,0.526417972474558,0.258486168776026,0.151607539487652
-0.00741438934157824,0.302058746140707,0.0517900424953269,-0.234438655965322,0.265771212101749,0.33847785359811,-0.000680327523224054,-0.00600149751263498,0.117721670850447,0.270658172752777,0.435997091475021,0.237038142239949,0.00699447144697803,0.282805367113152,0.335334970489338,-0.255906933921517,0.23382119177348,0.0552368826894189,-0.0874628966427339,0.227074635466525,-0.0590778969261556,0.515435589781729,0.257679918216587,0.136534103556462
-0.00932098182450658,0.294745057998775,0.0559994695116765,-0.205979018295413,0.282895827051402,0.343191411442171,0.0535364130314642,-0.0305918065859787,0.0595218208963307,0.271177536404619,0.399388398533675,0.207175884548909,-0.019503554454424,0.325255707074709,0.342873561700991,-0.24007623033557,0.197069738737128,0.0793724579552159,-0.148956808696152,0.286195943022535,-0.109976084035423,0.531982321130006,0.222266695182501,0.158514898329098
-0.0137487119735534,0.275244393692749,0.0744650014001468,-0.131575929915294,0.31942201598688,0.344433210510358,0.132786561766302,-0.0650976888328911,-0.021891851651036,0.273509458614159,0.325160559235456,0.154850417085602,-0.0570113807280197,0.384002042061388,0.354406867873677,-0.226133049272282,0.158446839812545,0.107081687891031,-0.227541613124746,0.353527473502708,-0.17162663489479,0.551745368765198,0.150820606111686,0.15779472110074
0.0700104246962388,0.425588669288957,-0.0310103275996781,-0.225977595636701,0.146609884949554,0.273556170243145,-0.203936864988492,0.186513027978494,0.111496501882081,0.292215417994881,0.485202807794488,0.191929821254105,-0.104990751905113,0.354516478251244,0.206438900713441,0.366658503797171,0.328687402404131,0.227112151359276,-0.108676225021475,0.000649502345926731,-0.102579449543425,0.353510128885281,0.301758520491773,-0.028309826589067
0.0787057626238168,0.424234558961516,-0.0276740037841639,-0.240341745215792,0.157545115756971,0.31227012744037,-0.174825541331744,0.181484949421602,0.11070797186917,0.321929606224352,0.486343042212338,0.188725586465946,-0.0853556384048263,0.365589271968301,0.209571564625015,0.378003170466279,0.320103943270196,0.207849549688695,-0.0944240511950995,0.0678981776434751,-0.0829683707070012,0.404683857977623,0.310534093891067,0.018447325292266
0.0689286008647526,0.419897115935257,-0.0381917553026194,-0.249359713074109,0.180952996565784,0.351100397844443,-0.14005424656851,0.159945368426168,0.100936602922305,0.342338730941399,0.47088984299545,0.180469040174361,-0.06530115863141,0.382341088706223,0.219083586028745,0.376651404926686,0.299716802566917,0.190843743703536,-0.0864041729661838,0.13493985495227,-0.0711300266701484,0.453991829152807,0.317303141462895,0.0645004373426685
0.0712547034392893,0.416884457522697,-0.0420530372577346,-0.265361355913958,0.190677045244442,0.377486562612501,-0.111447351164081,0.139566961354364,0.0891509169157197,0.352725090125623,0.461045427241201,0.169768029164532,-0.0462086493108817,0.396499718354992,0.21544174493384,0.381327350662575,0.271643062361787,0.186550210353151,-0.0764506332743385,0.1902960941347,-0.0595745024654975,0.483545270398451,0.314258032888804,0.101082469473868
0.0594806169415038,0.404591376461127,-0.0511488520040927,-0.279488563097316,0.209795211483397,0.407667825072083,-0.0595662313723946,0.0920693149252182,-0.0594701504525765,0.350569424424533,0.43076317770153,0.141709995622451,-0.0322631482740579,0.43072808554885,0.206032686813075,-0.373846050933657,0.210783591037852,0.183671458913301,-0.0708805344758687,0.278134353863126,-0.0589057607317897,0.513185589408834,0.2822865808752,0.14244516535591
0.0563623687752519,0.39882468482214,-0.0502014360515978,-0.272961539843389,0.210798206472082,0.39457499548373,-0.0696836842927676,0.0971413759365317,-0.0767581921784396,0.345495417480815,0.442786105208872,0.16335503035018,-0.0308517820209694,0.404726024629726,0.226287482710314,0.365192589388313,0.237891991711032,0.170164537091724,-0.0747628793041777,0.246061134231308,-0.0585982274758487,0.508100097129385,0.29661682661442,0.130391487210179
0.0271054793001543,0.355955795428908,-0.0587692481441588,-0.258536035220825,0.244472499752407,0.386806756995264,-0.0152437212452644,0.0386471566703427,0.0743490677673656,0.315587222224555,0.421305673756639,0.180260492110319,-0.0160354069429929,0.373236643327865,0.275056742159202,-0.314751320629546,0.223295413155996,0.130097035088011,-0.0961097534134075,0.273680315959825,-0.0733130003055948,0.525778250154656,0.276115682078988,0.149638440357095
0.0627574100299354,-0.0235821697074334,-0.044587371708585,0.0561383105146121,0.111340649314578,0.0484083450376226,0.438502373346354,-0.312263348020561,-0.399685505029327,0.463076182560292,0.110602380874295,0.122918066657721,-0.0177292608024593,0.310182388681841,0.115279964395448,0.0539278512972993,0.0119306112467858,0.0590402413209953,-0.583245238164487,0.208216791691459,-0.237533829988446,0.113704192340627,-0.0443967574757861,0.114907711143307
0.0894094740031668,0.446681665181872,-0.0175813930450411,-0.224765517064923,0.122810384867692,0.25433286271513,-0.251307991483669,0.197035431301003,-0.127940630974934,0.290817948585199,0.514030789559319,0.167247845548359,-0.097894495830894,0.392078982379523,0.161403413880532,0.401917610271986,0.244646850270882,0.277596456404185,-0.053670985994627,-0.0197749107056196,-0.0676177397214713,0.354918705907392,0.246531700990749,-0.0270498512040466
0.0901237669926376,0.447603853282194,-0.017599149767272,-0.225770064575005,0.142056943102757,0.298974056857926,-0.217993476017189,0.201266632794553,-0.116369849362833,0.327475125034436,0.501981310572503,0.162928554485795,-0.0902206900151133,0.402548769843277,0.170162020481645,0.405272949700969,0.257550117375867,0.254027523264516,-0.0621699779773327,0.0499734530888488,-0.0649153009235433,0.406135415703963,0.264601578058252,0.0153716230939575
0.0935015585818524,0.444884746624467,-0.0192737213073259,-0.241163611136554,0.155089052650599,0.33403569808566,-0.18285872747006,0.191819974655885,-0.10477763512468,0.350032342706208,0.49315947335102,0.160848791117759,-0.0754516171738118,0.407692976345356,0.175954437935016,0.410079790820037,0.260621716782268,0.233814183295443,-0.0631749227589797,0.110194195065967,-0.0571806989692494,0.44143276592119,0.280575834327714,0.0522178428831093
0.0918904437043527,0.439393041927306,-0.0254759863119639,-0.257891637481113,0.166596053813061,0.363878443216512,-0.15022506027998,0.172792804736397,-0.093149633288219,0.363181478815278,0.480832800850065,0.155271045303884,-0.0588934783629779,0.416784880914214,0.179023774648019,0.410821658613933,0.250234208501089,0.219529000889134,-0.059274088437446,0.165378036484232,-0.0489531303351051,0.470033911046405,0.290060113074716,0.0860292142586368
0.0881580896269008,0.438338662465528,-0.0205376797376033,-0.268528904998493,-0.163500577569078,0.381426354483188,-0.136958350347883,0.151702140379032,-0.0850688411993983,0.373362689764956,0.477854957466654,0.130614512236755,-0.0515579896057022,0.45482234133527,0.14825219177595,0.424840800516526,0.187996442303774,0.2214306489365,-0.0257596847566165,0.221221696912076,-0.0261629442047759,0.488564662434369,0.249752126302137,0.108801265103896
0.0853300707506943,0.430731173829388,-0.0335971892572529,-0.271716050965207,0.178342724940248,0.386060364151706,-0.119055921133397,0.147533260393856,-0.080990586708521,0.366156766247638,0.465713039856704,0.148938546176009,-0.0450601789422764,0.425528262589955,0.182907495487703,0.405216511948613,0.233881749644122,0.208130766519605,-0.0571180524633209,0.213030101016773,-0.0454102067911875,0.490430425443154,0.292314451088437,0.113101924963877
0.0688743360825212,0.422198380618952,-0.0368347908045837,-0.279804415958142,-0.19142500040357,0.401331153876448,-0.0902798621848255,0.114338824807515,-0.0670289298544997,0.361846979162427,0.450830617037782,0.129977398827331,-0.0433618032996529,0.451162391403032,0.173448521296469,0.399647669847744,0.190734538328361,0.201079082952027,-0.0460844938377695,0.265405700313527,-0.0434932244044337,0.503576622627042,0.260454098581174,0.129843542497915
0.0789531549053186,0.424627762189665,-0.0384017462668298,-0.278655158350308,0.185496082831388,0.397149082542108,-0.100205740759473,0.129626484237399,-0.072310927327342,0.364570934764695,0.454874154338497,0.142416213264237,-0.0391296853805449,0.433595251677235,0.182925652448938,0.400237034659834,0.21842736588094,0.202598042276351,-0.0552303362462228,0.24206977973388,-0.0448121859105888,0.499693720750387,0.287159076367059,0.12686928992104
0.0864314019320187,0.438383866154118,-0.0199446399935415,-0.204956515874299,-0.0842556402526791,0.224102134676553,-0.309402925994571,0.189504445301693,-0.164310972444408,0.274197487271503,0.523952180212519,0.143670703387755,-0.0846911364642963,0.431045231182381,0.122029261995829,0.40665998371353,-0.150901715938625,0.313099661706183,0.0231494761377776,-0.0546247314818385,-0.0194739334609829,-0.3512592607168,0.18858915305321,-0.0357339966277695
0.0964628950200412,0.44358141158371,-0.00915003208518009,-0.199155344648113,-0.102766484842922,0.273746154952827,-0.273675574490966,0.203675708537995,-0.149484525600701,0.326708020768803,0.518829490040711,0.139196528725646,-0.0794351702057052,0.444290343208867,0.122755808473197,0.422262565549218,0.164291370194453,0.28709522762169,0.0118645554695902,0.0296642958558711,-0.0135477373841991,0.410320840370633,0.192694708723875,0.0087010114731836
0.103735966197286,0.450864738299077,-0.00661860759340455,-0.2235544875668,-0.129297051331189,0.311523979986612,-0.223531434529505,0.203872854251901,-0.121631681742713,0.349262107322764,0.510966943095368,0.146381851583391,-0.0772678776540393,0.431694548483813,0.141460786887549,0.428381256722638,0.207315649929332,0.261327392738652,-0.0245890971281866,0.0871183729902683,-0.0316916746988301,0.434442625830294,0.231080534322014,0.0386761482206769
0.104381473813146,0.441479282849084,0.0033255957686341,-0.203956956434622,-0.104183808228757,0.30243860955684,-0.247931036644505,0.200390880673194,-0.141429308709634,0.357998009241828,0.51837750068529,0.12857808136394,-0.0690255774844161,0.463162315081933,0.1043307828557,0.440729287612519,0.138867374384471,0.267359829653419,0.0301466238793023,0.0962820906932155,0.00993890631560258,-0.444218728923905,0.171752054855429,0.0396405139704508
0.102968352450496,0.449235311004077,-0.00625435938073095,-0.238169641167786,-0.138133306641594,0.33814588655157,-0.195902818199247,0.192232659291649,-0.110746048992022,0.366012347030029,0.504560255867116,0.140072687318398,-0.0682793541413814,0.442418738416359,0.138223337706207,0.434598099598677,0.198689416791811,0.246298453774625,-0.0199243604501347,0.137829956722519,-0.0236372489699702,0.457767595374549,0.233796356194678,0.0652380525864726
0.0750514275901686,0.431372565045508,0.0336822669531343,-0.229334063274744,-0.111206247541989,0.321170107325334,-0.212274703096741,0.167739851360303,-0.132721888382149,0.377701675693607,0.521700238912716,0.0909470268161235,-0.0835162914983482,0.496592193504754,0.050679896795878,0.459405403111181,0.0673966243740355,0.22580504726101,0.0834086399907305,0.176704338845883,0.0395576987970606,-0.444018154820347,0.0985718231088931,0.0556930714673902
0.0919504445183874,0.439396099148851,0.0121278611917888,-0.229370294607759,-0.119494180712949,0.332863168002893,-0.207824524164049,0.178011579492112,-0.12482799732468,0.376168580714515,0.513639459303417,0.112899541319033,-0.0694757528344321,0.481117636807396,0.0890485584968224,0.450785268215792,0.116634579236505,0.240466518763698,0.0425427026349597,0.165882105319429,0.0182123902966564,-0.461213536618651,0.156545521939354,0.0657140975663887
0.0974220661264325,0.444680712365199,-0.0142520757654773,-0.256923160923261,-0.152906812119968,0.364940362680158,-0.161474117669338,0.173211379850725,-0.0954407356685327,0.373371988193072,0.490027291289342,0.13718363424408,-0.0579823699588121,0.445706249325078,0.146375267428063,0.4304407030104,0.2012193496836,0.231054501793213,-0.0270539225957633,0.184411727945729,-0.0260970508540208,0.476485156081207,0.251022695582984,0.0916409299260488
0.0593782701136442,0.435713402268788,0.0226176763815536,-0.254374603941929,-0.139404809911795,0.34620896368102,-0.180965788495294,0.148609717961487,-0.114983077268058,0.374337339465684,0.508209752832542,0.0836988848768601,-0.0875203353258209,0.501585156580504,0.0636251862597587,0.451472931030381,0.0819336134370156,0.21640894249227,0.066320066934388,0.2140488079544,0.0197796543820819,-0.451645954181842,0.116952320323481,0.0686704780051643
0.0779151034083873,0.439430078485473,-0.00750175090663041,-0.266926044742292,-0.157501909021203,0.375044420273271,-0.146903338701322,0.145987083580725,-0.0909192588537975,0.373832601388298,0.486912533599695,0.112363609577867,-0.0629275232933401,0.478194716652915,0.118740508739249,0.4350567879821,0.14488914429956,0.221981111474972,0.00532965380740708,0.230612489989267,-0.0112324445588527,0.481432257888106,0.202231597151994,0.100029477766423
0.0680520523449516,-0.00417776610478142,-0.0250906791359131,0.0814163301628039,0.0922770565844346,0.0967277664744172,0.478858849834193,-0.248170277683402,-0.356496529949388,0.406445850106822,0.0739955161908724,0.139587670008146,-0.0442809224482948,0.310917828549975,0.161027238941592,0.0441160201299199,0.0363623714577973,0.0852283525708654,-0.60654403592875,0.186119011811754,-0.243518098667106,0.18343176738096,-0.0185206596159784,0.159601242470298
0.0786037113022414,0.411964569875899,-0.0204001229604681,-0.152617084606324,-0.0497176217656489,0.231578898793903,-0.344773630200749,0.191714439243107,-0.200942956438582,0.302923041074004,0.510775507784555,0.116807490562015,0.0636704396890841,0.47622602834994,0.0835088873610425,0.400153835655063,-0.069741303106795,0.311672977301488,0.0990072722096724,-0.0244194845995326,0.0427313880603629,-0.397676505043909,0.126951759841045,0.0113560072806873
0.0954209022040526,0.415952538352091,-0.00270295072334335,-0.155799913267601,-0.0624382164136358,0.263245702929963,-0.306248181367796,0.199841278979919,-0.183177661147322,0.342278519603647,0.513581909165252,0.117423371516117,0.0586716352578538,0.480560775733963,0.0761428188100383,0.425419767982143,0.0751199699205764,0.284044680270589,0.0908889199245193,0.0432652199583518,0.0524136817568415,-0.431316626014384,0.115485968616948,-0.015077895585083
0.0990051242136263,0.419237368513545,0.0138401010093588,-0.171475611670719,-0.0748374501279751,0.285592459922799,-0.271922487835849,0.195156669033586,-0.165920223206283,0.365547980698956,0.516935735196606,0.110729552942154,-0.0605463782830079,0.48730016524426,0.0640626642664973,0.444402043016707,0.0687655580300609,0.260997200107179,0.0901817865911644,0.0982595623171906,0.0570484511359331,-0.44654679739192,0.102142613769759,0.033902131192418
0.0775195484837059,0.418047599050505,0.0386808801367153,-0.201339976683147,-0.0897768796038195,0.300004999102867,-0.237246797379686,0.175079546469761,-0.151490537774534,0.37968250147668,0.52264986871247,0.0889931754232312,-0.0791665440755468,0.498533067468638,0.034856129366245,0.459604693908944,0.044213098350301,0.226981722988231,0.108694382778233,0.150036408901479,0.0614744926082022,-0.43719389621553,0.0690733672786618,0.0418888567137806
0.0904145359076757,0.414989013825786,0.0279595376625698,-0.179335675216089,-0.0777728729226511,0.291071152618086,-0.256448297233443,0.186202828602658,-0.161177918456884,0.376228114511392,0.518764973225321,0.0990849734529131,-0.0668814497217787,0.495024820261025,0.0447641167020985,0.453635460185757,0.0490283632764255,0.242149144847621,0.105502932744015,0.125359529819836,0.0663091017553076,-0.444374721613412,0.0768799332896024,0.0379227082289574
0.0464949884936674,0.368343733981007,-0.040218039037265,-0.104894620840396,0.00554709074361896,0.192757129166355,-0.409778791068011,0.172712532919742,-0.250694985839447,-0.270914909581373,-0.482672674948348,0.0943150032671917,0.0467293761865311,0.497489257023099,0.0510845161459361,0.351516124474431,0.0125268324782882,0.32348919680867,0.180523709829579,-0.0775043025892774,0.0928077105202543,-0.379581771241554,0.0798916555564299,0.026750116444085
0.07028219498297,0.370272246101029,-0.0236215924392201,-0.0927614679165787,-0.0107463221657076,0.225705588305719,-0.367798693851272,0.188542834557459,-0.233807298485422,0.323266499967612,-0.484283803446161,0.100361008747822,0.0382118660999624,0.499246204070206,0.0451062270930878,0.385369805575132,0.00148689728866356,0.290359692771806,0.169758595230973,-0.00960553759330036,0.10901190581833,-0.420032562462092,0.0585465226074977,0.00288199189135178
0.0752859254588736,0.369418827234609,0.0122876187629659,-0.104812673520742,-0.032143441637849,0.251342538749903,-0.312460629073401,0.186759061257525,-0.208290188391232,0.370126444927103,0.490238645633088,0.0873012227127027,0.0476288791113882,0.505747136400598,0.0154701845261926,0.42625895887727,-0.0106709846787192,0.241447380870375,0.173040204687276,0.0688010445246582,0.120789536634894,-0.433597636826541,0.0159354532476138,-0.0120668081667094
0.0881800694996641,0.388101327447886,0.00294843567514593,-0.120279094580408,-0.0387893794094857,0.254374985027014,-0.317351735012299,0.194332337430856,-0.202502791541127,0.355832256981732,0.50013203877178,0.101856797432772,0.0468401537277484,0.497124870771688,0.0420538626549546,0.423353218678496,-0.0192891518886304,0.26578878193148,0.142409380349004,0.0543805448533006,0.0972782760419105,-0.437740483442317,0.0565214071827334,-0.0151356663412954
0.0698158553908269,0.387428021697835,0.0370447377017272,-0.151928983325355,-0.0588833588066544,0.270131468818395,-0.273277824189021,0.177837740172324,-0.182176005821568,0.381701436426872,0.508846770893381,0.0795308359784916,-0.0697216267294962,0.505356112640722,0.00913222349861459,0.449942630482412,0.00402006042191753,0.222322746863611,0.15491596639564,0.112712058282957,0.0986230151110784,-0.426350780925784,0.0203921956663276,-0.0203300327840519
0.089581429216404,0.39725978248182,0.0214965255081124,-0.144234172353803,-0.0550466362783225,0.269731748387998,-0.286488788756055,0.190580758243175,-0.183639832256648,0.370862447642222,0.509824257082548,0.0970574607026931,0.0570875705154255,0.498056346140491,0.0343158145118291,0.442731297314066,0.0240587861499212,0.248127818161422,0.132503160615996,0.0934241089541053,0.0894531484737593,-0.440074807369838,0.0513113334128019,-0.0245802299673918
0.053795862823047,0.33658311413946,-0.00316011072906501,-0.060234863489962,-0.00902709433398625,0.234249127034546,0.338599505591963,0.179595963104351,-0.232426454532158,-0.369981552575181,-0.461681359136908,-0.0758089651902094,0.0375735295627414,0.513120785776756,-0.00228165129037273,0.401654918685833,0.0438583109680347,0.231860517280652,0.214311356093302,0.0434207513545588,0.152189149440486,-0.425735811949659,-0.0168717818231892,-0.000326569947194162
0.0679863166648083,0.349767161331364,-0.0150550492793973,-0.0668163177653611,-0.00606937873947691,0.231573009249355,-0.353074336600372,0.187249782465299,-0.235839716535513,0.350568446251102,-0.469796031274728,0.0903151986999998,0.0306339954855704,0.506342801613434,0.0207434132988192,0.393355845704876,0.0282313289398107,0.259461667797761,0.196078675281639,0.0216780272594817,0.139669812010446,-0.43159381873058,0.0150555444141998,-0.00339556532065217
0.0372446009696902,0.352786663057696,0.0447178409348969,-0.129574806220122,-0.0479713029705805,0.251205834331107,0.281174999665648,0.162100907371423,-0.197049149336446,0.393521940047112,0.489219133478106,-0.0526991781876959,-0.0779793786277407,0.513871520761456,-0.0274123843537902,0.444709133252906,-0.0277546874777898,0.190700399872633,0.200182872894121,0.104235427727539,0.123214395486348,-0.398570642565498,-0.0298475069626052,0.0018486930824584
0.0559048765965946,0.354503891006977,0.0228142407400846,-0.100957057253947,-0.0326748154421138,0.248972222477457,0.304351968365445,0.176197415332023,-0.20912559988914,0.383014165986498,0.482316776864945,0.070639949153658,0.0566140377383917,0.512482746442895,-0.00823310329614339,0.430147350226983,-0.0278760368391934,0.216482969951283,0.195388129306405,0.0806012854835947,0.132020861115566,-0.420608238547545,-0.0142076792782843,-0.0044744129086104
