-0.123035137208776,-0.0211754418711642,-0.0520619639803071,-0.290923884143863,-0.0532081045076557,-0.0123681570748501,-0.13080101185001,0.2901572891077,0.49957753592894,-0.111238458690159,-0.186929186785531,0.22297710816507,0.0179219795620536,0.305202343601734,0.0199104251729527,-0.0483733027511867,-0.138667599564055,-0.354407334718164,-0.0791667081585254,0.0724469704531576,-0.322574041375019,-0.0123085171733182,0.335921082992165,0.0684980153050088
0.114336652560021,-0.0140486138992873,-0.0277642037782874,-0.272222370449613,-0.0419169715186197,-0.0410758930600811,-0.123919019587793,0.310974545067631,0.506596368180418,-0.117778780086629,-0.184371089001041,0.250331334291971,-0.00246937625387032,0.287019518587379,-0.00916074105538859,-0.0213854093811527,-0.130743593194318,-0.34698276396397,-0.0702800416110528,0.0539131802821621,0.311882431566734,-0.0135703870739347,0.320227790105284,0.088448412883629
0.106613445259633,0.0111286788705228,-0.0233351200653176,-0.306255119105208,-0.0982448417201434,0.0797440248365027,-0.038567996518433,0.209651830316841,0.491397449696474,-0.0828489685880552,-0.156097373329516,0.199937521648921,-0.0440159884476896,-0.376921192957647,-0.027722357945762,-0.0342411774765374,-0.157406240542391,-0.307820825338767,-0.146803583469418,-0.036849863108835,-0.372948161906861,-0.0530664382250057,0.35083088817896,0.136552330112745
0.11506825206557,0.0272771861545036,-0.0145449618815258,-0.313240512076098,-0.117351065023652,0.114792003802158,0.00357621037641777,0.172930613102211,0.470728443157079,-0.0609463895359127,-0.144628658047017,0.172321257343169,-0.052468741683465,-0.409125981175697,-0.0267760169989095,-0.0371294912502643,-0.163813079833538,-0.29064585792995,-0.184268828897962,-0.0741993532531128,-0.402551331401801,-0.0659846662112594,0.350943525870079,0.157852089167639
-0.107830661928196,-0.0210837700546797,-0.00573446724653519,-0.237798498344309,-0.0255083747646817,-0.090526749246841,-0.129082339475312,0.350229967441631,0.490812562556744,-0.125160249148649,-0.190420475318409,0.287272279069974,-0.0418499225430818,0.233747943337396,-0.0314792903360935,0.0217039157621331,-0.103634748968226,-0.339173634586632,-0.0362735108779779,0.0608246328024883,0.271571664627707,0.0124915022357689,0.2856037042791,0.09680738123357
0.158855154960902,0.0547032114547248,-0.016893428604814,-0.307009394203653,-0.217218534121896,0.160180905377931,0.127882949366906,0.101882686464605,0.36562347998771,-0.000204434031859361,-0.0823384964147045,0.106526037153523,-0.019378495156917,-0.476819382701558,0.00699847170186983,-0.0644824409702295,-0.109239776908627,-0.285755382339466,-0.280831724501385,-0.138759663238309,-0.448325234142105,-0.0600178140567546,0.322076617395756,0.200060010560252
-0.0966972807499149,-0.0403825870379462,0.0118649055931724,-0.213354030191329,-0.0299617252318674,-0.11460520921127,-0.116661933558429,0.362279392571433,0.46536930916009,-0.127785188147787,-0.182323659938658,0.318800059225436,-0.0719988038612584,0.190830363966971,-0.0588105976483359,0.0646141477480669,-0.071361205204385,-0.308158696941964,-0.00531218869725222,-0.058862013620198,0.239840640343918,0.0300539255643054,0.260145897648762,0.11405814387274
0.158820765133353,0.0378401567164,0.00640762676006796,-0.326467935543942,-0.142469899203989,0.121033265585569,0.0580681313998179,0.114351085035933,0.44484776797194,-0.0321271855767817,-0.094593101651091,0.125520199018141,-0.0523138463916588,-0.457781269628271,0.00376440850859137,-0.0797141469525705,-0.154854908447886,-0.279950555688908,-0.217963873524164,-0.11850197011724,-0.465648798227053,-0.104929274046622,0.354533936448965,0.179143954962862
0.0722837920953965,-0.0744428002091072,0.0346135954865743,-0.240160630415245,-0.0777482633623195,-0.0909429135529278,-0.0629592877993422,0.310395025680972,0.463529947401651,-0.136175910878751,-0.117599448310693,0.353882405285301,-0.074449538410648,-0.226938762404903,-0.0923728204166414,0.0658887149704017,-0.0581626717092216,-0.227270472585705,-0.00626574873548175,0.000672636053520013,0.289370961399545,-0.0243062547080991,0.289479264306026,0.152585457572095
0.171136716858862,0.0189834510320932,-0.0284302637855693,-0.340759943058255,-0.103176125567585,0.0896582906932417,0.0217645311242077,0.102918920903621,0.489557489978005,-0.0444097811681226,-0.0740145553669529,0.131579826834651,-0.0659142060550854,-0.455493210186653,0.00967335533450217,-0.105625840878702,-0.168773306172795,-0.266971196691012,-0.173689273033488,-0.121956145915967,-0.491307549164096,-0.154672914370983,0.369913205347615,0.172709250991369
0.0576339028807987,-0.0859047413398626,0.0449079342624702,-0.263393908617054,-0.110979927194554,-0.0709272854069954,-0.0307689732513546,0.264850131619013,0.467751526109458,-0.140489542850259,-0.0676219978046395,0.362653362188382,0.069150664377053,-0.271455371640461,-0.100564816980526,0.0419127963349594,-0.0570620847829916,-0.187459919068316,-0.0186014936322594,0.0430433961259551,0.331777655074616,-0.0744421865091419,0.321332446208631,0.173244915864621
0.135434865271477,-0.055872409460041,0.0386223395851472,-0.335067667327708,-0.123266462006194,0.0689113148517647,-0.0346991924638301,0.0835325098160088,0.555981374927399,-0.0803129398316952,0.0195710399863838,0.20103415556726,0.026040815634044,-0.477700887062518,-0.0151985599362825,-0.174970395225717,-0.119975622215357,-0.216850975153185,-0.0970168742129607,-0.154205023501935,0.510680592843918,-0.274972555067857,0.368153164846443,0.186861361810026
0.16685762846212,-0.0656803032529287,0.0340227497592496,-0.330710631878553,-0.132079396435776,0.082228005973464,-0.0352077367407969,0.0521157042798382,0.546444671718268,-0.0743813260831937,0.037072485418085,0.160945329490509,0.0246668386827699,-0.490292796136014,-0.00275083467268189,-0.203666082481231,-0.107361862712987,-0.223413394231608,-0.1060412721443,-0.154345209120511,0.521956868079654,-0.295230982258552,0.348293515165834,0.182122416259692
0.155849222979163,-0.0800789696421822,0.030050932326368,-0.324327537377248,-0.154602770022974,0.0880258006155059,-0.0350055980125744,0.0476427277324964,0.54683518445716,-0.0793307691154264,0.0586892287131662,0.173510173519583,0.00758644050465952,-0.497589210947684,-0.0110118145984447,-0.216264009971326,-0.0895539592040091,-0.214133410610819,-0.105313057541544,-0.164884693056114,0.522352400680291,-0.309139755478628,0.339840876284104,0.186681990542866
0.17825337332694,0.079950610109006,0.0110270125607992,-0.229873126299363,-0.332669791210415,0.0461500190171749,-0.285314761737594,0.0341528086952082,0.228535798185052,0.0798987069322957,0.140544444486744,0.0999468988660446,0.0723011731994612,-0.44095438357609,0.00819442824576722,-0.120655155437658,0.0921089406021026,-0.267546838101885,-0.274264074536395,-0.20909144382734,-0.410425071544991,-0.0765316225741834,0.238533962592982,-0.269400336029003
0.191623733716308,0.103777659205697,-0.016609025226978,-0.203625120130026,-0.317146815480795,0.00229649333100234,-0.302060248435149,0.000331534364182259,0.211966600854087,0.0225371368251194,0.212103073212201,0.0884961374725396,0.0806658215535172,-0.444146494745222,0.0253112556130847,-0.188363930261135,0.0991610335399837,-0.296361887560864,-0.264335758091837,-0.220791952571697,-0.390649581157554,-0.0962281562953044,0.243779452345051,0.225288069365285
0.203138505702731,0.0879022624676973,-0.0129267774911137,-0.258624949626738,-0.283005407583081,0.0604423879232916,-0.239257325140552,0.0263326646849492,0.286037104287827,0.00401127666473552,0.11409388514415,0.0827074003138894,0.0427277661544331,-0.487711493424647,0.0314512998857134,-0.169324282034836,0.00969217286939496,-0.3070329922182,-0.287223233931554,-0.20105422809748,-0.447541852843095,-0.102998225624608,0.289066231030821,0.212215253140956
0.234419821617661,0.104126155025238,-0.0606290127336257,-0.223025545197044,-0.256896222362658,-0.0223912940600987,-0.246730612743941,-0.0286830869602244,0.269821536465274,-0.0652116964997933,0.236030117999902,0.0671184113701912,0.0690522575112286,-0.468568271711214,0.0473627282203921,-0.255447119275635,0.0401450954266215,-0.332196606716001,-0.251387408251372,-0.221523544100901,-0.420236335204825,0.140092210618391,0.281986194609778,0.160147845218873
0.20303666490935,0.0407234891639257,-0.0275672609759904,-0.323459996543621,-0.16572225444731,0.0859670444537491,0.0969489526714253,0.0635074016060036,0.421906533845067,-0.0330845208503824,-0.0125008069150613,0.0941285567407967,-0.0333948523409762,-0.483408503300246,0.0284026721406436,-0.13851945330591,-0.120835590301777,-0.289245281624107,-0.226848217111972,-0.150562998066974,-0.496725938813788,-0.142403656759905,0.349456134901286,0.179522995117534
0.242107846961366,0.0685447024460284,-0.0553088053577749,-0.277253184524635,-0.211297460688524,0.0140200447672053,0.172466403383164,-0.00262932996445279,0.350987713796031,-0.0628401137045612,0.142053833165218,0.066942410660524,0.0226743609396353,-0.487757782262925,0.0469530870311939,-0.224834604040383,-0.0356951351270834,-0.319532012730806,-0.238941499002256,-0.19355757438936,-0.474394496969206,-0.163161414397929,0.319618566245744,0.161665604638078
0.214936936555104,0.00269106532400998,-0.0450934350807984,-0.339552907924419,-0.115067627424967,0.0641385029436493,0.0321971926607952,0.0507096028399782,0.477698131362793,-0.051727585559861,-0.00799653643244639,0.0946853341059201,0.053426796678319,-0.474163767167526,0.0314853348858395,-0.160456694135965,-0.143227519955394,-0.267853406112902,-0.169409410709591,-0.139112467798997,-0.517791011124506,-0.201043620672321,0.361875998744183,0.165716286086514
0.241405490531451,0.0296175732950486,-0.052635570547049,-0.316670709197976,-0.157181074068585,0.0378876485256528,0.0936140465261524,0.0179070675410272,0.420978278882861,-0.0609323326183699,0.0618538664410598,0.0683017970460501,-0.0216602851625454,-0.48513929394302,0.0452109850793572,-0.197593629266565,-0.0988634648201457,-0.295071619131765,-0.204355741737336,-0.160214321147031,-0.507251920358361,-0.189578658298137,0.346869496531546,0.158889881605897
0.20603493258237,-0.0301902080650283,-0.0440570937277994,-0.339703624360582,-0.106825020491729,0.0646861903317762,-0.00670907621838793,0.045835420669411,0.51223163344523,-0.0627418763280344,0.00744617011129749,0.11246505787386,0.0496132524235008,-0.476699089037912,0.0219269705388512,-0.178947859795545,-0.135065747428046,-0.249928429364941,-0.134124976681617,-0.138712469393664,0.52270384340409,-0.24699894735989,0.357536202176414,0.16731094648595
0.198362425847238,-0.061431665076176,-0.0310559867434435,-0.326352223119105,-0.13815127304916,0.0749470906059521,-0.0234050239383843,0.0320231642751964,0.524848648785157,-0.0767120161770624,0.0503184851783628,0.127328550601531,0.0211184213181778,-0.494101474087692,0.0117954060403508,-0.217816107302378,-0.0960939737170665,-0.240729904084643,-0.119817214069146,-0.143552956020818,0.522099443052236,-0.294820557716184,0.338343234580717,0.17292890645018
0.11181442773567,-0.0786539964297518,0.0394844248367618,-0.326327448469044,-0.161467110904583,0.060043434937669,-0.0223865973733819,0.0850691807636529,0.545554836616184,-0.0950901091448009,0.0534233232098353,0.233736631109042,0.00608526447722794,-0.478773224194545,-0.0329847709220618,-0.176378028154899,-0.0926025165301521,-0.196575724800239,-0.096645353138637,-0.170288309416353,0.506365859128308,-0.280295339717702,0.362891844737248,0.193815499036404
0.0837121084258412,-0.0864622305744651,0.0475488470899759,-0.320467602501662,-0.171266538384694,0.0264555850515625,-0.0072143857771844,0.117707114655009,0.527066009402622,-0.113325586858825,0.0490045742619133,0.280286817204057,0.026873471732095,-0.447133269969757,-0.054169652655211,-0.131448484002956,-0.0833070070596462,-0.178939766249881,-0.0868232606626905,-0.161947639222871,0.48145533691257,-0.243889742869056,0.371083818710386,0.196394562072605
0.181398427447395,-0.0958452205583307,0.0130315146139024,-0.307596594239694,-0.190711699982616,0.0980577223160124,-0.028715372058884,0.0177271879492405,0.525427785514434,-0.0856818210607521,0.0991599869200052,0.145700781522192,-0.0194839500092508,-0.51376323044355,-0.0050020336887378,-0.25332809224575,-0.0495671401553909,-0.225059636736552,-0.121264315729794,-0.16107001221065,0.521541860755041,-0.332088677745554,0.306597168984648,0.180991603484228
0.144919127470327,-0.102745808768069,0.0172181704016686,-0.313394557707547,-0.206016542622962,0.0947032561882319,-0.0242384132191089,0.0376084096200165,0.531325760585118,-0.0888835446556547,0.0984064877600472,0.187901160936724,0.0294632836794443,-0.511118890820351,-0.0185700826849391,-0.235438907035415,-0.0513695047017162,-0.204150248991969,-0.115824694338667,-0.173138314650117,0.521288371012225,-0.322731767751142,0.324795547046069,0.192600960047735
0.107810909523352,-0.111543380725508,0.0326428158681294,-0.315386908036403,-0.217761587174793,0.0676112328425389,-0.0057574012894494,0.0615333643424306,0.520382408009475,-0.10222449795309,0.101812608370676,0.237020976694811,0.0443773478594804,-0.490622571375074,-0.0406346739495611,-0.1959083692328,-0.0532189954885981,-0.17657969136562,-0.110931318138543,-0.187840452920929,0.512065632859856,-0.294211687778437,0.341139963424292,0.19814565360865
0.183455809205058,-0.121874333298516,-0.00972014654654825,-0.285428414611644,-0.243103038256498,0.120410667041179,-0.0251222713411005,-0.00546748112462632,0.506560529935438,-0.090922293505611,0.146410015885866,0.139398367383651,-0.0600091265615268,-0.530048911969084,-0.0128630982148482,-0.286557483499187,-0.00161460265447883,-0.220621909885967,-0.138156674659865,-0.170468912830627,0.517856768462387,-0.35574253257062,0.263533012483878,0.18005020918101
0.178093808988757,0.111781795321587,-0.0407208106871804,-0.144445911927963,0.311517025164605,-0.0766927861369452,-0.321197302125519,-0.0303620755410035,0.180569230128518,-0.00982816243484865,0.323190218884076,0.0995177364600244,0.102767114164906,0.372111550360063,0.00998353724251783,-0.23009879556219,0.18163366543376,-0.29677350220661,-0.188774097481821,-0.203727667328424,-0.302666683181941,0.101342538260963,0.242293582854034,-0.219056041552948
0.181566891464227,0.14035284296168,-0.083709173660314,-0.0864810354952626,0.281192985188394,-0.13233995697059,-0.328357975260353,-0.0757008971255563,0.140761272891805,-0.0878065457481254,0.423727707754832,0.0898690193596253,0.130610052862345,0.334279559769522,0.0218054197410297,-0.302820678616069,0.210275482377644,-0.317548986551365,-0.151038261603175,-0.207978259298159,-0.233266100635889,0.107165851996627,0.232140089816285,0.157739405836899
0.199692867229931,0.114880765310467,-0.0354801844569581,-0.186903625242649,-0.305946931854553,-0.0258483888897079,-0.305436475103822,-0.0197121401379242,0.205073276298072,-0.0125468451971822,0.257727978783402,0.0843564412630815,0.0899704836990973,-0.437550273206837,0.0318744893589923,-0.22457286715687,0.108284815746493,-0.311778784776234,-0.251134373634685,-0.225579865646494,-0.372849331238537,0.105573159289043,0.246208820486959,0.200581829577368
0.21085933256425,0.131495959461212,-0.0698176241151798,-0.150171867349737,0.282248438469446,-0.0781388828557801,-0.2990238827235,-0.0552581783082484,0.19932744950834,-0.0831051575692194,0.349129091169223,0.0777751745907899,0.110262875028209,0.412179500229289,0.0350573546004743,-0.295381238126631,0.138360995291753,-0.334536458021628,-0.214911495338608,-0.21971841927827,-0.325718530606314,0.128276334083659,0.254701000874332,0.158323890710569
0.247254707531908,0.105973339410485,-0.0965040817704125,-0.193161855100952,-0.227017597282435,-0.0776917492612003,-0.230889654450194,-0.0621391753331592,0.271477892792435,-0.12224014776002,0.318686605455031,0.0690084335951063,-0.0916209368890144,-0.441166690644056,0.0488467048980732,-0.304405783645391,0.064469916940697,-0.34574405925892,-0.207760942778698,-0.227777589400382,-0.384996283178483,0.164566549283402,0.277633965165658,0.124513676745953
0.250695259702368,0.00497390089897532,-0.0587969580716339,-0.320644778673309,-0.138006613593698,0.0278143056761923,0.061412344447489,0.006378593030484,0.443086597212175,-0.0726662596857736,0.0697027877192618,0.0648547614255755,0.0258630887372262,-0.480532331353471,0.0452562367463118,-0.209134896339943,-0.102531106914016,-0.285395581476002,-0.17719940888202,-0.153962339408412,-0.513629605608764,-0.220010587399626,0.345667088743158,0.150673293667047
0.263432145847713,0.0426765686856469,-0.0818939671219208,-0.267883895461915,-0.175881013137244,-0.0293344629757665,0.130723601992444,-0.0340807354725646,0.378403387837087,-0.110526728927717,0.199055184567458,0.0647931243544112,-0.0322244564523012,-0.473278322050115,0.0469667621517676,-0.263728894912785,-0.0265995944502769,-0.321548991320457,-0.19101162356035,-0.193393979841014,-0.466077639350949,-0.210416199053325,0.316671769179401,0.132533492230418
0.0475992065729367,-0.116721676202587,0.0617334092732451,-0.292493000010449,-0.184537819468746,-0.0392836337963472,0.0213978996442736,0.172226049135955,0.460385532199808,-0.145067637719693,0.0378409558081525,0.350779298315942,0.0720356578130597,-0.354463975001658,-0.0954457114334409,-0.0338488702322834,-0.0445733042025329,-0.126533106107232,-0.0509435638679622,-0.123354451546888,0.410813345821655,-0.165964512656531,0.356122760909583,0.195284525841101
0.0449860773837292,-0.137839078395012,0.0672380730753358,-0.271634879267376,-0.179517598310174,-0.0656680723887498,0.0305389255329138,0.198798390935954,0.416260939888772,-0.153789445295617,0.0202169929731017,0.370178064800962,0.0896448009990733,-0.289695499541951,-0.113484245728885,0.021228383848522,-0.0220358837175941,-0.0931247571004027,-0.0246329739479244,0.0923625726129204,0.367374642423793,-0.118008414822068,0.327129708551568,0.187835823953703
0.239235627772142,-0.0199729673560792,-0.0503027273442951,-0.329960942490385,-0.124326151102932,0.0437316052726942,0.0238680300096147,0.0165859836602242,0.475247161829717,-0.0701350845347302,0.0447747370334002,0.0774687010657342,0.0363240113068096,-0.480590647776899,0.0375650552048553,-0.202043339061241,-0.114204313471097,-0.268437007313181,-0.154405992557659,-0.141516428424351,-0.520966687819591,-0.24260000743563,0.347991028134556,0.155972662610655
0.260688511858021,-0.0125657204443037,-0.0637134427883223,-0.300393818582993,-0.147037823893959,0.00378920581618895,0.0565359517055964,-0.0196291883933837,0.439479010013849,-0.0997881046467942,0.131647746091152,0.0672356770087127,-0.00085215023022346,-0.480529030204766,0.0390877533587387,-0.240886155172994,-0.0657890016380677,-0.290578125509487,-0.16124692363619,-0.164756131965735,-0.499237065259331,-0.251699067207394,0.323158412319899,0.139223264303797
0.0531841282955227,-0.15005766095655,0.0680475076019718,-0.293968855600159,-0.237466964382076,-0.0250415321114374,0.0510664435016086,0.120546676769507,0.431308994199752,-0.143435880552336,0.0949678138462063,0.330518868326487,0.0885051781550454,-0.379107203048471,-0.0881005811749526,-0.0684339023302632,-0.0209707170610527,-0.091177261553803,-0.0681500614035452,-0.15564778027843,0.440208738598302,-0.193749495062178,0.351047257213545,0.201633496049261
0.237315790630242,-0.048874662666412,-0.0414063811861262,-0.313993877415121,-0.143826914910849,0.0432365227553711,0.00799542646757554,0.000562644346661048,0.484187006722366,-0.0885611788113823,0.0898202358784384,0.089107776221427,0.0098899798550156,-0.49022888581923,0.025223536678466,-0.231196505343785,-0.0784129278328022,-0.264503328970364,-0.14016053358379,-0.148821881279019,-0.514291506999626,-0.283084065650818,0.322415781042075,0.154171493990586
0.260639750745362,-0.0360210170825938,-0.0547243258143481,-0.278977259662152,-0.162307579197963,-0.00647466981947425,0.0468682359134324,-0.0361499825496108,0.437091354223538,-0.122922262408701,0.180694547020008,0.0770901621806587,-0.0286678754955381,-0.48294881693024,0.0258131740153191,-0.261856591749301,-0.0268197684284635,-0.292089312096385,-0.150330910636129,-0.169796626682933,-0.480915818879309,-0.282360509780698,0.29229578755536,0.131558747936824
0.0829060702866193,-0.13956769814652,0.0444090134374464,-0.308251683463774,-0.255734955259954,0.0375387305360909,0.0265443743083507,0.068376391882307,0.477685835667082,-0.119406129695132,0.125800847866616,0.273224722254252,0.0773221318260962,-0.463824084088585,-0.0581982154495812,-0.161378885044615,-0.0281925353279676,-0.136466141937454,-0.10857068395536,-0.191816665157236,0.497045072008113,-0.265323575935224,0.343237155468684,0.202989469006797
0.0738475092044274,-0.175804129856002,0.0538441777037236,-0.300894132601308,-0.306178223023092,0.0175472494404409,0.0651501741223502,0.0454273735342237,0.416248659484576,-0.123827357541795,0.16315896521715,0.278500174571414,0.107406046584848,-0.444210075992002,-0.0559062993203076,-0.14293423576455,0.00572015512187817,-0.0906246166557179,-0.1094424717241,-0.193934671489667,0.48856130850924,-0.245139085210521,0.342521520097748,0.210047776172521
0.219349755357075,-0.0840126594812743,0.0157059018478727,-0.295308474853057,-0.185430376193753,0.0695212713586426,-0.00899162868033011,-0.00607160894650306,0.494147574050786,-0.0985225305742492,0.127594200779933,0.111383491970889,-0.0257563921782447,-0.509123518896273,0.00582478570106593,-0.260609951927078,-0.0340467712728014,-0.252398125473783,-0.136714019488367,-0.155966624012963,0.509181291226368,-0.324804736435581,0.287182300430108,0.161475454144429
0.156055660915173,-0.131697381155527,-0.00635495157154065,-0.292131718343219,-0.263724971324194,0.121460571632603,-0.018304499373564,0.00380047506768091,0.506245342201649,-0.0902732172492861,0.150335918720231,0.168334285069671,0.0707045691969849,-0.531250469095948,-0.0208010405041482,-0.274935315828921,-0.001355939088766,-0.200026526434832,-0.138492793571105,-0.184012354198941,0.523059846682537,-0.348306496488805,0.277869762425506,0.190246495758576
0.136389846801524,-0.152389137482674,-0.0102360824951362,-0.294664908631596,-0.309276312572089,0.114694637578716,0.00276895700189454,0.00138170794967417,0.476555443299363,-0.0945820812940224,0.176830902648529,0.193541818899671,0.10500729586776,-0.532798853680461,-0.0259485352362331,-0.257125139910149,0.0203804280676218,-0.175580276217137,-0.154582446644084,-0.195862510942758,0.525295190406183,-0.332969604230322,0.278778165759388,0.195723252895921
0.201672584588758,-0.115395897887946,-0.0165074873463107,-0.27309673957982,-0.245891023727641,0.104874126581297,-0.0141785252692393,-0.0160569877662746,0.487398506818458,-0.102772349054208,0.170587675040396,0.127316235659955,-0.0725478153807031,-0.530665929974711,-0.010479829066819,-0.291560706447729,0.017876126617397,-0.239637563037379,-0.150608109542571,-0.16569335560502,0.504844819507861,-0.35508159556987,0.243846356214388,0.168131629779305
0.176305966427704,-0.14138319991692,-0.0366132691672316,-0.269766207248462,-0.299555286960233,0.137188228731072,-0.0149128976791732,-0.0185551381663165,0.479724390324186,-0.095284441229127,0.189357091147181,0.147018420850278,0.10671948223494,-0.54600925890687,-0.0193458654399091,-0.299813752332257,0.0433110104481162,-0.214126734195444,-0.165053185408408,-0.17860130000885,0.513524748609255,-0.363011030691888,0.228352147064632,0.179090714085792
0.165621793319789,-0.165898119041442,-0.0647490300211039,-0.263997388335803,-0.363321036787635,0.162293587656707,-0.00641667814782042,-0.0344400964598676,0.445446820577122,-0.0882737343640225,0.224138944834215,0.152648495434527,0.155458355185097,-0.562499583444491,-0.0184983766061317,-0.303299416839454,0.0820247208085127,-0.195411354825666,-0.196434796375518,-0.187935820599116,0.517732392278122,-0.361843040060562,0.199745997077851,0.180318627614617
0.142740915577881,0.0849202036946732,-0.0695825425400806,-0.0991011207108091,0.275453266879997,-0.163533597355526,-0.309944302814981,-0.0370958615951972,0.178716184357666,-0.00627913080336573,0.365666921933997,0.132627433545362,0.0922054566466167,0.249232533278764,-0.0287156104773521,-0.192121984427341,0.237701303090336,-0.2594287188035,-0.0456470562902649,-0.164115737969707,-0.207737036737782,-0.0776667644225592,0.268722372443098,-0.239733578544106
0.157807902070192,0.131288097206737,-0.101116599247996,-0.0577131290291171,0.263621074898264,-0.16997132378824,-0.330948630267315,-0.080148241251844,0.130841913568609,-0.0850081729618739,0.442700521361306,0.106744459563694,0.123935116787047,0.269907272942225,0.00441330620614061,-0.282065585470993,0.237902209235253,-0.296138154124814,-0.0772043348657043,-0.187500156111946,-0.179203886145558,0.0853889914206524,0.250710153613392,-0.168510008768296
0.180602951486952,0.15801104408034,-0.12547919084572,-0.0438816812290264,0.241125747482581,-0.171190340492858,-0.31464506468992,-0.104210085189359,0.126579583197109,-0.151477361891835,0.487823464444244,0.0905958284669927,-0.152826359714221,0.296156190922022,0.0251320762659307,-0.344720475321941,0.218979664569708,-0.326131509203225,-0.109193030575496,-0.2099024883798,-0.181145834523746,0.106500563115718,0.231856095686301,0.1088158654757
0.187908848300808,0.16859594979953,-0.148260023071722,-0.0234008992544416,0.212333119215957,-0.186579360551929,-0.291112405631082,-0.120958482134858,0.12387897028962,-0.198994230422837,0.525059037086918,0.0861941623262773,-0.173987151371349,0.285341845343583,0.0304406112973709,-0.377343244658444,0.215191965772074,-0.335688780605112,-0.103152174892751,-0.216949431133031,-0.159952919942793,0.117604548421771,0.215098317075157,0.0678378980180026
0.215133393687029,0.149803078507674,-0.126554176488599,-0.0848099454920738,0.229777532642113,-0.151122982298325,-0.27803177043991,-0.102832607001971,0.175389797433501,-0.175940167159568,0.466850148242483,0.0788524223762002,-0.151031096141782,0.351914242967171,0.0364836230782883,-0.363971185172625,0.172485013527961,-0.348071094731748,-0.151653621778905,-0.225081363688052,-0.243698686570072,0.142593042402575,0.235236009806178,0.0896757584357335
0.198053420196062,0.162816571576162,-0.158760573626481,-0.0327298794602839,0.192699123107939,-0.188286574264476,-0.265594218771731,-0.121341463097292,0.151074719982142,-0.220224022452053,0.526941559381029,0.0915224950688089,-0.177871224702248,0.29528072448618,0.0296978109475383,-0.38182050526122,0.198248987265199,-0.341029534822393,-0.101974852466945,-0.223428772348298,-0.174374573967813,0.132569016893296,0.218662404541839,0.0552483248282977
0.240066804219595,0.114295091052652,-0.132640610824234,-0.128948777450137,0.194216011321585,-0.141765730980247,0.214698709753065,-0.0956030225938056,0.254112216208606,-0.20099248943627,0.435183375432992,0.0881854327197741,-0.136564200328932,0.387226178688524,0.0332064409135521,-0.356367491137165,0.123869213030266,-0.352487026974118,-0.146437905130163,-0.226067658757145,-0.299623458251516,0.185751072543199,0.256704297012749,0.0808217574257673
0.202622091383706,0.155308544223791,-0.165595377654601,-0.0395924801529846,0.174267835570685,0.191168601161945,-0.242980177136564,-0.118809333291587,0.17422098869051,-0.236152436071407,0.528081070133842,0.10160729375174,-0.18115822150179,0.300655489487987,0.025751232022526,-0.377825725076536,0.1866241057334,-0.342004569148264,-0.0978428549611937,-0.228971288501902,-0.182984857848585,0.144443321614306,0.219161375763599,0.0468686496351234
0.265356981335222,0.021956089567314,-0.0838618281692958,-0.227857227734365,-0.179000881440437,-0.0699373575304418,0.115590454287641,-0.061014646495277,0.373024301785436,-0.166639731581151,0.292779133097869,0.0842900739634126,-0.0752039795895798,-0.460915880597054,0.0275672808147597,-0.30402439154143,0.0369099320245157,-0.328711711460881,-0.157167525683016,-0.19377206069671,-0.418624655670436,-0.255801965687613,0.283147754767174,0.109769398565781
0.0611539602675875,-0.187161093000749,0.0806802888881086,-0.288430155213424,-0.287117894279698,-0.0295295714334804,0.0909556961508355,0.0736858871722204,0.375240689878086,-0.135973342163027,0.137566395213821,0.306232803809214,0.103280085206731,-0.373335574606258,-0.0717307840112598,-0.0721270473352882,0.00622112766763511,-0.0459104556131943,-0.0707013658884984,-0.166831938661097,0.449000890597942,-0.18792450431527,0.351483039150223,0.210779173555626
0.246879164221184,-0.0655300713255799,-0.0297401357151168,-0.278566778957585,-0.179919209873332,0.0247670564251512,0.0210823331996146,-0.0293199869845431,0.456779271752112,-0.118951745177621,0.171956992771839,0.0903741554995609,-0.0371050198521142,-0.497121602414832,0.0133276782926955,-0.266293789327921,-0.0150854771682559,-0.277946544529242,-0.146777435478203,-0.162127711590918,0.487253134504953,-0.310226544510047,0.274626306636521,0.140886536551058
0.256640213002037,-0.0368386312408733,-0.0382005604702582,-0.234693053172278,-0.196634434891206,-0.0326112073716641,0.0675929619656531,-0.052142344339838,0.404099751210404,-0.165177849867034,0.271466627805099,0.0995294615577647,-0.0821323553610078,-0.485894015801534,0.00768216823011455,-0.29498276524111,0.0504769766910334,-0.310335071340515,-0.153713898366612,-0.17478063510144,-0.431667424219413,-0.305925649665015,0.248139551198712,0.117745796626793
0.100740160755345,-0.178033951451134,0.0231898986405966,-0.301417606349563,-0.334907622223192,0.0694189272241879,0.0455666822621632,0.00616103229946607,0.43116443330964,-0.105298136192132,0.191542727472743,0.23317449079646,0.118580832535272,-0.498568690950171,-0.0352240561906025,-0.207145416130135,0.0218379205223502,-0.120834946444754,-0.143710680603953,-0.209641737221435,0.518269848556738,-0.291157105886038,0.312703214299882,0.206767894127498
0.10301767950091,-0.21520148927389,0.0381528740526633,-0.304972165962472,-0.377428146936689,0.0494796413586362,0.0856913927861664,-0.0268912041858822,0.355866255439665,-0.0931733851902658,0.221564003265006,0.221261456462715,0.141966154120648,-0.479274494345297,-0.0120555145312055,-0.177533972198076,0.046048638149359,-0.0660204981778217,-0.150234663241694,-0.211147203926087,0.521786425662187,-0.26178954921076,0.319695264115269,0.214645857748239
0.235788703637604,-0.0856132749774367,0.0153706231580284,-0.243071040102384,-0.239325196807489,0.0430997744757405,0.0229258416482796,-0.034975986074494,0.438160834242771,-0.142908916220002,0.235684485564978,0.113840248925042,-0.0958850913262702,-0.521914173391156,-0.00490343690143536,-0.303108092207693,0.0627985234816548,-0.284684566079239,-0.16415065227102,-0.156023938240368,0.459382989324339,-0.3494446216131,0.218429360392809,0.139773850796833
0.246840273731976,-0.0564726650121934,-0.00935751119030271,-0.215796430027938,-0.218865245527184,-0.0250627016224176,0.0625899433462965,-0.0519739830890782,0.394177303777192,-0.176609317151584,0.296620412475262,0.114835177341834,-0.106696989164917,-0.49479132865662,-0.00720262313905566,-0.298621009457812,0.0887122517513229,-0.31013116860823,-0.160503872113274,-0.169587765183257,0.411647850731821,-0.327251433860698,0.209738699709731,0.115837119742733
0.12870138376849,-0.195589914739835,-0.0200914099006319,-0.294574936739757,-0.388155955929137,0.119458454204069,0.0349540427299497,-0.0369949224669964,0.405102909386332,-0.0850586343006178,0.230518789797696,0.189688857343484,0.15826888200458,-0.538682490465976,-0.0122662050386828,-0.248827800425285,0.0645665311296065,-0.132087635868519,-0.186424475130626,-0.212253229914895,0.533410734263215,-0.318529057208549,0.262056050912357,0.199710771816724
0.153796258949063,-0.218603997703509,-0.0706235683507581,-0.302993313964617,-0.450437090810779,0.152674503485726,0.0277470022374821,-0.0752015459178824,0.346495738275837,-0.0590385873845774,0.265559480751496,0.157942446717297,0.212940402025632,-0.571461682189085,0.0273896799580453,-0.256047195244193,0.11879900107313,0.12530504046153,-0.231444209911742,-0.192888119220207,0.540841226481757,-0.330567864628656,0.22580241231275,0.197053173678524
0.210737915072337,-0.126655331192231,-0.0820280706675789,-0.225547148668365,-0.324472782907721,0.123945690655431,-0.000283553229900091,-0.0337306492044695,0.433008156707752,-0.126387149342742,0.252475621409671,0.129466229089582,-0.156298184523424,-0.55969532098357,-0.0167916581645878,-0.329774691488321,0.118520811429422,-0.260134409665542,-0.198205978079955,-0.149619560792629,0.468472834543413,-0.383235570019548,0.156910916640371,0.152926719669379
0.193467890849906,-0.158536915429792,-0.124966564516174,-0.231647033683628,-0.397764664316219,0.184054969355103,-0.0126840990615606,-0.044282285246331,0.411316518965623,-0.0994147597878133,0.260982228491537,0.133926920424632,0.206388527723706,-0.586161968289162,-0.0113525376951348,-0.330660718212426,0.146235916926618,-0.226045348195531,-0.232977042666718,-0.154262574033525,0.490846360835413,-0.386148384256614,0.129127943111496,0.160375799136728
0.164875939015796,-0.190943913986459,-0.0934194545171084,-0.270991537510794,-0.422914512449658,0.182098735776107,0.000923204395755518,-0.0586521347587436,0.393371655402507,-0.0728422800622193,0.255874097500796,0.148886936892644,0.206072818238404,-0.580672814108988,0.000533420105033792,-0.292615481800544,0.118385288010285,0.171828305425465,-0.233764235938609,-0.190168835361079,0.526439165879337,-0.354910530527612,0.178278995513069,0.179392635421046
0.104363492195506,0.0629346206539912,-0.101324841387305,-0.0734166927441272,-0.225678438295427,-0.223377841837765,-0.297526568449453,-0.0398458419369084,0.190906568861341,-0.00508596817810722,0.341915939399631,0.146045031461658,0.0421184642041883,0.155866863379623,-0.0667312186280801,-0.141659890756171,0.223544057577393,-0.209549733333632,0.0857423381476876,-0.127796617038779,-0.150316270922663,-0.0481218752383187,0.342241486013306,-0.242353912297676
0.121966602136775,0.111397100787878,-0.12203835659161,-0.0385762205595393,0.233351316498374,-0.206145538437099,-0.332606106306415,-0.0778344882051587,0.137658059647863,-0.0687342103435848,0.419880596826704,0.121496341417873,0.0793283907924705,0.192375077067421,-0.0271548342353255,-0.234729583778928,0.239592580370892,-0.251140376618626,0.0289368565084586,-0.151066242489702,-0.130913703534966,-0.0545339171588352,0.314726865394663,-0.19029762219589
0.141860028145781,0.154219220595713,-0.147028250350631,-0.0110492140963072,0.216776923061243,-0.199158208415731,-0.331200200924402,-0.104653808930019,0.115324653769222,-0.141828795859788,0.484815121785401,0.108803261392565,-0.124045476541203,0.22553003471109,0.00038481134100186,-0.31206494962648,0.233373613184805,-0.286941110540842,-0.017328363070163,-0.180534943414617,-0.124611944189209,0.0711729207870196,0.28449458573887,0.12479302233769
0.164706577958367,0.172562511314265,-0.167782283758161,0.00240595991017909,0.187801178890893,-0.203419892280169,-0.292999903497431,-0.120895710832703,0.117155367146304,-0.204325768072407,0.534957611165384,0.106521616239039,-0.173479518387597,0.245299807509775,0.0217017339722516,-0.35964207399345,0.221662567649208,-0.317495029373967,-0.0529364243151454,-0.20978435535481,-0.124542233960945,0.0936133712486319,0.234581075695205,0.0659610443573642
0.175798837694086,0.169893981431769,-0.177349733484267,-0.00294009954470753,0.162235122677006,-0.203708998347439,-0.258119428656754,-0.120331349778769,0.143930616910111,-0.236467694225945,0.547440235666421,0.115409612098101,-0.189396505660485,0.258909038314814,0.0209741833398813,-0.368758813740514,0.207099489096632,-0.325587503660091,-0.0633924458973381,-0.222272824176816,-0.135732900496873,0.115546902108903,0.219880402580738,0.0434636220666809
0.237670584223343,0.0859087885890017,-0.129438472584175,-0.130560329734105,0.172454074289014,0.153659831961682,0.181886208980537,-0.093084567629687,0.279737354421887,-0.223627368913187,0.445063452517539,0.112409637522694,-0.141736586422347,-0.388181024941246,0.0174259496898532,-0.339014789491002,0.126461762519396,-0.345934655361071,-0.127060094545645,-0.227275420285348,-0.295150128020857,0.210938573717628,0.245175313155809,0.0721810662752871
0.195924867574574,0.142143378074937,-0.165375177556717,-0.0478699133812369,0.155022728910539,0.193713835508444,0.227025452241916,-0.106880642089014,0.200269945537338,-0.242690032390541,0.522690101619053,0.12950934828813,-0.178992548082203,0.307898558721977,0.0157755975774115,-0.351917323739282,0.178440846643345,-0.33452199802416,-0.0856394214010002,-0.234128651052211,-0.191805264813129,0.15173413356969,0.227587994734205,0.0491238423310649
0.238046071569306,0.0348890473475583,-0.0889455473841975,-0.162722733946441,-0.177195276663464,0.125207685520937,0.145780693011612,-0.0739536526757713,0.322530702702732,-0.21569039921442,0.402971711045996,0.131189640582637,-0.126837271592593,-0.429915805313709,0.0043640649116875,-0.308758501693008,0.116333213766011,-0.336130845089669,-0.135538156826313,-0.213240108671399,-0.332180347074247,-0.252942607976173,0.238114005094844,0.0870739723618845
0.210215974731812,0.100535680734398,-0.138755570839321,-0.092182180082263,0.155732848563417,0.180335133200298,0.196801420076734,-0.0918151919179221,0.250555019316138,-0.241739383247018,0.489653910428636,0.144353995394139,-0.162031373984284,0.35673829611121,0.00635877328367988,-0.326368312326121,0.158518458757441,-0.337591948864039,-0.103658090140743,-0.234944677351907,-0.24149849224324,0.193043885470963,0.230175455084838,0.0611254185040361
0.238660699208243,-0.022881212081436,-0.0319004962739054,-0.186451370449246,-0.20236158026191,-0.0766276584691599,0.102846813564486,-0.0583108221864413,0.355501084660065,-0.202058614145468,0.356053835483769,0.134760799899538,-0.121154693192088,-0.471975564331435,-0.00868629489831521,-0.29463747762104,0.118067064636064,-0.325033847786264,-0.153501692183758,-0.186768550544639,-0.364192918983638,-0.302779009205165,0.208660679861777,0.102067626686387
0.223125380199453,-0.0937889468211719,0.072830012146191,-0.188925424355373,-0.290821006359869,0.0510972105546449,0.0393973667852089,-0.0376154723824618,0.388345614902861,-0.168541515395843,0.314917244504204,0.140823365906575,-0.164077475283912,-0.54291845980151,-0.0178855932100183,-0.324329382707503,0.162062952529183,-0.300789937896861,-0.197175710816103,-0.145887092028433,0.404319391910033,-0.377813620356609,0.133702267319289,0.131948920324888
0.232601923293691,-0.059727389374602,0.0161159440859217,-0.192202749578051,-0.236256366950606,-0.0223873813131541,0.0714339681926764,-0.0463285896030866,0.375642960035851,-0.188053075821504,0.330264382978271,0.138482327477337,-0.132515859672531,-0.505341011882967,-0.0153349193916447,-0.30233129238406,0.133322648514567,-0.315018229374828,-0.17087557067842,-0.165602585298097,0.384027167940165,-0.340600614918776,0.177677719568413,0.116613313932737
0.215318882946199,-0.120540939090749,0.135414132978519,-0.174751256495845,-0.35507526017908,0.120470945260446,0.014493590478827,-0.0369582881284226,0.37692407486189,-0.151492976911978,0.317983893499519,0.139875890415621,-0.21475087643357,-0.574271139485881,-0.017482520678799,-0.34388420067244,0.204968275147968,-0.286133249661416,-0.232601522026883,-0.127870153330766,0.411640512393254,-0.404137692739086,0.0735781006440819,0.13657219503179
0.0675505427253656,0.0971118556067292,-0.174494872750543,-0.048549112800143,-0.164382843969707,-0.247630412404776,-0.345331463505337,-0.0772636302503875,0.160128011248068,-0.0267171944958245,0.281569259402516,0.120178841406991,-0.0403213223336091,0.133236349630077,-0.0648507625793072,-0.131932397223912,0.105646341022452,-0.16370801268085,0.178137218317267,-0.157465605857644,-0.145694312240327,0.00358073878753018,0.474405790020879,-0.183560352486917
0.0993538439166328,0.139004466844302,-0.184368390113643,-0.0210082547614988,0.172554167380352,-0.228918707492175,-0.351880292094556,-0.0952051041118479,0.131383436142922,-0.0985500460734568,0.389848499759115,0.128654277028849,0.0415311995043498,0.173890236316882,-0.0186331038246643,-0.219427545485509,0.154338821119984,-0.227663802009741,0.102160507112504,-0.177530463398602,-0.129989843541557,-0.00478577544119232,0.408703860558155,-0.138931342426488
0.129243093694697,0.173116013734055,-0.185113696056435,0.00804126691354224,0.165453423673444,-0.2079262597335,-0.321984979992583,-0.108389824057522,0.12295625350592,-0.176524965210588,0.490089917012349,0.13026226374804,-0.127179207473015,0.214199765655556,0.00560474104819575,-0.307331578353943,0.195464318397315,-0.275215231717427,0.0183963342068419,-0.196378456307175,-0.119326541205946,0.0504312416719109,0.317036717381526,0.0873237894150932
0.146787103617233,0.181296590819187,-0.184796179956806,0.0159006699429061,0.151992385595946,-0.199598842148825,-0.284528531717537,-0.11143907805398,0.131692212309875,-0.220953611333075,0.532617668454589,0.132021092740177,-0.171202429847488,0.232889959894309,0.0109662292100927,-0.345123859179518,0.208498233748984,-0.297004640010252,-0.0232855643393862,-0.207353047458838,-0.115761658725006,0.0848584811286834,0.26076148790771,0.0566024398975969
0.158665476386484,0.174288394627983,-0.181476426133351,0.0017295713203021,0.140361200800785,0.196426825714211,-0.257025881902044,-0.105097298248367,0.157414368707849,-0.240522839783071,0.539274602480186,0.143011236976608,-0.184332997199736,0.256140025131747,0.00914344427389788,-0.34745804091688,0.201329977212501,-0.306759219610301,-0.0445311113491628,-0.218951021262015,-0.133789643983867,0.110013463919001,0.242161900929568,0.0461572282205649
0.158322424350462,0.137589781960909,-0.149203194686068,-0.0514573966040172,0.127253770366924,0.189138480533119,0.240595928639026,-0.0694482240175219,0.213745635559507,-0.235974371577021,0.503330304025128,0.196445502017103,-0.162230097377158,0.325657851426017,0.00161195150687347,-0.288970299399444,0.175279364089565,-0.30410852968802,-0.0657629531898011,-0.233116268388335,-0.19516092728278,0.144574037181004,0.260999576785573,0.0626981325452391
0.160333009983685,0.159840014722372,-0.171231788873126,-0.0222433349540623,0.130913733708263,0.194488927843574,0.245585095517054,-0.0896612260464879,0.186263704622068,-0.241788410985027,0.52554486503386,0.167270593577985,-0.177510383917689,0.285603360639683,0.00510866230816347,-0.322401080928664,0.186675021237535,-0.306286603247,-0.0541480018380116,-0.229020246606604,-0.162481897125888,0.125156504059779,0.249161093312925,0.0504908454447903
0.185431800988898,0.085948171781259,-0.114639311853986,-0.0956622805645002,0.146250838714756,0.17555560984315,0.203643869341297,-0.0669069684526294,0.256157502795824,-0.235199097914095,0.47936178210867,0.188888545328472,-0.152840169990041,0.379153306662713,-0.000129351556276276,-0.285038612261676,0.166472793561379,-0.324198677535956,-0.100883724635018,-0.23200449960254,-0.242704583832681,-0.19871887789036,0.237112125868568,0.073796338463106
0.179887194726473,0.129650315804949,-0.156822032707436,-0.0519420052860002,0.137387899039197,0.198079000525222,0.220410033583382,-0.089800454498369,0.21489734721721,-0.245824370910647,0.519333472375236,0.16631305554308,-0.175744353484225,0.316255314584627,0.00466377135363787,-0.31621740523049,0.178100508223687,-0.323394128130743,-0.0766593415707664,-0.239345948771654,-0.192007949723216,0.155983755806463,0.23062889732186,0.0528706047693782
0.209847850958972,0.023386696969109,-0.0595590529799449,-0.143357364475617,-0.176208295463965,-0.131190572146511,0.156458646484739,-0.0567794337927195,0.304064123198529,-0.224588075103186,0.424738628533925,0.174833650427753,-0.137258710423309,-0.439667966411559,-0.00848645696894418,-0.281198695681104,0.155365762088001,-0.32987365955362,-0.135910443858681,-0.207984129808046,-0.299050234606808,-0.26356002473161,0.214118368495709,0.0906734049512711
0.20866453749543,-0.0522154701229061,0.0477085107239605,-0.153633326033446,-0.244084981568342,-0.0316848653917758,0.096064556121262,-0.0333775538098946,0.333802595237388,-0.204397351501291,0.382204457385128,0.178798461690573,-0.162142762549096,-0.518068119167313,-0.015599858711301,-0.300012317797394,0.202096864996887,-0.324626919784834,-0.183021267225806,-0.156789795523552,0.329539333086918,-0.354535407841476,0.135666717423217,0.119073088767703
0.209421970280291,-0.0171937248662727,-0.00798703755642573,-0.154461009215972,-0.203954008420638,-0.0886197905018802,0.127428952715075,-0.0434047791694361,0.322453164358714,-0.21576497977803,0.398312648063793,0.179045802277134,-0.141507970383515,-0.478550433737408,-0.0155103383262494,-0.281010641544774,0.171722535391344,-0.327140625480141,-0.157648930419154,-0.183682097390022,-0.316923892269366,-0.30768261642712,0.181682655914683,0.104457211120063
0.209968223510862,-0.0846753357991801,0.113919339625032,-0.143427774598473,-0.299127068704569,0.0395851921862505,0.0614891406302853,-0.0284952151210956,0.33126111188175,-0.187975326798465,0.373581168233377,0.173271281304427,-0.202519746247254,-0.559336491550712,-0.00660454912398458,-0.327364312627349,0.245053516409114,-0.318208022166109,-0.216239952145974,-0.127208996527606,0.338868760197975,-0.401093283642818,0.0697686783132783,0.130415905416281
0.0934352286114915,0.171858586654047,-0.210957595092714,-0.0262105381894169,0.116917250003603,-0.211276781066114,-0.353362990690827,-0.0835682948492396,0.152673543679932,-0.128179563031112,0.37247298171715,0.164940215473892,0.0432775207057693,0.224695680851788,0.0115877790830567,-0.2043855053431,0.0737374477520171,-0.222487269840437,0.0901556590317644,-0.221922269968565,-0.186629164944703,0.0190774669259624,0.450563243457703,0.0874131406246835
0.122024171329537,0.181079251471816,-0.195905077929323,0.00751614598059546,0.132507416555595,-0.201176107725354,-0.309059336406454,-0.0968133046308071,0.141559024930961,-0.19104348388568,0.484697204498881,0.15732397558346,-0.133437224565181,0.227831592865496,0.0106925175233462,-0.290694785545909,0.167734689340282,-0.266815728913221,0.0208711475307503,-0.211066593541379,-0.137093545955804,0.0445924044426687,0.329017567253761,0.0696542579207232
0.104517391598374,0.175032510339332,-0.192370510381726,-0.0253421125933155,0.102853288117021,-0.194548386988225,-0.319189857221957,-0.0666757837873798,0.173705262517985,-0.16487640152493,0.423246854928251,0.198167767466404,-0.0955877990176439,0.264418004611534,0.0195676022399595,-0.221240678426082,0.102921202589901,-0.242043444217617,0.0311020389933206,-0.230737775956269,-0.197078042086399,-0.0200178061178628,0.38912995685756,0.073270395773765
0.133199382757756,0.179335513144722,-0.1880577278571,0.004775003163479,0.124810163684293,-0.195908440750646,-0.280684597056338,-0.0919547794952654,0.155767705456975,-0.216846741652244,0.510752164202025,0.167306456130061,-0.161424876956933,0.24747827615277,0.0104407852463666,-0.305955665566819,0.180173870024331,-0.281079281591091,-0.0113160698492632,-0.218872019931569,-0.140161432676839,0.0745853291629927,0.288656023347618,0.0568009582554439
0.125500250677509,0.160374658655953,-0.166795671216628,-0.0354597289396236,0.107456734887933,-0.189836570943499,0.279297989915308,-0.0596875945051683,0.19365760781486,-0.203638320204838,0.472893094131828,0.212613867726399,-0.136858647218753,0.30179091788348,0.013529058085932,-0.24979534112482,0.145904297233242,-0.272024411084588,-0.0262218880927019,-0.234339765572387,-0.194739496815336,-0.0839238122848416,0.317619475133233,0.0675603800190429
0.143097990741439,0.173939800598033,-0.1820738568771,-0.00144272409876713,0.122878918758504,-0.194833120637822,-0.260690226366384,-0.0900897355813876,0.167406372256055,-0.2326080318292,0.52452001732247,0.170425127623489,-0.175867355822647,0.260335849967417,0.00760431320332849,-0.315443628831495,0.18750116191192,-0.291752214855586,-0.031436122604872,-0.22397510128496,-0.143187216259771,0.0974648601085134,0.262729120856798,0.0504589300955082
0.134871633876839,0.115499415859768,-0.113816950793223,-0.0824688720174599,0.11483663589624,-0.175453129031104,0.25492956024976,-0.0311830277870624,0.231263139251913,-0.208883957145066,0.456566867080201,0.246337232030615,-0.126728637308949,0.379313671689493,0.00980246868701007,-0.225301320293664,0.156442911373883,-0.286568332141304,-0.0738099877990214,-0.230019635596244,-0.233700819260395,-0.150248500915392,0.295310567245549,0.0858593386661934
0.129367862942508,0.0352038238432959,0.00716594880830283,-0.116233731107485,0.136451417495877,-0.125483627555607,0.211261605059404,0.0187237369958638,0.240185569066315,-0.212058150751694,0.43169337592754,0.29311536981014,-0.117605316748833,0.495516430015006,0.0167518773301665,-0.212143223337991,0.236013633836495,-0.308009663538844,-0.141074447309617,-0.171588836333105,-0.226513887209775,-0.285263938529507,0.210829525874078,0.127685396025745
0.162672654050873,0.0441891798060223,-0.0317647399964834,-0.121778135263791,0.155722689855033,-0.133923519001594,0.199229273713822,-0.015809712161247,0.267207812202112,-0.221490155223241,0.438129803599721,0.246349156105025,-0.133112352659232,0.463397884115117,0.0011044120984539,-0.243554843370388,0.198304935800024,-0.315701022236702,-0.131924129480118,-0.193832446624601,-0.258979435467471,-0.260741210732857,0.225982762583883,0.106805630174163
0.173993470693414,-0.0132943641231269,0.0614516113300965,-0.120350595113097,0.198540528260281,-0.0682433888786554,0.147348539571371,0.00201646702917842,0.267099093592509,-0.217760423069404,0.423899792046901,0.246135297659978,-0.156620448605742,-0.532684586523421,0.0161127244158053,-0.275898819425332,0.270334644409092,-0.332955432430971,-0.174906271480121,-0.137878092227733,0.247430528137854,-0.362077905927713,0.128604787848641,0.131619871932754
0.185695969986131,-0.0135253675115333,0.0150218935784605,-0.132203843170215,-0.200301902809152,-0.0912341556657466,0.144638720875115,-0.0266112051479682,0.295406484927654,-0.220225092073381,0.421642915292665,0.213808475674584,-0.150627945866769,-0.490861293735135,-0.0114362214385564,-0.270618868093017,0.214116643026658,-0.327960936179758,-0.162246032375057,-0.174118482810525,-0.280664089203779,-0.317852905389508,0.16102625882099,0.112391124832926
0.0507853212012067,0.169153730981866,-0.237326426948701,0.085114230213962,-0.0538234062354268,-0.198157397408792,0.389981874462269,-0.0641092042225678,0.17178361164388,-0.0471237249399083,0.155313251397398,0.155196534121619,-0.108499519334383,0.243811108499209,-0.0268189704391315,-0.077424481978469,-0.141886229430995,-0.140132037989114,0.167511326125247,0.258086822965192,-0.292382818285152,0.104107682478928,0.618422130863748,-0.0647505211523356
0.0685879331002355,0.168576207644631,-0.200570882756298,-0.080326837330107,0.0640260339756838,-0.181012344764029,0.365276791757652,-0.037829146187255,0.194580759333468,-0.0810912684567183,0.24972787755073,0.204996945650993,-0.0298141425550209,0.285633382452473,-0.0364222777589776,-0.102609696692975,-0.053456866220605,-0.174023524681115,0.0886791179717103,0.246498560846043,-0.293000870870724,0.0587653420794579,0.537648649300192,0.0800678195674728
0.0804655613451321,0.160478943542209,-0.164359445700193,-0.0837443369160052,0.067527345534758,-0.170895163475274,0.334666651775877,-0.0156204386177608,0.211254304742746,-0.115459141826272,0.318439631620472,0.245324874415759,0.026796874078715,0.329972234506693,-0.038632815618069,-0.121792121051882,0.0146419499474951,-0.202554398062866,0.0206354617124863,-0.241333054852653,-0.287648783473185,0.00103714922859232,0.463280677034956,0.0866158371223504
0.0829488496855605,0.133918297721109,-0.124812740211654,-0.0924769963680753,0.0689837663612493,-0.173102252566872,0.305324050285756,0.00420851812242341,0.220802241467037,-0.141741072323952,0.365916586431841,0.283979450832367,-0.0597205238066365,0.373015971771389,-0.0378440374748613,-0.121652727109388,0.0720513905519334,-0.228901958845145,-0.0314651910696585,-0.240170240607067,-0.273056202377266,-0.0575521840039118,0.394534703790281,0.095031790927297
0.0673089265385448,0.0710132714982551,-0.0241906223945495,0.129380826239359,0.0577376075682459,-0.151070481479656,0.275281167637013,0.06083735410781,0.212688197673687,-0.154615856435039,0.36848673134925,0.346510098804604,-0.0364254048965351,0.481645010930632,-0.0576628786609119,-0.104283948167891,0.163812027593381,-0.255894054544418,-0.104031385243677,-0.192093019916455,-0.236514422202959,-0.188201309556611,0.317212369247923,0.139163018963258
0.0868211310999549,0.0934118019693213,-0.0669451712093699,-0.117767980645881,0.0765625385476231,-0.160622306199132,0.279408293640633,0.0290476948999557,0.229731470010313,-0.160584687567666,0.380976433392098,0.313797381221253,-0.0615276677400869,0.43894600946209,-0.0376331384908748,-0.124952331126484,0.128145448516974,-0.253103170856731,-0.0829683750357451,-0.218461523436235,-0.262693213883527,-0.143125314784449,0.340027521650611,0.116410406350246
0.101301635089687,0.0377491571326604,0.0185756227035204,0.118552770388877,0.0985720723222658,-0.12840389950455,0.229363778587199,0.0469794674765277,0.214827468237866,-0.191242754303339,0.410292031625092,0.3243370543067,-0.0798803832319668,0.51176281445956,0.0485804564888958,-0.177487412953979,0.24251297425024,-0.297040752387288,-0.134892513143435,-0.158801143134439,-0.203737860425706,-0.283511629639841,0.225476436259631,0.145329997749362
0.102050460927966,0.0599380776163194,-0.0203286556179975,-0.118584676705172,0.101331764112293,-0.145044225452719,0.24603590423994,0.0315220242010893,0.228572380624857,-0.191963985056017,0.413650808119995,0.316338079844931,-0.0873256280669612,0.477409398815428,0.0267307583237071,-0.165776485510644,0.199306974702172,-0.283197677128302,-0.119185487924291,-0.189772732985647,-0.231253462557196,-0.230719471679704,0.26625875301863,0.127623176701859
0.0232549971051241,0.128659008583765,-0.12932000678168,0.157485281222301,-0.019588230089502,-0.163198525067319,0.337931961523039,0.0536780909984777,0.226884421631588,0.00312782834159622,0.0803143266797952,0.264916756733741,-0.127220943789729,0.366509812342237,-0.114262019362106,0.076773672500861,-0.187814626666979,-0.141596195737425,0.0392169455304315,0.240074262393242,-0.391269030134146,0.111164569005444,0.577061227200993,0.0797930319827716
0.0395331870696128,0.149445888752389,-0.170210545571281,0.129076048354177,0.0104956707521849,-0.167367674169469,0.356952468088542,0.0120885023511318,0.217604200252789,-0.0233126554867937,0.122054139087135,0.236133986162549,-0.100300084639094,0.330606353744572,-0.0801325052804728,0.0141097923071964,-0.168465199616499,-0.141616342191807,0.0788291280717397,0.253496721269015,-0.371201345681145,0.107550541415509,0.58793781463241,0.0703362363671363
0.0278109785330636,0.112025411559346,-0.0885371287855266,0.169009393109338,-0.0119701658938935,-0.15808341774573,0.322555297344002,0.0796409278874541,0.230974179012875,-0.0238584360453597,0.149595045829093,0.309817907896994,-0.0945670601782494,0.413229204068041,-0.11325254744608,0.0591505419490632,-0.0939223960698225,-0.166729522787499,-0.0188200886339348,-0.224857733029285,-0.362545926646055,0.0384747090612149,0.516024364291757,0.109572017956588
0.0473405307367367,0.135726224281978,-0.125244107879611,-0.133035136619417,0.0245182992713642,-0.158009605632355,0.335440077045997,0.0388316450804404,0.227698919600153,-0.0582516010529795,0.213364859893304,0.28838174586342,-0.0405695733985716,0.378554316686922,-0.0738030503698274,-0.00942787571121843,-0.0612059789196503,-0.169268810300725,0.00588852558625794,-0.239729115624112,-0.34782326880084,0.031003390977868,0.507214494096777,0.0981297141758686
0.0484210948724112,0.0918515477629666,-0.0438744887467517,0.16536405459066,0.0146836549733508,-0.153134389656046,0.299679114959786,0.0863082602267347,0.22266778797598,-0.0912071340920323,0.265484155463156,0.347225665621541,-0.0364320485194345,0.472083732348459,-0.0966871734018341,-0.0208575915311902,0.0547328809952161,-0.218211705594614,-0.0761536866951184,-0.201406649453517,-0.295112179376724,-0.095810696663162,0.417546575751335,0.136565735029614
0.0536575794330683,0.117981028103385,-0.087266833655509,-0.140463242203039,0.033672254053953,-0.153997704725553,0.316359063424806,0.0557164704328837,0.229223081342651,-0.0902624663735907,0.2712699952475,0.321511903975806,-0.00976893523259826,0.422673296419346,-0.0689396434523771,-0.0336559265619445,0.0181738777555993,-0.196581490498546,-0.0432443653632097,-0.225676017287292,-0.319731434629198,-0.0436651349387462,0.446367779259825,0.116144030753211
0.0603332418346888,0.0555266795745372,-0.00100976208101906,0.143965607635781,0.0296301311504834,-0.147905289676831,0.268654543858255,0.082555114607049,0.196363197844901,-0.138935315132088,0.343074971504736,0.354460855441463,0.00564837723682022,0.50631312374618,-0.0963886002537742,-0.091492890298168,0.177139212309655,-0.262859603732156,-0.109593471217444,-0.169492355786007,-0.212125349344133,-0.211651132263685,0.306977119856023,0.155872445625355
0.031241740638324,0.0824788243698034,-0.0509924625039469,0.209791357987486,-0.0439587520774956,-0.168583098937226,0.2892488770344,0.112402265597364,0.235413345128291,-0.011256696354665,0.11559595755572,0.311831822107547,-0.148812655305972,0.441756788782413,-0.160941514134644,0.090418394763766,-0.0930589736962625,-0.198054886317712,-0.0528569138863319,-0.200156132866437,-0.341445226528456,0.0245243513483099,0.496114818567348,0.119700361983
