0.0742420465352727,-0.461528878766869,-0.462739358156741,-0.266606091167682,-0.276755505520922,0.0699291877149804,0.501440695021482,-0.246328267038737,-0.199135966888758,0.367934753861823,-0.291679265554369,0.142889087446642,-0.202448943397353,0.177836235863422,0.411996535339879,-0.0733094209041009,0.468714555839643,-0.122629433045248,-0.113126677601245,-0.0992481846622406,-0.462819953778218,-0.00566942076669236,0.277048103736309,-0.133385901955144
0.101550709902574,-0.450818325687906,-0.421916584694241,-0.280547808227513,-0.260429822855231,-0.0358136897446619,0.491579966885029,-0.238662382204948,-0.205750996220586,0.344155748998049,-0.297477558902635,0.134013360794439,-0.262349284309402,0.173080881389712,0.357836980481515,-0.0989813212615194,0.440022575247696,-0.100516081190832,-0.0955774699221762,-0.100923683571637,-0.484997122626281,0.0136426589488018,0.301614436805458,-0.0833821736633364
0.0791269883754828,-0.465668164745276,-0.455102882436921,-0.271032518862407,-0.279544013843773,-0.050171916442219,0.491157003236002,-0.217595359495076,-0.21428449821623,0.361564750663238,-0.297238450198595,0.166695864095836,-0.237016583378212,0.172593039968903,0.391521570994014,-0.112479380403347,0.451325774465551,-0.131898974106561,-0.090473692517256,-0.0739092005477851,-0.487362636158897,0.00229300909516167,0.296288710892711,-0.115278249161619
0.0611099043607732,-0.482971632620049,-0.471416951873729,-0.274145800816927,-0.299307026082037,-0.0531732612263981,-0.48695419366654,-0.200133439513393,-0.225076246107861,0.371328105269389,-0.282464460992453,-0.196741010262986,-0.235313534315656,0.180748420077188,0.406576799849791,-0.131309728478778,0.448489500307132,-0.15748376898164,-0.0751058601687622,-0.0595036837706088,-0.49061017419641,-0.00598919032057239,0.286263450525307,-0.127693416852874
0.12338015245411,-0.421498614004714,-0.360925697621378,-0.304215654557904,-0.233142736286948,-0.00785506452056753,0.486480965893634,-0.296191652600165,-0.187609626801356,0.307444684357995,0.247382173755055,0.0930759551939994,-0.290983148373422,0.209845282152427,0.329487608331248,-0.0631435327078924,0.398374796483731,-0.0551834133378547,-0.107270446710794,-0.180827973552996,-0.443415375931074,0.00740734326902067,0.26630762672909,-0.0351701745674727
0.104514309187682,-0.423758516071725,-0.403516661573478,-0.283738056421078,-0.250395122217802,-0.0229462648837512,0.49849104080699,-0.286797828610231,-0.19296077395117,0.323728299589671,-0.268823045212074,0.11432577751017,-0.24255242469586,0.194426397997158,0.37476446736827,-0.0602269306506293,0.416090813579145,-0.0728303782712313,-0.116902742213423,-0.152899031177632,-0.444496164287255,-0.00289104119275402,0.272333932396569,-0.0726358325672524
0.0894127370272201,-0.445822344436246,-0.436401337066969,-0.274726411706103,-0.266499650890267,0.0445784191262314,0.500339432431179,-0.256702376222124,-0.2017063666244,0.34638966577778,-0.289034248305841,0.134707407089093,-0.22751536060751,0.181884806682197,0.392963281849108,-0.0801258730252916,0.443575703232093,-0.102086614365379,-0.108294707282022,-0.114121009982921,-0.46593878373546,-0.00109835207430421,0.283775960984357,-0.100971329681095
0.115010756764504,-0.457869897781917,-0.433133597308449,-0.237374270506729,-0.253637683960625,-0.0490852236262421,0.442680997157108,-0.152610803910073,-0.201262027010552,0.375125326728222,-0.327547643722294,0.173888348429583,-0.271818151867092,0.0981307684179511,0.278174279765369,-0.109002187007328,0.450616861836287,-0.131377001226942,-0.0933627525985652,0.00416881047850325,-0.505451843845578,0.0319332344342879,0.344634492327108,-0.117388857014035
0.0931282290347323,0.455056798753907,-0.451988516153881,-0.229897511139572,-0.28016656235676,-0.0445817773381934,0.443896735620099,-0.141882725608909,-0.218831042289351,0.370629302616907,-0.318258760637789,0.218870625888624,-0.259770337681763,0.0987206545422946,0.311556500205575,-0.136421425894442,0.426233489452606,-0.155915909183375,-0.0754731500099704,0.0274555255071182,-0.509693706113688,0.00795355664599355,0.336801435940947,-0.119079286356415
0.0804720411717363,0.451564901257847,-0.455693674964269,-0.227541269515409,-0.301906483376372,-0.0390623504008283,0.441111669099899,-0.13755798676814,-0.231786162760803,0.363456828016298,-0.304306101783583,-0.249969736224355,-0.257846464479576,0.0990174213942454,0.322046609333503,-0.156338923031224,0.399446227031059,-0.167435023826961,-0.0557110828098545,0.0439531193819168,-0.514271522840279,-0.0104629176517171,0.329105174749827,-0.109754132330592
0.136291155031936,-0.458057657430944,-0.385745198944196,-0.279429006120864,-0.23193087076927,-0.0454213357687868,0.464621736509096,-0.228725356237751,-0.186591957364936,0.346422845303058,-0.301448853206716,0.0926219756980165,-0.312094601148639,0.155955508834988,0.26762604329301,-0.0775532717100313,0.456327332481707,-0.0811442721653969,-0.104484161869926,-0.0985246108602693,-0.497138753719326,0.0447810734817075,0.310178182482499,0.0633151721235363
0.11819897005341,-0.458777090300078,-0.412743016375877,-0.271970872590557,-0.249329357425376,-0.040953262684223,0.471225275556021,-0.206764963416778,-0.200143545249497,0.355607145134755,-0.312778340818492,0.132238041051745,-0.287659095841321,0.14465076261029,0.302701046777104,-0.101661569555225,0.450644831040103,-0.103307575710674,-0.0938324802506754,-0.0670613346159162,-0.500622428538484,0.0328845498900527,0.32398585393361,-0.0847749082904138
0.0955239029399757,-0.461335052809344,-0.441534855898449,-0.260968302091608,-0.271595607786618,-0.0416469743248392,0.471463469513554,-0.187017072209003,-0.214851649108159,0.362535142070949,-0.311966240461357,0.176703984680432,-0.265127426269393,0.140311511824543,0.339179305414596,-0.124736095626414,0.441127477454691,-0.132000091266498,-0.0827362513501038,-0.0366469746215809,-0.503482015355938,0.0145764253175783,0.323274213990138,-0.104288949607773
0.0733044296501926,-0.466357419794461,-0.458651047050209,-0.252473241244237,-0.301554690435836,-0.0357198528017821,0.466200130477382,-0.171800989865198,-0.231627078682617,0.359147323839299,-0.292061969960447,-0.231669573913792,-0.25636744869211,0.143645417670969,0.366371061856246,-0.153730189889985,0.412809940347022,-0.160936644777073,-0.0606548159067536,-0.0055806336043124,-0.506972745994684,-0.0102960052067521,0.309965453461894,-0.11123839517422
0.0556765833725918,-0.483927358767783,-0.460684352453579,-0.27386637068624,-0.319718414283403,-0.0277576130896074,-0.474097908937691,-0.187387129931689,-0.239537214212555,0.356482654244533,-0.255281132460177,-0.24586456864968,-0.255921084326071,0.18116410371169,0.396588878721826,-0.163199906935255,0.400752402404559,-0.170253735287362,-0.0460516775031954,-0.0317563197372564,-0.496601531397878,0.0221900756683637,0.282971689333331,-0.111932937726749
0.14039549864906,-0.443191615774693,-0.340544239145075,-0.309876211607054,-0.217732100373595,-0.0471492306912817,0.452248905994917,-0.290677865763747,0.17474497111604,0.307522527278999,0.225125122104095,0.052146924269298,-0.353871741615043,0.225158193314227,0.260043411773973,-0.0541999885803498,0.426019778352895,-0.0632707563134194,-0.111288292635547,-0.200231030302362,-0.469914424390818,0.0258076138327441,-0.233086079847674,-0.00138002944396631
0.136715949548996,-0.442274154766761,-0.354271526784581,-0.304765932344393,-0.2246658011827,-0.0326768378242093,0.469806131638281,-0.280858579051671,-0.181824319431843,0.315536403419942,-0.252371377093235,0.0698837806751348,-0.329978786593629,0.205817708669019,0.281855307114821,-0.0641523841909589,0.42650393214034,-0.0615509756741079,-0.107150482150227,-0.173605593583699,-0.47061779329846,0.0276982586054798,0.265043532891012,0.0226183087480915
0.121736342509685,-0.443308007212221,-0.385045845361993,-0.294554064823758,-0.242954261450345,-0.0276869087295669,0.48696054260677,-0.261045122969624,-0.195114028381948,0.328080086289941,-0.283727447241581,0.0992432508677503,-0.294199044321995,0.184028071713589,0.319921892311173,-0.0830274463811806,0.430779169185246,-0.0740425972589629,-0.0985660641722975,-0.135388637985207,-0.479528081357221,0.023459111691883,0.292772304606185,-0.0504432554265694
0.145049738107487,0.450799780772592,-0.414882297416287,-0.201250096542803,-0.211208415873251,-0.0651442306330303,0.403065411023503,-0.146546141786316,-0.168697909777035,0.382761377739269,-0.332993971083799,0.126386325817768,0.269630414553971,0.0673990521997832,0.20210432288775,-0.0478280059461223,0.476312278345042,-0.106306792252862,-0.133271221965556,0.0132233173110254,-0.489504430148219,0.0637228534826965,-0.345827438179869,0.138256105905318
0.133614474962363,0.448095737036978,-0.428523220388937,-0.198082586656513,-0.229083787247022,-0.0602126344494345,0.406195715116387,-0.124724789878833,-0.180935385736909,0.38507335010783,-0.33638887363212,0.163440938142791,0.258666491515069,0.0566712709434124,0.222124643789285,-0.0721393548645637,0.462548720684832,-0.126414453491126,-0.117339839964241,0.0404275992831059,-0.49395328965747,0.0499217747565882,0.352995678662375,0.143225974097562
0.114707867096056,0.446074263907695,-0.445717068178491,-0.196608178293078,-0.258304334236911,-0.0552511331855928,0.413873912532655,-0.114060916064643,-0.200270583850723,0.3804401903177,-0.33122412461654,0.208844743792101,-0.251975383466926,0.0567424795761324,0.256187322880104,-0.104412669087101,0.438842999765509,-0.150753970334517,-0.0956633823181224,0.0625668443479193,-0.503196361086454,0.0254335488269054,0.349188829572238,0.138362869890829
0.0944076649121078,0.445464489852653,-0.453680984479487,-0.204342894092335,-0.293426437304187,-0.0458016712043531,0.423157743476824,-0.117734641990446,-0.222883435727371,0.368793536941072,-0.313450209666883,0.252074774463667,-0.254929438885265,-0.0706930532427562,0.288493139495265,-0.140447250035571,0.403354260541955,-0.167358500280361,-0.0648129242969644,0.0732032936963858,-0.514662455511852,-0.00289480496553729,0.336343201449786,-0.118914194817434
0.145031574276111,-0.462455217456136,-0.391743335787462,-0.248840815637533,-0.213322300918325,-0.0797440072832613,0.42957806116857,-0.238192557453309,0.169156160172136,0.352868241088424,-0.28948559266836,0.0597260632187888,0.323583928508998,0.14932962967076,0.22140807245783,-0.0324847959276137,0.481383609596516,-0.0808736467571511,-0.140716342508556,-0.103726806279677,-0.498831202975847,0.0549341286997635,-0.285440379067278,0.068142422156216
0.146205220948587,0.460412025702715,-0.399786013837292,-0.236110094886037,-0.214409331349649,-0.0669250077431944,0.427578178474097,-0.198180303907462,0.171461723023205,0.367134421461482,-0.315590333271711,0.0902446072020616,0.30096858948705,0.114610162194477,0.218564989166205,-0.0468428302493502,0.47972822282802,-0.0886914664486907,-0.131515718811002,-0.0517961480214882,-0.497554094285401,0.0610474017320099,-0.321395178708938,0.0992760239830027
0.134735382559819,-0.460070514336994,-0.410864305590226,-0.242976546054794,-0.231333336333929,-0.054128112763909,0.438862514635176,-0.171887972593468,-0.18483523881324,0.372433368118985,-0.326580327007273,0.129727922941677,-0.288156763173532,0.104526969613844,0.244683096752081,-0.080902123114615,0.466924936549893,-0.105992221419868,-0.109188694677078,-0.0232701296432462,-0.501409191049582,0.0507624110313595,0.340511087506057,0.108293261178357
0.0782142747688845,0.451857850281783,-0.451319708932492,-0.222480072444252,-0.317970558119895,-0.0299320206033548,0.439021097816822,-0.13984756330286,-0.238114251121239,0.348760377063144,-0.286672469199368,-0.280867101745911,-0.264632225268419,-0.10523044904533,0.328127346306924,-0.171896304050913,0.371308991833953,-0.173519309279992,-0.0394835080177472,0.0593344623694263,-0.518608501734841,-0.0256604333445402,0.315227264699738,-0.0998051455897837
0.0652966623380443,-0.46900658243266,0.431251423908902,-0.25578830361582,-0.334669875972853,-0.000891939378674992,0.449569558786911,-0.167390479218471,-0.24567609021198,0.324351507673785,-0.231658583678006,-0.309065543495012,-0.281457909453475,-0.160227112006334,0.363342504496028,-0.20049329265476,0.331213123463166,-0.176121046416464,-0.00903100179842131,0.0296267797146577,-0.506353103136276,0.045695456993396,0.284625864054626,-0.085529285458871
0.0548470875175412,-0.491920398250679,0.435482664797743,-0.287058877009129,-0.336478288075583,-0.0030030878556086,-0.46368647061369,-0.188451572771951,-0.246193880254028,0.340722290909336,-0.207409967368015,-0.285101525928561,-0.277117191253187,0.194991057086574,0.382299766224497,-0.18573927972444,0.353304680002067,-0.1756467321971,-0.0147885578851273,-0.0220353713013729,-0.489779360839304,0.0394961629755316,0.272305584029052,-0.0971941816049482
0.139357863309756,-0.457954058178036,-0.373020349898864,-0.281663926630969,-0.218135752791302,-0.0756371411382931,0.442025066981126,-0.27647530305265,0.171829549267233,0.327648964691571,-0.249455050050867,0.0492686523703358,-0.346479681406947,0.197648481083968,0.246391711156292,-0.0410064645271058,0.460719178660712,-0.0761202919548736,-0.131043783394422,-0.167140889568932,-0.490620458789546,0.036295931677265,-0.245733077701546,0.0252531020499969
0.144240397932287,-0.459275817975505,-0.374387291424367,-0.27810257257776,-0.221971923032443,-0.0590735597168514,0.452977635675619,-0.24480870476815,-0.177179995607102,0.340882064884538,-0.287215680439969,0.0652522147224626,-0.32891519417654,0.167014232432349,0.244224958021407,-0.0568852089372131,0.463918935737093,-0.0732017089257442,-0.11663349615523,-0.121110474177044,-0.496567515081467,0.0493012076686945,-0.288841176135445,0.0487632114101621
0.0661456673044989,-0.465507835510296,0.392522861915989,-0.259833959247671,0.338480261213253,0.032151584920577,-0.430081067729397,-0.165598912532927,-0.241843577895833,-0.286574228413858,-0.179858726343743,-0.356208224467205,-0.301533911728763,-0.180564318829217,0.358395585616755,-0.2307331034907,0.266149915571415,-0.179944073489715,0.0260315036312717,0.0481448865061905,-0.4904721664473,0.0670751309384296,0.260657567072777,-0.0686909869624973
0.072838582178348,-0.498682450978145,0.374119034352094,-0.295142595786806,0.324857353055984,0.0465013364030453,-0.431069234637129,-0.175206021022174,-0.229640652051545,-0.299259719315205,-0.135661606970514,-0.348115317268165,-0.311065394600134,-0.219914891035935,0.361463007528484,-0.218099863304041,0.277872743137462,-0.183730042329715,0.0277113135904997,0.0138012622536668,-0.465958624409511,0.0584123686474126,0.254342449758158,-0.0918001637815746
0.13700235813483,-0.444983172849951,-0.345088250215847,-0.307866362706133,-0.213192287048181,-0.0627054558321559,-0.426073424247615,-0.294238875066719,0.168586366636239,0.310394072304743,0.190565072643802,0.0610747979914278,-0.369076657398658,0.243084649997025,0.246248201044497,-0.0462877838749941,0.421502692476238,-0.0771275542552826,-0.12324335777015,-0.217964550188948,-0.46575193595627,0.0145048233240915,-0.199019483636707,-0.0107379589753367
0.148157357349504,0.440822346368394,-0.422612601964281,-0.165827336148859,-0.192178933868544,-0.0751459654292017,0.378199549613171,-0.163034229863579,0.157886231557184,0.380294679040965,-0.32382283039189,0.10160108055588,0.25956340123468,0.0605572789685017,0.183336921424203,-0.00437865718849671,0.482400165412543,-0.098062448919642,-0.166573560669673,0.00382888924528603,-0.477121510260425,0.072452559576114,-0.330030652675526,0.149058707652707
0.1457124464763,0.430581028205369,-0.43126508306526,-0.147051554978836,-0.200683146092596,-0.0690018680243341,0.36890033363135,-0.120531674154049,0.162773717007881,0.3843267537941,-0.334656652353293,0.138934298739458,0.235754399031128,-0.0303834133728182,0.185298750627464,-0.018720141736682,0.47006936190494,-0.115139614488224,-0.152912996520889,0.0517676898220157,-0.474360380011539,0.0682821688987532,-0.343358180745332,0.166172583054227
0.135082408143935,0.429871949970856,-0.442025023017464,-0.151089775234308,-0.232704911361258,-0.0653750512709933,0.375676041494997,-0.0944951919413874,0.18164658817904,0.387218377047486,-0.33508393487114,0.18593842971097,0.230656661206248,-0.0223869645393486,0.203595618944609,-0.0522483583764039,0.45021973988606,-0.137735750147021,-0.122397280966193,0.0855907012730055,-0.488132935594445,0.0485402057126512,-0.346515003817067,0.159484297220474
0.118485835298501,0.435683655031709,-0.452451995103651,-0.162874106114004,-0.27190934612139,-0.058110688930853,0.39458652363003,-0.0952913386128051,-0.204717717614383,0.375737393610062,-0.32565654979035,0.238015534435996,0.240805753292953,-0.0359788708068697,0.242687019862607,-0.0984584401007154,0.419464355269311,-0.159491102257292,-0.0883754559439648,0.103018167465642,-0.508165887204939,0.0180027558606298,0.337362677144193,0.139536596242854
0.132419382911941,0.459567180903143,-0.417139885702131,-0.223587570824303,-0.208045039895732,-0.104708236320448,0.404262982944436,-0.26480328779959,0.165155555700998,0.35217708292909,-0.260156094789925,0.0502881144676105,0.32762312388191,0.158739660019757,0.218711603422848,-0.00144041044321085,0.485297975253397,-0.093366443159853,-0.175391089537398,-0.130147003256052,-0.494970832511182,0.0436114963677871,-0.250250636654417,0.0654519850393306
0.142299943221563,0.45264792227745,-0.420754666105392,-0.191146619467015,-0.197070740191936,-0.0883800975263455,0.392735847918541,-0.216349898568596,0.160367548815118,0.369780875155432,-0.299788739854647,0.0708677145409507,0.292361764782658,0.104103398874199,0.196913484914881,0.00179061740050978,0.488674296297357,-0.0914356951987703,-0.175361665208723,-0.0582316410004457,-0.486949929541801,0.0629901373973157,-0.299627660011465,0.114534572139655
0.0995594011846344,0.444255885599095,-0.450261500803347,-0.185618990021961,-0.310106955764712,-0.0391653422047499,0.415868118308681,-0.114673573110822,-0.227354063756893,0.350574573181098,-0.29902673970237,0.291366476114483,-0.26364759653906,-0.0731617348811501,0.290035538626745,-0.152779533103528,0.372314231809687,-0.174547964141458,-0.0475192783412094,0.103575623424518,-0.524065526726044,-0.0170481823833101,0.315478398369174,0.108403521936696
0.0817352604842077,0.44942605325716,0.431317985557184,-0.213343514269301,-0.334612829990874,-0.0113661387804983,0.428578986313997,-0.139765369819362,-0.241007275915959,0.317259307437457,-0.255753093113077,0.331957802779038,-0.284425548005777,-0.118073162367219,0.328773573821583,-0.199280786684729,0.318040888377112,-0.180075655503901,-0.00946323007171498,0.0887483949722893,-0.52219601371544,-0.0478142617835233,0.288369759540842,-0.0789375671339181
0.0983466427861867,0.458780659715765,-0.436523206435693,-0.246566694111012,-0.213223334128016,-0.152990233261054,-0.360399539871543,-0.303667435983603,0.154293529590789,0.331297408123844,0.149611488574336,0.0770377907500671,-0.369254372323556,0.231835073094341,0.229526707234224,-0.0127156498812675,0.457593174676996,-0.126515895300621,-0.187304393634772,-0.22133557652908,-0.487668042866797,-0.00735452934634408,-0.135552909181986,0.00740441707705276
0.119923290124929,0.460380515626718,-0.407481982508362,-0.259238564767466,-0.214545006305743,-0.120162426383216,-0.398068408206467,-0.296048112667316,0.162751194853606,0.330769435372898,0.197475827392023,0.054329518955949,-0.361110679461546,0.216658795027914,0.235317106701798,-0.0162191105493929,0.465293287607885,-0.10392914721878,-0.167230239950121,-0.198992336821581,-0.490700162529559,0.0146360581666682,-0.185479499473901,0.0156651793289908
0.0767781203337281,-0.454344905908089,0.392065009373649,-0.237417379243392,0.336200657329065,0.0259389805440591,0.420016905776046,-0.149746660847582,-0.237107625418652,-0.279281837666772,-0.196934519320275,0.373099067326134,-0.307438279632796,-0.162449938706695,0.346029332496656,-0.235645555767647,0.257892593160779,-0.184104439991592,0.0267015545086408,0.0821400851758204,-0.501319685388016,0.070162492672581,0.258729064468191,-0.0622120878472691
0.0780298431994582,-0.468346027146494,0.355692027031412,-0.265706638808204,0.322511840843723,0.0587915233342833,-0.408293072547402,-0.15349329655046,-0.225295337004949,-0.260971691446143,-0.141005581788694,0.389816825433562,-0.320774950348892,-0.202025419788673,0.352079158839347,-0.248414509317961,0.226819758737304,-0.185794517052206,0.0476411195530219,0.0647847125761515,-0.471363081905037,-0.0753979573997928,0.242475456976153,-0.0681206732073517
0.114939974636074,-0.45239069894598,-0.3885130332688,-0.286520604164754,-0.209554966057868,-0.109498680809566,-0.36656436913117,-0.292364403497969,0.155670304192612,0.326303611559411,0.128806815440311,0.103248402051944,-0.384393372103068,0.260242992401225,0.223394061369795,-0.0407835164898069,0.41837690421977,-0.112808467333169,0.153749850520848,-0.23138978668489,-0.467773887998683,-0.0102454651719475,-0.137196733529864,-0.0104539593660143
0.128257504995182,-0.451303587046905,-0.366901069299154,-0.295859330240792,-0.214313497668554,-0.0953720738363673,-0.403267284215479,-0.294776060263784,0.163893909776535,0.31594590265604,0.171007291592161,0.0623239323861453,-0.376833964598736,0.25021452022101,0.237682867992522,-0.0374028450360407,0.434669943387907,-0.0954966670125968,0.139053645521065,-0.226224458840952,-0.47544375998,0.00701702246458025,-0.167449278919415,-0.0154926586791968
0.0996511326062995,-0.462541536883206,0.319241488899397,-0.255230478130411,0.294054406476823,0.0785924105808284,-0.374669954671299,-0.123099811831774,0.197994522772307,-0.231594560461584,-0.1200914018387,0.434257022130287,-0.345699650116702,-0.215104469419834,0.340323818204698,-0.268775087553877,0.186968352591988,-0.197421561497014,0.0657554421422637,0.105506852589455,-0.456630719659578,-0.0820243919366526,0.218324506351502,-0.0666261554115523
0.109560085390927,-0.485998435018505,0.274236417880451,-0.292692017031274,0.263664811772482,0.11485897553663,-0.361018298092542,-0.126903119530293,-0.176104963353208,-0.225588386830837,-0.0551193734059695,0.426557194811623,-0.348090318409252,-0.255850227998053,0.337951013964914,0.259831916271444,0.177873344261157,-0.193951572277381,0.0760986728117616,0.0741448598141514,-0.414959012554919,-0.073305985978494,0.214366475569946,-0.0935326606924043
0.145506126605265,-0.461501900736513,0.192129735153275,-0.275924540199795,0.178948607025914,0.158605171127413,-0.275613088385772,-0.0599463631032761,0.103868165275477,-0.163253388672431,-0.00357231064984817,0.495328581006957,-0.378923465607385,-0.285207487074254,0.315115281163306,0.28961596846945,0.0987904703597856,-0.212434994276746,0.101749718779853,0.135396237014335,-0.359020534905357,-0.0799250963377613,-0.159749315324482,-0.100118969332791
0.126543847419887,0.390603177976994,-0.465296510986006,-0.0516907168640072,-0.149531313302516,-0.0784770296204323,0.306921743302382,-0.218348661430637,0.150099665572873,0.356993878593798,-0.277071330860547,0.059668704105731,0.22144340372198,-0.0409882183249341,0.172569790389306,0.101677059239529,0.454833839253086,-0.0991155052160277,-0.256084663479993,-0.0360802708877094,-0.429429129908682,0.078601549230314,-0.283397627649057,0.16483631088821
0.144318434927711,0.40165181855367,-0.44878163467223,-0.0779338126740979,-0.167303811530062,-0.071754547752293,0.327707893892585,-0.155149104987916,0.153220812947797,0.368800488736453,-0.313517261693118,0.0950418356494642,0.211555016363748,-0.0245429575721927,0.17225923556628,0.0560350509538226,0.464693592179855,-0.10173774410492,-0.207490541162824,0.0217380909744926,-0.446893853187189,0.0862583279441033,-0.311574329802278,0.175450789290056
0.147494786368093,0.403224868172771,-0.449817120093966,-0.085769734005959,-0.198509745287408,-0.0704009232507574,0.336626020966032,-0.100823979531182,0.167067975692554,0.377464658463566,-0.330333130014895,0.144815968091139,0.200329733703352,-0.00690422983028741,0.178742379923982,0.0170043051603358,0.456588612995713,-0.120098790784718,-0.164053008005409,0.0778467805318926,-0.464787832295716,0.0777187681363679,-0.32205283270088,0.17582294788344
0.141024703165379,0.416827132588138,-0.455700928728716,-0.105236538978601,-0.239531117797499,-0.0690381230145027,0.359449337006015,-0.0838519879041498,0.185743125981322,0.374727338306697,-0.333753032221832,0.201203170122611,0.213266492520334,-0.011151049125173,0.205807114197604,-0.034740690168713,0.438329886159522,-0.141703989453123,-0.122212643163813,0.112443250114713,-0.492053081126762,0.0517024178039825,-0.322500384182334,0.161385991988567
0.128434177005679,0.436878579109607,-0.456473881330072,-0.135439882375543,-0.28583731971227,-0.0545173820624327,0.387899303298294,-0.0933034287558302,0.209996346389871,0.358251961864079,-0.318190241640151,0.268910703962357,0.248432529023394,-0.0464585430540751,0.250976544893366,-0.100831564783924,0.398166295922796,-0.162925909018776,-0.0724281704730547,0.129593558292072,-0.522461003966744,0.0152913271065444,-0.307375053748981,0.130535100745907
0.0366867803272597,0.417520930914636,0.535045169865904,-0.0990524800957447,-0.169391707434806,-0.187760606426587,-0.285816246773368,-0.361580455275577,0.135796952732178,0.313487256685622,-0.130169331256864,0.0503198010358582,0.327750115944027,-0.133972849035044,0.214550902684454,0.0848759085825016,0.449166342742326,-0.154711131859335,-0.313893496791443,0.22099101038774,-0.446749615691273,-0.0178222439781262,-0.138701811577579,0.067927073102849
0.0725377733373756,0.425900743900812,0.505102694893192,-0.111305047302969,-0.177844635951905,-0.152007100421135,0.315798274103568,-0.328454078217385,0.150764469464912,0.341258983331841,-0.186030703395376,0.0444710897038595,0.310870327576982,-0.125643629672069,0.206549760465006,0.0847805607960852,0.464123369072139,-0.134460839550446,-0.287517329924784,-0.170559056923754,-0.45692099236822,0.0115710326790437,-0.192300888592671,0.0889432949473173
0.114226187412858,0.427828787506286,-0.467780158702619,-0.117861556097933,-0.175494443857242,-0.1079653653535,0.34132904720961,-0.267999778364501,0.155502477232954,0.359570148335046,-0.253732998504555,0.0514226751676854,0.280299656150001,-0.0952898624009194,0.193024471701679,0.0708246519725525,0.474015705426041,-0.10738414233017,-0.247749957359977,-0.0961614625906907,-0.461168153147553,0.0504703091699455,-0.258713465315654,0.122490235836417
0.139343296147757,0.426249207136485,-0.442153328187225,-0.122014495353738,-0.174328251780641,-0.0856920640841416,0.348674674952766,-0.195024950065471,0.151509247543839,0.373741910894846,-0.302193009241802,0.0779081359866023,0.249689255095264,-0.0583787379497114,0.175480602140748,0.0442434371852368,0.479568880203477,-0.0966789023419987,-0.209715205168991,-0.019166430350347,-0.460749436821128,0.0731006232938735,-0.305519904827904,0.155950672238415
0.110499335211257,0.454055829168286,0.425140072987863,-0.181551275126842,-0.321002184337722,-0.0127894755847622,0.403816420127934,-0.113494277901064,0.225297997572315,0.311815755375296,-0.262082769745909,0.357926209671518,-0.303616598933189,-0.117566821580446,0.305898495098924,-0.190378289402379,0.312375212214421,-0.183794008226721,-0.00401862555719515,0.134331081541321,-0.530592649384104,-0.0348395718695438,-0.267507542914678,0.0854087351586174
0.0871495010605371,0.446088764634565,0.407585008440399,-0.209608992211216,-0.337716985643066,0.00516671809779846,0.416513179981805,-0.137108515849815,-0.236662275828917,-0.289418718539368,-0.229839227901664,0.368701661637371,-0.303245459995546,-0.133241933985532,0.32792993617787,-0.221579029736281,0.275277033275757,-0.184194974232079,0.014101435942098,0.108837881817324,-0.51859555004905,-0.0629085732033655,0.264867842791972,-0.0627770388128561
0.078425088031235,0.452241320880147,-0.482081978803524,-0.189260194235561,-0.201315433739391,-0.172737689218778,-0.339266141470339,-0.321996658414344,0.149201590937672,0.334115446818574,0.158370804662854,0.0643054066045184,0.349942782838628,0.189700533136299,0.225435941247855,0.0258456678831615,0.470550994877184,-0.136881805768163,-0.235838353953084,-0.208459856571961,-0.48328804177938,-0.00627218693287044,-0.146930270935557,0.0400770672256801
0.106017260702448,0.455873887902347,-0.458446082066729,-0.185581170187618,-0.199772495451307,-0.139769518438032,0.368381663486758,-0.299204905146506,0.156538546757556,0.34687323172335,-0.219756071180551,0.0475250589715038,0.329279992616119,0.159445194024011,0.219504378709035,0.0311506822785163,0.485364830428051,-0.114736136389394,-0.22046990025039,-0.157878345499976,-0.487265369959848,0.0237846514878464,-0.209790767381602,0.0691126455004431
0.118262288389119,0.459978689019695,0.352667644703289,-0.205216341783688,0.289785251078446,0.0424172339999411,0.357769895275824,-0.0887181919520677,0.19127431159022,-0.249274506219467,-0.181555679473806,0.448424807868195,-0.36411729498371,-0.198111756291374,0.322167603133943,-0.255948842338994,0.211444141444462,-0.204566723277911,0.0584621744495987,0.160781997074409,-0.489500760383964,-0.0603149928087497,-0.197526239749571,-0.0671990552390538
0.0986750620629807,0.453469231469534,0.3696968149736,-0.22052012597828,0.3193411895951,0.0344699734197633,0.393732451183445,-0.123563208282711,0.217623116654024,-0.260591610463256,-0.188218900795401,0.412582727653704,-0.333386469199787,-0.17085750291558,0.331178853423464,-0.248207366592294,0.230565180418563,-0.194297568232622,0.0414312611150858,0.124151366285541,-0.498657998982124,-0.0723512053033255,0.235009427199403,-0.0595172391879949
0.0753303523634849,0.450722195445432,-0.463178759285173,-0.234517307652739,-0.205161209062759,-0.168881089824435,-0.311010014380974,-0.302462207709013,0.139539311725789,0.3319538844483,0.0884499082837336,0.137525125700018,-0.374036335647099,0.243153520626059,0.213684920567245,-0.0272581579206958,0.422340385100802,-0.140662430897046,-0.200695633981314,-0.232653250050512,-0.472512045607771,-0.0324824800175731,-0.0903607794944591,0.00751158868767883
0.124337044497478,-0.450160708767238,0.279549247692156,-0.222135904523737,0.233599262942529,0.0893608950483195,0.298787752991659,-0.05377078415545,0.143841991243459,-0.196545727983334,-0.106935442596652,0.502215936509456,-0.394606764781125,-0.251419704472204,0.320904796625411,-0.293248221043476,0.132479250993432,-0.220723766243831,0.0934745386485352,0.173806823555134,-0.425521689892181,-0.0743599008872607,-0.145215686806358,-0.0677042791984561
0.118911987427278,-0.455711223174469,0.290400406513312,-0.238513959172332,0.259987317780779,0.0883694456049469,0.334138594680482,-0.0851800337328514,0.166374550405041,-0.207768667976012,-0.108658590634081,0.476433046826389,-0.374368380477159,-0.233122221913835,0.328074860546962,-0.285015998501473,0.153130239412832,-0.211775012099186,0.0811205694303093,0.146698411353319,-0.439766992948879,-0.0821089384130904,-0.181342442712062,-0.065867072899205
0.120984491372235,-0.436440517470041,0.239339470104028,0.22394524234882,0.179822551692583,0.114880318489035,-0.236663984093911,-0.00723701479962576,0.100495729972456,-0.166690713089075,-0.0619144778502104,0.538774633071455,-0.408149168165023,-0.284173212242579,0.311041628384297,-0.314619857208191,0.0808557907781842,-0.231095332566954,0.116247669305352,0.189905635969739,-0.372074150407381,-0.070010654730664,-0.100290595590334,-0.0777581145643912
0.13807497780438,-0.442288355688232,0.207261783032488,0.243536274762681,0.169515778996649,0.138137280907336,-0.246565864213312,-0.0271534470386819,0.0930112879823142,-0.154630309316374,-0.0313907017540911,0.529305768588574,-0.400149928708584,-0.284188263660602,0.31253808380854,0.308036314263187,0.0780550007528415,-0.229105819594311,0.107545925857339,0.173247322889194,-0.36058999267981,-0.0825037929756654,-0.122139377874072,-0.0852317270436892
0.132685165125266,-0.420990447051972,0.171363284753372,0.234708368254603,0.103668040367954,0.157611874630351,-0.169746945803393,0.0281832895329392,0.0397317896862119,-0.126462817450241,0.00873339619597992,0.565738894089655,-0.408329506707061,-0.309377479025849,0.295762826798427,0.32450993456797,0.0268052110812534,-0.240443894831941,0.123183922603146,0.195781546473305,-0.303183187754698,-0.0749756370779953,-0.0721197045104401,-0.0993168836388571
0.0897743857617699,0.337166175183319,0.490755390685795,0.0289103716376203,-0.115698715472628,-0.0642493512726715,0.25315882078409,-0.300274898830127,0.152108940168874,0.314892104393908,-0.206699906336757,0.0189229962016756,0.215401033626891,-0.037419365101424,0.175340535773113,0.1791577254974,0.39577655857455,-0.107374925670967,-0.330197231676088,0.115106882866081,-0.37908543275518,0.0662800688914783,-0.237072977016398,0.140008387360444
0.12529599082385,0.336823512353277,-0.474316539867254,0.0308568441308292,-0.122182384877784,-0.052652637558806,0.266426873753245,-0.216371359736854,0.155994572678368,0.323223698073262,-0.261279886196794,0.0347755227794745,0.175449457681013,-0.0237663668937592,0.178791889914194,0.156087821699295,0.417864624079428,-0.0938948314033706,-0.278368991398724,-0.0472256705239141,-0.395494397309055,0.105989624705465,-0.254515444194151,0.159744309508808
0.146765727105624,0.357266615129526,-0.469563377268004,0.0045979883924586,-0.15950659331068,-0.0607806408107306,0.291476133916404,-0.139830940552519,0.167625565866984,0.345478991162716,-0.305047876317224,0.0828394669661146,0.16726646539244,-0.0155915485242485,0.1823374300673,0.104514375636916,0.439482660196711,-0.101277464913506,-0.214718153911612,0.0271184510772662,-0.434626646439603,0.114566542368536,-0.269649330035032,0.16654743557937
0.153369959810417,0.387212720438693,-0.466596441545769,-0.034906040116265,-0.205343529725673,-0.070957529492964,0.323012878931791,-0.0928638329350154,0.177410381347825,0.358800634542088,-0.331303963042251,0.148690590622009,0.181518902327169,-0.00774232810549786,0.192436137410162,0.0374505892227054,0.444634975048216,-0.118884762394467,-0.156423949557177,0.0927541478771166,-0.472539216088365,0.0931310923941339,-0.28702058496371,0.167865317282076
0.150701243260759,0.414711121000708,-0.467656030591598,-0.0685281948373304,-0.24908878036115,-0.0686957342850371,0.352131182158651,-0.0830518917845465,0.194285768716436,0.358193304944783,-0.334533933358596,0.21186808009622,0.213296271264783,-0.0265761416050145,0.219478138103386,-0.0239410893449776,0.427825090032705,-0.137731330442043,-0.10783518334775,0.127485926055429,-0.507827552225968,0.0650208915618205,-0.28564674455464,0.151555738055641
0.0669321111395063,0.3783480713389,0.509976010447949,-0.0264923982654818,-0.141368824742026,-0.110464162439868,0.273881187330319,-0.337485358574853,0.148407979344404,0.327314823369952,-0.183794695605902,0.0310502840125417,0.268252855199068,-0.0695404706947022,0.184819201461424,0.145640321641494,0.420820206070637,-0.127058390206664,-0.3327936572647,0.150105972226929,-0.408337447276287,0.0274577919290528,-0.218339315462823,0.12110496936894
0.14250928333333,0.44797350173554,-0.458148511702194,-0.110220685405845,-0.290941643233176,-0.0445189548604714,0.376059967681678,-0.0899503076036214,0.21298976985569,0.338614046496684,-0.312177066005514,0.298218634458862,0.273571497527122,-0.0868491669263581,0.266624126912958,-0.105615655684151,0.376314911977009,-0.159590715289978,-0.0421262771074535,0.15186398528637,-0.540410619097985,0.029709009495419,-0.258734066329199,0.119158198501466
0.132126106135284,0.468697589262266,0.408389373535253,-0.157767390117907,-0.293845638867232,0.0042504796350865,0.359833199181436,-0.0791722709194519,0.201847543794018,-0.291986923280858,-0.248600749554287,0.404036436673978,-0.345571826241912,-0.17225864047079,0.305598484560638,-0.199791979851631,0.280938218262947,-0.186218347747487,0.0340357855022001,0.176930009390685,-0.52763714629882,-0.0107335754550577,-0.203717957906228,0.0902061805737409
0.122140615696207,0.4590201350221,0.31614433436904,-0.1941925949221,0.227649605798443,0.072210886790136,0.280282232033705,-0.0328360789208274,0.142263533277243,-0.22003381127544,-0.14260954582921,0.503365926707367,-0.399550194510685,-0.257983521201,0.318831765806479,-0.278171021242961,0.15501576307434,-0.215841337662078,0.0965938857023693,0.198197157729905,-0.444388584944718,-0.0430935486721828,-0.126991780926553,-0.0840516559360315
0.108323798261578,-0.424495248768955,0.225029226663222,0.20928668845612,0.117408925679112,0.131501310259208,-0.159535250785895,0.040616448891348,0.0526931595727614,-0.153267313778918,-0.0315138335114901,0.572873038853169,-0.412720390340978,-0.313228556771373,0.302397221671094,-0.323061880387128,0.0422486571365486,-0.238051965980364,0.129209281812967,0.214343665094175,-0.326908401418701,-0.0547035396459086,-0.0534343590362099,-0.104875412334472
0.0651528227441793,0.161288643646495,0.439325757499682,0.202710386042744,-0.0268256078667063,0.0264372892428381,0.143445129556778,-0.362893342018702,0.161300456734662,0.175055847653432,-0.0972934315425043,0.100808465797756,0.143689173456251,-0.0169587825699083,0.169166174290739,0.316026413187746,0.235749368581845,-0.0842852273213169,-0.387041713363528,0.241047079126928,-0.250584312890515,0.105759613206601,-0.13621272226867,0.0451203195900286
0.0961274244012068,0.161695310911373,-0.441409286334218,0.209134080484226,-0.0326536345510921,0.0181505249972272,0.15001883295957,-0.295614937431724,0.169994578114234,0.187879770172697,-0.135818127276165,0.106887373640636,0.0999762458185019,-0.0467493243785396,0.192275453444626,0.310089131288502,0.273988945051114,-0.0730971366017647,-0.348432719514443,-0.209267984670205,-0.27513986256741,0.153516128057022,-0.112974974266164,0.0498424080533258
0.109338322446659,0.157730434296636,-0.437651151779907,0.218800280381575,-0.0349601107931144,0.0161034069479878,0.153964780953031,-0.266189999827405,0.176158412510843,0.18152832343942,-0.154603665212046,0.118565937886343,0.0806803966524014,-0.0612938394651638,0.204316577178399,0.304339628287929,0.285566106178341,-0.0613467737252657,-0.318913911394381,-0.198009179892017,-0.288518926351608,0.184566596242517,-0.0954837161908084,0.0417783889867006
0.0527176054629995,0.232367959325463,0.475533390758542,0.141216440821742,-0.0588386783385398,-0.0119771475546265,0.172995192761445,-0.370490521547618,0.151475404653449,0.235020860438747,-0.118148226885272,-0.0375277261472191,0.186484224974248,-0.00960323105919729,0.160558760687553,0.271179036148346,0.281458740675505,-0.10525603222465,-0.396304688453742,0.197076975284955,-0.286190348214537,0.0619478600342536,-0.185534227806793,0.0954545135057733
0.0936434283908183,0.248095213148702,-0.472156148340616,0.13216054117424,-0.0695111263812103,-0.0143795693118613,0.198249084374321,-0.296074347322996,0.159884821429872,0.251444886549476,-0.178228219567307,0.0370384125833575,0.150242132110229,-0.0264597249206009,0.182280089881127,0.251043840396051,0.330922957997784,-0.0882513778735011,-0.345716986053718,0.149199448871051,-0.320588660526328,0.112122714052242,-0.188610810418328,0.110977325580306
0.126598050261472,0.250175145555212,-0.472058407326986,0.142807951890016,-0.0903924304828914,-0.0191030985531046,0.213212168679782,-0.222935363281225,0.178567987870076,0.258874776916033,-0.225642121697894,-0.0347883234049137,0.119729797545718,-0.0463573046261527,0.201119456057372,0.23289762898243,0.36056329863684,-0.0769725553694418,-0.284006415199239,-0.102766659716247,-0.362488359556383,0.164160051945203,-0.167254118635741,0.100771932151446
0.155548174298845,0.350921812408093,-0.487987029812656,0.0531067738425353,-0.182442312407325,-0.0555491091763212,0.288847177359204,-0.126042061472049,0.194277640441566,0.32151449867029,-0.317147041915813,0.0899643329780805,0.163026357415284,-0.0458485734285677,0.213659073377033,0.105876748140154,0.422789824545871,-0.0927165409353042,-0.167402360441509,0.0465290324601518,-0.469038451863348,0.150123362433714,-0.215407512891637,0.135972493212254
0.158709596350281,0.388623495982027,-0.475658642192319,-0.0145796327483892,-0.21897150318753,-0.0713021253248584,0.323396122522965,-0.0883970545923186,0.187924106432223,0.347388620726251,-0.335870204498413,0.159461698239876,0.183764908856358,-0.0225424595460694,0.207490196117289,0.0358264448777896,0.437443625688403,-0.116387434864474,-0.134972206076609,0.105895296414769,-0.490136161431936,0.103447515299114,-0.260095925854459,0.156253393549315
0.161382168676688,0.377613276689496,-0.493787032125605,0.0440797154653949,-0.217903248109409,-0.0609636251349415,0.304231104495912,-0.101579219467161,0.208750460142022,0.321970852074009,-0.339325063112078,0.130387259112856,0.184363794640287,-0.0726838206830592,0.231443599482483,0.0657319786076447,0.421156431225009,-0.0888536240957872,-0.106248592863163,0.0919039544114888,-0.509648000949449,0.157408524490535,-0.19321092088884,0.127265300186839
0.159698502864049,0.412406127209137,-0.484379559552297,-0.0184677642998494,-0.247004098363071,-0.0618571106006901,0.334755079377778,-0.0892882836970263,0.206505132583854,0.338711753225138,-0.338826401473894,0.19933738929867,0.218953190522064,-0.0689674893236691,0.238704634824525,0.00143098185787631,0.418092997865666,-0.117955819129775,-0.086010454966418,0.126242126512349,-0.525708255986494,0.107448156990235,-0.227700244220405,0.135926891976261
0.148398106375124,0.461387163715621,0.457050882588937,-0.0861232400254081,-0.283210033515816,-0.0271337699265658,0.345928704664009,-0.074568402018792,0.211462321397828,-0.320456761758224,-0.306438803028391,0.327145715812109,0.307580372842547,-0.151487826628098,0.283549710738569,-0.115160328215861,0.34599948878206,-0.148942987107739,0.00735947567841002,0.176770008809027,-0.551357061952021,0.0614239358164242,-0.192794910341104,0.111458461610161
0.12765270750998,0.472745507845726,0.393313144937865,-0.137089012323608,0.255814112787862,0.0286930626749251,0.295178015310592,-0.0379711841183404,0.176353551831513,-0.27221433936452,-0.228572536198136,0.442922544126979,-0.376468401760179,-0.239871360899667,0.310170231236118,-0.214104882741543,0.234290680556524,-0.17932981854121,0.0857651492012935,0.210871194747476,-0.506336255164451,0.0223802947435015,-0.129119180253554,-0.0996735631321943
0.0476437163044331,-0.399784251958463,0.2685866805167,-0.154742736581225,0.0783261114580325,0.126501784685527,-0.057108347094726,0.0969571461308099,0.0339629434150052,-0.170440471575468,-0.0388578250430147,0.58856495804934,-0.391819311627006,-0.357843345611548,0.293388996213161,-0.314928368566312,0.00622526222322922,-0.208059565164351,0.169768273746356,0.251598128195691,-0.294850214851716,-0.0032245580890666,0.0267211924745768,-0.139465123089618
0.0887645331048787,0.440567635690679,0.310137761515262,-0.164571788609097,0.161384763313845,0.0932847261149196,-0.17090622530519,0.038923783526973,0.0967213657510111,-0.206255034211814,-0.110279563420829,0.546292767207123,-0.404617362830818,-0.317916134322911,0.309042498682095,-0.292099581567792,0.0937906513005292,-0.207701908807666,0.143397854779433,0.235743179878502,-0.38882154877475,-0.00146611354916694,-0.0413716514032548,-0.112835484009027
0.0350287460548168,-0.378850906313719,0.237961039861774,-0.161015366090079,0.037316652627478,0.141465554149959,-0.0142746609163852,0.118069876677135,-0.000524766062220273,-0.147517404056261,0.00218105381297039,0.606500969247028,-0.385202707107862,-0.362886733296296,0.284567557584174,-0.32801674838831,-0.0317534294915109,-0.216975614234903,0.168489586419558,0.249814406450655,-0.245528142229081,0.0100995227566512,0.0446529660966012,-0.149087381586087
0.0623842500009878,-0.381359325608128,0.200515534903196,-0.182523975910602,0.00979721622827579,0.155767958385362,-0.0158421857046517,0.107841100978186,-0.0291731949965997,-0.125592735731611,0.0398032021309897,0.620402912250463,-0.39362116007034,-0.348900655890019,0.277847643869493,-0.33776278576394,-0.0392243106409933,-0.237894543210709,0.141467504158077,0.237444015459532,-0.233982405156987,0.0404450724404467,0.0245757411758886,-0.147426563028349
0.0800692793860675,0.098096627771767,-0.401877242505628,0.250466101054879,-0.00432760445790651,0.0475433670041215,0.115181339866761,-0.346076134520975,0.171928173261024,-0.129533325741353,-0.0750048253099859,0.162729452677214,0.104516655585887,-0.0433167922393017,0.175473510656079,0.351672628694731,0.203722095066778,-0.0690761255858904,-0.368904237127234,0.28153710801322,-0.231641517722719,0.149195206164378,-0.0727919715441376,-0.0151734352590191
0.0984068642802576,0.107892473733526,-0.406387194572119,0.25267572731853,-0.0108173179418736,0.0383443933277332,0.125144623144903,-0.303337495245237,0.177764151068144,-0.137202041846583,-0.107658813859555,0.166223376347942,0.0797223980840494,-0.0644750052664636,0.19268397684757,0.338145407196263,0.233122087134499,-0.0563909495764287,-0.333504483946439,-0.254850396255724,-0.255159838490018,0.186739097580796,-0.060830675463812,-0.00903462226568911
0.116641688847971,0.148133103911807,-0.426641424711409,0.239660943436472,-0.0407304633697129,0.0203983242572005,0.153510079575224,-0.264395755594906,0.190381605738795,-0.168070017289728,-0.159710923189229,0.144614497327365,0.0834216781732137,-0.0766276705969745,0.201744056660073,0.306342442950823,0.276287064878993,-0.0484907833729759,-0.28753315056211,-0.20127069389276,-0.310712194212412,0.217280812278938,-0.0711864495644707,0.00492272259030487
0.139428260044562,0.241356429967053,-0.470685055332873,0.189454693358699,-0.111185063992449,-0.00953824495091212,0.21045226774264,-0.201715519993584,0.211352348931578,-0.234838804286588,-0.247005640830236,-0.0578841557930627,0.11904011905297,-0.0928645807699412,0.218623694411876,0.227371034852547,0.342696338355898,-0.0502473935003941,-0.205621466174328,-0.0864774977934058,-0.411573460654946,0.233582876970857,-0.105848790821865,0.0448489433303269
0.153866627169218,0.359928144711866,-0.50233101922536,0.098499436718137,-0.206711057481767,-0.0325192086326006,0.272851327535887,-0.122598396621509,0.230603141777439,-0.299322337812994,-0.325970794886622,0.0997581636569732,0.193463002045496,-0.130495899654985,0.247040681881807,0.0915707131959332,0.381187237998126,-0.0654284398373523,-0.0782898284719366,0.0672072423424682,-0.519984697241835,0.213320085035236,-0.132018598953596,0.0872228514320654
0.161573396261032,0.39502731551555,-0.494994122969679,0.0323177642863224,-0.235525290554426,-0.0586101730414723,0.311879634013171,-0.0942362509142404,0.2158880377061,0.322904693161009,-0.344609508018368,0.158934707138156,0.205165482380779,-0.0931250356170844,0.242771919579025,0.0389828168678003,0.413520241310712,-0.09086767388728,-0.0748523248334307,0.112724306870405,-0.529295123386252,0.155218672152793,-0.182835409033669,0.121546793520503
0.133015774389331,0.430893772995832,-0.484891354502083,0.0264181581760489,-0.250168444826999,0.00291948744008266,-0.260664535200951,-0.0669134296915469,0.232700743714215,-0.303549599331913,-0.314422516581538,0.265846840190115,0.29082782944839,-0.236942690822434,0.283968512762019,-0.0487417050081026,0.304076625822234,-0.0804212292300216,0.0660034007427292,0.174633103701225,-0.557154477118267,0.188083029108625,-0.0814502364433927,0.0898144455445093
0.15504279474113,0.430833479057361,-0.489948081872961,-0.00298961271792098,-0.259455317061784,-0.0398373262882517,0.317254122294587,-0.0829119119306912,0.222627778488492,-0.323210890592204,-0.336582039983341,0.233654331415156,0.25919016178913,-0.144626700363197,0.267766948659279,-0.0251558073897496,0.379231217931471,-0.104866694799182,-0.0167903942864658,0.149962449317268,-0.55372693940349,0.138642748862336,-0.163539828073047,0.113395285376844
0.106677364300946,0.454250254397042,0.427019637144825,-0.0516655555164597,-0.23574393543899,0.0402589548969264,-0.221861419212394,-0.016221104578481,0.1911678722016,-0.278187741573562,-0.252305240644694,0.401439850579887,0.354448989224446,-0.298357073779757,0.300235556585082,-0.163652554752613,0.21354501801343,-0.116660643910922,-0.13970123774243,0.231252340819417,-0.513451652174552,0.124621719038995,-0.0475407769385683,-0.102886046436561
0.134414191773911,0.465414044207796,0.448353793025499,-0.066075427389599,-0.266332298452939,0.00142816026455205,0.293796613687345,-0.0492497039121019,0.206529312324654,-0.30071126102255,-0.290075377210112,0.35999464624319,0.337869791256946,-0.227975520370479,0.297116023902307,-0.135438737965116,0.291601571401458,-0.131917011578084,0.0747616275745035,0.204225171857411,-0.54519422633777,0.0976386251658353,-0.117782678328212,0.10477661985613
0.0692736577277252,0.431561546712101,0.344939863037982,-0.102277773272158,0.156495222148754,0.0978403916760288,-0.122429530924767,0.0447005805643212,0.113683715395711,-0.225636702365135,-0.136757484329236,0.518821710176989,-0.381023762591468,-0.354711918136328,0.299472430214873,-0.253664093968556,0.0851051069700765,-0.154081192235882,0.180267663638143,0.258298616778473,-0.404145921078509,0.0693478299439442,0.00568593063769211,-0.124376637463081
0.107701320143459,0.463309860680013,0.387224650765177,-0.110817577113221,0.224501177711215,0.0493408812238403,-0.230378466839213,-0.00480771856965678,0.160871753427127,-0.259889718298936,-0.213494216041906,0.46006194029688,-0.383160742863775,-0.292772035989935,0.308641667081484,-0.218239074750629,0.18941459714457,-0.159577583581521,0.132842494860169,0.234867310052278,-0.482438684554938,0.05985041303797,-0.0657963534123825,-0.108207052014838
-0.0229804418889297,-0.374367502670102,0.255346753031083,-0.13917587992105,0.0436272194143023,0.140218562902627,0.00775860077209362,0.109113158226222,0.00960308159237791,-0.163828567076024,0.0105002689307553,0.610635663957027,-0.359984491378836,-0.378112351649911,0.271342399112616,-0.320316003700519,-0.0412140430583979,-0.186265606639486,0.177732643479754,0.259065932486385,-0.254552971140614,0.00749181322738075,0.0575592386327355,-0.159107573986578
-0.0763744277652435,0.0527291558461216,-0.358253424292,0.2801754721969,0.00574465291493732,0.0667542284412942,0.101605276636576,-0.38155198795477,0.181201445316635,-0.084511121136223,-0.0417392904923753,0.218850759701818,0.121568982525565,-0.0329559406938318,0.148161205555916,0.375040802819028,0.155663156380348,-0.0597287954825287,-0.361762742593709,0.330066607851078,-0.222808984320107,0.158690953064814,-0.0457516491596797,-0.0862605393959193
-0.0890322169939393,0.0716103458811666,-0.377987943595434,0.272328513218604,0.00435275716083802,0.0558202795078574,0.106117767724408,-0.33722241463247,0.178745376742511,-0.104024859343695,-0.0694373473483863,0.199698924231205,0.0890057966556034,-0.0596375514199907,0.176740143720692,0.360855151044256,0.189860985626227,-0.0555451743805288,-0.345612855447407,-0.298316507940044,-0.231406672830399,0.179821153767827,-0.0410563692098723,-0.0515287446562813
-0.0800217055287964,0.0145189666946621,0.302990475802049,0.308795443826502,0.00595801162727365,0.0802395994982718,-0.0979387512206012,-0.409879243199336,0.195388100395752,-0.0464878338057173,-0.0231302439580535,0.286107304434458,0.147407209942859,-0.0124328268434408,0.101118922249881,0.390547477469657,0.117177362109177,-0.043690086442509,-0.333764348354082,-0.364586731064843,-0.235874272935345,0.18331754724326,-0.0266534758175365,-0.168361802987163
-0.100949629164559,0.0627300542844582,-0.356296986621203,0.293752114095686,-0.00274705115558187,0.0568950602043195,0.108846578503457,-0.331344698145729,0.193368383894533,-0.0932976019815624,-0.0806166818508095,0.237277190491606,0.0936924430998198,-0.0685589945441516,0.159700180889145,0.360200185990623,0.185141652339869,-0.0380340515751308,-0.304711076177395,-0.295991908744144,-0.262705504371867,0.223021839797941,-0.0212945946326871,-0.0960576766522176
-0.122206471541689,0.121396998984612,-0.392750752772314,0.285880054713436,-0.0455860440249823,0.0348898259911128,0.13670998685749,-0.263913961790548,0.21420082438145,-0.138231511655677,-0.157567659785877,-0.199140260107801,0.0886521452712672,-0.109409879161862,0.181402590146047,0.310976757833046,0.237433404498396,-0.0176734749204534,-0.220695222502142,-0.206128736293839,-0.341880990250549,0.284267231440647,-0.0169068725412312,-0.0724496009081977
-0.135696970079278,0.220094181874193,-0.44513940018216,0.24895667960982,-0.122883789273938,0.0207884524325253,0.176324260741548,-0.195111256217693,0.246073971505639,-0.204197007334545,-0.244584878398981,-0.094064325655598,0.133958400134221,-0.161960325922819,0.206796503494997,0.223102750982485,0.277317272819822,-0.00624433592364934,-0.103437261299339,-0.0741407964402239,-0.450950988296215,0.32198597631727,-0.0222804951401996,-0.0376901423275178
-0.126539630011862,0.338554326279223,-0.47815390002255,0.16306531561451,-0.204619782403072,0.031841266941687,-0.194475434752713,-0.109709305851038,0.262332111816643,-0.264959331072236,-0.29490324192696,0.106817445588162,0.2232955778676,0.251418307986369,0.24480971613295,0.0718952603673811,0.260376826303123,-0.0127902181977881,-0.0527463614113769,0.0936692711854633,-0.536611519195048,0.308153608047966,-0.01229204938333,0.0151108332201794
-0.0872863237115997,0.408930939161345,0.42626920810255,0.0320050589264322,-0.212915535870767,0.0769376211792243,-0.146677675721549,-0.0137867794766726,0.209889487522576,-0.26891599401139,-0.231401551721271,0.35846379794494,-0.314985976756145,-0.346079618816552,0.270888718586559,-0.119017327540027,0.149574433039325,-0.0565008366592175,-0.182599656103608,0.230188350341163,-0.500666873209692,0.212301702939218,0.0188104265243143,-0.0768947045714495
-0.036555443877424,0.382356477247108,0.322356268660209,-0.0449174810594283,-0.134402226859868,0.131083317621279,-0.0288846647151641,0.0561300971032892,0.115235630694425,-0.224392791393919,-0.0825205469176835,0.519883177612744,-0.318721403987279,-0.398786285103054,0.247837097716305,-0.23662785599566,-0.00181584878718555,-0.0837059732226144,0.228846565117462,0.280340879389751,-0.360504433575801,0.11961464671152,0.0646204930493763,-0.128312061341581
-0.00843275349619516,-0.348281693036292,0.24328027450044,-0.0892323974477055,-0.0672600347331904,0.14772612025122,0.0577134596738646,0.0615337335694237,0.03926916953854,-0.19784933205744,0.0672281894322308,0.609177003605364,-0.269118206175511,-0.409379026469415,0.202532930393892,-0.290869853574581,-0.0909275222433954,0.085708769938321,0.202567608454373,0.277876323744725,-0.244658524500033,0.0323043382477301,0.076033906248745,-0.18236028965537
-0.0815888634500912,-0.0145301564438942,0.24566597124059,0.332338591628428,-0.000546525058234956,0.0902112983857735,-0.0999765029776171,-0.431939365842346,0.207528918156001,-0.0167312247007159,-0.0118997926322068,-0.34666819206948,0.179352080416024,0.0257884376715946,0.0379647125549268,0.398254279849654,0.0832696698148806,-0.0262118328423814,-0.298740370896994,-0.385627628967892,-0.252409175327704,0.208828455139059,-0.0206410708011955,-0.242082916050791
-0.105694779507241,0.00753261355124267,-0.26772842914449,0.337001292016021,0.00759083779168678,0.0782905690549356,-0.0890142545767064,-0.360753281280002,0.205195233215495,-0.0429246405571735,-0.0449124891479986,-0.332378418522922,0.120449943030995,-0.0495872242954712,0.0822327893739022,0.379832059372326,0.121695659955232,-0.0141683435062681,-0.260609171701895,-0.336380031994341,-0.270860351989166,0.26866336706023,0.0121648052401292,-0.209672173091096
-0.113918891535844,0.0453799890934732,-0.314495003619107,0.328329041748081,-0.00781948077392094,0.0609353527073835,0.0967205420943806,-0.306088257486626,0.209585158835629,-0.0760018507755497,-0.0923909126188101,-0.28883712055681,0.0871757219618852,-0.0971547933473603,0.129941616769551,0.350809101743697,0.163965932251866,-0.00459695273096855,-0.226283694966899,-0.278166865363944,-0.298477915773083,0.298492552808361,0.0222281862186318,-0.160389026599468
-0.118457296475628,0.0154429515292453,-0.256306350399482,0.351702230018585,0.000993586493881655,0.0731648796671531,-0.0783571653970416,-0.30499115316451,0.211313033755749,-0.0510067058972937,-0.074275684455864,-0.339118520784926,0.093050599407551,-0.0931266727117965,0.0791925220495191,0.354032840883345,0.125256701264654,0.013058161835736,-0.188169895444031,-0.285930728683419,-0.299662732446076,0.335390910291216,0.0454425196550219,-0.221079587923328
-0.124162702826393,0.0753139769201707,-0.310751411548618,0.340621209339035,-0.0414140040120833,0.0638432035982582,-0.0931813482066245,-0.247661779364909,0.231122955215205,-0.0987091655667976,-0.1388663894888,-0.270303857192375,0.0922018457635455,0.141065454024065,0.11212073996417,0.307956724453286,0.157448169619958,0.0301176655057533,-0.118924551599988,-0.196903389827701,-0.358113868687227,0.374815431300019,0.0511933095621224,-0.177575780513836
-0.121584484258456,0.189083808923333,-0.38031820289354,0.29496345700362,-0.130162022068015,0.0705251594523114,-0.111566085993796,-0.160882759119529,0.267896223011927,-0.177978665801489,-0.221197062463265,-0.10167978001364,0.144210607370904,0.230603285385848,0.151580482973839,0.195683498755721,0.165708028519378,0.0509084481010652,-0.0296661049938764,-0.0277915100134067,-0.460090356350298,0.407204722371213,0.0622074880056845,-0.115086819763613
-0.0967682490563802,0.290899630957391,0.395156748751127,0.197376228171421,-0.192967740182356,0.100615813675142,-0.0954093554016247,-0.0656809332988707,0.265334711737988,-0.234615548475886,-0.230246600229104,0.138951479406739,-0.217292476963445,0.326999272108404,0.180378953672057,0.0343842418076212,0.107794354183549,0.0461107373101623,-0.179448485591535,0.146329054943621,-0.494796778546945,0.364694333081416,0.0774447597067839,-0.0357334113042069
-0.086802675950737,0.258030155489699,0.227275131675503,0.126277545098699,-0.190594601993233,0.182012885119106,0.00311469936544781,0.00799680732595119,0.219434324789617,-0.237780650005705,-0.045592185341334,0.35034688738609,-0.172746676081597,-0.371798369292957,0.0564570787836559,-0.0854267944773771,-0.0969560273479944,0.078542571010694,-0.275289480804064,0.258744957616804,-0.346624536600668,0.275286297104697,0.0965425023846699,-0.0144836866504007
-0.0607593801155764,0.329357596374223,0.339173676850773,0.0874732895273621,-0.18710930682357,0.137623582317929,-0.0377826086750184,0.0113369174795591,0.208079599566214,-0.243869681414365,-0.143830901364931,0.359119016310532,-0.25071075687747,0.387801656171037,0.18000997004374,-0.113062372738355,0.0049901891862502,0.0201822030686384,-0.258336338470277,0.256248527244837,-0.423220463722865,0.261210937117437,0.0893458598415393,-0.045733714644222
-0.0556189983095262,-0.300171283105522,0.186503120873278,0.00714371423783267,-0.167883019849281,0.165239724674009,0.0329905176856853,0.00814521386157224,0.145357722357995,-0.246748834062515,0.08779907639081,0.526499645489441,-0.157456645604638,-0.393512344449438,0.0681628862921831,-0.193133390242463,-0.134753801943494,0.0362803146983928,0.247149917351427,0.29424739372402,-0.248095542578987,0.111169904613087,0.0644432612359831,-0.136442394847951
-0.0351453940206607,-0.328276179102083,0.273209019401031,0.0113552506359408,-0.149334243808856,0.15661759957688,0.018812639384569,0.0421727268415468,0.142432672718451,-0.233302322186746,-0.029545814283301,0.494624399762602,-0.23830738458643,-0.408544647264576,0.162234114996458,-0.199579105030742,-0.0743261798814264,-0.00299040787290918,0.262277789183286,0.292686160349403,-0.325247917997362,0.159819576705462,0.0885742651011073,-0.11201002295791
-0.110481254472158,-0.0158442372831914,-0.204028856676944,0.357348794489405,0.00386087841381673,0.0946960969125542,-0.0898990809195403,-0.376391276861435,0.210875148298306,-0.0187124501528644,-0.0292626613391994,-0.383653583400949,0.15855636361709,-0.000472172489840843,0.00232984383068995,0.386023657285684,0.0838079868319844,-0.000431937831643938,-0.228953627659896,-0.351594992223028,-0.280930593535012,0.296323520501789,0.00938834230937195,-0.277200356827059
-0.121110411883792,-0.0063536058104223,-0.212274546919291,0.359892410274079,0.00977089208610799,0.0851900530738545,-0.0742592482695285,-0.324594609391399,0.2079494776134,-0.0321052739473217,-0.0497001912599842,-0.37408281326917,0.114610273406235,-0.0596154161467501,0.0314515407444151,0.366919345486819,0.0992428392362477,0.0120942975952713,-0.191926489334415,-0.311653139082109,-0.289688142967836,0.33611951267441,0.0398946720854555,-0.260546504642683
-0.124716992457968,-0.0192137869237404,-0.153783305115029,0.378117683272659,-0.0139832790600134,0.118977719952012,-0.105189890159827,-0.360092473871897,0.216237155050254,-0.00835876435896299,-0.0351643762652031,-0.397427253752496,0.193514383430629,0.0592732822780905,-0.0830327540619802,0.375005543910693,0.0528305990457394,0.0234378819191586,-0.17558555903919,-0.332477280367686,-0.300420302888259,0.346712748447756,-0.00205474108048558,-0.320241663325668
-0.137697490351321,-0.0119819571789884,-0.156643660287424,0.373017712474014,0.00502835466409882,0.104358323599408,-0.0711017758304467,-0.297022165364565,0.208407989205782,-0.0269694459194038,-0.0497496074247814,-0.394110060376767,0.133958869523502,0.034247033833859,-0.0407438697477765,0.35632777840861,0.0712168781986984,0.029312020751415,-0.141105563540909,-0.289804586503632,-0.301035287709669,0.384910746056975,0.042053859860434,-0.301654390776454
-0.130181263650871,0.00828647423007306,-0.203817052286139,0.367896540275791,-0.00390326183040218,0.0870687723607346,-0.0620805567413711,-0.264307834610239,0.213889492203333,-0.0471582172159389,-0.0805130950263701,-0.358676973936457,0.0958041607407311,0.0973280879486171,0.0202949701342749,0.334731901776769,0.09321425475238,0.0394435836314282,0.116053119843673,-0.247795878414185,-0.314755734403624,0.395410236883064,0.0663638920913439,-0.262695222156881
-0.126980784589438,0.0329150331947474,-0.227209343283247,0.365738878826792,-0.0269600497019984,0.0849925616277119,-0.056647112783635,-0.222364880769194,0.224963129487274,-0.0685063350113742,-0.114042017365045,-0.318219165165973,0.0840950563631909,0.137947431572515,0.0379407836119229,0.302846711419676,0.0945572317088502,0.0595527563601302,0.0590403264275888,-0.187952428214017,-0.340236512808021,0.424039515744691,0.0847366275226114,-0.24263698547715
-0.148266119590934,-0.00391199967012114,-0.13903351065058,0.37489441791389,-0.00246354223871889,0.110771529782591,-0.0519861106260561,-0.234311548170468,0.209059301445432,-0.0404688240165613,-0.0684674425077157,-0.371567902115283,0.109268221938875,0.0759190084221391,-0.0529463289351628,0.324095349971158,0.0564582537255846,0.0528104884974557,0.0732000729373696,-0.228092751039675,-0.311188843116254,0.432807303733371,0.0692984267402715,-0.301094248905989
-0.14315773058302,0.0200490841044897,-0.166698233092846,0.371854089737297,-0.02871933822803,0.113477564639227,-0.0423296206574477,-0.193063373499892,0.223327287641996,-0.064365147052439,-0.0979474449882348,-0.317579872608934,0.0949123523817926,0.126550050157283,-0.0296278290872283,0.290196842965952,0.0495263168788324,0.0750187495016925,0.0147997873272403,-0.163900418477833,-0.333926727027468,0.455856927703196,0.0913269958326882,-0.276946981113785
-0.126953235119828,0.0769658958999392,-0.255714653222832,0.354283567778167,-0.0678695865257378,0.0971408747125229,-0.0571282757430441,-0.180037072412327,0.245975045468652,-0.105027288027846,-0.147168603313135,-0.240509521825602,0.0994218984310402,0.183202127303955,0.0484958359179105,0.257549672788999,0.0856446699950769,0.0779380325286507,-0.012899204771663,-0.108832907846698,-0.380976980769288,0.447589227890541,0.0957804162214717,-0.216931136526222
-0.147214688605981,0.0662573871271474,-0.175540149965984,0.351324334337024,-0.0841940379384642,0.145583787212935,-0.0304514991517675,-0.124848269404031,0.248319353341377,-0.111804362645829,-0.11651622718159,-0.188941108009674,-0.104523700464422,0.190859992499487,-0.0377661938116337,0.218770380422294,0.00460064739589286,0.106796282807596,-0.0928901942505078,-0.045018231380574,-0.364866275218557,0.478102673261787,0.109506618538907,-0.242835655184543
-0.119509865159047,0.160190112999109,-0.285373210096624,0.303114921950513,-0.140457082143602,0.128769282346672,-0.0497376895199257,-0.101779564995801,0.270542805425109,-0.170102054829619,-0.173120992143457,-0.0510979446953641,-0.14017298361204,0.267914287662418,0.0619897378392129,0.147357063795492,0.0424953123781277,0.0991813468501107,-0.145544095693803,0.0456389854713711,-0.429810287757128,0.447353627321701,0.109476011825776,-0.154238590912502
-0.153073909368011,0.142874639201069,0.162526874267475,0.271106753712465,-0.166600837612387,0.197291728404808,-0.0210950517934763,-0.0449123707646396,0.26616814893894,-0.187516914282997,-0.0741075786969153,0.0792375918451742,-0.122446079955456,0.274098768547646,-0.0515206103636117,0.0851865552134961,-0.0821885323331791,0.124033438673763,-0.213593426933579,0.126897169815143,-0.359320873193142,0.419163501225946,0.102846912188833,-0.146672996367195
-0.0941570574291389,0.236889696456879,0.292736936481043,0.209181269410861,-0.184695343159736,0.153927503103124,-0.0291636094232145,-0.0297668761309999,0.257120825666844,-0.218439476765568,-0.151355898422391,0.173108243250433,-0.18127599310787,0.342474104512775,0.0872427251899512,0.0122907351007576,-0.0137163715559821,0.0911887915795227,-0.244256432889251,0.184356068163364,-0.425996268141787,0.376655659009033,0.111544140774437,-0.0614923290068466
-0.165274462441858,-0.180121937526345,0.058220915789212,-0.149535175817097,-0.234748048437702,0.21919070359088,-0.0240429745255637,-0.0104356350240869,0.251607295591355,-0.240690902284604,0.0835253240089976,0.337084982772049,-0.074891375951828,-0.28790972154942,-0.117774984532594,-0.0337510853751459,-0.183741367284089,0.116165768225463,0.250930447839545,0.243331067870567,-0.232196234402703,0.244476476688614,0.0437215716136496,0.0187639066603769
-0.166642099913973,-0.00984938049397266,-0.104314321818666,0.381048284506162,-0.00844004125904467,0.13931565039474,-0.0787949156451481,-0.256880116758388,0.210001558648118,-0.0297957331955443,-0.0497200365391779,-0.377279878850143,0.156569979763703,0.00262592355685436,-0.115756929909646,0.338991733923693,0.0385353174817683,0.0467540822871264,0.0912489682872016,-0.254763341928868,-0.309709925651794,0.431420823502895,0.0348854655837041,-0.327548690425514
-0.157536069838824,-0.00909062584591455,-0.114720779821533,0.375905187296249,0.000389311791146933,0.121375190698019,-0.0586125342726269,-0.239631117936191,0.205834723769327,-0.0347651106361567,-0.057312013537628,-0.382136944250304,0.126907595936567,0.0466318208910192,-0.085191112552962,0.330389291429222,0.0483931150294519,0.0486344233458773,0.0795511949618866,-0.240309448890457,-0.306926845859706,0.434676010906961,0.0566971705006488,-0.31645670585731
-0.218512288837761,-0.00490890288350253,-0.0453791485564092,0.38325212255571,-0.0404798852912459,0.201562315877792,-0.0936260125918202,-0.184676395122767,0.216708422987013,-0.0448747907619984,-0.0425880874555445,-0.286597004975847,-0.162451159817913,-0.00990740291615098,-0.189460189593194,0.297861424072488,-0.0205921331910195,0.0758372702725467,0.020543562894056,-0.175565644711133,-0.311250180479649,0.475970277429982,0.0286456850595719,-0.333065650014813
-0.180688315427418,0.00438728961335563,-0.0925222304288499,0.375693931556027,-0.0296800090266135,0.155866434807341,-0.053148702262367,-0.177854676666553,0.219230526595969,-0.0581536851982057,-0.0659879648618314,-0.311111690552556,-0.121242372606052,0.0743429384034312,-0.118004732502183,0.291325495671358,0.00853502783323904,0.0768303173128602,0.00612713448778618,-0.163550716546525,-0.318376276537329,0.473381460279995,0.0695836569951705,-0.311833443805116
-0.1622437941901,0.0243987605032114,-0.121406902758064,0.366279273345421,-0.0493061124079507,0.148099116766774,-0.0312957812011016,-0.141846919321879,0.228639991786603,-0.078674236086638,-0.0912386172870126,-0.265715873240308,-0.100903831216867,0.134381541024521,-0.0852706148233456,0.256049879993402,0.00130523801328186,0.0965252802951943,-0.0496523652141365,-0.103727067571571,-0.333235110985862,0.483448873497985,0.0976785812303614,-0.28570907641906
-0.249394235749292,0.0163591363608925,-0.00640718784694822,-0.34970317825768,-0.0970810356233965,0.24344463762139,-0.0741374000435235,-0.0849777576006112,0.239708944963224,-0.0989180556067974,-0.0225711652815473,-0.124614800308827,-0.118985154766977,0.0764761078740345,-0.212015420558522,0.216910571654758,-0.0924505434883274,0.108244547017634,-0.0853681718409994,-0.0358969775601631,-0.294311535139521,0.47614330239792,0.0485612081251202,-0.288862609283849
-0.192162296869127,0.0460271710128287,-0.0872675901840833,0.345793497319489,-0.0949229569283371,0.196017527750178,-0.0356241406842522,-0.0928942103219594,0.246943766971649,-0.114530561701564,-0.0667425848213098,-0.143174081896012,-0.107008699878805,0.157008646252449,-0.129159422430958,0.204805704762117,-0.0571240797173932,0.115039245611644,-0.112477972377449,-0.0204092879038445,-0.329954546121359,0.481121956671961,0.0902755919774667,-0.263140981936129
-0.22966313597329,-0.0810064333202525,0.007760349619031,-0.264271129662825,-0.186274791524061,0.253229391335563,-0.0498468565558595,-0.0201666818362418,0.266584702928107,-0.178939523193786,0.0272759950073621,0.118299042934384,-0.0794915851405456,0.188647291328306,-0.193096315085804,0.0936812441878749,-0.165259979056082,0.130144565525363,-0.195869452635182,0.130051954605666,-0.260630883602238,0.383666594304773,0.0522922173267747,-0.172325399545318
