-0.0792906116952249,0.199534735826287,-0.242890827512442,0.146480229308567,-0.126240874349003,0.705659189394006,0.0541001460652979,0.14099169936378,-0.135444116649256,0.386420310033085,0.297224309717717,-0.0100173056682768,-0.177160631284715,0.488631843365832,0.290099406965402,0.0153271285578402,-0.339859247516709,-0.222105512712386,-0.240607798816748,-0.571313962975478,0.0501232215804574,-0.178828009279479,0.119041658300607,0.145636303566954
-0.0657587999750146,0.197308793120196,-0.255854841613117,0.212496013048643,-0.143487345687119,0.664096094546905,-0.016824858293603,-0.219993552013871,0.0972700876927985,0.374895475542696,0.341886250277777,-0.0142177091451605,-0.166099312049435,0.471799995115725,0.292673531168137,0.0137523693393142,-0.343709607956455,-0.184703085507525,-0.231600703246175,-0.548924094798251,0.0137558261165966,-0.0889873003657575,0.0870621688985512,0.0946142858364025
-0.0460426403754384,0.185557482763954,-0.26442773972504,0.265752150497066,-0.152000434180453,0.617837627215572,-0.0845803430740239,-0.286562008684149,0.0614458461768588,0.356041954208151,0.374334402926679,-0.0402936648328093,-0.15293146842707,0.449155276230891,0.279338517133422,0.0174056650847689,-0.339209739686851,-0.158506485427578,-0.209746960652813,-0.526377147778606,-0.00435419490449535,-0.0189616279578025,0.0676042862578147,0.0628021183046951
-0.062170726035907,0.178423085053414,-0.253302652726174,0.225130115599895,-0.135043737522975,0.666229599247101,-0.0540634452533063,-0.243087227688234,0.106141264119096,0.355222368482122,0.347392712840015,-0.0502584580152193,-0.154171816197798,0.443996109277531,0.272686222131457,0.0296044627630631,-0.351390274026304,-0.159992711137708,-0.229105259642513,-0.544253803617981,0.0152482358782608,-0.087295036027285,0.0986604787850938,0.0915067561028393
-0.0689449856911514,0.210433518489589,-0.260516444405439,0.20582646333283,-0.162428595768656,0.656513461281659,-0.00512281560399773,-0.206838213620954,0.091525962920173,0.382063922932777,0.347529401054725,0.00527729039063289,-0.189682530860312,0.493220948029629,0.301638373704605,-0.00182676986456034,-0.326920041494219,-0.208024982317351,-0.226659066095912,-0.535443440125184,0.0102927234811702,-0.0806184489512705,0.0817918897197666,0.101976034483644
-0.0503668395362457,0.213195112526151,-0.270005239377393,0.247072030457042,-0.183991219904396,0.614121554020143,-0.0528132193082869,-0.247764287074462,0.055846381116346,0.376218570313568,0.383390549284239,-0.013548946378089,-0.192232741112248,0.490095514705062,0.300459216910047,-0.00479687743386688,-0.31909814592811,-0.196663390792826,-0.197115233640873,-0.507846853340928,-0.00508741916121355,-0.014012591582564,0.0689189926277165,0.0749392338715616
-0.037626206703644,0.197227167328007,-0.272437002477507,0.273612766374785,-0.167482975431225,0.598586219500564,-0.0898945163730821,-0.290106045326051,0.0382783147153675,0.363053413097287,0.389589107774122,-0.0380255586608238,-0.164419671481668,0.465012754042104,0.284688064498766,0.0074286147563496,-0.329606839411787,-0.171322310817542,-0.186783232158074,-0.515461470950993,-0.00338050444949303,0.00693432349011395,0.0635036628735604,0.0590045722244322
-0.02113847876084,0.205955187601273,-0.285757601128937,0.283445433044792,-0.187782683561217,0.568957396842784,-0.120510938936184,-0.299647037174772,0.00480494842681036,0.367345262943197,0.419428978556786,-0.0626127755650614,-0.18489459046734,0.476291555501618,0.27869951177277,0.00425560196902905,-0.321494250463772,0.183497287646566,-0.133713656346873,-0.488064814823237,0.00954209668898046,0.0478877653208709,0.0759713876902603,0.0551497841443676
0.00415850325224647,0.20618684008307,-0.289902016031804,0.260009912373231,-0.235525433437926,0.500203783508209,-0.145697137143161,-0.257359761796182,-0.019703349041803,0.383685081682492,0.502270382077852,-0.15945221213679,-0.265269895059221,-0.479178144844301,0.271489324009734,0.0401943270974072,-0.336023874075285,0.204766499190952,0.00133170333706027,-0.37309975417045,0.0786239960920638,-0.132713062981989,0.181274296632809,0.0390237061845274
0.0149191325059582,0.191116968794352,-0.312961147844401,0.278888320021658,-0.218253285032371,0.510869538556676,-0.171917272241671,-0.307413262760371,-0.0374941837797731,0.361693097532471,0.469171204236813,-0.16796779664872,-0.205678649393992,0.464597879837315,0.260365355032096,0.0202730998778675,-0.334385360922963,0.181542383035482,-0.021781595861188,-0.417060138901162,0.0632086234192864,0.127445776063328,0.148395554183183,0.0380813700968525
0.0205905551226836,0.177862131110329,-0.32142192380688,0.300727816691492,-0.19314610901045,0.506962731774954,-0.198974216932525,-0.357782728127541,-0.0603928650280935,0.342033953211978,0.446336635337666,-0.166110239938369,-0.160288794789416,-0.445576115485482,0.240573731641652,0.00833481737525259,-0.331004335587905,0.161243632132978,-0.0318841816859933,-0.453132124985243,0.054721985381465,0.124936994676487,0.114142932263766,0.0347392574502856
-0.285000758242027,0.281832048261446,0.161964583733378,-0.0842575414592125,0.140312475998538,0.587985157941148,-0.424563059720927,-0.285440635278861,0.0582738163209101,-0.153310252607991,0.116173063226395,-0.106723700898846,0.146952464461946,-0.0935310939015236,-0.0644511794871834,0.163949193508248,-0.0536995551956375,0.183287496568895,0.0726219180596881,-0.453199701150069,0.0999318013591752,-0.367106689399021,-0.354309643937137,0.639777073922159
-0.33462317172791,0.315419786255957,0.130831678574105,-0.106248803219609,0.108867344555458,0.563779202361233,-0.387877220963433,-0.304446319746852,0.0942602229612781,-0.131324413216985,0.112767068268762,-0.126112024009806,0.0945551135029615,-0.144944313508036,-0.0907356074871601,0.180526043516067,-0.0158209900197396,0.181259462412579,-0.0874194639515914,-0.477606430883652,0.101383307344198,-0.378666595219261,-0.328898720836854,0.595041673766058
-0.0846289014604708,-0.00942978428011934,0.0226697543738263,0.304997582760313,-0.0861048735575774,0.0326324760960367,-0.0100999688881066,-0.281899207165416,0.262836439450039,0.46579157747717,0.323966085745983,-0.342961003178596,-0.312809188904871,-0.448341308013722,-0.0878395243716909,0.124098532524776,-0.164444820563815,-0.00762256384145648,0.040846734535302,-0.54183035140267,-0.0429316211266573,-0.180541461020009,-0.0963181033113785,-0.0603695833505804
-0.0877389923562173,0.0416718156581596,-0.00626988277729846,0.313414261344142,-0.0732742015160063,-0.0677268879071803,-0.0345498315117319,-0.303873111199228,0.311938136974022,0.509945576592997,0.315597517230827,-0.360430350744706,-0.308734417755447,-0.455487961244672,-0.147806584260326,0.160617908310254,-0.190195852188938,0.0415135832498261,0.0309573305796801,-0.599303892003339,0.0159528230931349,-0.148758992386509,-0.0567554849601142,-0.0175524452447094
-0.119472017796245,-0.0149867240515359,-0.0116095204907999,0.287559605167033,-0.0912093785509687,0.0357032949112052,0.0557810830774113,-0.289692295093427,0.244950274304673,0.459000481415144,0.303919483298085,0.370336899169788,-0.306943066148617,-0.468926065022589,-0.119705532367974,0.139833541999039,-0.144787239446708,0.00287604208251763,0.0941781755740488,-0.520212649212745,-0.0225347069019691,-0.170586416794985,-0.105730462123319,-0.088801325814863
-0.112081177697721,-0.00220124910223264,-0.0282671630057454,0.275251766844028,-0.0677050562458377,0.000134579312148206,0.0493087465178368,-0.291648575761632,0.269459569178334,0.477799489240477,0.289409628194546,0.387935516430677,-0.300496715493398,-0.470006046274635,-0.143089268479152,0.161873694122444,-0.160614261406903,0.0227140806601583,0.084209794233929,-0.5572731900168,0.0168056238302439,-0.145147858098248,-0.0858340442320912,-0.0707745778486237
-0.182494585269183,-0.120088556888351,0.38500166297087,0.0128163531562096,0.122422730530504,-0.51335417052304,-0.237573544047917,0.0156017773611386,0.0264642729683758,0.10115045719782,0.0481425834359588,0.000737788278951212,0.120390940129143,-0.248327769771443,-0.204364281827285,0.130721260143364,-0.247639176878222,0.435586024708362,0.0645978740322449,-0.365253807161763,0.195126868726481,-0.408643414382808,-0.53065674034959,0.459972937934728
-0.284151112936653,-0.120086316754461,0.309577348209378,0.0765513961469936,0.0321145661711494,0.438737631894407,-0.300280970407083,-0.0274917528921515,0.110166452583921,0.0296496173375697,0.0682450077462462,-0.129324187736762,0.0812645147863721,0.237646382239143,-0.170778677943786,0.128800683973611,-0.164611895384733,-0.335139849372166,0.156478185892686,-0.431159644698328,0.207221198936941,-0.350070124377088,-0.511004134130214,0.452674147604489
-0.339827980881032,0.170451361155542,0.229508127402903,0.141997848054188,-0.019974744353064,0.393364629055924,-0.310520006636849,-0.053138607397029,0.209359978874589,0.045816264962361,0.0799518863741034,-0.206632330086057,-0.0081310801808044,0.273975145985449,0.101258936179419,0.131422460420525,-0.0865543130455687,0.219895673586257,-0.222026285677845,-0.5124405178178,0.175806484792622,-0.321959086288094,-0.43317054166077,0.403140984310728
-0.306606572702057,0.135378975990659,0.261560058791644,0.115207613784386,-0.0133447260778556,0.377252624648001,-0.284199969234305,-0.0151111741249433,0.198396395844419,0.0371537255202868,-0.0615685280966841,-0.207996302335091,-0.0189881816782313,0.260129953724406,0.148750404462216,0.1047449742099,-0.122438904778522,-0.207954559379199,-0.207280626834629,-0.501598835353413,0.166954397248734,-0.327122990892494,-0.457394976733147,0.380020038181679
-0.347704115808033,0.203329663453787,0.197298168134584,0.157593531744082,-0.0216704438323284,0.389740057906514,-0.30573226296848,-0.0652877864455524,0.247471992765835,0.0717088026340889,0.0847240675397632,-0.215059440476108,-0.0348800561407857,0.295073014431976,0.0618049897514834,0.1317860508826,-0.0635355550132813,0.185647147303286,-0.244572517866493,-0.544675987448125,0.171297485120701,-0.317702454963827,-0.393703171354837,0.384330960666153
-0.266883666780874,0.277488231099749,0.183958731185302,-0.0660369779384816,0.10844500830639,0.605993693907774,-0.415593392507265,-0.279939077210326,0.0837442249096801,-0.202952077016123,0.0854435519723675,-0.0940300542338979,0.141407938005757,-0.0989357330921299,-0.0703183419255945,0.111615168874033,-0.0989038356923062,0.19102461572063,0.117622445376693,-0.459423684911377,0.106475304714886,-0.35402692659681,-0.375312536132255,0.645056475510189
-0.313735112380383,0.315206801536317,0.148298911767046,-0.0838773687908767,0.0974852341853142,0.580485032969552,-0.385188349023474,-0.304530170018933,0.108048124099163,-0.170894745767281,0.0916856959213661,-0.110053993030744,0.096463189771531,-0.128686498152181,-0.107799941463902,0.133944590893553,-0.0516230296277181,0.180661620047752,0.109291420250192,-0.472520171707084,0.100962372043339,-0.35911487244015,-0.340279294963661,0.605897551644587
-0.354369069556569,0.338827570442946,0.121734211703045,-0.1020458940049,0.0555953107125031,0.542256318965782,-0.3445731134925,-0.298582674787404,0.164400847739655,-0.159646906932052,-0.0865394430555238,-0.132728205228266,0.0390947115996906,-0.201669854618316,-0.133330879211632,0.140882256535674,-0.0143924073126965,0.175873864395464,-0.147418947871559,-0.504628863636832,0.115412026090702,-0.359357215927529,-0.315959478600411,0.542341095159687
-0.383324309579093,0.330623266954777,0.105123307534555,-0.132004695650351,0.0330033401220193,0.496628462093062,-0.326300338981069,-0.264368614940062,0.202943065511985,-0.13604908834973,-0.0927444085728746,-0.158356000128512,0.000574480786089362,-0.255813668485467,-0.11746658184231,0.163029346456964,0.0103199630727309,0.174635786034002,-0.182441771732365,-0.535199432821461,0.140279684707323,-0.35912125017331,-0.305997796804209,0.491132330602552
-0.357979145562757,0.268603265536889,0.14096698545164,-0.157113807804369,-0.00806073754001765,0.408416600818473,-0.295685774026826,-0.114280245288394,0.28747931977107,0.120332032361487,0.0913255959021341,-0.202223393874649,-0.0490082241179256,0.327689839439308,-0.0285122942982143,0.138448333517027,-0.0244787702666673,0.160583402917654,-0.267429594807102,-0.579643213450811,0.182275622114714,-0.321174857183357,-0.329785755980688,0.376450376147208
-0.342243779186314,0.230901013387074,0.174077921580366,-0.159667126685441,-0.0177850578078527,0.390729421972484,-0.292219821548788,-0.0684869777864528,0.27960176036728,0.100665234842556,0.0867417500311584,-0.214912902474966,-0.0544622694761052,0.31615388324962,0.0241499093951689,0.12413239151574,-0.0540680351059784,0.158101100937689,-0.260562112910691,-0.572324501787681,0.173327688742142,-0.313498442037744,-0.35997943370935,0.361556277692211
-0.329932039384285,0.204639756846421,0.1959468889671,-0.155948096481891,-0.0221667100785058,0.379553870819297,-0.287897575212076,-0.042937973779958,0.269324016352887,0.0866913221770609,-0.0812062360557701,-0.220560486840363,-0.055627280949662,0.304501341566817,0.0595913481373056,0.113132724474193,-0.0735364697771624,0.157135980464093,-0.252310358397115,-0.56299326865338,0.166425216789215,-0.310900731029355,-0.380578794061756,0.354793694365959
-0.349927399775055,0.350536709257121,0.117761071891395,-0.0893023225521892,0.0247877613446881,0.526809079030487,-0.313728567685187,-0.287584685343784,0.204076720782842,-0.178995035635687,-0.0719138099208718,-0.133852279451991,0.0143779830441519,-0.240661432790938,-0.158992559226628,0.113876704065796,-0.0110161375350173,0.168962363269181,-0.178809783791356,-0.514121716254886,0.121830822728117,-0.345241054449559,-0.303843192998502,0.501050097341457
-0.362051338499891,0.344131622538257,0.109552233876329,-0.106315454814494,0.0151465474333136,0.502641361380374,-0.30716485075795,-0.260358327176392,0.228220507761047,-0.168319919618887,-0.0782340633850037,-0.14974832738585,-0.00594613690849675,-0.270654196506631,-0.150614049951653,0.125689245018783,0.000170329385025113,0.165394397410871,-0.199026669495083,-0.535067428367883,0.13896323799837,-0.342602346832859,-0.298674429248404,0.471679530177025
-0.36738850728839,0.328059661663603,0.106046595874732,-0.125965223519907,0.00473211231839242,0.466318653878303,-0.297182124414291,-0.214119564636203,0.261715634695676,-0.156863482564647,-0.0844406684963814,-0.168349560297493,-0.0283831615796876,-0.307468941906896,-0.125177119356081,0.135146065575142,0.00503148916537927,0.161220188237331,-0.232084728239883,-0.561197751439288,0.162816757160433,-0.336671202614475,-0.296658418835958,0.429868895067491
-0.363954185125484,0.306370123957027,0.113263855346124,-0.141768065789254,-0.00143758902157212,0.434139736259421,-0.29160840506817,-0.165117393532385,0.28722510335768,0.146825342609945,-0.0888229673708645,-0.184189804592821,-0.0442303915407894,0.328910827722346,-0.0900224505412611,0.137291719313091,-0.00284826478475285,0.156792901305473,-0.25971276904812,-0.578814202728124,0.179476364142679,-0.327414094257457,-0.301837403206943,0.394784836081835
-0.360678081355301,0.289633267538328,0.123005165508282,-0.15075980703312,-0.00479068400512343,0.416102076939781,-0.290858856146459,-0.135648535874022,0.296824114733101,0.138139049880019,-0.0904446125727705,-0.193776401319213,-0.0515897179961231,0.333969342228186,-0.0631994766126811,0.136487599720608,-0.0119260481478716,0.155062404390631,-0.272000448067173,-0.584151617528417,0.185077307122482,-0.32098424605037,-0.309890084439481,0.378213330376668
0.027537975512361,0.123165030567318,0.122148652942552,0.373714828400415,-0.268701272675568,0.343720731562663,-0.354667336706604,0.340844374426271,0.335777701014576,0.511040681594819,-0.298230443914135,0.0607716081300421,-0.244213726807412,-0.28951575139227,-0.143114846609406,0.107605321107561,-0.187017654847199,0.129003358892548,0.0927400838905508,-0.443904089301951,-0.0452511914198584,-0.174010495863875,0.136840456195297,0.242021292951607
-0.0085641422053744,0.011867194611939,0.067592011251965,0.335167984505571,-0.0600726580308814,0.00640055110688122,-0.129232519021261,0.286687933631851,0.303018312549182,0.473587906332776,0.370733312163513,-0.308174383462568,-0.326084116365984,-0.417960181463744,-0.057301652807006,0.122812661121258,-0.189855556090613,0.03274989722721,-0.0547085414627602,-0.579220769739084,-0.0182200443415435,-0.188305304591102,-0.0626555524804716,0.0159682582944223
-0.0171534772425219,0.052360272177577,0.0556171576211217,0.363150715964361,-0.0769967429177121,0.0593796164089511,-0.144613469072083,0.299577970927587,0.326458883669777,0.4947235062835,0.376021553644397,-0.304673948532361,-0.328238713026303,-0.423359877324929,-0.0935616265904997,0.130263106951185,-0.192610739138807,0.0656095372081951,-0.0566821323705529,-0.600311307222774,0.002817302265366,-0.181890179094821,-0.0393346343719211,0.0533609110850172
-0.110384449199699,-0.0809023005279454,0.474191564035099,-0.0452210858998457,0.0894769384231555,0.503604224010055,-0.125985860576673,0.0669637637633102,-0.0305314187219551,0.0882911611126335,0.0124124835051808,0.00327580642186639,0.0617690103026209,0.348436423422593,0.222699117162725,0.0864481526339117,-0.23381679600995,0.424188155873108,-0.0108127557029471,-0.332543711683646,0.125813928279298,-0.427954788607084,-0.491215343144629,0.3445260578578
-0.125012322166436,-0.0322787757173805,0.464319996360929,-0.0559558149305982,0.0462740246556897,0.419539242073968,-0.0923635064649673,0.0647967805094448,-0.0189077352722257,0.0137749177438822,0.0380459208268244,-0.0750545653181935,0.0104070170916198,0.326740723054826,0.261029358865408,0.0507161415112207,-0.19895689299223,0.346319720110787,0.0048952800542957,-0.340775826525267,0.103751774280533,-0.412758150829292,-0.497881945707292,0.299121355051113
-0.130858845613437,-0.0230161949674182,0.43964433562567,-0.0362324449340377,0.0119722423084962,0.378537324537393,-0.0619923027688822,0.0470517098541129,-0.0185282461244954,-0.0262518800025635,0.0429846807359528,-0.116385907510215,-0.0219416952632877,0.313850842913067,0.264389692465494,0.0336063927156369,-0.165479939366325,0.296076477080851,0.00388091092664727,-0.344218914035384,0.0794796736253813,-0.401263285223182,-0.496319022449292,0.278681576848912
-0.156268421849521,-0.0306815560315407,0.433383708978542,-0.0457447581847472,0.0638532995520233,0.399665181324176,-0.13261397888167,0.0635660142843514,0.0229172190698634,0.0175366626654486,0.0268656330460132,-0.092383931209068,0.00337481928472094,0.279578671937096,0.278909922719715,0.0650156887084354,-0.216062741500429,0.319307764537899,0.0439200869577444,-0.365736680834782,0.122567164557597,-0.410415369352696,-0.51505120023222,0.32071228215742
-0.154175821277583,-0.0129741145011782,0.408134367468431,-0.0339968695761285,0.0267619307659111,0.347329318835872,-0.0880112177351919,0.0478316773105628,0.0193365658371366,-0.0238711427880253,0.0400807658584993,-0.132767891637848,-0.0370667541216514,0.269395488593464,0.285832736568976,0.0453140209620419,-0.178705019701737,0.258914397674585,0.0376097475745516,-0.365250407462068,0.0883596552375474,-0.399574055735716,-0.505479993525212,0.284413410691135
-0.152076764070979,-0.0251300287221264,0.382740365874221,0.00467771810520283,-0.00382961434618055,0.332363830651985,-0.0525023786772525,0.0241065354290153,0.00908547855873879,-0.0433433460982794,0.0338799566812292,-0.155895745664902,-0.0608841198198131,0.27556254611456,0.268427673379674,0.0383736646732919,-0.145536777730802,0.22398172855387,0.0220157174632969,-0.370707944374368,0.0585530114148149,-0.391327516970302,-0.494816659412558,0.269305858343635
-0.200294530643514,-0.076428979683436,0.399263380589844,-0.00215887593702367,0.0938937793038693,0.447387146858628,-0.223982027054159,0.0457151412904319,0.0611233014556623,0.0588826185422264,-0.0217793031245016,0.0684390517059074,0.0579430928296269,0.249141346828516,-0.245762984763823,0.103273677385206,-0.240925226142935,0.363660927922604,0.089076692025866,-0.390055512039572,0.178578225330884,-0.39765635370898,-0.532485999565873,0.402558094049538
-0.197927434659563,-0.0425763505621996,0.39238737393074,-0.0131413709798112,0.0583649407064232,0.386328652267836,-0.184258650189543,0.0535883783478737,0.0713104136072701,0.0169403108714959,0.00351028498468282,-0.124481433194141,0.00190609888380747,0.244635160182787,0.271986306906352,0.0754603006031172,-0.215466673512509,0.289007645136567,0.0906982868922874,-0.398504238025684,0.144282890219505,-0.391884431906592,-0.52350259166802,0.347729043147783
-0.187798095405575,-0.024251010017765,0.370320038428898,-0.0083089610617768,0.0274778440499883,0.336445398387012,-0.133770893655626,0.0447631368445423,0.0681780414768061,-0.0144965830333687,0.0202865861709904,-0.159663909831834,-0.0432729871531962,0.238608179321171,0.281555780634157,0.0563414467009111,-0.184607788453982,0.225483628594525,0.0799902307661537,-0.399985521355811,0.105726902755048,-0.38690949887796,-0.509040055300776,0.303456755105508
-0.175757802848302,-0.0246217333426171,0.34249327278177,0.0164925552223905,0.00709208956225794,0.305908952660073,-0.0862761988171449,0.0260109402726603,0.0607754479605374,-0.0287008577786362,0.0255706798270765,-0.173983382469787,-0.0741540246666971,0.238676678459898,0.277565169455635,0.0490607247513397,-0.15938431617485,0.178111590440568,-0.0651060243062637,-0.404701992510979,0.0708424546472294,-0.383036924608292,-0.493684760754746,0.272949477191216
-0.173334441764491,-0.0433348047634782,0.31473601301445,0.0650259580570668,-0.00693399150231409,0.298627161225641,-0.0538286085914921,0.00447892667314456,0.0515349113167878,-0.0280695525626425,0.0112774897634102,-0.180000764607269,-0.0946791048075319,0.249614536871341,0.257397724972899,0.0556061884937801,-0.137480257118985,-0.147815877642246,-0.0473474539369697,-0.419749007127764,0.0417658261550815,-0.378754292302636,-0.476780381783335,0.259604021738531
-0.24071358942031,-0.0695914998356591,0.34930612666552,0.0323485521294045,0.0383696587545936,0.386708410000046,-0.236560711927386,0.0323002314545075,0.116347288410435,0.0205921544077994,-0.0241059083541324,-0.152971651491674,0.00913761536225047,0.233833812457758,0.240090782228426,0.0874162350383865,-0.197423837716198,0.269913006981616,0.137569917593832,-0.432033433623186,0.164865687689822,-0.366823534273561,-0.518279371198786,0.375849851699647
-0.2257112198928,-0.0539477009541691,0.332483856803803,0.0319655361810477,0.0165788383323376,0.342722193789601,-0.188678253187915,0.0346631350206685,0.121555632028409,0.00152887744655622,-0.0064589023539381,-0.185312382303392,-0.0401043455223331,0.230945961290681,0.251933481832276,0.0665879353890176,-0.178057268673247,0.203664460278403,0.128705531480234,-0.440794718950535,0.127931644390563,-0.365888610152807,-0.501287047838438,0.327374228057283
-0.209870637308764,-0.0498487851285979,0.308717372278845,0.0476129327036101,0.00317438699145617,0.310766586633702,-0.13775504712166,0.0261715635291472,0.116472731938458,-0.00683714066111081,0.000442507920818347,-0.197815387424954,-0.0765759773041092,0.231202603378437,0.252167308629132,0.0570899145532394,-0.160557245747644,0.153131630167414,-0.111883343913673,-0.449653580148518,0.0936509728412311,-0.365722036402584,-0.482505786355199,0.290506944788344
-0.200523668276651,-0.0572296708915426,0.283073171507887,0.0830568145216807,-0.00141282225179644,0.293164633087785,-0.0960000181425523,0.0131667695276225,0.107744271611942,-0.00182326722933082,-0.00686447020124186,-0.195678475504018,-0.10181185825635,0.238110942784369,0.242456035107381,0.0610031752594315,-0.148370604967041,-0.117855955700176,-0.0927432525031788,-0.465415858467946,0.0645258307292966,-0.364845649920315,-0.462422175848693,0.266956144800612
-0.200323714682724,-0.07487717586312,0.259338066132502,0.135791074036352,0.00197769148522616,0.290873880032537,-0.0734726167811703,0.00193151516796143,0.101208567267714,0.0171544771823056,-0.0285956990004419,-0.186665069963825,-0.117871958066892,0.25389884443973,0.22432705142623,0.0775660532024287,-0.141180549553652,-0.0936751906294314,-0.0761884325359785,-0.491443247007715,0.0414159813343701,-0.362455264318319,-0.438678508909379,0.25541488455157
-0.268836898912307,-0.0946725648800337,0.295878672795515,0.0776616006897033,-0.00109007030233397,0.359824277070268,-0.242571617739379,0.0147962524141012,0.167060591690141,0.0202006311319328,-0.0371072745593343,-0.203069998170015,-0.0315559508480857,0.242487846423135,0.200464497879574,0.0828756374975259,-0.154148196707254,-0.200205748645398,-0.172743488902078,-0.477169576798198,0.149614735664156,-0.342660206255707,-0.481750132994241,0.354767694484112
-0.232584249569373,-0.0936004664446947,0.257013640983012,0.109604723204206,-0.00357998695339286,0.311159292793996,-0.149494806160454,0.0175710099372505,0.169465999034329,0.0304507440553305,-0.0323099011629529,-0.210787560303759,-0.0993378142160374,0.252631643681965,0.199482233349007,0.0644123942237736,-0.14671435700536,-0.106355249379782,-0.144253935696537,-0.516591220195574,0.0963988822249795,-0.345277737045201,-0.437296506514296,0.280821762002007
-0.226041019682359,-0.0993449417699595,0.236872523059307,0.150936344871715,0.00671675617463445,0.2988952242234,-0.116850511180097,0.0156435889406285,0.16219829262551,0.0501291707379937,-0.0474363755667715,-0.194960787245519,-0.11975625258682,0.263598608335003,0.191432742748355,0.073826320008058,-0.149882642260416,-0.0786914959196436,-0.125588610903997,-0.543253122982919,0.0751257674888019,-0.344122746391484,-0.411405836811892,0.260559243975265
-0.229963345976643,-0.109977667423157,0.220055738852026,0.20395080704854,0.0213280917831485,0.297917022613157,-0.107304269103857,0.0175071823933892,0.157151700261798,0.0809295680247524,-0.0731103509698437,-0.176268847500241,-0.133525135642056,0.281727617032459,0.176078126108253,0.0948472300033824,-0.153422426946636,-0.0601251926791483,-0.110935691293207,-0.575052422710595,0.0579918767452971,-0.339809182139977,-0.380175278124779,0.250830826684025
-0.286530883435966,0.140934669608146,0.246314282311126,0.118948047389188,-0.014884184254846,0.357236496565085,-0.247862744483717,-0.00126362240052391,0.222349965901099,0.0515458563589053,-0.0552150532866224,-0.220447585923342,-0.0580825306739921,0.271963042361815,0.142885929144797,0.0850704746895471,-0.122536971062618,-0.154368326839416,-0.209762779936092,-0.530887417204355,0.14855621621559,-0.326098683757239,-0.431182762986728,0.336517276224412
-0.266544988052789,0.144939360181941,0.229847398192294,0.134750951973856,-0.00749807893441623,0.340454464147836,-0.205291512685861,0.0111274710035622,0.231040782997796,0.0683656735536093,-0.0586806337581017,-0.217325179971166,-0.0888689609996459,0.28358238465686,0.13592318062216,0.0739653794428455,-0.129991660027017,-0.111271569629114,-0.198292481370544,-0.561858273659553,0.131456345312631,-0.325116989665628,-0.402749213131852,0.29724862536228
-0.251096325690416,-0.14163713928966,0.216219243209019,0.165164895819813,0.00874291323142678,0.322083027622467,-0.166181740204197,0.0240299403209463,0.227055008835699,0.0878019204982556,-0.0691981642470931,-0.199623653955525,-0.112262594348788,0.291906156394973,0.13765130106422,0.0717233832268413,-0.145826649694842,-0.0784122678974321,-0.179864975453715,-0.592488584544382,0.114399017911239,-0.323151851955807,-0.37437005079257,0.266500988400823
-0.251148701722592,0.140308411903893,0.203067125650292,0.21122164665853,0.0273353999564842,0.310611342849922,-0.146800374149996,0.0346470490302452,0.219966168465911,0.115892863703754,-0.0890140575144609,-0.17534146772485,-0.131450674094059,0.303769549210667,0.131884881055133,0.0835120830379889,-0.158720068526631,-0.0572165126272704,-0.162318103017023,-0.624475331354248,0.0985213693514342,-0.317758027358026,-0.340954021809274,0.249775019432173
-0.25875853180558,0.139986442645508,-0.194330785744136,0.258991667423901,0.042873866128935,0.308041412892183,-0.148850523422998,0.0459342877270279,0.211280081729202,0.146765631476733,-0.112259888137613,-0.156019852733825,-0.145845789406857,-0.318042102837257,0.120408784329436,0.104398329497209,-0.164903615429517,-0.0428705162834326,-0.146989927516966,-0.649335276175392,0.082336105299577,-0.309838921141573,-0.30778837314561,0.242197198420184
-0.26954493554229,0.291534089652714,0.181146609929291,-0.057394455335687,0.0898974002585448,0.606253355561543,-0.396282086226369,-0.292774465535377,0.0969879005713112,-0.211894887898408,0.0700100896971947,-0.0907768275538383,0.124589797578855,-0.0991042900769065,-0.0904407550078591,0.0893499540687249,-0.103873414798876,0.188088785845503,0.12492909026804,-0.453374490743711,0.0976885942312109,-0.345799777639003,-0.36866186896066,0.633059914937933
-0.287590710047404,0.308256236440137,0.168158689789315,-0.0625508510276385,0.0830316656934658,0.5964423778335,-0.382470841043244,-0.303072158921309,0.109444473375764,-0.202020443556426,0.0713036412761381,-0.0969486794613446,0.106200944102674,-0.115858534786233,-0.106822992466229,0.0965721467770422,-0.084388776076312,0.18484982059647,0.124888415227711,-0.459073622472727,0.0955921524917761,-0.348293385197484,-0.35539296591273,0.615823906952786
-0.318605289459034,0.333172211781565,0.145291797291566,-0.0734439323680149,0.0658637360206189,0.574084996178003,-0.356317760212058,-0.311927566347877,0.13836023774466,-0.18688261844357,-0.0730884507803615,-0.110025632136186,0.0707374188209435,-0.155094100037215,-0.132874022168082,0.108237689691349,-0.0507934568561691,0.17897582751077,0.13378554422525,-0.475004105054677,0.0979966618168872,-0.351020468134799,-0.332486781844762,0.578280661889846
-0.336776756812553,0.272499064700023,0.140115785895812,-0.149289528064913,-0.0107928944748024,0.40069974657896,-0.280464742403094,-0.0885755750890048,0.315060409680946,0.140999713442907,-0.0888898932503693,-0.202738014608445,-0.0606372269162215,0.34445424649007,-0.0390238149529787,0.118364025715994,-0.0339714000639438,0.142145084282493,-0.283913970682678,-0.594425673369381,0.187802701808532,-0.308509313566986,-0.31636694392196,0.345650789458142
-0.325468219290414,0.257201897187333,0.153865799442792,-0.14967162497927,-0.0102774931722834,0.394230156749391,-0.275456555639552,-0.0666093944557483,0.312664512843681,0.136081183492241,-0.0877802904719297,-0.205250061471602,-0.0622420762146801,0.34180321471162,-0.014738544411693,0.110860056877189,-0.0508364557987532,0.13791670372829,-0.279927016826493,-0.597728819353756,0.184552654494295,-0.308128519809508,-0.326693689322592,0.336399954083268
-0.301805304645568,0.208634738495191,0.192181115082042,-0.149952385399347,-0.0104534871942163,0.374120437175502,-0.257578670805543,-0.0193537576717719,0.287267122040851,0.110198721394671,-0.0807995337341642,-0.212839855823453,-0.0700777264012091,0.321097622798555,0.0543335683087448,0.0943245372008506,-0.0923977022963709,0.129431718442274,-0.253305676530755,-0.591202285042119,0.167094274389935,-0.310291721920289,-0.361097564662258,0.319549419196068
-0.266862837681857,0.192437741480823,0.192255648787913,-0.167790671238787,0.0130462125958929,0.349852269263998,-0.209576320776017,0.0224003446424505,0.289130290907322,0.131242942595781,-0.0871302775589561,-0.193718450245791,-0.0949912556553616,0.328938627272288,0.0753106155493551,0.0745394234805169,-0.131599971186442,-0.0882372678744244,-0.235035554511888,-0.629633956299088,0.154049521113009,-0.306696604233116,-0.333754950054614,0.270612957336315
-0.263970792115318,0.182280098423489,0.185967936855179,-0.20864876039595,0.0330537107641719,0.332256124863871,-0.186423118335249,0.0467328703260798,0.28225219340682,0.153532448086585,-0.104934200584839,-0.170848823456601,-0.118648304057214,0.335602048330197,0.0785965002063789,0.0777430516684687,-0.153837562183975,-0.0650037744321669,-0.214459522145435,-0.662133917114092,0.139165060431519,-0.29820684363736,-0.299631629815205,0.246060492114687
-0.275519523151078,0.173917440037708,0.17883273377573,0.262064013502195,0.0537254665438143,0.321071819790197,0.187898084304809,0.0701120051895329,0.276166032000402,0.189341073686822,-0.128364826603499,-0.143492101571127,-0.141996749101365,-0.348424145625362,0.0688966273323154,0.0925738816139558,-0.168280839932041,-0.0482040554058931,-0.20021667970273,-0.694603791562568,0.124567830892349,-0.28388966370133,-0.253229552572399,0.232576794585688
-0.274459819286463,0.154565009524137,-0.182711265334584,0.286488833877763,0.0566210874969777,0.313936105323972,0.179825619734946,0.0689071621430955,0.243426785113907,0.189539991258226,-0.132157155715109,-0.139728645630595,-0.153032970475383,-0.342089078534366,0.0838682900161051,0.107296452058424,-0.170201961422735,-0.0360568732599644,-0.171125638482933,-0.687647765558787,0.0982473065726517,-0.287835882562821,-0.256072456292804,0.234196086484678
-0.288695166636427,0.3288896581068,0.170742148956685,-0.0530481679350466,0.045097395008025,0.593051068516458,-0.355148244573324,-0.311751256294217,0.131549858391324,-0.209719875469772,0.055469385732776,-0.103327542935745,0.0880099588748042,-0.15053532204365,-0.12337208588111,0.0821371028290628,-0.0763788643466118,0.186015113090755,0.138747401574826,-0.449660006822621,0.0811047856059374,-0.34501833326801,-0.352971264219771,0.583383068978236
-0.322597224660657,0.353436223387673,0.139664446787702,-0.0680442370484232,0.0285986559728161,0.557878947063104,-0.323580616539581,-0.304582115888242,0.176455671731638,-0.191948464883246,-0.0646493206854374,-0.121584338082028,0.0452680638677725,-0.212381627222299,-0.153832486834107,0.100197881389937,-0.0331308632686231,0.174584120651993,-0.157186839796983,-0.48394509946043,0.0973742235003164,-0.346571680477195,-0.321251585669111,0.525959633091182
-0.332883405244301,0.358428500408563,0.120346566016215,-0.0773724748568613,0.003338782576713,0.519681658728519,-0.294036341828317,-0.265379829206358,0.231167823126316,-0.190030747957316,-0.0685808741653069,-0.139844065348375,0.0080654974667453,-0.280099586921733,-0.168802713525059,0.102296744397279,-0.00921973902808445,0.162418865906735,-0.1951362426767,-0.521164372955932,0.124591500915553,-0.337902673074558,-0.299201658492333,0.46003256851208
-0.332216280413325,0.344989660024644,0.11047166427597,-0.0920044688263756,-0.00588541360587177,0.481177284965155,-0.278117753696562,-0.211045708742063,0.276837691425254,-0.187949892847262,-0.0754023483253152,-0.155332758407137,-0.0172808103286248,-0.327273290387581,-0.154905518648056,0.105650139336219,-0.00245427309652073,0.153064465522252,-0.235154919257664,-0.558647407031749,0.157792522027565,-0.329513274653961,-0.288464449533275,0.409676256973888
-0.327140533359589,0.323256674692165,0.11262968623423,-0.110963231354448,-0.00962924910963373,0.446280626959994,-0.270999440432374,-0.151510229003365,0.310190948370151,0.181661569463561,-0.0833563689818927,-0.172096437765907,-0.0374961642026702,-0.35501599577868,-0.122954245818374,0.109394333034758,-0.0103835349038803,0.144886315940468,-0.266574340081707,-0.585779869607746,0.18149803773677,-0.318745023109781,-0.287680123175026,0.367156460929197
-0.284945303337117,0.265165426832364,0.150774219816503,-0.137928835552185,0.00232391977197841,0.393926406112336,-0.252167954080457,-0.0255518664372454,0.342462205042297,0.174817445515412,-0.0945845374884747,-0.187438455851857,-0.0614243609030172,0.37058322918984,-0.0253241814648037,0.091396723725728,-0.0760279402840244,0.118051119427462,-0.289483226413045,-0.629414911954534,0.19421987914072,-0.300746561883439,-0.300299814791532,0.293449318166539
-0.265693782281533,0.242343828814267,0.164442297693738,-0.156449819472887,0.0192137728673516,0.37539184340895,0.233209556567013,0.0202164462531706,0.341628552255422,0.181183023661527,-0.102843941032407,-0.177706138056916,-0.0752311507531379,0.369349212876398,0.0107277966100604,0.0809713896420177,-0.114590823480913,-0.0987990579626878,-0.277616291245117,-0.654219955818941,0.186082917655468,-0.296090618537969,-0.29195409371207,0.263813850522335
-0.260585328202424,0.225412256334045,0.167052337643436,-0.190241808071601,0.0412652970654087,0.355331823938717,0.215239311413703,0.0529676436916925,0.337158703701378,0.19638478606309,-0.116447349819012,-0.157882515729864,-0.0959609186669816,0.369446533642899,0.0304565425308515,0.0781680377102469,-0.145317020701173,-0.078743275278268,-0.262521333313223,-0.684200455730782,0.174972060192508,-0.288874779182561,-0.265704571200154,0.239993012288296
-0.270637796433617,0.20927594519475,0.166388508272385,-0.234019356039291,0.0595056824909229,-0.337471858549365,0.20895414154376,0.0760345726871662,0.327299392854753,0.214254498729464,-0.132091601952307,-0.136581262510071,-0.119857632694374,-0.370048223604115,0.0375215943274718,0.0838515795728853,-0.164752577271384,-0.0638647097560432,-0.246316223367116,-0.70946233513083,0.161192030291575,-0.277748308066071,-0.233078477619646,0.227172966393801
-0.282007078148622,0.199088237484805,-0.165809503702898,0.264487735075282,0.0673564925335622,-0.327666710482749,0.211102238063636,0.0896423244426701,0.319465742483313,0.225844718726889,-0.142753618818018,-0.12510171521368,-0.136714455303864,-0.371206775743175,0.0350113793787719,0.0901613389834622,-0.171718652591776,-0.0555376675583273,-0.234965331830276,-0.721874461722211,0.150703461476875,-0.266778961628934,-0.208938468133859,0.220938522367585
0.059860712987186,0.125156805120928,-0.0949848356528602,0.451244881053697,-0.106021324917225,0.16784983602832,-0.340662706137305,0.343937376420075,0.344069034734552,0.462728805542551,0.488950691868906,-0.208694696802064,0.38222291545727,-0.352134044066224,-0.0753386760707192,0.119516261068284,-0.156515434221824,0.249443412813059,0.184427739695039,-0.535215482231685,0.099557254813078,-0.203119946801432,-0.05876861730122,0.266378371952752
0.0459010571111978,0.150026887478478,-0.0983842800554836,0.457465809239557,-0.156355521116098,0.237043760408803,-0.368908674499773,0.339241542812425,0.339442823068041,0.466528424023935,0.461737857198871,-0.166168952986704,0.364604371972632,-0.325639490245732,0.0891416070142689,0.116755967515446,-0.147229913640542,0.26847466478557,0.18082283075056,-0.489936036087256,0.0812671285951348,-0.190931964449645,-0.104212118667179,0.311112764764815
-0.0715836380662093,-0.129709505780878,-0.0886757390286681,0.458776056273399,-0.106693354933256,0.192910226290726,-0.382497084993407,0.361918545950764,0.330495890150978,0.429038421684207,0.521092780889542,-0.176126385977466,0.4065386582745,-0.311019489301804,0.0657048544766651,0.110015986626911,-0.145259198728693,0.318952061251707,0.221535779283099,-0.495488140948355,0.170139304350876,-0.204772575626762,-0.0994856404152715,0.336562172986363
-0.0896770788038871,-0.16809766358911,-0.409955021126859,0.126254776973308,-0.116406141807269,0.511346426188907,-0.0136716799210835,-0.0188553767420306,-0.0912175074323293,-0.0751773055032798,-0.0498439662575763,-0.221183677214424,0.00551704674231757,-0.38951972170236,0.112755075107019,-0.0373050242369366,-0.0643063327488594,0.297349619903008,-0.0810351214599176,-0.329829290715777,0.0571358419052228,-0.353596741224441,-0.467145698081843,0.33203997591011
-0.119256648432698,-0.0611608795768459,0.435802217676277,0.0123275991411244,-0.0283786692018079,0.413158557353004,-0.0386819230895387,0.0246564394132202,-0.0422708450005741,-0.0376376882057649,0.0227522186299065,-0.135993131863284,-0.0167372572481649,0.350604280414993,0.221882918514688,0.0192447663490905,-0.13321160342299,0.298245605080282,-0.0245141881876057,-0.345135263161889,0.0629450801865155,-0.391677942798862,-0.488557546259985,0.285311641594585
-0.124922690788916,-0.106651855855113,-0.395076915418587,0.0883687104924627,-0.068075630697253,0.421982754693529,-0.01617820069684,-0.0132250112749691,-0.0486609115701147,-0.065973186529553,-0.00779286691322888,-0.189155525996184,-0.0394606911509614,-0.349987407717768,0.183608479467772,0.00671216682894268,-0.0899308086872116,0.255009529218929,-0.0381235948303283,-0.359083164050248,0.0395940467685569,-0.376554532488543,-0.480614798923525,0.292982766658727
-0.125628468755132,0.158463303624596,-0.359288292013423,0.154957910649411,-0.0885640793827375,0.447753590748511,-0.0134875027107416,-0.037544864236643,-0.0514685850773606,-0.0767202058872021,-0.0488196883467858,-0.240023521050208,-0.0506187346524745,-0.350831236365715,0.145361422746446,0.00240243828470278,-0.0587225062249491,-0.221312584552938,0.0458387136742523,-0.374566365521106,0.0294128743422668,-0.36626248748988,-0.464078724732303,0.305720328831258
-0.150309685390876,-0.059326828382387,0.356345077233361,0.0645929278600249,-0.0275762701617598,0.342204997153465,-0.0282338655581624,-0.00421362600215249,0.000181763459152467,-0.0487772835759527,0.0135644825546283,-0.174334030636862,-0.0742344710500361,0.291974379721614,0.237999149332966,0.0395197170198847,-0.117460972606121,-0.197803591699363,-0.00539241254954209,-0.385846453595712,0.0334185202226429,-0.384383774437016,-0.482998968509579,0.266951504892634
-0.155461726291655,-0.105357932888458,-0.326010381322235,0.136100366589508,-0.0420334085950806,0.363867685984996,-0.0241148922491815,-0.0274408531134282,-0.00260294607317317,-0.0461666887653923,-0.0242679647065571,-0.201380888025283,-0.0840581612115618,-0.30854095501302,0.200811348812615,0.0497229189661331,-0.0904194557671517,-0.170872769233861,0.00591225109632599,-0.410588984269882,0.0153829011972298,-0.376499788079676,-0.463614148803578,0.272932595775165
-0.155842227134372,0.156041413130559,-0.302580800552022,0.198100800266044,-0.0403725910844761,0.399893598012571,-0.0456554868228684,-0.0320601637042815,0.00186189368014468,-0.0294196308390211,-0.0758470834460665,-0.233484205686791,-0.0800879853454865,-0.333837547271917,0.164126278595352,0.0671735968618252,-0.0686290768767167,-0.149229683894724,0.00847220963530087,-0.441059545920665,0.012194681754781,-0.371443917245343,-0.433145317063059,0.281877882485001
-0.142383560781019,0.203577681074115,-0.286099261753078,0.234133913985047,-0.0217536916587164,0.441748704379082,-0.0927053108928665,-0.0100172387070397,0.0140652247756252,-0.000214244378918926,-0.138982113353919,-0.270045997903946,-0.0565150903595411,-0.369463442769247,0.130219967984285,0.0884253705679564,-0.0467912707701513,-0.131633074879512,-0.000139550831441461,-0.468654161694537,0.0278893137575051,-0.367001418503407,0.386284477642105,0.285638038115743
-0.177599318071145,-0.0755865616829234,0.289083093995287,0.128927665381108,-0.0118747139264461,0.309752768886566,-0.0426917804983037,-0.0131348920832057,0.0472504446771669,-0.0137989562333746,-0.0187377429240478,-0.18493258759309,-0.106294611154901,0.269890777271105,0.228652481663869,0.0731078063255678,-0.120496000258875,-0.125057438960051,-0.0335546960075465,-0.446837324061861,0.0199273053280955,-0.374135420615884,-0.455190383397188,0.257075091121883
-0.184261162360876,0.115451621171376,-0.269024329061786,0.194881524379827,-0.0053363100617974,0.335987386995479,-0.0593734496801989,-0.0173335860510408,0.0511988553586326,0.0130773641970348,-0.062816157015372,-0.195246691911042,-0.107829371795157,-0.300246047097353,0.195519868326226,0.0992915685413546,-0.106061251938442,-0.10616024754418,-0.0281433765173851,-0.483390866804715,0.00906645407245834,-0.369201699607097,-0.423922704061963,0.260223537639139
-0.184566120186176,0.156808987822977,-0.256643976654364,0.245834424617571,0.0144628978809718,0.372642493338204,-0.107267875746441,0.000914824028236587,0.0641433920406122,0.0501685061180363,-0.118954440338417,-0.214996019201003,-0.0946187256848517,-0.342609183861165,0.15943272021841,0.130607107044519,-0.0882636381917802,-0.0893109255668822,-0.0342346367324508,-0.521160234125013,0.0142220062778848,-0.362529889810201,0.377213687220922,0.261875091526153
-0.20741583321798,-0.100105623078046,-0.240921057992649,0.19695897952859,0.0128881897049926,0.303576692895778,-0.0782199578135383,-0.000140845112755793,0.101344484736829,0.0490045110985814,-0.0630895311511474,-0.17918422423346,-0.12566539475264,-0.28008289120439,0.198977063945939,0.10422785794592,-0.135950550542643,-0.0759965166852696,-0.0666029170250495,-0.526823166377142,0.0260272898648614,-0.357833327962438,-0.407318265925341,0.252153732133998
-0.215435177421498,0.129200886731657,-0.230324699551309,0.252807718676757,0.0313009992959273,0.329204705793029,-0.115614412317171,0.0146402375960938,0.110345805066684,0.0904800190866725,-0.107870695036642,-0.181191180720564,-0.123764841044835,-0.318152038693121,0.166360137336403,0.137029588950627,-0.126677998178154,-0.0606228360343708,-0.0676342422215648,-0.56544874272476,0.0215588400645441,-0.349425465009373,-0.363552889939726,0.250812696863003
-0.213396590399559,0.157443553942024,-0.225263617209304,0.287090241912494,0.0561178325389434,0.360061001482968,-0.184238828338804,0.049751851278609,0.12651242544958,0.133279346956762,-0.158836028852939,-0.198260258342488,-0.108148326576524,-0.365808689426241,0.124986681372158,0.170342518046523,-0.103977262690341,-0.0417893603788492,-0.0805921430079063,-0.592994304688666,0.0305013351659156,-0.332853283191011,0.303020275563014,0.241131514602833
-0.190287570433344,0.179320696401274,-0.216640810731218,0.287010448858989,0.0832996053793241,0.380581038128678,-0.268672705393127,0.0979739128151921,0.144359736479046,0.163152067583803,-0.207245013099433,-0.22826331070868,-0.0756449196478083,-0.411818150222942,0.0755439860192563,0.196496872597752,-0.0609307732600597,-0.0131593821573797,-0.102456129265153,-0.590545192704463,0.0509369132694192,-0.302542231037923,0.227204205771246,0.21174831632584
-0.239702513030305,0.124821290301236,-0.209880338153727,0.257052547382232,0.0380901482025845,0.309738784447295,-0.12784061186335,0.0298806474778475,0.158956231808198,0.12042161145374,-0.10633752315247,-0.164589374621098,-0.140818536746638,-0.309250438699336,0.151668001837431,0.122999188044014,-0.152522251324702,-0.0461260552398593,-0.105053127829518,-0.608315526880705,0.0471271148993526,-0.330986255230912,-0.340821277869771,0.246342491284981
-0.247208585166016,0.142496383352786,-0.207133129165656,0.297929313772055,0.0554147475581063,0.332876756686998,-0.182427463775724,0.0584402729012685,0.169090842758317,0.163599625845594,-0.144626926816862,-0.169187783870224,-0.140258781271821,-0.347836704382862,0.114551134105739,0.153283722772564,-0.139724810958881,-0.0302032392497295,-0.111252871647624,-0.635016709352742,0.0447451823253821,-0.314038514861772,0.288870819367228,0.238097499078067
-0.235296062605165,0.156993472516864,-0.206701653181902,0.311196033617831,0.0723188759721077,0.356682747123114,-0.258734784332353,0.098372476319045,0.178747795094526,0.197729545229726,-0.180670638990612,-0.19177467420632,-0.124341209995893,-0.391950383622399,0.0672469248855508,0.178036926242207,-0.107541218362528,-0.00342186552972129,-0.125545574609843,-0.63714063410487,0.0505265435197679,-0.286432908135314,0.225148113655242,0.214573448541923
-0.202131686655162,0.170509767701119,-0.198750882603631,0.296559581708825,0.0814614177178535,0.368689623311822,-0.337739758594804,0.138374575122941,0.182081970481242,0.202232285364355,-0.213621498991604,-0.235671805427804,-0.093937169264918,-0.425392393476652,0.0104904110328707,0.193147635352128,-0.0522825504779036,0.0374528491201039,-0.140119597077982,-0.600423621594458,0.0583017804789233,-0.242418768180828,0.157844945656626,0.168002167798088
-0.156880934822291,0.182188058125116,-0.182108704990452,0.265034423131879,0.0848931664330042,0.36517954711108,-0.388589051247249,0.162697907787171,0.179241351941724,0.180046479634504,-0.234899764089611,-0.277543615072538,0.0558021809831159,-0.441460576771068,-0.0356577421627087,0.194661335601095,0.00597261979812847,0.077787372489071,-0.149782224340156,-0.545427308408992,0.0672508317691098,-0.200112656105408,0.105869589813251,0.115555519979946
-0.265951084563238,0.144561044395333,-0.191797804187253,0.29420677861197,0.0565500733119651,0.318128607464591,-0.179299767361958,0.0652911740818016,0.2133495627905,0.183233816561176,-0.134707715610256,-0.147231095454109,-0.152504910872755,-0.341925643415482,0.0985649302202567,0.125237855198036,-0.162794062980656,-0.0310856937554417,-0.146885748573878,-0.670013404355526,0.0749715200661356,-0.298338562130485,0.269381847584207,0.236510008009216
-0.271545342629013,0.155135484198847,-0.194691435927608,0.319880868395435,0.0631526108923225,0.341501577292624,0.249189232823591,0.102776389041013,0.223164980753646,0.221752600193279,-0.164492351049688,-0.163944270620012,-0.156330102803632,-0.37846939405611,0.0514625758292482,0.149284070212464,-0.141815085713777,-0.0108291508819001,-0.158369718542174,-0.677416799579438,0.0703661037143141,-0.27041847946348,0.214153510987189,0.218673665002274
-0.250720741544761,0.163118692718469,-0.195632115843892,0.321388579060957,0.0587136895014886,0.362542614748843,0.337395202200505,0.145043516690644,0.219848210175359,0.235267541462295,-0.193221322167693,-0.213232642028536,-0.145178620534818,-0.412437675436281,-0.0133455297679228,0.166845991091206,-0.0927929639860976,0.0348450805522172,-0.167636422025656,-0.641382343164784,0.0611108594895714,-0.221001524514299,0.150483867064584,0.173318796379753
-0.192379264930302,0.177047480603334,-0.18282585944105,0.289424098706274,0.0492210427122444,0.366461746005535,-0.405236092780399,0.171918245640628,0.203128688778538,0.199920376637966,-0.219341075968837,-0.284448758678892,-0.103311874002561,-0.431351947842473,-0.0756191069989745,0.170549355020478,-0.0206190291649245,0.0982199818443618,-0.170518274791207,-0.560702458332359,0.0546627379030079,-0.161749527869821,0.0973448868800375,0.0990965733385201
-0.146479272193735,0.183499053268236,-0.169822126441317,0.259652802888386,0.0612054159374211,0.358996105176377,-0.417679100737504,0.174286885829174,0.184932103466785,0.167974007219653,-0.233340370095479,-0.306817836910163,-0.0599861590362161,-0.439345297382412,-0.0851970172366092,0.175563532083411,0.0250441642892558,0.119612512397371,-0.161987447497241,-0.516673698568485,0.0611014904140721,-0.151005568223308,0.0764526183902756,0.070891559053423
-0.28868734858417,0.19174771632158,-0.168550402862334,0.281965004690516,0.0703982106053255,-0.327797978898341,0.223154559170531,0.0996161628409191,0.312465955249396,0.238701245722213,-0.148971510951341,-0.122042371687475,-0.147280542353864,-0.374777813025354,0.0327121317508126,0.0995606092038333,-0.173003349976878,-0.0501424546726357,-0.229718852738546,-0.724881027684839,0.140418266221291,-0.262485857327911,-0.196994087925238,0.220148326674472
-0.291296854174761,0.170809222486821,-0.180844439785078,0.306649293459776,0.0628933885331262,0.330471648729248,0.233533064034154,0.103485985646418,0.274052703184187,0.233131580227437,-0.154291910948636,-0.139093832941682,-0.162844778035619,-0.372000654542096,0.0402062134865849,0.119741723851987,-0.16473639590837,-0.0326719215989318,-0.197127074573364,-0.708620773625867,0.106313731499449,-0.262523270380404,0.204024908811028,0.220942429253678
-0.292844052816306,0.172476175922641,-0.190165522377823,0.326938225638223,0.0540063396620243,0.355859205633072,0.323125601093259,0.15081894990554,0.272125001491296,0.268522861652262,-0.179968071166289,-0.176964771060169,-0.176641753280903,-0.40269104884695,-0.0165760117609221,0.147282346552792,-0.134870140453244,0.000818082642535537,-0.205865072504312,-0.683713195627253,0.0833260799016039,-0.21993257079012,0.147964243122287,0.187305635538291
-0.26206323678639,0.167351918018652,-0.192364191501611,0.322377820610248,0.0404073412370926,0.367010367567052,0.374588326678038,0.167798504933012,0.242809113459657,0.254206541761991,-0.192694556105974,-0.226995738933654,-0.16401299733718,-0.416301534432085,-0.0581209179509379,0.154498016919435,-0.0916626049415973,0.0504806325285549,-0.193677386635755,-0.633555968875014,0.0621786862844284,-0.182718597831242,0.118378058235139,0.147926184695813
-0.237677525879304,0.168893933218626,-0.191117143106544,0.31403340669342,0.0393815492077903,0.368100804198295,0.390913344552531,0.171721901481156,0.225031208912657,0.233685557213527,-0.20298672423784,-0.254057502057792,-0.145627130448024,-0.420988740262251,-0.0687810600800497,0.161710149270349,-0.0641605115780701,0.0730460269402363,-0.181846098708243,-0.602629615060256,0.0537193152942654,-0.169508644755694,0.109005720923552,0.126866903103052
-0.281392068131304,0.347234094633696,0.112993252396709,-0.0693775802544284,-0.0144784748565564,0.468701074083812,0.252723085698099,-0.148847658142603,0.31874561752853,0.213600076092068,-0.0833259581637688,-0.153148891980207,0.00874773413054605,-0.383685392992125,-0.155287827597781,0.0918738611829735,-0.0123433393713127,0.1392016525742,-0.256588914798029,-0.580769905229856,0.173270676532218,-0.319095770193524,-0.274986140151134,0.34251260028461
-0.27051252014005,0.32250124634305,0.116672489280128,-0.0888425797091692,-0.00805930187047546,0.43651711773291,0.247252168629157,-0.0832417599340044,0.350923549020228,0.216587372516126,-0.0926896570748073,-0.161689587057383,-0.027157807189571,0.401533422175331,-0.11921924078171,0.0919921135645827,-0.0327940144586764,0.130305622199079,-0.286643023000438,-0.611592342910111,0.197820000960848,-0.307484857532135,-0.271331065788841,0.304708337454956
-0.254476784843099,0.29964484674664,0.127608772651973,-0.105901521969149,0.00693080538537907,0.412732087787952,0.241991976452806,-0.0257512641894919,0.370990558692116,0.222749823502223,-0.101588878713502,-0.161316793114694,-0.038348069221273,0.407807839621206,-0.0778715481342019,0.0878026084550761,-0.0653556091000083,0.119296720493381,-0.303019321078253,-0.639266466663943,0.20950264842321,-0.299561920978586,-0.267706501768741,0.273794570259522
-0.242935405718722,0.281859211602641,0.139140889136723,-0.128000192263979,0.0261709018432655,0.395550736683218,0.236608926661631,0.0239643963509822,0.38128081181509,0.233615459588829,-0.114375333561164,-0.153025493223675,-0.0504880029454737,0.408632752738907,-0.0422539879291959,0.0855357243871662,-0.102191139739659,-0.107734193656515,-0.304736555942634,-0.666130213241849,0.209000570802218,-0.293262548126295,-0.257395730250012,0.247497576268325
-0.245651829098703,0.265427657284026,0.147376850055349,-0.162121173746133,0.0485851921267218,0.378188466967019,0.234088109380866,0.0623054745070688,0.382930620311759,0.2467190999642,-0.130081510322636,-0.138515423722021,-0.0692321462962353,0.40519654747405,-0.0131230512946732,0.08889220953794,-0.135437985639132,-0.0970537616722703,-0.298889506117088,-0.693542949553709,0.200998976717401,-0.287266340887667,-0.238387021899703,0.229972156413927
-0.261873712810865,0.246933376551711,0.153358769845409,-0.207443382642114,0.0678021343584779,0.359985686829249,0.236804717726964,0.0914051980135922,0.375735234748245,0.260126989385906,-0.146114692400573,-0.123481330328943,-0.0964716215521989,-0.400074596050729,0.00602945479628625,0.097053147160933,-0.160076690013019,-0.0857739342425329,-0.287568614923114,-0.717322423704812,0.186369962298683,-0.27772568593277,-0.212418909513777,0.219466508817518
-0.284617980599334,0.221737526471062,0.161100468523565,0.257942641685255,0.0762733892922153,-0.343522316201488,0.244606089398688,0.111695945933713,0.354000475007287,0.266646279514601,-0.157826763872473,-0.117039245051753,-0.130232880322756,-0.393063402949776,0.015061639927807,0.106645414987065,-0.172553269196978,-0.0693591281002013,-0.266386277887184,-0.730072068147929,0.162636338632295,-0.263394411534344,-0.187198761277014,0.214060452136136
-0.301692143772206,0.200536412914444,-0.171945442594892,0.297005108710023,0.0727556029744884,0.342043806872419,0.271020155819976,0.131730718445202,0.329145955726566,0.277084743828092,-0.168388480901167,-0.126801482575151,-0.159505595679169,-0.393768002721787,0.00902453137186095,0.124187775432805,-0.170167756781637,-0.050370009745668,-0.24614659424121,-0.725370776917977,0.132686691467547,-0.247501875324111,0.166892121626778,0.207874095139686
-0.304022734658367,0.182935450418702,-0.180046507427652,0.316339470019656,0.0661155630283311,0.344310812936941,0.288441419528127,0.138442464003878,0.302771982452066,0.276655339458445,-0.170274936755466,-0.140190444799377,-0.173410317815311,-0.394131119202233,0.00237152924529754,0.131791875335152,-0.160981479431364,-0.0304873696220782,-0.227211998238881,-0.713930652287565,0.110714333438417,-0.237629849977499,0.15852768973506,0.204839276212829
-0.173895324217723,0.183747365673451,-0.172797209102165,0.27630198431742,0.0233554501633791,0.364435488602084,-0.435452431063448,0.184060972818918,0.204605306497628,0.182110236641779,-0.221656803193327,-0.323434736062257,-0.10058590750739,-0.428707020597302,-0.124419218623907,0.153399968519962,0.00210478469364013,0.138019086782922,-0.181859523120005,-0.517182323444535,0.0467187053095205,-0.112074687463925,0.0714781854161619,0.0489573724685768
-0.299075227783454,0.181878828848421,-0.190957976141577,0.323029243801211,0.0462681950167078,0.365600211401778,0.365113274151659,0.176474362031907,0.293053299130242,0.292843627967693,-0.187276107724192,-0.190669252092378,-0.186529898882145,-0.411118024208184,-0.0467729630398259,0.153240678518675,-0.131656355987502,0.0053576805970838,-0.231691014614186,-0.669150256157217,0.0822636676028389,-0.195376720948207,0.122613722909161,0.165734494479329
-0.277287076223584,0.176382545319039,-0.192560413340713,0.320379333419928,0.0350266871132655,0.370434078589331,0.387750785092312,0.180285951305749,0.268002011104556,0.273409471751994,-0.192725577716347,-0.22532543031227,-0.177712675173468,-0.416019492019203,-0.0689663195377035,0.153571942941441,-0.104650706467438,0.0403005371415799,-0.217603437417623,-0.636985956716836,0.0671500173896858,-0.17380522487572,0.112132046787725,0.141450811846941
-0.160372182118892,0.190320696856192,-0.167441349492577,0.267517627275734,0.00934579609792929,0.361565147371163,-0.447188703870007,0.189006270689507,0.202766818050928,0.165240265788079,-0.227009441860074,-0.349804097270119,-0.0952152057264845,-0.42392389061285,-0.146241466454029,0.146754508984898,0.0122254939366504,0.160973498667529,-0.185523158154272,-0.487507797515629,0.0394789179484532,-0.0848196835243105,0.0640481974483529,0.0153462421086751
-0.214480773767597,0.327824959954664,0.114317912756488,-0.0651367671981009,0.00835669231726891,0.431766088884436,0.232226528528984,-0.0164064456484914,0.387489025336727,0.26435468279578,-0.114550090736126,-0.135143903691565,0.00345629345497456,-0.444040112430373,-0.117229109657355,0.0902120354027806,-0.0566283929976387,0.124919414875415,-0.298937430316236,-0.635224551605763,0.211847607769211,-0.301526831414899,-0.24531351441745,0.250194758788356
-0.210270996525189,0.310550733485076,0.121066139456828,-0.0886045930115841,0.029925198305143,0.412185330842101,0.233961769434255,0.0319211575239303,0.406516471480611,0.280249999511287,-0.126400191178809,-0.12611248882219,0.017195301968709,0.444081046509154,-0.0808358269667029,0.0930260844003874,-0.0905277795743832,-0.12021907855958,-0.315915355591845,-0.663646368252035,0.22126133516913,-0.296175799452872,-0.235373120969959,0.231130954545888
-0.219399034601316,0.297889841896443,0.129291530604143,-0.122833423520909,0.0547092612075974,0.396505136114762,0.243855242617029,0.0751219537743146,0.418625456183427,0.299656328036846,-0.145480193993766,-0.113117293571637,-0.0351426258470688,-0.440116111397512,-0.0466854926277214,0.105783239765233,-0.125002622181436,-0.119015225877252,-0.323365478165389,-0.689986222034883,0.218299554248101,-0.292083114806961,-0.219816014177255,0.218135679603161
-0.242822453744143,0.282967642976849,0.138513859844421,-0.169155554669048,0.0773404075595072,0.380581180092628,0.260461603962806,0.111101724563215,0.421581817075409,0.31750832139065,-0.164887740455295,-0.102231184869172,-0.0637759927684824,-0.431696313167139,-0.0171040500763563,0.123321063497115,-0.15501043709393,-0.116233560740516,-0.325130361772063,-0.712448897095955,0.205833274822128,-0.285648286094338,-0.199786505158441,0.210921311944502
-0.273828910230681,0.262666376228195,0.150462621558357,-0.221902191949475,0.0895978228931552,0.366960182235043,0.283481399133759,0.139514734043374,0.410487351787286,0.328034650634764,-0.180711501775253,-0.102723792572193,-0.101909790719515,-0.421706511936539,0.000739793988620695,0.141623268190473,-0.173968338656544,-0.105360467158412,-0.317541104605158,-0.724406819068087,0.182762094196727,-0.272855594682856,-0.178410658096093,0.205054744883014
-0.29973097222605,0.237115925681983,-0.166200747811758,0.270625860052165,0.0854978725897792,0.361104831386047,0.313706669018672,0.161533001363576,0.382584376866853,0.328010697598014,-0.190697014198306,-0.122787259361286,-0.142245261922175,-0.414439031735461,4.00133875304194e-05,0.156732927509296,-0.176303860957358,-0.0798804269419847,-0.297874078680144,-0.719048678548573,0.149108301707347,-0.251284337149559,0.158693451636744,0.194763660887351
-0.306997105613511,0.205002351169345,-0.184360209399261,0.30887153147453,0.0630982399308612,0.36386718458021,0.349849631627675,0.176310134309602,0.331896830144651,0.31036405914374,-0.19362177095655,-0.167238389725094,-0.175742022033816,-0.411404689112813,-0.0237585616790295,0.162416005984049,-0.15536419501844,-0.0305517068201439,-0.260892442747197,-0.690340491584724,0.105117696887805,-0.217181987705488,0.138836356934541,0.174684764878589
-0.286477493296485,0.194578954785431,-0.193238522877288,0.310912435942203,0.0385040322126244,0.375862099364841,0.405080085714283,0.195978396181665,0.298414641806575,0.295687316490477,-0.203126568557931,-0.228375329815719,-0.180502458376179,-0.416876784044656,-0.0675903244769228,0.169242321311266,-0.120873929389442,0.0239630430155331,-0.248409403299882,-0.632574822134854,0.0724804090868852,-0.172263417063483,0.115974746501359,0.129340274720616
-0.262025875335263,0.188259343744707,-0.19399093760132,0.307611009359133,0.0220363119394701,0.376743171208569,0.424599564853514,0.199823567484724,0.27003714861802,0.265826114274756,-0.2072288191974,-0.268159817267296,-0.172055619546213,-0.418031040593467,-0.0946121993956805,0.164401718509279,-0.0886990567837456,0.0636297501619651,-0.228395180822541,-0.592594023164831,0.0546112752520524,-0.142430944637214,0.10083841688263,0.0984439562630335
-0.060182824603425,-0.128740000633536,-0.103612225890919,0.425403745648939,-0.146420640676544,0.255824127772227,-0.409352205420229,0.368389311521693,0.315123182428678,0.409805162045988,-0.481333934350192,-0.11113442553134,0.393968610935498,-0.244505549910034,0.0171103811977916,0.128039524286662,-0.165319905313196,0.387231656583904,0.236240681501269,-0.389147568047869,0.198648316094979,-0.166218833248003,-0.219169249666531,0.40599897334923
-0.188781120794982,0.324173931259807,0.115156856006397,-0.0755502537239383,0.0602945081446831,0.407385118363455,0.251974948525834,0.0906634418393991,0.444069601710384,0.347848575180761,-0.167968103317444,-0.0850791633334264,-0.00900730279621855,-0.473416964306178,-0.0735176790567583,0.130304457552048,-0.10985312416705,-0.142908433816151,-0.332883130730474,-0.67288534270146,0.22478209366795,-0.296738823840792,-0.20524530816838,0.203377687132121
-0.217324077091391,0.311748686938899,0.123770808173489,-0.122033196326681,0.0874239955701624,0.39091555894175,0.279989191560764,0.136328726744453,0.460796919262445,0.379007536487565,-0.191141839671093,-0.0731676500617348,-0.0213578263755854,-0.462215406655424,-0.0321968777789275,0.16099899857006,-0.146682480814456,-0.152501600218173,-0.352844830077669,-0.692578926243896,0.217240155162696,-0.294069596037325,-0.190787308995165,0.199504075488158
-0.256231446994593,0.296060248165044,0.137294774341564,-0.17726938919943,0.105636069906705,0.378258872426533,0.317392380470189,0.172897375772203,0.4619641200743,0.398302918480294,-0.211292833533166,-0.0779174896810987,-0.0637013349741572,-0.445308320692071,0.00059387455017295,0.194222348244914,-0.175464963245113,-0.151613820345809,-0.363193850072689,-0.699743213686189,0.195487542314882,-0.285260277326256,-0.177104523576155,0.19474303136485
-0.290848247660513,0.274830960220651,-0.156469421701686,-0.231168765527649,0.106072327136888,0.373037495075425,0.358132165578072,0.199064720903611,0.440829667772517,0.39661453537087,-0.223896137526809,-0.108164235341124,-0.111647676094508,-0.429190878293868,0.0116987758058493,0.217584073109491,-0.187609596772439,-0.128385144938649,0.355891650077648,-0.69067383534755,0.160858666563718,-0.264303851196295,0.163819952364929,0.180986915260346
-0.288011425874589,0.226939291205458,-0.192345104893681,0.287862822292947,0.0553785303062595,0.381917049543741,0.434279080604413,0.221688583367936,0.341800122990228,0.329596301219132,-0.231303221030577,-0.236597158007565,-0.167287798289116,-0.41561399759605,-0.0474569816752482,0.215547138760753,-0.144840509211366,-0.0056099917445404,0.296094634037786,-0.609232350008275,0.0779460479224068,-0.178446168697228,0.134121657921067,0.105713711305848
-0.00756099182514436,-0.126179636463166,-0.173717673776923,0.311844054352725,-0.0573577976784172,0.219351561380669,-0.24965276220758,0.445875779161835,0.28284803249508,0.357157005573627,0.513978663293071,-0.0820392273129312,0.420316456623638,-0.269027248881022,-0.143903501174407,0.166215977739528,-0.305272012219652,0.503254227404543,0.211637184210139,-0.291564733014676,0.311434751788775,-0.104753903469161,0.263929629871955,0.282361056253127
-0.0319591413334318,-0.135107566437882,-0.164624759947551,0.339434654545173,-0.0900847995470349,0.222782853015044,-0.300768824529185,0.421437450638367,0.30757399390235,0.358848436062949,0.49442695263377,-0.0684524802730608,0.404460240259009,-0.247901075656213,-0.135539989196374,0.168952111908355,-0.262311448794679,0.486953655601441,0.23213916726097,-0.289359887689323,0.271762880016586,-0.11231905904183,0.272479316541377,0.324992080924806
-0.0467546246711625,-0.12737412474473,-0.12796261172899,0.389557385033797,-0.10919450617815,0.238993005484576,-0.357297053798387,0.402462141261667,0.307823389812985,0.375108829234421,-0.500082143668176,-0.0905973013834545,0.409679459406614,-0.23018380846735,-0.0634436300134574,0.146701013516072,-0.227579241217477,0.44874954902694,0.240695792364054,-0.340162522797185,0.260439042180636,-0.145108184636591,-0.260654835321422,0.37572046577445
-0.0586390079866567,-0.132752459462504,-0.152095454714856,0.365477278928199,-0.130711997242159,0.232540842786104,-0.369004235456087,0.386930998909065,0.329538041696704,0.377412419568302,-0.463219206092865,-0.0623671707833978,0.381928730795023,-0.22699654839986,-0.102798989357057,0.163792318296772,-0.209195458880567,0.446819415836715,0.251064479052962,-0.301762735617153,0.216478167511874,-0.122307471699379,-0.281801062333559,0.380053318030431
-0.0510934846135299,-0.122924393957621,-0.108064694283237,0.41060759590191,-0.115362308227561,0.244141908032814,-0.378262560803414,0.394333228077851,0.304072284534646,0.380151056644059,-0.504584392891603,-0.10281452873912,0.413181317750061,-0.225789705131545,-0.0254794262338576,0.133534675110362,-0.208983099482928,0.428387240973842,0.241305939904071,-0.366510720721464,0.257724575360446,-0.161301712752425,-0.244373304393348,0.39266529250765
-0.0605499270975007,-0.125507322217235,-0.121527517987969,0.40168173405931,-0.140847506804068,0.249681889695989,-0.399302625619107,0.376928952234289,0.319002733752557,0.398015985604666,-0.47369817875336,-0.0918054347501345,0.390807951989145,-0.231702782953562,-0.029265961441324,0.142607045506321,-0.185459678966059,0.413108562371103,0.244334588727383,-0.353592565501907,0.211200932092925,-0.149260831284319,-0.253384092271924,0.403879582510415
-0.0491951708675883,-0.118219761441421,-0.0916473771340511,0.421432256863115,-0.111165220405279,0.241931317613465,-0.38236966060881,0.394031402652976,0.299275402258465,0.379660672138196,-0.517333918807804,-0.114032610536877,0.42350392712157,-0.226724974980262,0.000984727613391097,0.116837922973782,-0.199889805947149,0.413936432478386,0.240803688123928,-0.395495527407828,0.268313046838827,-0.174696884361597,-0.21993956980543,0.397203237652193
-0.0611705235324837,-0.125343579883237,-0.102289928597108,0.420954328302902,-0.132221896523524,0.252035652003365,-0.403614032577336,0.37438610368467,0.309435361974486,0.397428042841523,-0.488644985166463,-0.109888164516278,0.401337468215822,-0.230698012168382,-0.00203369039475059,0.132986057098615,-0.179629407214265,0.407810663960528,0.241777593390687,-0.377192077232317,0.223984763373964,-0.160598039082001,-0.233604412776842,0.411156194114815
-0.190383498032645,0.333806386682432,0.110996190574027,-0.0663202157958407,0.103083536293403,0.380877157053944,0.30409870559228,0.172636417986425,0.495940741530115,0.439116183819197,-0.234118152627087,-0.0358758792785009,-0.0357040392502197,-0.490586398372289,-0.0451128604880052,0.214041834361861,-0.130402487661946,-0.190696262707383,-0.36629954536924,-0.652997716184326,0.216839454962252,-0.28888782855235,-0.171432338488095,0.174649854330285
-0.233869817967621,0.316666288454948,0.121728142029983,-0.124304727383083,0.124372380156954,0.365916908720587,0.346536276978129,0.214905982635384,0.50720516645934,0.470640514494539,-0.251609429442071,-0.0392095477790688,-0.013581412509592,-0.463300307280973,0.00614499591200954,0.259007409439075,-0.170560137188575,-0.203276021319115,-0.396900458941898,-0.653437967668698,0.200361759187455,-0.28637097850464,-0.168602129563342,0.176122059584654
-0.277363966387029,0.2969999126796,0.140584031189559,-0.181683052948251,0.134254579204668,0.35625605962557,0.406211799597752,0.2518420212,0.495778041098154,0.481221371421821,-0.270899103204237,-0.0763733926489542,-0.0681636489381667,-0.427251457496341,0.0432774673409454,0.312248113475745,-0.199892477298555,-0.193156324580378,0.41283470882513,-0.621591324256583,0.16186803008858,-0.267312276584894,-0.168943979903756,0.158081604430438
-0.25079097962149,0.301434665963452,0.117028634026747,-0.121428012165384,0.158478141037692,0.31387524824186,-0.412512631747817,0.286310476112151,0.536152654354774,0.542955667898209,-0.304022293395954,-0.0151964731703737,-0.00907923834193153,-0.429487117549035,0.0573087652069465,0.36697144356675,-0.192176922793071,-0.247786918484621,0.438627251805111,-0.566731417887645,0.172029467733629,-0.258765753174978,-0.152392801863744,0.141191724487248
0.033207446987224,-0.101054034961968,-0.211959266720342,0.216922019407056,-0.0103693744828302,0.207325158058417,-0.163697866833869,0.484763467646958,0.241143480693674,0.354503616619799,0.522114160976188,-0.0823739762081864,0.429140228572036,-0.32290803258356,-0.169605402972449,-0.162259704385716,-0.359321669722473,0.520474187804614,0.17792197977025,0.274518945440756,0.358222871413298,-0.0732351640772476,0.241536421727637,0.191503851143264
0.0553808856720926,-0.0857619471320372,-0.216641398626388,0.195322026751391,0.00402581073430884,-0.202331217173215,-0.154559613359971,0.504528846034234,0.234338815842001,0.338223200983876,0.550747203527663,-0.076168219535836,0.462310925066969,-0.312319766744333,-0.150684007748479,-0.115476976729372,-0.382315401727626,0.511044915411777,0.192763844888071,0.303582162385564,0.403173528540466,-0.102060209701306,0.246438087301902,0.183788951915648
0.0194573994482278,-0.109645855820141,-0.184674849159322,0.276338447546185,-0.032681683171888,0.215158391972209,-0.212785388258994,0.471514892125084,0.262617112163697,0.349548319849913,0.53541339049478,-0.083921538044446,0.443011460073292,-0.281967955519188,-0.139587945745252,0.141422583790378,-0.339912792974229,0.505636592688724,0.203802288051797,-0.305852608106167,0.355152345935955,-0.110812965097586,0.257492600342433,0.248770536568263
-0.00783323755866774,-0.12208158211802,-0.159645557786464,0.332795396894734,-0.0622675535363365,0.224156438130139,-0.267228423966665,0.445465231676876,0.283394101472213,0.355672062653963,0.525527437496663,-0.0867719398648965,0.431018289348533,-0.255807065774613,-0.115573715634517,0.147215263705786,-0.301019659416573,0.489735134867063,0.2190135298318,-0.316537175820122,0.321016505304487,-0.126915475964978,-0.264535780913727,0.300961102112569
0.0140023668821152,-0.105431920580099,-0.155046094910774,0.319328332801239,-0.0493382413770406,0.221880544560497,-0.251755691402864,0.46548026450436,0.269709886243685,0.339325089551035,0.549533536870867,-0.0842733847537035,0.457059197662642,-0.250717117358014,-0.0924819319029612,0.108502888489224,-0.320635521489893,0.478541818948281,0.220704863859444,-0.346608227708669,0.365307691937828,-0.151014103216693,-0.255576442601598,0.288315641192606
-0.0201566513135315,-0.120070499461858,-0.135584029262121,0.366891895253154,-0.079378512730163,0.231367493266836,-0.307533078679321,0.432228220077817,0.289753529373108,0.357640138664124,0.527309623057647,-0.0917180101202299,0.433245500322951,-0.237519708210309,-0.0774872301475631,0.132760794201232,-0.272914927890136,0.466858922690759,0.230002177773367,-0.34406108000757,0.312263205178727,-0.14901593813012,-0.257699590532687,0.337426491709126
0.00198244360174984,-0.100385302697967,-0.121732491407908,0.357617977576154,-0.0665949601111156,0.224610502911153,-0.291973134469496,0.455364276050498,0.275240275996148,0.331785641985898,0.555865619524987,-0.0854547781521212,0.460471729641391,-0.22879305218247,-0.0456054820535215,0.0859519972738674,-0.286998691328026,0.448191461963695,0.231755300877488,-0.382738387674742,0.36555315008273,-0.181225185633825,-0.236461382053395,0.322594182220372
-0.0334417416189614,-0.115217245089709,-0.104499151581095,0.401752737001991,-0.0949069299886657,0.23686644498145,-0.349136785415786,0.416301102006408,0.291804891693885,0.362163770748788,0.529453361906424,-0.102801809855157,0.434124527131608,-0.224105578645948,-0.0267474317891207,0.115915976849529,-0.236320729056049,0.43572141313945,0.237239072343652,-0.379417261532076,0.301952474093684,-0.172360778452288,-0.236153980603705,0.371805181041324
-0.0139454604590896,-0.0936223862091528,-0.0838834792897212,0.391239512391537,-0.0785331015191827,0.218028828231278,-0.32975147989005,0.444219757409563,0.279820768028123,0.325919719490814,0.563920902620322,-0.0915761545645609,0.460802540949012,-0.216769602204312,0.00535285807374939,0.0658264109432196,-0.242640729795326,0.412628467586631,0.240084625406006,-0.423195999299549,0.363718774529358,-0.208571337890647,-0.196885115478249,0.348607855863688
-0.0347805356605734,-0.11083738128515,-0.0883263976193338,0.414041412280282,-0.0970610513194412,0.235500050045127,-0.35925280174626,0.413937219163265,0.288999704273038,0.358941580984761,0.536200751994051,-0.107666235665754,0.438466961019803,-0.219839623840469,-0.00150525693780143,0.102817990934816,-0.223201432497486,0.420221806724783,0.238147123807198,-0.39927106550818,0.306719916693785,-0.186256373340457,-0.218797876733863,0.378677836711606
-0.287212127937771,0.278941681921331,0.151586894458792,0.196020629222003,0.141892030742842,0.336813890737712,0.46940448602034,0.290209178948043,0.474263016909017,0.490636327065344,-0.29986440335818,-0.12332258825708,-0.0894318157366652,-0.379479379225966,0.073221985482973,0.385398710350089,-0.217651696909859,-0.180829305988788,0.427677136183637,-0.525102614990159,0.11511058100523,-0.23157445140698,-0.177097971406118,0.109069235650807
-0.274299467046511,0.26815789470927,0.124080151001007,-0.149978503438131,0.168690378322142,0.274290821301689,-0.474032260167036,0.326829379235669,0.513529942012597,0.545066593203866,-0.326458943992709,-0.056828034836739,-0.0427568005047947,-0.356541178888479,0.103733417238182,0.448846529307562,-0.219550274836998,-0.238531103443961,0.453076783045911,-0.460516243142592,0.122620047730502,-0.212577053492999,-0.15813480092212,0.0928600413841005
-0.258280137200279,0.206391889388844,0.0857461792894319,-0.0999104368883624,0.19723400421209,0.132581892951689,-0.48741038067025,0.3818663602959,0.523112343424002,0.569828487997041,-0.349252198765001,0.00934827192593732,-0.00402261603776385,-0.261428933611682,0.14574682308873,0.535652128397197,0.211983576783765,-0.268762383640735,0.453772445824668,-0.294620786901193,0.090958239489762,0.121586386911025,-0.0988534994152154,0.0235408673006588
-0.264603796828924,0.209961138788833,0.114794795948737,0.151993426248672,0.174089197604174,0.19848316102359,-0.511546108985666,0.360561082131245,0.4634213917125,0.509945236332616,-0.338554306924762,-0.0976278113459466,-0.0515105644873261,-0.239515358598649,0.146974393206321,0.523767052859871,-0.241611316619755,-0.20947086699497,0.439474748055857,-0.293097939491136,0.0674781758235621,-0.128303721295358,-0.158695623327453,0.0131854385417249
0.0612926514563615,0.0291170506315383,0.0118350040516777,-0.12693379255433,0.164593828319921,-0.339204079644967,-0.239058259575741,-0.279163036549756,0.175011819309029,0.172688184344484,-0.245845609247211,0.0415818491300906,-0.220466166506125,0.141964457139944,0.122407464806486,0.0547935912613748,-0.128083497991092,-0.248547652920656,0.182943199611187,0.161371982472459,0.195721182763609,-0.435553690377861,0.43790713489653,-0.417038514148173
-0.0890736212848786,-0.0436402053656638,0.0295128806192732,-0.219656399633845,0.0055038905845788,0.192987920223273,0.0658560728358712,-0.138959232641729,0.316208184541245,0.264382283965185,0.110334083104097,0.0478192973789219,-0.233938072607597,0.103965071632645,0.0429455205514736,0.0111230366901221,0.429834183003104,0.0736415829793347,0.447325510011184,0.0245467838171193,0.245582718603508,0.227392841668217,0.0858631213973723,0.340720065805101
-0.0852556797861695,-0.0222874513611065,0.0389414254178431,-0.216917614934427,-0.0132192255260778,0.198837370786814,-0.071932731620505,-0.132357739545655,0.330224292316936,0.259679373517078,0.128113135814452,0.0598408482367703,-0.245435657700913,0.0902835848715611,0.0639999337674304,-0.00984612635208219,0.420151519700311,0.0692722794566558,0.438328892654113,0.00465974842657607,0.224661421491663,0.211999004120014,0.0611193052716022,0.35178504378484
-0.0795869989188356,-0.0410329274558544,0.0219435997864351,-0.20949440351914,-0.00132095754919095,0.18507605078951,0.0690660233104194,-0.134240766950998,0.315213942187769,0.27009203134936,0.11808842755887,0.0505471690522908,-0.229807638067068,0.102724539588844,0.0496369214762266,0.0124962492332826,0.437702869699142,0.0711839849224655,0.449279929656155,0.0212150353400374,0.244783465599988,0.220202179696568,0.0929730648356813,0.33859280563095
-0.0382019976531679,-0.000972430529866016,0.0359406279530308,-0.210818097025822,-0.0267265417340743,0.209997746081343,-0.050798443421094,-0.172101884970934,0.370245903927565,0.253933046581771,0.151807365091583,0.0849818304271996,-0.222951603740559,-0.0850086810257751,0.0886404896938143,-0.0247402023705543,0.370009093250539,0.0308149013831742,0.447481003882373,-0.0484767491832414,0.216299451993255,0.230150474366222,0.0119303906539422,0.356945948132029
-0.0765461323157038,-0.00302741841899635,0.0499153367212963,-0.224780287658343,-0.0237248787642312,0.209386675239773,-0.0719305990980181,-0.143312369865045,0.351237709105286,0.246880144785241,0.137892659035016,0.0700773985157173,-0.249443948318064,0.0801502980008068,0.0843115572836325,-0.0384300679098019,0.394147588227184,0.0485444082052257,0.429613556305246,-0.0292588095887782,0.207170782584204,0.211056891949293,0.0265599392056803,-0.365628509507453
-0.0809279956631662,-0.0686251340682392,0.00843606339474703,-0.203813616130377,0.016751194781886,0.184210631427925,0.0608797717898946,-0.153697789331169,0.305029799384844,0.279378619524295,0.104346631556732,0.0389543858448573,-0.222804666662756,0.122035717176011,0.0332267771792768,0.0231984638504725,0.437563759116342,0.0705880196045664,0.456116438193493,0.0370081467937769,0.260535313484329,0.234647289421239,0.102395461788671,0.334311343058153
-0.0656140132305534,-0.0433812309661107,0.0124492757474177,-0.188560153738176,-0.024251123539875,0.189738418019693,-0.0591750350493801,-0.141403330869683,0.328321984574448,0.277840311102874,0.144520260750152,0.0641488511853454,-0.233130832009408,0.0921169390680218,0.072187238036311,0.00142010058284869,0.428168293460433,0.0674107411140445,0.449059467945812,0.00564053628181877,0.233446709253222,0.210079440032142,0.0739080165584327,0.33662126940911
-0.0728437362554424,-0.0546464444685438,0.00866985486697553,-0.192956226780169,-0.00567077867820391,0.183374348060929,-0.0638594791479958,-0.14282876268149,0.314533289001497,0.280262344571296,0.126991747496709,0.0513796158456715,-0.229243147889194,0.106130873450401,0.0550804761865127,0.0127502248701,0.439108529996326,0.0701966660599045,0.451722151535533,0.0224310803844072,0.245536226862601,0.21722075165292,0.0925726231044685,0.335773989152455
-0.0253551525461656,-0.0173813139604334,0.0242671414024129,-0.187982936732555,-0.0398509382743675,0.209369492921556,-0.0375693386313891,-0.170025050251974,0.370032416930322,0.267686363822623,0.167478703446635,0.0938862685485172,-0.214728753783928,-0.0849060917515522,0.0895607750725366,-0.0112275262455092,0.366795905458096,0.042969361697705,0.455692961169415,-0.0408782596167936,0.218845856569795,0.22679839458521,0.0109688744729326,0.343453352545874
-0.054996854710656,-0.0231374708063436,0.0253199505460453,-0.196261194902097,-0.0343899162061609,0.201476811476788,-0.0531731349198874,-0.149285148670496,0.349263914099375,0.268209588275602,0.153349313440108,0.0775647892187751,-0.231402725595831,-0.0836027275079289,0.0837925477052109,-0.0135460213343139,0.401279299962401,0.0556794954592801,0.44810249046069,-0.019186765529751,0.222700606714244,0.214107173815507,0.0426551129773244,0.343848095744998
-0.0538634701381061,-0.0559048212885315,0.00156486837493357,-0.170623471959117,-0.0356709929216117,0.195004879474198,-0.0466641164139819,-0.152004240924358,0.334259303067986,0.285796103853397,0.16103612574471,0.0718889624858198,-0.231771505242247,0.0894995114790594,0.0831501129731423,0.000175298701494485,0.416466940771122,0.0686187995369755,0.450205356026385,7.69859607125563e-05,0.22758582912912,0.208252567614126,0.0591475512261555,0.331518965746496
-0.062880120249592,-0.0849246454318842,-0.0150159539265871,-0.160309510251977,-0.0160021937493961,0.18556279974154,-0.0504404852146184,-0.160685516414319,0.31279706618271,0.298533702829675,0.146427393172291,0.0544499926600549,-0.232616559448181,0.110014330296332,0.0686678936683089,0.0107506386912534,0.435114650316233,0.0725609690171723,0.451971019516801,0.0251001591224874,0.240627587383426,0.209270135216858,0.0827171864684656,0.329708164245281
-0.00633538051777378,-0.0263689660889663,0.019952473266848,-0.173810865800665,-0.0450511359826135,0.219259114005944,-0.0204821531447442,-0.182173820394622,0.379985989998425,0.269619777943273,0.18086534473095,0.104103184296155,-0.203207845614162,-0.0873197646834931,0.0906323711713535,-0.00506004293289961,0.336165563035322,0.0461900130130138,0.458813780482691,-0.0475478722073061,0.213426190103475,0.235206955452914,-0.015910574560689,0.338132244167131
-0.0677913393119838,-0.141658469633892,-0.0437664196967329,-0.129806447056408,0.00929163294185892,0.18084762872307,0.0434595677386509,-0.196334953709633,0.284916989417352,0.326345541318116,-0.128445601063635,0.0345098300625382,-0.232245691317669,0.14998944201683,0.0541242158898321,0.0104822230642163,0.437786543754509,0.0682363268349786,0.454900269984317,0.0538656747361856,0.25454256202569,0.209412829087135,0.0914608970670467,0.330178721119505
-0.0518218444875925,-0.0998715006263195,-0.0230878549051239,-0.138204686930821,-0.0392809271294954,0.201863780965923,-0.0307063433689074,-0.171101582362223,0.322598132482034,0.305124171814187,0.173514669888064,0.0694228789736853,-0.237956017997642,0.0980016664186551,0.0927670841681198,-0.000215727493344357,0.408403334456936,0.0792910333376966,0.445482175648834,0.0126113145546238,0.219456458169367,0.200591547657761,0.0468741572811397,0.322644764475682
-0.0627315998214735,-0.131743025690386,-0.0421701506470448,-0.123932105784266,-0.0181099817588376,0.189404718260249,-0.0366079914914752,-0.184709921010412,0.29846385622321,0.320634365452364,0.157193813765811,0.0500751773012989,-0.241538834759655,0.122459553582782,0.0799096927736991,0.00548068018530438,0.430685038630366,0.077643225276291,0.446324037989085,0.0386257021800127,0.233924718460859,0.196971820350962,0.0727009382963928,0.323321510223776
