0.143348511315978,0.0404881405954553,0.166610036265252,0.195911023151143,-0.089562270983121,-0.0857037467734811,0.130028724206884,-0.0655588397936386,0.364047297889287,0.152358670547827,-0.188647027762921,0.373096094340023,0.44581521549183,-0.194575084695077,-0.195358810447235,-0.255182011383933,0.00770327117702102,-0.12582157243222,0.385677866355684,0.170045352010765,0.250390561434908,-0.0281301167218366,-0.261329094333345,0.453824301520439
0.158316252007678,0.0192584231603084,0.193186282715192,0.220620945555859,-0.0719181713784112,-0.0997254436371867,0.135681294940506,-0.0940418037613901,0.363194735386533,0.149298705868178,-0.190666637984725,0.381392566061415,0.440488669321998,-0.17932203123569,-0.172871465770142,-0.220374978962585,0.0174224288208144,-0.160677360002737,0.388268469483812,0.19964945484845,0.263143386150045,-0.0418432484558596,-0.255309280294354,0.480552330096926
0.0976545161582262,0.0911360197510602,0.203779570281792,0.127623689751628,-0.0402867289795387,-0.137768341673175,0.156083627070266,-0.14330704082377,0.380905015883664,0.254120527297754,-0.056224238098199,0.375979495467002,0.391518349534123,-0.204404266565358,-0.171563077820325,-0.242577674651875,0.0213076684152666,-0.134289452334948,0.35836913590189,0.206291348534887,0.223847495105018,-0.133829963899174,-0.196642464846715,0.397515030595069
0.0817107350201063,0.107100930442934,0.220054181716755,0.0975766879662537,-0.00961751856482741,-0.138731510016256,0.160624126862215,-0.170128658603955,0.389059886702734,0.280499931580451,0.00262965654462794,0.382304341983631,0.36863328596379,-0.204073557565066,-0.165145163770809,-0.240267070245022,0.0280865464889589,-0.122130910757789,0.344291055672017,0.206545055366827,0.204927336123449,-0.173392178736322,-0.172762269678935,0.373853422030978
0.189232661275275,-0.0313843975804285,0.235491486729786,-0.277606310464211,-0.0752921647414442,-0.106460703767572,0.140254694479794,-0.116093078094823,0.366419579971885,0.107998124820328,-0.214153320783405,0.36765811901362,0.428762268400641,-0.131569570385541,-0.150350166912707,-0.167079085636252,0.0367900057102029,-0.200767955004667,0.373365606201724,0.232907095702795,0.273504689399862,0.0480545260708393,-0.261037806123801,0.522574353215926
0.0539801780416659,0.12631503306442,0.302041525640125,0.0871599206185953,0.0880228655438918,-0.10261252775686,-0.190663556658729,0.256128875955771,-0.428897100130234,0.231929905409758,0.157743549282339,0.430392002237539,0.316855525875886,-0.126820107710072,-0.133588383053009,-0.205760811071769,0.0570333297143304,-0.0633224030642494,0.284739709233864,-0.225503443219139,-0.134700268388421,-0.279402315603518,-0.150230274611538,0.328378413308278
0.20848730404204,-0.0741405136935937,0.282233503199875,-0.312304621458677,-0.0790566834677234,-0.125365177779257,0.150987957877534,0.15342266613241,0.369227277342172,0.0828726707377012,-0.216143591743438,0.334034084671336,0.400217367339375,0.0796444452072005,-0.125256254080607,-0.121791399642845,0.0513173798350955,-0.234521733404443,0.347819323936452,0.268293019269967,0.27495969066465,0.0761777291893489,-0.252270189562665,0.541955535550888
0.0715754154820968,0.117072905105789,0.238467104217987,0.0724970507879165,0.0715509433998795,-0.112614753468344,0.148765295459848,0.213217471845204,0.392362093728405,0.26654836850218,0.0538049454256204,0.427624093783786,0.361623631114203,-0.187585921293705,-0.154192396544413,-0.247684128358435,0.0287641959542012,-0.0984373618380566,0.340644663397937,-0.19501177579228,-0.18683007715816,-0.22153440106542,-0.153118566282269,0.362725556048534
0.20137160713943,-0.0810527560175314,0.30777668830076,-0.25195439966332,-0.0369960390611134,-0.164269126157639,0.169593992050319,-0.237366808549715,0.352315612127179,0.119678027248567,-0.17373585734634,0.309732121570097,0.375370657622715,0.0596088503124205,-0.0816070194587945,-0.122350613205136,0.033820614315519,-0.241851279905676,0.340545505005302,0.29522257824691,0.273971732697464,0.149588577566043,0.219210649309063,0.51115267672637
0.0803975165514579,0.107074747644191,0.196542908276447,0.0631745287105044,0.0923282587878287,-0.10700108148996,0.108295474176342,0.202767792231147,0.364825768657462,-0.263958534163085,-0.00954061638787887,0.438312979052209,0.387459163548111,-0.211771348801009,-0.15909155694828,-0.273797326532859,0.0086661017680915,-0.114866389875695,0.374318626771834,0.17063297206251,-0.221888202697151,-0.197236750446849,-0.143813474431558,0.37940968726145
0.189276579800026,-0.0712329909550071,0.296979639894091,-0.191963684490546,-0.00220626247962009,-0.181161673351994,0.170739847551218,-0.280191760161413,0.332901230232159,-0.149237535753311,-0.142394850319723,0.315817099307939,0.372447696787483,0.0691777993821467,-0.0512342079249263,-0.135664747535744,0.0137604864930579,-0.227318965340445,0.346677921144112,0.30321775289598,0.269541480286412,0.180968232370044,0.202289819205822,0.477294521200594
0.0867604003022625,0.0873407337253948,0.114072933169956,0.0544528123663864,0.132362713236307,0.124077710090084,0.0524314755214205,0.23009876302897,0.314596667949775,-0.185643555308612,-0.0833600192364764,0.461743264086951,0.423338897888077,-0.195776294805079,-0.130432391665822,-0.283414490551523,-0.0359224140660177,-0.123525060994153,0.404609691094613,0.15696128977432,0.278969739332408,0.16406986665487,-0.108105567160251,0.35936849423166
0.0827181362677477,0.0960405169047331,0.10707308247888,0.063856269270781,0.146073625625406,0.10317888026118,0.0375312658817525,0.220976725554316,0.323110824418528,-0.167060558482923,-0.0818773986108355,0.475175606251573,0.407599490044012,-0.181135783541553,-0.155467465109118,-0.291027150380447,-0.0354772455391275,-0.121411117592407,0.391613746773534,0.124996372037856,-0.264138712939066,0.171597167070896,-0.0815559545480058,0.354282348215838
0.0799055530087986,0.0956669522869344,0.100535674357995,0.0637619509445161,0.153466153086599,0.106652205008739,0.0398551495474174,0.230918096953811,0.320159169577539,-0.144862763139969,-0.0755632181597783,0.479200661301211,0.40632490018167,-0.164776765354537,-0.146866878558642,-0.284796924798266,-0.0382459625933851,-0.116880840746541,0.384847174810182,0.125572962833314,0.263658644966154,0.176683657691529,-0.0742396163194752,0.342614787751769
-0.0073475984387964,0.154399184176381,0.371241530408476,0.145925923237975,0.355179336644067,-0.0435402080753883,-0.215997563744983,0.426077646732424,-0.344258500645213,-0.00231491121360402,0.296350013078319,0.505032452462192,0.254517575760526,-0.0275556888265215,-0.0271092133853716,-0.109474840432158,0.0684104830729136,0.00831820607802779,0.236640617482789,-0.321535561841162,-0.0964935056229358,0.366106697960099,-0.154129284752388,0.24504782119093
0.00539145655628536,0.17220795624597,0.338308960369953,0.124688335737484,0.360557022338458,-0.0401796613392508,-0.219975905335021,0.396179107588523,-0.293235140258848,0.00252513940273599,0.275424446852415,0.528106827046528,0.262444996810899,-0.0569445146092358,-0.0398730372234623,-0.0842067403014255,0.0773484360477955,0.0243730852762543,0.203878411802959,-0.292315245240914,-0.0458481627355519,0.369656593168052,-0.169009724080657,0.231412994679053
0.032814475866091,0.158444023454321,0.322048224614975,0.101922240418856,0.27112512966555,-0.0538188829183096,-0.206285698115393,0.342880270363076,-0.354313548878942,0.100789376830294,0.226561889832783,0.523088044099188,0.300050010385642,0.01877197772444,0.0348293394007922,-0.142201064743125,0.0710038607447632,-0.0055035550637503,0.244934877384446,-0.252290914192351,-0.0746379872110233,0.346900807660263,-0.163032509682355,0.284820087241523
0.0567070414688344,0.162148180829168,0.268010371319041,0.0863532187812452,0.302289082396313,-0.0341948204887664,-0.194497163240873,0.308147099713347,-0.277367850241313,0.0854169747112527,0.180250074837489,0.548072060862312,0.299539244236983,-0.0314074884273359,0.00134132984671126,-0.0965692425133532,0.0947210138566499,0.00874320573987268,0.201648673781563,-0.208715748925309,-0.0153921137999739,0.35827086602938,-0.166862771042621,0.277780780552753
0.0710448493819881,0.122802920991306,0.243027738755435,0.0712895575486716,0.148161809470878,-0.0807968699700322,-0.13946660123382,0.242715878708271,-0.376451385134036,0.22294231196677,0.0682972227022015,0.479585968975695,0.359326510794543,-0.148787417973413,-0.133819348720617,-0.239165581837952,0.031198935021638,-0.0805826209696305,0.329817680893175,-0.182197001522675,-0.161774771796432,0.258464671396979,-0.146033044613333,0.359292972112289
0.0724605737191519,0.140803851922668,0.247449518128906,0.0773894320455718,0.242786257049519,-0.0442897140616149,-0.158602099034191,0.27397693291572,-0.32198945176089,0.150310079258069,0.109080065639613,0.536076133821675,0.334163621671307,-0.051662731370726,0.0691558116777598,-0.170349791865787,0.0627279611588949,-0.037021131705428,0.266781208819932,-0.179076614454928,-0.0796327323289614,0.317158502673319,-0.151452805848061,0.328642423878245
0.0857358642507376,0.101967571756456,0.184177895470645,0.063357227985041,0.140715836351704,-0.0762902610925602,0.0829945381399037,0.212164270061557,0.352789379123727,-0.2278431340686,-0.0234045062460796,0.474429889239093,0.381583228454885,-0.18357369751903,-0.158524610618726,-0.276518974538459,0.00182238669904892,-0.110380460269286,0.365895364276863,0.139546758571526,-0.204205222027998,0.216071221018,-0.12158772669352,0.380259550838972
0.0852344450339931,0.115746138062119,0.211741965463044,0.0673301349774454,0.186259349711795,-0.0548410439876618,-0.112485572079594,0.235073799794426,-0.342635730594068,-0.198021616925465,0.0280585959002532,0.509279830889736,0.360814261145833,-0.126764899752738,-0.125324216744053,-0.234429981794046,0.0269820461822664,-0.0794921424911596,0.323413648701844,-0.147415191052466,-0.14298751768551,0.262851880602463,-0.132269030698756,0.365380461211612
0.088723692768212,0.0948961361282634,0.145868355199572,0.0659595601415133,0.140392811057311,0.0813904201909656,0.0520307696029405,0.206810760023372,0.339289427307353,-0.208459997250452,-0.0669458421123631,0.473212512246866,0.392069194759309,-0.190088448422338,-0.167899047621342,-0.291457186846198,-0.0179866739630594,-0.12403856576137,0.382391193006331,0.121970018181492,-0.233402208981092,0.190966394192729,-0.0990364025567863,0.377464963185108
0.0888529152030093,0.0986091620118358,0.116795825332315,0.0708134503231342,0.1541596697538,0.0841785590926142,0.0371334871103069,0.215756221198678,0.329072024084095,-0.163766626544286,-0.0780857522901909,0.488093191147087,0.392201996435036,-0.167225074551971,-0.167798027429389,-0.288220659314051,-0.0306331417319896,-0.119239524120513,0.380656895859169,0.109464120092615,-0.239091058215946,0.181318699909267,-0.0750176652293708,0.358199727716729
0.091210547234057,0.0706991110055168,0.124866140788226,0.0542435220568061,0.13937378031378,0.133864725481659,0.0708489096871907,0.258431395844102,0.310148995875491,-0.158385143076036,-0.0720158860531824,0.460671783161943,0.419234606976598,-0.162508104394365,-0.100839227505183,-0.263625460148758,-0.0391909410523706,-0.123773743572849,0.391064725620586,0.175078199235526,0.273042912784167,0.183626263300479,-0.109473692029156,0.351311403257941
0.11197103677743,0.0340228417108962,0.166530335993485,0.0621801294143468,0.11928073203132,0.153484687866786,0.104487029470691,-0.285904830329167,0.308270338360938,-0.162749500449383,-0.0737437692541318,0.434150564363175,0.414739000348866,-0.139621094692023,-0.0646532240867349,-0.23416468427244,-0.0358072126847439,-0.141485534758265,0.383443543661778,0.218226939448915,0.269806794825454,0.199094392014157,-0.136186172166482,0.370604055638481
0.0807573574410092,0.105934131941771,0.0959524216733778,0.0763636735276063,0.17164644758407,0.0858114395653971,0.0379921011772261,0.230186710656068,0.325460556999422,-0.107448817284942,-0.0631995549938022,0.498414261835711,0.382043402485895,-0.12716169489006,-0.162201804092166,-0.276362455904042,-0.0346887574127258,-0.107091233781545,0.362202166893435,0.0972032597673543,-0.234711936987463,0.188853087455679,-0.0479178234591932,0.326644797664502
0.0814310179848222,0.0911893858824489,0.100758532970112,0.0601439123775461,0.164749992749778,0.107324894877698,0.0529446821140694,0.250117312698629,0.320695654503836,-0.108523210234292,-0.0536851929865211,0.487792045882315,0.39698955712081,-0.129040091912741,-0.129443113979017,-0.268600800823591,-0.0383811100980746,-0.102483547184083,0.368737662576942,0.128565333471331,0.248021516520588,0.192244063128579,-0.0670555352881413,0.322987349777152
0.0909850176279805,0.059220926212365,0.132572255419868,0.0542531295514612,0.15495913753553,0.127165457731256,0.0849362246650983,0.280592453936678,0.315400226048607,-0.116292834338864,-0.0466876853765573,0.464542546273147,0.399137542155943,-0.113463840582737,-0.0858549497551539,-0.24759699054212,-0.038179882877038,-0.114934108990284,0.362043303805055,0.169031571348223,0.249907892786625,0.215432989458416,-0.0917234620084829,0.332307306694958
0.0736353084972598,0.117325001459797,0.0843068679688918,0.0864806353058241,0.190349704771976,0.0716533837492231,0.0442393328233477,0.234586287800723,0.328209413839278,-0.0554860307952948,-0.0378734164458267,0.507759812650912,0.355167857523017,-0.0796205363904406,-0.166879935256187,-0.261291420702991,-0.0285635780828272,-0.0914834518955309,0.331356517955333,0.0711913798958386,-0.209925974067919,0.204991022323998,-0.0171638689223722,0.294748502266075
0.0114781113482411,0.169537431944665,0.30878021601796,0.143341107607835,0.380869378891606,-0.0613545491266788,-0.223082790153523,0.402906914348964,-0.20683990646922,-0.0405416896415405,0.252118609448733,0.508257290142602,0.255759048039468,-0.110985030487797,-0.116154076900324,-0.0219140493318319,0.0924355112141153,0.0411517505064219,0.164195258104537,-0.327927513594313,-0.00791291566482554,0.359385889866266,-0.18123710602225,0.211775697338813
0.0412509624888955,0.169963034158746,0.24931619797733,0.118830542060988,0.355350644726872,-0.065574835562622,-0.224639022659273,0.343537298602229,-0.124529860935059,-0.0327952480430491,0.221646306915612,0.491709671140246,0.24538626938543,-0.169972713556406,-0.154082316239701,0.0513011712628141,0.135674284941472,0.0703054930971229,0.085125120202225,-0.288970699334785,0.0784626353553719,0.359794823949605,-0.190142092981219,0.187840699754628
0.017805705233288,0.175989771793829,0.315088503985199,0.115172547134954,0.357866171863298,-0.039937578558116,-0.220449329263907,0.375169841179528,-0.262719451909819,0.00714332989872145,0.258099272903075,0.534485637526499,0.265398051385764,-0.0768337971687699,-0.0520480275165085,-0.062311136209725,0.0909560418681731,0.0328175682755598,0.181124227658279,-0.276450051523383,-0.0150342289506889,0.372716029563075,-0.175377259854302,0.227844452136957
0.0511164037473345,0.169770464273985,0.260256700154584,0.101335480118639,0.341693965283505,-0.0426904243407529,-0.215265379130885,0.325918142296388,-0.19907589789736,0.0195043679708135,0.212446206961496,0.531729204542764,0.268891280479406,-0.119292282275688,-0.0826419105591428,-0.00833558604353226,0.129957289016307,0.045562617724366,0.130116071076804,-0.243884274569249,0.0454046975908675,0.37673453024811,-0.181396199561397,0.228040764068891
0.0853805533288679,0.15198176914424,0.21896289398088,0.0833299388627487,0.296927070557825,-0.0316107615502958,-0.181465227862671,0.271270955278526,-0.224450920747296,0.08842520395401,0.130341822675981,0.54578828583988,0.300052496491396,-0.0667611340710087,-0.0217231667246893,-0.0557674969155791,0.123049959835891,0.00954203911127382,0.165837096892817,-0.177968755454751,0.0236573162316169,0.360265835989081,-0.161742683739078,0.280787972186819
0.0940354667542068,0.103014638785011,0.185012314515021,0.0697839527698083,0.18068434418532,-0.0495591724837813,0.0843897235030359,0.220213284861773,0.334680987824605,-0.194980046139562,-0.0175858908136634,0.506546200326681,0.364046095401432,-0.134722850573182,-0.141011577171985,-0.249684445537935,0.0132299092263593,-0.0978690295620218,0.334457751024009,0.122587353106128,-0.158253174282898,0.246093740017158,-0.113469848379827,0.374709690232263
0.0999833463118939,0.12209892420763,0.196359815937461,0.0818874232962253,0.235623813064708,-0.0346024796235734,-0.124431513339313,0.239674439263465,-0.289505592977117,-0.152924104771071,0.0319651768712212,0.537231748263704,0.337915947360802,-0.0390387925874245,0.0762844683225059,-0.165530966528182,0.0651316626383517,-0.0603066607765853,0.259671187753244,-0.134098217447389,-0.0728396718355916,0.306994240294069,-0.127475115066865,0.344787940398119
0.161440749872526,-0.0551175075872176,0.2638544381083,-0.0980290053387408,0.0711572624053644,0.18359297745885,0.161904576138009,-0.336960960776548,0.303610936681715,-0.15036860142063,-0.0886792926123454,0.349408923791919,0.371088672446159,0.0631433176266796,-0.00732968792830876,-0.16040379665672,-0.023694576370023,-0.186140235432205,0.342108688228338,0.287132032140931,0.25047502765302,0.233293413146848,0.165389880378978,0.41132614213787
0.186077991304722,-0.102117259952895,0.32039421771908,-0.132847813347231,0.0415580462551622,-0.19088184421435,0.185092448170473,-0.351468578765079,0.305741467491895,-0.13116191214739,-0.104403261116815,0.285908277186533,0.332283661784162,0.00902961257995011,0.00145653854004956,-0.120931055896018,-0.0102518127968155,-0.213129044538286,0.306524585409335,0.302728175919653,0.238562969674145,0.252690397048779,0.164919812433163,0.435265006712744
0.0946129321553077,0.0957059609681071,0.162758324940251,0.070297990697827,0.162459355544571,0.0586980761709709,0.0610068986917909,0.211319068986881,0.338159171554477,-0.196390409893094,-0.0505262849695088,0.494224351092605,0.373785422222528,-0.159361957725268,-0.161366389264243,-0.2741793225861,-0.00700372452245197,-0.114090232627673,0.358343464016706,0.112774974980493,-0.192577110541977,0.217057769890756,-0.0986337297813981,0.378356223289999
0.102293997749771,0.101741594102685,0.166915432991496,0.0857995334064496,0.198221793755114,0.0383897388888959,0.0757842371323331,0.220100273116916,0.315914121757661,-0.165991225503757,-0.0379779530627236,0.518588381259243,0.350694838403237,-0.0969976265176994,-0.136462571123194,-0.232077055119779,0.0165883410949684,-0.105132669630843,0.314137699049107,0.102773616287215,-0.140857665915313,0.256410429793794,-0.0924662777082372,0.365977294762381
0.151282793799933,-0.0635489757905784,-0.264533474314855,-0.0716029716916984,0.100131599327846,0.174946974580993,0.163574650682785,-0.360978691749586,0.303383600183598,-0.119738695500964,-0.0568447789398409,0.356133768591857,0.354738341306949,0.0245898370060992,0.00803665268818284,-0.161192743585673,-0.0335012393626057,-0.168311529479203,0.31482637216992,0.269865576885503,0.225990206722297,0.274015865717483,0.138942540177129,0.3824723854807
0.0962993439505707,0.098659228420086,0.139916036288071,0.0853342626726814,0.17526685193977,0.0545817084107448,0.0492295025856137,0.215070973537681,0.32835471778262,-0.159608919566359,-0.0674781135069889,0.504193051050532,0.364445936922035,-0.131015565732233,-0.166666708966955,-0.268682202380203,-0.0141323862133344,-0.120994603740486,0.349216757969439,0.0938754014498006,-0.192306140109586,0.216046335874987,-0.0713125285610785,0.363210198219267
0.106256274207804,0.104416394098293,0.151345041684162,0.106143446825275,0.209309743009864,0.0295656960942872,0.0705110093965919,0.222009960826541,0.303435989571201,-0.134995021588749,-0.0537503154222789,0.523664724603255,0.331643899355318,-0.0616847808278081,-0.140213305063523,-0.219348309541807,0.0140065311860609,-0.115481398476072,0.29647419228991,0.0834381378029913,-0.129888698592311,0.260925709993921,-0.0659437492012156,0.349575115620456
0.110589212566404,0.00975701979308711,-0.181581564602188,0.0507563538081512,0.145763392634303,0.140739030235584,0.121883155978235,-0.32216174748074,0.313977899758793,-0.103030644101561,-0.0319526600808627,0.433476272455356,0.379623196259615,-0.0638041792434106,-0.0389042056786502,-0.213084993488076,-0.03773260742087,-0.125559047768044,0.334607825078979,0.205228459161015,0.229750334673137,0.255006828403846,0.105412341267822,0.338666662632852
0.125338077909812,-0.0419857599929496,-0.222253692637574,0.0348330184705568,0.142745977347098,0.144046700055176,0.143170746004664,-0.358733826586042,0.315698540371804,-0.078316710521237,-0.00609464575076492,0.405263785354638,0.35177813341183,-0.00754581181425206,0.00391462379671617,-0.184125877982803,-0.0398550888735604,-0.12155543433669,0.298590462437914,0.226701951300289,0.197734622595467,0.298159418098208,0.104912279395613,0.330034983931327
0.0897128332522035,0.110111015763733,0.114354859629671,0.096794743386636,0.186443760172852,0.0566599792519273,0.0448785241743654,0.223665153045707,0.324990155434333,-0.10981507315899,-0.0638038190083021,0.510419399144426,0.35373712070679,-0.100167203796675,-0.173187819502985,-0.263475981183155,-0.0221743445140083,-0.115841790796519,0.338962887169984,0.077013180353962,-0.196394116892264,0.2113713601982,-0.0396441826756753,0.332311028775856
0.072718198902938,0.102909946182506,-0.0886390437436643,0.0693020001149521,0.186920466215985,0.0857950318410859,0.0567024501035597,0.251945435103208,0.327649561904973,-0.0524336479355741,-0.02356881859161,0.499664832637225,0.365003049729166,-0.0770443266766216,-0.13875453799022,-0.255815932962128,-0.03059958124252,-0.0834116895467496,0.332537008460392,0.0937735047527067,-0.216529827540631,0.213855260993425,-0.0305038585613738,0.288725664703212
0.0816745411891616,0.0744045461942849,-0.108238007618269,0.0523880421393583,0.187538943794953,0.0845894659098061,0.0823763046968038,0.277201002362006,0.333067087115772,-0.0411281195800373,0.00678644965304738,0.486249321809785,0.351758363410328,-0.0458329928427043,-0.101842002464568,-0.235910005932031,-0.0227267302657817,-0.0704526597259763,0.313478909619304,0.110149814555485,-0.196451001573415,0.245346944853839,-0.0386907869368096,0.276398650750308
0.0800255927113578,0.124714223280599,0.0927261408964875,0.101473684498474,0.201773168615528,0.0528012754281521,0.0522900123598157,0.231861911220557,0.325547422489413,-0.0531301820613328,-0.0346464463592669,0.515285641862253,0.333940282196622,-0.0577749242998046,-0.173110881415408,-0.248920323562421,-0.0188372197721861,-0.0939545910100348,0.315382355255483,0.0569302009171325,-0.184109013593386,0.217385138129777,-0.00905908432491176,0.290700744798658
0.0719927149592295,0.121365305007092,-0.0793403929402551,0.0845143690529293,0.20527391989749,0.0557272032741182,0.0625016285535831,0.242306899801858,0.331908150183902,-0.0186330497964309,0.000313123442019926,0.50829460827826,0.326808570444209,-0.0359212838294047,-0.156298457677391,-0.240272809981046,-0.0139481684213249,-0.066549038448001,0.301450762645843,0.0539443154291332,-0.179213821197332,0.2263835923163,0.00105780392865089,0.259733031137251
0.0707444052179349,0.112726819967068,-0.0710287754041238,0.0663242759188138,0.213445215678641,0.0360858581661722,0.078031661502443,0.247922511431001,0.341415100342956,0.0152942490601983,0.0485738615385398,0.497986071156856,0.297225904480974,0.00236540133517297,-0.137180302126782,-0.221355806892833,0.00489299338277551,0.029427241187181,0.270089030321442,0.0363307402708993,-0.147005672120032,0.249851663909529,0.015940205521465,0.220095501692279
0.00736816685804691,0.129198280098919,0.304164761916901,-0.198346268162079,0.367513074820469,-0.122347202047482,-0.208087227950639,0.429240772378662,-0.145452581293474,-0.0817369130723101,0.190098026346006,0.43912637628151,0.257663242791228,-0.133472704808291,-0.188604866569073,0.00593982962686006,0.0831348134930619,0.00341313974719739,0.163840786332932,-0.412792203583133,-0.0372204577923403,0.328881164802699,-0.196870836686866,0.227649712210003
0.0394778754890509,0.14810228501974,0.252177419425711,0.146083360527528,0.338100978282128,-0.105414337323572,-0.222881172136582,0.357171690013467,-0.0938269261334315,-0.0493845132435514,0.199975804456812,0.44797538296765,0.247952917930731,-0.187345388933348,-0.195339962606136,0.0715742345741149,0.136637946058054,0.05699589342406,0.074229271134346,-0.338088260416178,0.0718104207043985,0.347250791392308,-0.202312395017713,0.193627853783981
0.0760836294671373,0.155046865451613,0.194650186904852,0.103153290181408,0.312857493902503,-0.0771516481823833,-0.221414980168627,0.284431986819332,-0.0668294717229019,-0.00669371735234662,0.1838419756007,0.46084922554658,0.243132443305977,-0.208005093124851,-0.182732379927956,0.111503459638858,0.184176056699704,0.0859642476985987,0.022647097608486,-0.2537234844611,0.140801315165416,0.35719557698278,-0.192583355702738,0.18575987060059
0.10456365819922,0.147545323302313,0.145207318780016,0.0816350773277301,0.286705316364445,-0.0647877407968065,-0.21282793916428,0.229107859183912,-0.0337953460707685,0.018082309576657,0.155227584679658,0.448845782976636,0.234520034307512,-0.226462051138984,-0.185357629355344,0.149204093188943,0.219836232428642,0.0976875546817584,-0.0178885167560389,-0.200991819781541,0.184372020460623,0.354850285353607,-0.181612465081062,0.181458812562622
0.0973880559487098,0.15679139202246,0.174266734711302,0.0826795932592741,0.305063070431372,-0.0470447376177692,-0.206305801096921,0.252577630416809,-0.100724131252754,0.0368516311068669,0.152492879351724,0.499545080402071,0.25770102283987,-0.174574112032549,-0.130541587177237,0.0790218203714119,0.184314413030848,0.0713049523791966,0.0488466812945021,-0.194345307725473,0.132583649129951,0.362862181723624,-0.175110863365708,0.21506681758024
0.123789684929697,0.13850888992639,0.126449558159791,0.0788835581921945,0.271603086350599,0.0589727718783997,-0.203665132119807,0.206890745001359,-0.0389685329461688,0.045511539983055,0.126843549896708,0.450434058748112,0.242302879630449,-0.218872283256294,-0.170985468678037,0.14746918290532,0.233053693119035,0.0869772549132421,-0.0159878079620108,-0.173114570288186,0.184539685912419,0.357020311757121,-0.170527179626944,0.200130491280914
0.126550793966791,0.137026294052449,0.152987344335532,0.0881608508979326,0.275156679988552,0.0391164629600593,-0.176425076708495,0.226684039457382,-0.138884307768751,0.0902848923448565,0.0789972824266302,0.512093209569631,0.283627432692882,-0.131060486777255,-0.0734750812472899,0.0299845493602078,0.174289121042709,0.0240465057160133,0.0929755884472023,-0.148566170157087,0.0927163045970743,0.356182958565996,-0.147898088951619,0.267122395033088
0.138991199973575,0.129488851644946,0.112699730674691,0.0812947529366372,0.259779132085004,0.0541683095228981,-0.195728949637927,0.191609966028097,-0.0430382613152788,0.0674409297026343,0.101506254277937,0.446655852588507,0.246392217714709,-0.213545918444903,-0.159835093391715,0.145852422782118,0.243106848160812,0.074743226638963,-0.0138115307663373,-0.151673667489318,0.180629846660171,0.358914463999245,-0.158346813917352,0.214159894504076
0.122739448804838,0.118703758459924,0.160122664490508,0.105444275943193,0.243344592489116,0.0271190057197279,0.115279947877752,0.232792209048821,-0.245132602373131,-0.124976555710194,-0.010936371420479,0.536092854725889,0.315030529733812,0.015572036438473,0.0609800015638339,-0.125328729503545,0.074187519963248,-0.0683481291422532,0.224802770573189,-0.107737191820228,-0.0404402716613433,0.307502756441435,-0.0970918605602369,0.328236547117836
0.152772004977628,-0.101365829207371,-0.291342941956373,-0.0514273342817369,0.108613814896499,0.17434297919036,0.168298517866131,-0.386887242353422,0.31096519864491,-0.0896396132986645,-0.0259898730285916,0.340219900325929,0.332019156343713,-0.0268529629597045,0.03472175501869,-0.147972996271151,-0.0378469959382766,-0.156035972663868,0.279542449267472,0.270929822266314,0.195570660548372,0.3187182374477,0.12117364022919,0.366551912946268
0.0999885299140573,0.109664778818004,0.134798648501436,0.112596561048207,0.20434754136352,0.033462216529717,0.0593003259338563,0.223746017960619,0.312569224316065,-0.112981610469373,-0.0611494071283517,0.520666483599533,0.329019496349515,-0.0648305031727111,-0.161879909643838,-0.236397467841777,-0.00416312168092758,-0.121154277092207,0.30820724541988,0.0704975713473914,-0.152257592632553,0.24226858654639,-0.0424522576283329,0.335727110120036
0.116851288037824,0.120839968809994,0.145731750075338,0.129661861439557,0.235673588843682,0.0182552386950965,0.0906234408864811,0.237508116714904,0.269525923685722,-0.0964820543410403,-0.0445716754249586,0.532982699473052,0.297993457542213,0.0072357175993152,-0.116624404205055,-0.168793108296754,0.0294082895359879,-0.103016441100282,0.25288207630851,-0.0755927112144495,-0.0822219523522516,0.279195508467595,-0.0485733901386252,0.314250551266879
0.100613481497293,0.00579503542813342,-0.166092304773511,0.0292273757401207,0.172403618458036,0.10851041342391,0.117118825730681,0.327492912328262,0.328274902455377,-0.0473426771433499,0.0195839845546612,0.449295639620197,0.348633151987204,-0.0125968525145275,-0.0342017021844202,-0.208818475804432,-0.0323050191799519,-0.0847540534809404,0.294963486708579,0.168510478236303,0.185761271733538,0.289492267013809,0.0704274908630225,0.290713288134543
0.121106538153149,-0.0651717021836334,-0.207863428838595,-0.00294800048013082,0.1667801610832,0.0962820203188436,0.1267557026217,-0.357395578253271,0.33864303679887,-0.0323187432329831,0.0506437786121232,0.41263193629663,0.320392405907711,0.0379184915189511,0.0116106304752923,-0.1844416661064,0.0267721497154128,-0.0706086324131322,0.255283121490181,0.180344572732541,0.148155378954536,0.337663927728908,0.0681487206019147,0.285447917103809
0.102358307527533,0.134169574250131,0.117465662795279,0.128078263748818,0.227397733286351,0.022064709464837,0.0720623734862375,0.237415534313548,0.298940376633586,-0.0572606611018734,-0.038605561389865,0.532658777013627,0.296916315342853,-0.00918978885376272,-0.161600618392713,-0.206624980873253,-0.000557490212117349,-0.0982090245060685,0.281130528655112,-0.0493935409889468,-0.123869137883232,0.242772231310071,-0.0106021839226267,0.287495837792496
0.114694037608886,0.131907895840177,0.142617904430022,0.149677354397952,0.244624086432295,0.00728512862067385,0.0944672554820168,0.245973856133598,0.265539294801965,-0.0679835377305861,-0.0431011359805769,0.531388655326639,0.271852442811676,0.0352667623270278,-0.128771760805253,-0.162664448683001,0.0199652877207436,-0.108603846532093,0.240661375170041,-0.0603371432445524,-0.0758602298038226,0.277595375598167,-0.0227677801147631,0.286700487460664
0.0903384667812622,0.0267157466555445,-0.125587927737163,0.0207674813227953,0.193846075382784,0.0590452368012141,0.101575709770921,0.301638847358663,0.345531537420436,-0.00408371734040805,0.0628917035912501,0.463883539272641,0.312296439891368,0.0154644414922077,-0.058078316841713,-0.209219302841837,-0.0087064673361711,-0.0362016011907549,0.263829113206419,0.10465561170909,-0.146642669231121,0.297517206001373,0.0282978933839459,0.240467167567987
0.10663432215278,0.00357763907024823,-0.0941305226371588,-0.0159830635856138,0.201780527238413,-0.00334798772217365,0.0798285385526552,0.287625295169202,0.362025366603868,0.0238739840359474,0.109546273490947,0.455251383428302,0.263880569198086,0.039614905130918,-0.0493178950476896,-0.194553414291579,-0.0192323522586959,0.0307337839016913,0.235167497431561,-0.0562961491020232,-0.0957428879243787,0.302760954385955,-0.000626425674656091,0.188783430260666
0.0882670371489438,0.156226509404049,0.0765565728999604,0.115659691918178,0.236395775558912,0.0106208242837363,0.0754971398422614,0.232517659395767,0.314874581331479,0.00997890264902172,0.016440831278318,0.527530406417973,0.268140085363342,0.0224248697216349,-0.176592710472992,-0.200002661918176,0.00843259249415722,-0.0485754429503917,0.263410954563698,-0.00725465473398065,-0.115547156019349,0.230347248425774,0.0340099349866854,0.222840438918285
0.0813402992353635,0.147364881342878,-0.0437775601224852,0.0771539322878671,0.235099996469497,-0.00839932677962377,0.0775935550507177,0.224888027807724,0.334906838752595,0.0465273266304015,0.0752056402373952,0.506701654474598,0.242764222987256,0.0394317049548545,-0.163346025469187,-0.192739246424014,0.0313593426231182,-0.01025047704971,0.2427477408199,0.0234534433778313,-0.0965088348293408,0.235967106138489,0.0555604054558178,0.172657079000754
0.0826066241621504,0.0817773771813589,-0.0623007505225481,0.0325256386753985,0.215500282874221,-0.00158616594916501,0.0822075861012427,0.250084735353738,0.354870091884218,0.0348463969309589,0.0976414140099189,0.477915576840588,0.259508476361681,0.0343688962139261,-0.110305628843782,-0.201361935769579,0.0302056566797308,-0.0181969991567199,0.236798073151847,-0.0130718253057006,-0.10431207687856,0.274757121900347,-0.0289138861701614,0.180547761162234
-0.00798499771371168,-0.0872955958545107,0.306317650909313,-0.243775197439146,0.314907324827799,-0.204085902042569,-0.192219004483696,0.44911497519789,-0.108338394946154,-0.0826835069058333,0.116638767546244,0.363707742983906,0.280375687972036,-0.11006540480573,-0.237896097783997,-0.00948755577718434,0.0426199508414258,-0.0441136508642381,0.181095680142095,-0.490303468643529,-0.0756065610265857,0.279366841291927,-0.219829633950404,0.263985257030815
0.0248845685113659,-0.114819133782541,0.27237336041554,-0.189747657590018,0.29701365363855,-0.181149770401784,-0.218405605862368,0.390882475748425,-0.0717420152319975,-0.0523221873095594,0.157380967558066,0.381247458714909,0.26974078448346,-0.172781093359159,-0.239058042438021,0.0590206285107936,0.105203327922042,0.0218819978128088,0.0890891089105946,-0.421885782889131,0.0355808980639049,0.314145058659689,-0.22303236663568,0.224076937355365
0.0675732140647231,-0.129904509844463,0.212104260022173,0.139107688050818,0.274421605621133,-0.148860489833529,-0.228934738284323,0.31294061308696,-0.035035140212794,-0.00847379797794199,0.165556188548518,0.391799168871211,0.259642609326443,-0.214953966599057,-0.235635048388949,0.123589418808477,0.176207989653268,0.0745240228507727,0.0111393046158309,-0.328493255522245,0.131554521825949,0.335052557168844,-0.214881654986279,0.201149838711633
0.112594621321127,-0.128899349435236,0.141442899522175,0.096933682316141,0.257725798177251,0.0986964759117619,-0.217919947741581,0.22602320291602,-0.0119555162847992,0.0274788762115837,0.146393477958271,0.402548439318787,0.241991166469015,-0.243004663981377,-0.217264082511323,0.174460685974801,0.242623924606582,0.0997858672035589,-0.0421921330430035,-0.22354782642555,0.193442363067261,0.350509400347326,-0.190882219788894,0.187009867254872
0.140145384252349,0.121254525906082,0.107670474069739,0.0874142595248443,0.243307700094411,0.0779455290021017,-0.206939437345234,0.188135090937383,-0.010135810501784,0.0615371908602444,0.115890144300714,0.402510633746785,0.240338977750701,-0.241268498926818,-0.199432526275991,0.18527427404507,0.269031929734995,0.0947227284684956,-0.0519067803531382,-0.171415186050343,0.204846016968059,0.354721505627592,-0.168645911697238,0.197609447966213
0.14097299210118,0.123682051246386,0.141373633577961,0.110984958620289,0.263174375894713,0.0323279171431826,-0.161871324325567,0.220804222895873,-0.140764091802698,-0.1020558139931,0.0321138756064598,0.498187718548414,0.275794365865361,-0.134343859364181,-0.053478853046702,0.0204307491329314,0.167767913860846,-0.00986129218992782,0.0978843824300019,-0.124422019460546,0.07722530603133,0.354424993824714,-0.119199993920366,0.275131141177887
0.149194360204756,0.119380399231907,0.116632626594396,0.101058033904411,0.250653801385771,0.0579234596728546,-0.19360338428766,0.197097077215599,-0.0543381761483399,0.0888476545007041,0.0791804072014893,0.432057377720893,0.253899908347293,-0.209098114616808,-0.150776530283215,0.13459507069257,0.246537225083934,0.05531240889666,-0.00432415172437866,-0.146449147963393,0.162449728762869,0.364076746792459,-0.146073918667172,0.228685197301405
0.136805436224926,0.123317856482643,0.156805766149144,0.140940351279241,0.260634329319822,0.0210892074338656,0.143343937884859,0.243661731707922,0.18519813989846,-0.101808981781904,-0.00510425534849089,0.50663902378146,0.274871663863896,0.10532388371879,0.00903460053045977,-0.0463141289218633,0.113491314618042,-0.0582027904646865,0.149440696611456,-0.107660220465532,0.0198518118651563,0.338749119119313,-0.0839657692174468,0.284290971697409
0.149050679333414,0.119054892971805,0.136575332433861,0.125628976875411,0.258994126657277,0.0393352142098865,-0.177284302166214,0.220401193196589,-0.102464153732637,-0.101176587272315,0.0385737225469784,0.459011973015744,0.259926905331143,-0.176181481471849,-0.0923378275577593,0.0687696181889778,0.199066791586654,0.0038074553436233,0.0522468915618303,-0.130331937659246,0.107594081363261,0.364619037617428,-0.118343595033386,0.2515626756225
0.125753812613651,0.131533829542855,0.159544141343282,0.162563650383004,0.258138919962136,0.00503120930552251,0.120196136831893,0.257422118207109,0.228491837031759,-0.078064416662793,-0.0314139019115869,0.519779164455008,0.26068095774762,0.0788568139747442,0.081997452170825,-0.111737328277828,0.0514303484443765,-0.0974517399173919,0.197664499199944,-0.0797518660216164,-0.0325793558108032,0.30809672756382,-0.0399408700543411,0.276260163503802
0.10896566437612,0.164934330507773,0.113275448984549,0.159024417900679,0.259358868248476,-0.0114416040486125,0.0948363531308491,0.250085963166277,0.278287065868172,-0.00181817821405727,7.99592092108193e-05,-0.535321338645884,0.238639144469018,0.0715549672552686,-0.163680031224432,-0.157359319748639,0.0156820241316207,-0.0715250204504815,0.229622813617591,-0.0158602652468614,-0.0719268850368975,0.253072587747622,0.0320746810852082,0.218163837432393
0.117640184238555,0.145321635643876,0.14549726835113,0.167943603063709,0.25718591288956,-0.00236682273333126,0.10617713986427,0.25919593968996,0.254535269344455,-0.0472266620440249,-0.0286452380105041,-0.528694737564637,0.25194604242324,0.0692856577159212,-0.127176749320145,-0.143013873523388,0.0230578106420767,-0.0995045978464323,0.220845700513234,-0.0540026519301075,-0.0597073467360263,0.280661254105037,-0.00638617748156997,0.256091205453151
0.103053913639755,0.184282477427147,0.0729448688306618,0.14187607296026,0.265778257797686,-0.0334772783913514,0.0897375750760157,0.231509546212542,0.293093996293715,0.0481638707898899,0.0468824953913209,-0.530940644047672,0.204368501095918,0.0917640581881647,-0.186480526271009,-0.149611505751033,0.0293236708555411,0.0233731534421602,0.21599973542491,0.0358076178195804,-0.0574412578398933,0.233671172719749,0.074529748041093,0.161883664913041
-0.0452025329801959,-0.0649490835076092,0.32021348616309,-0.243157761113548,0.230028735965458,0.309638477468847,-0.192684806351072,0.455261923415361,-0.0795117693615965,0.0458387963160844,0.0839635077581177,0.305020915609227,0.332279036758683,-0.0845233330475107,-0.281105866088529,0.0401017534920691,-0.00307490862512601,-0.0563080355317012,0.153066179010728,-0.543538211515849,-0.0592921018246999,0.252099294270906,-0.284416558699566,0.29145557826423
0.0245407108996277,-0.0873511026047698,0.271989023090161,-0.192211497397038,0.220953712932393,0.253469745444291,-0.22525710774551,0.371681505195357,-0.0572214752358163,-0.00339580774899787,0.128223110426317,0.324301100286577,0.315995337845424,-0.171106336055881,-0.270995317868157,0.0573807448984217,0.120620967069413,0.0222587432605779,0.0542241053107093,-0.440276487162843,0.0578483969633532,0.312439763099966,-0.270725549195432,0.257196696334666
0.0946365847362372,-0.109089012740266,0.18673277300909,0.135877539702665,0.222966271642621,0.176051690360169,-0.234580520369145,0.273783397963368,-0.0170939332977193,0.0434903507101781,0.145142698023134,0.343093838351951,0.280605010938899,-0.227938096824104,-0.252743078179304,0.150610629618688,0.226996721698578,0.0876259717105542,-0.0301992833704434,-0.302308320769977,0.163320002706921,0.340358396389819,-0.223379880272209,0.218948360211153
0.13381653083571,-0.113308501264494,0.130789724188197,0.106752799420193,0.220536438877138,0.126847696266924,-0.225686967527808,0.214544406711356,0.00191736894546014,0.0707684385041837,0.131941741387451,0.353305310144423,0.256777979675614,-0.245217941262584,-0.233865370390326,0.192904046341767,0.274848284024214,0.106998621995152,-0.0642285610603148,-0.21881003173677,0.205795993668272,0.346440298111284,-0.188022599721485,0.204358194061396
0.15204689387982,0.112354892704324,0.112390682500268,0.102379712997149,0.223059481997194,0.10031464056946,-0.216403423190558,0.196066368912076,-0.00614255391928738,0.0919427077119113,0.110261451097429,0.365211482926325,0.252552445066237,-0.239586624300877,-0.211250359504129,0.19118202038359,0.285868589394139,0.0983168289502167,-0.0589384432878969,-0.178286169272784,0.203404310700494,0.352885849195887,-0.166050106639957,0.210584233006762
0.153665264770801,0.112043779824696,0.156894175062878,0.144524465088313,0.241020729475843,0.0811260914833102,-0.21286400850775,0.244908423419243,-0.0634192745201617,-0.121300758437497,0.0749267925612713,0.380747712539931,0.271774739976829,-0.208588218391597,-0.157589021626156,0.114458086385923,0.241350737619803,0.0482299201068583,0.00489970345514618,-0.170153199146371,0.135018640115513,0.368182589947623,-0.142531979296706,0.233853640315851
0.155897472282933,0.110825558343053,0.126319721888786,0.118283110314484,0.22995815707774,0.0901431034861113,-0.214010433813867,0.211226688634405,-0.0303580043174291,0.109563870639879,0.0923995938189129,0.371336616139876,0.261157817209184,-0.225705070523598,-0.188687362859173,0.161568478209946,0.273780503555096,0.0771967405941374,-0.0330838932354314,-0.168876248103781,0.17542408408423,0.361832803040775,-0.154221924133154,0.223351071532514
0.147736510907153,0.119003852404898,0.168684808579639,0.161543471847945,0.260726899422619,0.0419879182345086,0.18639586598556,0.257372706459264,-0.116355493563759,-0.108493542046897,0.0350015719154718,0.43880112913865,0.26497429142931,0.179830717693724,-0.0807923753688918,0.0443352882593716,0.179061443432839,-0.0109755970566152,0.0645651112979693,-0.141421919920096,0.0823730133529735,0.366652370510192,-0.107892115962445,0.244606210870349
0.153769995277757,0.11309870696819,0.130204204583806,0.126979311210338,0.247682207773863,0.0586366947410501,-0.196550140536493,0.213690293482252,-0.0621046050811699,0.104103024615864,0.0636105022962073,0.411450050467522,0.255482034578371,-0.210730511694585,-0.144332034822711,0.122571132890851,0.242669511674474,0.0372951396008318,0.00237140748027864,-0.146108713838866,0.143364181932074,0.370024535674549,-0.133198741897628,0.230838535019142
0.137853618623207,0.129036632479621,0.179013424269592,0.177669105402601,0.268073521894261,0.0132139262399177,0.155189280875737,0.274613914358898,0.176630122034801,-0.0913297565223207,-0.00557333680772727,-0.485733601748112,0.255459384097059,0.135049327414966,0.0117433612036986,-0.0426557439263026,0.0984190834584614,-0.0682022352273667,0.137168435177715,-0.111308166007166,0.0186500778285655,0.340884339021497,-0.0651012275645552,0.254666229396369
0.128730562047423,0.159867580741966,0.161215953391073,0.197268192028921,0.276088697521709,-0.0198461169038695,0.121036900153653,0.284940385970145,0.230087723707201,-0.0247530536185981,-0.00824389639571449,-0.520774557716066,0.22556321705786,0.123544247469464,-0.117863351604467,-0.105891087260838,0.0275000722311199,-0.0829616454133813,0.186540769407225,-0.0529879043497261,-0.0321195418017598,0.284869839520846,0.0118647049825758,0.208843147432153
0.131815041367748,0.141921209593269,0.179376569675408,0.193718932534884,0.271330372135481,-0.00296518116105222,0.139452621086116,0.286448188489907,0.206417022610259,-0.0650598779152832,-0.0159806127576974,-0.502382336028769,0.241708750270773,0.123576720926539,0.0676119495963394,-0.0840018311567841,0.0537395257720306,-0.0882652457246254,0.168616237307472,-0.0877394739523171,-0.0136907937948858,0.315356654866043,-0.0288748565683748,0.238783030519639
0.12802256653566,0.180698510624266,0.124386563726427,0.184595103666506,0.284136611011611,-0.0451879054573171,0.0982087972128191,0.267899722147742,0.251001274738342,0.029658286936997,0.0207086074047267,-0.535239290775422,0.196160579536563,0.136211367817381,-0.165182912727136,-0.109663469313607,0.0208857497925574,-0.0504771751474191,0.190113892991956,0.00208054344417683,-0.0343897432347286,0.251738712729744,0.0627037972063525,0.15783320433667
0.0509999042749471,-0.0844616733189804,0.257881349757588,-0.180075222111569,0.184091832423634,0.258693921120928,-0.246439031680876,0.328395265904416,-0.0716003797589049,-0.0765377662997689,0.13583699559207,0.28871142484044,0.355855739301495,-0.17520875496239,-0.260360790051783,0.0564968152033389,0.187336307713052,0.0576110731221157,0.0204776436428576,-0.372460741549906,0.0883718565138212,0.340376005539471,-0.279615160153992,0.272115080975272
0.115251195950026,-0.0995568451001928,0.174384372321526,0.136871300491348,0.202000753531114,0.177394854731246,-0.239861256996509,0.252479311913493,-0.0207698658002691,0.0852623474420055,0.138333790071024,0.31548947773266,0.29461426270448,-0.22930307216621,-0.249728272186864,0.156793450359758,0.263734422548231,0.0973686709340644,-0.0449938575745752,-0.269874156197665,0.171772957383139,0.349390657533379,-0.217192094610258,0.229604818479959
0.101564722335562,0.0921159488549163,0.217705407941035,0.166137135998156,0.196616447062833,0.196541806840784,-0.251430017626321,0.284717318064555,-0.0659247819745734,-0.119442469627355,0.137033195179476,0.291668719777771,0.336791006286999,-0.198848470113666,-0.234505963603351,0.0936710206685118,0.249684851086042,0.0834868818801562,-0.00715289711374498,-0.28086517144264,0.12250553493383,0.360941985942424,-0.230918772792139,0.254929152602969
0.140638524554572,0.102884874095071,0.144096602637451,0.125082312404413,0.208695772857797,0.138651404517836,-0.232542680826808,0.223515462550011,-0.0154908656054483,0.102995662321635,0.125334967788298,0.326579841257497,0.278281442422502,-0.236437105234288,-0.230996175110934,0.175471255863882,0.287682687373277,0.101809430819377,-0.0557797449377474,-0.216271586946588,0.186915483191539,0.355398630661299,-0.187743811269344,0.221318303969541
0.136939057725009,0.102367291592732,0.184977161437615,0.156722829715401,0.22135720369589,0.129202750106545,-0.237130753246636,0.262171977003928,-0.0612365491394446,0.131233768674224,0.111391402989259,0.32791779586636,0.303813713235428,-0.210685527359824,-0.197569120029183,0.112773335647039,0.260081789056564,0.0755888543250196,-0.00951205147078965,-0.213076556230285,0.13489613544866,0.369495101203221,-0.179972942728762,0.23800473938305
0.153310751133251,0.105208277709639,0.127090177811304,0.118794466974383,0.215570577405487,0.11316404309311,-0.224190341677129,0.209025571407069,-0.0150026787722388,0.109723549876561,0.111250028579693,0.340227031454568,0.26650631129683,-0.236800141600032,-0.215539707314462,0.181168209380074,0.293063693922333,0.0967712620344126,-0.0553590655733382,-0.186175664216418,0.189848539313297,0.358080977633229,-0.168547054645424,0.218121828376179
0.142921369359281,0.112194303158466,0.217699651529877,0.188090942166927,0.249329118673594,0.08146863449863,0.220238164112876,0.305661712240118,0.107316210009497,-0.135972941952189,0.0714809986076937,0.371204957993928,0.298538185609242,0.187538798177483,-0.125304453608145,0.0440881275623146,0.192059910978196,0.0250495499561802,0.0512116891485563,-0.189754747758549,0.0781828023961358,0.369389616424367,-0.139616586747907,0.237517153145526
0.157141910511122,0.131051522020643,0.262856688242778,0.245038311863787,0.27650033509977,0.00163412426283741,0.1654208934803,0.379249071861406,0.155099245482181,-0.0917943442075787,0.00927902914323371,-0.433315778960899,0.26249320800098,0.176793717633301,0.00714615087684184,-0.0425131599190809,0.0473035973633424,-0.0439153249324774,0.126468407172969,-0.157236594876329,-0.00211167407426947,0.31635865515498,-0.0543895489504414,0.187009712775073
0.149697714915925,0.132038737713967,0.224917877700235,0.212251753613948,0.273341561546074,0.0204727668441607,0.175647841904304,0.333544116934335,0.156195799586978,-0.0993463468205666,0.0155387850991363,-0.44649186681733,0.265078387457912,0.164473982107955,-0.0132608189203157,-0.0278256773473339,0.0916444989894479,-0.0395426827905883,0.121224293839049,-0.145379107715138,0.0206593913029307,0.335722384419308,-0.071724737918541,0.221626607737194
0.159408053216069,0.155992794945128,0.210969634728426,0.227508341117256,0.288745282482534,-0.0323210360590613,0.119905990199287,0.340949917386431,0.186008445583787,-0.0287938570841102,-0.00536024547760096,-0.498959945680993,0.224336926238993,0.17360515522607,0.0895389475370001,-0.0592898924220833,0.0185463775823057,-0.0565622165266774,0.15587181639501,-0.0888239520250851,-0.0151832081418088,0.279038185042003,0.00593606269733449,0.165626117585257
0.139037786286318,0.148402595360197,0.197550384887251,0.217073783119027,0.279994756889646,-0.0118167486777487,0.145712673579709,0.31171264886314,0.192400009800844,-0.0536176147908634,-0.00563216619685893,-0.491804535008344,0.231823728781715,0.153715486073885,0.0645196861025299,-0.0677810493185949,0.0469838017705935,-0.0792465799517007,0.15192369097792,-0.0940058156491376,-0.00646935158802004,0.312198573184667,-0.0179959856377124,0.207319030802057
-0.0516680418203606,0.0683888591006892,0.341871359673127,-0.205096765105351,0.134464383535425,0.358481518820252,-0.235794060289373,0.388085298454815,0.141644088693313,-0.0956161206750984,0.114993453026634,0.234671388947901,0.44078183034673,-0.0604241760874773,-0.239553612761329,0.115840075081232,0.0643207432826801,0.00497150810784482,0.110743259073226,-0.449282690686477,-0.0303732739157882,0.302907076663262,-0.35780588650704,0.319953139092602
0.0213268367409787,0.0814218146184302,0.312862020384513,-0.200944892959948,0.169506341936692,0.280638938694147,-0.260581175348743,0.356693440709731,0.137926005848253,-0.138479265803677,0.140993684478608,0.244739896645236,0.417153339413812,-0.109951212523414,-0.220666493802449,-0.0541811677679118,0.156479106899152,0.0484486497475495,0.0784295837217999,-0.361858216451058,0.0166647785627945,0.342951294934222,-0.296856790962869,0.299540372214578
0.0747975639286819,0.0906385373045065,0.287155460042155,-0.198623737827502,0.199398938042128,0.205701185940038,-0.262973922087004,0.339545583698711,0.132156035269608,-0.164850473188142,0.137970804784513,0.264591097463731,0.389030176981949,-0.138247412579959,-0.194074079178743,-0.0180171612739975,0.197536663593523,0.0651726513586623,0.0638663733646335,-0.289721772813827,0.0412028481251344,0.361902487281518,-0.241417191616214,0.276307503547368
0.105783346461077,0.0954108173122084,0.282467609937109,0.216179167854098,0.226605370612652,0.135689470374334,-0.250793474538482,0.343975704989298,0.138049431913089,-0.16646387771501,0.113179822973451,0.294227523355416,0.35970188290016,0.159028987954335,-0.153374419350588,-0.0136401097281035,0.188405581732502,0.045727481362144,0.0678550024882397,-0.241783981875339,0.0358483075421118,0.372515458340594,-0.190247243907698,0.249792457423765
0.134569810362224,0.101913490742588,0.33696277572795,0.269998644859525,0.253882015240991,0.0376075956294126,0.194289408830271,0.423498450062343,0.163167176049026,-0.145635056470697,0.0381369469694381,-0.349803960496628,0.331489019068068,0.155623898406894,-0.0426141996140034,-0.0804744091725261,0.0478415693606685,-0.0173411860020743,0.125949380097614,-0.22032836448442,0.0354004802571616,0.332334154877229,-0.112976186023864,0.196061292268019
0.125607358831453,0.10443812477967,0.302553163545603,0.241937737387157,0.250284740819838,0.0737916040314084,0.222128827714358,0.382312563418622,0.154754568581653,-0.155905863643815,0.0678182097487618,-0.33998652972895,0.335408880572749,0.15731610113473,-0.0866526078741508,-0.0481448688429915,0.116396647118696,0.00421900637604642,0.103636228917706,-0.217961458684205,0.00119487959159533,0.357904517892985,-0.139444965040362,0.225404768731198
0.158644475652449,0.120341849576343,0.301531208581223,0.267437507066206,0.27029227706611,-0.00610302257616136,0.151028332335479,0.411971740670263,0.156863435965509,-0.0937071085784356,0.00181984502823242,-0.416046501857399,0.282018124175425,0.177721882129441,0.0164288298784201,-0.0617289833974229,0.0120159399678299,-0.042227373458821,0.132120942283391,-0.178211537110879,0.0288325312311879,0.302174816286294,-0.0566101000928236,0.168907573076362
0.147899788411338,0.11653163927358,0.292446846800589,0.25161235245933,0.266170181303349,0.0262068148502608,0.189019818673451,0.39597540313638,0.15043711061145,-0.124662840326619,0.0277335266946337,-0.389026308393397,0.293217886285733,0.170504494697178,-0.0332286726160328,-0.0467775546541139,0.0648287965833121,-0.0281240153783331,0.116665544351877,-0.190981728451114,-0.0049726840193849,0.333671624237907,-0.0894549652394147,0.198449370986791
-0.0147226624622191,0.0701560073407619,0.377043142265345,-0.237765220796132,0.156737019349643,0.217699494629942,-0.248088147275068,0.35564792573554,0.246899032704525,-0.19576362735092,0.128601174227077,0.209216990097619,0.476338572152,0.0154138563201564,-0.111240945566466,-0.231738122278529,0.0763569677270036,0.0197065500087103,0.181356673444379,-0.300830458325099,-0.109690190629537,0.317474362815735,-0.287953801247424,0.281407734130962
-0.0151553105521457,0.0740640715642413,0.357454921497466,-0.222467916065562,0.154043035429112,0.268805493221575,-0.256947545140027,0.360082836561935,0.209325673513794,-0.17283002315564,0.137209622967308,0.212705180033706,0.463445647686174,0.0438870808485147,-0.160706099462279,-0.174576918008641,0.106118526576284,0.0288516164253794,0.144527862777014,-0.336717663404602,-0.0660877178096487,0.327627675882959,-0.30855259348925,0.300395212684769
0.0329150075638586,0.0736239987535408,0.381418442918534,0.251483508476929,0.189615109666427,0.149233962072318,0.238790915316405,0.38238685494552,0.238974128170494,-0.204806049173867,0.109681275482697,0.236432654714421,0.451176945947824,0.0433230715678496,-0.089261830638724,-0.205418093723914,0.0737969483583026,0.0217876001814135,0.178996777774424,-0.273053694891193,-0.105110213990528,0.329994141274309,-0.235260883515274,0.257709251704714
0.046664434258082,0.0810086844320615,0.346696756429279,-0.230465084349226,0.195738556550402,0.188502099602517,-0.259509332259127,0.372842440639387,0.196226197985744,-0.192799387443222,0.132802293419635,0.236173647564434,0.428107200758355,0.08274150323623,-0.142975384326164,-0.128043031589434,0.136092630196951,0.0435746974555001,0.129789614957047,-0.285399877509567,-0.0429305434314753,0.349991202131022,-0.244129609757032,0.273297807413483
0.0977269988978706,0.086137990410062,0.371671173062481,0.264015206677596,0.228679351366556,0.074612250442017,0.207086084390179,0.4223172749884,0.202734629063239,-0.183576327124482,0.0613424254194112,-0.300908496804879,0.3975032202287,0.0973216717592453,-0.0583970655187237,-0.14729150400199,0.0479625102200393,0.00767103423761546,0.162826266429489,-0.249378886630366,0.0807972362556225,0.330053826996557,-0.167962525454604,0.223302448751355
0.0853192792812521,0.0870797253760936,0.345327405897785,0.24104472081736,0.22214622331382,0.128768334520562,0.244563024730785,0.39446117722109,0.186329491235642,-0.192934683485711,0.106272754377679,0.269374761817055,0.398826295328959,0.104757176921134,-0.114875876775093,-0.109489576924035,0.119200713439143,0.0339601818217759,0.130626155797636,-0.258433165825857,-0.0391594929094493,0.351894202998651,-0.197999467424204,0.249472323930403
0.133737642044717,0.0975751524207735,0.361710478598776,0.285536634154195,0.248712133109831,0.00935297760616174,0.154710609474761,0.439031489229411,0.176216797327549,-0.12706911782824,0.00600488704625934,-0.363760836710245,0.341744112136694,0.149359720242507,0.00216215836424761,-0.11398924735355,-0.012314050127236,-0.0308550508038219,0.147484391612526,-0.220839851458358,0.0755165610700836,0.306861535514889,-0.0974788929909748,0.173582238034978
0.0278222641865168,0.0725564328735622,0.395979580455062,0.263991240322109,0.179575864458876,0.0859324606227541,0.19476520030172,0.366282064564992,0.275672826653488,-0.19985695175983,0.0546131910626997,0.26861127405681,-0.46507051449593,0.0144293195315914,-0.0173441415718751,-0.266383734766092,0.00437821795242532,-0.0038434348962747,0.224230944706885,-0.2476169606939,-0.162878316852439,0.308385173176934,-0.21141793521511,0.234940029169475
