-0.111813772318794,0.413367658803793,-0.0389215460574294,-0.130561264721351,0.418433466116118,0.337403489359262,-0.135338787113887,0.102071652200405,-0.142169929324848,0.270546033557932,0.184386295491931,0.182671338154841,0.0252937420790078,0.0821492957580885,-0.150090502841763,0.0945444273110821,-0.297565108586077,0.140329926877468,0.538135171055333,-0.202947593287697,0.345824576065682,0.202327685575878,0.195143351776208,0.325275938399888
-0.130749152863158,0.416536002406046,-0.0176162040989386,-0.0934489935695202,0.430502488368058,0.352226577945606,-0.0902834933398891,0.0991782320261178,0.159999484753923,0.258006995634108,0.191710292314356,0.202976250883201,0.046171731736345,0.0622317632054207,-0.151697685931834,0.0600100939726251,-0.268102329927251,0.126550660260006,0.579664914373546,-0.194051164587399,0.349433089034999,0.181028683941874,0.243957449015253,0.329732777881511
-0.125603945118303,0.390254765052664,-0.0261560857919762,-0.166936329745043,0.394535178063957,0.336819041585615,-0.0886383814395155,0.0187059884453296,0.197670801399856,0.160682259029152,0.17301674035482,0.187837034057599,0.0378560176864282,0.131240137935714,-0.14472685243565,0.0397399833573351,-0.241893772167889,0.0719505579656491,0.512073896245192,-0.17575995604995,0.321044128467326,0.299600803948433,0.203611485367865,0.324342830358198
-0.133568407941748,0.40731201146365,-0.0142526703107917,-0.124467120160808,0.415257681881118,0.351651822207906,-0.0767912306358373,0.0532345370492473,0.192063904083234,0.192924735851391,0.183095161615452,0.204757303442957,0.0470457933197038,0.0964891861060855,-0.148426929464031,0.0353600663945834,-0.240655810602512,0.086299562586654,0.555181974538075,-0.184614407835076,0.329178070164943,0.247337379969028,0.239674279493066,0.330201398910935
-0.345496089646395,0.30870055742936,-0.0869574632435949,-0.245119920618303,0.335359104042404,-0.0927585592090918,0.157598198718859,-0.271082481718307,0.393642289604568,-0.159561244539999,0.0876815447774505,-0.339952244850949,0.0272248825490277,0.0548237214816948,-0.067436332888233,-0.104444668996569,-0.120454074604742,-0.112996318078525,0.332269691231492,0.149837223547354,0.183350695418096,0.247321513852109,0.216323648070083,0.389965875525807
-0.440379498627758,0.322856498401326,-0.0951598340030179,-0.223031350020916,0.379133789014584,-0.167093281472543,0.13544534118198,-0.279953049341844,0.448457152020104,-0.10288735035426,0.115166112822965,-0.309698445195766,-0.0230767578430109,0.0820140974581771,-0.0681292987749133,-0.00177899447816394,-0.110672819039472,-0.11575852415316,0.304653192970436,0.0938574506076575,0.119044612594435,0.286405656710756,0.226577608755968,0.393914563260427
-0.495387818653612,0.295496676698638,-0.103207294644605,-0.236533398195829,0.385197436029288,-0.209045069892207,0.132880602490089,-0.238918340727101,-0.500740355316627,1.34631552125009e-05,0.087653888780527,-0.230124074638461,-0.0345177699435857,0.0967694463413361,-0.0402420936047413,0.131822167344674,-0.124397662467254,-0.0844145209297869,0.215110558156281,0.0137916532024235,0.0350522796288917,0.320718687967541,0.181387170471102,0.374557390904905
-0.283559919980926,0.283766554314026,-0.0815860965406822,-0.270343412543671,0.305812531238908,-0.0389368399196094,0.175599888200007,-0.25428727640475,0.36492744978641,-0.17402130449332,0.0545987887561028,-0.33870785055939,0.0653083711309266,0.0348052380751719,-0.0607839642430824,-0.150415251972732,-0.132107095342044,0.0991862189467602,0.327190983398794,0.179792768862697,0.215060422899301,0.223926741677568,0.196870954504563,0.382197031887124
-0.176857392718076,0.217982721953126,0.0717473796469326,-0.323831843792161,0.247712781269058,0.0463537553751204,0.190369308197079,-0.206337392033767,0.32696919297185,-0.171173229410654,-0.0187596907083247,-0.30377465382831,0.134842333053544,0.00467474051485418,-0.0312399370975418,-0.203770461040901,-0.163667286534639,0.0628304027151886,0.292919339186094,0.205713628993781,0.251090226795906,0.181292633504492,-0.153186208503163,0.372343777746345
-0.0917362002123469,0.143717098963979,0.0718117747650554,-0.364670124823936,0.1973172044167,-0.117912467085925,0.193949153568547,-0.17445731570964,0.289494727970502,-0.153794710779052,-0.0713580230860389,-0.255248951485526,-0.173351260870616,0.0259655105533513,-0.0215647941903554,-0.233864819853023,-0.189316761246154,0.0344124965659808,0.237056543687295,0.241974967381217,0.284577191502938,0.147571766162117,-0.106785252085381,0.354461683439735
-0.353611992778925,0.296060512331065,-0.0672593636582589,-0.274832829101257,0.350604541223096,-0.0782195272045268,0.169752940352641,-0.308639139167767,0.406181092112839,-0.168183816170305,0.0800078842161534,-0.33842899196122,0.0275063350237779,0.0700545282404058,-0.0745392326741641,-0.0907156060792933,-0.0915173464908435,-0.0987149725867535,0.307506110637039,0.172941650787799,0.181981984811567,0.263542048033544,0.209424762087922,0.37262700598011
-0.254293728301375,0.251080456765312,0.0597513366703434,-0.316189709292383,0.300033902907677,0.00537818220347903,0.183187591762003,-0.290269125827041,0.358434534090374,-0.189162806486366,0.0402407423208224,-0.326912566742826,0.0800663003486075,0.0474760396540185,-0.0644459745872346,-0.15879119792773,-0.107571398501389,0.0814833559126483,0.295545288850231,0.216051719772546,0.233982316265315,0.229568564974213,-0.179963638320749,0.364068086479652
-0.186106167293341,0.198878505621562,0.0538494002920996,-0.346841235934002,0.261250898093255,-0.0532586365113772,0.183319473818477,-0.258671622919169,0.328494817172643,-0.172602934546994,0.00313303285701223,-0.290627417884346,0.111903999116482,0.0255547534330752,-0.0546753242866271,-0.188606287724627,-0.136851040577778,0.0615815632429026,0.263852395119157,0.243570881573569,0.272084319151385,0.198168708940952,-0.149566518121027,0.360096525343335
-0.0798428542981761,0.105428231858098,0.0580078428540009,-0.380512263401645,0.188447559466455,-0.138332912432411,0.17123344930979,-0.181548202281702,0.284476324099203,-0.1288219521094,-0.0697310744766892,-0.213709442956419,-0.156885360787993,0.0190561065881286,-0.0303302737549497,-0.222329491108087,-0.195036777881256,0.0196854582870903,0.196530324033724,0.265121213209571,0.307638419098636,0.143818015066473,-0.0938194838936375,0.35368531824137
-0.311111206500838,0.265155502195198,-0.0234666865098601,-0.316493971018884,0.343323923560126,0.0324283781569538,0.163515021773279,-0.346448093063859,0.386048310140633,-0.190876339858848,0.0733210074497502,-0.324897353291505,0.0433133324356651,0.0760502848208343,-0.0743563776217071,-0.116401747592194,-0.066399698550677,0.0830591720346627,0.295616077546498,0.21282082889977,0.219823725323471,0.257118857808581,-0.204406168614525,0.361767038445499
-0.239078198048726,0.218017607358709,0.0219808604883637,-0.343773750431334,0.300020247139881,-0.024465996877682,0.164590184371239,-0.311578234408564,0.350710927062635,-0.175807147288448,0.0441751104591858,-0.293014724376197,0.0735815793862966,0.0553809284933835,-0.0678792136310496,-0.152711117535717,-0.102953292573695,0.0686280405845778,0.269711688990243,0.2429579428685,0.26831672406329,0.225651138539076,-0.173555720601715,0.36162409739792
-0.178019488796251,0.167214844475234,0.0209480519027053,-0.363904874192411,0.256491338745012,-0.0757700679443414,0.156160605399642,-0.263445872292285,0.324781581767103,-0.143132993361528,0.0107450627275206,-0.244857794276434,-0.0946306809876418,0.0302068364696429,-0.057042633606658,-0.170828829788917,-0.146557401108678,0.0456442861132556,0.232401901040096,0.258417564629566,0.303178537984025,0.195303278531246,-0.13999090389137,0.365089459291037
-0.108515718632206,0.0991363461181824,0.0119397491238433,-0.373397328063649,0.20516613873614,-0.139792536858895,0.129080025828658,-0.193099694892358,0.290659619326414,-0.0793271709421699,-0.023373868225238,-0.160995896391884,-0.103581341590772,0.00700052306681056,-0.0455376538538362,-0.17579880787734,-0.201753636001965,0.0100341287888692,0.176378145408276,0.271635639076988,0.339598245851965,0.151150856791104,-0.103858743625291,0.37640532379336
-0.277910200897209,0.224964927713372,-0.0299667387766391,-0.342385693962978,0.328357207650174,-0.0201790367451028,0.132218369793451,-0.330963764773028,0.368304292843735,-0.152650436115409,0.0701266434057747,-0.260740433364327,0.0422934984993789,0.0653303245930337,-0.0624742553333032,-0.108630919432232,-0.099810556631342,0.0634250852935272,0.271825601826069,0.224202980196219,0.272244368263009,0.243330325615434,-0.188122634302574,0.377809901138122
-0.192911552800671,0.157590360036135,-0.0292163811088642,-0.361129636065563,0.262965092750225,-0.0860894980885358,0.116856690056693,-0.257242509125068,0.327362961402021,-0.0978373297392633,0.0371005823711743,-0.190125281770493,-0.0598348066388605,-0.0305288642266825,-0.0540664330894005,-0.130833512278608,-0.164808530282516,0.0298983562312942,0.218171983629153,0.248842490099666,0.330831450465484,0.199076603862605,-0.141593129590045,0.385374297698542
-0.14908846573283,0.120724965530217,-0.0281322283814094,-0.360903315749183,0.228430141080697,-0.121253767269971,0.105465404836884,-0.209515461955254,0.302885980425243,-0.0565033438733203,0.0214485988320552,-0.143808561969777,-0.0641589769792108,-0.00770598691208897,-0.0514677546973451,-0.134959237762358,-0.199633809545523,0.0117136015440251,0.184755058129064,0.258363848174915,0.354605141030352,0.169346912885901,-0.119268557258794,0.390522364330692
-0.371500787873327,0.278739809089898,0.0429596367804113,-0.31567019078347,0.391077409130189,0.047747988178988,0.131008486896112,-0.388814599195266,0.415733696659282,-0.175733023299105,0.0997448242713241,-0.298886238147078,0.00940011328922108,0.0952819331680961,-0.0674630769837885,-0.0552423898910343,-0.0354912881846456,0.080704087046527,0.299829821774631,0.183316537190147,0.198791318880933,0.282799434773194,-0.228569911728972,0.365982493287847
-0.114409362803934,0.0971761951054343,-0.0370264955274503,-0.360816574643332,0.204212811462735,-0.14899868822511,0.0866721244337218,-0.172230437203785,0.285263694429512,-0.0227304133225336,0.0103768122771714,-0.0949538661699357,-0.0649730339450757,0.014210327773604,-0.0419110703018818,-0.130898241888898,-0.221980322426831,-0.0117285209156557,0.164206969932291,0.25275625034878,0.362993606101628,0.151900652687751,-0.107076680974249,0.407167130998563
-0.0837673849557406,-0.0904879589090827,-0.0813573140733808,-0.352211772963608,0.187142447262108,-0.176888220176161,0.0416118451692335,-0.131159263555504,0.261936468702197,0.0315914466642686,0.0243390707801691,-0.0105138335313907,-0.0473841308458595,0.0423388799623008,-0.0213215175702449,-0.0979970077234612,-0.241083926889878,-0.0478482124920685,0.155669987330189,0.22051646829597,0.367416871133732,0.144165154469454,-0.107861968072865,0.455144122463184
-0.258574903142765,0.19758142477306,0.0964688950384318,-0.34477036299648,0.3106108105969,-0.065696300147543,0.0804549057382216,-0.289920729285289,0.349051946899589,-0.0876778929867279,0.0827043569003918,-0.168273280438082,-0.0191495755485672,0.0465878964439771,-0.0403611239496208,-0.0718168943492267,-0.153827864585837,0.0367911054821248,0.252506114409834,0.204481174150365,0.319985109860126,0.23737370134798,-0.169616132339269,0.411568153335859
-0.178762979225666,0.143396234682205,-0.0762621339008672,-0.348131175444136,0.24849366896913,-0.115755428874615,0.0757418452750612,-0.212086799777928,0.3092114299528,-0.0307169207501683,0.0556604210340289,-0.111064020187073,-0.0339361596015536,-0.00860860764964257,-0.0413183146045304,-0.0932819277287833,-0.206020898076406,0.0061149170977311,0.202172433416874,0.228905974521147,0.360986019612141,0.187265794182547,-0.133896643019031,0.418653967161018
-0.133530204016801,0.114858888582679,-0.077043481424693,-0.346686908511062,0.214934936241696,-0.144684142313268,0.0605278393573945,-0.166364869177718,0.285805635668221,0.00773591806449692,0.0433067575561381,-0.0610867906444078,-0.0362585365259854,0.0156472490554243,-0.0360172460559661,-0.0936438837006056,-0.230009554141246,-0.0197640411876528,0.174177265108014,0.22863639013633,0.372869599473188,0.162736917490634,-0.117110960615387,0.431222200891883
-0.411127537383044,0.286499312058985,0.0916328410654595,-0.313346924215289,0.419011086017798,0.0507578378759832,0.110808393384243,-0.397765983747908,0.435160711812988,-0.150459705896674,0.107805599410091,-0.267244977507485,-0.00716349851742033,0.102923309479805,-0.0556468548808115,0.000407632263146228,-0.031892372171143,-0.0845981424885229,0.297683464245366,0.142567937532372,0.174615477727693,0.300488576556447,-0.232620192556269,0.368859239171202
-0.0250684413977229,-0.105412948175733,-0.170475631436831,-0.34159290130726,0.166507987956468,-0.206543355100577,-0.0397634628068646,-0.0994853310972564,0.202219500172606,0.0823760256589686,0.0719208663680691,0.115861744139233,-0.0206543074631104,0.0748071056667932,0.0183729353831892,-0.0420362345524194,-0.22543141114968,-0.0969068401978949,0.164661027222209,0.149593063760527,0.347874908167985,0.15463222836927,-0.125383954706697,0.547060359446319
-0.112135508523607,-0.133032719989052,-0.156939803481185,-0.327594311570036,0.206052891163711,-0.171743816367689,-0.00301918595652258,-0.130111570408125,0.247615530859692,0.0641960607754301,0.0877159159919178,0.0424694985934073,-0.004081264585896,0.0413444929903014,-0.00327187753459026,-0.034915400251202,-0.249492096065475,-0.0495104413537742,0.19088428030134,0.167312136678828,0.378169848129791,0.179347620724525,-0.122642267429389,0.501993985751929
-0.0551002202466753,-0.0982960564370417,-0.133037268025424,-0.343706444191864,0.176345497273135,-0.194996148729139,-0.0053868533545508,-0.106257947168738,0.233198032141189,0.0701267215480152,0.0502962897107248,0.0660801747211628,-0.0292681332919493,0.0641498433298559,0.00170415294867084,-0.0622590722928062,-0.240453737222718,-0.0790040048563383,0.159668809611383,0.179484327827193,0.360304667688369,0.147213460201544,-0.117363033807547,0.508546628021492
-0.288452732140657,0.212090288677571,0.168043984725447,-0.333088399878275,0.331064990305585,-0.0785813489692228,0.0344072423528349,-0.298944944526524,0.343630903070438,-0.0724934712301273,0.109862859259598,-0.115690194148106,0.00848887948468374,0.0543694976165489,-0.0128868170953303,-0.0196899183562886,-0.169420800415499,-0.0431677997304682,0.271721625322201,0.153387846026901,0.316070168757766,0.271922204899151,-0.169500581506432,0.436666915403872
-0.222218256179083,0.178533707136762,0.14715937236441,-0.331072131027975,0.279335316745939,-0.111819029710195,0.0348062024609754,-0.226096044106484,0.31161365136672,-0.0156542729976181,0.0979936766513886,-0.0723938007148024,3.81237933419903e-05,-0.01535805220666,-0.0171711811036394,-0.0374713781807579,-0.212696588812179,0.010796283266184,0.237455269299577,0.177053226313569,0.358525694665402,0.224830657390443,-0.148853609505816,0.452974701685373
-0.15364784350417,-0.138340097170066,-0.121822166028629,-0.33495533388231,0.229701800150303,-0.143623926887503,0.0338657388724814,-0.167321032007861,0.283154136534924,0.0249419506941427,0.0737967724002029,-0.0306045716489857,-0.013746749318201,0.0165981663225199,-0.0214691777279498,-0.0579335181201913,-0.236475915707629,-0.0222064532806856,0.19622529712565,0.196386391487401,0.37607901640665,0.183034704928569,-0.127245675576741,0.459700312976906
0.0212516288689251,-0.023030156636534,-0.203271973450143,-0.338474971568169,0.202851891632857,0.188804668371081,-0.143077670710128,-0.0688742530826323,-0.163398538822986,-0.00289835174056968,-0.0511461470735513,0.074585118676416,-0.0167142130723973,0.158568043654473,0.146409998912659,-0.0961619732956081,-0.242161519620566,-0.172920664947698,0.214979695094799,0.115546182888661,0.352429688635527,0.13354240630197,-0.117826155528958,0.543112754082782
0.0272021486029546,-0.0617901677882097,-0.213790580527265,-0.342835587037379,0.178070443453373,-0.20828675730172,-0.121041249853884,-0.0938547996079639,-0.14938852768382,0.025290953700079,0.0238503169841126,0.118068783198681,-0.0167544931940069,0.119513042462866,0.0942177194040506,-0.0694562452042677,-0.216144532384817,-0.137476911669126,0.196863939396389,0.119730436568428,0.343814728691728,0.157063156145191,-0.12835606129566,0.570755846346894
0.0192109799747009,-0.0972935163543429,-0.219511388881039,-0.339505375930633,0.163984915485246,-0.213570640259979,-0.098677586638618,-0.10693217442831,-0.145971324090707,0.0536548692714802,0.082395555590849,0.145396801443059,-0.00993624570600514,0.0891339234247186,0.0537633404274331,-0.0408369515230454,-0.201696393950362,-0.112032657080993,0.185763905133064,0.118979661303977,0.340340523956242,0.173570748597768,-0.132659898425192,0.582443296818289
-0.0350322241893106,-0.131901157937455,-0.219617436000804,-0.323653536443807,0.175079042507126,-0.204054282049625,-0.0687051981438298,-0.110755762681961,-0.170739304047669,0.0816620326462599,0.123596121867786,0.137406073661788,0.00849967558146947,0.0637365844538358,0.0223471091296344,-0.0101009168059743,-0.225196115330269,-0.0792281399739046,0.193364155133594,0.121921772052027,0.363104701612468,0.191826689436031,-0.127901432799332,0.570005241028928
-0.000740143170102112,-0.109947175897546,-0.200627467087395,-0.339642842984811,0.161027847762772,-0.211413900972793,-0.0692039157279487,-0.102725255606172,-0.171708841961014,0.0785219386944894,0.0902907579644365,0.144615384904414,-0.012730788553985,0.0789031727022723,0.0317748397421634,-0.0311363776571462,-0.208145095404361,-0.105423132720266,0.172408011731347,0.128250672079248,0.339420940801837,0.16570513709791,-0.131403450685722,0.572642771711034
-0.176840132189982,-0.1666255454946,0.234755335092805,-0.313488899456988,0.246975072270242,-0.172374780379337,-0.0424507037263831,-0.18308183194861,0.235663337002187,0.0253504140858418,0.132419284010204,0.0469163333100852,0.0283925418553884,0.00367345124972961,0.0242470860267125,0.0118702057159384,-0.264623651752298,0.0030693606314399,0.24278011105192,0.11767048103431,0.385411995341605,0.256991684329407,-0.114672950833802,0.510057159216888
-0.125502272364634,-0.154105780303272,-0.213730884556764,-0.312357533093148,0.215782504932821,-0.178748781033546,-0.0396252284035348,-0.13821128400848,0.221044327994852,0.0652948015363709,0.127145286313626,0.0759218378576303,0.0215852945578408,0.0345181169909659,0.0146149799317268,0.00149045797306369,-0.258748809251434,-0.0358565531266357,0.218950588456546,0.1293284024448,0.386840127692644,0.217271102284925,-0.120900392615705,0.528357109098148
-0.071863474369858,-0.133235442071937,-0.191824892972965,-0.323510768647755,0.187865728810386,-0.191474482296984,-0.0385112509489052,-0.111929260000763,0.208919578352368,0.0839484494393725,0.107232494396014,0.10120670275408,0.00413267909875324,0.0569772909169058,0.0115660047034199,-0.0166752903593105,-0.243030584322638,-0.069254065846012,0.190816489760082,0.14010770810968,0.371770111183907,0.183291558534385,-0.124343320580066,0.541525249243908
-0.23288214260083,-0.184216631278428,0.205357455434622,-0.324637598146841,0.285631563733485,-0.130842347116276,-0.00784654797142637,-0.234861717803221,0.292519327448901,-0.0178233145379477,0.117607029106579,-0.0267717300922936,0.0199219124335173,-0.0241558599427477,0.00937876475889952,-0.00321955631093722,-0.228616016596661,0.0182396500652333,0.254279326723818,0.134934780662296,0.359063353300429,0.263878750299249,-0.136507426589996,0.47266417737377
-0.175023147263149,-0.164061753906455,-0.184385700259262,-0.319069553541734,0.244633740236561,-0.149735519865924,-0.00522977939110844,-0.1718097136026,0.267466456031145,0.0364525431879939,0.111756185000276,0.0112676313996898,0.0134581566794975,0.0135537662712654,0.00218434294114868,-0.0128404906764754,-0.248458898816474,-0.0160878192750084,0.225909630307102,0.150050175292557,0.379488706753731,0.218089108965513,-0.130534950263489,0.492099698971578
0.060787583182771,0.0159392872407459,-0.213702505878344,0.312719203100404,0.251246079228312,0.162493906139911,-0.16874882207363,0.0115469543358445,-0.1130125743221,-0.0154979116576909,-0.126051071227705,0.0529665474103331,-0.0122203083554162,0.23353046117518,0.236560060874924,-0.0862476879104256,-0.278994567497726,-0.210028941581548,0.268349446511101,0.0608965949868452,0.355841769051237,0.0971721465248659,-0.0792387842380294,0.515398523346446
0.0511536506565703,-0.00526983907046354,-0.233558711082051,0.32205397330861,0.229710110533976,0.195360468191015,-0.170588131608653,-0.0355633231776335,-0.11048123622032,-0.00982188252606992,-0.0562680151307504,0.0856348558696855,-0.00721615394340589,0.189007878839075,0.179567939890715,-0.0836858101379604,-0.261178274660983,-0.16426034200079,0.253910496236002,0.0877638442824944,0.366176775011491,0.138872121816808,-0.0983850076521849,0.550745243017477
0.0442778850689571,-0.0467923958585166,-0.24683933527498,0.326884925822941,0.202026142072537,-0.215506687050465,-0.153606388977806,-0.0803428579282087,-0.101860144127902,0.00629700614130108,0.0264609267619127,0.119361269941468,-0.0020973526472117,0.137245226197355,0.116889029433442,-0.0664768087931858,-0.232700456979991,-0.121425429769323,0.234867213507242,0.104015959345217,0.366414239737687,0.174016042553096,-0.116429646076025,0.577988283794994
0.0332726571507628,-0.0878182046679908,-0.250009774710069,-0.327292351871736,0.177658035309354,-0.217696313592722,-0.131401075741478,-0.109334778972191,-0.103782149573147,0.0266782069478466,0.0910142530654856,0.143165080610529,0.00416666132983899,0.0959523402135561,0.0698184324984536,-0.0436949261573378,-0.206526069114599,-0.0979634167612355,0.215628704930909,0.108577764189432,0.358566851040308,0.195641439315836,-0.127578367345334,0.589849890341336
-0.00236276189215207,-0.120755711314966,-0.268054722568616,-0.313377431494607,0.177039000939211,-0.219507961336337,-0.119541448297959,-0.130098343463132,-0.0991621078254484,0.0381549896815398,0.150215495777418,0.150812376367625,0.0260120441422359,0.0593461539111655,0.0343712428080827,-0.014152398024663,-0.213389770547681,-0.0552002263157285,0.22108321880891,0.108198506204039,0.378086291472351,0.231523819827822,-0.122409862833392,0.58800079172917
0.0188202679994442,-0.113214816243312,-0.255559205194297,-0.322001827550271,0.169851734471301,-0.215697963319163,-0.119048351293497,-0.12189845864778,-0.104483358541929,0.0400939385618002,0.130006960866322,0.153661886707845,0.0132716423309644,0.0732304821131394,0.0449055165132435,-0.024742066213869,-0.198944489768266,-0.0807700023364828,0.211147149023291,0.107366651040251,0.359906281032255,0.210776793085839,-0.130175718300848,0.592608246101803
-0.0724701124939521,-0.131111528765096,-0.271575025763322,-0.309558932325729,0.198679153029414,-0.220564934872828,-0.101470552267818,-0.145925540750975,-0.134935151323359,0.0363927354617229,0.152544847593598,0.126258853162054,0.0359412300718011,0.0340003514828619,0.0311989140511738,0.00408501700101872,-0.259407476535321,-0.0157099533645761,0.230977358364988,0.110181545619875,0.403309617488386,0.257755035493211,-0.100752103488239,0.560808868513047
-0.0370852560542251,-0.134742551560078,-0.256182428970308,-0.312636834162407,0.182424062564757,-0.211981905015989,-0.0968811388734613,-0.127229286543764,-0.133891497108353,0.0579757428141724,0.151001389980582,0.142423833929877,0.0271853422740526,0.0523186122583186,0.0267680295769147,-0.00154940751003985,-0.230333470181647,-0.0521716848850563,0.216809156941943,0.110565665825256,0.382180598469553,0.228064511230254,-0.12026192535214,0.577650411213143
-0.00409831160625919,-0.124812861762874,-0.239915185068024,-0.324435793717032,0.168701230725535,-0.211262638462277,-0.0953706249494506,-0.117000666666978,-0.135758832174468,0.0636459197373611,0.130607493330155,0.15252350606689,0.0106203308382673,0.0677852908406919,0.0331284141956105,-0.0148190761448862,-0.20772057623329,-0.0827316597335959,0.199465644358613,0.112187180392275,0.357945324155146,0.201352809164714,-0.13048706416548,0.586082794900811
-0.158211608030761,-0.141866000795627,0.271577971081099,-0.322502345777498,0.238340297060815,-0.211847341930849,-0.0779891977376234,-0.202439974071217,0.191084448918825,-0.00636954264405101,0.132937320043243,0.0760693125498294,0.0302436920237013,-0.0115676859833508,0.0435451597437846,0.0146291542737188,-0.28375318348036,0.0332492880756051,0.242979903258511,0.10405947645053,0.395201937013961,0.29518654911389,-0.0816976234746747,0.514983511085055
-0.122553379573213,-0.148753945739532,-0.255409391005549,-0.309792060839846,0.217463075799957,-0.201010436207721,-0.0733518407134337,-0.156022601015394,0.183471460622598,0.0405121302038956,0.144201485218096,0.0963718406154409,0.0337596898626712,0.0217390800200561,0.0296201111815725,0.0127342107907806,-0.270797344188874,-0.00920398307561929,0.234435952919705,0.110895696327482,0.398803510542085,0.256474950135366,-0.103173227755036,0.538655075547477
-0.0789033124778029,-0.145550028472838,-0.237916265667051,-0.311197632963899,0.195243513610061,-0.198925639545713,-0.0700575217741077,-0.126213803769342,0.175753047501206,0.0704916795940132,0.142009957679656,0.119102498817417,0.0259888829762696,0.046051130114988,0.0215623356390439,0.00502997397914517,-0.249111734449296,-0.047134720420376,0.21613820764801,0.116499202506477,0.386167714658093,0.221871416026722,-0.118720725926589,0.557844763640691
-0.217851426739391,-0.166041722458116,0.249708805135821,-0.329357257752971,0.275994855920277,-0.171379726821133,-0.0462665814104508,-0.24560972485815,0.253031547169383,-0.0343419064977928,0.121955608826855,0.017932297872049,0.0254161240390903,-0.0372644377905623,0.0334730036009798,0.0121548615893357,-0.254841571262816,0.0413447425039463,0.254192920839449,0.108774156775155,0.365563776090507,0.302152873361146,-0.103660633337385,0.483163258028168
-0.127697680722679,-0.454168773353921,-0.0202466035501974,-0.0101070713744451,0.254282399642526,0.157253680993767,0.156589535089194,0.271338585389771,0.161598386826858,-0.452676491415587,-0.216109395732457,-0.0568285297215944,0.00944978425069201,0.069499348314167,0.142730028557128,0.127720928667095,-0.461475785556926,0.177175055130112,0.391807152495932,-0.218947437877029,0.295792265583627,0.164092258929221,0.137056092532776,0.352609754406631
0.124242153477847,0.0744533639172258,-0.256069503756362,0.334507760075245,0.281152675046745,0.210222006963769,-0.183774758963208,0.0602981879348757,-0.0390231672623627,-0.00475798315103149,-0.153033450483751,0.117849579157223,0.0483409657440658,0.269864886889215,0.275088022832344,-0.0471183348378909,-0.286763933546213,-0.167205203084236,0.269830186924353,0.0125816865577186,0.321278240461921,0.0765798529317339,-0.04242120398815,0.532122634462308
0.0949222529428969,0.0437346618057872,-0.22684799965447,0.318367127145506,0.268210634645576,0.17425722976459,-0.174561196750191,0.0460650585988217,-0.0777776614132959,-0.0131236123450371,-0.14940634259491,0.0758074141335235,-0.0270100426816513,0.259315436774277,0.266267452320204,-0.0678858312510078,-0.285756409373089,-0.203241835306114,0.275353231240076,0.0308875756710739,0.33812953987883,0.0850279587746432,-0.0551182548357114,0.51585608063215
0.0921574269052263,0.0418833822813048,-0.260204152744141,0.323325088829053,0.261901601706466,0.21686120180799,-0.190886978460718,0.0119826843540955,-0.0594620443114834,-0.0101368657709088,-0.0942502751618718,0.111213783105496,-0.0231420004685986,0.231297048816414,0.224517984699077,-0.0656508110321917,-0.278870459586104,-0.149477257065641,0.272607038217183,0.0523171479166004,0.353070230656744,0.118641155773529,-0.0697239978156524,0.551245953179241
0.0759209731473059,0.00474226776318363,-0.283102606054959,0.319154642070866,0.239257518185569,-0.246842074249932,-0.188626932284371,-0.0476812467674365,-0.0410759157060045,-0.00946747743051709,-0.00257078003933399,0.134009956331211,-0.00647535812064234,0.171882733841686,0.150008215746877,-0.0637965819329748,-0.259242471656054,-0.0880399418732953,0.266022626259198,0.0855182252610726,0.376987877525282,0.169588008668178,-0.0925923063900225,0.579265539228929
0.0418414932238378,-0.0625956985917239,-0.281435188295585,0.31630310014707,0.199082000588493,-0.239950227211239,-0.160027707637369,-0.107321981953544,-0.0571054037079096,0.00288728781314072,0.0931932477867646,0.144705666529875,0.0142622178993807,0.10094765215811,0.0774170549529812,-0.0457845017708706,-0.227147062395697,-0.0598013684009444,0.242436116767763,0.106024908570064,0.383813584247388,0.217124539313413,-0.111383879965277,0.589743006479216
0.0311247571863987,-0.10018368747645,-0.266919643849898,-0.318109613673755,0.176792935668861,-0.221172008663241,-0.135907282571403,-0.121216138769359,-0.0822684127741946,0.0232841144318865,0.124780021447382,0.150889910114889,0.0159113931438474,0.0799970359355982,0.0545994557741361,-0.032510991628616,-0.201505611778111,-0.074442882360214,0.223612247525031,0.10554419462593,0.366963524795753,0.217250482575726,-0.126489541307981,0.593803441469752
0.0105591310233861,-0.0908841697690195,-0.287020963122917,0.310203682058397,0.189261243755064,-0.239059591308314,-0.146105131127265,-0.132493587058144,-0.0635395284807442,0.00823040027097068,0.137576665542303,0.146410934855108,0.0289468603566944,0.0648610495349883,0.0461206419739769,-0.0279796032787148,-0.227990161626304,-0.0313650940962282,0.236860654876808,0.111318660354172,0.395504782504814,0.246068401839834,-0.108026596193346,0.584399922110152
0.0212864459126196,-0.105267194427735,-0.273415853726493,-0.313746500875126,0.178714363608762,-0.223683136167508,-0.135525642464292,-0.126931868728778,-0.0781992929249647,0.0227679648986995,0.138363410427895,0.15105198557889,0.0226759435734027,0.0708271157058683,0.0462364188353155,-0.026599711617383,-0.206523005119837,-0.0601204270484932,0.227195769074125,0.106647440228797,0.375539319956444,0.228752782765131,-0.123077022339868,0.591996063609452
-0.0271552328394666,-0.111672841053635,-0.282602472907678,-0.309851592622326,0.189484572873168,-0.232967787995391,-0.126481819423563,-0.141548498752607,-0.0926395427654872,0.0219789409206584,0.152024994911413,0.141305195914569,0.0345440043784632,0.0463655866476707,0.0347637497525936,-0.0111029088390832,-0.241650987238045,-0.0208912428540716,0.232081397496872,0.111636795722739,0.401583358715298,0.255948312850935,-0.103463450501588,0.575622179238361
-0.102333267560852,-0.115585011032267,0.286399731626763,-0.320526633787972,0.212238963081281,-0.239031148017091,-0.107872368264939,-0.178342728487408,-0.136573850958617,-0.000696095713698355,0.138394557391132,0.112412885032322,0.0329298581457889,0.00841015381970326,0.0454835576644607,0.0047914848223583,-0.2858234189933,0.0255982287796272,0.235227586373898,0.107893298493262,0.411827021486791,0.290282555301076,-0.0721427618348498,0.538284325578755
0.152921562943846,0.131349044210309,-0.28341289775113,0.372627135778761,0.295372000692347,0.239730029087416,-0.193569564766579,0.0809145995457171,-0.00801229644266785,-0.00194372689002844,-0.191988011682986,0.163109625869444,0.084591496757321,0.279717510837372,0.303602149761785,-0.0134353576196172,-0.285974683048199,-0.135136133829386,0.235982690179545,-0.0240688843905347,0.279432116193311,0.0539337781802623,-0.0125266236884147,0.530413003823399
0.127678263253337,0.103234957767416,-0.2988466490335,0.348038540689103,0.288107451358107,0.260842137249198,-0.209060982862831,0.0421453009232547,-0.0116187822383627,0.000527927581944487,-0.128972970668939,0.16311137093991,0.0570125722565533,0.255568630950405,0.254468262436487,-0.034773365251576,-0.284427926828701,-0.105614856326207,0.257847586191743,0.0182315290610537,0.319319585246547,0.0890110964867996,-0.0450098968113177,0.557855167965243
0.110776192762599,0.0697983529668832,-0.307058896832786,0.32963809765816,0.274982031201982,0.274157329147517,-0.21087370558822,0.00162284230173517,-0.00404846411699458,-0.00479412319917301,-0.0651860772144774,0.160473223966747,-0.034506587772294,0.220453944073784,0.2007987328754,-0.0499202498786866,-0.276485212016692,-0.0733687660865315,0.270370040758053,0.0527655304259428,0.351548881879,0.126095444300318,-0.0692344695020441,0.574939584155714
0.0984218289543191,0.0513517728450936,-0.31668711674821,0.319010486347042,0.261098716943601,-0.28974124804145,-0.212668808588915,-0.0345556305645331,0.0116042370581788,-0.0139056054168731,-0.0139427372273614,0.163050052978815,-0.0187440683653509,0.18329771585722,0.154754065573111,-0.0566464759055592,-0.269538970464808,-0.0340819612605343,0.270585967203922,0.0773255737065689,0.373185552574773,0.161392345238939,-0.0781795256567667,0.580886287849166
0.0687969512747401,0.036232885620141,-0.325943674385319,0.316531927071386,0.224431198411911,-0.315131712518029,-0.211137380930936,-0.0961060350151845,0.0307208224537693,-0.0394126601265305,0.0486356092121311,0.164139784561941,-0.000325060175690795,0.113412064563468,0.0962757091793613,-0.0597555327794157,-0.270881276293356,0.0322580936526228,0.247700608905705,0.109239854219988,0.403262298614319,0.221724513591844,-0.0627929310706458,0.568522764536496
0.0733361233635818,0.0226919758769682,-0.317966907619906,0.316212994007271,0.233038522656855,-0.29612153980523,-0.204753138135719,-0.0811135112801686,0.012329412071895,-0.0256011918042469,0.0410413561124444,0.16030327640017,-0.00128746061034526,0.13174363753295,0.108141114754091,-0.0578225030660647,-0.263688144419543,-0.0013065295030679,0.257275394723367,0.101086479320295,0.394899072462173,0.206108802855636,-0.0776033276757518,0.578936388593743
0.034206418607533,-0.0392422430326484,-0.304585568839951,0.313100925068168,0.205140772230191,-0.270494221500415,-0.175896585491102,-0.12142441187878,-0.0237839720357931,-0.0179274057000334,0.101747343670575,0.149518772226101,0.01982775228821,0.0839153310646046,0.0681351493417902,-0.0449653679239403,-0.248521144297593,-0.00606078075948734,0.246244751286158,0.113070402073439,0.405359814908972,0.243155217674551,-0.0884321147696333,0.579367858064634
-0.0980937444891119,-0.522396509152146,-0.0603486603328356,-0.0854365624821808,0.266097260950922,0.215661880584572,0.202431672108948,0.326626836461533,0.168551215150792,-0.498234283674971,-0.257362120787145,-0.0619953500931476,-0.00735871806964653,0.0295507410756358,0.154656641667667,0.131691780088027,-0.430413040371663,0.153989474933004,0.466901969472359,-0.260397108139085,0.24730829434319,0.148375269947197,0.201928303576391,0.356506602267162
0.172124205339766,0.203930073606316,-0.340733754442103,0.421027602898289,0.305373974237646,0.29113496065217,-0.220655931166457,0.0807870615803502,0.0328868959011885,-0.0195885017174849,-0.212602696128746,0.235303376323577,0.126679194793438,0.26693857933777,0.314165729033783,0.0334527740899026,-0.277630141627713,-0.0619381561893792,0.176335046531686,-0.0601198940130799,0.23126037530499,0.0311650614757386,0.00696293304955758,0.536673974376733
0.145367434364621,0.167979790006518,-0.343289705473775,0.385159717927436,0.305645039289239,0.304785388680609,-0.230895881776834,0.0546343021762698,0.0222820880843159,0.0177446267604863,-0.160796696717375,0.221752662182618,0.0935700870648539,0.259990196128575,0.275090413802773,0.00423635801956202,-0.282501296079705,-0.0510033995456832,0.216550838726473,-0.0156362672562595,0.276211894640743,0.055599386278025,-0.0254644824070553,0.561423214644327
0.131727870472052,0.131560870017154,-0.340804335741222,0.356948583539333,0.297206513818018,0.312312486982026,-0.229425764666448,0.0277520782366851,0.0262855972787049,0.010829379508375,-0.10871009958671,0.206984836245923,0.0687191503056186,0.241677222107443,0.231627384663485,-0.0204453322168122,-0.281578777210385,-0.0349667006383579,0.244725016225547,0.0208132130265907,0.314059396218154,0.0840075373445005,-0.049291808961247,0.575493439060812
0.1182142601071,0.102924785628011,-0.339914227454373,0.33727298021096,0.282222611372502,-0.318654364686961,-0.228706481368823,-0.00514290122052927,0.0342903330527271,-0.000892545548885369,-0.0578698929670508,0.195805239940106,-0.0469061518748364,0.211036259167094,0.186640661378761,-0.0385001498228885,-0.277581447179574,-0.0113283131292088,0.256992669606309,0.051960093658416,0.344835849239549,0.120212306192895,-0.0637218817153849,0.581710583149926
0.108850901208879,0.118355873831061,-0.357732325428018,0.343740083512149,0.257222289816841,-0.358106775991012,-0.239424138123412,-0.0376000808739507,0.0631894901614024,-0.0101632110613153,-0.0287373966748784,0.216599317825641,-0.049831541004757,0.172276559317886,0.152332686279776,-0.0383845152196285,-0.280939441420876,0.0552820936841321,0.229541194428877,0.0690201053951975,0.354534876770035,0.139179186497659,-0.0518920725101662,0.579910358817175
0.103621719644768,0.0795432437843715,-0.337824728110658,0.324955171341083,0.263273937013931,-0.322310647240405,-0.2258710511697,-0.0387799670095636,0.0408737458397212,-0.0147961633284812,-0.013464624510179,0.185991333277192,-0.0282702135277267,0.175666633106937,0.1463951551087,-0.050241206286019,-0.273529229313581,0.0117989034895358,0.257983744715553,0.0771743338240758,0.369298716201406,0.157679889609653,-0.0687155078214029,0.580621154405598
0.086693333085736,0.0781330098354732,-0.340656362055312,0.331899853875445,0.229761825465989,-0.342832137019612,-0.225419000480239,-0.0764777435110523,0.0513172089353281,-0.0330834197870142,0.0160441941179785,0.189269873987074,-0.0241523462922924,0.132886215975103,0.118674131286124,-0.0531069301811985,-0.279455485132909,0.0526926588188853,0.233129738988015,0.0959530001697464,0.386025221374974,0.191530768158559,-0.050237659573328,0.571400036031158
0.0937945733304703,0.0697899257169462,-0.336680641026708,0.321045639144388,0.24856979059853,-0.326469536456375,-0.224013246551334,-0.0602863735126255,0.0455184916001386,-0.0250155325485966,0.0101097250840428,0.181512515241136,-0.0192091396887682,0.151637027648578,0.124176153328208,-0.0552393475507556,-0.272654494285721,0.0288403543111024,0.252492260196307,0.0909130510546395,0.382175213368184,0.180615891665815,-0.0659265444512553,0.576133760827919
-0.16986223008139,0.274457843548282,-0.398948180798237,0.459107610650673,0.305889634852523,0.324089615701447,-0.259467974739542,0.0669186053763621,0.0580590961463496,0.0399626761845838,-0.226776697421989,0.298450985873422,0.155994393069367,0.235741801961635,0.315550160767478,0.0803975971930216,-0.262583985156181,0.00775756364646198,0.100324909533373,-0.0944936652042596,0.181456784942837,0.0129727026340351,0.0153067663944133,0.527654933299032
0.141389245932851,0.238207969979314,-0.403988214682415,0.422406879496315,0.315495539863172,0.352918950209213,-0.269381316979378,0.0458803243887739,0.0500261214005234,0.0447278647900276,-0.177166580395016,0.292479584587251,0.125718694229831,0.23908971309235,0.277798732025177,0.0510192754628634,-0.271155825158306,0.0288689936767665,0.151533130656504,-0.0478280182219248,0.226026995985418,0.0210996182980252,-0.0184688063302862,0.562439449438383
0.138248420820852,0.185291700915052,-0.376710264213823,0.386961974122908,0.309540784592059,0.346277189171254,-0.249462557053158,0.0368369819793674,0.0464054134939336,0.0297167711931218,-0.137876586876593,0.254993031316831,0.0984500918589395,0.243593552921968,0.249050850589824,0.0126522010193447,-0.279275958839394,0.00972855259152117,0.205077384727079,-0.00771791771773131,0.275114402832638,0.0480845943953191,-0.0359258780112296,0.57530490797185
0.128716429988564,0.22301168539193,-0.411156254759842,0.403443412119801,0.306342452419635,0.385547485585661,-0.273210334104414,0.0243545541790442,0.0643652909866742,0.0469117184862292,-0.136876539755106,0.29801487553944,0.116187288306989,0.224025479451543,0.238242791210192,0.0333557496227612,-0.274557935218664,0.0736445369256299,0.166144841759227,-0.0165894444301001,0.251185718008878,0.0246314649923001,-0.0343338048132651,0.577494780330331
0.129631966178611,0.164063468718892,-0.3735998912944,0.370000373822723,0.294878253110006,0.357749349507134,-0.248415601312063,0.0145372925423641,0.0550687811295563,0.0207611893613345,-0.100054816129652,0.24631296490064,0.0839494448605623,0.224582262644855,0.215135136800785,-0.00648345765281674,-0.281216985199581,0.0312168610244504,0.217931626990925,0.020220265710562,0.30293278149173,0.0713919180717113,-0.0459472128198618,0.582676194147189
0.132492726710181,0.231917798719141,-0.388268080844775,0.403106997385203,0.221417656956568,-0.435203844369903,-0.264518007320379,0.00426680330847183,0.0981739569781517,0.0301469084093632,-0.109249198166537,0.306563408236643,-0.139019064409963,0.194361149609264,0.210889393368148,0.00608336373500799,-0.294269999325609,0.141745133720283,0.127852418755603,0.0161685113537189,0.268260606117544,0.030829300666612,-0.00330703705652678,0.572069159067105
0.124864576868643,0.204034795819875,-0.394767248961085,0.38995240533122,0.263437033665914,-0.407287006746804,-0.265029572438709,-4.02092085207686e-05,0.0808847757008341,0.0286892318165399,-0.0977665302168006,0.287023609992551,-0.110353223695893,0.199684887318263,0.203656357885058,0.00486685114288538,-0.285873850740581,0.105479679503072,0.167554641157546,0.0191832247122066,0.285017704023555,0.0520917468126509,-0.0282951076831919,0.580935592912074
0.119493174744793,0.133326387825333,-0.362290477509525,0.350282709512823,0.277135838299282,-0.35466775532405,-0.242244289157116,-0.011884207894217,0.0585048861070182,0.00409788161672049,-0.0583872512841527,0.225660661622758,-0.0621314006192708,0.199701243273213,0.179136165925149,-0.0279436787918203,-0.280631117358725,0.0390289187796515,0.232584387774303,0.0495168937625822,0.334820678789038,0.109134625586909,-0.0541051721014774,0.583530238847211
0.129034125779529,0.212849711748458,-0.370394182850817,0.400189661603756,0.192988766260367,-0.430164695385407,-0.257297086744835,-0.0221125531936593,0.0977137161928649,-0.00152901541685288,-0.0878898435761242,0.282908046210394,-0.124808751008442,0.174694051040976,0.200259928115889,-0.0153856477402416,-0.301537706446945,0.131518132004848,0.133354911167878,0.0408997431023683,0.300169713875541,0.0762647511294041,0.0102073522061086,0.567374601602669
0.112810740109143,0.150817251255973,-0.3659212937753,0.364678305067011,0.233573650293141,-0.388389460125875,-0.246774223575728,-0.0399964439226394,0.0784082648590002,-0.0110269357350689,-0.0430246298985163,0.240610226644825,-0.0729795195300027,0.165336505830796,0.162133765824344,-0.0310042649134004,-0.290088186317687,0.0894937557677631,0.1948348389018,0.063760512855235,0.341915777329668,0.126007278882714,-0.0283678163182021,0.575664728164688
-0.106166160958693,-0.489310866734997,0.0279931777218871,0.0399739027087493,0.291370000848928,0.197462678136405,-0.160750070303787,0.303191611192596,0.19469683225522,-0.456049172489467,-0.248839917182282,-0.0279804091613819,-0.0218458312346041,0.0102689732128781,0.101860662231669,0.13919493482635,-0.415365236149176,0.140030191507275,0.48604934234241,-0.288675141156354,0.250445652095605,0.133174912254034,0.213635469364317,0.372877457469744
-0.120824183171503,0.30850917902154,-0.459859134001646,-0.448898202280197,0.315578043060877,0.37009190925065,-0.318678863625023,0.0310940302445791,0.0572611248934864,0.0735658850034197,-0.195005109755591,0.352286566245993,-0.145560996978804,0.202779342567721,0.28054167899933,0.101752783573833,-0.248433165866907,0.0901194005293814,0.0669824106928812,0.0876902506337176,0.163409376041922,-0.00599080573452992,-0.0179842821138701,0.541276851170572
0.112626943525096,0.277984103611615,-0.451738401180921,0.427049587964552,0.317130520974921,0.397230385464796,-0.308927363199238,0.0218830528258148,0.0611604429062029,0.0741493436824552,-0.163288369608687,0.344584756541817,-0.135534195417649,0.206791615048097,0.250660518256434,0.0743569848401223,-0.256242387207231,0.113277744195606,0.106844930106097,0.0533507170554554,0.194412269446975,-0.0119742310706367,-0.0343019026770959,0.562877909447812
0.113847782418828,0.257913523477084,-0.436591936783847,0.413732003584975,0.297021391897621,0.41797330499563,-0.29526304748186,0.0148882281961523,0.073089554353905,0.067535422447295,-0.138506036665895,0.336129454986343,-0.134449531243473,0.203929127467512,0.228049945171711,0.0512773063337601,-0.266934337057611,0.134848395113115,0.123834449987265,0.0266391003524777,0.219654425479962,-0.0079733586428914,-0.0342889742997148,0.572490698121767
0.127342233672941,0.251739268826656,-0.400962460315338,0.408688603097883,0.231853405682863,0.440470163833787,-0.27528250740634,0.014691266398861,0.0939200305232069,0.050296816965229,-0.124782950497707,0.325516565297489,-0.151341442038823,0.198019071589404,0.218744002642774,0.0222475500942848,-0.287401141965774,-0.158795094591735,0.110572421208458,0.00199403531880115,0.239093264536983,-0.00126985995515207,-0.00823362317994582,0.569864754374349
0.117175583364394,0.256546382331133,-0.422358340459654,0.410194958596154,0.267354383778835,0.433136898326258,-0.287622435823743,0.014203236880569,0.0830700459825014,0.0636457733428822,-0.130489671564636,0.334968143155199,-0.143815464693235,0.199327531909429,0.219982648599815,0.0386354277408949,-0.275661000760692,-0.155371843707341,0.115790045142333,0.015122891575621,0.225510468223476,-0.0110174168982432,-0.0244978889544486,0.571812448268078
-0.089686092122401,0.362132968983379,0.502847977520391,-0.449628730541091,0.303621866951836,0.366796730521065,-0.369166158743354,0.0134067204473416,0.0536808899043138,0.100946631983316,-0.199387273618534,0.393691756182963,-0.145375632539673,0.160434360785248,0.272231191730932,0.141828563246256,-0.223870665543704,0.131589588262529,-0.0126477831949292,0.117324972499102,0.111871266359717,-0.018076415295553,-0.0261757541081137,0.50730084700501
-0.0773538865698938,0.33052124483373,-0.492593390900541,-0.432801454097136,0.317177527645933,0.397949762017539,-0.359806736826226,0.00435235076275911,0.0462709127576161,0.101431260149681,-0.173911962884668,0.385595069452386,-0.139117136458104,0.16761240971927,0.244952024914688,0.109457199848523,-0.227936957315479,0.157016161453417,0.0367423683848817,0.0824021744032807,0.135967253239798,-0.0350551797555049,-0.0458502650625575,0.535367861145744
-0.0835002984340422,0.303065304701689,-0.452412213250161,-0.417053204988579,0.27878135232599,0.432710913265714,-0.330087093899035,0.0068212086594754,0.0580732410549955,0.0913316431756999,-0.152434936119789,0.367898103746295,-0.152829851690034,0.174813542531133,0.223636744498465,0.0674740802690536,-0.248957337437983,-0.192737368963616,0.0615367908952268,0.0450579277117013,0.162404898804389,-0.0504378089011175,-0.0367058055522388,0.5498646612293
-0.0912528701456364,0.296744831936768,-0.465053040999307,-0.422795829194502,0.305851660413462,0.420187626956728,-0.328074714089935,0.00873839867400449,0.0597042150392391,0.0898401915906484,-0.155022359738011,0.366843342834619,-0.142840820101408,0.184680714537419,0.231632855314072,0.0784125356477669,-0.246757801247087,0.164765328366361,0.0786809419186034,0.0521008543330663,0.171889518725769,-0.0368010155026391,-0.0419401108408308,0.556213754527357
0.109574142880685,0.282372417845648,-0.415172221717889,0.414075329889673,0.23644639533542,0.443401693495784,-0.297630761662968,0.0184157214484394,0.0801006203742094,0.0719894534380798,-0.14389796387056,0.34704763586016,-0.164501021931428,0.189593965987039,0.225774552809963,0.0407535733217883,-0.274159711673011,-0.187425008619471,0.0757943788133311,0.0240044284108446,0.194742107883697,-0.0383974657450775,-0.0130738300832562,0.558018957821799
0.103418472811811,0.279545946104796,-0.442342007144314,0.416607374000928,0.282408651388438,0.433134966270786,-0.307000386510148,0.0132700507588888,0.0728045610280042,0.0803133422808797,-0.1438017573499,0.35459870852982,-0.148785289213388,0.192115710784098,0.224815772954374,0.0583340840912929,-0.261856208245833,-0.170764555205565,0.0931632820914067,0.0338731962491029,0.193802306308343,-0.0337546296739778,-0.0319218317278448,0.563716832023248
-0.0569663135191464,0.325546319939486,-0.457557336811581,-0.411700950346202,0.271690993249882,0.426626818243506,-0.357005016259817,-0.00196249929987388,-0.0364671738908601,0.099454121202306,-0.159984622149253,0.375108353034828,-0.151124937300268,0.152598829972174,0.219360337135816,0.0720554254225997,-0.234415827480854,-0.210839506708067,0.0281404065024295,0.0527727255384981,0.130602718321113,-0.0602389487120517,-0.042288235047439,0.531485696484466
-0.0603381440389677,0.326876249219448,-0.483260583692141,-0.41952892444136,0.303973692246857,0.416753832069414,-0.363286077087448,-0.00506106770517274,-0.0384808133390807,0.105292726998811,-0.160834901568695,0.385654002363438,-0.141581101707998,0.155540573901277,0.223826578348259,0.0919010778210063,-0.225231259263432,0.192287238350928,0.0361556303572981,0.065449563440415,0.131371870644931,-0.0523190191295794,-0.0532691534486903,0.535361121348324
0.101352330172227,0.299427088961909,-0.382924419157172,0.409773729306838,0.186707168122472,0.441270642424921,-0.300565167590256,0.0250625341435686,-0.0722557935131384,0.0677738985320884,-0.157555096114664,0.336600914903829,-0.182513897682684,0.180443904582748,0.233681427124454,0.0278432983153382,-0.278130040966818,-0.210228407331059,0.0381113485586327,0.0244056916594663,0.170552525110793,-0.0557525287940948,0.00702364925941063,0.538264421776353
-0.0827870683362126,0.306436646293474,-0.42627629163892,-0.411855994262712,0.240975702915129,0.437878171629375,-0.325054752756518,0.0116742628189402,-0.0576805491204847,0.0848139397540486,-0.155417639412056,0.357807390063545,-0.164619215272477,0.17145719431865,0.22457746179669,0.0511567822913439,-0.258132246243995,-0.207953744919563,0.0454000563805748,0.0372696728424554,0.158172109624629,-0.0570213807621244,-0.0218890800606739,0.542234731083049
