0.0256177708352629,0.298224269011662,-0.0715114194988031,0.245663080510123,0.0351189744895281,-0.191289369854301,0.227581270746646,-0.0108551917654888,-0.0787499406878899,-0.025136010745284,-0.0954759664449295,0.213624094405709,-0.377908862367552,-0.0857757790227002,-0.139767465741612,0.104694440680129,-0.580015328442541,0.0140013236458237,0.136533973221664,-0.387742662878718,0.0343892974678813,-0.23691413819354,0.0723642387954726,0.339727615284692
0.0228148846583274,0.338424575225884,-0.0373100935573273,0.281957645163811,0.0688216119968903,-0.213509316881422,0.212568204239887,-0.00373179923133902,-0.034082296332081,-0.0523540042795392,-0.088764199172362,0.166205647391905,-0.396701498889647,-0.0891214925506674,-0.144266701862153,0.101863647770726,-0.604864639407773,-0.00409288369253498,0.0893774217384025,-0.320645783679457,0.0218007617253929,-0.234656985661223,0.0717447803590964,0.337428668320368
-0.0995350619961341,0.0406516730914002,0.0377890942854658,-0.131684307547798,0.0835148534964845,0.14889958358319,0.115194107406301,0.0562334196988894,-0.048492056720219,-0.0679951819093274,0.0510227472647856,0.199385743055453,-0.0146108740041088,0.128941213670278,-0.0766961813285645,0.144842339574978,0.414236836655626,-0.247819302532537,0.168965443189963,0.118502769117485,-0.224272924608061,-0.283115971682439,0.158444722754378,0.349896217393649
-0.0603827179803516,0.0497376663260568,-0.020341258915245,-0.0886732718368952,0.124411097401929,0.145649752225177,0.0963404315599646,0.0292549183737881,-0.06060849076641,-0.152584320746129,0.0127397341835177,0.1870224850059,0.0286232391999914,0.0914386853569987,-0.028482824020499,0.153612329812403,0.454400051355316,-0.210754918066493,0.118092521577653,0.104394210402559,-0.192698592378108,-0.255220424002203,0.150035420910568,0.336313553987576
-0.190713612739678,0.221523064527107,0.260875391899231,-0.256777407990799,0.0575787950289096,-0.0348950638927608,0.108534049106484,0.154889196676395,-0.0928240184548426,0.203175093479202,0.0576334352945974,0.0874025193367427,-0.173451249368338,0.094851540338905,-0.192000282206063,0.180011018001067,-0.506622570313525,-0.194409565518982,0.115803784817712,-0.0782484764285971,-0.11519670050067,-0.359587329752487,0.254163991653161,0.256771594222438
-0.182649571185816,0.175696375415709,0.227638637535938,-0.239634279107965,0.0481442790227094,0.0094155943229171,0.111114534770967,0.139175648649969,-0.0747874029808677,0.168194329067626,0.0679550692382048,0.12257625174889,-0.11453098730801,0.118327627062985,-0.183455084545359,0.16944022242422,0.475041352074427,-0.218869109696827,0.143849093439029,-0.0299618067063393,-0.14867772151478,-0.351411693477995,0.239706206103626,0.284595413086224
-0.162534986444372,0.0516389189012585,0.133166724147071,-0.187188257676344,0.0168905492057778,0.107942981708603,0.100060848981419,0.0828468796166937,-0.0206493467419802,0.0725187976380382,0.100598523123481,0.204692797717887,0.0283041175927183,0.173615058754988,-0.152776258203935,0.127746567520004,0.377580973031765,-0.279644308598069,0.220976460243416,0.0835497605679171,-0.205547883405464,-0.310094789439842,0.200759922034583,0.344483907012298
-0.133752716518752,0.258487282764244,0.25860170211158,-0.256994446678641,0.100032896448258,-0.0717546447877031,0.1070978429533,0.169328214824328,-0.126849708287596,0.163475112979919,0.0382794144771424,0.0530853591556248,-0.217466161221148,0.0812926400225462,-0.175544278440719,0.218366639903078,-0.571082176147925,-0.167131794120528,0.0632518291787151,-0.0990491305476494,-0.110969333877304,-0.359028862201861,0.263193609357321,0.248811725855452
-0.111601557657232,0.178754593911903,0.180684129139517,-0.212723787654445,0.103049811491474,0.0322653605167864,0.133449168514852,0.144088912694572,-0.109803023539403,0.0754787994346173,0.0341629416633499,0.115441239187339,0.111563734736647,0.102116672116599,-0.143261241032296,0.204491669346572,-0.519554421216873,-0.194404826191921,0.0892902120844748,-0.00170787591237183,-0.18793338885773,-0.344452117837282,0.216908827753442,0.291826555282604
0.289499066966026,0.190051807655831,0.323572743170055,-0.307403296137128,-0.0640554842738738,-0.0661418357408274,-0.0220875690155247,-0.101335668033267,-0.0485412833016112,0.296053167448052,0.0747554084788444,0.13608254240736,-0.232207742482843,0.102928944755096,-0.172586445501062,0.0701420765809861,0.404932102597521,-0.182132255321319,0.0950508066309308,-0.210040679712873,-0.00057558739036458,-0.266162355963543,0.284536008231336,0.209906114299181
0.280535391542444,0.163817770621284,0.306605948651425,-0.299606400642359,-0.0663934502354654,-0.0445464607342038,-0.00798058393767845,-0.0992712013698169,-0.030359742472692,0.28387841883818,0.0937367964615638,0.153314916794972,-0.178523520788411,0.131077182497568,-0.185432334955121,0.074859818033017,0.393073465981125,-0.212514870820071,0.133708592244867,-0.159155612022644,-0.0354583068645831,-0.278202794545375,0.286030406117431,0.234304872217062
-0.255100433207369,0.0832535720132302,0.253716371615991,-0.268267011965249,-0.081631837888903,0.0152497306057913,0.0121655372388812,-0.0817285587610144,0.0160141892581588,0.240650852999221,0.138022330414183,0.202507538742904,-0.0420727456306002,0.195858098640968,-0.203072710335474,0.0710912283716253,0.338397801100607,-0.279139700058015,0.220913682442972,-0.0419713400905705,-0.107302469868918,-0.285600604642158,0.276005027133749,0.288807483198892
0.242522306778162,0.235580671269176,0.321084546871824,-0.307610747800845,-0.0160743490232188,-0.103550474424478,-0.0144778314987303,-0.118316031027416,-0.0826944528892471,0.264800727828077,0.058061164565443,0.0986505791622106,-0.285653870989136,0.0769652512530544,-0.168676739620523,0.109968310295911,-0.477948400002298,-0.159815442967189,0.057490915526305,-0.230840768988629,0.00532393358066298,-0.289885919781809,0.286849056723837,0.217166830638976
-0.216898576405212,0.212163493492981,0.280005383279714,-0.275569782872628,0.0206987626231922,-0.0530443568722664,0.0655215775563638,-0.138013936757572,-0.0734574236099502,0.231908479242088,0.0731603777805538,0.102864656735987,-0.187254439056146,0.107273706218946,-0.194639999291676,0.152279816947805,-0.485402797053362,-0.202172672002379,0.12306214214653,-0.111868159566343,-0.0818762020574494,-0.338669474129094,0.273672682996671,0.25317989306426
-0.215890150995481,0.0915698786154207,0.211412854534909,-0.233615373722295,-0.0224369395359033,0.0503101983927441,0.0739583038345535,0.100766772209114,-0.0115699655456273,0.181873776020439,0.115479031825879,0.187132647695576,-0.0216102956700735,0.176219102575974,-0.195400670311019,0.115002951565289,0.376473472172707,-0.273116353264369,0.220870235976641,0.0134370248046297,-0.15711743210729,-0.321422167955766,0.241487731804982,0.313119886535723
0.161714153025192,0.286572573961532,0.290210944318462,-0.278013921001091,0.0837443951145793,-0.12108462191591,0.0784929526002136,0.16596710267186,-0.121764249770934,0.210723746028439,0.0462843567405624,0.0327902909972336,-0.270174936439626,0.0687537300993174,-0.188443242812623,0.207051469025272,-0.577190367925559,-0.158519006250186,0.0618374188245804,-0.151933617006234,-0.0584002163383572,-0.356382386469468,0.284020318807279,0.228912206640422
0.279247001053227,0.0741220441350368,0.287211264960178,-0.29832300725167,-0.130020786247737,-0.00584735940371688,-0.0504630303190927,-0.0609927921211279,0.0280947819003318,0.272536233043012,0.140310583688909,0.219108030003749,-0.0743579783093189,0.202340498040527,-0.186217003284139,0.0248099408877548,0.300363732312491,-0.267464189478549,0.19000264564309,-0.105608917157418,-0.0631068777905862,-0.236382779804048,0.291821360374828,0.260226609287056
0.232184423076157,-0.0293334433759789,0.223322677655678,-0.257143682805984,-0.159311105851013,0.039506516527051,-0.0504316672188942,-0.0290140624433321,0.0897546146196722,0.216303434116333,0.207558391524638,0.272156400443049,0.0905645881505494,0.286433523867801,-0.206819138721892,0.0103604676960758,0.222497312738299,-0.347938922216978,0.291190596235361,0.0231307298263987,-0.12459392708543,-0.224852663017433,0.288143835546256,0.314213619371139
0.163867555572188,-0.183178007872733,-0.348505091389238,0.257308705583214,-0.0481771617148753,-0.0141775874084545,0.0749033592275218,-0.111615706857761,-0.170490207097254,0.174850545166122,-0.0194770020668327,0.161349425339114,-0.30908280027964,0.0394164016066958,-0.0848435923737074,0.0422032230475916,-0.393588342676536,-0.0638469005485345,-0.104779141823875,-0.370893712325859,0.040343092021945,-0.216197505694159,0.151848239879594,0.220168911880638
0.244605271041734,0.164857699192101,-0.351475922091545,-0.297749917006511,-0.0914191523665277,-0.0343779991954995,0.0774884245890217,-0.094930132934508,-0.0900763285898388,0.258535207271901,0.0318977500559275,0.176144907263924,-0.261443791681982,0.0963267535874507,-0.118385087879882,0.0303775750877782,-0.361043012042373,-0.131045875751309,-0.00395302535071056,-0.307411322432945,0.0237649675340623,-0.213041218451648,-0.222742191341779,0.210233771261411
0.270871180960024,0.0860719267084992,0.314076267848634,-0.311881400440374,-0.135931732281332,-0.0102343382938628,-0.0860907718737675,-0.0581529979199436,-0.00375998899558679,0.265221088116304,0.110799230284242,0.222932936616588,-0.128428078138463,0.182359315568093,-0.152542002343505,0.0029474169284056,0.297185552426756,-0.228338135961918,0.119008786581923,-0.179229170464545,-0.0312752403438113,-0.200120379281408,-0.273523908754193,0.239758467029562
0.238320014443719,-0.0188092779892069,0.255711832605134,-0.296075003805908,-0.180185397368481,0.0121020221820736,-0.0961110799784357,-0.0184096326920922,0.0868883080800469,0.231128922674057,0.199092255723974,0.270824569221857,0.0385624527175985,0.284220461237504,-0.18264510957815,-0.0201071027268711,0.218424855990712,-0.335390744901226,0.249448396632018,-0.03253084435155,-0.0981867597597652,-0.189446099682997,0.304495121760241,0.28793480032639
0.175242192848886,-0.115740879546756,0.196749589385056,-0.244857577076745,0.208384061125893,0.0371456884584711,-0.0965316944323335,0.00871931696659783,0.14151481638654,0.17433797398859,0.269808710404937,0.306751418964998,0.202046724053514,0.363966910549489,-0.207887884057241,-0.0317141570676016,0.138825868982399,-0.406883133264239,0.342408649643184,0.0866121500374695,-0.140720450366516,-0.171368495619531,0.300183239355885,0.325410332732225
0.214127106962108,0.200949632026776,-0.340582708432238,0.278292610001493,-0.0477968834115661,-0.041938429216525,0.0640591177324779,-0.10829140172728,-0.140937791438205,0.21801055084456,0.001207908332926,0.143829646678504,-0.316816549844578,0.0345225797115029,-0.107506879988731,0.0534209826110507,-0.41380793816332,-0.0848240301436331,-0.0640280399662183,-0.339597244655141,0.0449536849653716,-0.233305987339923,0.203133511106134,0.208188893756377
-0.0967401708316008,0.190081405445061,0.209221924659607,-0.194957367711656,-0.190705099429042,0.156072689188765,0.173857667680696,0.152901482400055,0.102168786797648,0.0293719277786084,-0.217162093373526,0.140267140523802,0.43233411308294,0.412116725884284,-0.0773236519665576,0.0221470280493957,0.0990909641362508,-0.454467147496711,0.349745905781513,0.322245835732621,-0.303596501357973,-0.0967925315729189,0.147008555623035,-0.203095399812391
0.180657245381557,-0.161993449473571,-0.360900493265562,0.26313882976418,-0.0648946666878839,0.00217339262837545,0.0858171903319928,-0.105357598293256,-0.157836470235604,0.194010955933454,-0.00881249788318445,0.186036016390443,-0.268794474530524,0.0802071045127025,-0.090132671733788,0.0290944037557374,-0.357313638787025,-0.0797579354197823,-0.0838698870490513,-0.360556614836395,0.0359536251587756,-0.18476846526511,-0.152573769555985,0.215836653638199
0.223820762267077,0.109320672240655,-0.341705911231131,-0.304432119650344,-0.113447085925622,-0.00886739718275762,-0.103845500873254,-0.0732252514783026,-0.0656668861108745,0.234068492034013,0.0643663784906593,0.219510695017461,-0.187364591433498,0.158344726318738,-0.115437618713283,0.00140650413529347,-0.312799757176229,-0.17411604730463,0.0289289468894583,-0.266000925985149,-0.00793351261471498,-0.176342246454899,-0.222691245473186,0.233573554281383
0.207958403717746,0.00874482455091194,0.281124640052017,-0.32403562709739,-0.160117725202304,-0.0141882831668514,-0.119311561806373,-0.022158944226725,0.0464939181235197,0.209835640843534,0.172477776278046,0.25630050139974,-0.037129012984483,0.266323229221322,-0.140728085136252,-0.0347577938147476,0.248341368916218,-0.313440654784786,0.184129495341566,-0.0988882687208232,-0.0845924135299621,-0.166465044145882,-0.293011515445203,0.276158982264075
0.162113509495271,-0.0990531441429864,0.219227014040161,-0.287342226693131,0.20694471787204,0.00849074160329365,-0.112962001843093,0.0104690019437336,0.134343274164283,0.166409127599815,0.255736467329014,0.288285552685206,0.142153366604928,0.360439540803736,-0.172657620514895,-0.0510740111160857,0.162502295811097,-0.413976594167209,0.314880113239388,0.0582657231667281,-0.145056898743822,-0.159429199902418,0.318830244318792,0.310310472424805
0.153214312365162,-0.0679490815858489,0.226342250848894,-0.320082340126036,0.175820571514739,-0.0145574283802985,-0.111892521820287,0.00889052466077622,0.108844991332037,0.147856117353521,0.240452695054124,0.260557134097141,0.0780914650905294,0.334365862954507,-0.142581983368167,-0.0579350428610418,0.201851587644364,-0.410104713135616,0.286015377381015,0.0382113580104403,-0.148005147608779,-0.155414894607293,-0.320718577380148,0.299678176733774
-0.0301022930429331,0.187038000779207,0.186707986936494,-0.202080424700553,0.18458730448459,0.0875059677533677,0.0344072657192759,0.0630824927630412,0.123619619603434,-0.0105486170379006,-0.274193973145485,0.221825704917093,0.38190030897638,0.442435108324696,-0.155055119133325,-0.00952604704409057,0.102382323921759,-0.480489492707834,0.397305754156189,0.268369102640776,-0.248133959469534,-0.123401765194217,0.223989022259123,-0.290325672053
0.109550592720641,-0.174920875371916,-0.357229633260784,0.229860498881492,-0.0157105454203751,0.00554929578195575,0.0832051911485503,0.113959390988992,-0.220861855865827,0.122558312449956,-0.0320044703368711,0.164875967114836,-0.282866452974666,0.0644580366877345,-0.0741585788814296,0.0431340880892323,-0.386241822642772,-0.0483025734928828,-0.131990718401031,-0.390489739529246,0.0558425203693465,-0.166038304350702,-0.105827273831132,-0.220496330916958
0.165519374431975,-0.149539140389041,-0.357777983086369,0.271288237655594,-0.0535266536787317,0.00521197239573328,0.0961043665859924,0.0965064624283514,-0.151820737899462,0.183202564249938,0.0132775884331447,0.192050464028689,-0.238664268998351,0.118961828029021,-0.0950719977346979,0.0236253925469016,-0.354810229434008,-0.111063231953848,-0.055308714137799,-0.337161698970382,0.0297184463300127,-0.160167676017176,-0.161593123299742,-0.225261777717989
0.114337986773101,-0.0747374340121206,0.209484916291707,-0.31374801185608,0.149619349919947,-0.0199978375849502,-0.0792329609919162,-0.00324918263210181,0.104444714811202,0.106802661489164,0.252629536655627,0.233812635489377,0.102404113764403,0.340122548692594,-0.139186710322357,-0.055067526994276,0.214081322832332,-0.444487911752323,0.318940089672491,0.0922914203347815,-0.173323112213329,-0.164705728985181,-0.317309946705981,0.304184763418344
0.0763328147130798,-0.0773659878425355,0.20544164286454,-0.294627664891127,0.127122860036029,-0.0102792385603604,-0.0327103751558265,0.018202271792573,0.0927297876420366,0.0753787923414868,0.248786383549896,0.206610708373401,0.1334265693949,0.343396608435953,-0.14107570259789,-0.0407316961580218,0.225222975130461,-0.465707985100978,0.344759212669472,0.137386289498072,-0.193725711377582,-0.178740018081044,-0.299906172343812,0.304129730940382
0.138440805195307,-0.217662301293997,0.0997765524545652,-0.0408095855624518,0.142486636877079,-0.0601496813201468,0.0355793343840782,-0.0404304599470521,-0.220790576387638,-0.261297657486346,0.11907422548366,-0.010596973197646,-0.336973744450855,0.404567868750322,0.00710686592421886,0.121019479155527,-0.431884492456449,0.266489122836923,-0.328856745280502,-0.134588887532909,0.205148246410316,-0.147033931552956,-0.0992061611239365,-0.0124937244635132
0.159049211894435,-0.194715859727495,0.0927460827685025,-0.0752812502699775,0.0984663622327327,-0.110980324225223,0.0368551211372883,-0.0576168858407948,-0.243743557134572,-0.243773906497474,-0.15739201724523,0.0484141180425935,-0.315566813412187,0.423117526943418,0.0305954677097492,0.133161355227231,-0.38214668422084,0.316826760600181,-0.404777032544,-0.190314653939279,-0.21337614236743,-0.135106591745315,-0.0548496104997984,0.00444836990446498
0.110158073561644,-0.0285616477545422,-0.0396443067467758,0.144604837084478,0.0794494874638705,0.233818365248537,-0.146166136660667,0.0924809924005252,-0.124419516045985,-0.00707690836135945,0.0645941093305794,0.108904444741649,0.0277122598627262,0.0584567550628942,-0.000454018674710642,0.0502771359044882,-0.465144598942072,-0.197662110583438,0.149851531077492,0.0760238128246752,0.187482212572292,-0.15192877054287,0.018398297883173,-0.178691060216575
0.00463106030584836,0.156598966327116,-0.0786960861655781,0.0714169092157973,0.124496685342777,-0.0030124474014845,0.0217264702983719,0.376849792493041,-0.131693035965598,0.271872819215434,0.336873810514736,-0.437383222874973,0.480160885530669,-0.361158305734373,0.410585992132968,0.169342380397401,-0.470196319633898,0.130149611149996,-0.328089312341956,-0.0158546925526396,0.355122327759797,0.0932623857142491,-0.223877617660109,0.444343219349547
0.138061125434557,-0.210990084383196,0.0484766055710565,-0.016083256504017,0.133657899388787,-0.0194828656164997,-0.00593486127017131,-0.00683605180041138,-0.241088321164734,-0.235452364755032,-0.0855225571746715,0.049377185619551,0.327980393132521,0.378577076778828,0.00673049290160132,0.0956661422324831,-0.468639909832563,0.184603308925502,-0.282020721435127,-0.129512484937499,0.229061711791172,-0.133440461153105,-0.164587314773969,0.0194330126390615
0.144976315435462,-0.223286617151103,0.0669632634764317,-0.0232936818760437,0.136895495514598,-0.0312734492161955,0.0132509187224704,-0.0269004247523442,-0.231561028202716,-0.243233043434674,-0.107124455048024,0.0385520127779771,0.338606565813252,0.394759757208293,0.00685839310091613,0.113912072591335,-0.456403747783933,0.224259293697376,-0.306227929401845,-0.131807545501886,0.22980184991145,-0.136256503297053,-0.139886330633733,0.0164575919399465
0.18747391318665,-0.223555430715533,0.0333166488228052,-0.0208905630552492,0.0500805857632812,-0.0836185341111375,0.0283102653101394,-0.0707876402148055,-0.254139094227072,-0.188861368138331,-0.179550615858053,0.0654051409832545,-0.323688438266385,0.409692233673924,0.0544885469181251,0.165395972388235,-0.393621850253909,0.302405587446855,-0.44478502931196,-0.236933933343134,-0.238679314791137,-0.102239366905377,-0.060840749151283,0.0506740525377844
0.136163426819741,-0.0886441214833531,-0.0158081661080785,0.236092530815085,0.122304363654342,-0.173874270313661,-0.112378073014426,0.0911540644852067,-0.0851167754090893,-0.0373336485814184,0.0815250484103312,0.127219724835389,-0.0119254222594663,0.0104781670354101,0.0284732680497224,0.0657410751569942,-0.454003306874934,-0.223466306051357,0.196090636361351,0.0692454096513018,0.204250316449275,-0.129389594415256,-0.019129671294088,-0.255937013628527
0.137904100620017,-0.0350716861791875,-0.0104295268463774,0.171620366143303,0.0827995977186663,-0.223178204088447,-0.180387136437294,0.0722884365064787,-0.0783599600884186,-0.055595892646427,0.0438482854339315,0.132599397133938,-0.0155924001316826,0.0551032195128759,-0.0284374963671067,0.0538371702816419,-0.412955328961202,-0.238684899115366,0.173117392778278,0.0331412546566472,0.196615755804844,-0.192067660974454,0.0572911488085217,-0.245363248013169
0.134562704459707,-0.0397516941775017,-0.0353553511769573,0.16132281742016,0.0941784511830898,0.230072703716691,-0.161965702485876,0.0798404386259291,-0.109592286360896,-0.0323912022685408,0.054856514655567,0.116548440772236,0.00811401131850598,0.0546855419766965,-0.00872468125074698,0.0569177494722439,-0.444612994244502,-0.21482843033162,0.171080728587575,0.0684159588560717,0.192625139131193,-0.163518361125124,-0.0167064678802458,-0.209067289717013
-0.0110366367434273,0.133197589350826,-0.0671770108192886,0.0724010892475353,-0.0968552926603536,-0.00102743183428548,0.0136760627953443,0.395932280175153,-0.148746236047002,0.255061308720731,0.332781079794883,-0.439735677585656,0.455913999437429,-0.361323085656001,0.430054545922985,0.166738974413408,-0.454030429987448,0.110090208779561,-0.34092828262448,-0.0188023579255653,0.360304088143501,0.101990555285699,-0.224117195542474,0.475638221625909
-0.0147975330424641,0.11508602095173,-0.0715626250273373,0.0513375017437696,-0.110401594947845,-0.0144347859097859,0.00684057792632661,0.396433680514855,-0.123883989358912,0.255492265565913,0.335690306017611,-0.439153816981631,0.447057960235772,-0.369786338921996,0.442451828425702,0.167039390787818,-0.438264154442592,0.116414992741848,-0.354427717248823,-0.0252383744995811,0.363064229326152,0.112799159329944,-0.214096912576583,0.480274291974936
-0.0317859292426836,0.0952130849598967,-0.056929637835829,0.0608021628857034,-0.072910621161533,-0.00681665808646484,0.00042898281983041,0.41435701659036,-0.153147126914308,0.235727811565119,0.327650932307906,-0.438658017612493,0.419408846102373,-0.363875468488026,0.455781252654463,0.162103790410245,-0.423270425545596,0.0896698101553858,-0.360039951451971,-0.0242021257965469,0.364452430134054,0.117186973106604,-0.216518983130304,0.509440110619574
0.171196327286409,-0.222593651405348,-0.0103085268301307,0.0312810254631522,0.0656363560019778,-0.0250746210398961,-0.0389171336910369,-0.0252635504488013,-0.266472972063631,-0.184666585139562,-0.101929736170214,0.00260708952628683,-0.339882315867757,0.383064487175888,0.0456860999662457,0.142566217404899,-0.481220868229438,0.172537193787314,-0.336015272012025,-0.19555631120272,-0.217726928921329,-0.159214568596477,-0.139286749818636,0.0252938919919415
-0.110283215321962,-0.0488725032443734,0.0230661636463973,0.234689602338388,0.0805268740443695,-0.166226388630355,-0.142196172848067,0.0881749232340798,-0.00833265130578122,-0.0572841484178993,0.0738962463652407,0.180606193665116,-0.0484884515740598,0.0193759624440949,-0.0186905270044453,0.036026890745649,-0.38045066479468,-0.265103580417927,0.170652883849588,-0.0205437270255813,0.227366281690206,-0.195597685998346,0.0982628719987633,-0.342419826140667
-0.124775217488886,-0.0207180128098484,0.0204337779701235,0.174915891629529,0.05125700091362,-0.21052347837499,-0.197722535363919,0.0663695689781138,-0.031513010278541,-0.0712549670007633,0.0359476857493789,0.163156675374977,0.0432601928708205,0.0673489374782981,-0.0529924186577751,0.0406568307183788,-0.371858878988841,-0.260902095383485,0.15142108841241,-0.0257758924391793,0.202557983052152,-0.237019429787033,0.105044423206358,-0.289914445077567
-0.122831949223503,-0.050801123755047,0.0466242668737893,0.154900243693488,0.074887615163802,0.0470112434454928,-0.0158472482101533,0.417098115415782,-0.182888892265906,0.143134622472213,0.105017734093688,0.360724590688074,0.206954032380067,-0.295168433543184,-0.435319359377735,0.0417190776231307,-0.372409687798426,-0.128857951050168,-0.330715582642616,-0.0224061408987462,0.287068645390962,-0.136407655648275,-0.26658359262729,0.553838624400818
-0.15770896030752,-0.0799754666824644,0.0355665035115789,0.114412390245948,0.0915605029802973,0.0202109739974725,-0.045388463364247,0.417035199666699,-0.190648488575982,0.154614115124443,0.145544638723996,0.363012101304023,0.180803257685627,-0.303667517160609,0.466932334673579,0.0457091960126554,-0.328109912963733,-0.125377895507391,-0.348167096978882,-0.0123551666791905,0.285111929242122,-0.134799184944745,-0.22786902030306,0.56463910635275
-0.125964419554611,-0.0401554898365322,-0.0028384010278561,0.0697409787705148,0.0389556930308424,-0.00583356192507906,-0.0431777241464005,0.423430964153719,-0.174837911059956,0.182503686361619,0.224805188642226,0.390584751905056,0.249171161872317,-0.337837568773554,0.484296443900219,0.0881222132045866,-0.339823780604624,-0.0443724448305481,-0.37416882017056,-0.0191019475946028,0.319012184813329,0.134151427060925,-0.20987569409208,0.563764459819749
-0.176788558788048,-0.106673533899905,0.0314509528040536,0.0865121600946921,0.105052119035315,0.00098604379491693,-0.0633805130357057,0.413718887451397,-0.189527160870863,0.15448187990834,0.159626090980845,0.352964352007593,0.152397857135262,-0.305653989183014,0.481228544993504,0.0412032887822459,-0.293872087086587,-0.128260680839291,-0.358407374944063,-0.0103109803981484,0.280700451854452,0.135295078218034,-0.204334846276975,0.568418210274969
-0.0360214625936362,0.0605713864065931,-0.0713728576680999,0.0157272843735934,-0.110483632923227,-0.0360062025796352,-0.0131797817395191,0.400788271963042,-0.0888216134856873,0.242063407507881,0.320385271128873,-0.428417671641131,0.402913967103038,-0.383657344978924,0.470713448922813,0.156384883185983,-0.398843843975733,0.108448547067284,-0.388501978538296,-0.0405922648127747,0.360187543977351,0.132111079478113,-0.198258472284258,0.503367654251024
-0.0652260747457948,0.0361812711777608,-0.0484771960334211,0.0407615323494748,-0.048058791680048,-0.0199212970466926,-0.0202777203195483,0.420507534321061,-0.143007312772025,0.218103117625692,0.302809996662155,-0.422831467463281,0.35842093437006,-0.367505196930625,0.480057162519002,0.141786091652334,-0.381413261160992,0.0584782718251463,-0.383580997474915,-0.0292859297690536,0.353812430670603,0.13212526054511,-0.204001506528587,0.535685464531603
-0.0866513737236108,-0.0324235882954047,0.0100714212575957,0.233512405807924,0.0602748601971648,-0.148385808013662,-0.131352650695422,0.0832840288649813,0.0322569258992687,-0.0417705842479483,0.0973426347459775,0.235955286495986,0.0679287624586133,0.0333582290173131,-0.0234295835455112,0.00748636857578529,-0.348818887597425,-0.26767380902155,0.13755518527961,-0.0720307185743121,0.258672712979147,-0.240297383208907,-0.133428107006517,-0.412089520933757
-0.164166581193743,-0.109175209132452,0.0758678899762888,0.156628489685281,0.132880124875832,0.0254204342488966,-0.0587896065821163,0.388125366989768,-0.191342055316627,0.120643342875356,0.0657500022432296,0.326287623581513,0.112326713122066,-0.27137852558326,-0.433460986116806,0.0033571775285769,-0.333584901033217,-0.194489068675386,-0.317349513077015,-0.0121757647933544,0.245763236154732,-0.132768401990528,-0.245385290349675,0.555697502802334
-0.190668885625571,-0.134057192119763,0.0612297617564336,0.108337128044139,0.14243937514518,-0.00150828196674806,-0.0809953440732219,0.39420776193987,-0.193747763385885,0.133547951816848,0.112517916470695,0.328474879705929,0.0982717353580457,-0.283566025924414,-0.464936624141052,0.0121311978798454,-0.28913219912004,-0.178678949431251,-0.339984409627623,-0.00877197354900312,0.253286096689238,-0.129820972550873,-0.208623082700706,0.565066340637704
-0.117785931877377,-0.0668922762650046,-0.0238371585806686,0.00712812902324253,0.0143195533625372,-0.0496249562430597,-0.0661174358842264,0.410176299399483,-0.133640622325449,0.175193919802371,0.247398105298751,-0.376301698007909,0.230786097676139,-0.363463024311737,0.498970918629161,0.0943788171766696,-0.304860591376286,-0.00488468469369353,-0.410173744448808,-0.0367114766260557,0.322980247487606,0.142791451115693,-0.179684631878787,0.569614038073161
-0.179808894806984,-0.134968393628573,0.0345697968466322,0.0548141067078654,0.118841923841927,-0.0331375521191291,-0.0901632739132609,0.399194447617846,-0.178235355530204,0.143163336918377,0.164793073360708,0.333041595995719,0.115315835690112,-0.310577109000197,0.485090659625917,0.0320829660885183,-0.269194212386701,-0.128474368059927,-0.371435007202567,-0.018309506262681,0.275107122264167,0.132451423334384,-0.185137969439454,0.57365633748183
-0.205068336848781,-0.176761862163547,0.067894345134445,0.0653215279733158,0.176762394359048,-0.0440674230689533,-0.114029525878195,0.380088062846728,-0.192209175385717,0.121365654215752,0.12724678176893,0.296056121659727,0.0433736342713206,-0.279470020764827,-0.472949060804955,-0.00250744417138837,-0.246217365956472,-0.188760870622014,-0.352690194218736,-0.0168872848966713,0.24629530835146,0.123219753660339,-0.18099540843359,0.56857588162471
-0.0796756073891136,-0.0178294521457258,-0.0298448337373759,0.181589330549075,0.0129956430747684,-0.139687325040915,-0.164843805880484,0.0725903413022203,-0.0963852865256971,-0.0284200458132128,0.0982121019142155,0.333376176644999,0.106852240763144,0.13946157417648,-0.0400923918627917,-0.0433318490894841,-0.270581111096323,-0.223749938757339,0.0304173237649658,-0.180741987037227,0.285176792136031,-0.35247123666754,0.229631668803336,-0.475879289413628
-0.0845193987748128,-0.00990601239262271,0.0149973336302375,0.178315681560905,-0.0085732041907441,-0.159138652456451,-0.190965978560399,0.0630568724428638,0.072150196863536,-0.0536214360111876,0.0635732142056796,0.276068464915107,0.0992208996146587,0.12264143602256,-0.0641957924212908,-0.0132939809517687,-0.293734686703007,-0.254342527318638,0.0601530421741665,-0.153743595123041,0.248055596602341,-0.335266214650642,0.202179608394982,-0.41643846992117
-0.0911010106518237,-0.0272892654008737,0.00884263000611708,0.134511072457688,0.0692813966808787,-0.126927454217364,-0.226288274461927,0.0249101329417873,-0.126661911354492,-0.0640629751490063,0.0356010630267571,0.317900827023691,0.152638146904736,0.246032517355899,-0.0847503830871836,-0.024509320011877,-0.231243207790275,-0.207689703541971,-0.0455665468107248,-0.246010938937214,0.213922265810157,-0.425480444513296,0.287569781690281,-0.408910663059975
-0.0966134600439907,-0.101816871643791,-0.0315298533339868,-0.0550498495545086,-0.00290231949485242,-0.0962857159669682,-0.0942406355692312,0.379369529155863,-0.0779299208895356,0.149927055446238,0.232093560609802,-0.341095780799648,0.193006388522986,-0.390377061335177,0.490605951628979,0.0822408981295746,-0.282720174188604,0.0244252036809365,0.447411647126477,-0.0699771945255681,0.321042683429827,0.140725011185085,-0.16575528529331,0.573086646701537
-0.185776314425857,-0.177106970067866,0.0562382004866541,0.0315182717846258,0.162763770265364,-0.071470232419441,-0.1237078788533,0.376100426912239,-0.178960205808061,0.115936982788535,0.150999525940668,0.290885373833558,0.0464865468798712,-0.297203945762112,0.475702631895367,0.00707277016488756,-0.243909126141986,-0.156638330623902,-0.374437165257831,-0.0298448978697423,0.259120729280796,0.12398180737062,-0.174074524550376,0.577633211218605
-0.149556266305978,-0.156252884181745,-0.0154819082008245,-0.0575146151688941,0.047486960741136,0.0211953023322653,0.0541188003546003,-0.0754447688919047,-0.24207653616309,-0.103226650580294,-0.0351633606218926,0.121594271481887,-0.285392793843727,0.404025886799685,0.00569190223753946,0.10263417357494,-0.541201460343056,0.0627284910247871,-0.333728091710297,-0.279388435955493,-0.190927290267425,-0.291520760080717,-0.16531042760735,0.00034368754643928
-0.181338245025332,-0.200970011514119,-0.0207498058376822,-0.0322650373070819,0.0546322265565683,-0.00876752856527905,0.0708213444056057,0.12731204249997,-0.193269016151768,-0.0627549596189974,-0.0848419759858824,0.0836052625140884,-0.339180079719719,0.450988297681358,0.0209737958029503,0.16979173510848,-0.561457563881289,0.0657695833393067,-0.324246558365517,-0.25000936429455,-0.19692929040552,-0.354094034445919,-0.146505948233874,0.0192805278943114
-0.199473494746643,-0.276946408919635,0.00381174475411541,0.0288331506431648,0.116283600189299,0.032435472890292,-0.040710637041232,0.242172500285369,0.0923125718212054,0.00368945853615778,-0.161342208931879,0.0367913914286362,0.416065638114755,0.493613890047738,0.0166094858350901,0.282179497824047,-0.564162898015525,0.0518205253011708,0.270676692109391,-0.169743081119407,-0.192956667753817,-0.442972137002823,-0.0817733050201468,-0.0160100881538653
-0.196335368668051,-0.292434434649056,-0.0058933275084629,0.0440728362823357,0.140613143768082,0.0476970242925653,-0.0188101620862822,0.271551993638939,0.0663103726148317,0.0201226835636014,-0.171294699443694,0.0345101005924035,0.425424603883094,0.490422244842956,0.00374166911330742,0.303544036447281,-0.557376849117593,0.042902139834123,0.247711661351509,-0.147525246194997,0.190065102263024,-0.456734117108598,-0.063044176916766,-0.0403842515930484
-0.0972818540084558,-0.0509764457501792,-0.0566105736953426,0.159620583547205,0.0391543245220947,-0.117484487104487,-0.189005753157345,0.0569791101520092,-0.131189095500956,-0.023387776070251,0.0839282272990457,0.356755713760107,0.14930473029197,0.236093312716414,-0.0433143306050805,-0.0501536188132452,-0.236331111081711,-0.167317512992752,-0.0431974314913542,-0.228869147396882,0.272379611814687,-0.40677345174239,0.29238344811172,-0.469770661348289
-0.0446190965212577,-0.0910864813656373,-0.180081907261636,0.0890048455909283,0.172434044617276,0.340842871669836,0.265482125448064,0.255279044015402,-0.188768671986016,0.0670157518461827,0.285244540702432,0.224158007403372,0.0559657251309595,-0.0965223854771641,-0.413447203358213,-0.18721830070186,-0.499107631203844,-0.134991788144762,-0.32513049905188,-0.0321767682610875,0.158391230439218,-0.144806401618578,-0.221664966661298,0.557813701077571
-0.121602901530638,-0.16609415214571,0.146269250330027,0.057176284922074,0.224287807601076,0.208773876421088,0.229453935862539,0.306376877324269,-0.196587090288018,0.0659751284030597,0.177360170866948,0.243424201011742,-0.0468599196932482,-0.21341805894576,-0.434915597607272,-0.049468558535297,-0.364090818831157,-0.194746650916118,-0.344348904377069,-0.0462709374507512,0.214439191745856,-0.106436948970255,-0.202120772635975,0.589145643516274
-0.110221879111008,-0.173522304183716,0.0438041480986916,-0.0522388601252899,0.139496966976147,-0.158833688831098,-0.169451823502873,0.334136024163642,-0.14271595637306,0.0749423985286999,0.188238032631266,0.256918401914525,0.0289877698494393,-0.339264215729279,0.450358618405693,0.0192552707459469,-0.262434923049114,-0.0816107554039167,-0.422269752497964,-0.0733408468494142,0.282867807634046,0.113693222911223,-0.170569073825197,0.602926378036815
-0.156475798850384,-0.189133454261433,0.0869084886908262,0.0148032612687029,0.196153824088904,-0.131939056796627,-0.170810894132333,0.344064931999625,-0.180493725546178,0.0838420911450103,0.155853601184529,0.258491274587201,-0.00365077117358225,-0.284455239521574,-0.45476144926763,0.00321253683856843,-0.266726808792241,-0.166425258012037,-0.375214701748796,-0.0479209481294517,0.251923781485867,-0.11015918230175,-0.17814709640603,0.589854837817358
-0.154034312125419,-0.176496372135875,0.0402201833930385,-0.0153804903254299,0.14055324697108,-0.108320127229228,-0.137580609123744,0.363830313014917,-0.155853708826592,0.103215784637404,0.174591159134332,0.280046329929539,0.0484812141310646,-0.324195513631466,0.471984008374008,0.0165370594271715,-0.242662457946256,-0.110697292531884,-0.403966467287944,-0.0501952776204488,0.274508743860754,0.123237143458002,-0.166662374155753,0.588350406747645
0.135456740954358,-0.109580774480636,-0.0305294706202671,-0.090466278375437,0.0279201653875583,-0.0524834690339519,0.051060771255558,-0.0694128305704954,-0.276407783475351,-0.12116914380446,0.0337836765376347,0.134972858167698,-0.259008735803169,0.400234066833958,0.0186818269231711,0.0642608930721978,-0.494264606077434,0.0709732103240138,-0.360551719512499,-0.297799750556457,0.193683720020193,-0.271426945054637,-0.164247425598012,0.0169412523368428
-0.168801324937392,-0.234613162684401,0.0433748436642417,0.00904286641453081,0.0857152757317802,0.0145367634402166,0.0682271720310254,0.206592749839685,0.124114629175809,-0.0230840244104301,-0.173266217756983,0.000419832849846351,0.383559040225307,-0.489540110451482,0.0500790133348812,0.252782988746506,-0.545372248951764,0.0435591227552885,0.299975113657893,-0.156495245896744,-0.203716223627415,-0.397991384210896,-0.125480429970155,0.0613416045850894
-0.0285020899572703,-0.100711358906406,-0.166371534650595,0.0298718469737803,0.158283017939279,-0.409322634827646,0.309971106737013,0.238068236316133,-0.174479453173508,0.062218717653076,0.337273972838935,0.214089842374552,0.0786011106812283,-0.0915589162149743,-0.424124040810997,-0.22594160337118,-0.49463142424573,-0.0913834462577687,-0.350063758936985,-0.0362180825994805,0.14966773723315,-0.137296729908093,-0.202758570119315,0.562110753700821
-0.128204137545947,-0.243132514799831,0.047331724067948,0.0521069016892831,0.114026019437814,0.0424861088635916,0.0390477025475189,0.240294058419864,0.0811220385433928,-0.0308644982875006,-0.1989090698071,-0.0416693382911709,0.38681435925699,-0.458784136983369,0.0600586309514527,0.287296357408515,-0.550195281102652,0.00773360228618465,0.267664036780377,-0.0866252149646935,0.193995245199659,-0.382460077013643,-0.142471794811857,0.0616477091463612
-0.144650962677931,-0.273099699609576,0.0172599244242293,0.0692824616757533,0.150107124926847,0.0632417895456366,-0.000519441019437454,0.274820110413011,0.0553120882832644,-0.00728876196758063,-0.182147289461972,-0.00910691382810124,0.403629060047304,-0.449803228547583,0.0180989718968142,0.312311264168729,-0.562609603507476,0.0051935959407535,0.233937393315386,-0.0859636499091429,0.184318880714157,-0.418454997127812,-0.116562254970832,-0.0118277631146371
-0.00901195863146882,-0.108618558947404,-0.136431001328436,-0.0294681656210473,0.145481364791563,-0.463439782390321,0.347799010253484,0.218081841941135,-0.169775682541835,-0.0526835173692759,0.379536113869978,0.203761634803392,0.0939723476218033,-0.112798118601686,0.428934320183252,-0.239617500827252,-0.479225415430323,-0.0429657385351929,-0.382555863259801,-0.0385302559413837,0.1451495228005,-0.127243123924996,-0.186633177872087,0.572761510396492
-0.0563428856829316,-0.202700018596923,0.0555923914537819,0.0830863293831996,0.107409074175356,0.0465829431409359,0.042270275407082,0.241518393519484,0.0758507021282793,-0.10358450594329,0.21593210825607,-0.0985711189530371,0.361333051394985,-0.413817154733649,0.127299339599615,0.272943774995879,-0.548951238715338,-0.038139595887369,0.270126765272443,-0.0203143421313789,0.175497642971485,-0.30335463837524,-0.194717983006477,0.115829924960124
-0.100608803469943,-0.243736357904007,0.0364069766325215,0.0811872581982925,0.136967123326548,0.061157594420925,0.0106214909084957,0.262057590779679,0.0605324940003574,-0.0498484790758405,-0.194900006048332,-0.0504178038350253,0.382655222852053,-0.424384776425889,0.0585375265213716,0.303179330659645,-0.564856671802621,-0.0195275574264567,0.244067227618132,-0.0468989418713309,0.178038785163345,-0.370058117483295,-0.163688203381232,0.0381776940872644
-0.0961339348118766,-0.250754049157684,0.0138401260674209,0.104146489769579,0.155592911113662,0.0778701583296986,-0.0308336421566976,0.285344189909126,0.0448097376153289,-0.0522829559282562,-0.165864530473492,-0.0154374719133099,0.391727615187732,-0.395962769705394,0.0347551067638851,0.309195137345164,-0.582873595146284,-0.035634612802952,0.217820994197559,-0.0530837784359326,0.157825809960589,-0.388324319238538,-0.158978907645838,-0.03439168079774
-0.0353584216042824,0.142661735747579,0.00748625883146624,0.116169087534466,0.112376825882255,0.051110277758953,0.0188525459797144,0.289133767389845,0.0424167830671231,-0.230259472705223,0.220461812338869,-0.134200821161869,0.320797882598815,-0.329116967168572,0.21746141020057,0.251839806635024,-0.566952705949362,-0.106952367335359,0.263947545508106,0.0652573547950348,0.145122762664321,-0.187442727578408,-0.27147163458458,0.149650362895444
0.177451623030859,-0.0146588025231752,-0.0332133535838533,0.00369481316312008,0.214931787803588,-0.284992207612312,0.195330139632377,-0.02494610363401,-0.250023393251995,-0.192175374689966,0.287044613455559,0.0312561948094721,-0.390914101332456,0.487780582260153,0.0711974179370682,0.0975703876690738,0.0654856883507122,-0.014793727869808,0.197634522402145,-0.329956988303534,0.0132629533040527,0.587993311740229,-0.0446884492469316,0.0897401998639923
0.189093503987501,0.00497104802338815,-0.0827460303608693,0.0357273285407697,0.208871430059507,-0.309417635179655,0.172666329750782,0.00245740981881713,-0.250207572130666,-0.242882177202739,0.275157168195995,0.0364327994888011,0.406415595280639,0.404340925506056,0.0497795577643363,0.0880934197001578,0.111313114263334,0.0134467476631917,0.0982055190300167,-0.348956401056386,0.0139232569546828,0.559758527748877,0.0058022548779346,0.147183357410159
