-0.225869749581013,-0.109682303854149,0.197451223464405,-0.172340988088821,-0.224810544377711,0.365001702728284,-0.069628694037902,0.0553796034884319,-0.124989144977614,0.210788723691306,-0.134771811540116,-0.106963136269176,0.442340284445067,0.289066775689724,-0.00741396220941764,0.247720034390562,0.00450894330580556,-0.190162077665362,0.260791833797118,-0.248323250773772,-0.147739681363044,0.434184101908638,0.334588043633368,0.243454617321833
-0.21732188494911,-0.111799106216454,0.198943655626837,-0.154779071840743,-0.22986742790059,0.361117635147075,-0.0587048587596931,0.0523393883653579,-0.12840436258147,0.204096131078436,-0.133209602223622,-0.115239191468069,0.440927868585716,0.288793589051117,-0.00141349153227984,0.236155708746,0.0141667938378045,-0.168473266638499,0.267302988987338,-0.235465843608821,-0.14615898743331,0.436026738549178,0.325671091617843,0.244467922142413
-0.194634538096622,-0.113380589259722,0.20754553588396,-0.113080153848528,-0.239592321086997,0.358461519808688,-0.0336211064756353,0.049283890540243,-0.134447621181566,0.19410381713664,-0.127579058534594,-0.124809782964347,0.442901308281445,0.286178127554724,0.00747932278152098,0.201321568704442,0.0339522595618902,-0.106374253290425,0.277525895645807,-0.210657859117567,-0.137616411256839,0.428428410528323,0.313045260107373,0.252327187836447
-0.208814417153298,0.0823725240620317,0.171896783401278,-0.177246731350559,-0.212672401893656,0.382827860825667,-0.0445116495068347,0.0287121010467179,-0.17477506761451,0.194448645225032,-0.155390502208224,-0.0519152776920003,0.487194667306138,0.254706247381593,0.0419489690384704,0.275530441630125,0.0313266587052429,-0.187563028908993,0.189924008371314,-0.227608259712369,-0.19220928908563,0.422628543431518,0.314182422623952,0.285327005789507
-0.158905240370608,-0.100173688647898,0.18146918727776,-0.0907101293578566,-0.247396511280384,0.373035290580649,-0.0157987967027807,0.0129421460343576,-0.186918368991077,0.161632450030579,-0.121278617302017,-0.0734312358042095,0.483967234405738,0.256556877201592,-0.0517230246982475,0.213261673412273,0.0810898724181374,-0.0803670754353685,0.231940845511821,-0.181617621302662,-0.144140999182033,0.420736432677001,0.306204171473797,0.299655005746326
-0.126772581080755,-0.104319005043773,0.179894317078322,-0.0367803500572299,-0.259273524086554,0.367048595035588,-0.000455975953834337,0.0030121451137445,-0.192853960315906,0.142340697045052,-0.100964990656928,-0.0695721121209116,0.483611440742663,0.247615282317225,-0.0534373874143709,0.176876933711339,0.108145114443236,-0.0138508770157679,0.24025120583568,-0.157130797356024,-0.114751778240026,0.408129776703534,0.305466830104913,0.310012459329376
-0.237282412156463,0.00960720680862073,0.13597482502311,-0.254178257451073,-0.113314957753776,0.411325022430525,-0.0286889959958688,0.0288876360964217,-0.202235745404069,0.249989705361924,-0.226348736393886,0.0757820558304605,0.538174312989641,0.193015088985141,-0.0665739375681695,0.34965684809477,-0.0133162295902862,-0.235482111275759,-0.0113831395559491,-0.24442579560154,-0.289324022859731,0.352901275390347,0.308886608109502,0.322455476410229
-0.223460454274517,0.0274454340749672,0.138040718198129,-0.230330784159236,-0.154379467627378,0.404704076812357,-0.0252951690544035,0.0195082666204059,-0.208955250676264,0.211751453994908,-0.204358320183391,0.0283201674527837,0.529809027574572,0.205545509907774,0.0806938518115745,0.332201290849963,0.0156543032788122,-0.225336090086742,-0.0639582206849926,-0.229530792521463,-0.277867294404946,0.383269161019914,0.287904318281469,0.310829711445333
-0.209438874475637,0.0396344257364254,0.138721392584163,-0.211770643348584,-0.180513793869494,0.396524545996228,-0.0216116954882744,0.00940263265007563,-0.21790273934758,0.18686340211735,-0.188443504573179,0.00508480416471781,0.523223056869133,0.211442574131412,-0.0921948595087474,0.31940444359543,0.0377138007752318,-0.213193632286528,-0.0943278932655071,-0.215680460483701,-0.264425745455934,0.399421674449724,0.27609736948756,0.307844033561139
-0.103217038908534,-0.099862799961703,0.178580948653615,-0.00274568629267491,-0.265162761197873,0.368076574024421,0.00695237441219311,-0.00376660427578026,-0.198560236231662,0.126955687201825,-0.0861341097800468,-0.0584017107217317,0.489272411378318,0.235484495509224,-0.0557169174926043,0.154508882775856,-0.126297496795834,0.0359291916843264,0.235319752821222,-0.142434210501866,-0.0941060984920765,0.390402144235961,0.309968534815859,0.320904205165552
-0.196101670085457,0.042673533505639,0.137682987670298,-0.193512497488354,-0.195997804255673,0.39649357403291,-0.0143291081785733,-0.000722360984393267,-0.233123012299146,0.173488914825253,-0.176729226344902,-0.000634391408580584,0.528714979404261,0.20903342902129,-0.104338719931503,0.310206791583996,-0.0577893400869411,-0.186963867123306,-0.102735375435107,-0.200687341799997,-0.25731525663726,0.401972237636272,0.268574342405357,0.315632086407414
-0.170230269782906,0.0628818528727371,0.145609954430175,-0.140401827881861,-0.226815173441525,0.391630939190254,-0.0116114102274791,-0.00915421837626047,-0.23668580086934,0.158891596735109,-0.147522492903492,-0.0199090639906167,0.526955112452804,0.216355082794519,-0.0963434185218853,0.274063627473159,-0.0866466835513282,-0.122819489412465,0.144584538924146,-0.181067834027738,-0.21185529989304,0.407172582501437,0.280971261290214,0.326873957286901
-0.125179130706691,-0.0820966337974196,0.156293118895327,-0.0576086279218791,-0.257272797826838,0.382355993518515,-0.00179190312119873,-0.0188159536923742,-0.234065278960744,0.134191398505034,-0.105688281361591,-0.0344270103100005,0.518464251458789,0.22005264865769,-0.085240932573551,0.213714934431069,-0.12438062956886,-0.0205186053596818,0.189203221494656,-0.148619572994315,-0.142828430410981,0.39719395472985,0.296178339978664,0.337637776130532
-0.0839872657838003,-0.0771000761969663,0.161142484569974,0.014284711438188,-0.267595056191424,0.378119964421549,0.00533560334785513,-0.0235227767439105,-0.227410873294762,0.10861904251767,-0.0732169744843929,-0.0277768593447763,0.516714804662009,0.203468194284681,-0.0747110411269931,0.160718467507486,-0.150489621460267,0.0829292162313137,0.196478940118925,-0.12173996603558,-0.0897340432826885,0.362633061851444,0.31067064926157,0.347235746191644
-0.250895694645873,-0.0734973469658787,0.0807433004332112,0.245445576494684,-0.000959809371722943,0.394569665511414,0.0341750154007402,-0.0114221189544817,-0.241429636300792,0.316348664812397,-0.279270259187194,0.159276497880184,0.564325847772155,-0.121845518517068,-0.100229781782889,0.38980377266125,-0.0172970289176048,-0.139751158047626,0.165939607116477,-0.188921049416403,-0.384221981838885,0.274201596622864,0.260037860233149,0.326222636337965
-0.245417190953186,-0.0559542557042353,0.0944159330664388,-0.256390450628007,-0.0398777046437788,0.416118418599017,0.0212786474351727,0.0183310832286881,-0.235463075061953,0.277943723525602,-0.265953225414167,0.128723048165692,0.567876782937438,-0.138666988678184,-0.105484327858655,0.378676884131491,-0.0116626431438248,-0.183517679925417,0.117464004317827,-0.205716648391376,-0.379790991748257,0.300684903604281,0.251281387297013,0.325021613827047
-0.233313634791224,-0.0356829900846165,0.105456996737989,-0.251765926941337,-0.0882421643384371,0.420595322050915,0.015386904616976,0.0127570500152515,-0.241873578026406,0.234868147751348,-0.243841310754522,0.0874059215313529,0.565654946697611,-0.155742967504949,-0.120467735070678,0.364664081099779,0.0107245594646212,-0.200014634740856,0.0596418078923188,-0.204655981575512,-0.36651677392861,0.332731974683729,0.237905163520085,0.319682052327623
-0.211542300918748,-0.003822672025215,0.117478197519287,-0.227545690166495,-0.146807607584081,0.413010630365081,0.00747055638303802,-0.000328844289394337,-0.253133589844232,0.192564391710916,-0.211138491498097,0.0445070178236543,0.556876115666797,0.174236809948158,-0.130579856312418,0.342309326318634,-0.043566835167302,-0.193471229097846,-0.0114232225774394,-0.19562760084788,-0.328486501612293,0.366979899069217,0.236625606160027,0.322085551135194
-0.184818522078787,0.012356132762592,0.119395287731514,-0.18828746865274,-0.186706418005088,0.409666467120257,0.00950282552572884,-0.0178590459187024,-0.274781728177934,0.166009818834983,-0.182294239460452,0.0262637226750557,0.563058204129069,0.173239647906827,-0.140795688876974,0.318174790931769,-0.0808126074517159,-0.142228689017486,-0.0457018642625461,-0.172305155970401,-0.296778858800031,0.374713487559046,0.23566461103949,0.340421703726
-0.149215875864183,0.0261279491617537,0.128984090959246,-0.12411034831974,-0.218616929429497,0.406468766612965,0.00767418643379744,-0.0295531633598771,-0.283876598194973,0.145581238328672,-0.141898095537399,0.0105843358107492,0.570677515230668,0.17163682080089,-0.13375034244362,0.276227054349625,-0.119435568993978,-0.0436873961298275,-0.082433457030442,-0.140033960663554,-0.238697922185901,0.365933008259909,0.252441430702323,0.362578433299608
-0.108592203746334,-0.045937336511292,0.139388098099481,-0.0434662297625633,-0.25031645613939,0.394507412490298,0.00226363479173688,-0.0364651196655471,-0.269227055763331,0.120817378037944,0.0967130104715934,-0.00540298327022653,0.554266283473086,0.176566027807324,-0.110767810261975,0.219501956305954,-0.148237191092754,0.0501258408949715,0.133345531566744,-0.116060212684779,-0.154747625333725,0.354586806905348,0.281827521303968,0.367680068263851
-0.0832326064945545,-0.0343334645923826,0.147219908219724,0.0182747290198905,-0.248396027063102,0.388810124051093,-0.00514915368688565,-0.0295816098650918,-0.241655239039045,0.104146660516004,0.0694392202537504,-0.00620634546269796,0.548197327193624,0.162957862977047,-0.0838666416881345,0.169512246526967,-0.156383340416818,0.143661037370744,0.144527235131066,-0.0975732706936463,-0.104122199839717,0.320365119084932,0.301027470010587,0.365590614411461
-0.253075189486174,-0.132191187308467,0.0434386157071124,0.223511732892028,0.0660757817525457,0.371762084523851,0.0716549861863146,-0.00416953596666782,-0.248217129810871,0.340457916420658,-0.280229090347082,0.159096148096609,0.555808790681423,-0.0994302745668176,-0.119094107242006,0.389049069080568,0.00967885740553361,-0.0443793127399359,0.236990692026759,-0.134066772081075,-0.429134468905049,0.23744506361446,0.208166528176519,0.283394818107246
-0.25122243829128,-0.1213205135394,0.0556659038292293,-0.244682285558974,0.0395351017171967,0.403995186134876,0.0679474126473224,-0.0135613422889065,-0.251595461895689,0.308888794027748,-0.280778655221597,0.151773184696465,0.572406389796432,-0.103183526227086,-0.130157222377807,0.386388804721584,0.00262840653763637,-0.0975115201055712,0.218336486616124,-0.153199332307005,-0.446168875197773,0.251169739443269,0.189606980300143,0.29412898480487
-0.242615956538641,-0.102372365546881,0.0723611544097615,-0.256641926414309,-0.00656265842512936,0.422791987121272,0.0610784955687108,0.0128568140849814,-0.261474095754449,0.267511457649909,-0.269692779301309,0.128550776140933,0.583324104709232,-0.113474179084907,-0.14717114850329,0.379630818800717,0.0112097843156636,-0.137072268904338,0.175673945181486,-0.164917759877917,-0.445274487180842,0.276033101329934,0.178958655983752,0.303484462410177
-0.224581533311642,-0.0792208822916292,0.0855276528630402,-0.253978231996937,-0.0592713820542425,0.428220538180229,0.0554213698387701,0.0034763618098918,-0.283951367688004,0.226041097541491,-0.250446908656545,0.102031201648223,0.595368707641823,-0.116630955165155,0.165620765219295,0.366566151337163,-0.0363355816596327,-0.143669290444836,0.13064110490295,-0.162430835552906,-0.434807078625313,0.298186788343236,0.169422717327228,0.323601606763206
-0.202764652954776,-0.0439093246451443,0.0999553061335895,-0.227675830486435,-0.125717447782615,0.425758177955317,0.0387648845783115,-0.0126093198906682,-0.296689398199143,0.187779720916343,-0.218325069759139,0.0680714519278738,0.593033277835526,0.132058996403782,-0.17102871871741,0.347184590175353,-0.0655629399627476,-0.136407127708498,0.0583906985840381,-0.15945065408066,-0.384735440241275,0.329176006231504,0.186190869288235,0.341389542344448
-0.179118119337578,-0.0246502842555193,0.111019564382787,-0.188266441591188,-0.162835838081656,0.422449561037644,0.0275668924669292,-0.0228661936217636,-0.304849924327858,0.167495673048527,-0.186408813219719,0.0471238354720463,0.598998844877461,0.136888750361884,-0.165576579892921,0.321091950291325,-0.0952555346907307,-0.0806759406555862,0.014272105175993,-0.141775539262166,-0.33688499908877,0.335844472133429,0.204641950409051,0.361490630708764
-0.245586075217187,-0.178293397583351,0.021990247480727,0.193187305665959,0.124111924745351,0.326516609957635,0.0881721018648507,0.00256776907558108,-0.241601788911991,0.363875797924727,-0.248685170757339,0.136495799350584,0.513910907402334,-0.107103788236378,-0.121955094206914,0.363760838259446,0.0582008851173118,0.0641467757344408,0.261552010940484,-0.0794014388436099,-0.423673012745127,0.217612817704724,0.18385157299537,0.221945484229849
-0.246418304200856,-0.171951287352078,0.0283841155081604,0.222349222297118,0.11479799986101,0.368897911903504,0.0995250195041007,-0.0140671629591466,-0.254928873086479,0.338689841589453,-0.266332188199944,0.152061467898971,0.548048796036086,-0.0924427197650773,-0.135355095535911,0.371121424594389,0.035573904374747,0.00761750979435375,0.279477266385581,-0.0977901591962971,-0.469717268285747,0.215306159323749,0.146290783025549,0.244412247424675
-0.241164813263909,-0.155569294462459,0.0458927530938866,-0.247121789287344,0.0768214846429739,0.401285535397981,0.0993698475278373,-0.0191094257423035,-0.269565179987362,0.300513813067535,-0.271827942941437,0.149049827562318,0.576575379309281,-0.0896746293901226,0.154763505983532,0.373533533896585,0.0275938370947862,-0.0475397050933755,0.261840157624784,-0.117081426030512,-0.490297288921805,0.228127989125296,0.129515215638484,0.268833913292131
-0.231615305256729,-0.132598067407974,0.065311062893585,-0.258873495381871,0.0268550095346751,0.419897991322382,0.0904117529514223,0.0161732842120964,-0.284964769654206,0.262743615502913,-0.266634741393985,0.133883334357461,0.597449172494036,-0.0917294139337218,0.170391276204578,0.37058568079119,0.0327163717834679,-0.0827948443481546,0.22453589928802,-0.130631059554449,-0.488567148721947,0.248111863340766,0.128423276264403,0.29593761105565
-0.0182594130594756,-0.0246082000252932,0.179122411322711,0.140866706884229,-0.239866151048316,0.358199088697018,0.00748387725618538,0.003022605298039,0.158769859695988,0.0546405604822879,-0.0313422783827641,-0.000820974136342956,0.490283432124373,0.15116810356003,-0.0256647038322555,0.0404319527174928,-0.158139724008704,0.275860686653095,0.174533247548448,-0.0992859376421355,-0.00493387608436662,0.25893867055103,0.347465647035152,0.324478558240638
-0.034118009340166,0.0472996215532322,0.170243342611607,0.162269937984366,-0.202497691509543,0.353487556666857,-0.0412663417514469,0.00926899875929262,0.113111267407801,0.0492908074507594,-0.0154511200408365,-0.00890610925925557,0.486525024949352,0.115638723977446,-0.00828340119318682,0.0316689920064981,-0.133179212528952,0.365352855408965,0.147799887454759,-0.0560499029697635,0.0187143061590653,0.195370233779541,0.343936924515679,0.297462099657597
-0.12975453635031,0.00859980987752527,0.123980722633421,-0.0911675838890431,-0.217618282605147,0.408613454913479,0.00589354936390281,-0.0368815311462592,-0.294450592770387,0.135680166796897,0.123181785173232,0.0188933725933183,0.588925267870917,0.145074920113818,-0.133731259109996,0.256043165080062,-0.13971798451605,0.0388079201163437,-0.0650828253608448,-0.110593576587718,-0.222319404814606,0.331892076051937,0.25015640891387,0.383045567324084
-0.116709048179944,0.00869180079816139,0.134763783528035,-0.0455260688896162,-0.208824453571253,0.406528968698493,-0.0082653827636084,-0.0285096760757732,-0.269295897890371,0.128137043528062,0.100118655583442,0.0113921925095009,0.592364099957942,0.131691940523505,-0.109788110640826,0.22031574134807,-0.143075097036688,0.127665355475926,0.0713980761101108,-0.0883222399108899,-0.185436349316281,0.299183835148193,0.266439411717013,0.383699298864191
-0.0878870217532347,0.0342093736323915,0.15740047902792,0.0557086304579212,-0.195128327341732,0.386512531126341,-0.0371261605613041,-0.00539123058939699,-0.18839104575097,0.101083271229723,-0.0534409133245518,-0.00957064581992696,0.558297575813534,0.119386890159622,-0.0505852055998113,0.133307580012431,-0.13429271040847,0.270136957486934,0.108222542185761,-0.0612446263741631,-0.0896278702142762,0.242414584329498,0.305357876527063,0.350362723400007
-0.117783283209204,0.134926806409469,0.15789791625306,0.101298839554904,-0.110170256306537,0.368649161637833,-0.115390666574981,0.0294921194914443,0.0755623651916702,0.10054088522062,-0.0183941549241538,-0.0387535986502194,0.535542519131663,0.0710609416125359,0.0107600593825917,0.0929549369324803,-0.0746646029246168,0.411738325549324,0.0849771202252833,-0.0015416002347625,-0.0483604205278459,0.138691899446307,0.294964870337665,0.288178799025427
-0.210492666984264,-0.0850463014850438,0.0880474520008561,-0.248289258826223,-0.0700475418796533,0.430676823533278,0.0640713404303464,-0.00323741936255426,-0.308017866504155,0.207803943535724,-0.239830776458541,0.0971664827676062,0.611956291696725,-0.102170540706998,0.184852669667853,0.357160171323674,-0.0578389302662231,-0.108907502156681,0.136637516841013,-0.142283732486525,-0.444518373260332,0.28853405390541,0.148144854646204,0.338226083737521
-0.194597306166007,-0.0761318869152626,0.0996724384282082,-0.225677717189161,-0.0904449307599975,0.429910756399925,0.0527696407966366,-0.00735567534968685,-0.315844970182998,0.195289320661149,-0.218563886987851,0.0829374082373793,0.62786898384561,0.0995795194003658,-0.179239257549671,0.338570318712626,-0.0798828798918884,-0.0575075206055674,0.11268600060907,-0.126086102017761,-0.417964163070218,0.286965243499224,0.160880141822047,0.361156820842288
-0.162970966706786,-0.0503127101273318,0.119226027391208,-0.152615422116763,-0.140856287556005,0.423130801976936,0.0137592968740189,-0.0166222058730954,-0.300848279686455,0.169368951360799,0.1636455611562,0.0477640051129563,0.634802635282391,0.105263254015982,-0.144801133793289,0.287503757575855,-0.113529374331322,0.0459127538119175,0.0336468935379889,-0.100497660448331,-0.321242564459924,0.286537893587146,0.209810117165725,0.391178182026807
-0.151823430309139,0.090659004265392,0.141108619721876,-0.076059843937973,-0.108728156245791,0.406966768910107,-0.0399012575958449,0.00284868804704866,-0.233463478806013,0.16086206435192,0.112162731560298,0.0169728418421013,0.638504470233404,0.0749383292265691,-0.0847078609988519,0.221889089368656,-0.109555741555116,0.219906869882694,0.0154707417914279,-0.0469055651700064,-0.248933569014148,0.215677864330003,0.239208327391929,0.386282745770651
-0.161059885763245,0.147285237536125,0.150750427236614,-0.00761726748654541,-0.0551955240670973,0.382052743210992,-0.10820686395232,0.0301513580246233,-0.128414491328873,0.154190490912991,-0.062772761793886,-0.0186878736983146,0.609296270959843,0.0472669135913073,-0.0149983930006107,0.162624036598314,-0.0720916543499719,0.354234366309455,0.00305821298179585,0.000293131144450941,-0.177342224515743,0.139407779066415,0.253478809769738,0.337871184585147
-0.185360677476773,0.207230178610266,0.150443907377448,0.0400509573556982,0.00817764213904614,0.351707960074755,-0.172395614610155,-0.0548961196982921,0.0204860199772522,-0.153559991928593,-0.0246417355452124,-0.0570473510005875,0.568619456540301,0.024118961405958,0.0420286130513787,0.127625246374417,-0.0194353505838767,0.442733532295142,0.0114952532620886,0.0435834396386302,-0.13005684385565,0.070450465931282,0.25264911342879,0.266013140680639
-0.224331153450117,-0.203044981008148,0.0166232946031968,0.190652178727526,0.176041081235117,0.304554310392874,0.114339191872273,-0.013179534039121,-0.255355141744853,0.361774960743568,-0.223556229727534,0.134251998008517,0.492311871949932,-0.108748015653385,0.128095094504969,0.333601349721737,0.0938104234150653,0.125776191878527,0.298936491160386,-0.0408708784269697,-0.44463037639704,0.199215481049914,0.129919044144827,0.180960390624259
-0.221483965702552,-0.188221197558653,0.0305338143370502,-0.227255800048814,0.155088121319386,0.349935817820275,-0.127219462454132,-0.0294066412687552,-0.276607316011715,0.32984199040097,-0.249739979512159,0.156131301253863,0.545504256614156,-0.0858493886253105,0.146333681980697,0.347377633634623,0.0663765697910177,0.0620451105192978,0.317397919986922,-0.0654138239837806,-0.496198408466842,0.195297940647368,0.0985045754722374,0.224660732501524
-0.214371674229276,-0.163790669326473,0.0541177829974861,-0.254994808888016,0.104335807814407,0.385254420994254,-0.121881349888418,0.0319782647406536,-0.295756146684032,0.288534092847842,-0.262297905709902,0.154884637706869,0.591411314820651,-0.0748459640163849,0.165166833935017,0.353165634698299,0.0558418561929699,0.00675289541053106,0.296097390875077,-0.0887488244407789,-0.51674551917731,0.206486676811761,0.0927909719160923,0.273444062483707
-0.206848074765144,-0.12407402537677,0.080934716817836,-0.262388764062501,0.0158715746004854,0.414879704687494,0.0896572496995401,0.0190760402842203,-0.311554467643104,0.241946016399131,-0.255022546349408,0.129986089744837,0.631449440606244,-0.0734495669152105,0.175411669310207,0.350753359102341,-0.05953319488753,-0.0361740434803555,0.225212647468093,-0.111610535565252,-0.495600383546495,0.23576513713265,0.116702063161628,0.334498927516292
-0.186311756461911,-0.115537673573983,0.10500256103534,-0.239389722723031,-0.00762274852245496,0.412667043435255,0.0508124056388284,0.0182823323549524,-0.30950970989566,0.220895312568852,-0.223551022343652,0.10798593596312,0.67316132613033,0.0517952993659736,0.151871951796885,0.313194532331562,-0.0828561706302273,0.0508981859780945,0.190844323972475,-0.0839822519061742,-0.459885826256771,0.213092009740612,0.137911827394994,0.388279050500851
-0.179760253547275,0.128523775878991,0.129324690138107,-0.185564555270493,-0.00571768388293949,0.400001133357725,-0.0121412378814211,0.0239903507312937,-0.259528570448781,0.209329321332937,-0.173502840801545,0.0680896927486618,0.686118829364317,0.0360024197348232,0.10121869009727,0.262778973417856,-0.0884340208675896,0.172264534350901,0.14385007985872,-0.0434829366875391,-0.391336091284594,0.175825201185754,0.17458559842517,0.402925112842171
-0.187737297234119,0.167319150268644,0.140824516996642,-0.120549351292009,0.0307041670834135,0.37625353827248,-0.0878923286320969,-0.0392654712832529,-0.166078294653937,0.204027288471846,-0.116215558555895,0.026953189381537,0.669148767139628,0.0145271813291827,0.032586804770805,0.205934688614712,-0.0652538343462723,0.297356880136877,0.106302442823909,0.00355212808697563,-0.314968119674352,0.114239451614888,0.199993271338486,0.373461699874509
-0.204334117556135,0.210791012284096,0.14416555381523,-0.0553131519009841,0.0757036991959413,0.343879591400294,-0.155256758929851,-0.055549321639427,-0.0595866955343582,0.199497131123039,-0.0646274135644958,-0.0188331035150184,0.626974045961407,0.000496839353642843,-0.0286251400614179,0.162146084513408,-0.0252802742055644,0.392734893685631,0.0731374338607437,0.04647958878041,-0.245919299441105,0.0566404374618686,0.216578261591134,0.307163669450373
-0.220677065003798,0.245677812423517,0.139030202043343,-0.00471995933385076,0.113206739277975,-0.318273269980938,-0.202905324087693,-0.0676523828853546,0.0295062484730665,-0.196666795379566,-0.0284200799648593,-0.0514439098164311,0.588456316770702,-0.00785805395191416,-0.0724164512902973,0.136400284355632,0.0155172388076524,0.447640970481128,-0.051450773900058,0.0744300744691036,-0.198991849922422,0.0128334335424845,0.226003301052828,0.239672368916318
-0.189885266406944,-0.212642511647883,0.0207265817469818,0.152879903737006,0.214573085412343,0.223483845555696,-0.112457410958534,-0.00897572401307726,-0.263200378279771,0.377875157795667,-0.16613960365601,0.11391532469556,0.415630178005348,-0.138710518220154,0.115455503458178,0.282046809064787,0.161915847165116,0.232712761745107,0.291192576482712,0.00494696869081329,-0.388533375142696,0.201289456848844,0.136244673170936,0.122001217345961
-0.184331529096394,-0.196955880582946,0.0287337784934364,0.197537370147615,0.214898631980821,0.271231335548723,-0.141496860917739,-0.0370080767044546,-0.291323855880865,0.353148938849229,-0.20867902064638,0.156015995000315,0.490218681154654,-0.101059636348761,0.129124769251508,0.306015878757889,0.123610776327969,0.175831863713617,0.342894121957386,-0.0174423699173928,-0.464142783930169,0.183105340675543,0.0915471697795523,0.177049983313632
-0.176623165156135,-0.175896155382188,0.048080398490072,-0.24019536571811,0.185705276317054,0.31364030540486,-0.149825569749525,-0.0507950394222202,-0.30946037893663,0.315991286901803,-0.241770149982777,0.174701457428151,0.557865644864478,-0.0735997723773329,0.145327456706807,0.319690815464759,0.0972462354694472,0.115653383781868,0.35455675416299,-0.0419995885985195,-0.512515406095778,0.174905880404946,0.0716023353593448,0.238070719867222
-0.172146493769841,-0.152395001659169,0.0702770225594081,-0.272908823183947,0.139777744140494,0.347449641174634,-0.134851171595072,0.0533731992614584,-0.321513810784087,0.28172413478946,-0.26184756763019,0.177239879985307,0.620648168489786,-0.0482001577029167,0.152953059565465,0.322790738132541,0.0809441972625211,0.0718009659092039,0.338543922275781,-0.0633898836212965,-0.537610351911174,0.171186095369319,0.0714692714098935,0.30768538825784
-0.167953915019662,-0.13664920591524,0.0981845366888724,-0.280028095446721,0.102484160421388,0.362855830423372,0.0947809207961818,0.0506731554256233,-0.31504206951361,0.255804715826185,-0.25561569340382,0.156640780272217,0.668963635071652,-0.0293897489366516,0.140436472094117,0.304860880949771,-0.0803780677539084,0.0837690896156741,0.300787654870252,-0.0618743560934484,-0.528050797417484,0.162439161305037,-0.0909587859070927,0.367248936618332
-0.170640218145653,-0.142961699412996,0.117814081291104,-0.260498622072805,0.0985823713754944,0.360219898061777,0.0317329098534032,-0.0502951293754256,-0.274589381690183,0.245870353729354,-0.223633612865893,0.128853049942427,0.70029068051735,-0.00591834564886482,0.0991183532161714,0.266677276438118,-0.0778102123798083,0.152504189214173,0.261800298426915,-0.0360207685262397,-0.491671298577517,0.128604092955833,-0.116761176816551,0.402166862009289
-0.18242620174076,0.168286680667735,0.129794792222515,-0.213804026852318,0.121019235027431,0.34421536953802,-0.0469620852835543,-0.0531633160740077,-0.195202272019796,0.242604834122212,-0.170496193002345,0.0907210879860242,0.701231444464114,-0.0120678641038165,0.0383106012932279,0.217125322397698,-0.0626285629898338,0.245823365305254,0.216309527572075,0.00392652255004007,-0.429605290483911,0.0812600948111207,-0.145757697856173,0.393323885704733
-0.200500956467091,0.20318264515772,0.135038824899717,-0.146849722704156,0.151360571528431,0.319140269480671,-0.120711856717682,-0.0581634477273264,-0.0959306055265929,0.237937372335236,-0.111105868918354,0.040575906738908,0.669829843505954,-0.0210439265022901,-0.0201334343081746,0.174123446064994,-0.0337042393435254,0.336107136886225,0.16793040084272,0.0466182656909423,-0.356660126299335,0.0346218733230215,-0.173113354586443,0.339628930602216
-0.218335556144646,0.236969585922647,0.127509309879756,-0.0790427941523221,0.185142942428141,-0.291520439573676,-0.177044818148345,-0.0620311336929067,0.0042239085596428,-0.235168490556779,-0.0604771395387264,-0.000366252701572759,0.630388860549119,-0.0282612651010172,-0.0694029873630682,0.144495046161905,0.0056032923899041,0.403551725986614,0.133426603463139,0.081905259676547,-0.296020711813888,-0.0131493446098222,-0.194513569940207,0.264398960404002
-0.228308310349382,0.255691400347941,0.125085104836593,-0.0221695196946525,0.172515582310076,-0.302387268466562,-0.211940903238875,-0.069065916164632,0.0586389023545508,-0.220826399577846,-0.0275187524372945,-0.0298674864093534,0.604360302703675,-0.0231651142652331,-0.0935904935134774,0.131318514803602,0.0321210065894767,0.440696680135519,0.0910831055693068,0.086914323022392,-0.236033322276709,-0.0240939528749813,-0.21351556190812,0.225208445855895
-0.138002881669153,-0.184926813450932,0.0449323216697998,0.156842677640515,0.23746765765943,0.181034894880118,-0.139791438578958,-0.0303664261590042,-0.326739585873606,0.368934758733599,-0.158589304544474,0.152473533779474,0.420567039717918,-0.132231242365158,0.118597003221348,0.258113191988753,0.190760890057929,0.276773544528855,0.342915348860617,0.0203776045938457,-0.408415181840987,0.197651561185535,0.108461275176822,0.134260696070568
-0.128462765616631,-0.1648488094713,0.0536841264020087,-0.212420568257207,0.231917812896431,0.227147226681297,-0.163577286173137,-0.0582339191791039,-0.336641497033273,0.334689711587904,-0.208640979416584,0.185024839714714,0.50697405282452,-0.0907673135639386,0.127434395073043,0.280969534896523,0.150279988479519,0.215641225989603,0.379957173564215,-0.0025824014883947,-0.477044885115518,0.17062437942563,-0.0726197084606865,0.202085053925117
-0.122079279821014,-0.144377025126579,0.0691061642568416,-0.259353314958888,0.209381281237364,0.262286061025258,-0.16438261497392,0.07165163370062,-0.343715145560369,0.304325146227043,-0.248010529224157,0.204274542502574,0.582679213405431,-0.0529838178664416,0.132148469852461,0.289664575677654,0.11977867568806,0.16486761513372,0.393705255880674,-0.0248129494617904,-0.526992621719975,0.149173285622588,-0.0557715638664964,0.274911827433795
-0.121438914869903,-0.127301354985381,0.0922122641855544,-0.289645831718373,0.182668763777614,0.284989302281293,-0.136878135728637,-0.0734147587645955,-0.334452139113011,0.280452672725776,-0.266302422503943,0.198148450181546,0.642811967607599,-0.0250634412501448,0.123204994555076,0.280181332366312,0.101915979536549,0.142421367415,0.377399603210711,-0.0329396753284743,-0.547494946852283,0.131067557882472,-0.0595533475984932,0.341722560936911
-0.131381577279096,-0.127522763946124,0.108379218103095,-0.296452619723729,0.174054654719614,0.295713599510348,0.0827414403957637,-0.0704790191773128,-0.298043942958788,0.270279462831606,-0.257233797498942,0.181588993243853,0.687792287569664,0.00354363003011581,0.0914664776139783,0.253404819933264,-0.0859366115575502,0.160886219843393,0.348500651948455,-0.0232812430218888,-0.541335500511947,0.099107737151032,-0.0743833883802143,0.38939156586315
-0.148763922028213,0.144213603610851,0.123886157990506,-0.271022268769428,0.187064071731964,0.290113081247601,0.010181166448489,-0.0656111996316402,-0.230257402288737,0.266799308930523,-0.2185352401814,0.145636615966086,0.700361225498553,0.01985290491016,0.0434856418629456,0.21223718723411,-0.0711570516346468,0.214812976722733,0.304271447936891,0.00677753663558548,-0.503583878915203,0.0629306239799965,-0.0996027175091725,0.395070659028139
-0.166293892267567,0.170932640513598,0.123303386001308,-0.223565816888828,0.221100926725168,0.270218485014834,-0.0629786469149679,-0.0600842223808613,-0.138904627934884,0.268307509988779,-0.164489751134475,0.114380547152518,0.689597961674357,-0.0349938731203743,-0.0157151079417956,0.164590698768243,-0.0474730879244898,0.281756278242727,0.265537546816818,0.0459903440900124,-0.45092158060639,0.0116539210191101,-0.121908948424328,0.362233665694551
-0.194792111588466,0.208902197222782,0.120434413304477,-0.148181909323947,0.226507059550364,-0.269074651345729,-0.127468156615422,-0.0569028952292288,-0.0492466005390392,0.259340471812076,-0.10479354738023,0.0595482437861743,0.661993728504456,-0.0386728676592798,-0.0543062927633036,0.14572499906776,-0.0163336617173049,0.352122151291903,0.209106764947464,0.0765484876253122,-0.379900253219037,-0.020053319476944,-0.157171366579568,0.301793252553121
-0.207587677942825,0.227273770214945,0.116313299436321,-0.109689612267243,0.23271894521554,-0.262964143657807,-0.157914390050232,-0.0563280846632782,-0.000549102867091932,-0.254503387442623,-0.0750066992244802,0.0332186966730445,0.641659803665849,-0.0403336871909371,-0.0743919409607577,0.136178028455324,0.00207262386919541,0.383558997786421,0.182573482518011,0.0916417686435342,-0.343476628535849,-0.0380112980900388,-0.172923064297014,0.264244719518343
-0.0897986835456573,-0.146965393474844,0.0700910507162274,-0.181099011610716,0.236799498649507,0.161096927238238,-0.164678146365833,-0.0502013132724453,-0.376019710889942,0.343585625173291,-0.181568639113245,0.187331025887211,0.464703044675024,-0.114093253894993,0.126360096564478,0.252485090175493,0.194098044412293,0.283855901198015,0.385796522683029,0.022959914517243,-0.443568843565424,0.187374590874931,-0.0831882678676631,0.176613808895345
-0.0755901306632547,-0.125512756886484,0.0786962417615931,-0.226126930736933,0.23134426042484,0.182558733152066,-0.178546196666455,0.0698824896060777,-0.383251581980469,0.318756514291464,-0.224294033501783,0.211753873190259,0.534042862856433,-0.0773824700319728,0.127504729674364,0.261660293434279,0.164977227850201,0.246680719693704,0.414111682086907,0.00754709670284578,-0.496040473279119,0.160616982034149,-0.0565227082775343,0.23760578596987
-0.069544579761696,-0.102527349572962,0.0950941167863964,-0.270303871265317,0.21694067437926,0.202518349705133,-0.169386459727032,-0.0778400084984058,-0.374884276280135,0.297121954919536,-0.260959726112758,0.217337431919778,0.60059667758227,-0.0444536556050132,0.120091501747352,0.257787382245263,0.138219728086618,0.21007190612891,0.417117562830772,-0.00209334740712339,-0.535787808421565,0.134162846915676,-0.0433893185858979,0.306371486593979
-0.078534688468112,-0.0948525967054347,0.104532798343527,-0.29717754972002,0.211058884904147,0.220501245785834,-0.133991889641213,-0.0771634119810175,-0.342472550922142,0.287869686136539,-0.276226171748472,0.214535338790858,0.657887423741071,-0.00878679149664533,0.094296804070283,0.239424935954381,0.110357173628143,0.196297658934725,0.405959002554486,-0.00237302393008273,-0.556813618038688,0.0966034087753828,-0.0423570840996435,0.364092208395654
-0.0997277073880617,-0.104411015649356,0.115854475347049,-0.292805324137587,0.218390221532058,0.230274553890366,0.0742961531802155,-0.0690465281927031,-0.282722199694915,0.285346141021429,-0.257926897739995,0.189948164199829,0.68586612660182,0.0128987652316106,0.0551215279414936,0.206578547507399,-0.0884317985565195,0.212831274333631,0.371987274938548,0.0152730733998452,-0.544976759286503,0.060747248133605,-0.0574940064156185,0.386796157749184
-0.124806091159263,0.129641157015643,0.115180609506852,-0.265666773796603,0.237720440412771,0.235183507774878,0.00715139722118593,-0.0606309010737076,-0.205354178131169,0.28430734392653,-0.216808460011857,0.166116328337953,0.694403030777978,0.0324903828627964,0.00771333011616027,0.169919642553735,-0.0658193654434144,0.248327487382443,0.334780171772621,0.0384347876110549,-0.510895130163743,0.0174708232748494,-0.0794505689172995,0.379052108763889
-0.139088911596755,0.145410459797542,0.116439257937404,-0.245896814291414,0.251251848900079,0.23271481046523,-0.0318644961597366,-0.0568208435118174,-0.15724428591436,0.281142958977312,-0.187641343580437,0.147635730278812,0.686019327684982,0.038382663746416,-0.018480404936668,0.14817827506616,-0.0544989576225327,0.266761174455039,0.308621838014993,0.0528194045639772,-0.484034897917895,-0.00274205747476073,-0.0936105102462264,0.363379839791101
0.0794394181982238,-0.00450050386640053,0.19141056088409,-0.229243699398715,-0.234946869696687,0.288095137754927,0.0442358327347311,0.0190604107924742,0.108897818323487,-0.0147285148484572,-0.0312912719840438,0.0560326192789755,0.411302790418452,0.122175111597281,-0.00578903440781947,-0.0874740070624776,0.190541804150076,0.350010958375588,0.150841382180741,-0.133618907549722,0.0573886789095988,0.196168518583197,0.410499320266234,0.28378429318546
0.0252513971083252,0.0520392460474896,0.17028271228558,0.227835922495679,-0.215118282244099,0.321472398230077,-0.0248705332276572,0.00945487525267224,0.079837864820184,0.00729147555416653,-0.00411325373333238,0.0232069228441594,0.428460493506685,0.118530112733598,0.00372991373014907,-0.0511633800192356,-0.151118171020153,0.404236864724923,0.161658495977267,-0.0641891726843865,0.0857892757504597,0.169636189594971,0.371988793594985,0.26380110854945
-0.0703867906541434,0.145085383978008,0.157045434821836,0.189705158743702,-0.133876504014879,0.347176921526643,-0.120466499713084,0.0291933748866427,0.0153301578056506,0.048446556350344,0.0142890711841324,-0.0360103253463108,0.463048454294566,0.0834719356297007,0.0320249190594134,0.0124418117390565,-0.0766667272432504,0.464242413781572,0.133995331405342,0.0063835436435883,0.056863989204328,0.113697393984689,0.320086227234005,0.232524099432713
-0.156403694583694,0.208610247775559,0.15181807435427,0.123255024757027,-0.0342112240669505,0.348422344464394,-0.182229524535702,-0.0554785048576783,-0.0259976523751948,0.107540296089117,0.00877754495682416,-0.072928582076184,0.508782050340058,0.0427770935197629,0.058419526859435,0.077670573229579,-0.014380121467632,0.482950788372976,0.074134945189914,0.0436820266921466,-0.0287221973734217,0.0681640884911194,0.27759863339939,0.219129990464468
-0.229249837343938,0.266412533735687,0.125158116500956,0.0262009706149918,0.152851150914108,-0.310849806911645,-0.2307968584158,-0.0726954763130357,0.0954815110974848,-0.203943860398845,-0.00613010435239672,-0.0502706153647697,0.583049218039117,-0.0131239612919573,-0.106148806289801,0.120341827147527,0.0484371562591547,0.466681453696405,-0.0552061711905577,0.0860423897269402,-0.18675470203421,-0.0252755624126628,0.233495936533819,0.191998521204763
-0.229589797067926,0.27603486747289,0.0994545044152073,0.0492815933729565,0.196322991349472,-0.295125920483934,-0.240066537252838,-0.0612758454848181,0.153445567255273,-0.2214958939663,0.00532719367941151,-0.029545170259974,0.600195441949854,-0.0197186735841494,-0.129880693079075,0.117917221716776,0.0774871490785083,0.468752089843354,-0.0832123651095959,0.0937602632337635,-0.202310772900216,-0.0740043923421198,0.256380058560055,0.137958095598051
-0.211007041947084,0.234960782240168,0.109804509635984,-0.0836790260174995,0.231198085688362,-0.271590701352413,-0.172218851763716,-0.0562030269030011,0.0249357720627941,-0.252045030137433,-0.0598037480702143,0.0283395677617492,0.64029340239422,-0.0409513865554215,-0.0874843417761999,0.13093246199807,0.0146465865656028,0.400253643372332,0.17120270808296,0.094050027445059,-0.322226228339943,-0.0499487023522292,-0.183361378679411,0.248331292192004
-0.215272078792723,0.247803232773263,0.0994052483056313,-0.028307602834536,0.222584563273103,-0.276649750582636,-0.187220227989287,-0.0539129451861305,0.07214674508607,-0.245950601133434,-0.0395980391372215,0.0116744702215859,0.633190144576318,-0.0395801155282579,-0.102549747019963,0.130936871219111,0.0420522676952962,0.434630768751811,0.152376353728524,0.0987022671974415,-0.286866984216139,-0.0716505146592275,-0.211434964232526,0.202334992240018
-0.199818002019558,0.244817609657464,0.0527260469379935,0.0275129417387995,0.251195742548023,-0.252615430140898,-0.170139182285715,-0.0271285815303123,0.138159548318331,-0.261053752120777,-0.0307350999434571,0.040605236944856,0.649852711702146,-0.0554829770581093,-0.121132757248617,0.138207777812393,0.0861106289393007,0.448171623642578,-0.195462375611891,-0.108189070254472,-0.29616477305506,-0.152147354781439,-0.249767683772863,0.118316861560788
-0.124083532219522,-0.184218664397615,0.0614901838152202,-0.11064706411805,0.220750740905589,-0.122891392926499,-0.111962641173159,0.00287417689781689,-0.342050014542909,0.383717120419331,-0.110356202475057,0.127237420728856,0.344237049355049,-0.173568828792214,0.120909304838496,0.221635784104143,0.242801111294955,0.331024196416072,0.302433994713918,0.0426886562081809,-0.339723185321288,0.229748779933144,0.150844917906279,0.0907665682597792
-0.146120151733429,0.154082359764775,0.11501537926411,-0.229747704299423,0.255506512509304,-0.232747228140285,-0.0468523540528243,-0.0538480391616246,-0.135923745779964,0.280662317144515,-0.173492630057523,0.137334900552072,0.682366330743846,0.0402484222439486,-0.02817625508836,0.14199527510856,-0.0479880687069995,0.281535647074066,0.297980067813193,0.0611461821979322,-0.471233243827531,-0.0122638608057063,-0.101087194350414,0.350314798247541
-0.15729880043325,0.170376291739005,0.107590478083264,-0.187824085941566,0.258387827412121,-0.23511280261732,-0.0646148645960147,-0.0473385730878286,-0.0997796934778127,0.280859506634129,-0.150229864601313,0.117796583845372,0.678908412732212,-0.0447883408535973,-0.0414492935584647,0.139249379080905,-0.032081681486403,0.32010739567463,0.285054666008207,0.0772347077163888,-0.449254467676419,-0.0331458082630177,-0.11704205142509,0.317809995501499
-0.179901269045408,0.204173069693481,0.0928210508381291,-0.107473965332308,0.260364974958551,-0.238964863359,-0.107090313711939,-0.0404131369151417,-0.0164551210316386,-0.273251686767949,-0.100543922488626,0.0771957792173881,0.663870020078797,-0.0535752873555368,-0.0707613554194658,0.135300993581686,0.00469157926833643,0.384143154358143,0.248501147405041,0.100038216534825,-0.393049657802428,-0.0742718082856509,-0.157240448812053,0.249818506203851
-0.160293156565547,0.203490357628982,0.0418619776664742,-0.0271197147416548,0.273587602128022,-0.227526579885026,-0.0825982199971036,-0.0161722756233123,0.0446145882708409,-0.276537246886127,-0.0840552422557576,0.099872264998541,0.678382252752834,-0.0803324990006494,-0.0900675185548289,0.140166387097462,0.0484796652955743,0.428068407443093,0.288877777222116,-0.112388413380286,-0.385665325194364,-0.162286616058678,-0.190321989705602,0.169334149039014
-0.137970655336681,0.194468108691306,-0.00711254054160626,0.0307105458345025,0.274099987615939,-0.204111289016962,-0.0486108231462162,0.0098451281475645,0.0951936037620415,-0.275454901907622,-0.0801980297852562,0.11998022749547,0.68249360157696,-0.106260806031894,-0.0933743777081556,0.160096666867557,0.0935044951148076,0.441453598235211,0.329301741158119,-0.115034344369908,-0.384017792943299,-0.247230304937845,-0.227912185622944,0.0875645905472431
-0.0904449413176858,-0.157009716013086,0.0859634787354119,-0.126427189848909,0.212986227403038,-0.125477674401384,-0.139641924340905,-0.0113486893128664,-0.405459942728843,0.3646141392423,-0.145686684020533,0.167110781656887,0.403512594705218,-0.15373502916945,0.142248827973091,0.232908178389186,0.233289900655129,0.3317565435058,0.362839956323004,0.040423334832543,-0.400673167205675,0.229093652012876,-0.117673412489824,0.131650512922276
-0.0524186982204485,-0.118033975887113,0.103109490349007,-0.173240525810679,0.210777681137568,0.128178805204994,-0.171138029774758,0.0405398043863565,-0.432758444134908,0.331553971276247,-0.194108418006113,0.190642837840553,0.477447573672541,-0.121899166388207,0.149259314862247,0.242336508963919,0.20980895376572,0.313039350523714,0.404670694098949,0.0377929806540077,-0.461166095783867,0.204283768755317,-0.0699001893279773,0.189597278944238
-0.0332017280323257,-0.0865403146898037,0.109707533513318,-0.223554330523293,0.207614152683351,0.138791932402886,-0.186947361387957,0.0598400135163524,-0.433956075590256,0.309676412578225,-0.244775626583012,0.208922439847311,0.549524154100733,-0.0816085445764333,0.143442488822418,0.244653987887878,0.177060620336168,0.280160341127416,0.431637144999123,0.0296044662377108,-0.517429814300608,0.168218772935761,-0.0324732016864601,0.255961700436255
-0.0320593763571638,-0.0619991414664037,0.116838019616372,-0.263546673827289,0.205614918657407,0.15087248211351,-0.175995380082201,-0.0631554748258633,-0.409405984660383,0.300994847060785,-0.279628152409637,0.210436715473945,0.607523953617926,-0.0485313822444333,0.123261312890612,0.231711846747935,0.146006330721571,0.249059959533702,0.43141635529149,0.0298407567171798,-0.55324887715481,0.131330059132542,-0.0138610776210953,0.317233847571995
-0.0477735226969559,-0.0605250536249674,0.113301946438544,-0.278947179063373,0.214996807003149,0.168246685348694,0.141599603812037,-0.0577322226709114,-0.358631303093571,0.302446176725098,-0.288458037078468,0.208982264389181,0.655404852580991,-0.012410004159689,0.0868495816124603,0.207236141137679,-0.113153585309579,0.241412053756585,0.422560789828721,0.0368947597903005,-0.569605275003895,0.0815103995674334,-0.0115986180099792,0.35792270222711
-0.0743097373804502,0.0811540703555375,0.105278878775184,-0.263952196908704,0.234312267691911,0.187123700314739,0.0884208656698789,-0.0473982268272029,-0.284554379174408,0.304842144341999,-0.264700674379265,0.19776471435153,0.683273542500582,0.0175413948390514,0.0413000777734952,0.175644386868173,-0.0839194746561889,0.259633280241041,0.400523752504541,0.0526032959903241,-0.557594548953099,0.0281727889304467,-0.0280671652040456,0.365824195572927
-0.111182251414819,0.120079229596219,0.100553240128167,-0.222882737205386,0.257373822928349,-0.205569885333356,0.0189909461823126,-0.038890652067988,-0.188104692456278,0.298924870811212,-0.211460239675062,0.167152328652634,0.686802815259643,0.0383540550725209,-0.00614573160978379,0.146496823830193,-0.0554188634769223,0.29247196119885,0.357673464537706,0.0727073954750042,-0.516052052757583,-0.0192753255029136,-0.0649330126736666,0.340434693543413
-0.117472333150875,0.137994282206798,0.0738550597891165,-0.14795626946558,0.272593747334514,-0.201625149895282,0.0114429319810621,-0.0190264038286595,-0.126453788351472,-0.299632865323489,-0.178376405494352,0.154712491895212,0.684697387018889,-0.0595325190951221,-0.0297376015158027,0.135925453098566,-0.0255344990554876,0.351325933890098,0.36305798942727,0.100130280316416,-0.495494093450931,-0.0794572844897742,-0.0858076711954214,0.278026818174747
-0.107484964924311,0.149028824560755,0.0309208171010503,-0.0722378770328212,0.280612939940648,-0.20092543474817,0.0233764745958452,-0.00173723256400941,-0.0671858529291453,-0.292615893178991,-0.151419670032287,0.163696081695416,0.694008148026087,-0.0919784145547136,-0.050102870480932,0.137157854555587,0.00951620170594448,0.402936678183199,0.388414261848016,0.11098062454124,-0.477299824270216,-0.159582006539465,-0.117235385972048,0.212217528269982
-0.0779422295348932,0.141561629911616,-0.0221149613802219,-0.00228950900283728,0.278747271063392,-0.178663609505806,0.0732566345593827,0.019636925830348,-0.022791184286565,-0.277807432907316,-0.143755260124358,0.184941328366868,0.695238364021895,-0.133790224088707,-0.0506642436107743,0.156151001828143,0.0518554382986631,0.43251464175158,0.439719333566459,-0.111576792134013,-0.47569716084492,-0.255349307911748,-0.14735731535852,0.13028251164817
-0.0658619702685938,0.143653088281444,-0.0618444213074336,0.049210874588229,0.261866289333714,-0.161879145200894,0.0886104865954755,0.0344749271631235,0.0360288947525463,-0.262043624769394,-0.13185658548581,0.183203842144884,0.686856618191657,-0.160948779242909,-0.0518011315354991,0.183903497886484,0.101098710821088,0.443365157199907,0.453381387176074,-0.106115181553368,-0.45084849696001,-0.333177757491359,-0.195447128464206,0.0518477900373444
-0.0594731050567582,-0.140154656940706,0.132482669933842,-0.102767101903942,0.163618367956746,-0.114277784540208,-0.1465372229136,-0.010102618682576,-0.484313293810765,0.340147822707976,-0.17097388229604,0.162743917732128,0.432855841708851,-0.1624405304718,0.196004954798642,0.235588518392968,0.236292130458612,0.359005686530772,0.396668083196863,0.0581819436206594,-0.45006286923866,0.259322197413606,-0.0862423670533664,0.136329210573127
-0.0263090392610208,-0.100541073152529,0.136738519301608,-0.148859285088765,0.163552200617986,0.111662730782464,-0.184126249456696,0.0194873263519518,-0.499216346336726,0.31543296873671,-0.221509902633183,0.173507913383545,0.49566076514049,-0.127226240397949,0.196643193781168,0.240525564522166,0.206360028733412,0.345646136166574,0.432581026373902,0.0589904341772045,-0.510436985368393,0.22423578965639,-0.0208878170105183,0.185466817028719
-0.00871192789080528,-0.0562389904039281,0.135237619978694,-0.199396055236148,0.166380737326226,0.109497044925103,-0.202751331359786,-0.0314906483092705,-0.487904957618891,0.308744649951317,-0.270270125476793,0.18159136791407,0.551445765006227,-0.0942934938410302,0.179594685304085,0.232886375158727,0.175141143932562,0.312509284758762,0.444550663284885,0.0632348226064635,-0.554087727097009,0.183638621283274,0.0220140158195273,0.247917400086282
-0.00901443713008588,0.0325344617213613,0.120231380569877,-0.230607284777922,0.176965138781472,0.120368017696719,-0.201087531440723,-0.0310227571480815,-0.45116459653594,0.313790554488761,-0.30498422317214,0.195408054345471,0.60606593492978,-0.0527987374669801,0.14637678539065,0.215246398686134,-0.138336316805475,0.289892554119336,0.454697565829698,0.0675996455505969,-0.586863111949437,0.126144263898214,0.0438767102734072,0.301497152284465
-0.0264971951058424,0.0314353803566991,0.107595818232186,-0.231793806785025,0.195716358291586,0.137080135462325,0.176684639530538,-0.0192874555283929,-0.391554006547779,0.322086840957232,-0.308437059328643,0.195548213055652,0.640157300290302,-0.0209324615146385,0.106723778129202,0.189570388370722,-0.106500352584752,0.284899288320505,0.448289450670682,0.0808317549633588,-0.595021645491703,0.0714081300263043,0.0410408208714638,0.325227783230924
-0.0461005765443535,0.0528018742453948,0.0847989370322788,-0.205151224252493,0.221383286265988,0.158945633762562,0.145945013028163,-0.00852070619924977,-0.317592178230504,0.324242038146166,-0.287167172726346,0.198626150031488,0.667215390545368,0.0166997158236089,0.0620938338888323,0.163421007550534,-0.0766130486821171,0.308148217281413,0.447238720036581,0.0925333722246676,-0.586603973199352,0.00339935492813936,0.0205927058014097,0.320900196414854
-0.0598557182169609,0.0756836503736238,0.0613712567171039,-0.155332412082717,0.244490017780163,-0.169951498216958,0.127902291261732,0.00409122329308648,-0.247117394004545,-0.31903961008394,-0.254913785753729,0.19542327128807,0.675359418545032,-0.048803617859764,0.0288624444367137,0.146455829617783,-0.0490716261008201,0.342400324939268,0.449601773409424,0.106458753755993,-0.569664682794374,-0.0607552232510445,-0.00642254537076557,0.285683284827832
-0.0579027024279831,0.0906745891040141,0.0286828930672218,-0.0952663119374292,0.260457426844569,-0.169275461548381,0.13482959992969,0.0161039912583174,-0.188251166746698,-0.307002419937041,-0.227006787875017,0.200642138865151,0.678878670469877,-0.0850054903337459,0.00744553801201101,0.142405591892951,-0.0200429094452887,0.380265054271074,0.469326477782065,0.114280820600694,-0.555879964226835,-0.132371094999488,-0.0344880505263706,0.233113442575259
-0.0355135689741555,0.0955196478179334,-0.0172115180842293,-0.0345590515802859,0.263112689307612,-0.16612936477849,0.164392412992967,0.0264811677865204,-0.141530772857264,-0.287080215259488,-0.207675208106935,0.220918597820331,0.686657352581805,-0.129039993801801,-0.00594663491908995,0.147742868260162,0.00992670445107004,0.417246016928815,0.508291091777337,-0.109371612423118,-0.544114457988074,-0.219640880857912,-0.0642993730570296,0.176233721419914
-0.0126696356758582,0.0910649268332211,-0.0506582285821353,0.00606053310506407,0.257187491283888,-0.151380668468208,0.200980622207502,0.0336757835710737,-0.115625136434217,-0.265438094480323,-0.200758157942498,0.234846342318231,0.681507420782325,-0.163938161457073,-0.00391913306314088,0.160990463042865,0.0354934470748499,0.431563190551161,0.541538049764746,-0.100804017673039,-0.539358986924649,-0.28393895480686,-0.0831411065141255,0.126836443786913
-0.0117683825697493,0.10228274031182,-0.0720188791431944,0.0361139336985186,0.249738727944981,-0.144764583949596,0.1972931996395,0.0356702374328604,-0.0668713440910016,-0.250419715697055,-0.184391369615176,0.22756605048823,0.679626286423884,-0.185053206307861,-0.00991113110279231,0.179925184419377,0.0682727972599615,0.442747685460959,0.541034259744406,-0.0946089280688892,-0.516578410605162,-0.334807800148994,-0.122585562280686,0.0795259497571981
-0.0168522247729031,0.0917872986079609,0.161704908670203,-0.104517313955497,0.107177730614607,0.105763346737515,-0.205202966064703,0.0112874131510321,-0.551973050094816,0.299991338032969,-0.243741389187298,0.126339318889177,0.486548295937959,-0.138336094664309,0.254649025736819,0.234073461862748,-0.188750797546805,0.374207964081952,0.444871641206439,0.0909468790604986,-0.562472011182824,0.244666509659563,0.063493597497062,0.14868556851465
-0.000607972910844002,0.038098597701462,0.142492317132098,-0.150463542830133,0.116092376971313,0.0988909626005001,-0.234293766715699,0.00874024244499041,-0.53532188933503,0.312741804794092,-0.295640367303432,0.143825458511656,0.532307233497038,-0.105814166634385,0.22769801522948,0.223065078562498,-0.156894126817285,0.340343378949761,0.45731006312074,0.102149555844825,-0.595771168734325,0.193814242630901,0.104228896783822,0.211410386337279
0.0023914570601773,0.0130795809291258,0.111477396054932,-0.169722193841898,0.132902204663462,0.108989311141093,-0.24593783551812,0.0151372218417757,-0.494269080361172,0.326835564455806,-0.330979446610871,0.169371760230218,0.579356431867301,-0.0615939378694794,0.18905718683363,0.205454800720905,-0.121257764656789,0.325154716185834,0.477565193483152,0.10964454750864,-0.619493975647674,0.123142940614903,0.117393440107516,0.257207034611496
-0.00223247391449039,0.012927426115849,0.0783516166250036,-0.161132584758437,0.157683399048681,0.1274437923058,0.244135068787127,0.0244057712709558,-0.435315220138441,0.334404110100868,-0.338752595114954,0.191982347172193,0.616715800478212,-0.0155958428714151,0.145112008102886,0.183416035837222,-0.0904873518139191,0.33282157881599,0.497720518319304,0.115699326982626,-0.626834528655283,0.0449127301192156,0.106215600022287,0.275303396514755
-0.010466587382509,0.0253524170279538,0.0515615379771215,-0.13093124317234,0.184999046649508,-0.1422210082609,0.238181257620244,0.0334375386866339,-0.37042748687357,-0.331233763494721,-0.323736105434179,0.203855272421777,0.636103895131485,-0.0254255488607477,0.107088244276717,0.165585054352968,-0.064211026474799,0.35110593861795,0.512556179097345,0.121619729702545,-0.621174959057454,-0.0265074155885413,0.0806054410582015,0.264432309472783
-0.00969763604693833,0.0411297555200636,0.0215636686553666,-0.0878198505631287,0.208195133906934,-0.149220396829985,0.243286073839896,0.0381431686567058,-0.309344734930853,-0.315911191586405,-0.300513959433141,0.216966238157477,0.646913441688567,-0.0702457639817089,0.0777749990569238,0.156258128118757,-0.0387065016066317,0.377979325511796,0.535681004293228,0.12059588521407,-0.611567130049216,-0.101903803103901,0.0495083124824583,0.2329181348636
0.00743141056097323,0.0527670052854982,-0.0184509746180012,-0.0406819186268972,0.220680826438941,-0.15292542374516,0.260912134244226,0.039000451957149,-0.254927434228704,-0.291886421694768,-0.276251794570644,0.238155520748803,0.658268298633298,-0.119285922368598,0.0532083061669418,0.153012835929105,-0.0146551405265383,0.410984051107703,0.569170506257501,-0.10908238499818,-0.597331804526253,-0.188275047502823,0.0150116943985358,0.192049850464214
0.025218731815633,0.0713641157385657,-0.073139261610348,0.0280108991268391,0.22914946217432,-0.135985400120651,0.274506375473072,0.0369643807080476,-0.150477030678773,-0.243485875288943,-0.228371893081469,0.250535083306454,0.662009803011396,-0.191307655557832,0.0267922646058083,0.175752991647385,0.0430057443091017,0.438906941311035,0.595215477241548,-0.0862026189226855,-0.559392667551119,-0.319303944383756,-0.0624181880593016,0.100643298427619
0.00973337415299221,0.0110146957012104,0.0847908369773894,-0.0972401455856974,0.0856695120532013,0.113294182526356,-0.303379180364952,0.0588827272224603,-0.526578710800757,0.329805539793102,-0.358500787146737,0.156076010166418,-0.539809983272804,-0.0556859103898683,0.236462568124079,0.202125334818019,-0.0948314938490702,0.352627107241312,0.509626449825223,0.139449180981234,-0.642978540068581,0.104378392662215,0.184252245968213,0.202333737426499
0.0182176231504422,0.0068546500435692,0.046620459249645,-0.0871005834027924,0.112030226634409,0.126932198242916,-0.317832947753887,0.0625431795723927,-0.472145339724865,-0.330745982126784,-0.369321936013926,0.187910663327618,-0.574640528030153,0.00332545317139741,0.193349917504247,0.186072509609027,-0.0698618541070795,0.364944614538279,0.544400883139821,0.137780680884947,-0.646714182082297,0.0168361826160941,0.160652622356372,0.218568160565279
0.0227360215373972,0.0125859042377202,0.0185009391338187,-0.0639664656020096,0.14017317677914,-0.135140518212306,0.326536834315524,0.0618634802594906,-0.414229235244652,-0.318495157630069,-0.358671114709585,0.208454083903421,-0.595110075162239,-0.0452173627279217,0.156548837809448,0.175194982642316,-0.0482740011865514,0.380840256843924,0.571591752903537,0.131878618665702,-0.642272551248927,-0.0601985102747673,0.127116470866339,0.2115003396358
0.0356014582989892,0.0251928832522178,-0.0125141633438373,-0.0292584797800371,0.159939130800066,-0.136881239698515,0.346567796526118,0.0556715691674983,-0.359889497264019,-0.290302552172252,-0.341427502439163,0.228699580572979,0.604587580999278,-0.100581623731311,0.131987074806263,0.172663281794144,-0.0247293766492666,0.403171492866329,0.60672284870482,0.116222398790566,-0.634987957989663,-0.143399221601631,0.0909344316464113,0.182888965425473
0.047192100703086,0.0342381192200524,-0.0412723186145081,-0.00697932678155237,0.182320215106403,-0.140213336768281,0.343249901688971,0.0464255919256053,-0.299819877842155,-0.268573686601528,-0.31001466894058,0.248349316016899,0.624609970584957,-0.142382710950137,0.0944060372679185,0.165917595506015,-0.00829472294967368,0.422680905654156,0.623718463055984,-0.0986093721925883,-0.615974273574358,-0.216360986888895,0.0478015266890661,0.160795084862557
0.0458036640975027,0.0179274034755067,-0.0034358227354478,-0.0220013371020744,0.103106447437685,-0.132379392075572,0.385572350344729,0.072299498670481,-0.4394599644972,-0.29640657105173,-0.383527290906947,0.210413369892185,-0.558442503573965,-0.0660949525935297,0.198209888623185,0.1872224565093,-0.0349032840200314,0.397947882409368,0.610679542670879,0.128379992090926,-0.649263063781257,-0.0879383499146961,0.150080521811483,0.172629560271079
0.139769009615839,0.00568992944350563,0.163546332379401,-0.261299331462487,-0.26047596987682,0.233452546832419,0.0612701399391707,-0.0185405465867525,0.121198896317519,-0.0315619841383207,-0.0604090187905624,0.112521219065329,0.356737046865202,0.128040911454736,-0.0354116339907727,-0.143139627083176,-0.226626291710279,0.360965996071322,0.141192490896895,-0.112658734438994,0.0985349539561063,0.182601054145037,0.430923029868247,0.271309936507524
0.0984858267486974,0.0434293844160077,0.158379874438942,-0.272780858429336,-0.245675630691367,0.275448022387775,0.009759320808899,-0.0159920645795029,0.0845547554933503,-0.0267216271432283,-0.017203560651198,0.0732028033366561,0.368344017017482,0.129589689444958,-0.0162519079712551,-0.12554310701177,-0.193370304367961,0.410605356122127,0.165230621676061,-0.0659563651420617,0.135249376482685,0.159429820257535,0.398757513645849,0.247265667878528
0.00807611649120936,0.131093317539662,0.14789011447488,0.25342300300762,-0.179754151836645,0.32175810840846,-0.0883706975485776,0.0039275578354027,0.00769699193341219,-0.00381386682983638,0.0211313493627464,0.00369513243760435,0.401754051288724,0.106874939731007,0.0169215500107582,-0.0727642108001843,-0.121211204276092,0.475315264144516,0.166779098035908,0.00676884693504023,0.136279604717453,0.109275980989224,0.346202542462464,0.209969815634114
0.0644390217397389,0.0275940535198884,-0.042401227780656,0.000979903544377202,0.147891923158665,-0.136115012874703,0.385325745032389,0.0508090016754813,-0.34651804671217,-0.261460065859234,-0.341054810865446,0.243368407822278,0.59501559691781,-0.137974793533051,0.133772936579999,0.174911555137236,-0.0123182996916472,0.424079314348744,0.643489823074336,-0.0972837343868342,-0.628226500578802,-0.203343798997841,0.0810007228114176,0.152739083630009
0.0724443425788192,0.0389743632211641,-0.0610466592379145,0.0201013109876424,0.155281981658701,-0.130989292278349,0.390627480426761,0.0406545262223622,-0.303543871183872,-0.236816232699963,-0.321499685325569,0.24810351634713,0.600045552848343,-0.173447147132645,0.120129338387559,0.183642436144646,0.00749967843280507,0.437552192954784,0.657033868291283,-0.0811138924995134,-0.615493747018789,-0.259619947966482,0.0458543714533956,0.12294731559187
0.0886609441271982,0.0493196325265887,-0.0889736912221459,0.0498451037132611,0.144792517870273,-0.117389201905747,0.409896806157216,0.0271407902077964,-0.255941138478901,-0.197789439670861,-0.30378653834854,0.243525137640638,0.586683666649533,-0.219811448769236,0.11422633544249,0.20318368524688,0.0383821857519916,0.452956149783958,0.674189288880133,-0.0555426707554362,-0.593297012457286,-0.333936298183342,0.00467504005056365,0.0701291147016111
0.0800643172554095,-0.0618322932073133,-0.110327354428309,0.0714597893446745,0.145979807234819,-0.108703883396987,0.391375805823355,0.0264455134942311,-0.195973420425573,-0.188129236072136,-0.280236897855665,0.232081945075408,0.589514592706978,-0.242741585660214,0.0933019790807041,0.220532382799515,0.0704804776768123,0.463673010666554,0.665430453394989,-0.0489839356286513,-0.567582748313754,-0.386115266781986,-0.04581593610409,0.0260090841235121
0.106158581549963,0.0467803372063639,-0.072474233647954,0.0362064618326454,0.0995513683324979,-0.117888231365232,0.457368669637141,0.0272430215326186,-0.34409534554073,-0.196286327066639,-0.35609465388419,0.226670739803221,-0.535588884170849,-0.193352399751986,0.176595024793833,0.202372800673735,0.00728429931715222,0.45004052500167,0.686776814455045,-0.0606997969916601,-0.614299931199468,-0.276316302664329,0.0713032876108994,0.0886418245681022
0.109320355276058,0.0477872586627757,-0.0913477273348333,0.0521243835666499,0.111426722651988,-0.109836443607451,0.452781938214608,0.0181528937638108,-0.294816991028657,-0.177470058478264,-0.329212583388743,0.229345774511995,-0.544496062524692,-0.225961372269204,0.147959007231988,0.208603290278447,0.0281523987649738,0.457879348983514,0.691221307770909,-0.044151322417175,-0.597632130654894,-0.329168732942265,0.0325879402548507,0.0614644876210078
0.126775171300944,0.0705120205636011,0.132241016031292,-0.300209512063324,-0.264797697401984,0.261044841815173,0.00534705408107512,-0.0536060512967738,0.0789129701893999,-0.0383648085493469,-0.0255460341722309,0.0874335960321165,0.324103079871566,0.145478883472305,-0.0465737355497125,-0.163227392399158,-0.208349432650095,0.434300395861931,0.176093686490265,-0.00828760125884407,0.182024664306967,0.139347101979274,0.379836849359582,0.221697803847732
0.117427208465694,0.12637101448394,0.109082437161497,-0.304105261011047,-0.255892599056683,0.272493436779147,-0.019971731702089,-0.0765075619092655,0.0529136191585097,-0.0403803681729232,-0.0424743751224479,0.0640031277146569,0.317927213454784,0.149720872664463,-0.0755175835460733,-0.166167288006177,-0.20194674197478,0.46401515533466,0.172090594896932,0.0625714473178125,0.179940771687435,0.112572213041711,0.342893090767008,0.194479875486448
0.0735388726880513,0.126342607562775,0.129540471983261,-0.290599640415479,-0.219446277583335,0.295460069790833,-0.0562600599113062,-0.0343800631261752,0.0202227944079485,-0.0342717332607914,0.00575959305205975,0.0406126711725903,0.350374815900223,0.129354186783813,-0.019805934791102,-0.135943391513742,-0.165631172142227,0.476850770564067,0.179959318200023,0.0303692383437034,0.183376542535345,0.104923069590111,0.3514105188271,0.196884193271508
0.101732083625484,-0.053716409999989,-0.104527145571689,0.0640925084549273,0.118737896928615,-0.105353110893546,0.438035108583125,0.0186092712604342,-0.255656114601678,-0.175521176649873,-0.312212232808429,0.226153794592345,-0.554198625705085,-0.240699809899694,0.128731904031297,0.217559940440115,0.0473950941868531,0.464977236983769,0.686913063711352,-0.041195076613856,-0.584809322768321,-0.361727759839809,-0.000442225628128887,0.0382618826327375
0.11974043887637,0.0528710423318312,-0.0772959147408152,0.0380112291355271,0.0801686041860238,-0.110713863194226,0.480422952140346,0.0172596827153731,-0.355847284114233,-0.177379228780381,-0.366185511155106,0.211683897592328,-0.50266298393612,-0.201674882569096,0.195756909938669,0.205404829730253,0.000424474827185245,0.456681744300694,0.692499837029608,-0.0523705571584424,-0.608104404457524,-0.282424484717609,0.0806655035031906,0.0770198723633823
-0.0928345309017757,0.155904872937495,-0.0265180866967955,0.0358382269640934,-0.170755668369176,0.273716248514025,0.098832147583511,-0.106892356257965,-0.134035444453746,-0.202152587157244,0.445288458612417,-0.0915918985376526,0.510611425744327,0.050449236469417,-0.136158705684971,0.124931832067747,0.0519497135632743,0.179775143124821,-0.136034648573931,-0.0243019300679546,-0.364029743263138,0.118479409121716,0.312705267259859,0.221686772896809
-0.0423672186228776,0.150919571589634,0.0175487262863853,-0.0888719543553601,-0.204503616255067,0.259358996332429,0.0846986436796243,-0.108481869363453,-0.164276237775794,0.159529203032621,-0.392294299654263,0.101868041928988,0.465968726919591,0.0907545332575809,-0.168404491934837,0.0660670939818835,0.100957373354919,0.21196058487631,-0.0771913838351454,-0.00404032543652987,-0.286311006017991,0.167670089607412,0.314372959912738,0.231073840654112
0.0244704783612572,0.144933682988769,0.0478360829186089,-0.168504134844281,-0.246406695260549,0.248212666969339,0.07375177031841,-0.119058698813726,-0.170851998906521,0.103337352215989,-0.32708827216308,0.0908388947048367,0.405814726425413,0.125982978555627,-0.189627680033858,-0.0101118059730429,-0.155419011193204,0.283725209751534,-0.00926387571416603,0.0365057447931382,-0.172299800108357,0.184115176578373,0.314127395934079,0.227935317915543
0.0874765168276282,0.133976265438427,0.0711475117091161,-0.235398021282304,-0.277586604808663,0.242864112518773,0.0578942116983313,-0.124940213183538,-0.154487771842465,0.0449893954964066,-0.245129527326699,0.0843825506319597,0.353651404594218,0.152815496562417,-0.185194077046196,-0.0858418424713802,-0.199679224946898,0.353215050837365,0.0615350011460663,0.0665277134174435,-0.0408801532350118,0.175197733450941,0.321822510760806,0.220035964400025
0.12203824987074,0.131997033682953,0.0829472485995043,-0.277965550380343,-0.286973645294449,0.247010083298585,0.0350828624865915,-0.123210832367243,-0.12342808625261,0.00172194034970995,-0.169936302916221,0.0774672716149419,0.319371545033475,0.16415694640402,-0.163972805077362,-0.137594831904489,-0.219303013744536,0.406388075630633,0.114108881913783,0.0871148081468477,0.0643482305836195,0.151766178188773,0.324236093416203,0.206711788514657
-0.0659952289792127,0.107374387314696,-0.0896838966858677,-0.106988927519687,0.0631041536298058,-0.146537977286137,0.184987039234753,0.0795868362728637,-0.00224061747520605,-0.299753209950505,-0.248371818914801,0.0968280740900683,0.604687723866858,-0.137308533400869,0.0283314642380998,0.298892847306253,0.209632523825046,0.455308372863079,-0.475815504231354,-0.0708190852751665,-0.43582547901793,-0.40249723597826,-0.297600265408475,-0.114977672902116
-0.202991258167688,0.264604082205251,0.0911199789849925,0.0249152679197099,0.204267377841151,-0.352992197207704,-0.311024663734823,-0.0463789633966662,0.245729064323723,-0.222833202893957,0.0625880644951561,0.0417940951887506,0.69050181289333,0.0431888561387686,0.191623430085159,0.0924844072508403,-0.0834470938745029,0.376126324379141,0.0716031371543325,0.000196452079873869,-0.185407824285504,-0.103030589486322,0.38477785102723,0.0755213059202385
-0.158319982840622,0.242195102576568,0.107010666689753,-0.00438220170298384,0.18686940817182,-0.385214738877139,-0.315910442442042,-0.0821157275310421,0.24104770759751,-0.1492083418208,0.0973905208129993,0.0565008981528296,0.72146187321477,0.0504447008506857,0.21805182653946,0.058536043314615,-0.0287221780983527,0.353884132468258,0.0390900804695011,0.0524556363331004,-0.153239676789097,-0.0751818941723449,0.400440822313386,0.116258184344255
-0.173274883679865,0.230597691746863,0.100052237598794,-0.00944709388741954,0.185585686929544,-0.363788256297226,-0.287288828813427,-0.0519932292650742,0.223205870028937,-0.212134224920412,0.0562588367517505,0.0682601680981797,0.726532190420997,0.0551979319438684,0.196437545631531,0.0911513828969791,-0.0650557206446121,0.350480361848737,0.0798080425438117,0.0361260450921769,-0.192944775078423,-0.104257238157792,0.412002753018422,0.0905766140163122
-0.190061955892434,0.228256173267529,0.0740464690435929,0.0116779191818706,0.187247734027264,-0.327256767355512,-0.249057240277995,-0.0138659428475821,0.21456996446552,-0.268670644012334,0.0107318659820583,0.0676922020903327,0.710539701072422,0.0392109522947248,-0.166131974528358,0.13012604799681,-0.111871429479382,0.36444601240455,-0.130588249030418,-0.00331118627754745,-0.232646341860417,-0.151788110048883,0.406540000610221,0.0487182531397138
-0.162294071571666,0.192103205677199,0.0902098159393906,-0.0233858182488877,0.159533521943654,-0.338917268545057,-0.221556170243806,-0.0227332259777877,0.182515436628119,-0.260658817492644,0.000720222935600791,0.0881480037582843,0.739621581910723,0.0575598924316898,-0.166912874409345,0.129217849708574,-0.0935650872058233,0.341729001259127,-0.132524834906916,0.0343316865421881,-0.237087077996554,-0.143569597737911,0.430984191666345,0.0644222321989713
-0.15471745133531,0.164860906894024,0.0590398705713006,-0.00452727444234266,0.129018912999955,-0.297044555017352,-0.136615638184205,0.014286820113795,0.14335974171456,-0.303412208394227,-0.0662970177911944,0.0890915128012376,0.725452368623642,0.0340556910350252,-0.121944259429886,0.180920568168387,-0.137409199878536,0.360034383367328,-0.202767089362259,0.00793803609197673,-0.286083428611649,-0.204763844610727,0.428464193445237,0.0148875040026075
-0.101274732521208,0.204210913146479,0.113319952098119,0.000575949748074376,0.152266476189333,-0.380701774661551,-0.273938300584864,-0.111114781817621,0.228237075033897,0.065431515879702,0.0966135841477287,0.0486705624390206,0.729328173933861,0.0367401859137757,0.219010647534235,0.042901160277988,0.0123885516383886,0.351967766612377,0.0194332600912152,-0.0792373095691932,-0.133988549416522,-0.0602650046624936,0.410034609259959,0.140902851597497
-0.137189639829568,0.228944982309401,0.10881459970558,-0.00857529958667925,0.177298774664171,-0.391559701114879,-0.306966401357853,-0.0958362979370318,0.238780071601406,0.116690464142358,0.104067775168418,0.0594357557076735,0.729880607912029,0.0468496119782666,0.225402954598522,0.0486917956925691,-0.01075763059894,0.348204841320219,0.0304212812314103,0.0688080611422972,-0.143237058512845,-0.0692295192012696,0.404385874022597,0.129395963687827
-0.0693036871469434,0.10584137655833,0.127001023264664,-0.0459533792791218,0.117612378015322,-0.36609340870898,-0.166997574026009,-0.119080395065197,0.159558359044611,0.117203414778961,0.0182193813977155,0.108262680828241,0.78414945759602,0.0528513970084109,-0.214096308977409,0.0876778688828097,-0.0248458346219862,0.302092486761678,-0.0785310850374712,-0.133902609990902,-0.195317740236242,-0.0776932018732419,0.45184692866495,0.145736952728902
-0.126478801433495,0.18130453224884,0.112468625455838,-0.0336496422841698,0.156169152462076,-0.37349444633424,-0.244072091210248,-0.0782640732954991,0.195610328687657,-0.170458847395236,0.0492172356257689,0.0884118591862133,0.760511203454967,0.0589990532593309,-0.206132050907006,0.0849983963944427,-0.038292250221878,0.331688029848752,0.0776192015438913,-0.0810127512206987,-0.190637698836645,-0.0949512177894612,0.433766388512927,0.116442231875564
-0.149452741101271,0.187043943647113,0.103471716108303,-0.0358938388016409,0.158706086434875,-0.355736165307421,-0.235077589733158,-0.0440424386837502,0.185033199841306,-0.230353591847169,0.0219243625124548,0.0919634968165207,0.751350159175795,0.0648155339828869,-0.18359970768424,0.109851140837654,-0.0691116711835138,0.332135876821166,-0.108748917416545,0.0570550339551041,-0.218822698866421,-0.120353508529623,0.435452967023628,0.0879050292428002
-0.0645183710060889,0.0673218260695506,0.123686585358187,-0.0694276434465425,0.0887282431787327,-0.337629117150496,-0.0983528709717457,-0.0793346549482966,0.0988632557316997,-0.193287332897991,-0.0377181928107007,0.130875642773001,0.788161724845101,0.073597076265682,-0.171991813190823,0.127017579280242,-0.0538012284431574,0.298078388081937,-0.131559422020855,-0.121763993718855,-0.239293168178721,-0.111791156348261,0.459389261990486,0.113060606900863
-0.118149911539271,0.123979563680948,0.0965772389786849,-0.0449912510258732,0.104427142956591,-0.325201032103654,-0.126482087920284,-0.0270425938862503,0.115705141195085,-0.26232860923412,-0.0496001799430893,0.105042389257984,0.760446500209145,0.0641866403320838,-0.142996577158563,0.155720952212654,-0.0930206346080035,0.334088849406912,-0.164868863834582,-0.0647344649084145,-0.264819179174511,-0.156050051240685,0.449508330725675,0.0605781036681817
-0.120250938135375,0.101588466862242,0.0600179786023798,0.018656783791007,0.0585088437589679,-0.271999225858134,-0.0283574325989176,0.0211588662875168,0.0601474600013045,-0.319119883206015,-0.131272459001385,0.0890309750939811,0.718087795602376,0.0381270808117855,-0.0780063547511907,0.220718885045154,-0.146784068115814,0.359728500600688,-0.244919728458039,-0.0276792686591997,-0.321790751395804,-0.221822099230534,0.435089811682216,-0.00879554039941183
