-0.148917469369251,-0.244092392192416,-0.144301934582286,0.0995754531382481,-0.361935968195287,0.645309221231021,0.232583959377128,0.21709173599626,0.0223574464245861,0.227589309308162,-0.1211645430771,-0.212541692712185,0.133685596811702,0.0718240849140717,-0.056976346706518,0.0746681135451426,-0.151605341650643,0.118520412629879,-0.371403479088095,0.17584403550394,-0.11065568869488,-0.235906824372395,-0.0492433775930517,0.0760892553200689
-0.158347300803733,-0.221418279634803,-0.139025666108283,0.11857330111246,-0.361015275115921,0.642205496611774,0.224745882547665,0.217313664606906,0.0236064308177683,0.215452718832681,-0.123197224783741,-0.222700450557842,0.134656709680914,0.0773197350305329,-0.053384438135369,0.100760731598311,-0.168365919741291,0.116590187598894,-0.347992703767229,0.185640207317501,-0.106468799034403,-0.215680624565406,-0.0646649277861181,0.0780654775334468
-0.251838536102444,-0.075655764227211,-0.0657719492648986,0.259390914692797,-0.286712211133792,0.531033833069551,0.219315963748047,0.308948466027511,0.119075415637466,0.127185060569986,-0.0734733657754356,-0.218056960367925,0.0381929868294933,0.104962800584131,-0.0951878449557757,-0.227077219323029,-0.211271404518401,0.0351134277914931,-0.147840560594489,0.233528050414839,0.0637522931408319,0.0220665426127982,-0.0863441675551084,0.0439227127172119
-0.245378500422958,-0.0574555802807989,-0.0623344909066076,0.263207813491274,-0.282446874132141,0.523304923789089,0.24005938658129,0.331604621796497,0.129116994624188,0.126365128730236,-0.0455997535688272,-0.212266712977466,0.0364607270113966,0.113408741461099,-0.108166487689315,-0.226506116642413,-0.19856670524608,0.00664371629740073,-0.12491247948784,0.241308405815216,0.0692089226999672,0.0447849660571805,-0.0750275978788612,0.0267071299111155
-0.168291460641584,-0.193884194652066,-0.129101945150719,0.136749139441325,-0.357741457202755,0.634886990919093,0.211745369267388,0.213208836932006,0.0256401299554261,0.201436874885447,-0.128190185700757,-0.232432472293321,0.128540766368693,0.0822750180290271,-0.0518875046603232,0.13176951233036,-0.183814800047927,0.112847915992,-0.320755847453149,0.199216736817061,-0.0975120719845561,-0.189721081880526,-0.0836464476223921,0.0834136160130019
-0.17383718355782,-0.167170023457433,-0.115899418548843,0.134328597420681,-0.344927691025633,0.618109909699179,0.202265459009761,0.204426635839325,0.0390094889640628,0.188356892741445,-0.137045669297936,-0.238129327385003,0.101994101614841,0.0814044147166259,-0.0676969996914834,0.163645756017358,-0.185768585509558,0.105903990092961,-0.297977644315283,0.223894890462344,0.0840019720231865,-0.157864749463776,-0.100631068064273,0.0917627412262635
-0.196199975254566,-0.129262633713495,-0.0922891426138879,0.17458641968922,-0.325487159704225,0.58974891390456,0.19178452515169,0.223932253614464,0.0593772497265955,0.165548610230823,-0.125596886583246,-0.240558530949821,0.077837188607754,0.0879659249857969,-0.0776391922834231,0.197700267646857,-0.19790696521743,0.0846487588123169,-0.241849863259043,0.232116996996289,0.0715567860766069,-0.0924175310222931,-0.106790935234054,0.0833420692109666
-0.211439626848148,-0.0858695078860448,-0.0730844533916401,0.204386639511606,-0.29742224461846,0.553469672257082,0.204313030684363,0.25822660145564,0.0941278897578368,0.144274929757456,-0.0951101313001431,-0.237530986592631,0.0475324022657147,0.0960289772483111,-0.1047201917946,0.224466375082949,-0.195383595580486,0.0490250130271366,-0.179844345539726,0.247293040999563,0.0650063509059299,-0.0192892024382551,-0.0965661890781009,0.0607640569129913
-0.157770086000984,-0.284655531217277,-0.135720130095854,0.101765371940306,-0.360647762590893,0.634625794710962,0.226170741857744,0.235678344614236,0.0287153370317761,0.230799829437418,-0.131514896912598,-0.187310174633504,0.110273089228423,0.059995613215903,-0.0502569082273195,0.0445841562077373,-0.143733054554499,0.122410500898526,-0.386229790595618,0.149801881113862,-0.105206663879646,-0.232236184324334,-0.0377501841560404,0.0689368792273895
-0.355356004055114,-0.0176320629081894,-0.0896152170930562,0.385958226573974,-0.242222096662549,0.443285418664233,0.325370028213751,0.492575364783035,0.191582245241008,0.0887442187848243,0.0102900481182221,-0.0829345439162948,0.015303684460446,0.193114389153815,0.00462021103056585,-0.234491604915151,-0.179653377303037,-0.108994598843707,-0.00431178847384579,0.204678251994439,-0.0806576666283466,0.127489223490595,-0.0517280336697249,-0.0355960934777108
-0.175157752665418,-0.230916772577481,-0.129226427579786,0.175650811228151,-0.362773107765041,0.632826917848682,0.205512322048604,0.24883125405159,0.0137996292999043,0.198497109079358,-0.113313120616823,-0.22101110358696,0.158485064199349,0.0791201927746427,-0.0201524462798364,0.096827967299954,-0.20152229418819,0.117450797196369,-0.310749253381533,0.142532251086454,-0.11530856152937,-0.185064199771565,-0.0655688955700172,0.0542014437775606
-0.161528445093405,-0.248192984176676,-0.138291324950267,0.129239409139279,-0.362119265273216,0.640958899529175,0.220768366234157,0.232495964935853,0.0192883864927425,0.217729505389674,-0.119922551298223,-0.212541771854541,0.139928906967099,0.0743915501354656,-0.0404524181119723,0.0764705851635206,-0.167564822949672,0.11866849822582,-0.353354759796626,0.155845972769743,-0.111290637959683,-0.217673458684547,-0.052404228419947,0.0654256972610668
-0.312959601623018,-0.0500289390684564,-0.0761706840249642,0.345874282909712,-0.257535682821519,0.480145354878884,0.271930945314801,0.413664747616519,0.172720658487459,0.102669390844471,-0.0314708053153251,-0.162165821924732,0.0263567842619063,0.139001696527161,-0.0523000966359743,-0.23203538984507,-0.210783464361072,-0.0202828407226993,-0.0710266247529897,0.206621887782573,-0.0658483049150328,0.090975242752741,-0.0630681706221984,-0.00963559289892604
-0.32350331667562,-0.0319894407707904,-0.0765427417235345,0.360205660975708,-0.250990830437912,0.463628171195353,0.298210242713771,0.450097397296269,0.183770496525181,0.0972901119209305,-0.00498631822270841,-0.133485985320585,0.020281521104434,0.15941945542538,-0.0418048284616654,-0.231380975730454,-0.194422401052971,-0.0615272896324911,-0.0404584393535591,0.20864528599375,-0.0720831547115759,0.114529179546684,-0.0556153623084613,-0.0261339217950704
-0.185148705855544,-0.21391629298255,-0.12448838140813,0.199819037852925,-0.359972029965636,0.625303673834181,0.200983752261314,0.257338318534923,0.0158313174933381,0.187749552125646,-0.107519525304214,-0.225331641016892,0.164215209934664,0.0827511005646488,-0.0143656661267156,0.112118581192461,-0.217871826792043,0.114121504786482,-0.28636197329118,0.142361561977255,-0.116283483340155,-0.164502210015799,-0.0720426683566472,0.0508914805492763
-0.193316740518415,-0.193399554454825,-0.123210570043873,0.191321988411266,-0.353546623559167,0.623016094696526,0.208855354608435,0.251304668632787,0.0318905972668603,0.187518732811965,-0.112806919072471,-0.227331744749612,0.139815079074088,0.0879190523210248,-0.0316234701997368,0.132411608682571,-0.207450510563428,0.106352723197153,-0.286484207373919,0.170844021341154,-0.103694614597548,-0.155667079572037,-0.0772965569925309,0.0621723962167853
-0.239727905662521,-0.138972230724692,-0.096076326704211,0.258242426170034,-0.326692165448895,0.577822309862987,0.208448925961758,0.293852862703631,0.07535470027241,0.154319883579478,-0.101039593618243,-0.218551739695395,0.101029431115329,0.0975921624596119,-0.0386494140493401,0.183949396408359,-0.229455673243388,0.0773647092229512,-0.20694005487751,0.188458231629251,-0.0827326944466165,-0.0618597046000033,-0.0869133673247899,0.0514903567500185
-0.265869547224969,-0.103215910256279,-0.0769929303837261,0.286606810070594,-0.302767596284453,0.542953488759135,0.215241425542024,0.320693725041131,0.108318776248439,0.133308196067062,-0.0853485072171443,-0.208947279246421,0.0661373678983554,0.104574746972376,-0.0565669601642576,-0.2100393517677,-0.229783082256896,0.0525250936970914,-0.160342369964681,0.203372463194288,-0.0688656685839461,-0.00130286971666989,-0.084672396665351,0.0427420982161129
-0.281241201840546,-0.072391435702679,-0.0688939214235294,0.304870253512391,-0.28055964158991,0.51429189989596,0.237592616433478,0.355469351893445,0.138971227986025,0.118694607125064,-0.0589040380394932,-0.195660364716876,0.0405850127442057,0.116394388210928,-0.0718593964652898,-0.225173782438137,-0.219189800346967,0.0191029537031678,-0.119305274870449,0.215173403772867,-0.0648821363101806,0.047911386203286,-0.076043272085915,0.0229836778810249
-0.285318908853075,-0.0417431009417669,-0.0657787824423534,0.314436264473528,-0.265140687502497,0.492482767709976,0.272556218705502,0.395388601926629,0.160600971578562,0.108887004784441,-0.0167515636056832,-0.178031202258147,0.0258045434233648,0.133065758646216,-0.0875969956292856,-0.228139870667612,-0.199642577595965,-0.0256600045041908,-0.0837012413643839,0.227352596000214,-0.071278025515042,0.087147178422385,-0.0628485970596788,-0.00201800331687982
-0.290161153801582,-0.0217616830814631,-0.0657683296418314,0.32429843907063,-0.258190875582444,0.477176254241574,0.300383664573899,0.428126188253766,0.169498146912491,0.101939011651328,0.0173557498056976,-0.156799329643337,0.0210846774845297,0.148632657310465,-0.0891574868841377,-0.224281889336354,-0.184734063903273,-0.0629626212710023,-0.0600898038541745,0.23204519150275,-0.0802023588636928,0.110130775069887,-0.0542264698115306,-0.0186273450801008
-0.180499483363466,-0.178184231361111,-0.119311412082293,0.161355416611752,-0.354541281518183,0.627070344367005,0.201709133803193,0.21975736088948,0.028079608052663,0.19054006158508,-0.126779278798333,-0.235686597709336,0.125382500723501,0.0864389594892371,-0.0472045835717973,0.148355900635043,-0.196660469100888,0.107817071525593,-0.296397167877815,0.199172780700542,-0.0921526274752611,-0.16497754396419,-0.091471884247912,0.0819506084667438
-0.202132153105518,-0.154764417150187,-0.104740680758315,0.191877619432015,-0.341642149472105,0.607038662426456,0.198439387322604,0.23863798098006,0.046819768724252,0.174082889348117,-0.12094905796329,-0.234401967194811,0.106361308841469,0.0901447330259318,-0.0532790833720082,0.172130081916153,-0.208087244011741,0.0954719878485022,-0.260167317440354,0.206075679145369,-0.0836972190935978,-0.11943955676438,-0.0960850704157122,0.0770603892783572
-0.230706953662537,-0.117216508714633,-0.0834534767861305,0.230668723513812,-0.317095022638201,0.571270279911557,0.200398662148338,0.268884980788719,0.0795831392537506,0.149842029756825,-0.105299308270672,-0.228828244740235,0.0736221722677632,0.0959052359394052,-0.0692049018634413,0.203366938050442,-0.216628656801292,0.0716219139756411,-0.204901824207861,0.218229165630625,-0.0713272236911806,-0.0498354835312544,-0.0962127283008353,0.0658328893081908
-0.252335639456563,-0.0904588606082621,-0.0705075744836562,0.259102842287779,-0.296300799202887,0.541782775282352,0.210973336237088,0.299789642530235,0.108104370775497,0.132237606050277,-0.0860177879201005,-0.219425285907703,0.0493761201109612,0.102035602111463,-0.0818785252499757,-0.2203237324278,-0.218105799730357,0.0493388632738429,-0.163768978786467,0.22470426694472,-0.0646622792706646,0.0018895130904105,-0.0898826004805126,0.0514144641659261
-0.389888735620166,-0.0123861510391446,-0.139665750547495,0.434405806312081,-0.211688791153031,0.412648287505102,0.319661566249471,0.508520757721728,0.210372405967748,0.086728239762232,-0.0385170535583312,-0.0425201186743642,0.0167442807928289,0.231419091962496,0.118842116182075,-0.261417175562642,-0.174082997636816,-0.128751826980815,0.0652580013655042,0.163997765629538,-0.0669995023648238,0.121800573431685,-0.0459399550537537,-0.0740646081384051
-0.411147879552481,-0.00999126408494748,-0.132540177317688,0.430303174408794,-0.217859181292977,0.413845570334581,0.331600033219341,0.524934157775938,0.204234075957865,0.0852764646348847,-0.0248118946386053,-0.0106250007833652,0.0132675994143021,0.248549100348855,0.130006122799172,-0.258356255544927,-0.167144659067043,-0.154165316314987,0.0682553300188652,0.178935632596377,-0.0768618497729746,0.119634581313466,-0.0442211013224863,0.0503224694476943
-0.449029301132009,-0.00795788186061907,-0.106369657333706,0.422460701592021,-0.235539283536913,0.408515907394332,0.354499871533286,0.560050360477642,0.184683202982583,0.0846893486450491,0.0115637914406979,0.0686211905058004,0.0154241886490721,0.28433104602606,0.152426254941555,-0.236634662856571,-0.148584878110607,-0.210212686570156,0.0656101372146754,0.20543079857844,-0.0972713600223631,0.110165215232378,-0.0358775251074487,-0.0122230806317577
-0.18320902775837,-0.305615931678901,-0.128528764192879,0.144862801959031,-0.349443770477082,0.603728923972602,0.202272379670844,0.267319504183685,0.0372678284443405,0.198429406861685,-0.151917959063891,-0.176912272716213,0.0982479421030272,0.0557545539522292,-0.0156508636043883,-0.0516022490625351,-0.175205911409833,0.132461312811277,-0.35315521992,0.110340637087427,-0.0991419620741459,-0.18846055644292,-0.0567942171597649,0.0405594890425221
-0.173172004657221,0.32525587621023,-0.120457644880459,0.113236479495907,-0.357470140799464,0.609833332162014,0.212651307523378,0.259086266540601,0.0457152503826353,0.221297362539101,-0.161910226047537,-0.155528680794043,0.0653374953758838,0.044757052876175,-0.0376188164033506,-0.0284630876550296,-0.144855327060695,0.131399096378727,-0.386715169700382,0.128136511796196,-0.0853948455702327,-0.211131503082431,-0.0406524777001115,0.0584144588515437
-0.319143816682538,-0.0654801422124596,-0.120124517121181,0.409320384562366,-0.238141169984175,0.447952912711386,0.264289343891513,0.436575355645997,0.177496067214602,0.0980979288978466,-0.0562357945055622,-0.144449907816665,0.0688437253242785,0.141522063602611,0.042085685998462,-0.227796161771815,-0.229023249423718,-0.00913974467517444,-0.0336689809469351,0.136982083151072,-0.068158469571066,0.084510037997157,-0.0592315876183875,-0.0546355219576345
-0.33223985919037,-0.0528235511554902,-0.118350030223872,0.409513859423157,-0.236086400636311,0.446724149989606,0.277079039696763,0.448939007979424,0.186140316321781,0.0968088788581087,-0.0505589964225018,-0.130636552005215,0.0530280228374822,0.157647133134768,0.0420488391977785,-0.236289955093577,-0.217320305743579,-0.0315068328655785,-0.0202419472344242,0.151092759886252,-0.0654658021312777,0.0944264139582975,-0.0571289482613631,-0.0547757364283804
-0.362764628413484,-0.0273887372607688,-0.114545906854021,0.409281887191865,-0.230219158821572,0.437485543310218,0.308177893651556,0.483351969662008,0.199925522550929,0.0908347504083464,-0.0282824869679255,-0.0888738759777874,0.0238742917363004,0.193707101539724,0.0493662527253959,-0.247718822585154,-0.191785474357792,-0.0871073299987419,0.0111701012265311,0.177959723816352,-0.0687827526374958,0.116290953494393,-0.0522381408056397,-0.0527310457873358
-0.39388494753322,-0.0133236476480266,-0.103562812976914,0.410640236397839,-0.236123176834387,0.427207418233203,0.3379071520018,0.523512089485777,0.194007649946003,0.085190830652835,0.0049977820542115,-0.0267646636332218,0.0138134175183178,0.229160081935288,0.0709973487203625,-0.240573265458276,-0.168975651968508,-0.14783953625555,0.0317878369104574,0.196990621328351,-0.085085153378147,0.12583715929431,-0.0479383592096563,0.0313122437751712
-0.18032415144754,-0.268143922025329,-0.130368175419272,0.162376077869693,-0.35637262959624,0.619568803290738,0.20584153479999,0.261445158275724,0.0253742483031436,0.199475038094417,-0.128359356825875,-0.199807932201698,0.133158058217614,0.067725557028483,-0.0173777993508585,0.0732733959863877,-0.190823873590087,0.124356048239988,-0.331428795152956,0.125558206394294,-0.111726416569421,-0.186481670265082,-0.0598108340717536,0.0469593651883798
-0.163219201323914,-0.280559908966252,-0.135804711745236,0.121540275425947,-0.359950451550806,0.633554402654041,0.217629816467705,0.241274376756847,0.0231961685398419,0.221335003361802,-0.129588631332982,-0.194630590348619,0.122947759748561,0.0655194016674403,-0.0361609902743044,0.0521096176979448,-0.156791131310023,0.122935171709885,-0.36988150788119,0.136897162126122,-0.107285142608335,-0.221584987974489,-0.0437364955523915,0.0595155675696107
-0.286718123508585,-0.11902338276847,-0.112353333529955,0.352102131461908,-0.281927303448285,0.506788114431807,0.230614204196633,0.379417239262703,0.122635598805285,0.119805306268987,-0.0743051124571201,-0.181709730579849,0.102526204086527,0.109977992200556,0.0157399880037592,-0.194833379398321,-0.251819606108443,0.048114955954015,-0.12053717684514,0.139329586097382,-0.0899220710842986,0.0151206398814475,-0.0736841128334107,-0.00913277864474489
-0.304252429289258,-0.0927319582418015,-0.111262009589981,0.372079422875134,-0.265709463733943,0.487278327708826,0.24722620383275,0.402267941118337,0.147841985335279,0.111091713025452,-0.0653272747494156,-0.168077609636618,0.0808711450351663,0.125374707098092,0.0162479256821479,-0.212643333860536,-0.240294417260153,0.0218291815527408,-0.0872450875225427,0.148936241953526,-0.0784518564917088,0.0462960994834803,-0.067945803210455,-0.0222409911219339
-0.318078359766634,-0.065801326007112,-0.0925627162298694,0.362643231402374,-0.261223741582258,0.484313810523813,0.262433409966475,0.411002205554815,0.165226777405044,0.106266518034471,-0.0512880827813788,-0.160291424891766,0.0452812748287601,0.139051530943388,-0.0162393263315267,-0.229482075752703,-0.222565222816913,-0.00565868383889744,-0.0733926505223331,0.18453233810843,-0.0673449032525934,0.0723393158477206,-0.0654114814053615,-0.013032660840496
-0.331749537254952,-0.0445163427992512,-0.0856818168342421,0.37307210129028,-0.248833319545472,0.463504842196718,0.284757675212657,0.442750141346328,0.185380642030227,0.098011460984246,-0.0287619951101437,-0.137222218539789,0.0261858818050296,0.155098292589931,-0.0197992436967365,-0.235132656049891,-0.206615673492359,-0.0411255460673578,-0.0420596481022828,0.192922919943484,-0.0655622687982523,0.104421488590928,-0.057970943216066,-0.0267483475028791
-0.192533768245919,-0.227076178349968,-0.124717785923694,0.206325441615408,-0.354488124856028,0.613807297640074,0.198588915591933,0.270530274843415,0.0208681595199415,0.181959591998567,-0.109142371567291,-0.21726569654087,0.160197078696102,0.0781760989070974,-0.00712216717758006,0.10483377439952,-0.223782431752335,0.117148779600246,-0.284143489391756,0.128391228603435,-0.120110869017132,-0.155200285773488,-0.0716705646915064,0.0428608157253156
-0.208752181707271,-0.198955304378279,-0.120125942487561,0.23571969652648,-0.346878615718425,0.602554841776712,0.202009479486021,0.28444213097259,0.0342370205058241,0.171178274674126,-0.101638323202395,-0.219220437586547,0.156141464075037,0.0853093912985824,-0.0061688237175999,0.129058110794051,-0.235041269619553,0.106097425709068,-0.252605454042944,0.137973247713387,-0.115399892532089,-0.12541353826194,-0.0764070429610173,0.0396404146965908
-0.258513759869012,-0.147485634607637,-0.111339591431542,0.304125922012487,-0.311874189531401,0.551584023825634,0.218562900452004,0.338648578527371,0.088375942020914,0.1413814410227,-0.0878063698066354,-0.201160210658915,0.118910153793066,0.100382542554691,-0.00100845465310227,-0.175023292931388,-0.246881895090336,0.072132392178154,-0.176331555640356,0.148968957220534,-0.0973118033206191,-0.0393629994562551,-0.0782542711865311,0.0175070798608589
-0.283456595711091,-0.106201397376932,-0.0921126297358183,0.322933645287592,-0.294289970606725,0.528633319505335,0.229197948787667,0.355213913263533,0.120343464855669,0.126902361820828,-0.0775193101118984,-0.193336214067439,0.0782356900731657,0.112745928722851,-0.0249434843673621,-0.206251685450156,-0.237692170409888,0.0446559366900969,-0.138308247332831,0.178456730930003,-0.0757705034070426,0.0101737204702183,-0.0765768331814902,0.0184770986418376
-0.291568509077695,-0.0868986042614328,-0.0785940129866813,0.323431118468061,-0.284740753630654,0.515922302439531,0.233058232451955,0.360496278661875,0.134813176687997,0.119244696454474,-0.0692540675607868,-0.190474790036604,0.0551628460521305,0.116058950044923,-0.0451537972996242,-0.218583741689275,-0.231125400810629,0.0311319728296588,-0.122636859939829,0.195256052905765,-0.0667013823666257,0.0357971291440905,-0.0754285422600149,0.0205434138769607
-0.435748970961998,-0.000967616979902468,-0.16415623545912,0.444049042437129,-0.199461359817739,0.393504488157437,0.321308404616676,0.526955539025552,0.207470636434288,0.0879179245478746,-0.0577878454865882,0.0301054303778733,0.0131897526865802,0.285397124242402,0.217258405527262,-0.275414896737163,-0.15632566229111,-0.182377394198059,0.125826814763577,0.161805357812851,-0.0707374340830991,0.108116273466315,-0.0342980227584442,0.0652969457702802
-0.474788828224783,-0.00292922183629484,-0.151760899405649,0.43170903277654,-0.203861137134052,0.38999690400545,0.329427117933482,0.544098754389121,0.204815293707179,0.0902770954364315,-0.0495116847156748,0.083687756822784,0.0105379239800762,0.311220967101058,0.243956671369651,-0.27020493775117,-0.147032188637894,-0.211758036428413,0.132765208886118,0.182825404799473,-0.0770282128692808,0.0968808233052169,-0.0215869763413081,0.0179233469188707
-0.373077495196544,-0.00842302670100793,-0.157740201313192,0.449454258982863,-0.198077639507559,0.396463836938097,0.309109498079161,0.500255191120783,0.215515131137189,0.0857847693912263,-0.0546391758618027,-0.0533801557071691,0.0267583565536074,0.22684475476176,0.141030272187495,-0.265418847928425,-0.176610975479385,-0.118394631424309,0.08121175187736,0.13995753059427,-0.0576989794600511,0.122724141730843,-0.0455114990999135,-0.102689420952849
-0.403203351310132,-0.00350551391474851,-0.15869138715811,0.445199177725319,-0.200418227754326,0.398831216672329,0.320657210370536,0.515551661202464,0.212319375590642,0.0856007795418452,-0.0498294030224706,-0.0167873712755558,0.0167313906537025,0.253793922618419,0.166307678412633,-0.270367604766708,-0.165801544159521,-0.150340527228438,0.0970455347441906,0.155586320066064,-0.0659835683439214,0.118757026359328,-0.0422672771736327,0.0843757156992433
-0.44596320199595,-0.00482407997221451,-0.145344207677557,0.437144786644365,-0.210138300969012,0.40085415239785,0.333588052009898,0.539873734381156,0.201863569153219,0.0863346047393709,-0.0358381428888317,0.0441596153439768,0.010809863381856,0.285862699424933,0.197569922502228,-0.265777432794412,-0.154167218915319,-0.191342921019453,0.107559924307561,0.178131545833169,-0.0797419942968146,0.108782393294036,-0.0349525069989163,0.0376057682967884
-0.207409753732803,-0.292807884229691,-0.125072735017948,0.178725884812326,-0.336742129724196,0.575157068932974,0.192825053170516,0.290349592573366,0.0525109322926805,0.172221125388039,-0.155049397521697,-0.176683701688588,0.0954906292787435,0.0557304794830657,-0.00183469528310271,-0.0738863932675855,-0.209460970608403,0.136676793776611,-0.318207539040642,0.10320429024479,-0.101465387153622,-0.146667713891903,-0.0750232304273779,0.028736902451231
-0.191888902159177,0.332818629230912,-0.124490533530554,0.140313224986852,-0.339306876569129,0.577306523450583,0.19653896910276,0.276551077311244,0.0577594906465184,0.188326369577779,-0.183223762573785,-0.154285292516817,0.0572141828591418,0.0448545649361257,-0.0109483535348963,-0.0432776718958007,-0.168857916356075,0.142646202307729,-0.360263713808635,0.0984020571017657,-0.078731132119735,-0.176536709103895,-0.0618620508622443,0.0303073240255594
-0.31593670368772,-0.0751977672497128,-0.12681017333002,0.41273116819671,-0.232223224851532,0.432602415584952,0.253167778475355,0.439294563950943,0.17541168957861,0.0935441846363194,-0.0635848816032167,-0.139869942575985,0.0753260462150573,0.133621596011933,0.0607301768324116,-0.222293295885942,-0.240785907833608,-0.000705139440568162,-0.0308878924101805,0.12070460600439,-0.0738598952098017,0.0871615753391641,-0.0666593132255694,-0.0619821495838888
-0.328760842703677,-0.0496088989359825,-0.132004699579664,0.427410570168711,-0.220444164584742,0.422855174108858,0.273853138912399,0.456742378255028,0.19323651592768,0.0908970048478864,-0.0553022409340906,-0.124256624280162,0.0599088537137907,0.156943965168969,0.0686365197622136,-0.23711895021455,-0.220108746672099,-0.0322984650186919,9.70268983921801e-05,0.129396821994385,-0.063663243811309,0.103393376492874,-0.0569197556439064,-0.0763172621604839
-0.351720961398978,-0.0256237138388419,-0.139747274201036,0.438764868871673,-0.211080708626033,0.41185360399454,0.296303420109257,0.482547729421709,0.2080019418815,0.0885466015688758,-0.0506747385868312,-0.0896600366375294,0.0389330279081011,0.192992923580114,0.0954427645101399,-0.252750030582691,-0.195325174773485,-0.0791629542074887,0.0409140503395555,0.140108351952352,-0.0586443009196565,0.118000505266181,-0.0500103216818977,-0.0891100635436453
-0.376479104070403,-0.0134674778008701,-0.144368519450124,0.43926534803533,-0.207625466691909,0.408928116875689,0.31255875931347,0.50038862236826,0.212568838056476,0.087151890799766,-0.0452630241023766,-0.0577750492125798,0.0229409806005797,0.221664657093259,0.116913869497938,-0.261316080293556,-0.178507647102889,-0.114962801001417,0.0641727514136017,0.152909124120555,-0.0617922087612164,0.122178826850894,-0.0463421094335906,-0.0866503754792543
-0.228575602072959,-0.232419242880922,-0.119890987469385,0.237958588118523,-0.330676165335628,0.566954313234707,0.193312796865708,0.31089400929923,0.0537257299320234,0.155863037262094,-0.118006001596575,-0.194886586948061,0.129916786449324,0.0710994316351771,0.00754400934264106,-0.114734879321925,-0.247075749278117,0.117062294307702,-0.254752771738588,0.113912197649576,-0.117520478494323,-0.101791526513111,-0.0831885901198218,0.0268495393573548
-0.269908098829627,-0.177079940729459,-0.114358012430963,0.309855709393384,-0.29771063473284,0.515756435744263,0.201693456650984,0.358635170156444,0.0928500016152208,0.125537125297826,-0.0957738894285171,-0.182581546884179,0.11708746263511,0.0841955000073919,0.0238341772353517,-0.15773869503685,-0.270355779410068,0.0867777106186974,-0.173148673548861,0.116044910583255,-0.111875873645182,-0.0219545034414424,-0.08807201674135,0.0052148268032279
-0.2920960016559,-0.121313810597304,-0.114871074259565,0.364612584970634,-0.271602365421342,0.484713009319321,0.22780077262552,0.395299227167959,0.131736357450642,0.111933042684061,-0.0769201894341027,-0.170009450948346,0.0998573447554334,0.10700965022903,0.0321798478430263,-0.194935285310754,-0.258854408478212,0.0455554751944459,-0.10392621626787,0.126191976838072,-0.0916367510056054,0.0321863353240026,-0.077345359904425,-0.0213342492492578
-0.311778533209781,-0.0781410353758214,-0.120840515745789,0.403499234174321,-0.242896761857628,0.451798888446098,0.254326471445157,0.428478859945649,0.167990033656,0.0997486761472908,-0.0612562104654679,-0.150808734466515,0.078632970959984,0.131542808583425,0.0436924281679575,-0.220292434158744,-0.238469981524939,0.00516892287077474,-0.0466157972942179,0.12969882560802,-0.0738806663841773,0.0750642154583868,-0.0639163271924628,-0.0506715139763562
-0.211574584673376,-0.21293809329065,-0.12026401092972,0.237461704466985,-0.34342008751115,0.592971135659188,0.196015901560579,0.291461223102768,0.0334926163903507,0.165931668581689,-0.103489443669009,-0.213706754221773,0.15702127145027,0.0794184539985678,0.00136088801457279,0.120041818973497,-0.242517358751664,0.112096766906628,-0.253361120036251,0.123452181345352,-0.121404001861878,-0.121323822693073,-0.0777963886036298,0.0340255651867302
-0.237982367787598,-0.188707087604484,-0.116573542092307,0.275251575912377,-0.325375641983544,0.564891766064829,0.201701831242332,0.320507794893683,0.0596737572482869,0.149129260528256,-0.0966454841256452,-0.204815627619595,0.141769151631636,0.0848180947733613,0.00767863294990308,-0.14296864659643,-0.254422636804514,0.0978014762242029,-0.213635029076868,0.12557785549991,-0.115491481022233,-0.0761615312011669,-0.0811764415123096,0.0224752769994165
-0.264411658786598,-0.158463545056512,-0.114370300452813,0.31663476522638,-0.302420144552875,0.530988958686718,0.210803144078309,0.352383682475106,0.0897818698208787,0.131283338467425,-0.0866535021673919,-0.192786475415015,0.124944315037702,0.0930900147361764,0.0161881864677566,-0.167443863472587,-0.261629029323003,0.0776816544238137,-0.166308876281909,0.126815256694908,-0.107212413439509,-0.026861415462363,-0.0814570078354166,0.00629059311311365
-0.375005420314869,-0.00215328034614743,-0.171481247734372,0.458201419725566,-0.192395438030601,0.381339897109444,0.300287153664068,0.500768198402065,0.215838293839917,0.0843827622227087,-0.0739412929116702,-0.0373853476409513,0.0277754847591616,0.241023687226798,0.18096521985102,-0.272264332467759,-0.175484981253435,-0.129278952394701,0.109301310187284,0.129168154707441,-0.052754844922919,0.121110639319773,-0.0448195508585291,-0.116502274714127
-0.399023359570509,-0.000661016800227138,-0.171003318503286,0.453275569755903,-0.194741720881153,0.387412281975252,0.30877639212265,0.510275943888777,0.213156851953479,0.0867939410696253,-0.0692350210201678,-0.0124021925484891,0.0216824680075522,0.260211842600931,0.196663706385534,-0.27509550382819,-0.166814157480673,-0.151275830870295,0.118026135419075,0.141154837475865,-0.0595395926962581,0.115885834621476,-0.0402352888742798,0.0998689077382102
-0.449098024531429,-0.000519425663718682,-0.16648518458156,0.440054027660249,-0.199603673890739,0.386534805628454,0.314836455930643,0.526508810946539,0.210152133510749,0.0914116276419536,-0.0703806277369889,0.047643065804851,0.0142890418273926,0.296821601132788,0.239317718413022,-0.276619628059375,-0.155820983404803,-0.190078226784105,0.13839546174385,0.163705515703312,-0.0675883062861648,0.103177989921664,-0.0264113923282024,0.0564491653718604
-0.21263701474726,0.368651592199343,-0.112809966407183,0.151877376119582,-0.303658777614411,0.479973033695483,0.179075638363818,0.301998897340765,0.125423134668801,0.132418645157053,-0.269543454755438,-0.112182833639841,-0.0352474216455834,0.0178866231616879,0.0020002194169064,-0.0560950459139101,0.189901944549533,0.184248622535177,-0.332724825241202,0.0754556983160026,-0.0231083143629292,-0.117117646885113,-0.0930892954910794,-0.0115035635302679
-0.201264036207395,0.38528226349709,-0.106634645096287,0.140564293625676,-0.316372297636912,0.499301359437601,0.185056583498561,0.292230676870821,0.120715009575917,0.157738588960685,-0.276469497534441,-0.0983826357138947,0.0518460219576189,0.0189070346536802,-0.00346422604825591,-0.0357141635277539,0.151383932368156,0.173190652139317,-0.354825259626731,0.0760801389903695,-0.00681024172963856,-0.142828175074623,-0.0725829520615,-0.00318337621266575
-0.338547619482708,-0.026712247879317,-0.149739885812416,0.451882630462337,-0.196695659085416,0.379165240862991,0.279044882074509,0.482411868113801,0.213841349428043,0.0795545355119482,-0.0660019382105391,-0.0881642813157957,0.0451019372588806,0.18065412613638,0.120611302159547,-0.251105740984994,-0.208976382326258,-0.0657961646852375,0.0556897401315024,0.116707918234612,-0.0521134858708657,0.128546866339242,-0.056675883090866,-0.108777234183828
-0.358540151363501,-0.0135458439553101,-0.159704624595943,0.453644001162804,-0.195836284180177,0.387067842622982,0.295573556517071,0.492439295520857,0.215285420369847,0.0835922273265269,-0.064071677873324,-0.0659574281635479,0.0358848060996567,0.211828236702468,0.142251671092131,-0.261979092111177,-0.189168109003424,-0.0991967376960621,0.0774960875764027,0.127317990470694,-0.0539040580569558,0.124038025821408,-0.0493260201661983,-0.110361121321982
-0.382053676251364,-0.00248040508159547,-0.167400403543163,0.453145106672116,-0.193210442228994,0.389885715824204,0.310631684493314,0.504829790888084,0.215911654101029,0.085233410975163,-0.0602997204249498,-0.0368891078054557,0.0243274990395947,0.241736640769016,0.166778727216039,-0.270785606654952,-0.170725765940092,-0.133777425608887,0.099424481825323,0.138322531902952,-0.057891130959805,0.121343104752496,-0.043972800950959,-0.107175937508412
-0.22118202118518,-0.336668312105668,-0.117870590236087,0.16666024222322,-0.315372837320417,0.517846698703992,0.181493289083857,0.304130600709827,0.0951943686159239,0.147039162454446,-0.215949682604525,-0.138659614134546,0.0211096133412565,0.0342130566130208,0.0031946502388354,-0.0643868052923655,-0.207012780283103,0.163195070672448,-0.326535610571639,0.0865293459691828,-0.0632445291861276,-0.121781051215562,-0.0894546109294008,0.00901541487450204
-0.198122582029876,0.357919409793085,-0.1199951269634,0.137706500418666,-0.327353256601456,0.545672904704148,0.18995652677506,0.283042735436539,0.0812598388887438,0.175085710998977,-0.220665743082543,-0.131279486777595,0.0126376151211999,0.0343640797146142,-0.00512764450127035,-0.0379401115598545,0.161075950214734,0.154705639368718,-0.362624859758535,0.0852356923090738,-0.0517394431151642,-0.163100226930808,-0.068119283646822,0.0159235368837932
-0.318291993892339,-0.0968980148865369,-0.120887093928801,0.400293280926595,-0.235474583145067,0.422690763787588,0.23336791432622,0.435607422939553,0.168973007032794,0.0883044335528017,-0.0750809038470145,-0.136077610602449,0.0732529996102983,0.11714830064002,0.0641222433282018,-0.211551009899358,-0.260818982225014,0.0189431179841705,-0.0464188861601729,0.11465536882606,-0.0819001679405011,0.0868034819760988,-0.0793610344125839,-0.0500996368853011
-0.330489015188618,-0.0482893364702084,-0.137633192420876,0.437611610477523,-0.210505659490212,0.398094895179049,0.266908161641881,0.467229600437688,0.199929890137231,0.0835513849570105,-0.0646075861991584,-0.109690799320933,0.0565964881931117,0.157521115181541,0.0940609951121291,-0.239051860409787,-0.225446485912554,-0.0364418949183054,0.0202082718660971,0.117232055226281,-0.0615033881806197,0.115867695957103,-0.06210861030033,-0.0889143796484713
-0.339062945293873,-0.0300927251621746,-0.144055486965604,0.44477671114351,-0.205325916009435,0.40084257384714,0.285359692211082,0.476627316755005,0.207809247347874,0.0860670199971326,-0.0571187329155084,-0.0990222685492261,0.0487442728205098,0.179910241031254,0.100752547956288,-0.249172402299753,-0.204687540508988,-0.0634252580861928,0.0400420707763027,0.124699075286343,-0.0565524832526152,0.119107599185213,-0.0527033485802093,-0.0983672516094145
-0.252654257397907,-0.273831663189632,-0.109322825495964,0.227907129301648,-0.310860877053723,0.508442889693983,0.17478010199918,0.3341837013913,0.0892254366503689,0.129393623651398,-0.162527278171645,-0.157743035794289,0.0699990703629767,0.0463870786797148,0.0159884865871286,-0.104589008242095,-0.263577979064451,0.141044117239733,-0.25947460074058,0.0990297805819742,-0.100439753707098,-0.0671790840303562,-0.102377469779923,0.0187554340337848
-0.283051554306681,-0.211752421294504,-0.104271553964197,0.291838728760972,-0.291089288833749,0.480884532118595,0.179511994303391,0.367065008418787,0.104560433575384,0.111153527546512,-0.123324996268899,-0.159514670060912,0.0869163491090315,0.0623601907910705,0.0301987593007875,-0.143487882316987,-0.289265453493634,0.108805662712557,-0.186705098792994,0.106036141190096,-0.110817416931648,-0.00729108468673649,-0.104721833581033,0.0115828672324386
-0.304304104505377,-0.151556206561103,-0.108369352754599,0.351558622121784,-0.264153193555048,0.451234875888709,0.201749303306539,0.401845780197561,0.134318491795015,0.0973195724694534,-0.0945751955286112,-0.151946711008777,0.0849972709249041,0.0859305583285325,0.0447821515839507,-0.180166946911589,-0.284749187406036,0.0669039987570358,-0.114212559109869,0.111252126007013,-0.101029176718682,0.0456174902949401,-0.0951333034720944,-0.0138637859677246
-0.388633110626888,0.000378237205337905,-0.174965929496705,0.456105583517349,-0.19334165559801,0.379843092340245,0.300898228754256,0.504086058361604,0.215036134375331,0.0847325694273258,-0.0796050311068899,-0.0208534773514236,0.0232601987023185,0.254951485104226,0.198599383473517,-0.276030132766463,-0.172112388896344,-0.142449751740705,0.121008595525215,0.134174816324749,-0.054416228413107,0.118005968480564,-0.0423371902353687,0.111329352322889
-0.418673685736794,-0.000634612102802501,-0.17188639275019,0.447930879841904,-0.198974899539794,0.380934849123336,0.302840674942052,0.512206214433436,0.213821648623395,0.0878989461583861,-0.0837335691327879,0.0111051452662063,0.0177814951124622,0.275294024294663,0.220394851900587,-0.277573021307113,-0.168177612175138,-0.162988986008413,0.132009570476921,0.14811620710631,-0.059527974915032,0.111504223287349,-0.0345995991407619,0.0869341723160971
-0.460880678552853,-0.00972471194682681,-0.150845084507864,0.43151879889844,-0.212916095946403,0.380307340654569,0.303149496407306,0.526711966298709,0.216132094051582,0.100595364047112,-0.0854936676505636,0.0635301753980339,0.0156974844154307,0.297983532798428,0.240177225479648,-0.266601409940154,-0.161054042901646,-0.188689563370391,0.13595117686901,0.168808062664696,-0.0617369092803607,0.10168064439359,-0.0147568487118175,0.0354926128064813
-0.23282232481525,-0.355529833966305,-0.105899400843561,0.166575078208606,-0.292773283976182,0.448644322804692,0.170316499979415,0.31971025057745,0.143545610816729,0.109382062874341,-0.27019017592111,-0.110186578273203,-0.0406241106448349,-0.012302885222684,0.00399486340032465,-0.0727379349292511,0.227364293393289,0.195686254915791,-0.308232223791851,0.0820176045816506,-0.0274866019116447,-0.0830720059629195,-0.108761815215127,-0.0112489036493497
-0.214391221042949,0.38540916765647,-0.103102800842078,0.150591863431446,-0.291198467889509,0.436825351855516,0.177852207784569,0.306219087082873,0.163773474172242,0.114911515552456,-0.316249220225588,-0.0885584583324591,-0.0882149890082063,0.00538773656259095,-0.00145775051248309,-0.0581425890179682,0.183684963649089,0.20479968677114,-0.324124202834699,0.0724367363481248,0.0159480734826376,-0.101850987053468,-0.0952516688346418,-0.0275010743729431
-0.348644053909844,-0.022958139957124,-0.151816299759568,0.453231756098888,-0.196319652218222,0.372287676768162,0.280396542883524,0.488626633868101,0.218017119361247,0.0768784775228434,-0.0722058995094703,-0.0740192975829138,0.0368303620891109,0.190551327314009,0.133913823642731,-0.255451672729892,-0.207471675033034,-0.0756261168657005,0.0679821452135022,0.121627275080682,-0.0496904066318617,0.131279105032927,-0.0558049611938917,-0.108232191814916
-0.37155322497727,-0.0108049656181431,-0.162271252260379,0.455965449893208,-0.197753064039531,0.376068954282648,0.291254699350976,0.498619565521149,0.218110757441146,0.0805194753021933,-0.0797815726232063,-0.0439871473659016,0.0274488285937062,0.225705033987164,0.168657062244168,-0.267639834405705,-0.190077146887137,-0.111071094532829,0.0982520278767738,0.130575445334267,-0.0505260108308734,0.124872906783312,-0.0479620202916244,-0.108962927117249
-0.395334404605457,-0.00414431988507037,-0.169808740656898,0.452880829754549,-0.198959962188369,0.376975807168732,0.296055162904656,0.504655221354443,0.216260049929954,0.0829109728533843,-0.0867531349011241,-0.0156670349824467,0.0202115350687819,0.253348317866699,0.198661252271748,-0.275074811154677,-0.179675320803193,-0.138215339318754,0.119534624153024,0.139526440754167,-0.0541285631248677,0.118232380413882,-0.0420534415997577,-0.101745714235054
-0.265757984196665,-0.310511808078779,-0.098074562778793,0.206193697833762,-0.291876785513092,0.448330556757212,0.159763871326145,0.343857848209007,0.130357202321556,0.10178158449424,-0.217220059390665,-0.123653155024817,0.00211513623918736,0.0224208217477879,0.014184011257757,-0.0960148395162714,-0.273760566881844,0.17441383649877,-0.26864075605943,0.0936313235291159,-0.068224189542551,-0.0440525773145027,-0.118574929200661,0.00984367891143384
-0.333586512170326,-0.0793031723510853,-0.120735057830107,0.419164539924184,-0.219094213907633,0.386374164130188,0.237747628642363,0.459273501328963,0.192586100521471,0.0747207218623476,-0.0788910227188284,-0.110607329146808,0.0520245209030561,0.126515537975302,0.0844510471339834,-0.223832262836298,-0.258737051557446,-5.87130301298137e-05,-0.00797178024034893,0.115781125862943,-0.0695174569129548,0.116876504436135,-0.0782827578657164,-0.0633551832312641
-0.338311656705026,-0.0441020782106532,-0.137728007857998,0.442795845216693,-0.203474144351083,0.374957895296474,0.263582355566701,0.477606285184343,0.210837734301193,0.074808754226538,-0.0725910907598678,-0.0932203713219945,0.0437811742966362,0.160064439944868,0.108707442349076,-0.242486374685684,-0.229335701828568,-0.0415528212896398,0.0368600632121182,0.117752743924522,-0.0549967892684684,0.129482556259324,-0.0645538875882154,-0.0930079216653968
-0.310574690715098,-0.247178915929938,-0.0834468084047815,0.267617295590867,-0.274417573897336,0.415584546635728,0.1482520643276,0.378408177638144,0.134734076868767,0.0819118517060352,-0.164586827441059,-0.122049912717686,0.0268420371538152,0.0342254674857005,0.0314447939692303,-0.131155235327196,-0.316891866849602,0.140494211957816,-0.19642084750883,0.103348062883097,-0.0963668330599665,0.0244800685779852,-0.126927834370424,0.023744969473073
-0.327643269619258,-0.183514396583233,-0.0892441516568701,0.328429491391153,-0.257264630680956,0.406002855346402,0.169241175377993,0.406938545853428,0.145729682026565,0.0767192636732845,-0.12120625659417,-0.124344454056366,0.0482514570886313,0.0609806714418891,0.047934346658411,-0.166094008869982,-0.314155788367467,0.0932946605260405,-0.127648341074863,0.109231295140477,-0.101140895336675,0.0661493634165497,-0.115387372804018,0.00738186865641916
-0.331879960661345,-0.125065677199189,-0.105572499096163,0.381144076489397,-0.237066093129478,0.398242164617308,0.206031013406521,0.435146316104203,0.169334154223878,0.0755972740164571,-0.0929458837538979,-0.121847487950647,0.0551540450870522,0.0944982794214401,0.064454086534169,-0.198526001592628,-0.288405516213645,0.044470276262695,-0.0636141468494502,0.113745765582791,-0.0871875378181121,0.0952884889533951,-0.095617553315713,-0.0282378216317701
-0.339822617038266,-0.231882973683496,-0.0657736297089371,0.281123391989633,-0.258352214511582,0.369189475755632,0.130555177205865,0.394908863138637,0.15133602535536,0.0604609297554075,-0.160225728826375,-0.101149630957771,0.0061868753141427,0.0278596739476781,0.0383123719987008,-0.14037470956334,-0.3406870750326,0.137018314780142,-0.166542212250263,0.109223831680824,-0.0961246518748544,0.0665295618780642,-0.135866948785012,0.0363017758024414
-0.339577895453888,-0.212905828142483,-0.0717633224934091,0.300135444066567,-0.255590555669001,0.376518163675065,0.140206450331302,0.400469391110956,0.148827380602609,0.0636434198265246,-0.143966221784062,-0.107437446380698,0.021027038318862,0.0381912300840858,0.0432662500081141,-0.15023367714142,-0.335320094808094,0.120310666578339,-0.14914761604125,0.108228894629807,-0.100820251609572,0.0725952512942744,-0.130955236968877,0.0286597018294391
-0.410564775978988,-0.00602615018911794,-0.166565581605704,0.448078415808648,-0.203781828926828,0.376774287033859,0.295298485815313,0.507974970786196,0.216160497662893,0.0839551570313778,-0.0912907555489948,-0.000501742769091049,0.0166305465295192,0.261694464893136,0.20716132263922,-0.275378629532741,-0.180315874052509,-0.145839853715471,0.123605017350481,0.147444690954355,-0.0564224894099207,0.11559716511156,-0.0384264365266394,0.0882077713027252
-0.431399586263801,-0.0140477964181578,-0.151261645981343,0.440452547527982,-0.216054833160644,0.377518062136849,0.292982918552227,0.515002598654583,0.217687362820757,0.090743917388359,-0.0962476087551541,0.0236975420979289,0.014609226684409,0.268802117912388,0.211056330047053,-0.268903168436317,-0.18124839784469,-0.154141031091313,0.122357102967974,0.158946710419284,-0.057752801461466,0.112080715223657,-0.0291434624765219,0.0598247348764523
-0.465934082459771,-0.0244642054716483,-0.125012401901894,0.420830370484939,-0.235975377538145,0.372067785934799,0.29046302829797,0.524792920871303,0.225351053129039,0.10941498891278,-0.102644168569797,0.0696066736113459,0.0157331853442233,0.282463338968855,0.214018371298676,-0.250577562253518,-0.1752909257394,-0.174478185542877,0.115491395833301,0.17924934551927,-0.0564933956953887,0.107253635223759,-0.00651525314956767,0.00831770439442055
-0.23614469455042,-0.372817868597742,-0.0928369059533964,0.161035891699985,-0.276787249684088,0.391277474351313,0.169040994244927,0.326972366523132,0.194197645270187,0.0831747596964845,-0.325546093001459,-0.0820260998141699,-0.105670952695564,0.0051837521817956,-0.00260804212934268,-0.0775255724869746,0.228447647597806,0.226623897772759,-0.295081220802223,0.0853349869793912,0.0192608242391054,-0.0632236560314683,-0.111868928727729,-0.0278187824319337
-0.219876624220046,0.39930314545515,-0.0840315236917308,0.15631083868569,-0.275235807207865,0.371712291328536,0.178921594489892,0.31553421983302,0.222728452597052,0.0859982041305066,-0.378357315115387,-0.0561151801525707,0.161197695763079,0.010361040318955,-0.00808561227151822,-0.0679141925792965,0.178587510960738,0.233954174616663,-0.297004291047817,0.0744608429856261,0.0720463917999346,-0.0770034005095286,-0.0918162104475364,-0.0475519793872516
-0.347692605092233,-0.0396662077312231,-0.13869910076131,0.44490342235707,-0.202930913776006,0.367301878263711,0.265986252085644,0.48464756281744,0.216785748414768,0.0716728223747421,-0.078037800568346,-0.0797697320307978,0.0345547833402296,0.168941905109208,0.119529722299133,-0.246900920463849,-0.227631865526432,-0.0506383099100156,0.0490376963098112,0.123561135783431,-0.0509779493021882,0.133479437329729,-0.0629638523841305,-0.0927454236322541
-0.364972128055645,-0.0373039122222567,-0.137930405676116,0.445164878782,-0.210135069143979,0.369109212344721,0.271213807823292,0.493350502648338,0.219934004998803,0.0718453872317798,-0.0869818660112565,-0.0596788354294704,0.0246874123245062,0.185344876607645,0.134980722309325,-0.253502071251167,-0.223907150707427,-0.0653423955473938,0.0638662220261711,0.135721680142641,-0.0492218552501811,0.130532826826359,-0.0577549322261214,-0.0847586830376754
-0.402123046745302,-0.0257098711701024,-0.14447879960758,0.443220688957419,-0.217423982286011,0.37299343574982,0.284821327458885,0.506580726142305,0.222192415246925,0.0776708709852277,-0.0970849196184136,-0.0158998772154256,0.0128589609731454,0.228480583316418,0.171514304750855,-0.264776514436415,-0.206287200506914,-0.108163324909753,0.0946379911411767,0.15536333854823,-0.0517890514535628,0.121799131966709,-0.0438678879138026,-0.0703678032391349
-0.437288319628879,-0.036868397528462,-0.118289758444213,0.429151151546758,-0.242983156755346,0.371773148491616,0.282547025953015,0.516018174587945,0.225444203889426,0.0897925411100844,-0.111823721720474,0.0288280157772574,0.00660409473665238,0.243431020084789,0.175188673164385,-0.254530679576729,-0.206159018442549,-0.126169390827765,0.0935368213028245,0.179473326690561,-0.0542261953234132,0.115748700004962,-0.0270693870525667,-0.0209363852303378
-0.456784746154285,-0.0524675488029844,-0.0826866156757467,0.411520581575158,-0.273145190919251,0.366297181627275,0.274027550839433,0.520042995621108,0.230177605186313,0.118922744555424,-0.12519065268913,0.0709772197919207,0.0127167815228469,0.248199653085083,0.165188204199075,-0.22658751217997,-0.19787241812089,-0.144311434389528,0.0774670941175553,0.192111216820043,-0.052561451664644,0.112246179370735,-0.00426056618908006,-0.0290024671129536
-0.264344516228418,-0.339853614000956,-0.088545612764513,0.183077555780229,-0.277338637758293,0.396201735974061,0.155683083450969,0.345924358462981,0.175367472791382,0.0782295524507284,-0.275363196527636,-0.0955684662957247,-0.0639571412520601,-0.00157832966684405,0.00554321914922204,-0.0910607705754698,-0.274094254020329,0.211048858134886,-0.27447198661294,0.0960342745541944,-0.0241354518026287,-0.0344042050387526,-0.125182263036915,-0.00430971519018742
-0.343137375001306,-0.105132481322002,-0.105092566718811,0.39997344306495,-0.226805186884166,0.375820824459948,0.21535298793896,0.454384165424292,0.189074552845997,0.0667838782468729,-0.0928147935227046,-0.10440358848673,0.040033224656986,0.105261305731403,0.0773644660218046,-0.212046187569698,-0.283146363048546,0.0260432560653286,-0.029770143662435,0.119850350005305,-0.0744235263171036,0.117427103033377,-0.0902594611509663,-0.0385398985345601
-0.35778388786375,-0.0795735636862789,-0.113510846393608,0.418192305477103,-0.222479768314966,0.367836846207322,0.239778820209207,0.476372645192989,0.210326884937469,0.0645754402904418,-0.0939937306320195,-0.0814090345588535,0.0236597596491535,0.134777298177923,0.0970447042124275,-0.229835702225768,-0.264288352139186,-0.00605469476600203,0.00865258986940927,0.135618797884092,-0.0580328602429463,0.126818607342477,-0.0756737206799048,-0.0518551729884078
-0.390634972704996,-0.0747730317783436,-0.103792314717478,0.418233787582386,-0.241490785903571,0.366277997790419,0.25753088015973,0.498680344116725,0.228441142738059,0.0615259586596353,-0.112059712809718,-0.0389522858197476,-0.00477934663584953,0.161116772969995,0.113602932869806,-0.24197483154438,-0.259639447663169,-0.0276596084515842,0.0360049143158596,0.174552404580066,-0.0440119785354389,0.123587218772621,-0.0586015921280034,-0.0285794593275506
-0.417291835865816,-0.0680311047264754,-0.0932311625128945,0.418490401083418,-0.260653220627829,0.370138288092691,0.271635067234409,0.51110138171265,0.232782133865749,0.0702728873093073,-0.122780324277073,0.00141874201848531,-0.0120646775305184,0.19140230972673,0.126706695077338,-0.246358800694507,-0.246464889834794,-0.0606400857905164,0.0556952098985806,0.19933756809062,-0.0431861910210334,0.116911026821588,-0.0405208032169261,-0.0022123795448771
-0.43842668606885,-0.0702651897061016,-0.0732523735106271,0.411687853330386,-0.280834617629935,0.367133268797815,0.272408335446708,0.514510662707946,0.231610198783498,0.0883007446780346,-0.133520614129555,0.0404362177415216,-0.00793703780543575,0.208870107007998,0.127906589293731,-0.235417148487939,-0.235227842734846,-0.0882406041497641,0.0547225685208047,0.211492745550207,-0.0493570069791071,0.112625853440164,-0.0253903703144122,0.0349196459405225
-0.305512622049207,-0.295484318324449,-0.0737848291311513,0.223454607314866,-0.272490858722017,0.381897289203317,0.140899988936826,0.373384134733245,0.168794386911359,0.0670766094318374,-0.226178083634828,-0.0962033802863132,-0.0372602422141601,-0.00978387311017799,0.0184286837063509,-0.112830593241149,-0.316442124976028,0.18617438623391,-0.229382232578087,0.109143734197935,-0.0572391099962101,0.0128610111910996,-0.13255067776572,0.0214936422286265
-0.345995444229286,-0.189977880222658,-0.0715357180452756,0.323869768827974,-0.250808056226849,0.369767205606149,0.150707732662915,0.415110244069395,0.158993837150823,0.0599458177013662,-0.133551747192828,-0.103545852235634,0.0216858782438712,0.0468916356171264,0.049970912627765,-0.165020322556929,-0.333085879894791,0.103478568686235,-0.119368253582535,0.114371270755518,-0.0955876904335098,0.0896316192726117,-0.12451949120079,0.0217443354659432
-0.356521381717526,-0.151692472022005,-0.0805182462737335,0.35983993313315,-0.24429994520146,0.366922447469366,0.183988788148901,0.44332050498008,0.184647569925182,0.0578516578690469,-0.120837612389899,-0.0931836249634166,0.0148677713884677,0.0742676658009083,0.0627185741293275,-0.190483736641605,-0.315292425527627,0.0700194459044707,-0.0720245382889725,0.13169064922253,-0.077087782661192,0.106835849019568,-0.105072839736425,0.00246080761265366
-0.388149769385351,-0.143420897992381,-0.0603141656505143,0.364063956889942,-0.262981125515235,0.350899254446839,0.211384627246141,0.4792146654092,0.229112268578945,0.0432083125089454,-0.140582620870072,-0.0482787158557678,-0.0388093652388564,0.0870872468578802,0.0667705034705036,-0.207922761164074,-0.316147829837781,0.0642604191559141,-0.0342261753517168,0.192485148302595,-0.0372560535416466,0.113720818115356,-0.0783564647702829,0.0263360601569918
-0.403260345987405,-0.12813336210166,-0.0514838071853035,0.374568692531659,-0.294412428860683,0.36739778963916,0.254963615526708,0.505444475347579,0.250464245644434,0.0514091689377653,-0.15109072476369,-0.00751030416461104,-0.0545329281395966,0.122867081718995,0.0737947387011612,-0.223619566055291,-0.296533813777076,0.0319586635675244,0.00171445087241204,0.245440239702768,-0.0167102500289474,0.0986138472415023,-0.0444705013410467,0.0467784678921829
-0.421055636132093,-0.104493146625353,-0.0484663155498257,0.391894653321943,-0.301190550400759,0.369382591687739,0.268228108461518,0.510629169095224,0.241200785949442,0.0660990182519373,-0.145977098367846,0.0227982102950217,-0.0365191559845583,0.16134673771854,0.0854000054979104,-0.229040654712478,-0.272708690354794,-0.0213370099736253,0.0221789161187367,0.246231932712007,-0.032029197224974,0.102634185281744,-0.0332674643826313,0.0609523971083405
-0.339421297241128,-0.2531236538573,-0.0602869686022211,0.261334479925935,-0.261627441780311,0.359002835438886,0.12917548145703,0.394674617277506,0.167158456222083,0.0552028694304438,-0.186619996259644,-0.0902187860151968,-0.0223098423547854,0.0179672953255397,0.0315146296548816,-0.132745255942068,-0.342014737393917,0.158323766137283,-0.18214020678505,0.116969493491473,-0.0779104180942795,0.0584839923650416,-0.135902202041429,0.0388500823165831
-0.356872037370875,-0.213736246943622,-0.0565192209213828,0.300081283544633,-0.255048267781675,0.349558030885981,0.138778965190672,0.41644533487378,0.174463184302682,0.0492704914950882,-0.159344916078564,-0.0854256972864121,-0.0134382143549539,0.0316205484749621,0.0430674725004463,-0.155415949983838,-0.34547551567113,0.128302718120551,-0.134631265432389,0.127425656142066,-0.080554724127016,0.0890602952150505,-0.12801504857866,0.0385238758655829
-0.382524013842972,-0.18754962570135,-0.046982230730813,0.322468169321615,-0.258176691572688,0.334707201486687,0.165158794391838,0.449491740315548,0.211110900398712,0.0368735139010405,-0.157378061731675,-0.0594289284330417,-0.0459045089878553,0.0471749584064661,0.049015608494611,-0.177776656566528,-0.342328960828201,0.11187383352146,-0.0901371637474099,0.168416824134354,-0.0511551893833969,0.107297774613058,-0.105227544479435,0.0453014577171475
-0.393361316841935,-0.178187564728201,-0.0368200932006319,0.328655873802795,-0.266168088644712,0.3289167908619,0.179335703948716,0.465325391044683,0.230435609004227,0.0297959544293425,-0.160096318139535,-0.043362339470937,-0.0667551106586711,0.0507467294168954,0.048846018006907,-0.188174642927624,-0.34165120388433,0.108056140040698,-0.0677573988085558,0.197559766791658,-0.0317191143980854,0.112301233855043,-0.0902915424158351,0.0553515043323435
-0.405561512232251,-0.142702818482553,-0.02377769678661,0.358865418764963,-0.326745576681028,0.372985997991844,0.267514985615143,0.507798697669357,0.256828203571438,0.0540670967198605,-0.16535196484225,0.0204032003552367,-0.0697946382339648,0.120508693266383,0.0533111761930697,-0.216402760877924,-0.29950398296661,0.0397260679738784,-0.00615638179098192,0.28835186540207,-0.00588672014983995,0.0804817585099193,-0.0283864115497506,0.0911852607115723
-0.406734409980699,-0.1427820097186,-0.00876774873451199,0.364650721384683,-0.341051153881515,0.375233693601214,0.267719658005496,0.505401039701348,0.246902622121329,0.0686149938412303,-0.169619140427787,0.0402828741292644,-0.0571838049117989,0.128359850176756,0.0495055209422204,-0.210393277129728,-0.290733239271021,0.0195909565106318,-0.00804780589874109,0.289238977781167,-0.0154053284064393,0.0793302372306949,-0.0248496716034467,0.113703448715357
-0.224154884560289,0.406745967290186,-0.0581856154115526,0.165886270997157,-0.269351258423543,0.314750824103875,0.185682525546665,0.32737374646548,0.276074977089291,0.058387738910294,-0.429198445099056,-0.0242548321114392,0.226222514486255,0.0234107002346735,-0.016566159682891,-0.0786624248745466,0.169069445227351,0.256467106720738,-0.259118616362351,0.084227971230593,0.124282888569821,-0.0585053436598897,-0.0742233408247381,-0.0596363029786782
-0.259415652293471,-0.358269199105594,-0.0797672701228666,0.169650065720693,-0.268591676712532,0.357988042641692,0.159318595094995,0.347335251455534,0.214849578440657,0.0616885785091946,-0.321985043095754,-0.073731094515337,-0.117355715657296,0.0124390399784327,-0.00281223286771912,-0.0904853160474526,0.267133558450071,0.238475747617161,-0.271505512821943,0.10206887191737,0.0174113355472059,-0.0313659312466653,-0.121710701248835,-0.0172090342545373
-0.245931164166845,0.380893980998686,-0.0685185631225614,0.16590174868479,-0.271615226664139,0.336493987987251,0.173789552447097,0.344982598583835,0.249242238190327,0.0557841804966264,-0.372499045505676,-0.050117694961055,-0.171089582622972,0.0211671442452062,-0.00995025130529761,-0.088326208111546,0.232513160158621,0.253970784114641,-0.262903528574492,0.104103638602349,0.0675324732555311,-0.0427672085670712,-0.100020896523254,-0.0332873299218761
-0.290531440553219,-0.330971208686233,-0.0647535334570214,0.192213936186129,-0.269929709053326,0.347082856691144,0.147110797586825,0.371461897668984,0.212625947562649,0.0517085465471621,-0.288586861454958,-0.0715056225175001,-0.102683652441823,0.01162088861142,0.00400083111903848,-0.103996213518314,-0.306010902307727,0.227292948495628,-0.242413955792362,0.119442381359641,-0.00583930431264086,0.00193603014847437,-0.127277317007123,0.00761390681146519
-0.271083408560062,-0.356194534183041,-0.0638580215325097,0.173506164277428,-0.268978458992906,0.331515881111922,0.159703472883312,0.363506179462996,0.240995945734356,0.0466848113563693,-0.334634133634831,-0.0575006509370487,-0.145616988820063,0.0211462133172429,-0.00550266809653463,-0.09782913052985,0.281033093260927,0.250937984192006,-0.250647136250962,0.120711018907195,0.0348419237589954,-0.0164159667665044,-0.115757806498298,-0.0106206362650261
-0.339670653501911,-0.283337603773555,-0.045209304218369,0.234522724713376,-0.26787144832548,0.332314220089238,0.134700697026606,0.403127433374849,0.209003773521524,0.0405341532899868,-0.236369693209389,-0.063893123813653,-0.0846127986954401,0.000609992061097794,0.0197746813116923,-0.126948228647167,-0.342827231310461,0.195742043704101,-0.190658045185474,0.14172996991125,-0.0328972453459746,0.0498752531841426,-0.126779839733225,0.0416293893064736
-0.362823881830508,-0.271144896331807,-0.0285101573084402,0.241909918865152,-0.269485551775382,0.311457557624032,0.137343272716133,0.423003064491587,0.231943402386423,0.02754333682729,-0.234382526670947,-0.0441131387236394,-0.111463224085697,-0.001054983708828,0.0219597604921923,-0.13677599909158,-0.353715896913853,0.195901127818821,-0.163943406475767,0.170259523216085,-0.0171251510903898,0.0657774651075366,-0.114722944555541,0.0589870862153326
-0.388513507295244,-0.217056040985019,-0.0173865754743143,0.288115574872272,-0.298099611970159,0.329897027888609,0.199481317312787,0.477030935464203,0.270419174986122,0.02286247199393,-0.202868044575214,-0.0169186977786283,-0.126529997855115,0.0320713202088155,0.0336785767137277,-0.178717340951319,-0.345924481741484,0.156333403129103,-0.0778419702134684,0.255319086584315,0.0159844911008031,0.0739279217442059,-0.0616580218520518,0.0785773592892126
-0.391242280945095,-0.189622133587158,-0.024579177930129,0.314286802271129,-0.309230980870749,0.351023721012903,0.23008237461178,0.493396163670902,0.271942913179659,0.0328457386970259,-0.186330232138594,-0.0101453769550358,-0.108852935741158,0.0613461425241894,0.0428117200223361,-0.195637334122581,-0.332219480167018,0.121611260804572,-0.0476612904550166,0.274403328521581,0.0149312602650729,0.0730131363556619,-0.0461989387134501,0.0764701314158303
-0.374849625544982,-0.204087046216056,-0.00246599528940577,0.297259083493325,-0.359476676532571,0.376787724640823,0.266037116474306,0.501666213473487,0.287176791431438,0.0493830143885988,-0.208363535835611,0.0244487598111296,-0.123900086312797,0.0668448605412491,0.0309535323549842,-0.191254195540246,-0.321943578319773,0.126309542300756,-0.0396218331473827,0.33810510527209,0.0433042191764173,0.0318912152440371,-0.0117695037231381,0.113266695697938
-0.355967110522843,-0.24696632274003,-0.0451674893042085,0.266493186796125,-0.259838331796387,0.334036209902073,0.126642042431617,0.409406868508923,0.187601475417951,0.0420273435511947,-0.19279676279963,-0.072442716940307,-0.0479180055091378,0.0124792483789178,0.0320484424308569,-0.139753333741917,-0.352954900177767,0.161716740062518,-0.162504143311297,0.13423372704448,-0.0633238846689531,0.077210809448898,-0.13226437507793,0.0492811629626381
-0.373785476771006,-0.239256145516308,-0.033040940873326,0.272089246478417,-0.264651431829878,0.319781011228672,0.139784174688238,0.430545530003492,0.216630362153035,0.0309050789663342,-0.199181522288581,-0.0522816814063642,-0.0803025917499022,0.0145461487361621,0.0322834915551005,-0.150432701615439,-0.355936518851434,0.163731375856453,-0.139045490353407,0.16640406106576,-0.0384961017251366,0.0854079249917449,-0.11615872775844,0.0600316325956076
-0.388927417611212,-0.213930657792719,-0.0244110881901431,0.294538981780627,-0.276052619449502,0.320495045096481,0.168722706300006,0.458695900156701,0.24220422491989,0.0243673148865496,-0.190027323452029,-0.0352247915841562,-0.0978774130124166,0.0273705045047415,0.0367331315035936,-0.171991644467066,-0.352029304901001,0.147531649919227,-0.0950582803821044,0.208625950604288,-0.0154769317183382,0.0940191050806752,-0.0900550499544761,0.0688028761219748
-0.395621331513166,-0.184041917280378,-0.0300861716230735,0.321283496413276,-0.279519020960622,0.331974440977104,0.194005536425658,0.47551713794836,0.247667578016747,0.0273628749468089,-0.170757720383599,-0.0309907960630548,-0.0874839099002046,0.0507012525656779,0.0451449521240123,-0.190312190773919,-0.341193903319296,0.117182156399146,-0.0621096908297976,0.225725727851393,-0.0129344464069583,0.101143869646959,-0.0757032566309574,0.0648518161131823
-0.396711911308755,-0.164418968382639,-0.00426320473657728,0.339240947711634,-0.348436707320768,0.376574830565665,0.269671402681411,0.504650709686714,0.262152757839167,0.0555709782674352,-0.179862142803462,0.0322903967826959,-0.0842860159793196,0.104235730072141,0.0365964586793354,-0.205923246728158,-0.307167740740308,0.0634081576695466,-0.0211913896057448,0.31540059009953,0.00639333515467496,0.0624559695706876,-0.0209528723250859,0.119212673095678
-0.24841461012134,0.393658614850903,-0.0416230080814734,0.171454481325584,-0.277593531672318,0.295024922520705,0.191135639387734,0.356682615335425,0.302734040071166,0.0378020253585306,-0.424466965419687,-0.0127764661676372,-0.242730940494316,0.0285418868348459,-0.017197429084213,-0.093993426267896,0.204727596957297,0.271896301064531,-0.227527647750745,0.122643602571212,0.128974908441751,-0.0436598768921581,-0.0647853193320886,-0.0403761485400317
-0.271234538192328,0.380312789653376,-0.0146987458000773,0.17350492058403,-0.305734920998918,0.285493316406245,0.208791246300431,0.394509419432206,0.333624984377243,0.0237296479862224,-0.414418984218896,0.0128323409006273,-0.269868014884544,-0.0317913924213651,-0.0145793499690809,-0.104969295944451,-0.228980959560554,0.281082598199956,-0.181686635414749,0.186828516049593,0.147633520543325,-0.0436731647327272,-0.0295018273316793,-0.0077114963725763
-0.290364459591915,0.328494695603166,0.00918726121162908,0.149203486574706,-0.370309951083396,0.317503301422303,0.253133190098415,0.453756583000432,0.362256423732777,0.0264732869388076,-0.340023150338866,0.0451335402036282,-0.272427529925418,-0.0251039377796703,0.00984802443787255,-0.122599076742784,-0.287608298252648,0.285279266971982,-0.0926092122005341,0.35317363750456,0.165162233022434,-0.0783835680037136,0.0418687531636998,0.0718469132338008
-0.28616190359671,0.324059843518077,0.0115031327992723,0.146402571117713,-0.385184427441119,0.327738036501466,0.257402831655943,0.453015220873002,0.358561309670445,0.0364258739168566,-0.334998682240862,0.0510452439579796,-0.2635634368989,-0.021427035827149,0.0136335641118133,-0.120495759798167,-0.291013618148944,0.27972165861147,-0.0858630603077909,0.370871571494355,0.167144231073444,-0.0851340193398139,0.0463124247153528,0.0819315186359772
-0.288374660069819,-0.343758537822984,-0.0555954478236024,0.181541808392465,-0.269194548259862,0.32321600614914,0.154347483034173,0.376734591923109,0.244532212635616,0.0402021398177425,-0.320645098930553,-0.05380714057957,-0.144295511115655,0.0210684112016225,-0.00262203474890338,-0.104259903112233,-0.301092297534045,0.248741235125439,-0.236671355693078,0.133200309603382,0.027221064616717,-0.00105694873495771,-0.117060435048617,0.00303268621755947
-0.289549755397089,-0.355488837519717,-0.0425362886894623,0.18262620051506,-0.281515740424328,0.311897507758524,0.174712423650436,0.388874181202786,0.279543565378212,0.0333888291826629,-0.352509452316698,-0.0308167420370219,-0.190294395963394,0.0235661401391787,-0.00477561699615134,-0.108807682867424,-0.281710020742819,0.261295314197881,-0.216351308022292,0.156507121623681,0.0688215218739149,-0.0130389813706815,-0.0883141228897399,0.0016634130770613
-0.314374866035508,-0.336559285029434,-0.0111741083256383,0.188893169354917,-0.319006717323665,0.306924215864911,0.208678777855878,0.436525084581416,0.325247535910675,0.0206365033821925,-0.343043414174885,0.00640305513601582,-0.234024573834206,-0.0220376316578139,0.00273574015560327,-0.12667800623774,-0.296023143309977,0.267504139279775,-0.149057368457147,0.246460173923382,0.107538180726806,-0.0216123670976717,-0.0319086606513686,0.0400946606036608
-0.316558972137357,0.314647978664561,0.00233562871027965,0.179367093022538,-0.354416638225992,0.323089909786498,0.241931768109706,0.463679911359638,0.347039279755784,0.0238807708993771,-0.319301085804763,0.0300116889493624,-0.246594737521448,-0.0135732800791677,0.012355682148011,-0.135488015374331,-0.30556554189338,0.266440933606119,-0.101064107815393,0.329331345969351,0.132135414153651,-0.0466818973473346,0.0135210892339278,0.0729622386617497
-0.32418408588663,-0.278539068609553,0.00804786056211041,0.203199323078288,-0.382370847881368,0.358460916105867,0.262148327244632,0.479282940695524,0.332093495626924,0.0418140045945372,-0.277917514451483,0.0357120945428211,-0.206976625838512,0.00815871033948612,0.0184220735469353,-0.151084765474153,-0.31957009555316,0.228951486868498,-0.0702037109399366,0.375589403477684,0.118374391706211,-0.0403207940850138,0.0215615029207342,0.105070015215954
-0.312026135366336,-0.324476358935979,-0.0469082074353428,0.199185931917228,-0.271616602206237,0.321363704327597,0.149436622346776,0.392712418640125,0.241878981757974,0.0365164377688668,-0.296196946410349,-0.0510517581395753,-0.135240705753992,0.0159387502641318,0.00462689213881592,-0.113861320539446,-0.319755918601215,0.235665551662239,-0.216192840205421,0.146058224407231,0.0135559083685872,0.0178106035397491,-0.116334020809605,0.0210949517679945
-0.344014245361111,-0.301285920243864,-0.0283685081586287,0.219847630414755,-0.282450561615115,0.312771689140945,0.158648192967891,0.423713283235686,0.261491618513302,0.0263539271969,-0.277703834583748,-0.0325585188603069,-0.151211538243899,-0.00962183468215809,0.0128518115462415,-0.130833459931673,-0.335941489901942,0.22576117195502,-0.174030155615883,0.186680824142673,0.0218937901964828,0.0348016231922625,-0.0962281335913887,0.0471044641451184
-0.367482764232294,-0.267421704666609,-0.0131865141139532,0.244984131951166,-0.30284827002844,0.31872888754132,0.187031577174599,0.45993073673095,0.283500569574813,0.0206924905100575,-0.251203999911583,-0.0134558131129666,-0.161757219043582,0.003800724360424,0.0217826430362787,-0.154546010646501,-0.344058619479929,0.206202554007466,-0.11724595177175,0.246052799698465,0.0377318639884011,0.0440462839416607,-0.0631906774075497,0.0719782188686666
-0.366597231231032,-0.248318457406632,-0.00734100579879885,0.251848315524636,-0.333325539356206,0.34188762436024,0.230910586482592,0.48531315052515,0.305711134989249,0.0260922927622359,-0.240695272637236,0.00584657375221832,-0.17148942366293,0.0219421107079722,0.0254776045707787,-0.169690183369206,-0.336389816544111,0.194289752573826,-0.0772255676254083,0.309970521867541,0.0640279948036921,0.0238633232138537,-0.0245450857717293,0.0881957271394257
-0.367686642869127,-0.227394292198488,-0.00489094538453925,0.268945671490922,-0.347308379902911,0.359224823580122,0.249935818189236,0.494555009705648,0.302030475682698,0.0343724867639808,-0.224094119375543,0.0119539366904967,-0.154845217838727,0.0378490049483247,0.0269304525551747,-0.180883502809362,-0.332035176757002,0.16924831124486,-0.0556304937731258,0.332386466197948,0.0618693485298193,0.025429558487399,-0.0138499589561129,0.0990456932953062
-0.372742255849925,-0.263432495658197,-0.0213144634891385,0.247669590307123,-0.27579667477995,0.308291345422014,0.148334652361119,0.437105302205943,0.24710575658065,0.0225708752208121,-0.232636326408717,-0.0333124569365048,-0.126200188971785,0.0019560371375733,0.0236020566612518,-0.144675805035632,-0.355291932794002,0.194542904318386,-0.145091847824394,0.193642299043509,-0.00415406770805604,0.067936205696501,-0.101159381749434,0.0674768276760607
-0.383443195497134,-0.243951672323773,-0.0197895209866356,0.264378844210803,-0.275878486343923,0.310135782029749,0.153917420712149,0.446814108136989,0.246228859593749,0.0214616385329621,-0.214289089035196,-0.0317840451655569,-0.118158953048572,0.0110256054361561,0.0288867111116071,-0.15477117570733,-0.357289911860618,0.177654147738096,-0.125034280283483,0.202845472770413,-0.00865668328986331,0.0794542816695593,-0.0963476606509533,0.0729241153304526
-0.278054195841081,0.368705522382265,0.00578641056819503,0.15928580895953,-0.340489126101034,0.286190348938976,0.23249416414462,0.4198072570206,0.359066624948347,0.0208312677159005,-0.40390310174411,0.0409483583901539,-0.293887903830822,-0.0317292076429328,-0.00857937128196426,-0.107095788663981,-0.239038080838511,0.288363695957653,0.140022471797554,0.258583178802567,0.173713782198484,-0.0650534786367321,0.0145795815704066,0.024070924937762
-0.275693600255636,0.349559210414367,0.0144926732217429,0.139722699740822,-0.374647799791857,0.302427901626083,0.248967786213743,0.435122344800153,0.365812621283725,0.0300943599164247,-0.374913088205664,0.0567965993952695,-0.289820217092868,-0.0316091143999346,0.00402983469062079,-0.107324910253474,-0.261228882874398,0.289901861508658,0.104148192512379,0.33175351549577,0.183674307777606,-0.0871073104914625,0.0452669137604657,0.0583608954977173
-0.296138938412834,0.342047398062478,0.00353101360018561,0.159552085751998,-0.348032146922378,0.304264850429811,0.239154081601273,0.445972669566359,0.358508188582921,0.0192989719064092,-0.358073085863149,0.0356370976684612,-0.275646260856845,-0.0265658090851516,0.0037696781173637,-0.121571684848606,-0.280033816816187,0.287793999621365,-0.117249847178662,0.307078699504688,0.154931399328564,-0.0636002013586481,0.0196544712010317,0.0527042166614947
-0.29515785692605,0.335523796458761,0.00623075577764315,0.153429111023301,-0.356595140123096,0.308471506430809,0.246722347287148,0.452097305010356,0.362994386544803,0.0202620572227295,-0.348921167509622,0.0410193740462705,-0.277743234223021,-0.025284185805229,0.00720722440150701,-0.122762013716672,-0.284244065373865,0.288933598070581,-0.104728210244312,0.330488493801965,0.160120717126302,-0.0721498559903798,0.031948793689274,0.0622355778977678
-0.199418762631432,0.372986482735475,0.0187425890800329,0.0641697615559927,-0.488969858611994,0.360949360029025,0.20624903154117,0.359630473649231,0.302406532339033,0.141832386042607,-0.410323318752428,0.108600382489411,-0.250864642912753,-0.0541775375251984,0.0564290886997979,-0.0352411941968055,-0.287191395444231,0.282497508645072,-0.0812329793730113,0.39481402754925,0.191125296749409,0.170211214478417,0.0615023863366261,0.0855201185094343
-0.201485625414159,0.354105933682801,0.0250941111863388,0.0805233097943439,-0.491556664520783,0.401464663365513,0.209788881288785,0.383639718138667,0.287874798634255,0.134432294594857,-0.37723505778824,0.0779828379706405,-0.215221824350058,-0.0645591876549533,0.0463595174340567,-0.0624874278957609,-0.32756965162452,0.2855235519029,-0.0663500825918568,0.412858775314481,0.165888318790239,-0.158233800346095,0.0616530905640392,0.0987117100420012
-0.195536023296545,0.309787168882301,0.0316068840082055,0.0985872545268019,-0.471127141394864,0.455750580671311,0.204695631334162,0.404338276567934,0.268803421442013,0.110875585155507,-0.322310224315922,0.00844322701041604,-0.167343167760585,-0.0976755597520358,0.0130418357319726,-0.114763789633158,-0.395063497303855,0.29617255461314,-0.0311537338917876,0.435152204812241,0.138912585374533,-0.115220946877661,0.058509223993021,0.095746045707708
-0.198091832017497,0.322988521513877,0.0391285695801344,0.103731877912048,-0.482428220756149,0.443389729934525,0.206094016257299,0.40203110731208,0.271797724236367,0.118783128623853,-0.339104956417628,0.0294535041761696,-0.175878141602457,-0.0867905423328605,0.0174736496599047,-0.101192139327444,-0.374909438503706,0.289818218950671,-0.0425907933698027,0.426155484290759,0.144886502784679,-0.124850027023594,0.06064112209986,0.104176850523216
-0.191310033280695,0.391785469962558,0.00970089566826586,0.0584514351978907,-0.500407074054349,0.342223488647383,0.184691733923781,0.320536585336799,0.291266446672293,0.173286472850705,-0.457093111552836,0.13574181087028,0.273841575793721,-0.0501479646669128,0.0697216633295627,-0.00313834215295977,-0.255365918346871,0.266860208458915,0.100123229706652,0.358438801252741,0.198779411610488,-0.180625445289187,0.0490125954874333,0.0621179927513407
-0.191752092599809,0.371429642449981,0.00105119250742419,0.0614985628968288,-0.501575335426651,0.383999350748816,0.197634307583474,0.352686437799656,0.283087617105947,0.161877341663384,-0.415711656545841,0.103473963702006,-0.239862454344964,-0.0570985168679169,0.0754665833496796,-0.030660566273254,-0.297065796843423,0.27542601055236,-0.0774827762513068,0.387454402994544,0.175194247214944,-0.182209952582038,0.0563014316964478,0.0666533214468948
-0.189927920348768,0.350525105722906,0.00148560905850432,0.0685861873599251,-0.498351824522651,0.416834779211643,0.205194431243474,0.375788134355391,0.276800982545597,0.148253952349237,-0.379803629204011,0.068260469277837,-0.209247134208136,-0.0710632619575018,0.0656008782243061,-0.0579502219452591,-0.333282146650282,0.283050601205823,-0.0553873351776796,0.40863064081051,0.157646690292556,-0.170168999594163,0.0637252883318453,0.0697400190573958
-0.184894705827994,0.276903173336572,0.0151226121342471,0.113598386588788,-0.457446971434713,0.487983554764293,0.201138440012181,0.40685494738752,0.257357515203871,0.114073503599185,-0.300451055108462,-0.033633471819881,-0.139662134889089,-0.107622885961057,0.00767688469225029,-0.139841001896917,-0.418814434252244,0.287237444360174,-0.0123626274743527,0.430138247944609,0.130122753411009,-0.0888776995590226,0.0468904968343863,0.0623626857382027
-0.189633007079876,0.304177728531674,0.0150775184910827,0.0974477543649465,-0.47378530814385,0.465699904529244,0.205211004115375,0.40243536961881,0.265386332978183,0.121384120913792,-0.323606529791765,0.000962190624222204,-0.161433239439894,-0.0972251372456045,0.0247748198440642,-0.114257553030311,-0.395253430025196,0.290658347950768,-0.0269428915641717,0.430026813605458,0.136510279662081,-0.118640922014957,0.0563064959121201,0.0748645848309746
-0.188291761110627,0.332365490703709,-0.000736980017923976,0.0740047014202033,-0.491645585310766,0.440414871445672,0.207495758851479,0.388793141017796,0.271282264583757,0.139989415604717,-0.354822468172109,0.0397138348998535,-0.186705460205375,-0.0823686636284045,0.0570605715781359,-0.0789772153697285,-0.360525731050759,0.287276273383107,-0.041529513432695,0.420133478395541,0.144762205486401,-0.156887468095352,0.0637855105258786,0.0677465041330265
-0.180571758863518,0.258007866589541,0.0182491512942345,0.128250622747764,-0.445845220474137,0.501845822094634,0.197265240536283,0.407494509774265,0.25046031865054,0.108974460760428,-0.286349392148625,-0.0554211324049502,-0.126103811458222,-0.112454801614224,-0.00506055627157831,-0.15667949942338,-0.43049822709575,0.28270963493507,-0.00363446159469705,0.426573401594124,0.129210405283134,-0.067514385255624,0.0388478508645688,0.0539489452910658
-0.18632153836114,0.402898340219983,0.0055105908806519,0.0739168395121876,-0.512993041215262,0.332663882692331,0.159127432636359,0.274288698960941,0.270748136334257,0.215269067255873,-0.509701682285775,0.162422201113087,0.292941862420408,-0.0415699446284163,0.0724700968902064,0.0252348870064438,-0.220889856426256,0.23861344234219,0.128519731490149,0.311515543472659,0.201494405420149,-0.182625898055629,0.0272380639724763,0.0417460901065273
-0.18325416411068,0.37881480147326,-0.0135136555924366,0.0706159830215856,-0.515661794207309,0.376094762071785,0.182967455634212,0.319973346225505,0.269303315496149,0.197074511503534,-0.457693375807795,0.124691457796544,0.254051230570534,-0.0479594066109727,0.0909121144242075,-0.00606425208896346,-0.266233165914784,0.251739713736081,-0.0925660925514611,0.350659541821813,0.178405192856011,-0.191955441042193,0.0439429303309782,0.0376808810111324
-0.17477593482021,0.340016898139537,-0.0432652899615424,0.0719487945070686,-0.515534914441327,0.434276401479842,0.204095131162289,0.36161191260943,0.258291988886742,0.188625576731466,-0.397169437433689,0.0670552999296465,-0.192786592014224,-0.0621795060912228,0.106154179984951,-0.0441182305141614,-0.318494005956025,0.257652675409458,-0.0577323264603939,0.38187037867899,0.142143921095213,-0.194131414785294,0.0557484637870205,0.0229078646057488
-0.182194904985771,0.359560675023603,-0.021456979101039,0.0650676376261635,-0.511639306550681,0.40842963250445,0.197971604235415,0.352868555525426,0.268158836681256,0.178251887930507,-0.412359373808987,0.0896451986142586,-0.221031803386359,-0.0592130884083356,0.0934188457987329,-0.0331558789003646,-0.3053678470935,0.265538001673246,-0.0673983280326644,0.381984221488022,0.159173164018261,-0.19118728057622,0.0561028501186762,0.0419506450533991
-0.173786608493126,0.276781297605053,-0.0186665420906025,0.108385814463447,-0.472530689799942,0.494826266638802,0.210164443758025,0.401667312334133,0.257912344925093,0.143115410294939,-0.312058745664653,-0.0324406702534409,-0.132399291291891,-0.0997609254736494,0.0382509811946405,-0.124087859390386,-0.397544255167718,0.275710163143079,-0.0174391771834378,0.417082033946305,0.130016081981879,-0.114975231046212,0.0517253711279092,0.0301842492901278
-0.179766675871362,0.322580346831595,-0.0250273768503648,0.076297281923525,-0.497666880866189,0.453873750760257,0.209356037708834,0.385542639277788,0.264324300095381,0.158448578685245,-0.356959970002709,0.03066055859349,-0.173655910173795,-0.0804686525070508,0.074718643726899,-0.0769742867727681,-0.357647594078215,0.276098819267734,-0.0391376515686087,0.409983586018963,0.137304299360331,-0.164612446693996,0.0610047763484046,0.0411359981953594
-0.182841237421278,0.344136382990616,-0.0197686759700495,0.0640194668123712,-0.503441530790649,0.429648302777098,0.205515383607132,0.373992319672176,0.268517957973948,0.1608832112951,-0.378627144981051,0.0605629974215121,-0.1984971028908,-0.071392605402708,0.0832897149657806,-0.0560649299095609,-0.335896019301761,0.276947081789883,-0.0503134177375917,0.403796315895806,0.147512747207741,-0.180145342389942,0.0628876551468433,0.0487576266519242
-0.134805218800338,-0.157190678319938,0.00938410478992029,0.188371333537954,-0.385059648788566,-0.570830315107735,0.192980872280792,0.396218866856189,0.220624799945418,0.100711405797742,-0.203308565433246,-0.177856299756756,-0.0501640213471468,-0.129931731947196,-0.0511706057839207,-0.223751551572653,-0.439878533858721,0.258042533798529,0.0278380606250252,0.391300037500392,-0.143492263966515,0.00278472711043433,0.0163701221688228,-0.0143780588344377
-0.166077326284008,-0.206281822560143,0.0313688543675577,0.170966156862464,-0.413500707529397,0.534483487326577,0.186806123183951,0.404380641093185,0.227913810607729,0.0929410112761456,-0.247480587180156,-0.10943892131856,-0.0918147146812878,-0.119249116408728,-0.0381006555839122,-0.198611970399226,-0.448201132161544,0.266038274482758,0.0170682304300355,0.410191061673203,-0.132938303452972,-0.0143399197785433,0.0177928298781334,0.0331828590691377
-0.180948205439736,0.386882597747828,0.0103515454167905,0.103230924574016,-0.522085441037289,0.351467371734211,0.150875077276619,0.253568126832973,0.248994735376009,0.246444712229749,-0.533153847264798,0.163564190930756,0.288017296084207,-0.0332386617933605,0.0795802068708084,0.0259618314738419,-0.211841020460199,0.211977884647243,0.136597959636861,0.284313746895447,0.192517970508286,-0.183578204480465,0.0107125821622771,0.0164729272627446
-0.178155765308971,0.372794167683377,-0.0277369303649154,0.0965747540118617,-0.524744442962026,0.376093566855579,0.16792557791137,0.284958116599606,0.250048844928362,0.235503344669261,-0.4998719563187,0.141274094656241,0.26169232946102,-0.0372817774230643,0.0992340295084908,0.00801062657422954,-0.239204763237224,0.221043393371298,0.114610069365496,0.310000809433293,0.177834953507992,-0.193770268102322,0.0207268943953927,0.0125957061488479
-0.165875500116763,0.327772076594058,-0.070690568569288,0.0890024664748098,-0.527193148077525,0.438761515523079,0.203950462116,0.346931648824095,0.244836748139384,0.22036914955009,-0.416752152367433,0.0735300847253134,-0.181606073413301,-0.0505796414995049,0.130844756133294,-0.0342390451363564,-0.297418158095453,0.231018586994699,-0.0675369014762747,0.354561812896489,0.1345239674126,-0.20700276337667,0.0447769322069442,-0.00503854647981879
-0.173402490350666,0.352503303263431,-0.047441033228973,0.085574064356374,-0.525824871325568,0.410795945035023,0.189707383313578,0.326260218082061,0.250263265817338,0.218678578945551,-0.448552323913953,0.104477381527495,0.220300328554212,-0.0460367593753854,0.117373684731195,-0.0171870442187002,-0.278157388677493,0.234505201776583,-0.0842508318690853,0.344343096652437,0.15460376835957,-0.203484214944897,0.0376375353599494,0.00964982358791961
-0.140017211186669,-0.213136087432982,-0.106544765960232,0.136644946045607,-0.477057533024385,0.534912091654399,0.252547238700183,0.40389486654631,0.257774114170234,0.202339918436485,-0.273421152916184,-0.101322815178237,-0.0505509911834583,-0.0894689028497524,0.0772129865276158,-0.124982918159617,-0.340060072042752,0.231821168537954,-0.0242923054264909,0.371160186674327,0.115954731149527,-0.147000644023641,0.0772566307887276,0.0566138320258394
-0.152502761641954,0.25000172793089,-0.0801374120445844,0.11968648750267,-0.488297039062978,0.513819037941671,0.233960703808548,0.397947629700566,0.255830718071663,0.191928823259034,-0.308099471083858,-0.0546161310981394,-0.091499587080399,-0.0869241315754509,0.0794682867645982,-0.110876946957965,-0.355905513176567,0.24444502321235,-0.026068106493175,0.385793481257709,0.120586908044673,-0.148869445741525,0.0646439751650508,-0.026814983623668
-0.16585168045965,0.304765307865798,-0.0676379252497842,0.0918487434536846,-0.513274736161784,0.466262594966521,0.21679120248911,0.375186441145721,0.252893299428072,0.199103402173486,-0.370139352990869,0.0274882306184202,-0.150405774676617,-0.0677403714697699,0.109018625525827,-0.0657823742443008,-0.332102951526412,0.245419177299362,-0.0464239232556215,0.38095299626605,0.126883087580097,-0.184478624539545,0.056518574058762,-0.00103394652666802
-0.0884193317077323,-0.130048146753834,-0.0669011746481696,0.200523435853182,-0.379748162275308,0.618557279008201,0.250937840052084,0.384461255074935,0.235288646166847,0.16047740114823,-0.163404968809823,-0.284103219886694,0.0186007058902989,-0.123047259971688,-0.030064122553828,-0.210480669480481,-0.307369270709462,0.268195567756187,-0.048742800775582,0.301530316479271,-0.144850037040056,-0.110135874324333,0.0653093101431585,0.0873862773989538
-0.0940433375983409,-0.139542977040772,-0.0641192017756942,0.190079749172702,-0.390775583207574,0.607351876444507,0.246768617463722,0.393792621968711,0.24325687044728,0.158683462964504,-0.176817433933746,-0.258332182011265,0.00453694525359612,-0.126476191457008,-0.0236181436848546,-0.205363053318674,-0.333962963585875,0.266045465862199,-0.0270136913373612,0.327137072923271,-0.147153263287246,-0.093925184016579,0.0668685990906332,0.0840593302700752
-0.125302944818737,-0.17724407988139,-0.0609276237115879,0.166309844396456,-0.429362242776904,0.576039767629613,0.23587461026661,0.404829000123945,0.247019888243945,0.161221205585701,-0.224522512617755,-0.174811038205304,-0.0336634439055417,-0.115156425163167,0.0097252690254153,-0.180343409422495,-0.375705406761161,0.25544665532466,-0.00783202484099177,0.37228350043521,-0.136597827689646,-0.0880676274406564,0.0586861705903848,0.0533741626408187
-0.152368246171984,-0.2215326692747,-0.0277714513814376,0.142175755895024,-0.443074914281758,0.539058959109276,0.213585079617447,0.405867961096839,0.248728074469737,0.14117785162581,-0.263972968015362,-0.107445568462162,-0.0832040946424082,-0.114067335286244,0.0109703565057953,-0.164822233031236,-0.411644950228466,0.266753416097311,8.47686585087187e-05,0.403881198888855,0.131771393316229,-0.0757655473893426,0.0446895952481198,-0.00671622848364546
-0.0721765334977301,-0.115010706056853,-0.0285105261390023,0.216240318035,-0.355369886713155,0.641656455231495,0.235723000295538,-0.373242193401761,0.212713664843441,0.138538438784711,-0.136333739252435,-0.311059020649722,0.0242430381952446,-0.125138674622391,-0.0640571265970992,-0.233817993247411,-0.308488321711245,0.272679843217529,-0.0455346733408449,0.295591600609793,-0.159075020302373,-0.0906640273026768,0.0524924943246158,0.0719259531350181
-0.175165890139022,0.350549653527609,0.0376148586136975,0.134423085787825,-0.520103435183813,0.372213054139824,0.153917830754998,0.240508182000109,0.233719969797792,0.268042129381432,-0.542582717023094,0.149840739440961,0.268624402899098,-0.0330090770656986,0.0864467260095294,0.00889885088865523,-0.21358856148076,0.188840914772651,0.139200197842785,0.26884659098643,0.183049236179473,-0.17836460053585,-0.00845945605959748,-0.00924370813164581
-0.168311623559055,0.333931362585741,-0.065844814363471,0.123578501243898,-0.528157047984117,0.403244644257909,0.176571369620928,0.2846341272422,0.232402825659265,0.257937607415283,-0.496029167155671,0.122325141666214,0.228380855457443,-0.034664381211373,0.123541879521812,-0.00844772268758109,-0.244939505374568,0.196902237424732,-0.109905639379939,0.297943660053373,0.159296965845727,-0.19836757835973,0.00649778281091175,-0.0187235387029725
-0.158377425204596,0.294999151933341,-0.103516196667207,0.11274196239276,-0.529513965501181,0.45101348485365,0.215281794909451,0.345284741717577,0.236783837765532,0.241942448833886,-0.411622969588663,0.0586409877811123,-0.1512374331799,-0.0450668732876731,0.147973013925209,-0.0416907712900365,-0.287865170292875,0.20491402965191,-0.0675202927136179,0.338995894186498,0.123045783118362,-0.208038613091599,0.0393302605862785,-0.0325234860362318
-0.16204381018387,0.3182135674648,-0.0863593395919937,0.113381067407071,-0.532259573704092,0.428333860439174,0.195973596911297,0.318438298919437,0.232507924257541,0.249190414108605,-0.452990288831675,0.0935173786708427,0.189443507430074,-0.0384103901270087,0.143926485716615,-0.0229730468779844,-0.268987969052603,0.20310127994637,-0.0864303741522313,0.320798848255416,0.138100167290623,-0.210305665123962,0.0235814919264102,-0.0250862810893178
-0.141324870133243,-0.143477414361244,-0.150515157470326,0.184978158492361,-0.454860134396309,0.550994855394731,0.295022514786165,0.401707656247104,0.255827934857431,0.205135471880637,-0.224445734096888,-0.163542470754796,-0.000981677580984733,0.0827928772244793,0.0704429208024878,-0.152193416834017,-0.281359170707574,0.196857272996596,-0.0399875000013175,0.333120406105634,-0.109962247480095,-0.149792557597932,0.0901638949273597,0.0937630596488459
-0.135814731638448,-0.176752380489813,-0.131109070121611,0.163323764235297,-0.467697792174823,0.543238780914401,0.275730981253184,0.403260201968531,0.259423115772264,0.208848486552386,-0.251322001321931,-0.1334385351006,-0.0240224992294352,-0.0865951131621949,0.0740759724018172,-0.137601243321746,-0.307950408406509,0.211795089987023,-0.0298361316569627,0.350401113084543,0.114973770839969,-0.147384036307855,0.0859029367773995,0.0818430909692507
-0.148430540992474,0.224452817294509,-0.131975645631231,0.133945440481465,-0.501672176419832,0.506417303007155,0.257761447582343,0.391559254140608,0.253455385543208,0.227055212746938,-0.309814903484323,-0.0502708422642077,-0.0637672681737769,-0.0672345937293667,0.118403633464669,-0.0948982109061756,-0.309929258970271,0.204742459118283,-0.0372629439697224,0.359212521984824,0.107384202151688,-0.176640278637475,0.075295508177132,0.0599675970915432
-0.154529694481772,0.263305374505792,-0.117611886861156,0.119624879613874,-0.518929805880051,0.478139638001093,0.236495653192588,0.371522032547678,0.245433117289293,0.233808342643657,-0.36221999037349,0.00906609497028125,-0.10833748649465,-0.0559890604902546,0.136750135190577,-0.0672408894381249,-0.304504529266366,0.206315580566684,-0.0498772854460567,0.354687247676594,0.112858528823369,-0.193893424660002,0.0574735611262708,0.0428314113598765
-0.0972711856340128,-0.127475608938082,-0.0598271671260222,0.221300591045343,-0.387507272240461,0.639171760559692,0.255062887379625,-0.372258261855113,0.205692607956842,0.161888727607409,-0.156546395626839,-0.286041208151286,0.0293012664454142,-0.101062997109978,-0.0266132312274398,-0.213852795917843,-0.275153488658951,0.25454149641374,-0.0803863899508198,0.280902127331708,0.133369068817027,-0.138033371768176,0.0519336857449187,0.0633405269489284
-0.118035953846523,-0.140653715543043,-0.110265511442206,0.191982575361324,-0.422095951389391,0.588442611471675,0.274788214325291,0.396830376840697,0.247273212617596,0.184143680388508,-0.196128347619802,-0.224099875971827,0.00831703813784155,0.103602649178711,0.0218218665907458,-0.181072417946788,-0.297970305223132,0.235637755137989,-0.0461717525429947,0.319999539597393,-0.125249682150116,-0.133088052085888,0.0781669921773341,0.0897795793326763
-0.113729982321549,-0.159867520731344,-0.0950021137742323,0.172713348299729,-0.426308081058101,0.578597141587231,0.260001200464673,0.403641645859945,0.256727417175089,0.18094482394843,-0.209648635391177,-0.204795223118356,-0.00843062355427687,-0.11361772549746,0.0185928927808497,-0.17464345746372,-0.331319221645889,0.247518420704929,-0.0243792278592239,0.343391847090435,-0.131419267949678,-0.114723638734916,0.0790698319946379,0.0847220631939272
-0.164114492861301,0.289058686413986,0.0887080953732434,0.169318680209333,-0.510722635621636,0.395412247413343,0.170243483985267,0.242996208411453,0.219927918868382,0.282820651041091,-0.527637716813135,0.120812142996247,0.226199362426432,0.0356011163036514,0.113942592581394,-0.0223606045604598,-0.225162969579833,0.161535658856385,-0.126504819275616,0.261880078103847,0.166414274161271,-0.17235358784514,-0.0289628119622808,-0.0478291100659778
-0.154151767770924,0.235059100394239,-0.146262385294011,0.180707499217129,-0.512747150526795,0.424188634845618,0.207010779502084,0.285733472480504,0.216990093869822,0.28198717234327,-0.46695702869798,0.0773038878127742,0.155142274659103,0.0317597508708145,0.161146029198571,-0.0487266102481602,-0.243107440464981,0.143163407894205,-0.0934357523259525,0.278038636460216,0.13584667275677,-0.183690633646228,-0.0143407952055872,0.0798999225217944
-0.158503485184663,0.285821001092851,-0.107525996934715,0.153590554588545,-0.523646968540683,0.417964298609948,0.188926758032315,0.282776819853707,0.219884698741202,0.275746939116191,-0.486845092636475,0.101916284629224,0.191781342286665,-0.0324446890595244,0.146300125123165,-0.026963527857125,-0.244484902214476,0.168723644023617,-0.104106183136692,0.284148905481916,0.144723239540604,-0.195453799543902,-0.00792224756964401,-0.0516744064676235
-0.159215393102281,0.192757146453693,-0.181565098977807,0.171196156543914,-0.512019832965516,0.461404834516175,0.264737100138313,0.353133469577368,0.239244357106764,0.259769576401715,-0.361649368970849,0.00531027383475418,0.0731006877147129,0.0352735792426341,0.167068972773502,-0.0769941151227663,-0.257016686715016,0.140664906261435,-0.0540539535912889,0.320719737989491,0.107703379479338,-0.185648865281607,0.0481120151787511,0.0877379852805783
-0.155607006451384,0.235087595597343,-0.152427659448946,0.157092567693679,-0.52097469423494,0.44993147298064,0.234130609756196,0.332909131646849,0.230843265405523,0.264905550953489,-0.408472971495703,0.042796184541411,0.116742566110505,0.0358057261157129,0.165608465859064,-0.0572865729419438,-0.26329742454442,0.158977678001001,-0.0689674851560435,0.313394537962544,0.117913241307228,-0.195304054445312,0.026660848538693,0.0719955039301336
-0.155473658869271,0.279765626755323,-0.120039394810776,0.139916257604378,-0.529607288210735,0.436187830683379,0.206980332924442,0.314398281347981,0.224227339847994,0.266880438421541,-0.447757513695521,0.0793100787341519,0.160330828922721,-0.0338322180470197,0.160285851291224,-0.0341909366318455,-0.260627627542221,0.175852181690919,-0.085194691126328,0.305516274417339,0.128123037125243,-0.206969998249,0.0141506676691207,0.0522412237807499
-0.161902097888037,-0.108090535355281,-0.146514769659447,0.235097672561817,-0.438454433667827,0.595920052555481,0.300623025157598,-0.377322895445352,0.202621152854094,0.178647218371557,-0.194789457948126,-0.205195675151153,0.0227580720456887,0.061579198930047,0.0619975325974791,-0.191977982043788,-0.249007035745876,0.184221982295485,-0.0836467807295218,0.29600324242739,0.0982280191605435,-0.168247275872966,0.0477968683430319,0.07128102191493
-0.157770032268516,-0.114739038179064,-0.164879337103863,0.213115180303828,-0.449603487714345,0.560061994713761,0.30790669548963,0.391882823014902,0.237382902051503,0.194426527201931,-0.214152362887337,-0.173647308266262,0.00951068246087985,0.0707137592824642,0.0760393178567802,-0.17075076886083,-0.261010469561543,0.176303972490009,-0.0528278727471763,0.32034046200542,-0.105679755834866,-0.152946517353944,0.0745916074359427,0.0922104693322079
-0.159220465175647,-0.13773355590956,-0.17960161122078,0.19137022158514,-0.475381977334123,0.519939805485651,0.305411950280361,0.39332567298388,0.253564123302815,0.218643059297623,-0.255041496806641,-0.111969320720112,-0.0120843182386683,0.0621625612697444,0.108717220024114,-0.135929815677367,-0.263921295552053,0.159307170180661,-0.0371777622622599,0.336127249614673,-0.105013467668814,-0.156907529190515,0.0851974340179059,0.0966924514808625
-0.154859077603866,0.179683357915552,-0.174538150798558,0.16883233339637,-0.501558678800873,0.490697707688007,0.284166403392943,0.38079911090307,0.25169598892745,0.241957428811872,-0.309884764111005,-0.0469990265387534,-0.0448269849210313,0.0502611406525981,0.138410151499153,-0.098828077206286,-0.267729073132116,0.156736463904043,-0.0395689406574481,0.338085469173718,0.104699301386099,-0.174842560454877,0.0752485459080404,0.088100804571271
-0.153254107044377,0.225277260131171,-0.154753263382925,0.143382666649147,-0.517371522075218,0.477331665121684,0.256285921541431,0.369063346191301,0.24333842953624,0.251061094372181,-0.350348586111448,-0.00261792415698193,-0.0782880555615458,0.0456246406750734,0.153617065579454,-0.0715928769889255,-0.279013610861424,0.17281402449765,-0.051133229861781,0.337994466230053,0.104451041126596,-0.194932768281308,0.0609670545040708,0.0686337368718682
-0.138668221004855,-0.131390527303497,-0.0882127411647459,0.242088007571323,-0.42553347796932,0.643294668133904,0.268260728519683,-0.359163172674065,0.16627869996148,0.172863274114979,-0.176623548380929,-0.243725341951846,0.0355960432792945,-0.0577480797194382,0.0256500078959979,-0.201621160228093,-0.24283183543129,0.216172944119735,-0.119034231243229,0.265630857886763,0.0990140082528087,-0.186236672417967,0.0254484235116666,0.0351839097415673
-0.133168991404534,-0.124216022174274,-0.115921280443827,0.218929023658821,-0.421130586985447,0.605382302753047,0.283654255682862,-0.383234278233161,0.219330005058896,0.178942868604782,-0.184822990951026,-0.235492292008554,0.0218672956389532,0.0846487470696459,0.0266092920598466,-0.192518961395717,-0.266299433224562,0.220029431437743,-0.0771560388258895,0.294858355228596,0.112491164653817,-0.154976514661471,0.0603709432109189,0.0764462291255874
-0.155635363001863,0.169595739162641,0.175700271767185,0.229418880471387,-0.475841729433898,0.402693489593262,0.207390620010121,0.247772536770441,0.213856022816652,0.282530793103658,-0.481906540228523,0.0643403884659462,0.151214429133062,0.0386847059806259,0.148911081955078,-0.0800492447630991,-0.230787987376808,0.109557302662774,-0.0942373887710976,0.252569871732688,0.153320960605523,-0.137068149672761,-0.0514045352591612,0.113072813903415
-0.156271001547717,0.227656852687109,0.135181932442888,0.201761497802696,-0.494560248305115,0.403071575450616,0.186954609475282,0.243552792915723,0.2126888999647,0.288725463975058,-0.508073718833239,0.0932897828724045,0.186997804783891,0.0375800630243704,0.135241427444746,-0.0511251195667678,-0.22925276787435,0.133950430766557,-0.112772032224212,0.254042384338515,0.156507191488373,-0.158084680313178,-0.0451233252203315,0.083074228887012
-0.163149226421859,0.150001287537323,-0.202719686137197,0.214641541519322,-0.492844525043696,0.433123046333077,0.261261511203184,0.315104280501321,0.233622715456391,0.261113836013162,-0.396868310898239,0.0173257568534655,0.0872866709887684,0.0319388095244811,0.16728055990012,-0.0945663191601154,-0.238648288144971,0.106920913282013,-0.0536030545421299,0.295808691465523,0.129253994363976,-0.151279800057713,0.0117606669441759,0.116220967209451
-0.156977656150004,0.184955207950051,-0.179687770450132,0.206207811300712,-0.497457743149506,0.423187376310533,0.227303124786823,0.289038946331546,0.220567958206705,0.277365088786222,-0.444043306689316,0.0523473498030558,0.124745636134485,0.0316871951064126,0.167727601470214,-0.07288396887866,-0.239959512900344,0.119705251977304,-0.0794190365988871,0.277037027379206,0.134388103373002,-0.163658716014368,-0.0157237934983776,0.103662530279492
-0.176569982454842,0.114270016354899,-0.214422166618643,0.212851209096625,-0.483560473135936,0.47708595371031,0.310523686669245,0.368440436026161,0.247687711528058,0.22818409355868,-0.296766069145709,-0.0590743110501983,-0.027528134537922,0.0409308339573397,0.146476640930091,-0.128665065246339,-0.241628340941953,0.111273966540844,-0.0314839337965788,0.328316954346009,-0.110806586071833,-0.148061489376496,0.0649463842403118,0.110855636160958
-0.166486698879717,0.146958692393662,-0.205367617890814,0.199903680220201,-0.49784653290743,0.457765751299678,0.287381969645323,0.352464118881554,0.244050806415997,0.250267957446752,-0.341926275350496,-0.0162931351393907,0.0534985439543547,0.0342525394802735,0.162023456086638,-0.100590301847699,-0.242623572478109,0.114617223111958,-0.0413832637035144,0.318690661361812,0.11285062228565,-0.161676718338786,0.0505952150652848,0.107429152416929
