0.332370390395098,-0.201703625799963,0.158805329123859,0.0366515234846929,-0.195647716377968,-0.130943181698401,0.132611552521777,-0.0340874646560079,-0.0897252445057857,0.270950221263737,0.357421480994696,0.13486765361544,0.122267724982207,-0.0230133276215887,0.337636283705953,0.133319128756797,0.354082059672503,-0.078472815285324,0.0970117800627209,0.251089311456357,0.134442048515902,0.340456260244582,-0.148225082528747,0.274141501921803
0.323227045063697,-0.199740869783785,0.14478180967719,0.00927300605509259,-0.194758503477397,-0.122685838037809,0.149583854099237,-0.0643777112577489,-0.0952037572743343,0.270544315875218,0.365382152605395,0.12578306432962,0.132212111980727,-0.0383003580179865,0.342401354342591,0.136935658168578,0.332067698318361,-0.0900649024611646,0.0831821990411143,-0.259415961701536,0.130878454241306,0.332156634742505,-0.143842486332676,0.253658766353848
0.292725986842064,-0.243174100507728,0.0554272158156904,-0.0221412252428368,-0.174050399222189,-0.0546666483921495,0.186565223858487,-0.0728846041509508,-0.135914183394161,0.310046795048367,0.409146738671401,0.14176389514989,0.110419745099869,-0.0713930834823297,0.358636400834037,0.116365009596848,0.359808495958575,-0.110491236902658,0.0160222399460035,-0.367333031888615,0.0827075080833252,-0.272905500793477,-0.136707436328956,0.213011596987665
0.255251230271399,-0.302972043125385,0.0110848836378653,-0.00954161819260478,-0.159029751464408,-0.0118253812673521,0.223059189056909,-0.0564802867112749,-0.125032945513724,0.342315423833203,0.404016997591876,0.138873144275001,0.0822143076125079,-0.0857554985031248,-0.332017055162713,0.0798039393538906,0.409751937276137,-0.0960485258183562,-0.0152810203126002,-0.412048173926696,0.0604427129347188,-0.242851636081965,-0.134479295504443,0.201776569208531
-0.459040941535173,0.0266415118337632,0.347290796706994,0.217636267230611,0.116797565489356,-0.0845671650216178,0.0351416377633268,0.214927718841678,0.488224846857035,-0.180388948380184,-0.032422255647303,0.269488094133065,0.0532468299015783,-0.0254478206707567,0.440639451766259,-0.187782646900631,-0.26959293608104,-0.364537569474851,-0.128209868289757,0.0354717275849126,0.488137264255927,0.282765943479811,-0.0580350615879346,0.0542145136860871
0.232115449033231,-0.0349147299220674,0.29554724880413,0.311480214084509,0.11927015201571,-0.134165489415295,0.162536688403798,0.0146078378112636,0.474788921684087,-0.0927305052476661,0.0482609864356354,0.228967741084542,-0.00840232160497621,0.0265093067309643,0.25658531454727,-0.238352325798797,0.298643844071508,-0.345691530662409,0.179634216561611,0.118068433224763,0.566207224945127,0.172090454997782,0.135582563258493,-0.0329600446913155
0.223858443768225,-0.0391236846692102,0.300324749680444,0.319665132357017,0.121257572807903,-0.132852534357629,0.171575468767272,0.0323368452419503,0.47121712322465,-0.104628391049673,0.0537650907156017,0.226692469900452,0.00877404071042656,0.0292104440994761,0.250961525601437,-0.230468351579988,0.307723167140396,-0.341227203370192,0.184244615813723,0.110064636203836,0.562683892367448,0.170641699138808,0.126511660889082,-0.015501589202274
-0.253819643312378,-0.0331057032977457,0.301632697643259,0.305152864740466,0.117680012896179,-0.126405438442292,0.154558797767248,0.0295955055592971,0.478816563391012,-0.102596777172335,0.0452262221248876,0.229435116127575,-0.00641186826587507,0.0194752293593443,0.276227082300442,-0.234963820691902,0.294972908487791,-0.346555371113998,0.178018063120234,0.117434234659762,0.565961370078478,0.185635426598218,0.130661738760668,-0.027433073068143
0.261762423163997,-0.0449448364871898,0.317244213588092,0.314213604842927,0.11731842124509,-0.120282300627996,0.154605317117227,0.0723224408155756,0.477513402000096,-0.130142457685627,0.0545769651714243,0.226970443195604,0.0228421630259737,0.0159558901336447,0.289495423490162,-0.219424048916404,0.309095554346207,-0.341454678860448,0.181736627732879,0.101369305518936,0.561310583599932,0.199727363731834,0.107990484331705,0.00672492811072872
-0.340494710401674,-0.0104891210354765,0.305396305971802,0.259161460076025,0.107937391858387,-0.100516789040737,0.121895674099676,0.0639258155149425,0.486810327737697,-0.117552018449441,0.018566798220321,0.237654404101206,-0.0140361821601887,-0.00670809390479152,0.338228700964143,-0.228886728915382,-0.267170463697328,-0.35243810204954,-0.170166075756259,0.120484073964656,0.552929710212053,0.220945115555504,0.12659232392045,-0.027351384184686
-0.319109197342216,-0.0246551927545023,0.310992214213775,0.276595386070348,0.111147998993686,-0.108090443328166,0.126502514062512,0.0671238081286882,0.487142347185039,-0.121446612099237,0.0329297719025971,0.236944737780596,-0.00352133187081682,-0.000298936396885763,0.327466636267648,-0.226042827125321,0.281808608882107,-0.351459786955954,-0.172278269230988,0.113028647927083,0.557003170040711,0.21679168120829,0.118784380919904,-0.0178233621591036
-0.379038096545598,-0.00721742222812919,0.310563199791949,0.242133280515874,0.105322781261603,-0.0949517063572751,0.106684770815863,0.0990248516450649,0.484941802450255,-0.129965866040935,0.0117723161355449,0.242906423041569,-0.000107894101668358,-0.0179559226485396,0.362976872071225,-0.223218095100843,-0.26168075780229,-0.35616173875186,-0.16290852763335,0.104869165517932,0.537326726787332,0.236820770186858,0.115782428977724,-0.0101505810289156
-0.388035694416243,-0.0305147663034268,0.331743568730053,0.253263795733857,0.110248918589304,-0.0911941096125253,0.0870313821424649,0.142103658134592,0.492825685782695,-0.157193729123208,-0.0364234058101231,0.248194166064696,0.0246442027825275,-0.0182263516459974,0.386525859662852,-0.205503197081672,-0.279355201898036,-0.354741664115095,-0.15797417112088,0.0819374708583296,0.532798520281024,0.255077544889449,-0.0861536972384455,0.0188185843948201
-0.440072022714439,0.00140494827448491,0.309650821631799,0.211874719587279,0.105329740998273,-0.0942194954410323,0.0845807209790407,0.151221549715213,0.471137506959899,-0.136768314978077,-0.00289226337315088,0.255446416781649,0.020041993326233,-0.0310674099414603,0.393659089893979,-0.221672470838656,-0.25167363156729,-0.363497541678048,-0.142628612437377,0.0674719210367692,0.500573117961028,0.253530038471586,-0.105333267348148,0.0153441153937924
-0.433506301933771,-0.0182084502563814,0.326170076594084,0.225001847792373,0.110102791531268,-0.0861651822890618,0.0671630231801011,0.16695054895509,0.487782646101473,-0.15694259383762,-0.021886936656208,0.260187314907342,0.0294736198698976,-0.0264992784407711,0.410767528839155,-0.205528271784144,-0.265749939910617,-0.360815722829681,-0.145058938457842,0.0648196848727011,0.508516094276592,0.264311254180683,-0.0839086443390479,0.0230922352256213
-0.427615798889701,-0.0311881082813349,0.34155594593947,0.235947687471944,0.112244732756817,-0.082968679884018,0.0597334383953392,0.183104909504152,0.493722907079834,-0.174093862174118,-0.0377863736332053,0.256767239667773,0.0382269194719801,-0.025559457445518,0.419409399950293,-0.194410657040737,-0.274565882229096,-0.357168439934749,-0.144635757113075,0.0609821079685836,0.513211356330993,0.274251592575977,-0.0688132819581995,0.0372973788779032
-0.239034226310274,-0.016625584653303,0.286963039356211,0.292239804642632,0.118226636185889,-0.134777075322675,0.160902913245709,-0.00718552744436446,0.473860391068239,-0.0742156860738906,0.0345737889612982,0.237217998774655,-0.0328680387542457,0.0328573729538513,0.253000778843475,-0.247208062673478,0.2903339947762,-0.347233979913071,0.179109960459065,0.12820808647185,0.564236812259362,0.163427817883667,0.15425766848789,-0.0522131445735786
0.230189348430157,-0.0257330768065472,0.291199528089141,0.303500838625366,0.120422426541054,-0.135238924557917,0.166683195761352,0.00771376164446212,0.472475231779615,-0.0851868537851522,0.0430413145853792,0.233794146287855,-0.0151945563823622,0.0324681216728527,0.248682228319214,-0.240891542396524,0.297781022279376,-0.345317440057106,0.181483615914602,0.120080500668154,0.562898321217804,0.163761131714494,0.143537728801242,-0.0380522009452398
-0.261327422340723,-0.0107774543025439,0.290982846214285,0.283817517775917,0.115460625367936,-0.12644297462572,0.154288488443876,0.00336433007218466,0.477455578459306,-0.0823997090330862,0.0280112835802974,0.236017400452087,-0.0340609351329486,0.0243943846449155,0.271089101704601,-0.243789403745552,0.282773001647666,-0.347650847667703,0.177986308657285,0.131858219199909,0.56398591334806,0.17481426171266,0.151756195608413,-0.0499570016343332
-0.280711062641126,-0.0192343562545812,0.296966194080355,0.284143364626406,0.113441723056028,-0.11965521005147,0.143603757295004,0.0233809430242331,0.482074954353336,-0.0963082267740799,0.0313024848556871,0.23479998273005,-0.0224308309854619,0.0133140362381052,0.292238002304343,-0.2381891499451,0.28164369705797,-0.350103106816848,0.176047646334001,0.12631692712349,0.564023221980181,0.19137741094276,0.138788508142654,-0.041036281915179
-0.356796688366953,0.0214814295448785,0.30021132116987,0.231845745984418,0.0945897908398557,-0.099209882269164,0.129354131396005,0.0537243043041401,0.475671992897318,-0.111782502136529,-0.0137192177096782,0.225140574390983,-0.0272453098187679,-0.0189617615038552,0.330877050707087,-0.227257360372355,-0.241369925462168,-0.350358930753994,-0.172282976804006,0.141711411217119,0.545404689354341,0.214784160073756,0.140799760698846,-0.0297593618090093
-0.323973596878691,0.00156182828783972,0.299338831876396,0.256795936482054,0.105656077363031,-0.107257361684908,0.133074431521557,0.0394578696741505,0.48237566868155,-0.104360705309479,0.0102126459566368,0.234393896892991,-0.0284597055781183,-0.00108581476500637,0.317501657990612,-0.232694286669645,-0.263417069107184,-0.350455900138355,-0.174149897220256,0.133961195187573,0.555939315128274,0.204724541643852,0.139878401881907,-0.0379652896360139
-0.305779102264669,-0.0147244338798227,0.301006550454002,0.274102241953877,0.110771411286154,-0.110042067380949,0.134420352727608,0.036813160292861,0.485306838555489,-0.105208085356837,0.0252345232770764,0.234119515928996,-0.0223170242079138,0.00409645020053693,0.313255955212041,-0.234670848181176,0.27347703730551,-0.350611710858527,-0.173568455102766,0.127692840851965,0.562068966229212,0.205253841435925,0.13501086763557,-0.038029978991865
-0.378266871308488,0.0297371772824275,0.305618215851105,0.216653058598771,0.0853462093216646,-0.1032857269145,0.128867702845116,0.0731937148508261,0.465947162426303,-0.118353460046638,-0.0277985304752417,0.213510316490339,0.0169317346990238,-0.036604928386374,0.333612761938091,-0.222880894523702,-0.228462265436101,-0.353413385614604,-0.166615705396376,0.137814146526385,0.534033454859212,0.222008248942581,0.137458579112323,-0.0110502463712995
-0.368979628528397,0.0132345554991631,0.302186785232378,0.232496027978988,0.0969268597546748,-0.0965278452241353,0.122558587429913,0.0713330987472281,0.477041034632203,-0.117896167531705,-0.00857960278509477,0.229994224034151,-0.0161061489207104,-0.0214362077143932,0.343265900385555,-0.227729954604155,-0.245110495675713,-0.353241912881907,-0.168585193190861,0.128233627849295,0.540776439463985,0.224622840749697,0.13341779889234,-0.022382529464968
0.262513023859363,-0.251930993652487,0.192163252629437,-0.0998030005138952,-0.146572252937644,-0.0188268441485423,-0.0604879783549895,0.214544488736735,-0.0964153903571092,0.0933138857144217,0.307344959626751,-0.162890152077601,0.227985545982159,-0.199732591435984,0.31255230898943,-0.0128736278670306,0.182837982682869,0.399402700475696,0.251896490117609,-0.0152961441015413,0.232639950524403,-0.410056797357941,-0.0891284350582522,0.132669031317954
-0.235383047214341,-0.00953352135529473,0.288927752304037,0.288224266449506,0.120182633342318,-0.136121064561378,0.168177212243967,-0.00366013215877654,0.47118672662346,-0.0740725854845419,0.0320915204718532,0.238215032123957,-0.0334881243559777,0.0377639232254319,0.244665617044188,-0.245277931590161,0.292616746905555,-0.343778173037233,0.180817430317886,0.127976259865987,0.560469107257034,0.156604678723392,0.1572442955987,-0.0470892301477557
0.192210360385102,-0.0211612190120877,0.287590458821513,0.305809155279222,0.129532777622579,-0.14606555454052,0.192160169931807,0.0077172532981258,0.459036069698966,-0.0767795063582864,0.0476042429459139,0.237237301042793,-0.00512936879850552,0.0533819055853935,0.20633495939885,-0.240901868579057,0.311235225793723,-0.338101241330642,0.186439242864817,0.10904188479403,0.551254269387343,0.136462286927967,0.1498305341139,-0.0266409723459883
-0.280097036374948,0.00774480246912782,0.293609774794847,0.266751253006619,0.111832244938879,-0.121890423198354,0.153313785373024,0.00721445475999746,0.477351064379809,-0.084406384744429,0.0145961316427009,0.236173299006817,-0.0453599816378152,0.0209762093051493,0.277656135332509,-0.238438490369843,0.274735925138944,-0.344130326289062,-0.179036420038156,0.141546136164535,0.559910959868956,0.17388704006354,0.156306328467163,-0.0490087278908111
-0.349674676048145,0.0339454707793723,0.30402382254087,0.22988451874579,0.09253779772123,-0.104006334890763,0.136895770588421,0.0456083133062032,0.473535619889696,-0.111154149733973,-0.0195555777935106,0.218126755454676,-0.0377986043224518,-0.0184554772316104,0.318727414571059,-0.220801040772045,-0.238276021506514,-0.345086438063375,-0.17435851236392,0.154218108435618,0.546860726449332,0.203137376613847,0.145486592257683,-0.0283177137707306
-0.31715984660682,0.0248429048144203,0.299094411078579,0.246877132534006,0.102874161578528,-0.110985532198061,0.144250591362427,0.0235949479355459,0.477970537090087,-0.0976452583486648,-0.00315988711726591,0.229196129373439,-0.0481667704740042,0.0031597685744632,0.300603144141341,-0.22781287079599,-0.256910721082659,-0.342721373644963,-0.177857140247132,0.152269385826829,0.555006737791326,0.186661054577056,0.152265457030878,-0.0420655260441172
-0.37344400299589,0.0438369640024265,0.310789571020072,0.208823272421704,0.0785067123610884,-0.110978000439631,0.133500069311757,0.0630421334647886,0.462159525983717,-0.11751618099078,-0.0384947610687401,0.200701710686477,0.0274572627822621,-0.0433643296797766,0.320122727886529,-0.212947375815359,-0.219273197825616,-0.349501470749696,-0.168064221105178,0.15554681674023,0.535358571706355,0.21062777815833,0.140791924045941,-0.00835392706602956
0.290072387992366,-0.415710364838989,0.198749292249683,0.136628950785592,-0.00482243071875148,0.0872685807695331,-0.230304643249587,0.101523778118493,0.107177091138909,0.210710899134365,0.173658411707385,-0.0582452332674564,0.115179433200811,0.194592728566976,0.355953029417412,-0.0663869442557924,-0.281931672722926,0.358976838770397,-0.276452197644862,-0.110129556599251,0.261681934372925,-0.358844192144503,0.0824966877511013,0.0422220997498354
0.28384694822493,-0.407996638963742,0.217759374118262,0.123680471524084,-0.0105438693364777,0.0693975481716397,-0.215066942366223,0.111624985248879,0.101638050375075,0.183407941330922,0.171679407496465,-0.0766724281729661,0.130411388552241,-0.19143570760768,0.359758239408289,-0.0616016436496614,-0.276039761350302,-0.356444597470945,-0.277860931492959,-0.0821907103905661,0.270958295262534,-0.373899411585152,0.0701756853215418,0.0487987022335301
0.238128600457848,-0.338573809828999,0.295003410432025,-0.0532344812176448,-0.0838282410835305,-0.0350871325212466,-0.149291778881604,-0.167206412519594,-0.162899589574652,0.0444372968874916,0.154003591275477,-0.190678082211978,0.183062886015516,-0.212247943891335,0.390475911376741,-0.0440456987347116,-0.188426392992752,-0.333363397024542,0.239639087278877,0.0889740678526149,0.306047513913187,-0.430908382883611,0.0392823503007712,0.0440245844360901
0.283718181157048,-0.43588974179921,0.192005551996352,0.12427993500833,0.00258931220171527,0.095548875848745,-0.21834379159916,0.0829939540728924,0.104186657107545,0.232763630056865,0.193354927711595,-0.0419470751830472,0.0903010026942491,0.189077952355154,0.345937292143442,-0.0627191658167852,-0.305308676413049,-0.346845077481689,-0.273050814701836,-0.14577744564454,0.264621151930369,-0.353657215821149,0.0802461040711707,0.0569698528207181
0.252992289602389,-0.295154754886382,0.249436957572378,-0.07614754468203,-0.119078287497037,-0.0490877856497036,-0.10442768382916,0.189972674276832,-0.160977953063119,0.0584995301351674,0.245207108311556,-0.175401360967687,0.210549231281508,-0.206797443389624,0.372533762680527,-0.0209015390539242,-0.187223991653866,0.36215323207449,0.232143950470958,0.0479220724215536,0.275497710639672,-0.427833818946394,-0.0278384483563097,0.0784786577044895
0.185304531104512,-0.0170160091083807,0.288590133445912,0.291179471751797,0.133230395445765,-0.153444534567149,0.198233104440062,0.0107521523417458,0.451885845017919,-0.0667420465184249,0.0455729586280799,0.244288754283911,-0.00810719533704135,0.0633245575955402,0.19023647803606,-0.244976643539254,0.317675386835504,-0.335010266998045,0.185094500386406,0.102437690977138,0.542960663389873,0.127464879837981,0.155162253238941,-0.0216907217539471
-0.258282242777328,0.00917052581365261,0.29484967269916,0.267205393067789,0.116654927687465,-0.133523341398561,0.16604086947415,0.00548719589244719,0.471867129227313,-0.0773737307385717,0.0189847089762119,0.239501681158317,-0.0462263465293521,0.0333530335884804,0.252276242415612,-0.23789104820014,0.287259319534756,-0.339233678875393,0.18125361203533,0.137058806687015,0.555032289024023,0.155370103918611,0.15968702264919,-0.0425439664696033
-0.298024691435349,0.0257729934710088,0.299394197624417,0.250419482057779,0.107483812681331,-0.120103600655886,0.153422488149511,0.0162073836614746,0.476332184172851,-0.0905146063340538,0.0021229256685891,0.232501340022902,-0.0541615689032246,0.0143768831833355,0.281580998718383,-0.227804832438808,0.267711411536126,-0.338636848119151,-0.179749337831878,0.151774915099613,0.554332455209132,0.170578672298217,0.156370525942561,-0.0418732539841258
-0.3627804220595,0.0501861788165501,0.311984684517277,0.214480399334768,0.0838388387512564,-0.111042020802399,0.137829430312397,0.0526523473988721,0.466944960779962,-0.116717715381692,-0.0346849545861579,0.203423889972633,0.0415511497143808,-0.0340442962750912,0.31391506957295,-0.20659274825335,-0.225555627960962,-0.341964322033594,-0.171848602803602,0.16569550529208,0.54046615025605,0.197352848650378,0.143701796520195,-0.0151560296330504
0.293856544868232,-0.419181905008888,0.199149609515946,-0.130801662756093,-0.0223790013040257,0.0767207041299715,-0.236939879536212,0.0956484417563263,0.123125463567182,0.210308702039133,0.159159733390515,-0.0553353580121539,0.0988083132305539,0.20516452827331,0.362580268037178,-0.0573367914821665,-0.278435940586124,-0.348308614609604,-0.255196865163918,-0.102451864152516,0.259707327709856,-0.354006369192351,0.0982309756321709,0.0335442240850693
0.255648116061092,-0.312606307273835,0.293308931424359,-0.0618087628106444,-0.115664776172513,-0.0544820738020553,-0.149866995078854,-0.154828294504387,-0.198508013690148,0.0396611160092907,0.154813379598862,-0.186369431728973,0.175107291714319,-0.226062512520828,0.400281390030041,-0.0347369943634736,-0.170080164835544,-0.326303081570999,0.208688545517306,0.100900671347645,0.306317873569319,-0.432931351053542,0.0495854537618197,0.0444252615914136
0.265927819990011,-0.291730360387394,0.271322186113771,-0.0815666024327647,-0.12640576604274,-0.0635045947999723,-0.136870385336603,-0.16112854395471,-0.208825005835063,0.0485513975940654,0.198908984429728,-0.169698102970125,0.189779905190043,-0.21967939657735,0.399917971126064,-0.0221557667848425,-0.171596826061534,-0.33722038995301,0.202693279704773,0.0800209667609851,0.288722576839685,-0.428208401494313,0.019796673840609,0.0534090575035603
0.283882493991265,-0.266990957455074,0.24047809508072,-0.115395312083244,-0.131756587467746,-0.0655522661434013,-0.133303318699871,0.161271300510591,-0.220751739110621,0.0701441710437109,0.238324352502964,-0.138509670555202,0.204703516773601,-0.211272838909653,0.398692367362363,-0.0107135337907364,-0.173660666552224,0.345319756456214,0.195054180475384,0.0497667406010255,0.264305264140702,-0.413651662945186,-0.00162007054450512,0.0564598006982703
0.295492887393906,-0.250472404043767,0.202875055265871,-0.145701728927122,-0.12634636798723,-0.0520965275212624,-0.123372822650853,0.166968982633,-0.207972137530649,0.103477709647595,0.279318392895328,-0.107114808423735,0.221670992643,-0.198350686362376,0.383352875783344,-0.00461815172821569,-0.183652756345398,0.356806505158306,0.202378667580475,0.00481194150532267,0.237126186638569,-0.394432328181914,-0.0262991059030576,0.0659465315025436
-0.196411153186643,-0.0165895106256062,0.296917831952038,0.26706699668941,0.134294758472548,-0.158270426101951,0.195440649362626,-0.0288863659532947,0.446323921301079,-0.0648508687981674,0.0424673570481134,0.250266559282586,-0.00984928496237777,0.0643841651109054,0.18901224160648,-0.245576094113872,0.323608021877722,-0.331302625998664,0.180347379044974,0.0963909999801371,0.53500785956735,0.131581199901264,0.149751046243359,-0.00863525143243703
-0.243872232926341,0.00230074164025569,0.310552827979877,0.243916758225913,0.124786202046929,-0.151044954203818,0.177307195204401,0.0394587245659619,0.45818098041152,-0.0771397717345095,0.0278087828979943,0.246035701985033,-0.0374643794102498,0.0459078019467092,0.223971325639364,-0.235558645395064,0.31101571481844,-0.328309145759754,0.175667375420705,0.117249021710429,0.536630990310289,0.145686739044825,0.147122982405199,-0.00844550698232116
0.292501188559298,-0.346108837025232,0.276464921389858,-0.0743146624404017,-0.11002985738178,-0.0235967338775952,-0.196687633544992,-0.109828060326755,0.177203462209393,0.0883918516363184,0.081970258156655,-0.144189644159178,0.119892352549255,0.246063017100893,0.394409661451257,-0.0368846184124799,-0.18846596475939,-0.303514818717353,-0.185354100717876,0.0666962712714576,0.307978155196586,-0.405597001123555,0.128932030487944,0.0256142860388728
0.27765903782082,-0.318764460512307,0.296962629365524,-0.0533995376227831,-0.135436153878709,-0.0552361612334702,-0.168379042551373,-0.119078328610406,0.198608720617172,0.0460829467271376,0.0873583159403216,-0.177416741284218,0.129438306539197,0.250199017637227,0.397866343031477,-0.0339492742038429,-0.162972496349035,-0.297176195910904,0.170614701484432,0.112467686611023,0.320424128002787,-0.424865383328116,0.111745569839582,0.0348333873788683
0.293730708159046,-0.43622428433878,0.187885992925254,-0.108502903222151,-0.060176518850163,0.0522589316179256,-0.245084483104154,0.0620709826774355,0.150988429628173,0.223796513209448,0.142835423587142,-0.0223492959601663,0.0327996604788135,0.21149790614421,0.36301388729439,-0.0233063628735082,-0.2957722388148,-0.310105666371086,-0.196097317695774,-0.119152983428211,0.24510814952845,-0.327988993556083,0.126308265239534,0.0302440085511653
0.281435678388927,-0.277751001815506,0.280956111600799,-0.0714729573965699,-0.157551187102069,-0.0896404102902063,-0.139677175509557,-0.130469645107997,-0.238173777720553,0.0302988783968684,0.154759620041406,-0.170842437704329,0.153491401160108,-0.241768656102116,0.409094379079092,-0.0128593036968299,-0.151068264574895,-0.308470527591086,0.152195727973588,0.110434189386887,0.301855962608325,-0.428942711567489,0.0582867646463718,0.0453261464219787
0.297372429586331,-0.25914319537344,0.246935803931434,-0.11029420018765,-0.151326518682255,-0.0900135572347353,-0.136995353265661,0.137080977042205,-0.248689286504796,0.0546692815647419,0.206633238111537,-0.136516321093392,0.176872098954696,-0.228380721465227,0.412057641688837,0.000274656079048018,-0.158906600964582,-0.322357884269724,0.153385120845751,0.0725889344256097,0.272989732055804,-0.41337490440066,0.0261729844755176,0.0444336488000146
0.309294188496821,-0.245303471867616,0.211117373322767,-0.146790165139465,-0.138916520948801,-0.0786407457905105,-0.134525027637259,0.144444692830106,-0.244996343897284,0.0877092449417606,0.251395053042923,-0.101762777689085,0.19978538965807,-0.212455854368782,0.405643869743526,0.00696141352467183,-0.17042637698296,0.335013987052093,0.16341675918082,0.0286914707469108,0.243978262567774,-0.393937066008327,-0.00014109491854258,0.0459304894197386
0.259112626254019,-0.339776325155984,-0.0194949928942884,-0.206393706717841,-0.0433162480991231,0.0650931915160731,-0.065153875147097,0.124289847005466,-0.137092079802339,0.385195316014079,0.350337133962532,0.0610436787656405,0.188066545507832,0.137450736372365,0.30769791187797,-0.00229586797090506,-0.295989020790756,0.247249604155862,0.252440591677726,-0.287263199938029,0.114179447567888,-0.225655041123864,0.0171328862039482,0.0333303769004393
0.166628961117351,-0.036306304154792,0.298744066709773,0.25470540144395,0.148466293511911,-0.164493645242194,0.2134218544991,-0.0645972317655692,0.4203312161526,-0.0651676655111084,0.0534875360206417,0.252116776244111,0.030501682043064,0.0779178312641918,0.155488029966573,-0.246044037814251,0.340574901825706,-0.322975300595554,0.174278361403758,0.0638840698963551,0.515783044842769,0.129639809075819,0.132010197082822,0.0262293944957625
0.182201186044762,-0.0337790463819971,0.304717907182493,0.247282253918662,0.143984631587865,-0.166775350877217,0.202519786685382,-0.0593191813821809,0.425730226146857,-0.0622366060079454,0.0487128869933309,0.252467529677236,0.0133037746246842,0.072956739461294,0.169163682344925,-0.250062310829802,0.337905090898125,-0.325200168421918,0.169791389607419,0.0719320975867128,0.521324930410765,0.137768913428614,0.135509616882972,0.0206024546354755
0.301362085375933,-0.340138972753306,0.269046732387489,-0.0340354131563234,-0.169137783478828,-0.0760729863730515,-0.18016433048007,0.0497232744378691,0.194905897533233,0.0845771534056456,0.0494120320489194,-0.108353911369791,0.0324821403298626,0.25222851175332,0.383830615267135,0.0132301165570979,-0.198567318199309,-0.234248257055646,-0.092584386829639,0.06078200250371,0.304740116746639,-0.383727444112204,0.168209599185778,0.0422712541081962
0.289751995058185,-0.305525819140751,0.291409082795046,-0.0224254368446245,-0.187078185501657,-0.0963734426627898,-0.150375275023916,-0.072352015787574,0.208246652277456,0.0353400315107498,0.0482862945066987,-0.15984025651167,0.0627020159765656,0.264347580023514,0.385824012964913,-0.0020254418114569,-0.159100519623134,-0.244302261691375,-0.0933607283014049,0.121549478960156,0.3254159734778,-0.412537032375639,0.148643107895309,0.0467563446205452
0.304100484405013,-0.389213203058029,0.234521805270462,-0.0602683946161784,-0.129995338787832,-0.0317239804916003,-0.216143508394444,0.0392230023882078,0.181407323524293,0.151624008433554,0.0831932363605096,-0.0512222177379224,0.0114671061807828,0.23091519246666,0.379711081332206,0.0160564755952908,-0.253929587965914,-0.251363484165876,-0.119133268046426,-0.0278245152756858,0.274072892161423,-0.350652918005246,0.164229665838029,0.0380854236087489
0.3062712482339,-0.36717318450832,0.252675179902671,-0.0854392434325325,-0.104878069199958,-0.00840705690161933,-0.217023484581493,0.087623723328154,0.173495089230186,0.127498550819406,0.0817924218502063,-0.103853037885465,0.0891821178620585,0.243854200246725,0.390780728072466,-0.0266927349855349,-0.213541266088843,-0.296180001489539,-0.174045825916152,0.0188228628892523,0.291850177910445,-0.381842747929908,0.147212361400462,0.0220909353008639
0.331419280706324,-0.234526760905686,0.196944898453284,-0.143008015391045,-0.162974724812919,-0.119264325503335,-0.123798347732292,0.112523949690776,-0.26987588690898,0.0734162976457031,0.229290007892053,-0.0860327307753104,0.159903060167198,0.233195244079103,0.416089598946128,0.0378033832309238,-0.158027963414923,-0.301466206495675,0.097441352258298,0.0389348052798186,0.244552773077171,-0.383331151501743,0.0199788429179908,0.0316462488076488
0.24136823954985,-0.439155805362367,-0.194712655156528,-0.000894567229689038,-0.117004958957825,-0.0543407960413135,-0.210027379435124,-0.0517336976493388,0.178623321000075,0.20739863376187,0.121655096873514,0.0769787339977836,-0.152471842042282,0.138047247225347,0.319412604920412,0.105120573728381,-0.380778215073921,-0.174992895942195,-0.0582554183677492,-0.150916283823419,0.216019933675416,-0.243304193289397,0.161628389955251,0.0851336222220129
0.280140796481826,-0.376684184690292,0.237281306667812,0.0108806803242644,-0.186875912096915,-0.120412263009868,-0.181201925877775,-0.0385803342992588,0.194864803471897,0.129842069763462,0.062354181548827,0.00625854565810584,-0.109961153457847,0.194347703943366,0.352649235660651,0.108528156112356,-0.287982557978685,-0.148289487874615,-0.0106513327676732,-0.0381411955951406,0.254342782944396,-0.305328435458923,0.184771082707168,0.076062874678064
0.126203333029594,-0.377528800882849,-0.107196191782691,0.177901367963578,0.0816029432785829,0.036604479960433,0.0205957358574152,0.229183757681368,-0.0770704788086411,0.480976109768115,0.391148552918,0.0984214533364974,0.100326292949801,0.113968126999577,0.151751381361795,0.313093005052864,-0.23382607783001,-0.177135525613071,-0.246375974669948,-0.395018893731633,-0.0680967198764542,-0.0204973726138141,0.0265816183650374,-0.00660365061236727
0.111457330948788,-0.401685749523357,-0.0296272368925699,0.19779246637922,0.0774593441143965,0.0157620114199344,0.0533550492452532,0.227087862010183,-0.0650088545692716,-0.500023440775412,0.378646532061746,0.0885493055118312,0.085640834068893,0.145791471125751,0.125382362653566,0.345026444808785,-0.244682071405659,-0.127978685216575,-0.200003549430484,-0.414427216894974,-0.140958345938008,0.0555841091375807,0.0400260257987858,-0.0421653516793749
0.116872918375168,-0.39194345156028,-0.0708628890599591,0.182604114130196,0.0768321797644385,0.0228890879188235,0.0355639074055573,0.227830982667586,-0.0710063201031671,-0.485834386921503,0.384947091302831,0.0895591286220471,0.0891733332669571,0.131713965653403,0.142596319895241,0.334307844890259,-0.237933532503412,-0.152502181669814,-0.221884502369622,-0.405548089929585,-0.106752331487202,0.0156742025207915,0.0330536148804588,-0.0156881011557468
0.251784435855793,-0.306265608469514,-0.196117846377892,0.0237893841571541,0.0372380221885677,0.135071966108541,0.0682460737878668,-0.0143109219992434,-0.2891580253084,0.300378305758236,0.155154809381292,0.0191351348982748,0.0170789208800084,0.127047168562853,0.192459618827978,-0.191351337835743,0.420619464119208,0.233825337180147,0.220753296345891,0.0209630099797761,0.411829773653445,-0.222796618428078,0.105468306944987,0.113297080035523
0.248403834273395,-0.308124098363116,-0.202045022825062,0.00805019761742851,0.0419756528640992,0.105966967158486,0.0444073454141558,-0.0227168213760672,-0.323032768560925,0.279963903591285,0.176522867600177,0.0429396097116207,0.0284287621380338,0.105107555098725,0.211582743228906,-0.174616999113133,0.43947686851557,0.20710741125991,0.207569744933294,-0.00701400181739634,0.430230217047148,-0.218991569498991,0.0873601803465277,0.0959914235158794
0.320752942798835,-0.210400729028236,0.19122638928291,-0.00875229206797539,-0.277622243950136,-0.262539122559471,-0.0404729095369285,-0.00143657896064714,0.257319961183435,-0.0313092703755867,0.110947198976055,-0.0910033503295884,-0.0318741472754801,0.276486112157507,0.362831333566273,0.141332277111668,-0.125581542466533,-0.142513049830741,-0.123307747025595,0.118113784202229,0.2839157261894,-0.356697622419045,0.0835962364515866,0.0513065237751567
0.352884671497533,-0.226450967529458,0.140563920997675,-0.0782591588574817,-0.229749470210289,-0.246644266272811,-0.0642549892770525,0.0181846370624425,0.267937367207894,0.0276111525798682,0.182748649820575,-0.0395070337100792,0.0125290156254827,0.270381444801574,0.388840208429882,0.162454220674523,-0.146390024049941,-0.169388747536032,-0.094646449678935,0.0470563346560439,0.244149503166643,-0.332065943525454,0.0512935552191117,0.0191911983232485
0.339464369998796,-0.211000090717387,0.1822193245043,-0.0568420341137792,-0.246652035902891,-0.233115066292606,-0.0614775079237987,0.0275987537914789,0.275864388158211,-0.00789570147967757,0.148121857088748,-0.086534461461867,0.0226759050685926,0.276380373584654,0.391620089642685,0.119485385951905,-0.126555447597866,-0.190180119052892,-0.0782025873147244,0.0970786689903708,0.27104264450004,-0.363906858160361,0.0631882815938269,0.0340283431418052
0.135343323880577,-0.376979082135003,-0.118924974500005,0.154701765181852,0.0636058156017857,0.027049390196119,0.0310950748789687,0.21393588489579,-0.0952331159997416,-0.46228892092576,0.390053472353571,0.0892377482579151,0.0851440199742136,0.122199889601768,0.17506858437491,0.322263898742149,-0.246606867392114,-0.176357240147505,-0.232316022510732,-0.390827767663492,-0.0614722916287866,-0.0310064833386566,0.0217057603811288,0.02762365373759
0.148070716680044,-0.360557728010424,-0.156114852769868,0.133322834007898,0.0510552453413551,0.0218406501184613,0.0347308495644904,0.203447395671588,-0.122122808102342,0.446223216543848,0.403396424645394,0.0932681963923144,0.0935499731800263,0.107062123282034,0.196936323369919,0.311442703983797,-0.260950515549682,-0.182837460199543,-0.239669656619546,-0.370558500161265,-0.0223517910721477,-0.0647492025101734,0.00840486031616825,0.0598767805507917
0.185380217522772,0.0829664501702777,0.41487744075285,-0.191067149202624,-0.118928511022091,0.188249034037901,0.180364403449481,0.095005823986843,-0.201494497789186,-0.107573520113568,0.44039431995646,0.125809582528107,0.15176319125745,0.0789491897651976,0.207438584388272,0.288352420972519,0.307772821388237,-0.0504976244140268,-0.0295784116903575,-0.0165490239760832,0.42982668053111,0.307472417691051,-0.100482887865283,-0.281320793675177
0.188423503798147,0.0838829447184014,0.407525446378901,-0.186878340906232,-0.0883001211777003,0.136263771155495,0.188674187543605,0.0809716618848174,-0.215395515238287,-0.126624624190582,0.440913416528669,0.14665440039822,0.187140066435144,0.0880176348846391,0.221380943189126,0.23694159073544,0.337169447063879,-0.0606449349566982,-0.0239345662999791,-0.0507608045590565,0.439216283957715,0.304922417440326,-0.0657242278307827,-0.28072870796668
0.122192036771592,-0.397431716649867,-0.0511612096057605,0.175098726110708,0.0608542450762678,0.0159486072032915,0.058566512316698,0.213709737434603,-0.082793236196973,-0.480187513346778,0.375024388521468,0.0762094381994442,0.0720589486458654,0.15363581495057,0.148825316898167,0.342758354817567,-0.250866245021581,-0.140172829436785,-0.198606147876039,-0.407003217798724,-0.126334966476705,0.0342904013563181,0.0347778312414938,-0.0142705693152875
0.137734457040087,-0.384209335631448,-0.101963331614327,0.146261586475516,0.0464326506713391,0.0170945741968673,0.053125959595424,0.201878641454558,-0.104557118044936,-0.458756110023306,0.381890406602289,0.0783609420544728,0.0684808585161627,0.141105016021517,0.178920164406987,0.33439561981417,-0.258741356492735,-0.15978670506768,-0.208437163729796,-0.393001418474012,-0.0812124004532076,-0.01299480216833,0.0236511329807394,0.0282416056266059
0.217371954591021,-0.140114526659613,0.388001042067329,-0.121070608136183,-0.0656194911302781,0.103750980623681,0.152897594350142,0.091114607099766,-0.234911269569898,-0.196581323556254,0.433371701764511,0.145061237182003,0.150459508079847,0.0430570186501933,0.26164614213088,0.260458016529468,0.339541473190106,-0.110980291180816,-0.0863907846595112,-0.11980727338518,0.356010351736788,0.277393769049812,-0.0595302731994419,-0.263571001173686
0.123411146897597,-0.401618344996012,-0.0319415777036935,0.173035863935575,0.0494429075341577,0.0137334545135489,0.0802577141276569,0.202475799207913,-0.089362773585935,-0.480809088129417,0.365298818206749,0.0655283739845832,0.0608474111053077,0.168308986346615,0.147323615984739,0.33804914912906,-0.263021604131145,-0.128757968828997,-0.184382393857812,-0.406601996981682,-0.140474783044713,0.0484876676474011,0.0368869928689181,-0.013112749859343
0.138547431422696,-0.389754119162252,-0.0806482803722113,0.137531945662543,0.0276028862427189,0.0139605033124537,0.0765200919186518,0.186842712427963,-0.112108121947475,0.450911685866281,0.365508663277191,0.0574100143971651,0.0479334410370579,0.1664568774341,0.181130086906375,0.336196176225061,-0.266217110478995,-0.148323646933406,-0.188490680037587,-0.39343385854612,-0.105856299621673,0.00518718103165786,0.026996565453862,0.0317666462139783
0.201725874208976,-0.293527343149148,-0.191826618385155,-0.0131971144050711,0.00290939162659197,0.149590187009497,0.108353176924875,-0.0386490911273425,-0.319215884453915,0.291139183978154,0.126909944645837,0.0538127849143901,-0.00863648925698074,-0.115582362251077,0.0930506862990442,-0.197610401119996,0.454328974443502,0.164546079608089,0.113291257339634,-0.0541281722134515,0.459455385302623,-0.157054564897635,0.106669119664538,0.0945053998893387
0.184132835120544,-0.286055691569954,-0.190984225528365,0.00311419553940463,-0.00402095902705525,0.129270200911757,0.101715776455709,-0.0395685890821573,-0.333283250647442,0.281057621645019,0.135510487549178,0.0628681469937109,-0.00938797085666498,0.0956393678935696,0.0930280241854728,-0.18846487857419,0.460828642441968,0.142726057878408,0.108770052904049,-0.0733366837973026,0.461358876799622,-0.150358951157172,0.0941060749506608,0.0939768741795945
0.211117160794972,-0.293010707474901,-0.194792677334803,-0.00158886166470566,0.018274349602278,0.120775924901193,0.0787781921090456,-0.0245046100613843,-0.329115821853041,0.279492977989419,0.153761973430061,0.0439157065692159,0.0101383608529952,0.100015915173912,0.149866204770303,-0.192061830323803,0.449005163858802,0.184951825866431,0.163149859705643,-0.0439352798305541,0.446399404836592,-0.185818146886457,0.092647644880743,0.0962615182658831
0.209897763598904,0.149809640464558,0.396541681025776,-0.167978866138132,-0.179207819466193,0.249274614221877,0.171299474986369,0.0720335231127533,-0.190821427334708,0.120143609793944,0.408197930293666,0.121944432933248,0.0254293784358491,0.0448262035072892,0.246722823206697,0.347910357361667,0.324348424385341,-0.0616117716941361,-0.0109293143277883,-0.0675125424157917,0.340192061710634,0.313418595152921,-0.125520567721424,-0.295277015472756
0.199960458975701,0.112924483352642,0.399472965078194,-0.180706236641463,-0.163060639134651,0.254580153977355,0.177886453616988,0.0830199162591241,-0.179509320200212,0.100749586937169,0.424212624812102,0.121289590472893,0.0650287104573902,0.062369073052094,0.213866564410272,0.341354225835152,0.303328216397268,-0.0463786762990941,-0.0112265555700233,-0.0289264864083558,0.383381775926045,0.313067040660113,-0.129373961141002,-0.286668642504894
0.207993866130215,-0.194259494687733,0.393663485861686,-0.14528232039121,-0.15227047314789,0.181423419056541,0.153261653175425,0.0770061316091712,-0.232212267008992,0.175600446299354,0.40973964722787,0.114983781525233,0.0333012867196023,0.0128118891689822,0.285194204915739,0.334576778389097,0.34385272648262,-0.0894359456690518,-0.0521754437507433,-0.123777481393268,0.293860788634273,0.288379362127364,-0.0988543039480794,0.288296999610406
0.204192214574873,0.143616736363369,0.406579020235065,-0.162074124991332,-0.141690296888784,0.203287805838106,0.158682877300403,0.0828975149480137,-0.219739811201793,0.142046579272435,0.427903197714239,0.127609889216032,0.071956538785148,0.0478837051686443,0.254372990601947,0.330335271028347,0.326497829987582,-0.0718129014299632,-0.0427440936497602,-0.0723656861037421,0.354641399493817,0.301369291006326,-0.113135199355039,-0.287553712910979
0.197179482873593,0.110104894912308,0.410952409470887,-0.174193391363413,-0.124762645902657,0.196916063134669,0.169194130454344,0.0907360446656672,-0.210202630835406,-0.125351162235427,0.438593572777984,0.126020907878494,0.116226418874048,0.0640218009600261,0.228984713264116,0.309969738471305,0.314459737240226,-0.0635493057296198,-0.0429127956172149,-0.042303303099543,0.395842125436795,0.30461096640663,-0.107891330821622,-0.283245889952661
0.191172076902835,-0.320391193313952,-0.259330361903243,0.00613552876409286,-0.0493750563788169,-0.0313548555803663,0.0902607970793018,0.126394188023664,-0.208792599696833,0.346639499924746,0.392923948784571,0.0822540846067484,0.0362112733151622,0.0997909366955259,0.282174539580735,0.323897916779694,0.318225009144191,-0.160895651306142,-0.165164317689448,-0.304124010568437,0.0765746120637101,0.152549285703326,-0.0249787862810081,0.180648269936199
0.209667162043254,-0.181728808084587,0.390095824804229,-0.123369723270105,-0.10229560343268,0.13784947487101,0.141608758176339,0.0916196319405789,-0.242439481456827,0.201610619387543,0.434321635414766,0.124443191888557,0.0911712947417381,0.0202690958973061,0.280584649862073,0.309091390227784,0.341426139906542,-0.106722700749386,-0.0916810502343673,-0.133786213881542,0.308217087114651,0.275864706993235,-0.0840477226112627,-0.272488392567342
0.206587525874708,-0.138534799258254,0.405725468763128,-0.149894162479259,-0.111164370308314,0.165177577922086,0.152383856611327,0.088207644472786,-0.231584116208084,-0.160722962174814,0.435816818836489,0.13428911393236,0.107621135314349,0.0492894896807454,0.258784450215069,0.307514441543705,0.330146940552996,-0.0849539318165851,-0.0636124903646642,-0.0843744138913815,0.360904491193928,0.292841935590155,-0.0967498096398497,-0.280006973673978
0.137007556073049,-0.391841889210696,-0.0685099300911422,0.134339434864466,0.0190553259107416,-0.012524157184653,0.0905295728533772,0.179463235769644,-0.114891526683156,0.449024159251207,0.357237946846784,0.0475247500445118,0.0397886594086951,0.176433855093111,0.179233166263259,0.331946265034228,-0.271614291069216,-0.140633014919117,-0.179987815056107,-0.392124243918307,-0.116592876299595,0.0138874265275995,0.0290459882084599,0.0333989329303068
0.217268010354617,-0.306457527617783,0.200744142606705,-0.0190482241668906,0.00291725035875143,0.160499905590605,0.108009640567001,-0.0471249182920369,-0.309216560231178,0.296969375581543,0.128297956762429,0.0565158795430745,-0.00182144291455489,-0.127359363613384,0.0933596898310596,-0.197424926431079,0.458389104870998,0.161625197211529,0.107582575968138,-0.0422172830684988,0.468251649249519,-0.166470513673652,0.112152067562538,0.0969100877226205
0.171141100640565,-0.290000117542226,-0.198756844310644,0.00903256791824018,-0.0222618128721411,0.132518207399847,0.106975266670593,-0.056943093720339,-0.334405362202925,0.287284806351347,0.131101274950026,0.0851601769424448,-0.0174860242516276,-0.0957816621883235,0.0564875680240624,-0.165702308756856,0.467337581989516,0.0925816791158211,0.0696284018447892,-0.0883305426514211,0.471753371339521,-0.12668340397505,0.0918563487384905,0.0936174684402157
0.111825416061483,-0.27367315833401,-0.207753131901159,0.0575598549247595,-0.0472282677446304,0.0953590618537904,0.101535032077648,-0.0587524416135687,0.35508867392412,0.264194967190989,0.145026898119826,0.102230237872026,-0.0143023357165858,0.0472453414975381,0.0354802952810249,-0.143152130026026,-0.480717119264469,0.019716624483494,0.0459995265179306,-0.138321093387533,0.481484917434072,-0.107012312830576,0.0658559405833068,0.0984643281033005
0.239925681214937,-0.304594812062329,-0.196401233472925,-0.0334951298681104,0.0202908264954228,0.170687293152255,0.111496355398638,-0.0326719487728228,-0.298647354137861,0.300758979318053,0.1278813035338,0.033975269997187,0.0090714766247424,-0.137697967910656,0.127461578048126,-0.2185031084065,0.448890305539056,0.213360922453405,0.140059566050871,-0.0091278340780394,0.45165183759011,-0.189760748583099,0.125172804388328,0.101045053455482
0.197300183387615,-0.229711928344033,0.385379324714786,-0.174733482066997,-0.207749044903817,0.19135108835419,0.192414001191209,0.0631290851900987,-0.213664973312567,0.152157342872821,0.358313269987644,0.059204254710076,-0.0152363609632415,-0.0251825555111247,0.298127645578153,0.311378757487419,0.356994816362209,-0.0921615087667705,-0.0221425691870018,-0.137042720747673,0.246201498836173,0.300583521847197,-0.0740642950338597,0.30792521437571
0.211539205410163,-0.190648318676491,0.392427529885641,-0.16438129393966,-0.19680188147312,0.226667079699762,0.174635183598681,0.0639288176376387,-0.201969933004169,0.138488137810068,0.382624155890349,0.103926818711658,-0.00501612544573703,0.0150605715250702,0.27798748870745,0.338223600891261,0.344519983583777,-0.0788840558062898,-0.0112577945310974,-0.106986074001656,0.292484414395908,0.310336348670609,-0.106002145087225,0.303778862693339
0.199609278365238,-0.236625122601218,0.381520911664096,-0.149460346275989,-0.16897268322354,0.153554953306434,0.165062023677699,0.0677661792592663,-0.243949116570979,0.191948294451781,0.381966194046712,0.0769864681561429,0.00307937607055134,-0.0298610297839864,0.306989910984124,0.319390237572475,0.355331918589508,-0.0987498426593952,-0.0586630391854655,-0.158916466005868,0.238581242724837,0.275535571601819,-0.0754566449847284,0.294020152140947
0.242301161217275,-0.339012861943896,0.217086797036441,-0.0219595494957932,0.0043830241877818,0.170629351029934,0.0936862976969565,-0.0822015612974828,-0.269199790068647,0.288623241433671,0.138749765553819,0.0685737268902011,0.0119970917306094,-0.129425294754578,0.0943679010201195,-0.220519769031218,0.477761428798627,0.146812710678881,0.0978013395095548,-0.0202632617463311,0.502657802684668,-0.213201163071499,0.109616593401708,0.1122669306231
0.21055639344959,-0.327255482623226,0.215842759755645,-0.0070987402665862,-0.018113981222375,0.153274767162146,0.0958377976799665,-0.0734955269478457,-0.301290714605439,0.297876080903737,0.138720516010449,0.0830186414105387,-0.00253305633239193,-0.126367263486937,0.0639002230573858,-0.16938423708993,0.469688090334606,0.0964769175471687,0.0752280935456252,-0.056890032984295,0.488294506356386,-0.160775081368258,0.0977015219451219,0.0992896783117383
0.16150492696847,-0.308232005010908,0.221941239790435,0.022493124433062,-0.0405100154046522,0.131825311524049,0.0959627707321297,-0.0685675876393845,0.329803892766854,0.296681293587301,0.142940730189917,0.0973464024263729,-0.00973712800818342,-0.0996841972172687,0.0361247959076145,-0.133004397279599,0.468339249416592,0.0371174303057849,0.0552872551322648,-0.0956506595955228,0.4815392073482,-0.120997601849409,0.0849407427304644,0.0980515833103699
0.107335810803429,-0.281089600010493,-0.223657624867401,0.0641415408530661,-0.0691335843045297,0.0950368492203586,0.0952690357121106,-0.0787554562322921,0.355643005188793,0.286274685508343,0.150381229085179,0.139262459749468,0.017142076356735,-0.0489183940901574,0.00761137028638586,-0.093025820926328,0.477049358678002,-0.0514407872401291,0.00888255557714734,-0.133316842581166,0.477062195212391,-0.0807219918486147,0.0649641070610368,0.0985704240081651
0.126611980425635,-0.33836510096543,-0.218106183189457,-0.101503015226127,-0.149638305057393,0.119582624282847,0.234919631581205,0.122163521978251,-0.139642346226058,0.247761252300673,0.310884905301554,-0.0567755922503016,0.00563621206885194,0.125236087662721,0.253801453350929,0.224151094170271,0.344079756939737,-0.119525144286887,-0.09147304924375,-0.241652598173809,0.0579806766250607,0.197032619850357,0.0287256551579429,0.203117910313494
0.206606734155167,-0.357024345725557,0.227200410532233,0.00455165003798869,-0.0368476408728184,0.138899569847864,0.0800406796946636,-0.100093086761593,0.277052221619206,0.296200561660074,0.158544369396459,0.106311072991957,-0.000927457860372349,-0.122751405813527,0.0434240145202233,-0.146889844809757,0.477976907405818,0.0357730053277471,0.0554238754206441,-0.0559422935576642,0.49984237240664,-0.172534883809447,0.0743075074180848,0.105888370260253
0.162557943592332,-0.333069508352969,0.236321485106643,0.0313531858980689,-0.0629224325653703,0.117716086861102,0.0788796935162516,-0.0882009167784362,0.320072246377282,0.308272963177222,0.164446030110908,0.124664585736638,-0.00576803789247121,-0.104357919770582,0.0199261642916126,-0.0866073375670037,0.467944677194639,-0.0297887637966615,0.033431799133544,-0.0898566792620061,0.479160421362533,-0.115820910064568,0.0686104563208315,0.0980274197230793
0.0997267423842632,-0.0962009861278749,0.244581712552916,-0.199635462271532,0.0914389717303921,0.0664159911206871,0.0952414128276383,0.000699733644116094,-0.340820018255692,0.358176515785798,0.0990283374939236,0.403561802227765,0.00380520753232028,0.185751349557379,0.159360236763144,0.0321362307436202,-0.266635826332452,0.261681638827315,-0.142178971112381,0.0591089837469757,0.297862289167935,-0.0861082648007459,0.10935844961082,0.00521738892174785
0.0741644512969306,-0.0798411659375211,-0.248531540663805,-0.232859362093434,0.0927122449739157,0.0784699940385197,0.122086375421989,0.0222525088564655,-0.319319518598886,0.329120778164599,0.0793953427462424,0.369745907228048,-0.0078212068349573,0.208207293731978,0.16280886952612,-0.0179524132097971,-0.255592076874812,0.256128961043391,-0.129610702695229,0.0294059674593989,0.319108804584915,-0.121257656441239,0.101474209374663,-0.000477176026978634
0.0622879344258981,-0.0652436921541853,-0.247905008115674,-0.250495629444702,0.0881216940036086,0.0904288988683301,0.140938075693928,0.0546435500315396,-0.296146157779622,0.311032542267945,0.0626753355403689,0.325969714802828,-0.0108426690919627,0.215197609667103,0.173453576419448,-0.0648228864782861,-0.22456875789704,0.225839857003174,-0.0936069833635143,0.00723462605997092,0.336148729950568,-0.165061389095769,0.0903063860489627,-0.00291685832495468
0.0536051122737075,-0.104969280295898,-0.257316294063907,-0.239244666948491,0.0973026225028686,0.0660349758812648,0.107232809452272,-0.0195927570570254,-0.340843955270773,0.328627917258072,0.116065976044582,0.400080091349201,-0.0289806636585941,0.210365150254388,0.130891948058844,0.0284489161809742,-0.313356078288258,0.322512014845594,0.163745348090199,0.0188134771059267,0.328861548767533,-0.0736716696881255,0.0984471485804546,-0.0122556233011519
-0.174202118262684,-0.213845430730176,0.222616845320022,-0.122652652363501,-0.0690155288102792,0.0683543411963011,0.0527484688916769,-0.0460133690642446,0.377399857846604,0.434454081809787,0.179567670162298,0.426023447597102,0.0654493851926982,0.0863587810582851,0.174191301995562,0.135891327318602,0.30700371746304,-0.238729616537254,-0.103200913764764,0.143372578819021,0.256840484500617,-0.0527838381727159,0.0971706800741477,0.0146240800675703
0.162965057968841,-0.150345231193934,0.226876982193232,-0.141565503559599,-0.0670156647198848,0.0654275737350121,0.0641461421320868,-0.00889507081669498,0.359741385210859,0.421707820605912,0.127889783030135,0.422415113759859,0.0538191418910262,0.127784474486181,0.189068176740057,0.0898433210122419,-0.262916047956846,-0.2169172481898,-0.103736765391281,0.130666574209383,0.26039471360458,-0.0732137206762729,0.115214970517388,0.0211121946622204
0.148585234294223,-0.103719123735811,0.227669039430754,-0.160919074291122,-0.0790838357710129,0.0688640958932651,0.0835655279620994,0.0203651112415574,-0.332454368143927,0.391780540415318,0.0809605064232725,0.396418620252814,0.0520131119692354,0.152109869776069,0.189657074767809,0.03661597330684,-0.224983311832691,0.19156164607589,-0.104388836090253,0.103505505563195,0.268426988147291,-0.103145209023835,0.117467231727759,0.0193496313858296
0.126580008296901,-0.0731902085795049,0.229895425464795,-0.183381753522649,0.0955781337144302,0.0764424858552786,0.102875242333526,0.0487479850805406,-0.311530395939562,0.357437545559646,0.05238709084624,0.356998602707128,0.0451347439548607,0.166683529924851,0.184653933275625,-0.0140539296965814,-0.196496821577087,0.171159002058961,-0.0959311167612006,0.0635159639901436,0.284082179158811,-0.13590686440809,0.106572743795693,0.0142570394905991
0.13283338746953,-0.17839850052926,0.23953054768471,-0.141268374647266,-0.0900027291333998,0.0480453480221523,0.0493701705229354,-0.0510998793443113,0.381959132399135,0.408224871380012,0.176695350485251,0.422273799188516,0.0185658951410482,0.109075516648695,0.131992640672129,0.134470357590672,-0.319173847949069,-0.288596225212324,-0.128151200144885,0.0838697760644055,0.284289861751085,-0.0270250482496394,0.0935797169762652,-0.00229745839554675
0.121314128600143,-0.123858589818595,0.236625095242495,-0.16768402255256,-0.0878912840558488,0.059782636575875,0.0720969339590559,-0.027517555790528,0.358060493783253,0.385955535407239,0.130841808415404,0.429222919334291,0.014200174624272,0.156984840121972,0.148913146276659,0.0883886450404555,-0.285973458082485,-0.27794274292192,-0.146353097967525,0.083928883149093,0.280538893155836,-0.0504324364748365,0.108039335237441,0.00494605951439382
-0.201332605710304,-0.268006316951915,0.207611046222091,-0.120656638793153,-0.049603684450919,-0.0996409871543135,0.0697322862861204,-0.0609568916612051,0.358225518028927,0.435149846973172,0.18465376694584,0.417677018437913,0.127970298185992,0.0691852347150858,0.203478323303852,0.120619236484319,0.320295498313927,0.195373076175781,-0.0836271043051523,0.189315491271587,0.249053230576033,-0.0939112081690742,0.0881266016937081,0.0152484163618582
-0.200214407524443,-0.191369665877886,0.20934432552767,-0.12473773504008,-0.0432198434282328,0.0842891434290775,0.0678077558914665,-0.0123102159573055,0.34555708690704,0.441116855009561,0.123898134767064,0.415209470697145,0.111902128591483,0.102307481807831,0.220015166535144,0.086044686857002,-0.259505294894518,-0.165625871347263,-0.0701553891839855,0.177537901351446,0.244907683833723,-0.100262393284588,0.116235921066365,0.0282066149709588
-0.191373049981691,-0.133684116568249,0.210757724172829,-0.133471127051694,-0.0575107992444796,0.0763959035954642,0.0759883742560625,0.02381872266895,0.318071021111412,0.420011887468781,0.0690051447555283,0.387210321737761,0.107886022003916,0.119448780379862,0.216119287363716,0.0408047141802266,-0.208228551511001,0.134200004554281,-0.0634205342208103,0.146630712460939,0.250123992731722,-0.121517172209245,0.123081152378074,0.026832582315397
0.175202579000458,-0.0926096236690854,0.21609662539113,-0.147008195280483,-0.0883580604167282,0.0738350704632114,0.0843890374732012,0.0628448802309704,-0.290928563928363,0.384667653778012,0.0266017958370839,0.33039006632443,0.108790074326704,0.118429847728345,0.20121557646901,-0.00881931513710306,-0.159026966952176,0.0943599879977391,-0.0441771138840015,0.0921516479940002,0.267085440877073,-0.15558573717106,0.110033104213917,0.0166736293038344
0.138036578431821,-0.063403488340778,0.228115733746466,-0.173494748153606,0.118440539206909,0.0785224557966107,0.0942702046892899,0.101255138793791,-0.291810755091498,0.34563638824289,0.024659864626617,0.282133398290737,0.0805364068497066,0.127863504570314,0.187018371616279,-0.048548392242809,-0.132932327521819,0.0805574774066391,-0.0318974591657317,0.0285370361154786,0.291768211676867,-0.182414554684736,0.0842837218089869,0.010023363916137
-0.137467668682014,-0.441082421801656,0.234677089104344,0.143560631720771,-0.0937602676719183,-0.16091831262159,0.141315459029981,-0.179757111634838,0.251221396148539,0.273470190455806,0.316933460087131,0.27907921718378,-0.166693965442645,0.0141096897379427,0.106256801360185,0.0832153069545359,0.456685851303154,0.211703036266422,-0.0869405330447488,0.139322955474033,0.330949000061128,0.216536896898918,-0.0618873722191889,-0.110305014139397
-0.185726059928521,-0.397100602229185,0.214448960069075,0.139940317369008,-0.0425649483642093,-0.165304660433727,0.124625202375129,-0.142769864890032,0.261468947970986,0.343365760679823,0.240886375478482,0.31938549654533,-0.21609274040788,0.034756477372745,0.165810368062713,0.0780840635552461,0.401772048572212,0.166995225873563,-0.0412335786954376,0.184167576335967,0.308358149317777,0.204986928502386,0.00602377600115475,-0.0678889884654843
-0.241933397085714,-0.229855360728968,0.208256432659788,-0.116201910954667,-0.0335770797219703,-0.0963484426877162,0.0713611964881066,-0.0166674620128694,0.252132797864644,0.417062248826711,0.0581933677641806,0.314814968699567,0.216865303071201,0.0476896954110401,0.206658765980973,0.0273303846920186,0.230713554238632,0.0622187056541115,0.0294444110545311,0.152731952654989,0.293581424035129,-0.186497567261386,0.104006382184619,-0.013982274255138
-0.203152249921605,-0.336845327127186,0.209439986647255,-0.133123141181173,-0.0387887094110738,-0.133726458805662,0.0965284045216337,-0.0933654548287869,0.323821647969625,0.404387088592423,0.206282887096475,-0.378532819165198,0.18282269047443,0.0528263356183308,0.20482225410764,0.0960337687864942,0.359327640446937,0.168554043997024,-0.058332008572164,0.200802329779942,0.273681448301118,-0.150556606171491,0.0575124986854358,-0.0140687918455646
-0.223751857631785,-0.250064880692765,0.200347949877657,-0.12184651656256,-0.0257698770831876,-0.109589452814465,0.0793874367264918,-0.0372632054216932,0.313680401651641,0.435379713282916,0.125093220612584,0.389092758527875,0.177650445436649,0.0760380169478497,0.228180002688651,0.0720888249426345,0.27965055665466,0.127802888995647,-0.0358360957345005,0.200117683545736,0.256565992722146,-0.14125448970131,0.103020688092103,0.0130975923339873
-0.220611285724549,-0.180408903739599,0.20027727974262,-0.120533729562737,-0.0356266580960066,0.0894339502171528,0.0744105238736438,0.00641745699802268,0.301609868397852,0.433883654418022,0.0706820576989099,0.377934537908394,0.159038436458701,0.0929813365805128,0.229543579902277,0.0444654265196432,-0.220758972945734,0.102809291428643,-0.0309484291468349,0.177002036383537,0.249985760254365,-0.140555759773967,0.121692622056689,0.0231087297304055
-0.216371181541649,-0.144603708918329,0.208175776290653,-0.124730015340793,-0.0602504649233103,0.077538477510395,0.0722017089354136,0.0387963018117693,0.273960926964489,0.412222244498998,0.0254999351495095,0.327076338737174,0.164864172953847,0.0830818934015415,0.213988385152156,0.00903469367325901,-0.173983384864036,0.0634716830992456,-0.00526838800951167,0.130723493909195,0.266960546893832,-0.16571234535392,0.117260622900018,0.0114335200526789
-0.00699182935627061,-0.433675808688108,0.250822280969764,-0.0705461251262872,-0.137737992665286,-0.0563710731218007,0.161691534509765,-0.116588885762829,0.0160252359488491,0.174743310846441,0.418720873888934,0.0133127872018497,-0.0369833999578629,-0.0717323256960378,-0.125232808845427,0.0797404741046462,0.409805685043477,0.215598392074487,0.0475516109980718,0.00174528830039801,-0.383462924182871,0.250470712874485,-0.201880392203407,-0.248903981888852
