0.0990972361431909,-0.00314207394340599,0.165151747847698,0.209302387400533,-0.0481288251050434,-0.0126354242988742,-0.0108896380469074,0.16851516745552,-0.219195952160395,0.176428695801398,0.347964635010712,0.0358669532268506,0.0109876676077189,0.450750496812673,0.0522666069140442,-0.114073041669357,0.309896002668851,0.080365588086014,0.186582182026174,0.274418447873163,-0.0796551778769723,0.152104679750814,0.227392590492809,-0.0402423251922928
0.0615902512707842,-0.0272528779596563,0.152034838214758,0.203021130455661,-0.0897262369943885,-0.0347124936498741,-0.00578592080418865,0.192870343321483,-0.19668230585661,0.211314896644125,0.389412530660158,0.0198726144217599,0.0460417034376061,0.437032342060061,0.0511674291497471,-0.0914793520534833,0.329054903481706,0.0766533285457302,0.20842946067704,0.253772499049438,-0.0335260218894319,0.140387809642228,0.225717665072718,-0.00634213298181004
0.00416279261241899,-0.0693131157736969,0.136352290312977,0.191861826712725,-0.144843001884446,-0.0648913417124253,-0.00443526714906814,0.230520971929697,-0.162355006848873,0.253847213322533,0.441188023629007,6.60367056313504e-05,0.0923556988142559,0.421183575869439,0.0499967979977145,-0.0630859237828677,0.353810204870601,0.0740856424644743,0.23903795636432,0.21264873435296,0.0264451116719667,0.127094889105238,0.214849298639028,0.0377282761607454
0.202078064253582,-0.0622078665287872,0.145604810450644,0.204723020918072,0.0719041841122689,0.00401733697840186,-0.0839223703386881,0.155638631457784,-0.21650240406219,0.070167624235858,0.249983547492709,0.0680112856295786,-0.0650761446890905,0.461694455475204,0.0411054170265025,-0.162369131423865,0.296781614806086,0.0848543551247993,0.162389409344574,0.27394502455741,-0.119001565851272,0.174323377786416,0.217197843376363,-0.086350011665385
0.146049260949158,-0.0234487655774438,0.143935732338864,0.21130192225653,0.00488120682791446,-0.00953265265700572,-0.0527166344174959,0.169979071991823,-0.207676542234703,0.134825422265512,0.312476634517997,0.0465107635025269,-0.0176904094423156,0.448608739706497,0.0444175152725945,-0.127823742475794,0.312711210689999,0.0854734347195261,0.188474744728439,0.275465904682842,-0.0715566183622239,0.15464310501664,0.222267095120781,-0.0455227202228783
0.0872247002376663,0.0335342693274385,0.113919474904127,0.205004189422383,-0.0584966847178899,-0.039592975879191,-0.054694646080661,0.214978471639801,-0.164019482035342,0.193809051392111,0.378555577929892,0.0208348400246604,0.0385336768245298,0.429124484112388,0.043099656990428,-0.0875364780278798,0.348323274384139,0.0874087262206743,0.234331398799707,0.242647537517104,0.0164970211865399,0.123722512388328,0.206797844560988,0.0148428416762407
0.0124006631604273,-0.0778788783222582,0.116452367687377,0.189012292885281,-0.138349838079963,-0.0706614561154688,-0.0281227129334519,0.249933890032525,-0.141784778716233,0.251648730686669,0.442824289417531,-0.00406460837458011,0.0960208196325381,0.419193256302192,0.0460494574054443,-0.0621490550179316,0.371632795481029,0.0774217985146681,0.255167201478665,0.200238912227906,0.0540191749732297,0.117152980150554,0.202217925492454,0.0500275626668044
0.204297450459983,-0.0526093312572418,0.126044989942206,0.205523718873697,0.0748772510907145,-0.000967254985157692,-0.100238711028655,0.167826526043971,-0.199635396750818,0.0702911741169613,0.253657763340965,0.0649457595313937,-0.059804202924588,0.452025619647258,0.0396304601806857,-0.151871860534102,0.306909662030612,0.0896786518336442,0.176687388540909,0.26944034363913,-0.0846560392048636,0.163560288013054,0.210895280511019,-0.0690376785165609
0.171775605632736,-0.0171574597895557,0.103850314358332,0.206239390686944,0.0331805784532923,-0.0144940775732775,-0.0952111256034925,0.191407245185249,-0.174733877279691,0.115422973997111,0.297875225835987,0.0468491934709379,-0.0219793672279208,0.436140660624661,0.0389644966652953,-0.121982828392521,0.329708910435303,0.0924484507008526,0.207612019658183,0.262171420364853,-0.0233046996585998,0.136783756872529,0.203847750143885,-0.0280618269951592
0.14421724155351,0.0116618474132289,0.0865264104754565,0.204062402657908,0.000984049603371992,-0.0273084094765128,-0.0910057090164786,0.209365295070042,-0.153168684862357,0.150547144214101,0.332097749227122,0.031839419199521,0.00790014542922768,0.422552234590888,0.0372021896829244,-0.0994973421572931,0.345902034354455,0.0920653881509567,0.229994112447965,0.25217829062288,0.0221427955257619,0.115671645359051,0.196576381367124,0.00383367758566786
-0.231302766291199,-0.121082398977387,0.163703246128593,0.0899751962980358,-0.35829695387454,-0.179197530305622,0.0884608718031333,-0.322467647209898,-0.0651332303227959,0.368695045475651,0.569403968368278,-0.0563776355733134,0.28027739599564,0.33867499048218,0.055126923048882,-0.0195922038299033,-0.371577576698894,0.0126353304742746,0.255889437896504,-0.00724095221869716,0.09724306922882,-0.13711121487638,0.183892209913055,0.0841052679852694
-0.243525213043898,-0.12985038601851,0.156951148431086,0.0785211224623424,-0.366331927762212,-0.188577130557671,0.0805733733941348,-0.338431516922432,-0.0490866690148667,0.372948041022177,0.576014422865936,-0.0626751241352901,0.292726350803077,0.326727972842099,0.0513380091315355,-0.0141799563584251,-0.378727806653467,0.00948712264607466,0.263372974374882,0.0182281743511117,0.116823942102887,-0.136584038982593,0.174231122170368,0.095794624428005
0.0104940465262749,-0.0388565996310921,0.186715352772172,0.171124402586419,-0.164706784217631,-0.0469460354625786,0.0776646950272284,0.183738397398609,-0.209134543017653,0.255751088568221,0.420227916894474,0.00932699304485939,0.0914738193463339,0.44931541397626,0.0634247874572351,-0.0945063708597673,-0.315058378039191,0.0428015942255634,0.173795819287123,-0.240701836394114,-0.0936003565419143,0.141033680694093,0.231694855999782,-0.0373365261800116
-0.0397847398915237,-0.0617598861930598,0.180668613136075,0.160189710923176,-0.210073092149218,-0.0755464016040718,0.083281954784408,-0.21068275167568,-0.183901706006706,0.28669479854788,0.461232481704878,-0.00666395576349998,0.13149692945219,0.428251758494756,0.0627726889320822,-0.0748805954823572,-0.331095277231072,0.0372345377076773,0.193715939198022,-0.204875615858372,-0.0489117996172436,0.138204232747091,0.230661873991946,-0.00578022305789871
-0.151609025580595,-0.104119578463002,0.16787188076208,0.126550288115856,-0.300807245558941,-0.137088126516402,0.0874603685311351,-0.274569601842206,-0.118069634351258,0.341594433849089,0.534323816260078,-0.0375425313390762,0.21799675502752,0.379816376243692,0.0593555200953996,-0.0382163089901514,-0.359607076214594,0.0249287038851034,0.234519136399458,-0.102551301900904,0.0427521762725382,0.134236415571883,0.21081963117207,0.0543715261216058
-0.203271083344797,-0.134791648189341,0.148466964356652,0.0991813973311287,-0.338222485633802,-0.173585785207531,0.054977967045694,-0.340500445432588,-0.0594241594189865,0.362404496754209,0.56859827705196,-0.0596230949179695,0.264998811473828,0.357659356129506,0.0507167418152939,-0.0248634330115988,-0.397540994665855,0.022641090764512,0.273303748742671,-0.0143585984422292,0.111958005811279,-0.132935418439211,0.174209312214195,0.0948706367321179
-0.192221977119313,-0.148377337744856,0.134201587596445,0.0934213123151742,-0.337152431259568,-0.182315197090986,0.0118030709627891,-0.385990523003051,-0.0264132637004475,0.364593724340387,0.576410621725325,-0.0778939931387325,0.273194702408185,0.369232086989994,0.0483299151751874,-0.0413345164378413,-0.444182459613764,0.0283385277183537,0.300947813220175,0.0132668460663635,0.138228427609298,-0.126356737503151,0.140643363412291,0.10326711051102
0.0834591790389649,-0.00219282275766067,0.180935754930447,0.183291747717118,-0.0852086623615335,-0.0212537593338644,0.0355303586421727,0.169947846188714,-0.223111190927458,0.202753978626267,0.366200272332532,0.0322655721847581,0.0393816811288432,0.466513174617769,0.054326305337404,-0.122614702168983,0.308713013019204,0.054710967113329,0.167377521143734,0.263409510742212,-0.119530986898983,0.152133706182936,0.230345781146466,-0.0642053303752221
-0.0275142353672024,-0.0695126587770162,0.161063537296088,0.174982774016957,-0.18575957865122,-0.0739089466453901,0.0400960502785185,0.226080726092646,-0.173018708421187,0.27585838394218,0.459685826756216,-0.00687621478408211,0.117384755548527,0.422407489689145,0.0566479921172962,-0.0661401859425161,-0.346488670742466,0.055540330887261,0.219762845986564,-0.202411331172673,-0.00556482918216841,0.136130015234628,0.224532302679531,0.0218383458295746
-0.0662374856675999,-0.106188254205536,0.131148659439755,0.155832116260513,-0.224144106793044,-0.110205709202839,0.0150995806419929,0.282041284925841,-0.119451885670682,0.305404354272586,0.503187462380584,-0.0297426867674689,0.163883062455455,0.401099906374283,0.0489648033319238,-0.0477593026040204,-0.387370035268445,0.0513648023048705,0.259460187540905,-0.144524513763324,0.0702241142896831,0.122248803470008,0.202663179275622,0.0675649562286938
-0.0931235552939035,-0.13434833966804,0.111620207381923,0.131972136332742,-0.257036538066736,-0.138673196363473,-0.0240018074115764,0.356117716255565,-0.0611244834365615,0.323860628392595,0.53057539196982,-0.057841537719959,0.204788322967072,0.404264432404274,0.0470029521826745,-0.0579834786470689,-0.448770808487164,0.051758117452921,0.298558205907214,-0.0720500208406143,0.118704463739551,0.113768065542533,0.156216030527764,0.0875830550968977
-0.109502823087823,-0.137300898372962,0.115426451638879,0.113927175059368,0.281556455828846,-0.153170327671098,-0.0564801741217301,-0.415802744895924,-0.0152399874132735,0.337420899518826,0.538853233723106,-0.090492027202172,0.235230061279525,0.404477270213295,0.0559383028060364,-0.0872655381104221,0.507079997552433,0.0583295107137759,0.324783028112975,-0.0193409991626018,0.138123281757659,0.114293060931354,0.105968225128239,0.079983056408276
0.202612477004562,-0.0721573729311404,0.167804510942084,0.188014704475576,0.061441988273311,0.00982889890865331,-0.0503640211362553,0.143440731487623,-0.236098456519548,0.0791143896629086,0.246431924578618,0.0710224099783607,-0.0637450015469012,0.480601809966451,0.0420210166333205,-0.179905051241611,0.286617859884715,0.0683274234307499,0.136740238436957,0.272780112996358,-0.176173702589534,0.181292579631681,0.221281740805899,-0.119625316396961
0.128260344100745,-0.0237570474898258,0.169782140029903,0.206770441461479,-0.0161569983568877,-0.00318147934620431,-0.0211170910511935,0.159377676035647,-0.227886669765621,0.148578078272685,0.318942927507345,0.0472610465590237,-0.0119678226384199,0.462430547711495,0.0505881561734865,-0.133628533881812,0.301877837607605,0.0792532064646915,0.172754246320206,0.278046043606679,-0.110341207784868,0.161601817014685,0.226059847199573,-0.0645981344998496
0.119198027424438,0.031095370532584,0.0851534691382458,0.199517689772934,0.0276687342679376,-0.036110913084543,-0.0888599926454452,0.228513753244876,-0.142984304205544,0.171663705861259,0.355788178366889,0.0226628353446182,0.0276932357872689,0.425515491130591,0.0395174541836354,-0.0927928252546821,0.361284039959548,0.0926415529027216,0.243445360431499,0.235367698832927,0.0386679988687701,0.109562581825549,0.188630312969546,0.0161733218793391
0.0654982473574933,-0.0692051766372631,0.0846399870091601,0.177838555142466,0.101637270662884,-0.0653759003699457,-0.0762495063956076,0.282093926522308,-0.115532113411167,0.224076854256359,0.414706106511941,-0.0104749512504076,0.0853710242709895,0.422187287382375,0.044815497904556,-0.0860890871983858,0.41075397720727,0.0829966794586131,0.267356332500393,0.18897625706227,0.0725002269112389,0.104959569805141,0.176578211104674,0.0399222670056568
0.0454866490390075,-0.0928312018401565,0.0694486295991757,0.152999140537794,0.140233667931666,-0.0744533264310338,-0.123713374868622,0.372522147066504,-0.053882296397319,0.241138009165157,0.419704970455411,-0.0568456371028924,0.124766557632303,0.425425252839468,0.0586826307509375,-0.118275917606599,0.503163693070894,0.100744317326919,0.306821678319094,0.113725798651401,0.111049174758721,0.0910338190832656,0.105071843900649,0.0387977693904814
0.25897265907028,-0.0891083790293046,0.131422592801673,0.183498281190571,0.128024036794801,0.00483049341780441,-0.121337711531407,0.156823270478046,0.212937094803879,0.00581600396706313,0.191878709004535,0.0793370816987884,-0.104907397080481,0.465258906417705,0.0386547669669782,-0.191989340571783,0.295731503809953,0.0764642964422037,0.133117060577866,0.256772777670259,-0.151614455276511,0.190294712844672,0.211991389395293,-0.119202642889992
0.248429288421022,-0.0581540410081378,0.0913053812881763,0.185871137304813,0.109211178552474,-0.00196254496580997,-0.136013227452574,0.187464338491524,-0.177952831140548,0.0336992056641677,0.219334927802955,0.0656720191525198,-0.0724654295515856,0.441980646089139,0.03778244988265,-0.159300258528633,0.323895437724939,0.0875123847808011,0.171802535861642,0.25185233562605,-0.0671591835659938,0.15791888528904,0.19840049462412,-0.0745794003860918
0.196226833649528,-0.00720307521670475,0.0649192699249247,0.184194191589502,-0.0442123664060496,-0.0134413185354169,-0.130728744122646,0.23189890826782,-0.143655641651378,0.103037856510221,0.281698564399798,0.0359534247865281,-0.0151797039525489,0.425634684164555,0.0425869350090895,-0.125761576806783,0.368621673264475,0.0983436110018333,0.220654604265127,0.233005656545464,0.0149073628567605,0.116432324183671,0.176255751196917,-0.0249168114030794
0.18638875279564,0.0100433166774608,0.0363358508276951,0.160085325427781,-0.018118744444269,0.00386477617454095,-0.167857030737229,0.306799420927997,-0.103073788881904,0.114015187127756,0.267022462001025,-0.000598336318374096,0.0141593769457546,0.407113797239421,0.0652463928792272,-0.142251393474301,0.448877267728737,0.129687487169252,0.251098724056225,0.176134947016882,0.0642288808053341,0.0863523098752944,0.114106239911853,-0.0290255520634519
0.135666473149585,-0.038210192211947,0.0462883644953098,0.16035393472617,0.0400525544762938,-0.00593861238805979,-0.175614811272544,0.355249085830239,-0.0693984691255382,0.154085553614933,0.296084740073844,-0.0382240215536305,0.0529092352059874,0.411039986728815,0.0747794230595014,-0.153338908937578,0.502514288288681,0.14448344222088,0.283594030586821,0.136729302482672,0.0878866014615027,0.079774427468844,0.0745012423517754,-0.0164149429067937
0.31202525082819,-0.120967882466525,0.13435347187499,0.149767508075491,0.190609142290968,0.00223443840015382,-0.164807067852938,0.151025851515522,0.221215527995339,-0.0840658327579287,0.112036139625596,0.0952117836583523,-0.166620500404594,-0.472674062671032,0.0410292395243007,-0.235648205573542,0.281712038239319,0.0631716393147303,0.0735202842168456,0.219958466199387,-0.226428898158131,0.224216206176947,0.205636738254306,-0.175338053168935
0.316876698787718,-0.0945974734467609,0.0872941364794802,0.15420110656479,0.179772752740729,0.00388340950450992,-0.177170491403876,0.18655070964605,0.184591116183651,-0.0607048025286395,0.1327344543769,0.0871655202703168,-0.126931345750061,0.448685088776757,0.0394693507183168,-0.198440160682707,0.312702035229114,0.0783290884703442,0.119240791116226,0.221628907115631,-0.128796196083497,0.193416373832187,0.194800291706439,-0.130435096799337
0.289569393908665,-0.0643992479391181,0.0544607598802427,0.155190516503202,0.144941642039326,0.0115919142916867,-0.174427070869168,0.220339612735052,-0.158680254092398,-0.00765402866005101,0.168538689649894,0.0686599731615684,-0.0827351976578049,0.425652718023975,0.0454928413605363,-0.167157781379232,0.349061971705021,0.0978222422443589,0.164199005930949,0.217573077594339,-0.0469254581892531,0.148689108900844,0.174191691928078,-0.0929578100533256
0.269665473098572,-0.0422009609468118,0.0233669933154548,0.145440877826514,-0.110697256361619,0.0231631624339344,-0.181152707856667,0.262576074353096,-0.131097820524617,0.0303384644332686,0.1844869448948,0.0414033530809576,-0.046218721538229,0.395163959497955,0.0581903807816897,-0.152457939500064,0.396311394417392,0.118595420194605,0.196550288135378,0.196907833464009,0.0184436290170209,0.108784910101158,0.140988072502745,-0.0710533214148006
0.253463243773053,-0.0342031152076266,0.0127377916652173,0.139574561904531,-0.0937114077098228,0.0387849867203202,-0.190098974133565,0.288193177199924,-0.117511773929353,0.0431518278937354,0.179516390226448,0.0248634922138685,-0.0313611552357036,0.379601083679192,0.0711563405178452,-0.154022807139318,0.425517647133721,0.138572382963282,0.213092737866276,0.176903350851249,0.045113097509773,0.0865886605865583,0.110790289296538,-0.0698323781021473
0.334128256541422,-0.106819949350655,0.104007508813144,0.139152109707038,0.205728518350733,0.00333241033462638,-0.196736616332137,0.183085729532886,0.19730226524508,-0.10931312182644,0.0930792669434229,0.100930354873168,-0.159760729325701,-0.46205322992192,0.042884388222987,-0.222887310919021,0.300907311946212,0.0743634484469984,0.0837494277241326,0.197862558181161,-0.182281313102243,0.221036888190847,0.193887198185825,-0.166519377419851
0.339097292124148,-0.100838574277337,0.0849555743476735,0.138223901399406,0.205381252132001,0.00498456259564917,-0.199253357355798,0.194357463748562,0.183512479118826,-0.102491645183288,0.0961765872444641,0.0989698241620863,-0.145524303538022,0.451382104801054,0.0414042534101745,-0.209844524221059,0.310030419881647,0.0784159571046281,0.0986583687664777,0.198082136089354,-0.147792629224325,0.209714018754876,0.190299223632723,-0.152347490854295
-0.187834189027996,-0.0707412687745823,0.195091999435786,0.121299746684465,-0.33421159362626,-0.15781485612533,0.13151279844356,-0.266606162654474,-0.107708539098325,0.352190018180873,0.5424453175577,-0.0212798561405178,0.253614465272056,0.391982059902804,0.0666336643187403,-0.0571139210941429,-0.33836925619698,0.0122128524000479,0.220436302784358,-0.0860944448758433,0.00181108017152837,-0.137937300847364,0.212651918171913,0.0124388613180966
-0.233714481372369,-0.0882627846172238,0.185064729506745,0.100793470928746,-0.363687050819229,-0.177793557564675,0.11207892238242,-0.304231774748574,-0.0778082201792002,0.369520112708697,0.568006242937389,-0.0445125631889668,0.286208123801466,0.350046436955371,0.0636858340543325,-0.0363639898180801,-0.356030252743355,0.0113724779472698,0.245759870406673,-0.0264969210402624,0.0640059483865564,-0.137752191953759,-0.193553156803054,0.0516466653573143
-0.268580401309845,-0.102910294439408,0.178021726662693,0.0778542100291898,-0.383884797609582,-0.197840024897188,0.0743180727620386,-0.361502233839553,-0.0379413597030665,0.379556947478623,0.588489051485569,-0.0647493476766625,0.315374223793248,0.329769943782497,0.0615842998929429,-0.0303019213786109,-0.389388935241115,0.0153671039190435,0.277672612437622,0.0473769905046969,0.118091744186871,-0.142548828104051,0.156055841564562,0.0781590437107929
-0.303947298775244,-0.0671080925655811,0.205438190172185,0.0569779081112525,0.405935356091361,-0.212506069197018,0.0469409518078011,-0.409827369529499,-0.011708649260799,-0.386970649202676,0.606093100743888,-0.0800671348186386,0.351254997215009,0.308672110885376,0.0774902542573669,-0.0505118590694981,-0.411704521499372,0.0196314752975473,0.30019583067283,0.112806295868725,0.139854023882345,-0.150074367244323,-0.112233618597523,0.05962524563095
-0.314108508986436,-0.0486147841740058,0.219118032652173,0.0438519233839037,0.41171844508496,-0.21703104995312,0.0363193270729301,-0.424433051349948,-0.00343232356491665,-0.388442537642409,0.611531237060132,-0.0877975939138392,0.363592024056211,0.292389259468668,0.0862480126416086,-0.0596135133489237,-0.41580414624622,0.0177739108266224,0.303751718870081,0.135936394183191,0.145430030468244,-0.151814725589959,-0.0926935715126604,0.0483894189078014
0.0102056998673884,-0.0314262399508476,0.191798417283085,0.153826731316054,-0.174107944321796,-0.0582416293315108,0.102972025848024,-0.18892635481983,-0.195982493291667,0.266624600461714,0.425347804360207,0.0228130881206859,0.114425208970031,0.467523356579521,0.0593078852958409,-0.106267600128947,-0.311009114160453,0.0271600686396001,0.166126611938671,-0.227990161330762,-0.119061970793036,0.139846038296181,0.228066285874311,-0.0641850491938724
-0.117538245682943,-0.0765765869665561,0.186639368082696,0.135347576045421,-0.280617152329226,-0.118353159580833,0.117406444840556,-0.236826005965621,-0.146332919812606,0.326750550258251,0.506986823685725,-0.0169957230172216,0.196043751808659,0.410589209267173,0.0651265748786161,-0.0614489264133662,-0.334610302990075,0.0195361995922304,0.202657484691546,-0.147525610896585,-0.026033511519019,0.135695035493678,0.223710355814403,0.00574120596910327
-0.186162546050106,-0.0932125875081374,0.18340228844861,0.120473632295719,-0.329502902691318,-0.148843608654584,0.117339071571498,-0.267096931437507,-0.113282178445441,0.350630716150716,0.539888902907568,-0.0350106583563495,0.238404271628283,0.377207165567497,0.0659868849813888,-0.0402069089492047,-0.34404161419869,0.0175298304522538,0.223758408331783,-0.0878464161474717,0.0244676076700315,-0.136509524708766,0.210900685369375,0.0398361451160389
-0.234000686929037,-0.138275077868904,0.149856409027599,0.0758061159955671,-0.365069945042354,-0.1960246942445,0.0451777265273466,-0.375509328835503,-0.0255271942717913,0.376226413292959,0.58674839198618,-0.0763384699829201,0.299063046715655,0.339684943058657,0.0503318022559704,-0.0291397738263097,-0.416443920916943,0.0140189567329157,0.286823100262909,0.0377285638738889,0.135580171558465,-0.133257651803835,0.148195493211866,0.100708313061717
-0.237169314871475,-0.117224130577668,0.170309216508107,0.0798082076081074,0.366979622601374,-0.195230184224516,0.00486495460218286,-0.42284453550715,-0.00557207000358236,0.377106041258878,0.589096336152504,-0.0927127107961116,0.30725386953764,-0.361768248783051,0.0669395294966859,-0.0648318647508446,-0.46560226698028,0.0355925413707196,0.315400289999665,0.0651337389758933,0.13951495671959,-0.141611514664652,0.10663569115888,0.0780767694435547
-0.288863592718936,-0.0701431171837641,0.211227918074893,0.0556297221190255,0.396786629871171,-0.210957939535366,0.009671810652712,-0.440801545759016,0.00586494644422371,-0.386114417261201,0.604447317623406,-0.0997216456981674,0.344121736119076,-0.326442965686405,0.0859018348463065,-0.075671591647399,-0.453739241136417,0.0303053149535172,0.316375822146455,0.120587913206566,0.141617839184133,-0.15381566040202,0.0794866852757788,0.0517576521659939
0.0926972220179936,0.00345194288173985,0.193163878372148,0.161115891480564,-0.0919140893455575,-0.0136125783232994,0.0782401761031715,0.157191148764747,-0.22561931832399,0.211720953717949,0.355008732478581,0.0468731498912528,0.0511844457640251,0.492674311510183,0.0537354663816292,-0.136871038535337,0.289076600001708,0.035178517203066,0.141641279651538,0.263665717709812,-0.176507897534205,0.145024373903519,0.219110504099576,-0.106761011688555
0.236931854845438,-0.0451832101988135,0.0248600525540404,0.139541768162828,-0.0831053658902069,0.0572600617501154,-0.194693667172849,0.312686254492339,-0.117906062969836,0.0444221889388118,0.162936759763139,0.015431650401858,-0.0224837709875745,0.366472005028695,0.0888604283923237,-0.167098723564069,0.4534292644455,0.166373145871485,0.219709680042898,0.157019263470286,0.0503066776046169,0.0931889779530978,0.0932778373043986,-0.0866496196564116
0.177430261839503,0.0355063096245667,0.0603229148576824,0.156755565216787,-0.0308103262562013,0.0582861589421764,-0.19213243058578,0.349580447852387,-0.101664637638089,0.0823706655999178,0.182714079761576,-0.0157474734334373,0.00942656779100654,0.373109860765076,0.105529974786584,-0.184380699909225,0.500654571394099,0.196666121821489,0.24989674951422,-0.133294816839099,0.0587821104202082,0.106860263931928,0.0650291639312922,-0.0875179976068325
0.339180911432485,-0.0974265825112099,0.0752616363809241,0.136244346950412,0.20318832573276,0.00793609288653194,-0.199562000987533,0.201835348216138,0.177749700646212,-0.0956748708702193,0.0981598046029394,0.0970555205005486,-0.137367573846926,0.44482608747938,0.0422665520862879,-0.203056733939037,0.317092102234197,0.0823755911038044,0.105983464222485,0.196678180282684,-0.129961086406905,0.20150952227055,0.186967989245392,-0.146595254731811
0.332285170355297,-0.0905276873551836,0.0592629073641844,0.131487630125226,0.192339941017792,0.0178155044469717,-0.199304193530528,0.222079760653652,0.170163915891975,-0.0764838987911373,0.103966310024561,0.0906753798551913,-0.119299787517566,0.429948478750374,0.0486589787206132,-0.191629005722205,0.338296060680782,0.0960383632609061,0.121316666860225,0.189713454523864,-0.0952134792452938,0.183685553392127,0.177833194719908,-0.138569626650743
0.314777957982476,-0.0814416613806928,0.0326243930543225,0.123010740500893,0.16876579183573,0.0389340733736446,-0.198922154626831,0.259423081768842,0.155203844674896,-0.0421770855836457,0.111436540131906,0.073494466306867,-0.0859388539420177,0.39555934715451,0.0639930373443409,-0.175326528992003,0.379065271609792,0.123590998263318,0.149783922494268,0.174089446176178,-0.0326414186990273,0.149724184727592,0.154238360949978,-0.125296815026413
0.27607476939434,-0.0783321264092008,0.0270412285038552,0.122232322489868,-0.134174846569323,0.0693097769832338,-0.198455372244095,0.2990748079766,-0.145601966921458,-0.0082592137162863,0.11378773973142,0.0495468170195294,-0.0535099205767035,0.362061967274175,0.0894981564950419,-0.173879814583308,0.426354397551969,0.164638183588384,0.180958146476633,0.151345959707521,0.015714264142255,0.121299938570274,0.118198988456618,-0.123248141309886
0.220411523541299,-0.0996973700825704,0.0625010203002061,0.133116762843849,-0.103416418057935,0.108517503870466,-0.194046766895603,0.336861101372397,-0.152001424159344,0.00504289546340156,0.0901974107999497,0.0318607731320548,-0.0300091363406626,-0.334383771157782,0.124269555554326,-0.194644745931982,0.470708530487466,0.223442291671924,0.198874966236846,-0.118851651225915,0.0269749746619556,0.13267341347829,0.086799164963679,-0.15099677347191
0.347274746989561,-0.098568479334973,0.0862782317665785,0.1181073361992,0.214109531698844,0.0136950844759645,-0.219719708598573,0.219759427733632,0.187754061006775,-0.130092028664027,0.0652182912183626,0.110864488465859,-0.152978553653828,-0.450830901244176,0.0509121169202999,-0.215727540869421,0.322791915632141,0.0922400622951657,0.0783127299473526,0.160746214231629,-0.16057943792577,0.223869252295903,0.182943691572527,-0.179193527134561
0.337119561528481,-0.0975886492333778,0.0528828183378297,0.104184460272238,0.201034571870799,0.0409230476045216,-0.216531249269563,0.263573224507806,0.175273135159665,-0.1000443107003,0.0624905147879435,0.101995808002517,-0.115215108427435,-0.409269400190152,0.0663420506535351,-0.194729390097061,0.365106024622495,0.124974737040067,0.106937770128182,-0.140777727267557,-0.0877960545683924,0.19412561688957,0.1666445113887,-0.170433533241845
0.30204138685352,-0.105932187816409,0.0452921691463117,0.0977400566314844,0.177496706262582,0.0792240470529071,-0.207845337778458,0.302005011667458,0.176944823786841,-0.0697470913092363,0.0574033007768432,0.0889567328362279,-0.0825628954772465,-0.366809570139238,0.0932115836684538,-0.18887952207637,0.40675010183139,0.169370758473662,0.132878887665235,-0.117653284986445,-0.0370407485684058,0.168944747740528,0.141831756868879,-0.175335903989841
0.253829041651512,-0.127897587418859,0.0615758029295864,0.103225420479866,-0.147002269893318,0.119127784115343,-0.196094417934943,0.3354046643895,-0.183893792140998,-0.0469343910454489,0.0464128556425207,0.0713996547168674,-0.0517976964026139,-0.318849244793425,0.126013667299022,-0.195418966488377,0.44463305199719,0.220421565123089,0.153873249280401,-0.0947872353325752,-0.00316727304715187,0.162134051042353,0.115211523674409,-0.1885947183547
0.344897195672269,-0.0857981142006973,0.101981923701056,0.0934039890936874,0.222838336795671,0.0255014191797704,-0.250163763381952,0.251509627799944,0.195392034373548,-0.175727328058568,0.0208216336812274,0.138727678170274,-0.161855823120165,-0.457122011179212,0.0603919672276702,-0.221626803844958,0.325907349307017,0.113893891354002,0.0461983508331252,-0.097855534268462,-0.189350006967663,0.251111135863939,0.170772873930603,-0.219444690373209
-0.28145423187171,-0.00179705796407524,0.222199024453452,0.128393179446694,0.399196463977546,-0.2033550390811,0.125614209686958,-0.32981819853418,-0.054290064503197,0.379798073741738,0.584563554976715,-0.0150603171827409,0.346677330401751,0.36930618089054,0.073901304729096,-0.0769507909623919,-0.350140547251604,0.027643512589978,0.276354188476717,0.0154354618217816,0.0493799055693065,-0.144305771238357,-0.182685297688665,-0.00530134073187755
-0.293121472023709,-0.00699302619123125,0.225232381965943,0.117042622396492,0.407985744873745,-0.201433142250779,0.116557205961023,-0.34831773342161,-0.0500276924087705,-0.387514460552366,0.589973637981492,-0.0263295931227698,0.358902857190271,0.349990688811739,0.0787742815396708,-0.0725287445780476,-0.359247538034051,0.0308122131266484,0.28642991612738,0.0394287111107538,0.0712147044071585,-0.144330928385114,-0.168614031723134,-0.000738637389956567
-0.307433447705706,-0.0179749499920106,0.231984440079612,0.0965930888480723,0.418199728139853,-0.19933974553805,0.0985139799179747,-0.378506698964686,-0.0420056634567529,-0.395844550913972,0.597499069416017,-0.0422880366124662,0.376864875421758,0.319888759705215,0.0875825920877477,-0.0694682501055119,-0.373507246421672,0.0345132080445357,0.300061351271329,0.0783588867481477,0.102067234568276,-0.144635851920158,-0.143425926436223,0.00130441861286613
-0.316400532953712,0.030747822892175,0.242223172607318,0.082578390280324,0.422737970178636,-0.196417336393619,0.0753237077656034,-0.406812455154148,-0.03618690999706,-0.396507581897137,0.60057757216641,-0.0538714918645255,0.384118524400172,0.303394478348239,0.0992318907193305,-0.0725145503915873,-0.389636215284153,0.0427836575878546,0.31217491618757,0.111919626872978,0.121764654294,-0.149260810095486,-0.117497947688579,-0.00256476593926878
-0.177385235141506,-0.0430579287901075,0.203980051579835,0.127245081831355,0.328517925197365,-0.169262289412072,0.140965577860865,-0.271506635563988,-0.0981110745789223,0.347922408550897,0.540938421256703,0.00538069995352695,0.268786655356725,0.420884834858232,0.0623312037881909,-0.0810086700165541,-0.334845167191982,0.00971439362792337,0.219110672594929,-0.0848087646655943,-0.0267781072333203,0.142308430197136,0.217137676350501,-0.024454002654018
-0.2523385448808,-0.0346570790935712,0.210172798100054,0.118547176292208,0.378648007109128,-0.192667301480838,0.128695661449597,-0.309149598196233,-0.0688734064092313,0.371842808420421,0.574445177197152,-0.0193778243157198,0.316351391669057,0.374001352431414,0.0690606850901438,-0.0657910088825524,-0.346947801802206,0.0166446426135911,0.253830731023147,-0.0159149899200499,0.0361903287242394,-0.142676526457578,-0.194353124167309,0.00709282645410569
-0.28763844928164,-0.0428431956180115,0.208028553788559,0.0906953455288229,0.40003541157023,-0.200904744015532,0.107010548249902,-0.345359776667358,-0.0478701212059222,-0.385607831168078,0.591143577694168,-0.0459167714506037,0.34178206204187,0.328702581275801,0.0723388105394626,-0.049615304397206,-0.363654380150446,0.0160436142357813,0.273482360163003,0.0416053945864689,0.0899511943542552,-0.142599629407104,-0.16651072933201,0.0344837132967935
-0.311636489064033,-0.0310259789560936,0.21790719389987,0.0710756651538145,0.413024199148244,-0.206991543767285,0.0788599078659733,-0.38625866917762,-0.0297430300022024,-0.390188695788017,0.601969352939321,-0.0610368699283868,0.362287122195516,0.30519985642744,0.0812975497051167,-0.0514138150469458,-0.383406317430474,0.0222465592470063,0.29323757623203,0.0964407772875125,0.122588053962288,-0.148266345643035,-0.133100900575869,0.0370566222842072
-0.320098615027216,-0.002204151407364,0.237671330444253,0.0590679720059701,0.418801232142526,-0.205717995632877,0.0490678528942027,-0.421965592744696,-0.020331860930675,-0.391246678213892,0.607338434681137,-0.0736653170531673,0.374557827564368,0.292838149030092,0.0984951738318836,-0.0674551945554774,-0.405179861344841,0.0329287357851415,0.309747221378843,0.133644231344449,0.136716904623271,-0.15330315485359,-0.097286287680812,0.0196320304445543
-0.310633837777888,0.0169231775985693,0.251467952205804,0.0542990752766773,0.414193619575582,-0.201506630728774,0.0276887765637349,-0.440019995384625,-0.0153222608498678,-0.392160412633428,0.606806445778156,-0.0848082850907161,0.373454788606389,0.294185082875342,0.112865422073417,-0.0865416223361562,-0.425882375985101,0.0406669247526785,0.317790677589131,0.139722614314753,0.134786168236968,-0.155574885979901,-0.0727328072917066,0.00120510406686997
0.0544016426165043,0.00125710569947263,0.1974972959547,0.12391965496672,-0.138402899077214,-0.0640352058772217,0.135373703009919,-0.194046661561239,-0.169052971995411,0.257434957043263,0.394718277407662,0.082839973909135,0.130187823319922,0.532591598769354,0.0423996299740122,-0.143709546543103,0.290661822357364,0.00772390018313276,0.143855037254977,-0.208086868910007,-0.196848036882222,0.144925651524699,0.209931259824297,-0.146388136808613
-0.0902213990877655,-0.0445420854966003,0.201247440536879,0.134776604299222,-0.259222155818435,-0.122526304302599,0.135806609206941,-0.234783897449876,-0.139236569566654,0.314573409496095,0.48900264432669,0.0243760731137577,0.200365094763904,0.465254657057431,0.0602319053132109,-0.0955100698177582,-0.323114016043077,0.0143116489102961,0.188998944383068,-0.150279873551616,-0.087779831509907,0.14424184670476,0.221876309956067,-0.0552362335214769
-0.305943219984216,-0.0281274347354181,0.233248770968087,0.0458587755756228,0.408976846013423,-0.212124624514384,0.0210518503766494,-0.438601682967882,-0.000859186708263617,-0.390691434609265,0.610762018416517,-0.0954662533978834,0.363955364774235,0.299116726094203,0.0989334708151624,-0.0791211378638471,-0.434148558263664,0.0271392846738204,0.312536773008247,0.136122169107454,0.139907962426373,-0.154040552421816,0.0739928556855153,0.0288421582331585
-0.2823337598715,0.0148174194078464,0.255379378484128,0.0626401033264141,0.394526980918927,-0.193683691929548,-0.0029403576566018,-0.458874101981359,-0.00135740515657654,-0.390203867615017,0.592011909813351,-0.100658085233004,0.353048885040942,0.328167350752085,0.122390124308452,-0.116527991222242,-0.468881945216,0.0574634457858581,0.330359985939862,0.125363638738276,0.121064312122709,-0.161737392969231,0.0460108578860543,-0.0141378730089577
0.338295352115597,-0.0934222111235073,0.0798219852805789,0.0922333928173488,0.216152087255688,0.0409814551892205,-0.235643571623293,0.268085936513165,0.190859140055306,-0.144739120504378,0.0297215796173899,0.128888153063439,-0.137250926823133,-0.432442410059387,0.0667562453057529,-0.209634339161901,0.350034713502253,0.129114723809851,0.0728820916064308,-0.10418122957667,-0.140711242220232,0.22836174074955,0.169449573629325,-0.206876543382424
0.315104191006596,-0.104732395130243,0.0689052812376239,0.0818125286302133,0.2027055323462,0.0741251666475833,-0.226237075003942,0.303710120832936,0.195368071507469,-0.122853143579429,0.0217084709864224,0.123579743611223,-0.107404997850606,-0.390169129869243,0.0870376905423278,-0.201413725159719,0.383523738342815,0.16532817997557,0.0898328191034252,-0.0813375938010267,-0.0948263432717187,0.21136358060333,0.15602165157436,-0.212567420500963
0.272568094616476,-0.129922514441785,0.0708713528235183,0.0802193292302306,0.176771388695453,0.116383653808861,-0.206108311549809,0.337279417656617,0.20541586060613,-0.0923605895001945,0.0167594855835511,0.108245948392744,-0.070935458139915,-0.331072971754621,0.117761749644497,-0.199560720636422,0.420475135057355,0.211779591188648,0.112967568314949,-0.0629979089414495,-0.0460716318288631,0.193904768957901,0.136751028180789,-0.219644012354223
0.218146190872445,-0.157892062018587,0.0947570166227837,0.0923939457336205,-0.147338401333517,0.155468994513856,-0.184226354427885,0.356472982641067,-0.218272009326902,-0.0694474729468454,0.00928746765733347,0.0930147930678865,-0.0424473930260314,-0.285559709117397,0.148490965337532,-0.207375706070863,0.446142835043649,0.25858198530394,0.133518313985447,-0.0508685369852887,-0.0196936729463112,0.188303288449472,0.11702869520533,-0.23223878310222
0.279019472071745,-0.112664282608794,0.0923259680588939,0.0686825287337082,0.20004071219577,0.11040335897609,-0.225535793780461,0.333870593496315,0.220693397067813,-0.14019198871257,-0.00826416186467031,0.145835330840985,-0.0928959122910471,-0.364147788085839,0.102627147934454,-0.208488498577976,0.390465644099301,0.202901987662733,-0.0740793702997094,-0.0298769812410331,-0.103174286928895,0.223527383735246,0.147134365072706,-0.247484148838274
-0.271077337118341,-0.0425104727325395,0.225127640001758,0.143516437685399,0.402111415062714,-0.198907790166957,0.120656696377792,-0.357799933824373,-0.0530435216706576,0.387031870744913,0.584411054178894,-0.000407889673977393,0.369547846038985,0.38080825399167,0.076264367559851,-0.0942741096557772,-0.361833844985382,0.0443979999860053,0.298216995593109,0.028156986665848,0.0523976778031326,-0.143955741759052,-0.17623862231118,-0.0331412776654323
-0.292526525696741,-0.0898066963925969,0.249048253422753,0.115302953841851,0.423520707277626,-0.176829991095933,0.0880222420345266,-0.414522634375106,0.0512023708367345,-0.406695495463188,0.588534052286097,-0.0338523512923292,0.39864414123929,0.3263507900454,0.108271992782462,-0.0958069494370685,-0.394742204228319,0.0681786000873853,0.330791129053026,0.0916460936010213,0.105736947628276,-0.142567534769272,-0.120965648815325,-0.0474545090231034
-0.294871660941799,-0.090756958927539,0.259424079210266,0.0918883704729718,0.419759648052026,-0.17371191890442,0.0567161882418484,-0.440453866951422,-0.0444670552919292,-0.402617615372904,0.589706643274628,-0.0519380398078723,0.392792714703349,0.308890256054412,0.123338164733833,-0.0990785643616399,-0.416554513336341,0.0732648596080193,0.336214415475863,0.121290988376076,0.122859064527282,-0.149255630698101,-0.0905063808255684,-0.047988314051554
-0.268024719221293,-0.128570347522855,0.266777492225899,0.091822756310399,0.407466389876903,-0.157117972465968,0.0439167831660277,-0.457421125554254,0.0483818711673269,-0.40505300938017,0.576939595787398,-0.0518005562831668,0.391358587632823,0.31101140028719,0.140108581188967,-0.118792599406665,-0.435867422088546,0.0902659015082839,0.346024472008785,0.118176403793823,0.119348067023159,-0.147290622841081,-0.0720473265376454,-0.0811844406525241
-0.200154654885844,0.00991711639902486,-0.208755875653928,0.139218567819752,0.343411382645091,-0.193257521995928,0.13353542895528,-0.309493330556496,-0.0725470103079209,0.352260593416128,0.554577798044108,0.0284342724281204,0.308829857856752,0.43442654212902,0.0566915382462973,-0.0975594575464162,-0.344901823518498,0.0212504684690938,0.245211999652131,-0.0415035786834568,-0.0154279861611719,-0.152091730811542,-0.213943776717416,-0.043380403086818
-0.260660944883363,-0.00357511573392103,0.219118856149609,0.138060763823811,0.386242234121106,-0.202613412503378,0.127762072958566,-0.326104304217846,-0.0586459637431221,0.372263371418752,0.578089774046808,0.000797927975871207,0.338834075711411,0.392763493838264,0.0692421275644636,-0.085705197330364,-0.349127037945745,0.028991289508045,0.271455475560097,-0.000417322944965336,0.0299171323874594,-0.146966293685795,-0.192793154849764,-0.0185027006693426
-0.309814399334916,0.0422560823631152,0.255702674503031,0.0619998343521436,0.418269422668687,-0.193907363454532,0.0414023764455123,-0.435626717251802,-0.0270194178308504,-0.395753013538418,0.604507242333741,-0.0734004063467098,0.383231355617963,0.289562948164773,0.116189014042123,-0.0865490566236014,-0.414948345198335,0.0463972297823191,0.319607057823302,0.135175774650434,0.1326555922219,-0.15205839996425,-0.0812880871832303,-0.0134443505190503
-0.277318335817543,0.0840645459926053,0.265709684579725,0.0784377925306592,0.400609645706803,-0.174773630408425,0.0220921421487491,-0.458685566388167,-0.0270189724700581,-0.397531031829673,0.581945901255921,-0.0729186488805426,0.372207560747229,0.321288700877639,0.136001225832314,-0.119669789489593,-0.452053320696579,0.0784151124201405,0.339486993685442,0.123642202828845,0.11811829472957,-0.1582742270796,-0.0598697331622787,-0.0554263663843854
-0.00890109492284207,0.00893705928527147,-0.200480352913329,0.121907143761562,-0.188544889058293,-0.114493948471579,0.143283947463919,-0.234640863034235,-0.127042105198528,0.281970463834392,0.436995150916749,0.090297258514456,0.186463254089752,0.536316974771304,0.0389151404869554,-0.136929532854665,-0.30912403244113,0.0074946001551121,0.16456782685505,-0.155549563860286,-0.165272869082009,0.157524287237682,0.217432021999171,-0.13684151294373
-0.104722040146366,0.0211147843383838,-0.202196248614668,0.130718729371671,0.269290892610129,-0.160303721061938,0.141285541258678,-0.271037613441746,-0.0997820360116995,0.318901948682845,0.501957790603358,0.0582388581109926,0.248048146154703,0.487401323143404,0.0460327418437529,-0.11424692779441,-0.331182359164597,0.0107040639303219,0.200895947462991,-0.105422083945748,-0.0894080259476504,0.156735240584601,0.226426806299152,-0.0849124218646852
-0.233848739806597,-0.0780603964317579,-0.211617864110801,0.170312402229458,0.385526566820362,-0.191401929809347,0.11410807354351,-0.389679384870942,0.0549824591492133,0.382753244307078,0.567282272663156,0.0353726559498897,0.37820151924995,0.41938531287064,0.0692046798135122,-0.115363654419398,-0.376219948521681,0.0698883592752244,0.319039359138701,0.0327145977322914,0.0416757220850477,-0.150653888532531,-0.182264836000995,-0.0685161300093735
0.242288136682674,-0.118707230491663,-0.222893844105494,0.171776629127663,0.404154116966832,-0.170921865467226,0.109802389255997,-0.410959334848227,0.059702262421021,0.402209598650611,0.564924122206122,0.0169946233067657,0.397228182154511,0.395328741403286,0.0887312974135602,-0.119009675595682,-0.389708019764975,0.0893919657198599,0.342305918691246,0.0496733992754114,0.0648891381263227,-0.141544995476327,-0.154620570718408,-0.0823070649227006
0.254231682634059,-0.152395223940297,-0.2429971523587,0.162703636659789,0.417226263301104,-0.150906779477545,0.0964510424666325,-0.429568891085121,0.0653218924026393,-0.412153525700455,0.560570719874621,-0.00539926472281754,0.405673283364108,0.366090233031562,0.113478853016673,-0.122377585548144,-0.405475329772375,0.107156041664282,0.357929929430098,0.0707869876978787,0.0869724179203949,-0.137755563681323,-0.123890026084053,-0.0959356257060108
0.235578396087215,-0.181468584297992,0.246951033730872,0.141968991677846,0.410848540488522,-0.12918946870416,0.0850857945290032,-0.45508646561071,0.0702879844685758,-0.41957921553872,0.549545648902718,-0.0137403878093354,0.410096193133591,0.340600399732454,0.132981387495971,-0.127021546892519,-0.425464474723673,0.121307539168119,0.366502338477587,0.0868858950704374,0.10449747193932,-0.133509244470699,-0.0986438997510169,-0.118950620242793
-0.235602453887905,-0.175014916151056,0.255238833399354,0.11200876672543,0.400901045822529,-0.133381219943405,0.0628904341896067,-0.466310718433193,0.0622039381605435,0.414919470060096,0.555255276542108,-0.0285870901943817,0.401909479095564,0.321977357589814,0.143836003350396,-0.128628323487221,-0.439480241689512,0.114190589325544,0.360622084169511,0.103694610470415,0.114708558206154,-0.138411454499949,-0.0795883625635035,-0.117082239553417
-0.17707567629245,-0.0226743687190672,-0.196879695114941,0.156958628178397,0.327114638110441,-0.201966254863228,0.120060949093514,-0.352550801598916,0.0595716928933538,0.343860432136079,0.543949032315646,0.0696372633220143,0.330316087933019,0.468133670191,0.0420719764060552,-0.119498177889161,-0.360099580896782,0.0408192326836177,0.266397417216457,-0.0132631886175137,-0.017867032552456,0.165728702423077,-0.221312542970295,-0.0764509216717251
-0.230816703603588,-0.0319682669928832,-0.211413906830478,0.154910245728771,0.371989617819826,-0.202102177522308,0.123239301868834,-0.351359607643974,0.0571593235047693,0.368502872429507,0.569950981085072,0.0316489173338794,0.351661653905624,0.422404362711068,0.0608538237879834,-0.105195226212862,-0.358749777171918,0.0423605136531269,0.284326603344912,0.00369988358694604,0.0191632390225418,-0.151962799451324,-0.199835252262156,-0.0497374936766094
-0.218840604194012,-0.170215402629541,0.254697801761431,0.0996843235930223,0.379104081354769,-0.138198263143705,0.040615238598484,-0.474334781803859,0.0457905709512536,0.408841957962441,0.543831107572879,-0.0407637272848818,0.380729107280676,0.334352719866469,0.152286867760399,-0.142920028086745,-0.465238496133964,0.11694839808535,0.359108065592356,0.101161559831763,0.108606674135204,-0.148573291499116,-0.0632948206201955,-0.123057048096382
-0.108646679141674,-0.00472733674687719,-0.192306461868111,0.14046971492305,0.26493818514385,-0.189129597971067,0.124275204837537,-0.32605370399831,-0.0681860335679576,0.312917498441513,0.503308889804689,0.0982880815958559,0.286902059230915,0.512469614538743,0.0265798462098224,-0.132385360380397,-0.350218034115512,0.025646160156022,0.225637581758874,-0.0505135684928733,-0.0764867979420939,0.177369732358832,0.234879694355972,-0.108309241409267
0.181488043582881,-0.21953077277079,-0.212075434545845,0.18929000621378,0.395303323199774,-0.104581695615074,0.104857683931781,-0.461984356863068,0.0789510831499554,0.423278378352289,0.506685041418717,0.0198022903894458,0.408408196552096,0.383952945563434,0.12261961842553,-0.141712831832036,-0.427505813237853,0.154260776642415,-0.385693256838308,0.058459945676766,0.0835874691888146,-0.126588901160682,-0.111566677472968,-0.152254685610204
0.179571614611591,-0.234415390740896,-0.218891005077511,0.176173612004512,0.394267632556897,-0.0922313153868976,0.0987692971890829,-0.472664255073392,0.0827010398827328,0.425132067200247,0.500314185566374,0.0128199428423794,0.40706260685744,0.366324979760201,0.13772085172546,-0.142772168865271,-0.439423180462991,0.164387000463753,0.390319737387763,0.0691256939839918,0.0951987742746233,-0.126263609998904,-0.0979444745784188,-0.163069229866416
0.18575350594568,-0.123778876374589,-0.184365541953908,0.185456762515234,0.370786408169276,-0.167374398643937,0.111152027436203,-0.436002497971087,0.0584669286017586,0.392267023435011,0.5385497568566,0.0598846387108957,0.395439720643491,0.432513060954222,0.0663920880348757,-0.128453342435545,-0.398186480064496,0.102022408982185,-0.347825362259483,0.0477953719546968,0.0523214006382092,-0.148403100898616,-0.175029367513078,-0.104403826122935
0.191996937874449,-0.165038066417751,-0.195618468908832,0.196421615328175,0.387037192718441,-0.143547016622324,0.107272859673686,-0.447961166221956,0.0658440117166526,0.40591759323528,0.52768426732234,0.0437431339618473,0.401876946675867,0.418461251331773,0.0890017462669476,-0.134187682878107,-0.409274916056112,0.127851285087916,-0.370591075041798,0.0554671284618159,0.0661741293718218,-0.140415314174815,-0.147979607488383,-0.119828359456848
0.204112877760818,-0.1856183277404,-0.214088974403006,0.191821736954271,0.399719769914581,-0.130625303311167,0.104875934760824,-0.447521686483543,0.0711937249155875,0.414929825860316,0.528126452623162,0.0236541046299859,0.406239174806342,0.397549870628712,0.107187250862835,-0.136019699246709,-0.414239743478629,0.134512901052416,-0.375575593325987,0.0574682539118551,0.0752625575067212,-0.133969014995137,-0.129115809646706,-0.127184681731721
0.170002751559998,-0.245500558371749,-0.219831699719686,0.159818319863278,0.386748651946803,-0.0838913343137131,0.095877226189702,-0.481614014856437,0.0843970344575976,0.426907952842131,0.49644454635494,0.0120113309071727,0.407884810841283,0.35114064468821,0.146047408943224,-0.143619325160496,-0.447187508574274,0.167114391001173,0.390003912268781,0.0761286080114389,0.103367019286904,-0.124035651189114,-0.0894546746266684,-0.173869632555989
0.178150958265842,-0.237392455741003,-0.227750437513171,0.138957929613717,0.381890790874874,-0.0931740657433468,0.0843853395831392,-0.485098214208638,0.0783379662113584,0.423737497508184,0.507953030470918,0.00457686321469713,0.405511199940526,0.339926837784907,0.149749852749554,-0.142968911917214,-0.452700484485765,0.1567208128878,0.383795930369469,0.0875117679144786,0.1099035206081,-0.128032416726509,-0.083805127484457,-0.168555985227473
-0.104205954993771,-0.0324877910546481,-0.162503082694566,0.152959895713426,0.264398452331839,-0.203841267723564,0.105347649716634,-0.39358807202515,0.0470602600878969,0.316631379995461,0.500003569524135,0.128144641162728,0.329118666292689,0.515145336946775,0.00709627715206176,-0.141097395587826,-0.376645014765584,0.0497059464288159,-0.262729918374837,0.00746166513540395,-0.038375834686965,0.18796510603069,-0.243445182628446,-0.119453539589822
0.168509053222409,-0.0672794692903119,-0.176608092677914,0.168949225136787,0.33737040015477,-0.194487429467456,0.113687849191719,-0.407530599450304,0.0520806574410146,0.36333478639323,0.540841823890552,0.0816866178720747,0.370910117999818,0.458211848254871,0.0392156874753862,-0.125885875176688,-0.381898863140134,0.0672296288515585,-0.306434438133625,0.02600509637232,0.0187296044628165,-0.161881294021259,-0.211332121749445,-0.0925762851173264
0.166438610672484,-0.234807345728582,0.224956890550548,0.119920617097674,0.360909993625939,-0.101670350248206,0.0683617589098562,-0.491563598300416,0.0642778614953638,0.418096179752546,0.502329227436126,-0.00119476105727014,0.390860910234345,0.343136306525353,0.154484447803107,-0.15030730296179,-0.470466217913565,0.153430093642464,0.379007864082208,0.0913055057299876,0.110067631805782,-0.136149469693619,-0.0760929608143628,-0.172250122388037
-0.00675159428429517,-0.0183803744229183,-0.158423424938406,0.121208629542713,0.158334997880117,-0.192189831545599,0.0962697131192557,-0.366997807395267,0.0405103799647906,0.256077426535595,0.421804813529857,0.179887284599213,0.268382295348467,0.582307673434892,-0.0235727150306835,-0.16652108017916,0.363829538588895,0.0314128781328924,0.202897235688946,-0.0159338729967623,-0.123108201932242,0.21918353823263,0.255046576408952,-0.175883526209081
0.127308740855033,0.235935123620457,0.207864470857097,0.111887341703832,0.314055665838165,-0.108713111431225,0.0468405250442332,0.49121091938668,0.0359017188232952,0.403921826064889,0.461317817761435,-0.00773110842940167,0.350016232144118,0.375746311305626,0.160619989843315,-0.171394002118062,0.504340923097198,0.163157885033583,0.373370573848183,0.0732366154243361,0.092945531220735,0.152838457465618,0.0672268129635814,-0.18807870225117
0.0851306886068059,-0.209548557727875,-0.118064339765108,0.199185267776333,0.343525530047506,-0.0886824738136034,0.117524512218089,-0.50204837273893,0.0716834364093641,0.415517453565782,0.444925846271786,0.07383051323848,0.393659142564404,0.422198840195855,0.0871996583134049,-0.134820677804365,-0.441555844561016,0.178073253842088,-0.395938624697985,0.0627727342568117,0.0826359134471323,-0.132593619394854,-0.134213864664601,-0.163309037825651
0.125085863748481,-0.219679587337158,-0.159548236360505,0.199073547521776,0.367372647837863,-0.0930255888658748,0.114597372460869,-0.48432799984395,0.0762032948564781,0.42138484884718,0.470264281062138,0.0511307603214428,0.399824702354691,0.409267300850589,0.105179631716055,-0.139912905196896,-0.437027071399033,0.171607347021166,-0.394140670464233,0.0570577142586744,0.0807652566119716,-0.129358707913747,-0.123748032373244,-0.162609167025718
0.120214909757163,-0.251465965412973,-0.171172731225551,0.188609429151263,0.369680078543233,-0.0698420196293709,0.113175956030362,-0.490328913360866,0.0840065934556741,0.428300866050865,0.456640841175361,0.0371772697918574,0.397172626083483,0.3854076157521,0.130989008018595,-0.144679217103076,-0.451980917419534,0.189079626806218,-0.401182553657746,0.0588313073048356,0.0917755974112622,-0.123117353685523,-0.102913299940349,-0.183498756012825
0.107291700539575,-0.116394288247372,-0.121433063892655,0.177277205582147,0.315727284505981,-0.164164917211717,0.107407126473477,-0.479896538195096,0.0490542932215395,0.376190440989236,0.495224101455368,0.110200100241019,0.394114179877501,0.459151465022979,0.0303678877491681,-0.131973259469042,-0.415450963364227,0.110625788522591,-0.348066484369055,0.0656539543842997,0.05296687807202,0.15983948818763,-0.200405984326726,-0.125065418570823
0.120706286336897,-0.177389577607798,-0.139360006245874,0.196274991278503,0.351203201344746,-0.12228814720778,0.111458755161556,-0.486879150534492,0.0649215119808049,0.405360687188268,0.482089056567696,0.0760126022306533,0.399252553812898,0.43272090698496,0.0739027147743789,-0.134786147363843,-0.428718106654538,0.150739603602688,-0.382227947800763,0.0642533731407888,0.0731480348495484,-0.141785208004329,-0.154192724681186,-0.142575319129057
0.16504410357571,-0.192679159172395,-0.18273400695088,0.202012474570252,0.38029629150945,-0.121550419575152,0.108930227801072,-0.464246516084407,0.0709895608027132,0.412744604170459,0.504157427469949,0.0477255594792552,0.403493660231304,0.416758157659123,0.095598419225227,-0.138823922075837,-0.419942909168036,0.148034738693622,-0.383260753758964,0.0565085016108914,0.0715304986069304,-0.134960576072055,-0.136624126646556,-0.13997600193251
0.118240197289365,-0.268291773416847,-0.181735015142492,0.171949403360214,0.366658077717594,-0.0599252624001075,0.111487898329603,-0.49421382705423,0.087708401924806,0.431529928879361,0.455999594470687,0.0317502948512349,0.400213745876246,0.364686228323289,0.143997091247133,-0.147055289917144,-0.458056409595162,0.191247569103756,0.400047629174239,0.0632975584482798,0.0998526163763412,-0.118617316711179,-0.0920777532614106,-0.1968887325525
0.115563944191957,-0.275978917076459,-0.185983572495993,0.152633711300006,0.357960230803362,-0.0592927627199744,0.107702554195275,-0.499683471939115,0.0863798272134153,0.43159589477093,0.459650082291095,0.031466934427376,0.401830309871757,0.350636776608939,0.149738297130586,-0.148784414535965,-0.464218891757929,0.187439345917609,0.396928557447068,0.0708850668846088,0.107157429820975,-0.11737845003669,-0.0875656725606511,-0.20424053479746
0.0127658536604208,-0.0277311550860582,-0.102975747205541,0.128302225918059,0.171967385678568,-0.210888723194442,0.080948849973046,-0.444345954144048,0.0191246292548225,0.273105647668403,0.427449119500486,0.193903318832902,0.321639605484701,0.554849300839903,-0.0488893820394887,-0.160296890400497,0.397486415424752,0.0516142823608705,-0.247173486714316,0.0505024080475484,-0.0526753966042085,0.217635212042318,0.272983900611757,-0.159362591065736
0.0767849977187928,-0.0657490589107944,-0.110510763271504,0.157248294740728,0.259561079422023,-0.195485164189443,0.0957594587463607,-0.466502034191212,0.0347620768782464,0.332493847950507,0.480070929651732,0.149289146250604,0.368283119903256,0.499790039336505,-0.00870060902869297,-0.140650040041294,-0.406271539653326,0.0799792683502016,-0.305883729139913,0.0621208772467561,0.013069993600017,0.185158563314639,-0.241563750483017,-0.129299032351831
0.104557953615727,-0.279056316273869,-0.17962001019822,0.131696192933777,0.338257983517035,-0.0665526278184766,0.101204534915082,-0.506343785943042,0.076448988233924,0.428777584509125,0.457953306006044,0.0340225875740498,0.396075750173075,0.347449918734652,0.15056523790337,-0.152236913243469,-0.476348465577002,0.181852581886547,0.392417227940851,0.0769813370504328,0.112264567490119,0.120798944922013,-0.0879676394002089,-0.209540728281017
0.0805114660100157,-0.283240457765278,-0.162548272999891,0.118621459728606,0.300687226621123,-0.0775733831429785,0.0865237236725136,0.509979305109398,0.0550284546637648,0.416925120094271,0.430919396321653,0.0371628532381104,0.370114819584853,0.366948054491064,0.150601244851053,-0.16229595318575,0.499721825081579,0.186269575384456,0.388724859277076,0.0755685918237002,0.10917002656851,0.133852534248186,0.0911454392326111,-0.219746259590772
0.0628138975655086,-0.225124944663579,-0.102258725972072,0.196195027334533,0.337095817030487,-0.0692502628019849,0.11946519070822,-0.512019323755188,0.074620032344903,0.418532268630613,0.420050695402233,0.0709442390176827,0.383873597471925,0.414205228529159,0.0988350241100595,-0.134361982056351,-0.455616601791528,0.196331074618145,-0.403452100825164,0.063260759433762,0.0906085362584859,-0.12925648974813,-0.123347273309649,-0.174242679236213
0.0589913965851423,-0.246816191841753,-0.110680243285667,0.188710341530377,0.340410965807803,-0.0544868236935271,0.123563828379366,-0.510791907816572,0.0797556035768188,0.426118773649819,0.413818440851873,0.0585852486791021,0.38211600352372,0.397413825206018,0.117302218522268,-0.137477735426972,-0.465045634880259,0.204454883521377,-0.404791459747924,0.0569669660262488,0.0954851547876133,-0.122836932421177,-0.11041577970597,-0.187572199090727
0.0511657234568363,-0.273697259434246,-0.119529766409772,0.172134801073175,0.336471784650091,-0.0387936073559986,0.128114750376203,-0.512095873910787,0.0851295364515099,0.432716645580453,0.407961766936377,0.0515936429747665,0.382918785894144,0.374306294066004,0.135942104318654,-0.142091323348025,-0.475095884756118,0.21064465688176,0.404076684914716,0.0540832180664093,0.102721722288377,-0.115029611961628,-0.0985049187706286,-0.207456097170926
0.0265659741484806,-0.293019833128809,-0.10543974967378,0.154470066984786,0.318011457398454,-0.0240708933445883,0.133437348130012,-0.520004944728389,0.0872256306044831,0.43280865947126,0.390270391702932,0.0579691805604339,0.376220801848954,0.35961300564907,0.145356603102044,-0.144605801428311,-0.48839134537122,0.219608223342941,0.404250936111875,0.0550445039934913,0.110947963530642,0.109545583611699,-0.0953617122098421,-0.224789647647657
0.0407387948257005,-0.145901799648677,-0.0574609697146221,0.171179395204614,0.291936809354977,-0.125542889508375,0.108729571711221,-0.53056458972485,0.047324194112412,0.38691235859053,0.438751571345338,0.119283377055189,0.395200145732112,0.442828460089765,0.0300717798735363,-0.125906258542887,-0.445930199024252,0.146768063413782,-0.374388089606825,0.0886280377154315,0.0871930521935285,0.150877238934527,-0.182606200410545,-0.142220215716177
0.0368056410851257,-0.192796173063976,-0.0666860173478199,0.18399271706845,0.314657311895082,-0.0848905359881971,0.119191063148739,-0.526940867991776,0.0630679462683888,0.40925049981043,0.418021598447044,0.0904041785502064,0.387583272599198,0.421835129581423,0.0689160077416055,-0.125941350133838,-0.455992378222566,0.179150760255448,-0.392923624232733,0.0730499789980322,0.095426938206168,0.134983642706744,-0.144985766560315,-0.159192427348126
0.069457729233283,-0.28852412583159,-0.146697575622822,0.160359804539797,0.339822400449944,-0.0392598587447778,0.123694365206095,-0.508618349122546,0.0880038255473937,0.434567241235352,0.422482555358017,0.0472182963896128,0.391918184927352,0.359567544475645,0.146160044321469,-0.147752476072096,-0.472775317855903,0.206106969421583,0.402609739552847,0.059550404145363,0.105463885881022,-0.112624561641279,-0.0913652383390678,-0.218226711700307
0.0451154783017398,-0.299551540288471,-0.126708500374484,0.140111473649312,0.315719365473263,-0.0346885248781465,0.126343467619667,0.519322390141214,0.0842415991039586,0.432413967551304,0.409246714495116,0.05736966134503,0.385058975199742,0.352243749529115,0.147601991204852,-0.14974332780682,-0.488218492983486,0.208921450272037,0.401438049017949,0.0642034151574946,0.114592720197383,0.110841165183327,-0.0955962798592768,-0.229385955079575
-0.00999437481948306,-0.0450389882300289,-0.033787639475191,0.121220633090244,0.174129693013856,-0.203529289395766,0.0800054421217804,-0.512482388872206,-0.0046192961727913,0.298431239656007,0.413015076207508,0.200348159596789,0.363598951150961,0.51581962715742,-0.0664129995204983,-0.147762490932573,0.425386558238548,0.0716510848239234,-0.288804604919134,0.103089486439518,0.0157299956525358,0.201595047947101,-0.27152750076499,-0.148934368814802
0.0222370667511525,-0.0926760854125136,-0.0408346518075358,0.147513408542928,0.244485818333516,-0.168442678584036,0.0988514264276003,-0.527516680549429,0.0260831723822773,0.351828095279995,0.44132372326203,0.157708223090657,0.392516750938152,0.469928315525342,-0.0196240320824861,-0.130706020764234,-0.434787887990059,0.105762383564143,-0.33795104017343,0.0979599089857918,0.0646914561951449,0.171121660394371,-0.229414465639751,-0.13534596207207
0.0296075847611498,-0.306663907918296,-0.113315316427823,0.118435191499585,0.284241118282055,-0.0481702018678675,0.122698890404158,0.522991750520037,0.0677550139706691,0.427691846770595,0.401203336612238,0.0680036046821476,0.378662805254672,0.356774475907907,0.140808626879903,-0.154453493531317,-0.500350694046568,0.201089820058941,0.395577600956938,0.0685579170904041,0.119269973143252,0.115166916721456,-0.106340153290549,-0.238281823958236
-0.00845508453978353,-0.311322650251478,-0.0752673892071674,0.1064595535743,0.233572577841794,-0.067973288426608,0.116909242677568,0.518064135495854,0.035914406377182,0.414295747413699,0.358765505989835,0.0789698563660855,0.348690739333322,0.383433752065798,0.128954442949452,-0.158037463172761,0.520256965311081,0.201319695427145,0.386171993013536,0.0587989133266384,0.11786411419291,0.128374027775246,0.126832555830802,-0.246880878267523
0.011646980321292,-0.221926121431948,-0.054458696753937,0.179518435267541,0.314118463611261,-0.0527931241297604,0.125214071724408,-0.53108317729809,0.070743182964713,0.417878962361791,0.387212420492648,0.0737887654722621,0.371121964094476,0.402020725055201,0.0965358753107532,-0.12589640956275,-0.475973419681452,0.204381899025256,0.400849269124521,0.063405522795146,0.105484730104499,0.124806782642224,-0.122264747084162,-0.175016509161422
-0.000836157243419035,-0.248042936106996,-0.0567600795992101,0.168371501429094,0.31301720555587,-0.034381031782365,0.133161585806798,-0.528787760955228,0.0767774146934096,0.425791583910284,0.376689364499436,0.0616167174274684,0.365005360864141,0.381462898632708,0.117989495168849,-0.129489099016907,-0.489236454615326,0.21359000195272,0.400052738964286,0.052294082808192,0.110812887944765,0.115452138428368,-0.109761732729996,-0.191234825449851
-0.0089921743121663,-0.274278185158626,-0.0611283689691278,0.153112663300319,0.305468917469102,-0.0202166205950255,0.139042666488314,0.528272477306964,0.0830087095996664,0.429296746625053,0.370149913081254,0.0596995501780865,0.361071360917406,0.362771226330101,0.135836638070677,-0.135652210889816,-0.500541032225746,0.221178654305113,0.400051206989919,0.0481732496167815,0.116227830188584,0.10756227658807,-0.103465553021603,-0.210682383433929
-0.0125554499543981,-0.294246907591083,-0.0658251655639373,0.134227127708326,0.291463311405909,-0.01820299192753,0.145158406772787,0.528956732915538,0.0835699832142948,0.432274870683735,0.373583403410442,0.067386235293112,0.366667064173212,0.350145110546146,0.139748563741494,-0.141565314133949,-0.504888125651407,0.21704821204763,0.397110056837713,0.0500767186111073,0.120782959260709,0.102061548876166,-0.106507522869806,-0.22705426619391
-0.0108672546606982,-0.155207742153721,-0.00758053277424646,0.159433726297008,0.276213934601706,-0.0960535400906133,0.114040907042733,0.554800777402134,0.0453196402904867,0.393385918097379,0.397983323680347,0.112140344122013,0.385945878788069,0.420745987221704,0.0344241390866363,-0.115242397279849,-0.468164744087556,0.164649508277799,-0.381733621487536,0.0918213148397466,0.111931102570155,0.140153759258746,-0.166765723758403,-0.143270050803711
-0.023580376704828,-0.181270272177135,-0.00389889421927716,0.16251744958559,0.288072453033064,-0.0657095088588666,0.118774051602468,0.553304652528052,0.055643388433614,0.40414516419695,0.377800160728007,0.0874029945375869,0.368797540464462,0.402872838358317,0.0668155197794715,-0.114178089622662,-0.486152873279359,0.189219365013781,0.391261400246325,0.0771850000469739,0.120584204092389,0.128647893132223,-0.140768028994685,-0.151414489512863
-0.0164839358753985,-0.308117756926873,-0.0645451607086646,0.114725066934975,0.26901565106213,-0.0265030390544408,0.147875855733169,0.530623215767549,0.0754169037196302,0.431959408563435,0.375405512466783,0.0811825635563581,0.37203458213253,0.347688717136768,0.133830128596192,-0.146867077101065,-0.508780364253986,0.208739354725757,0.394029298658838,0.0563526983481873,0.125760085948882,0.101163535770325,-0.117027037185436,-0.239990649925782
-0.0482710603262402,-0.0567413857345907,0.0353560513128463,0.104971579285696,0.1725693763568,-0.182229254797959,0.0890208557266647,0.559676945580244,0.0072311584295721,0.324254557598183,0.391281467271799,0.189176271062261,0.388062944646192,0.46968129019646,-0.0721181925544205,-0.130230608056784,0.451009535516308,0.0843042251763308,-0.316991562957032,0.128516041410283,0.0761063201005131,0.17748973982888,-0.25572981792028,-0.134045214689277
-0.0317697977490129,-0.106353426477444,0.0247885524922721,0.133065909041149,0.233962639683243,-0.132611326279262,0.102084335950902,0.56825709038087,-0.0202227743232272,0.36714872676734,0.399085719081289,0.142303549565471,0.391785767615223,0.433942348036031,-0.0125771725582256,-0.116249404763113,-0.46815945713771,0.130350454392929,-0.359644150795788,0.112084818034201,0.111398295347308,0.152604233813241,-0.203786573237451,-0.129177175818645
-0.0340109423292304,-0.31633111278276,-0.0446304323263132,0.100225726546967,0.232161516401048,-0.0404192054706411,0.144827877621979,0.53148992437336,0.0557982821681344,0.423658027974956,0.354110209547188,0.0980543253877346,0.361995177601571,0.362030278503884,0.121565427904023,-0.150329425353787,0.51966736177626,0.206877032762475,0.391704884128824,0.0609637026702316,0.130430016072642,0.107724171644467,0.135137108525011,-0.250619771346353
-0.0732723700336093,0.316659070386675,0.0024252884502603,0.092667781434,0.180792921422923,-0.0647020488399981,0.141846551490047,0.522399873130044,0.0194878998588683,0.408721358904737,0.304381892668868,-0.112727290562857,0.332964382776389,0.392295115829349,0.100009983303892,-0.146939522060513,0.534455368782875,0.20565204628926,0.382131109877301,0.0521011875204443,0.13326524407545,0.120756366976142,0.16568337727786,-0.254017072217193
-0.0378279532114111,-0.206970944514027,-0.00335785449672107,0.15824351316021,0.293883454982976,-0.0427785115278175,0.127087396097536,0.547429521904022,0.0641021686840733,0.413284073887349,0.365093345637893,0.0658874365453706,0.355396498861876,0.382255597845609,0.0941767074102614,-0.116338023418835,-0.50299761479576,0.20241732794022,0.391194883502327,0.0578284507639612,0.125552437267537,0.11654804061141,-0.123689158417236,-0.162224211432527
-0.0440568957012762,-0.236344596929186,-0.0102502115623439,0.148925989663009,0.293670120524847,-0.0250676078295131,0.134853749171225,0.540816895990641,0.0742881097358755,0.419230294071966,0.359248610847613,0.0555418286305593,0.345621510484314,0.362998658495047,0.119297885847334,-0.12368662938216,-0.517175051941624,0.213151517801255,0.39113551661763,0.0441136215331645,0.128230055075284,0.10527184656926,-0.114753679615985,-0.180351445469929
-0.0479735317331687,-0.265125915919954,-0.0173832063437288,0.132342695256036,0.2823121069544,-0.0172514109485557,0.14696195596312,0.536133554923593,0.0800291471433292,0.425594194452583,0.360833684183927,0.0603127846455507,0.348146208065418,0.347286422486381,0.129451724232925,-0.131902712900901,-0.522902589958582,0.212668506173343,0.387976719984236,0.0381797769707265,0.129877427061973,0.096037766397246,-0.117297766419216,-0.201549700654659
-0.0496256481629204,-0.289727930763685,-0.0218720732245906,0.113937469166267,0.261716381731814,-0.0146924184657423,0.154996649502447,0.534912223192189,0.0811322153283696,0.427043010798666,0.359349691836135,0.0762124561411874,0.352491919591472,0.340053591772377,0.131084387797889,-0.140122928705153,-0.525970848319357,0.212103379304202,0.388122663763983,0.0423854253279778,0.132733134617855,0.0913621561324536,-0.125784582967239,-0.223426034439323
-0.0509969121828124,-0.132951100143809,0.0401429659762601,0.139667441843596,0.257140177269128,-0.0898201163871929,0.107146836324763,0.574415950693078,-0.0337423950618332,0.385334369622709,0.37824697276441,0.103135070897213,0.373727487951853,0.403545939144917,0.0292623389774784,-0.106972203803562,-0.494679141229275,0.162648017605135,0.377010450250876,0.0941891261315522,0.135511262553153,0.133270597746114,-0.164589690188246,-0.125812592119676
-0.0628350954463847,-0.155672812212622,0.0406442483795085,0.144153826482378,0.274968271150317,-0.0629184122045597,0.112621733167264,0.567768408869275,0.0454133155319134,0.395922815016154,0.369724493735322,0.0698492370052244,0.356213104934771,0.381469116935528,0.0633248481283595,-0.106390083857036,-0.515629596885873,0.179428806829611,0.379709890063725,0.0683478181311876,0.143737826112366,0.11807348055835,-0.140821467083682,-0.127028545093198
-0.0597621223364236,0.304967678627696,-0.0124045270992247,0.0957837695822219,0.230702217375621,-0.0242158446484588,0.161906634099556,0.534852032303348,0.0683777068872834,0.426115188991624,0.350808923213281,-0.0979050435236509,0.357286158323311,0.344938395187265,0.117749473852635,-0.144496897793675,0.528203523507513,0.205223286994731,0.38637086531745,0.0486268638771152,0.13705781873279,0.0920274050732565,0.143417435949115,-0.239230292439543
-0.0786439421789322,0.0542056625310469,0.0840869474624503,0.091082731954392,0.173609300217721,-0.160391739925544,0.0907716560801545,0.584911990928688,0.0163755304066337,0.338873493458203,0.37739804968509,0.162432236503799,0.390429617648749,0.433396970115394,-0.0629538475066687,-0.118085024507772,0.479417689759856,0.0924726814770271,-0.332866037576975,0.129753965334286,0.119298567038195,0.154540080710339,-0.231023405792029,-0.112873594875218
-0.0829901789104925,0.310400303503122,0.0155718842735565,0.0841481009243843,0.191623057786095,-0.0430096732955661,0.163265869368304,0.532209683901746,0.0418518178751507,0.41890156847473,0.32319231167503,-0.117975347356953,0.349427138238532,0.364652223537463,0.0967000840647769,-0.14368367964033,0.535514445879906,0.200528206137084,0.383501878890321,0.0509350973864766,0.142633965901513,0.0998680998932109,0.168761350453908,-0.247366268811052
-0.11606670988843,0.306119530472857,0.0569983284177156,0.0847482426402048,0.146680961926346,-0.0653687652384378,0.152383165991072,0.521400199822951,0.00747701582783907,0.398388098314278,0.267759866634982,-0.130562481060436,0.31771024372776,0.399960501254909,0.0750423351913329,-0.138475506420631,0.5483100670681,0.20527981016412,0.37886759501965,0.0464856141897656,0.146322300346503,0.115442638362961,0.199052017265143,-0.248745051614016
-0.0670448955339686,0.183708019654649,0.0325609809054917,0.145252047071545,0.285837502726557,-0.0418966675338476,0.117661937405945,0.55718409405836,0.0600372858015395,0.402511966329443,0.367060075268397,0.0477627189096581,0.339168022587316,0.362190870524673,0.0955221906785744,-0.114188183792306,-0.534972119126727,0.194052070020602,0.380558389444448,0.0445269228146642,0.145737792933338,0.102597587272703,-0.12781063681677,-0.138413452799713
-0.0690043960557932,0.218213163002306,0.0227843620624521,0.136698355332898,0.282198943677428,-0.0294844808305432,0.1319958509699,0.546056164916409,0.072120956335601,0.411284393869802,0.368584791426994,-0.0443408910744709,0.33446813964603,0.344993748358605,0.113144660517948,-0.124835394510448,-0.544567427631556,0.198470230159558,0.377444070015365,0.028236866693919,0.14407541962056,0.0893338074299352,-0.129653958187635,-0.159545270409854
-0.0690879665798788,0.253594614950742,0.0140414448968378,0.120436515565591,0.264946693098123,-0.0190825196469347,0.148220905756734,0.537818615147712,0.0813216619363378,0.417794168247441,0.364304762052678,-0.0583606294915885,0.334858746947664,0.334213303629283,0.122162339060401,-0.135419702190021,-0.547096246771821,0.203182427195185,0.3776409030246,0.0251914006906317,0.141777544110333,0.0809671244590151,-0.13780226662393,-0.188404488170392
-0.075490416041819,0.278850256243335,0.0156505625189562,0.101035644596878,0.236228508111463,-0.0203834508140198,0.163180624302429,0.534010692466246,0.0767549447448942,0.421299008291945,0.356675444167557,-0.0822918153818179,0.3423827249379,0.333645087649684,0.113808800257964,-0.142187612102636,-0.545557216125806,0.19933649340997,0.377006356550281,0.02966133989391,0.142366917366465,0.0789066162652207,0.15403131628305,-0.212282492902549
-0.0793716351214158,0.101534866055701,0.0746796949112074,0.127157742006234,0.251537471598076,-0.0909718196940379,0.0943915006888859,0.585471290507165,-0.0206774385873677,0.374880973195737,0.383790264103512,0.0770811510289695,0.364976911673514,0.38239975922946,0.0274531898978619,-0.103337351514078,-0.524924771711063,0.147948727589528,0.366414332576054,0.0793051412649486,0.159433614744395,0.118820213636154,-0.159155275174108,-0.0937923583213175
-0.0800656736635583,0.124733875410937,0.0642436982441163,0.140112449931433,0.276206820279323,-0.0670161713727984,0.0930591731077413,0.575045896061141,-0.0391246578496848,0.381056352699691,0.386988882917801,0.0434312493379706,0.343761925806463,0.363512974171579,0.0658858812680485,-0.109253865077532,-0.54840694557268,0.166755236577649,0.37010320615361,0.0493411387397726,0.163780801956255,0.100816968387725,-0.139499956671936,-0.0952415273044645
-0.0915507948498742,0.292477701548113,0.0304612272604711,0.0856875892802151,0.201508269483057,-0.0311956031194296,0.170530978058776,0.531823600385493,0.0586320065278325,0.41825324102597,0.336847666112947,-0.107053433008323,0.344657617038385,0.346202689624833,0.0962608487601379,-0.144346358230326,0.546818131172069,0.195142821598104,0.377380237156514,0.0360013109064611,0.145946359791251,0.0842607323177453,0.175307020575135,-0.228592666808516
-0.115494546072785,0.295486171303041,0.0555689440960482,0.0808423592976768,0.164297272682209,-0.0464358646037555,0.163927655175279,0.527298531853934,0.0322897170606318,0.40403297543854,0.296609625238584,-0.125711150204741,0.329381430886453,0.373778547212692,0.0783228673707408,-0.142899391602572,0.554614923689414,0.199473078883724,0.379489015950786,0.0403063513490319,0.149969515017848,0.0975501599719341,0.198657340816312,-0.238285637520485
-0.154311361910943,0.286448622676,0.0957554404224446,0.0858847051327108,0.12614931575169,-0.072741624042671,0.148773932132938,0.511262996383885,-0.00499366960732805,0.378690809086598,0.23911434045626,-0.130855596363566,0.294982980538156,0.409176295661861,0.0565225622137319,-0.134460073545664,0.565278742903725,0.200566032744475,0.37151633369273,0.030678528790559,0.152455383944098,0.117497883923445,0.229633037601904,-0.233862914491879
-0.0764471432339507,0.2428969465162,0.0360282797140711,0.122535341916073,0.250981973411565,-0.0290121965559925,0.148623329865959,0.532267899657905,0.081589427895212,0.409991723928331,0.376501545712494,-0.0582383220717142,0.325944695221109,0.32868511396463,0.105027408442845,-0.146644386345851,0.569224368707179,0.191183403275541,0.368745137121574,0.00759215970541029,0.148319043417807,0.0648173103003431,0.168913151250583,-0.173257343147403
-0.0873971256382117,0.265717530957203,0.0389819736622691,0.106092969926562,0.218905047469733,-0.0264443675768669,0.159538080710864,0.527368950006643,0.0754971048520888,0.407762401276479,0.353498315698591,-0.0850278297469434,0.325922570357337,0.338041052017694,0.0980730806302484,-0.152622438443039,0.568570441580232,0.196241773923963,0.373077234132369,0.0149623252732164,0.146085487063384,0.0701172875838499,0.18472110461986,-0.200184236078295
-0.113032261086694,0.275717564100412,0.0562642597498616,0.0937611091769733,0.18293069197165,-0.0387353459416165,0.161800151236385,0.523195655569345,0.051227020964559,0.398631346830685,0.320002231475849,-0.108112554112854,0.322113731870367,0.35988827282686,0.0803839637258753,-0.152238039754772,0.570396749250732,0.195220082571733,0.375007383893544,0.0206431453149104,0.147632691118192,0.084396086725135,0.205895443339705,-0.216464427212844
-0.142337129256762,0.277405296367123,0.0802918820389629,0.0883065855363825,0.150720224454684,-0.0561293097300818,0.154971985665108,0.516779810441441,0.0215484160566992,0.384360069328306,0.277792070041877,-0.121817672588984,0.307897015993795,0.386244120048014,0.0640757953514872,-0.146040652574119,0.573293862979461,0.19596635902771,0.374355011176927,0.0233505288690818,0.150721719568844,0.101902828063689,0.224973534502285,-0.224182553738031
-0.222495521840455,0.172529427216683,0.00957875902198663,0.468609171489644,-0.0253039223102229,0.00564070719201152,-0.0653115805142178,0.326269059288303,-0.251025660077492,-0.00466414882854913,0.0611818439666348,-0.0194109335415281,-0.278778222748018,0.4000642049932,0.0970938491673908,0.0230540238447007,0.485291232899392,-0.430439542231642,0.231663742076361,0.0557123407987852,-0.211133026501703,-0.329810515733376,0.348630158774301,-0.150518102900825
-0.213589003983341,0.225440916096097,0.0121493009086465,0.484203892209996,0.0105637186737223,0.000332212519018047,0.0633529134870608,0.35273029083672,-0.217653490153279,-0.0148570402064507,0.0279894191130986,-0.0367143713708374,-0.238923816261217,0.42562124488171,0.12026406318555,0.00663258792259456,0.523987067022349,-0.471180721436362,0.275972476106846,0.0282945350034542,-0.2318476738614,-0.333533023412104,0.346699537224023,-0.106479122788721
-0.260427426353115,0.205214363686202,0.00862652150340753,0.486159935873574,-0.0114959557730229,-0.0129677741286898,-0.0321758425023207,0.312820788680245,-0.250760357256154,0.0164885533656244,0.0354332726444637,-0.0407792745471766,-0.27427155767833,0.402307588368317,0.111111291475784,0.0272108046179768,0.48114950254854,-0.474489046279395,0.263518662048517,0.0457857798278425,-0.219923120948171,-0.324137792887025,0.353018664803847,-0.131149040107934
-0.118784818232223,0.28158298701498,-0.0227942674630247,0.51637742921232,0.0916596239573383,-0.00590569381121649,0.110750416581505,0.414216106592296,-0.139959188456804,-0.0712639608259769,0.00912884140039152,-0.0229118512789125,-0.117780202713514,0.470316051759301,0.145433720395207,-0.0699045855257793,0.598680764859123,-0.477840115011751,0.338443708321772,0.0250191077773208,-0.242111664500528,-0.328361962582404,0.299742750072721,-0.0263286541350885
-0.185771121570726,0.290919548620341,-0.0069022933197399,0.507188347564727,0.0595241374974609,-0.0203153730808,0.0673324105121968,0.379621542264436,-0.178399436358535,-0.0318498930393122,0.000164593601170555,-0.061272924587379,-0.173841300529177,0.455892062191867,0.159968290126724,-0.0318608673218764,0.559094921053142,-0.517785037219379,0.350219003958018,-0.0146715567137982,-0.250942946889483,-0.321722931385935,0.318913844697819,-0.0341129215188292
-0.311388322860262,0.287981136603445,-0.016137739379393,0.51798921713728,0.0493417758824006,-0.0507562237806149,0.0128742635453856,-0.31354955958298,-0.233958934123529,0.0141799288687943,0.00172127581743855,-0.109515002967895,-0.240421879424527,0.431363599499984,0.188766305691631,0.0096116600847148,0.488669921137333,-0.581999641334023,0.375712522552237,-0.00374139187668063,-0.247661143679622,-0.306203113344844,0.325229259376825,-0.0523987449385394
-0.382894446090532,0.271126266007108,-0.0245314634880896,0.524081406545972,0.0409573028225165,-0.0636193225327373,-0.0352766163530518,-0.260678188395154,-0.26206227410169,0.0596579073938006,0.00171703805814737,-0.11399276479368,-0.270199092310489,0.404596181762852,0.177114979851742,0.0308577875173574,0.439810693132265,0.59321667955461,0.366051538118989,-0.0143763520226788,-0.229252048700686,-0.297175164017536,0.335530021919682,-0.074978324110583
-0.399714672210121,0.309621150883102,-0.0434366336688759,0.526927329915219,0.0800291524075232,-0.0853783777015594,-0.0125079117561827,-0.266654286195665,-0.256249894396047,0.0256842613625605,-0.0012573073938866,-0.165581555940531,-0.257981554078805,0.419984472478457,0.245613990334511,0.0209299775747106,0.434210479443709,-0.651571272521123,0.434657752790479,0.0232821864260074,-0.247545967543204,-0.279065430776317,0.296695571009369,-0.0272236741619278
-0.450779514504156,0.290092273725254,-0.0556552245205227,0.541623687066087,0.0853700904026079,-0.0938777103837653,-0.0553441227328487,-0.220393642231967,-0.276447326322688,0.0638036158734309,0.00220605960269239,-0.153994534063873,-0.272470453238642,0.399704724917634,0.22525954060256,0.0333683805112376,0.396915259373327,0.64796930366909,0.41799886554217,0.00279322362839973,-0.223940151949589,-0.272364761765373,0.307130292941054,-0.0518070575901107
-0.138921520024572,0.321442758872687,-0.0206657324156574,0.518276553466285,0.0901459458051305,-0.031447752586957,0.078358997963493,0.400672995392861,-0.14108861356612,-0.0514855978841018,-0.0113167600665961,-0.0669662111503994,-0.113736670616692,0.472300621867681,0.175507272683662,-0.0656597008103266,0.580758459279391,-0.524662078711604,0.389815054453621,-0.0197931091970266,-0.259905598316838,-0.306775513490069,0.289525702022617,0.0126384678885315
-0.190410569937728,0.335153682284289,-0.0260897748778507,0.524757660708505,0.0873543396606254,-0.0677402239534649,0.0604717084005801,0.375824212570111,-0.164774615486431,-0.0463071302940269,-0.0140906006654061,-0.124418999673233,-0.141982657099505,0.473251441256599,0.22435304003148,-0.0490459477521858,0.54184175377996,-0.586564224228956,0.44231166885328,-0.0100295711839057,-0.273668238483827,-0.280343924936632,0.262632018070161,0.0310544936944339
-0.369134781512948,0.313425829947127,-0.054760102915117,-0.532120570779539,0.0970132687600757,-0.118226916354264,0.0287101917197299,-0.283286491599591,-0.253718041753548,-0.0272541372013359,0.00143573769023083,-0.199377010796414,-0.24823375023924,0.440316401919405,0.292756983575379,0.0100642243096009,0.42972149311562,-0.679606085190385,0.474707846699167,0.0319591516706047,-0.258227307041466,-0.252347827693245,0.24046536114857,0.00177403669211035
-0.438286908948703,0.311057830777956,-0.060185176386382,-0.533034167982043,0.100061119013998,-0.104570542341743,-0.0196686870500481,-0.239987749796819,-0.269705485804208,0.0239544003674885,0.00250480770091226,-0.187654248692159,-0.266059770655396,0.412464231842364,0.27097321755329,0.0264846737645507,0.401705830537098,-0.676926780138527,0.455628290551427,0.0322460929834002,-0.241762682314438,-0.261446735989395,0.276631641920482,-0.0211016386221254
-0.125180861247607,0.344648508537569,-0.0235775667335564,0.516221307210059,0.091859858141205,-0.0936025565056232,0.07247084572959,0.387897403015495,-0.125316640266552,-0.0761564996334623,-0.0197046256567127,-0.154845327437216,-0.0923838147488144,0.47903625069081,0.252776181867038,-0.0701295258181881,0.532638376651796,-0.589949049777325,0.486987782929902,-0.0272497729809105,-0.291920758843746,-0.237852073074792,0.200446644626646,0.0766207924553234
-0.231222893636042,0.220356513469364,-0.0424032983453851,-0.482346371315977,0.0657419478957419,-0.225256551195749,0.154317266183624,0.291231414666434,-0.242405421673661,-0.189165797156062,0.0155261550534048,-0.287446303550502,-0.261859060110644,0.435293424023515,0.389884505015518,0.0152963309022656,0.343612051821878,-0.688315694395294,-0.515553054083753,0.0237678128044323,-0.274312241309444,-0.138852122319732,0.0285452287696865,0.0235682006170122
