-0.424612266307827,0.303185652401431,0.229125536230166,0.460060865411407,-0.284848539131067,0.139530227001205,0.0860776978083592,0.274052525941539,-0.0173717929926527,0.117262493876069,-0.251781905279715,-0.163292566363389,0.0765380216719312,0.113206048081986,0.0468093405867113,-0.0422759558350639,-0.321133800223008,0.0607758173563567,-0.154293856818962,-0.101224111173771,0.160353390453658,0.202547161187338,-0.218756449420068,0.33480615944168
-0.423044938775204,0.265986837175511,0.242845795583547,0.460465906503213,-0.251568610363919,0.0892279852954182,0.104607020713361,0.283806005539678,-0.0365796950790954,0.0846533384776201,-0.246953273680585,-0.144018650202175,0.096178397807733,0.13631374332596,0.0471096379769016,-0.0668239437419885,-0.330458215571217,0.0645371123463058,-0.133350243844157,-0.12505306493765,0.14297707869053,0.251804142184036,-0.238899478851867,0.321033997836792
-0.402438578580254,0.24607087226297,0.256680760701857,0.449321499420722,-0.243316530397654,0.0320042688905797,0.13459136550583,0.282542304576345,-0.0619856741797734,0.079879902235225,-0.269774538904899,-0.14061971583562,0.0996975465729393,0.131667477585763,0.0669828673452038,-0.0633900688750718,-0.311099155792588,0.055095029411881,-0.112696044593665,-0.160160121548169,0.0973594677414957,0.291809881628142,-0.262312940086227,0.278975869107953
-0.389454767881822,0.215836084678764,0.262309030046042,0.447987770913798,-0.234997483358831,-0.0199862134716276,0.140609241280235,0.28624563814009,-0.0773293401479621,0.0655838774193302,-0.269912211366796,-0.142831077001231,0.105761796353812,0.132265792179847,0.077824851397437,-0.067048851817794,-0.283603150146382,0.0234351833143349,-0.0722582322827433,-0.180851351011137,0.074602126507199,0.336049587690713,-0.264447996340854,0.242952190729845
-0.417135808049397,0.23841296706056,0.250992069241164,0.459036965267767,-0.236806209600555,0.0387148864228053,0.113457171778992,0.294088477667169,-0.0559363998504386,0.0665932354068532,-0.244776519447345,-0.14413893826048,0.104027914574544,0.139860430703853,0.054598829944327,-0.0751476725332616,-0.321219758637375,0.0442023502665184,-0.0962018820975503,-0.141262167021121,0.126212716456507,0.29942961457147,-0.246217408664796,0.293517064869405
-0.405744873572045,0.21977518460546,0.256430876821513,0.454108513982204,-0.227357253478693,-0.00623405479117896,0.121522551982369,0.29875701296543,-0.0755465762250653,0.0573995348093147,-0.254367108682719,-0.148305169204292,0.102898310963625,0.135961156180704,0.066557641387025,-0.0782133756767421,-0.300268373114592,0.0248923938630413,-0.0677806659616403,-0.159897082507103,0.102534924494347,0.333558267884535,-0.255097588087162,0.262314705192682
-0.428309365033947,0.252640552044022,0.245702669106957,0.4616296321635,-0.242383676941922,0.0568232632722654,0.0977140770051644,0.299762804641808,-0.0483226369876089,0.0708256935318407,-0.233695059618028,-0.157111272567589,0.0948875048882129,0.13339762447903,0.0465589752052669,-0.071239851116256,-0.327365651949034,0.0382484820231045,-0.0923084089096802,-0.122347751717219,0.153107620987597,0.288386369312382,-0.230623638436006,0.307453378407161
-0.423292409048203,0.231991448882998,0.250520187847776,0.457730421633379,-0.221482447620475,0.00389976520456643,0.0974319240026451,0.314648360935626,-0.0771115442382601,0.0515851324758995,-0.240392171766664,-0.164226973437521,0.0898754557649265,0.130518009875207,0.0551104233566335,-0.0852025665194637,-0.310470616968291,0.0186641666149468,-0.0535629605682537,-0.136050905117892,0.137021243769264,0.331622239930376,-0.239693938236924,0.277937046831174
-0.434238285205292,0.265338313224663,0.227877575033353,0.453691639672617,-0.269247822022918,0.0797528747140605,0.0886295809089552,0.30011136078148,-0.0264405341068959,0.103574320565727,-0.206092178994167,-0.195087928634288,0.0872071454451188,0.0972173026618086,0.0560965760524475,-0.0330382105708275,-0.336292939548029,-0.000425997877506441,-0.0784121991954727,-0.0858716798161834,0.18423618595976,0.27702983416813,-0.205511999012905,0.312129620838869
-0.436070911430563,0.262976298339526,0.236432419440159,0.459308064918392,-0.254832536869128,0.0699376923080759,0.0868622382269273,0.303627117280552,-0.0382709289790673,0.0850150331380114,-0.218244713902023,-0.180068026801018,0.0856551993901031,0.114871831078025,0.0472736324576411,-0.0540141667965322,-0.33225817885671,0.0177482940543062,-0.0823300212695271,-0.0998167373723651,0.176689458409449,0.282163659169813,-0.214129070287011,0.313018851341962
-0.440764541049169,0.244817532454674,0.239165635031213,0.456120388657554,-0.219016435295811,0.013106014579298,0.0737705837694929,0.330151737303751,-0.0801075167502023,0.0536592340416179,-0.226766229483673,-0.189389440998803,0.0695507059780302,0.113676672200959,0.0500785350180314,-0.0840366319719292,-0.319075367537091,0.00441678009982301,-0.0373143247233362,-0.10632399412135,0.168782868737569,0.328833516857239,-0.223965612638427,0.287791869574128
-0.44321371167547,0.261183413931437,0.224554746460286,0.449356089765494,-0.242691621969505,0.0429359616529248,0.0708790934926603,0.322930874458421,-0.0574315656377652,-0.0853359173607935,-0.206441838569907,-0.215778323288049,0.0644900426933818,0.0866880192420693,0.0575549439365934,-0.0510467053651978,-0.331907251085645,-0.0162080742639817,-0.0371372743627471,-0.0756467391094035,0.190993290185562,0.309991480115269,-0.208354120860897,0.297324939863908
-0.447868986386452,0.255463963159504,0.230816185836642,0.451412206587632,-0.219292108539292,0.0151339374531745,0.0604273526830146,0.338040438502784,-0.0818569533949098,-0.0607980995181401,-0.216418663825807,-0.212909844760458,0.0533360627147914,0.0953961900343009,0.0505013759110276,-0.0758622077822992,-0.322199135119129,-0.0117752269396543,-0.0203577168497071,-0.0851207574127559,0.188648896911919,0.329740848471695,-0.213795071486083,0.288958433352821
-0.364789791795129,0.186151931551829,0.254021395041164,0.42226323971538,-0.236643431106879,-0.103137857703053,0.152689973865713,0.276316059795565,-0.106168587256806,0.0686776683004357,-0.300779640823232,-0.169747328104226,0.0776917758357245,0.0954326048172908,0.115628434371321,-0.0476373528110924,-0.203089204666274,-0.0466677951113632,0.0127911203510877,-0.217789548804077,0.0223720176100679,0.383087552800321,-0.263122212601439,0.156127094941498
-0.392684102737946,0.204429997253681,0.257453260313285,0.444746190413213,-0.221944786943296,-0.0540264982512344,0.12640095603907,0.30128707004999,-0.0967606763804323,0.0536997228240619,-0.270203212418083,-0.160921150770296,0.0920003119520239,0.122295031656897,0.083537324191126,-0.0756150021492421,-0.26512691751412,-0.00488786081879252,-0.0351708943165879,-0.179331466372662,0.0766729936186609,0.363938962689664,-0.259301576607456,0.222384681713275
-0.382200319588513,0.194884997325318,0.250468934088108,0.429969175396693,-0.219859600664292,-0.0981195091948359,0.1257858618539,0.300686954165412,-0.11763673278935,0.0561976047841457,-0.292069776392548,-0.181737411854692,0.0694816974816112,0.09859344600278,0.104498672963769,-0.0685536321729557,-0.21776414299498,-0.0438331506354373,0.000954958272911553,-0.196570369492725,0.0534548572609692,0.385888658482414,-0.256607448017625,0.176657819717272
0.415108184512125,0.217533713927079,0.250256373525463,0.449533327985522,-0.205451471989879,-0.0473822302289132,0.0928430188961802,0.327343187705767,-0.107413104428288,0.0404460583591332,-0.25562883659555,-0.179753730511466,0.0748160541555114,0.117669220184278,0.06925980093701,-0.0935561612312035,-0.279170714515531,-0.00830967492451356,-0.0153891867128635,-0.149785384979699,0.118157298491254,0.365575980429078,-0.244711219861137,0.242109690716048
0.411934077201035,0.207069324735328,0.238951910438138,0.43473305977928,-0.193220325289619,-0.0924669884726082,0.0818811888170522,0.338788289059266,-0.139241051744371,0.0369870508450397,-0.277391043992113,-0.204146095981772,0.0477328872499739,0.0940853971264238,0.0896464036612804,-0.0980025222788443,-0.239055961047068,-0.0436092451676731,-0.0220778583398229,-0.156847063034639,0.0999651181377607,0.389361894800073,-0.242387162725508,0.201911449760346
0.43902785881371,0.232152643026783,0.236587432712403,0.447705307173814,-0.191162700866787,-0.0401183797509923,0.0583331195984686,0.353048148805318,-0.120626017177644,0.0335561845463537,-0.241481775897665,-0.206493084596391,0.0474387911049917,0.101448067845128,0.0598918987854349,-0.104691869804307,-0.291993227358449,-0.0175948269432034,0.00637112562411456,-0.112621350199435,0.157381862371968,0.364633788600305,-0.228254272972263,0.255902648579487
0.437557273725953,0.227773461098311,0.225288310952487,0.433130831946816,-0.168819235126573,-0.0853991282328064,0.0366309004981993,0.373948234541834,-0.162308513042833,0.0240954384853238,-0.26535483478862,-0.23209647917893,0.0147048255333708,0.0778203302699987,0.0761741636929295,-0.120018813881279,-0.251907628458583,-0.0456664995011126,-0.0464603515377687,-0.115397959845098,0.14610252044385,0.384989059647095,-0.224713527993706,0.220969566913364
-0.455323763571288,0.259876254954986,0.212196261183538,0.439571479318517,-0.197597487194494,-0.00925989452850243,0.0303072620412337,0.362183283328726,-0.113793768036794,-0.0576600761129756,-0.214929048237465,-0.250842361141882,0.0157907994402914,0.0647388399443145,0.0610578403985155,-0.0848479757010083,-0.312839331444695,-0.0391285105227116,0.0255791603890192,-0.055181295168247,0.199613059702904,0.348330809040035,-0.208082537115907,0.270810587595331
0.457432704429573,0.254208021107262,0.213743732059236,0.437279524231443,-0.172364506100731,-0.0399087070662982,0.0146736233355396,0.38243002019014,-0.14771465593516,-0.0348807566921691,-0.235332390049039,-0.249275403676596,-0.000558564254926706,0.067295107943649,0.0608011451110908,-0.11354497019541,-0.289962438212556,-0.0375066890073587,0.0426889766449256,-0.0676145095713595,0.190974359899394,0.362367347039968,-0.21045574430181,0.255074021379041
0.452723311990131,0.244477700898225,0.212972921847064,0.428920923723402,-0.153095883830675,-0.0777634521088466,0.00504609337248932,0.395386915822351,-0.17644673300756,0.0197476263720409,-0.253781121878849,-0.254923937547589,-0.0133108923763002,0.0613587843435748,0.0677156460545014,-0.129894276432292,-0.260294876041842,-0.0495643572926826,0.0647680463352343,-0.0820144526182441,0.178224917749907,0.379504514958295,-0.211656200593525,0.231393702883104
-0.462340877666798,0.265409628441914,0.178626154056302,0.425263006676273,-0.172028689136179,-0.0216913838215333,-0.0108909115355495,0.387431116488627,-0.154436352256943,-0.0576061434943354,-0.22327226424096,-0.28964485888638,-0.0339573016948889,0.0301088699051831,0.0822218967245097,-0.103917959020013,-0.299868617156083,-0.0617420948105161,0.072000944338736,-0.012428358452444,0.199106626004144,0.354006333989901,-0.202209736574956,0.248238853962209
0.466424708332006,0.264191889541549,0.184475836011852,0.423692399927498,-0.153592875456508,-0.0422361299210436,-0.0229463892660264,0.403884601773813,-0.176271200469001,-0.0388292523065501,-0.232840630488457,-0.286490451212022,-0.0454623090187713,0.0333309412202307,0.0731661693533051,-0.122842399471956,-0.284675735459111,-0.0581587208556455,0.0803252092257824,-0.02313298632992,0.202592755798596,0.361893052354911,-0.199436374365698,0.242169110743246
-0.377062467568858,0.190399377177706,0.232892551591992,0.407629246068074,-0.224430785513513,-0.133413353219749,0.123720361718017,0.290953528734007,-0.133554181885086,0.0659155374735122,-0.319472331006778,-0.205437282103508,0.0374116052772628,0.0646333564032495,0.129675330705353,-0.0544534244681494,-0.159304279475523,-0.0912318743395075,-0.0323902273188162,-0.212899650527527,0.031736215508908,0.396983704913007,-0.244517372293156,0.123074285102961
-0.396155437982115,0.199426715366721,0.204898519040635,0.389986121103458,-0.20952470781614,-0.149650899434921,0.0906396794819481,0.306705821267823,-0.160426502610493,0.0673710143551761,-0.337930948736617,-0.241831066218809,-0.00431935421845191,0.0360532451103165,0.142678153808451,-0.0642636844658875,-0.126139491291678,-0.129040735297682,-0.0691126180223113,-0.197533912064961,0.0480718767475351,0.401894851757059,-0.224743670811577,0.100025320281107
0.41193400040207,0.208930957839366,0.219738261453106,-0.413081838657408,-0.187144963589617,-0.12716378671768,0.0670714851449979,0.343708998060978,-0.168621314046536,0.0446148813177301,-0.308785271156812,-0.235605415283652,0.00981403286140625,0.0602706854758564,0.113811400015555,-0.0958869169295561,-0.185913774637387,-0.0848522470705356,-0.0565026137560358,-0.163161315987187,0.0860965458603606,0.398078282609319,-0.231126618780281,0.158967530325028
-0.421089405406604,0.219852816912666,0.191883030375161,0.387159407938576,-0.186034472475207,-0.142594430135336,0.0496479137460299,0.342626423143656,-0.191289352091433,0.0610722249102063,-0.342296631765277,-0.267812737961162,-0.0317295644039625,0.0239390276073591,0.137061352971707,-0.0904259813683616,-0.135464207762201,-0.124874431439669,-0.0817543231068912,-0.162599300322202,0.0811034487252264,0.392660826818909,-0.212637221427253,0.122455442128114
0.44268093054604,0.234185629391699,0.199881475604315,-0.408623763783144,-0.150718196406549,-0.118965998838054,0.00571281958952901,0.392979941245613,-0.20780348771715,0.0276606616285186,-0.300944695835832,-0.268970053803603,-0.033514670626973,0.0395977359018849,0.10024993439946,-0.131242313074435,-0.199391376305906,-0.0808285462479559,-0.083307883525303,-0.109597600470962,0.13745774784368,0.387140821938797,-0.210483798381934,0.183759722768227
0.456088657635121,0.250504042729699,0.163883886302612,0.37488515211523,-0.14291698277128,-0.13206053124035,-0.0232757190019475,0.400446968928979,-0.246059694713966,0.0477650382410605,-0.345376844067157,-0.308106190891973,-0.0857102591815258,-0.00458008689071179,0.128311994176188,-0.13332147772841,-0.143966481735983,-0.117241626966308,-0.106154657024384,-0.0993256583598658,0.131145730061383,0.370313791867676,-0.187849702981326,0.150506026629561
0.466942420018486,0.261269157109304,0.180374813707986,0.409932570227661,-0.121859306516684,-0.0846883517581914,-0.048760500092066,0.430756767924342,-0.223660045253639,-0.0163909708844689,-0.263406119183419,-0.293897790669857,-0.0730594548179166,0.0230188125741678,0.076891387806585,-0.153401438430208,-0.240340913175669,-0.0661519166232071,0.103362067625121,-0.0383370600727067,0.195741678139629,0.370473863583374,-0.1930009837037,0.217400442499428
0.468352887701754,0.255809067820802,0.171021799791819,0.39697494414801,-0.115462038956645,-0.105337148126874,-0.0554007691999124,0.437073262158033,-0.247608726780447,0.0153063567288906,-0.290522487048192,-0.300413784254269,-0.0859276847569707,0.0108429448476296,0.0919773290980836,-0.161934380867367,-0.210906736042691,-0.0773203533807068,-0.111233818556223,-0.0479105525457783,0.178282932050782,0.369842026134848,-0.187964439843672,0.197580599382323
0.481420414797552,0.272228422717274,0.127688308941224,-0.355659761687264,-0.0972503250872402,-0.119085248860922,-0.0972374819536188,0.454597682409861,-0.303597224362159,0.0323623144030865,-0.342534715632794,-0.339488352417517,-0.146514000937605,-0.0390396848973772,0.123254584100222,-0.175751134070118,-0.150156397001653,-0.10491153533697,-0.132288100214445,-0.0287068952587586,0.16712546920282,-0.340688810718284,-0.160888373898054,0.165693318660055
-0.468670865828667,0.278943912743633,0.137801584291975,0.405501786028704,-0.124886542580151,-0.0381091676446604,-0.0757155803769751,0.430923023781081,-0.228227991984961,-0.0447972835013633,-0.258247677597454,-0.321057246620612,-0.110429802859352,-0.00333137174310803,0.103885454879101,-0.153002196152614,-0.259642709741201,-0.0699076453269363,0.122261275458057,0.0256320028504755,0.190149974982251,0.345718163240511,-0.190242793056278,0.213374768045632
0.474910951988842,0.275322484696929,0.145500336490921,0.398765941257291,-0.107238000645784,-0.0643914708432427,-0.086766963173868,0.449436361408824,-0.251931608074472,-0.025995594771306,-0.26952693491228,-0.31755248218668,-0.118138311038013,-0.00472051105354046,0.0932526123488965,-0.168946789017418,-0.237674988524911,-0.0695421311835906,0.124789140080017,0.0086443032069024,0.196823433658356,0.350390551107003,-0.182050643011519,0.208420111297606
0.481185817339012,0.279032952422181,0.119017389186504,0.369094603748359,-0.0742238213692415,-0.0917664285536943,-0.129896132861386,0.478921151305028,-0.308073164881719,-0.0165684026147058,-0.301133964932051,-0.339557536309822,-0.165742237068529,-0.0378375865910006,0.105626959404424,-0.196378469150384,-0.189088488290462,-0.0833817372967116,0.148859513669401,0.0204107465722941,0.193882487848642,0.336477417618855,-0.161279576050155,0.18298493898682
0.490456994613344,0.289414360970385,0.0828833478627247,0.332056580305667,-0.0565787601011155,-0.100104538565476,-0.165639850322891,0.494628874147156,-0.357808442725688,0.0285839603855189,-0.344071214627638,-0.362933081561398,-0.211597387759785,-0.0765436128137243,0.128880593103014,-0.211714103544201,-0.139746999590888,-0.095952323061153,-0.155737186727616,0.0367570072705807,0.18166261326805,-0.303407065239555,-0.137418272366337,0.16161512111325
-0.456004415990528,0.294627576952965,0.0776131980202908,0.395456040756648,-0.120037628599226,0.00645984532119162,-0.108769589400243,0.425498447106144,-0.250966619129594,-0.0713783082977479,-0.293502248354765,-0.341599021885702,-0.160011710093265,0.0225242164586757,0.157986996981714,-0.17571595689253,-0.250928056429192,-0.0672405372870293,0.146935146257745,0.0811072920848387,0.146482563561131,0.309389148956067,-0.195101529767608,0.185911075277416
-0.46145638283249,0.296812940661662,0.0755814045030922,0.387234649104836,-0.103104132558448,-0.00669907139695211,-0.126837609353297,0.445270212490251,-0.277037657077057,-0.0614572872649283,-0.300891474859144,-0.343208596935658,-0.179091118998352,0.0318707316371878,0.152083706261204,-0.190097954827841,-0.23307911305425,-0.0667062252270421,0.154021398336556,0.0803723472130338,0.152611599850853,0.306927894591739,-0.184952941449099,0.178516915510425
-0.471732418852926,0.296113580984171,0.0698852074463067,0.368764292364971,-0.073070315253913,-0.0330800682069091,-0.158502836937532,0.477833307822676,-0.321269424345163,-0.0439548497364502,-0.312062433439179,-0.348367760418058,-0.208972844035111,-0.0518895864314829,0.142613676343101,-0.212923202445883,-0.200212051741975,-0.0701552887328312,0.164954739602224,0.0798850890679265,0.16421306151702,0.301573597552668,-0.165085042989337,0.166887165298711
0.480759982008237,0.295897876076138,0.0583831560738533,0.342792418101699,-0.0468589909031133,-0.0592507601460654,-0.188971154533849,0.503010623633726,-0.362756439910494,-0.0329766219851365,-0.328371989995408,-0.359450627351284,-0.237177269839796,-0.0771126222170519,0.139037063658202,-0.229694909769533,-0.162701032822347,-0.0784671472730505,0.171592918939204,0.0813676074662526,0.173144004124257,0.28930673462744,-0.143451396994347,0.156189822843821
0.487517652307602,0.298433553670259,0.043710721250701,0.315572085746634,-0.0312553780147636,-0.0772848146113012,-0.210893253826809,0.515130140255373,-0.393900190877914,-0.0329678442651985,-0.348839820832269,-0.373010106328677,-0.259936915420552,-0.101329661941223,0.14255673995779,-0.237034504820414,-0.128098398375045,-0.0883517554340594,0.172333302979082,0.0839529648244925,0.175615780575358,-0.272289499735953,-0.124699503508992,0.147531114485574
-0.423916510555646,0.228524778790677,0.17364528473426,0.370234810398682,-0.200348990339947,-0.140229864961211,0.0532687150442863,0.323204405481204,-0.189132415146133,0.0808637474605371,-0.36613810361801,-0.277300874278752,-0.0518067536165001,0.00290471328985718,0.153079456361481,-0.0735867088034352,-0.100213352703906,-0.150058946979282,-0.0858674542122895,-0.173474042187081,0.070473673697268,0.38250001669181,-0.201000443859821,0.0923623592622513
-0.480921011635029,0.282205011474902,0.115496901126498,0.330165399462143,-0.148111181341546,-0.114443668541871,-0.0478947524206216,0.391865617873818,-0.273509715809407,0.0905239042001407,-0.398970052973318,-0.34755526868985,-0.142004009652068,-0.0515121306440199,0.157341918413902,-0.123418828329863,-0.0919175664104007,-0.151375247415213,-0.109253823101919,-0.081574561654992,0.129793868600214,0.332079641397882,-0.157142561116612,0.124327163156809
-0.51793530935584,0.32558613035092,0.0531245516061889,0.271020710403641,-0.12344031654566,-0.076753569692124,-0.110797709900046,0.412851830385519,0.330068623405799,0.126652254220928,-0.441181063624861,-0.396675337401635,-0.217156812889488,-0.104624523696001,0.17294617769026,-0.13923593453135,-0.0658642079739209,-0.157048504697723,-0.107680241174766,-0.0129403953203511,0.152629044676857,0.266293610325448,-0.112693307714699,0.133098837883088
0.500961356857601,0.297847745916182,0.0795329521321646,0.306394580195863,-0.0929820727405754,-0.107602389308393,-0.128289846088391,0.454791545252726,-0.344680931442785,0.0697598802905108,-0.396659339853427,-0.376134671390491,-0.201633851586789,-0.0875883944596768,0.153457716719955,-0.174785050559323,-0.097864463895427,-0.128104289534264,-0.131463384965138,-0.00482111120189701,0.158393305468597,-0.29473269501369,-0.129764750539822,0.145531439463681
-0.522270707686565,0.330045301603319,0.0305841689423042,0.252083886872205,-0.0954592315818431,-0.0746416143199847,-0.151364231673383,0.442808136290181,0.374458304566802,0.122132819713557,-0.446298072126734,-0.407497025644109,-0.249909438290939,-0.1280776730435,0.176426383950299,-0.164275589983858,-0.0595611536417207,-0.141631973961299,-0.110726793245939,0.0261970644976266,0.153422648340431,-0.238162802306691,-0.0990115833287996,0.139586900797261
0.50517932133379,0.308272089599207,0.0326648634896085,0.279151043899201,-0.0476244771072353,-0.089650632729388,-0.19982865615605,0.498569518633786,-0.40790205358448,0.0624697450433053,-0.398925245309878,-0.390652590476243,-0.264284927777588,-0.124674206471149,0.15991771212025,-0.217019058839023,-0.087039443261801,-0.107743758324009,-0.147142548080389,0.0638521611217978,0.16357214086801,-0.248569373231542,-0.105824615596205,0.143282446464626
-0.521091597975306,0.331725021361083,-0.0139449889971542,0.221088104983779,-0.0519200448866312,-0.0637494427449049,-0.216107168083035,0.484026799769376,0.44180167329177,0.114902865918194,-0.452040824343628,-0.414009965718481,-0.304640230206816,-0.164527297014666,0.186003713811752,-0.204987675432213,-0.0455959013031325,-0.11540147149891,-0.117331301750366,0.0893009966684414,0.144997929803028,-0.188647016245969,-0.0767537035726858,0.136439358269266
-0.441564285464974,0.314542210989554,0.013020788590014,0.375954260487338,-0.108064999130493,0.0551470800730073,-0.146482966803459,0.423107106132684,-0.28797169923867,-0.0925564197565257,-0.352685830060196,-0.345931803665201,-0.221102182593877,0.0336323454001991,0.212486074081969,-0.214191593787711,-0.224075779838983,-0.0478730884176132,0.159039232552796,0.125713553385889,0.0932736486135039,0.254016964604562,-0.194146217621096,0.151792895753411
-0.4541432733757,0.312900905606593,-0.00717530270485909,0.344797206883105,-0.0618771721944871,0.0279375559703674,-0.200771918380157,0.474858352204612,-0.363736874278367,-0.0737806602207915,-0.368496416766575,-0.349625416241283,-0.276309407005521,0.0730028798231307,0.206346972028287,-0.251320321612534,-0.173264095501381,-0.0489817427180225,0.179574986085758,0.137951459045203,0.0995186204436052,0.235662689615765,-0.159600462063021,0.124936278709605
-0.467658930848029,0.309284420671313,-0.0210493255007843,0.311173097378071,-0.0289077343662528,-0.00188988741924366,-0.240002744595532,0.510225116550859,-0.417864862899586,-0.0633045747362226,-0.378963094306797,-0.359965123137027,-0.309992340128002,0.109632045123476,0.196961163969411,-0.268905586875046,-0.129487725691105,-0.0584246814014141,0.183152177854015,0.143607575748422,0.113919192640461,0.218533450309074,-0.129164728613016,0.113702709936883
-0.481559584129711,0.308327907041415,-0.0291891887966186,0.27680623170716,-0.0100877009009174,-0.0313338451407771,-0.263372864003188,0.528408788857002,-0.453707065876243,-0.0612746221811706,-0.391336964384278,-0.375588874198406,-0.328552265881402,0.140938639828693,0.188114183058358,-0.270374171678846,-0.0926585076012005,-0.0715816006646504,0.175393731033968,0.143317038161613,0.12926134601599,-0.20238220347103,-0.103199507848225,0.113348061156107
0.4985034206576,0.310072468138393,-0.0235826643878642,0.253091218771352,-0.0135318777046482,-0.0559728641042573,-0.257912330639815,0.526782688741918,-0.462917857840578,-0.0657312861473802,-0.407662422397089,-0.38919279923624,-0.324306748840227,0.157360861681936,0.182426003654406,-0.255734161315153,-0.0738871550743579,-0.0843529649532663,-0.16024524923258,0.128376569019676,0.140320267830361,-0.196523738581328,-0.0864692167330954,0.121950071467641
-0.510266492603388,0.323256640303571,-0.0628942315526019,0.195591880471914,-0.016836674205205,-0.0422956349546578,-0.268514305785198,0.513648102516432,0.49860731433671,-0.109447202834865,-0.456444125883539,-0.403300986522253,-0.353707454618093,0.193932536139904,0.205291720433018,-0.243903677710372,-0.0340321143862091,-0.0859695027518428,-0.126540429154905,0.146470493020717,0.116665347120153,-0.13976437612934,-0.0581406435917948,0.1161239164745
-0.401688877207945,0.330606734501372,-0.0832673810430678,0.342797475099245,-0.106386836185985,0.147872904186152,-0.170723791326197,0.376245713916828,-0.301138358650404,-0.123602449470381,-0.433511090438383,-0.3265956854587,-0.290351468739753,0.0280746602932308,-0.295567153940835,-0.256884330355878,-0.198628498445533,-0.00516284562617713,0.162158507710165,0.185244666216489,-0.00487350069626778,0.157635478484388,-0.194302538883475,0.100604237090608
-0.423316045303929,0.326046832439642,-0.075027244912863,0.324530557739293,-0.0670143425209533,0.100973230891138,-0.214026694501764,0.441321108589847,-0.373405692498706,-0.103197826387832,-0.425672758774173,-0.330806076598244,-0.320907820429041,0.0681990141266716,0.269229125350675,-0.279019826657641,-0.158820043951889,-0.0147649342161403,0.179113049255253,0.180520169199098,0.0225465362383784,0.166628156737517,-0.162700800394587,0.0870835403764995
-0.436831876255454,0.316888904237109,-0.109628879334689,0.275979559298852,-0.028165350327221,0.0836384617842812,-0.263701865919778,0.483849705104841,-0.452831802588008,-0.104061731659622,-0.446121947934005,-0.328256937330742,-0.368459846313344,0.120623208526338,0.272578627596148,-0.305498867120653,-0.102131032344608,-0.0152828037466714,0.176999510493592,0.197495205437012,0.016728324747646,0.127219621968572,-0.121344323887666,0.0603824983955591
-0.461292093634871,0.310475303004951,-0.102943337992539,0.243628373276465,-0.000836485581251878,0.0309038415106307,-0.296124233432905,0.521642859942097,-0.496373696959362,-0.0945312501172342,-0.436643512862662,-0.355068613806556,-0.381800275891453,0.163266456044469,0.24289751607842,-0.30128974611787,-0.0638946142475738,-0.04235126039922,0.169615322472366,0.193464321677685,0.0592720386382809,0.127624436393768,-0.0905093927417678,0.071246770968755
-0.479696795611911,0.309147256274756,-0.11955511332307,0.193086712606736,0.00681828448123629,0.0107848623777186,-0.307889828811945,0.5266664682359,-0.534135960874115,-0.111355119567602,-0.460144758132429,-0.368426706543579,-0.396700547276623,0.202354810399257,0.242598597636562,-0.289486134183617,-0.02963914850744,-0.0491853016723841,0.142260683768663,0.198498711539978,0.0599564477033295,-0.0934893633298159,-0.0582411998425205,0.0744908507531584
-0.496286966823114,0.316698938102304,-0.0951031113070833,0.185388730169284,0.00122972781344175,-0.021055519727689,-0.297185683572996,0.52486821668585,-0.52596652608725,-0.110137422769624,-0.458757694644839,-0.390368051695814,-0.3816821594715,0.205652910116581,0.220632375525475,-0.267761500605947,-0.0246158419082136,-0.0686457620230162,-0.13179184927716,0.17780341843015,0.0924788417590177,-0.110616293548907,-0.0526916611238393,0.0971153706241918
-0.424444663172289,0.307194065024996,-0.168262285869614,0.228209886245514,-0.016246853334257,0.118874062745074,-0.282831717172682,0.475471730118261,-0.496921358406846,-0.129062011624399,-0.485739610340016,-0.299290959956299,-0.404589256351942,0.14821523013998,0.310596250026294,-0.325083269545329,-0.0647602022056174,0.00981544387285228,0.159334423750754,0.224368683851159,-0.0410377486265403,0.0578534142744248,-0.0956808844597405,0.0223785379720459
-0.441549880311053,0.305483893380699,-0.159307089658093,0.212232463868022,-0.00146043698518078,0.0824634603036539,-0.303956013390522,0.501501676303746,-0.52230641576973,-0.125195654543678,-0.476464842522329,-0.323052580688466,-0.410364439920668,0.173782602741421,0.288181281633101,-0.318637799719021,-0.0432635744843292,-0.0116404776577846,0.153162193993636,0.222024034515085,-0.00830949352909767,0.0643822379468603,-0.0801119180272127,0.0353392181669667
-0.45814620783389,0.304210757283728,-0.148294059057229,0.197347995565218,0.00988455560007007,0.0487106118644759,-0.317274231726499,0.519945241757272,-0.538060044617873,-0.118007001965464,-0.467371344717905,-0.344961959048653,-0.412267247198548,0.196010437323684,0.267629302308914,-0.309951026051686,-0.0284337851773168,-0.030313408218476,0.149220573439786,0.217705564708408,0.0230705386145855,-0.0705915223524891,-0.0646792923472502,0.0492676945778527
-0.418890233331961,0.22997573755195,0.167435326951811,0.361444997153894,-0.230440529417816,-0.127432424765536,0.0809326103914311,0.289542846649479,-0.168161070460673,0.0967854513775414,-0.380952672651778,-0.260197471998113,-0.0510043812650662,-0.00571837928309693,0.164894372168051,-0.0468073417144653,-0.0842444505104816,-0.154843006944683,-0.072524967147138,-0.195041415883384,0.0441565895891798,0.370418999515974,-0.197330322055158,0.0635416131192057
-0.468355252758128,0.274933910648451,0.119860696803999,0.333024393090616,-0.193137213839775,-0.103339316275801,0.00452211309861505,0.339588919063909,-0.228108961728024,0.111914849230233,-0.410159387222732,-0.320293119596552,-0.118563480500407,-0.0393840198574492,0.169119568769763,-0.0837087420032272,-0.0801874086526344,-0.164622187872984,-0.0925843386520126,-0.125612801388286,0.0966531346638902,0.339544551712209,-0.165336440461659,0.0891158866347218
-0.512239138480113,0.322572551687857,0.0613602552781432,0.281446434146366,-0.15193649238269,-0.0683112248523126,-0.0766448232467726,0.384303292534532,0.299858637248291,0.139354104358336,-0.444931672137836,-0.379362042759826,-0.196754275798226,-0.0866987123208999,0.176312919662439,-0.117055605609096,-0.0697677752140189,-0.162025108300878,-0.0970607867706788,-0.0399931022935159,0.136858027165987,0.279568641338073,-0.123623914381916,0.118497446080966
-0.533950182294284,0.35717021321926,-0.00138613982629997,0.215638005504951,-0.111761734132845,-0.0342335723951929,-0.150301402250356,0.415640361279238,0.378289740704575,0.17654150028849,-0.480895850046977,-0.420048709597374,-0.272875954751115,-0.139231570365308,0.187503796512781,-0.142674572942772,-0.0433845173199015,-0.146659305616325,-0.0787853597549742,0.0429308204940315,0.145682338127427,0.200031192292202,-0.0848886555154635,0.138296480473361
-0.540085771926507,0.374566182584651,-0.0599068020915682,0.14290134882454,-0.0908702771605557,0.00232676110476729,-0.189229439582579,0.421059321538682,0.443144346906423,-0.225974587601832,-0.516425852404173,-0.434417180849754,-0.327475664892455,0.17897033600132,0.205374855851719,-0.148088414215107,-0.0244084650895816,-0.120435704485503,-0.0423123129232968,0.112115021998518,0.119091413672229,0.120958798811521,-0.0521851020637417,0.144993056812881
-0.53496159054702,0.354814104388397,-0.0551630609527118,0.159601497241637,-0.0670595782202158,-0.02429409541759,-0.212123108330003,0.454902962946801,0.463080644297234,-0.181524561666161,-0.499239417478748,-0.42800811303731,-0.331945747716095,0.190435528220848,0.207451463418324,-0.178647805360499,-0.0245713971208699,-0.112826251094062,-0.0725391568884371,0.1166053442172,0.119530153668165,-0.129644055961449,-0.0512194614287303,0.137526832922294
-0.529941192146845,0.367257892106507,-0.102586430649426,0.0921317880011476,-0.070047249426989,0.0154657497512832,-0.215559965699026,0.429760889983565,0.501323333679081,-0.250793257522903,-0.535879436737735,-0.425634651090039,-0.361083263471826,0.206327446486466,0.222871755385215,-0.158944273713152,-0.00734494862840882,-0.0908292892772034,-0.0174582167076384,0.158583524892469,0.0781048860670575,-0.0652605983478497,-0.031278719144358,0.136623003643688
-0.517555454097337,0.33738373550452,-0.0977951305464144,0.139210588984528,-0.02873984885695,-0.0172306606951359,-0.264233005770361,0.487544491943834,0.522047607621387,-0.166234581824065,-0.50009655412176,-0.410929071439041,-0.373085113661317,0.218083988112537,0.224248739331162,-0.221032948227999,-0.00684195370285001,-0.0824498156337122,-0.0807554126888364,0.164075117128354,0.0883296948099642,-0.0859737788760128,-0.0371065789085734,0.115813465511895
-0.517320041855667,0.343656296670519,-0.125558200785389,0.0868805831303111,-0.0424598805068753,0.00789210540055579,-0.247384444465339,0.458570600069638,0.541584726164962,-0.223135476012257,-0.531638116213884,-0.406690071016973,-0.381986723089065,0.228115295490947,0.239082012440059,-0.193892354261047,0.00303806756845667,-0.0689390774235738,-0.0354181581494796,0.182511634439639,0.0517131735024825,-0.0423206360923949,-0.0198717236940426,0.115226296008942
-0.391736568813043,0.333834463797977,-0.126342530900364,0.300493497245081,-0.0766188076140862,0.162772001100125,-0.20782229473515,0.394833471402934,-0.367096088873324,-0.124004163410276,-0.474607019634484,-0.301426716035655,-0.349710151065142,0.0535347445485911,-0.316571221519994,-0.295294700985299,-0.149996583437778,0.0226706131990196,0.170189700075072,0.206443934861606,-0.0465820116286219,0.104566916714949,-0.163349959048514,0.0557816972289945
-0.412080878209353,0.322492949799913,-0.12556060124686,0.287445371796473,-0.0486153434903474,0.130052056914923,-0.23985894727993,0.442974209960585,-0.417487032656379,-0.114105446168439,-0.462455247311899,-0.307778547544851,-0.364198161982545,0.0902313308365612,0.30169562629989,-0.30798082190667,-0.123942234324588,0.00836351070238019,0.178511994359109,0.206135723607589,-0.0244901583625483,0.110335383239734,-0.139815440473157,0.0490917465889114
-0.471840179816446,0.304629125461188,-0.167413098979102,0.139974610139349,0.00897245670411194,0.0360765306780051,-0.318501685826635,0.510919812068553,0.571853921998545,-0.149736586808368,-0.497057477229666,-0.354024447008548,-0.422112528850026,0.229216776898297,0.269492398675009,-0.288502594789449,0.00404215316057173,-0.0317832291138463,-0.106365264580934,0.223458584372634,0.0126784376992656,-0.0298119493412283,-0.0362260911906892,0.0554444692396321
-0.487985726026263,0.314411779199136,-0.152277415223283,0.12022161438841,-0.00434529092722836,0.0163905141150397,-0.298223642016217,0.498859424945322,0.570940963003307,-0.171027120617371,-0.509553632023454,-0.371055546537555,-0.408689452225013,0.231206379845346,0.25605254273383,-0.25910426576364,0.00750920057642949,-0.042969914739057,-0.0802111158434284,0.208808052131818,0.026337559903118,-0.0350788799276462,-0.0293961026029222,0.0767028310325888
-0.503482153601821,0.328009933188561,-0.144541713675802,0.0897707841222322,-0.0216094058099817,0.00962314110309133,-0.274966685338314,0.477526942627472,0.565248102590011,-0.202312068389259,-0.525701880698317,-0.390110899381825,-0.39887008113146,0.238283491122486,0.24868281614932,-0.223217216310792,0.0118876623719062,-0.0539211099413608,-0.0494717578369505,0.199988642276682,0.0349077017292637,-0.027150685433411,-0.0174842292112573,0.0968557971704547
-0.365937512988387,0.336670345390061,-0.156869431461022,0.280693565078292,-0.0913006795986713,0.211087536209294,-0.180295316466089,0.340187651340287,-0.342907110855785,-0.134366366578293,-0.509985814171949,-0.266487237703151,-0.36000503064784,0.0312949930758854,-0.348222979143629,-0.299931620859487,-0.155855024018675,0.0589970137923234,0.160209537026209,0.216717238353507,-0.101717142701285,0.0601458195870924,-0.16407072901258,0.0343226565447531
-0.401274622185817,0.319216135360471,-0.173730764376674,0.241865991923357,-0.0448194269976781,0.164664114526327,-0.241651182395721,0.422707034459178,-0.45123319591323,-0.138521978146361,-0.509007100042256,-0.272090839588942,-0.393368125123577,0.102582267329045,0.334184355963196,-0.322632624918544,-0.0958791053453067,0.04155429619459,0.155104388827078,0.222903279453656,-0.0824304931370651,0.0477065066642915,-0.119068252051574,0.0169443463752961
-0.422138470833471,0.297701646188627,-0.202256428066391,0.184368527319604,-0.0130119247411285,0.131287653409735,-0.284516667641677,0.46414206668446,-0.531892264881354,-0.156318269711286,-0.516580989579812,-0.27731277132435,-0.418920013932274,0.168360704248791,0.328577325219803,-0.325387563975772,-0.0364139690174538,0.026990988882879,0.128349047591649,0.233872062737468,-0.0797532530440598,0.0106777940493367,-0.073970026860274,0.00429382218767848
-0.452967817322257,0.299239403971196,-0.184088735545943,0.15451649954051,0.00413958390947068,0.0702424416422776,-0.311447933511364,0.498950370806023,0.565960676739053,-0.154442627185071,-0.504578122716948,-0.324489134335163,-0.424369246087477,0.210180118250567,0.292002449888155,-0.304966007832316,-0.00647804643417673,-0.00999572697444885,0.113231714247976,0.230266791800261,-0.0243488936946501,-0.0207133683874119,-0.0487227938072452,0.0336657274263006
-0.467290225051101,0.299264090864369,-0.185029870425332,0.117918830794705,0.00477383634773281,0.0478100949520418,-0.311160076909251,0.497796637365094,0.584988049208475,-0.170140280516081,-0.514073020361972,-0.340300393743247,-0.425351478269128,0.235187742616069,0.282549011422545,-0.283550569972555,0.0121228107351634,-0.019245220772864,-0.0871430063667671,0.229602969189545,-0.0155753282888485,-0.00456902586450938,-0.0276490738059144,0.0464512416745763
-0.401120046115512,0.302684156817285,-0.208143004793312,0.200674085571865,-0.0339373509988501,0.176678134305162,-0.244176632062676,0.419038357213442,-0.492122311007678,-0.158372771177648,-0.533115378516006,-0.239354216262319,-0.407245760614251,0.126347968044159,0.35245309350956,-0.330760206817579,-0.0687662160152562,0.0619383092729629,0.132675549088143,0.229571086674747,-0.121889920972325,0.00327909629059459,-0.0925688357693811,-0.00904893402262422
-0.407442969886171,0.298155237508764,0.208612511426998,0.19616690277247,-0.0253722596674427,0.162224896578203,-0.261244235501354,0.437761306745649,-0.50754533977147,-0.157528514998345,-0.524584120931862,-0.251892316605289,-0.411473470132739,0.144337530438593,0.346790679856245,-0.330435287903197,-0.0562219212245386,0.0483998863246204,0.133346489820429,0.232397369496768,-0.108525362287548,0.00466763098330436,-0.085523983422584,-0.00749558787649887
-0.455693855904647,0.279809481050818,0.117943542710328,0.334687799526826,-0.234073736700147,-0.0800723806482932,0.0380768393625426,0.297974982799127,-0.196692359204761,0.127781953459563,-0.427016760806768,-0.288205446860285,-0.112153305270402,-0.037869312909719,0.176257180214272,-0.0541191206586398,-0.06428943466714,-0.160114265411683,-0.0691681604602408,-0.157944875491146,0.0642843235833401,0.323824756895657,-0.166418872018141,0.0555130202580613
-0.500026739419731,0.32470451098161,0.0622560860543979,0.292546338730867,-0.190292312340526,-0.047063574918335,-0.0412308090941156,0.344744167443398,0.265211745431072,0.158563769724836,-0.456517760968778,-0.350327249844144,-0.181878255837077,-0.0667683876507476,0.180251282640381,-0.0903683276003121,-0.0652335207591902,-0.161943349600974,-0.0773306065392688,-0.0718661176656441,0.111067190203784,0.282539061879754,-0.134840995103886,0.0906248298182063
-0.528795447460142,0.360803926145822,0.00639019050087353,0.232865685389631,-0.150797192802335,-0.0130542413151071,-0.109171046722583,0.378187217132151,0.33693589597491,0.195695977756031,-0.486854953642784,-0.397356153465601,-0.249419544085334,-0.106098593644397,0.187822302651944,-0.115743727121121,-0.0572879471707528,-0.149322583226359,-0.0668023709038607,0.0137470156342531,0.130775960100194,0.219083169942445,-0.0992244923143277,0.12070547059972
-0.538878315235591,0.379496085014192,-0.0463488752162218,0.16449740923571,-0.119199147177465,0.0141116242371087,-0.157266106698174,0.396470638823526,0.408011534282939,-0.237292822362751,-0.515469659012678,-0.422216444366113,-0.305245210160486,-0.144919206390712,0.200458673104837,-0.129095324941882,-0.0428107478532943,-0.125931637489916,-0.0409840706166934,0.0885825457316149,0.117826138423832,0.149202622745947,-0.0667324925373177,0.137857848304636
-0.533803333574398,0.38037329229433,-0.091161323871824,0.101561091840149,-0.0953499801335111,0.0305832892605531,-0.187028583203886,0.404776777254094,0.470715622593964,-0.272342421450316,-0.538042776107769,-0.425522166414998,-0.344693262924052,0.177731609853591,0.215687034530834,-0.135609643982765,-0.0253740506585892,-0.0978686940884545,-0.0100427861437912,0.144534149159033,0.0836451391070179,0.085788464860461,-0.0411611222771669,0.140566424963761
-0.520286065572521,0.367966953753463,-0.123705255096356,0.0573532273309747,-0.0779298881316743,0.0357980410876963,-0.202954990280764,0.409848365731738,0.519438515645202,-0.293286601791993,-0.550314642429789,-0.413007945890508,-0.366528168377978,0.197613039718958,0.22975386023038,-0.141347106929091,-0.011398293571352,-0.0716375118326909,0.0121104431915052,0.179775071263838,0.0439632852201499,-0.0422023801036846,-0.023612115758785,0.131907441779951
-0.504682115262778,0.345540516945612,-0.147498577377079,0.0430690272045577,-0.0564715810696869,0.0308159064080356,-0.225671510133281,0.427448068435592,0.559177154964696,-0.282234589653119,-0.552237267183276,-0.391498969348558,-0.382462137696726,0.214547903707281,0.24407876929582,-0.165545810720538,0.00293652025528519,-0.0494449479301288,0.00982915109399279,0.200271212669877,0.0113389245195809,-0.0155748309001767,-0.0124346368532594,0.112635014027559
-0.474622886926655,0.302347948169872,-0.186725149829363,-0.0750083732771775,-0.0100918564655931,0.0389499711613163,-0.285866284253884,0.473855265071752,0.597538400246003,-0.211410429090397,-0.536671101964602,-0.343947901342215,-0.415636444348527,0.240881749305641,0.278011116187609,-0.248129884023295,0.021313379197783,-0.0172304929390096,-0.0422535686005596,0.225464965599376,-0.0288207478599512,0.0133496919852663,-0.0131299189804112,0.05962979176925
-0.479507747868789,0.307837157921295,-0.179371480533386,-0.0493511987122911,-0.0272556374163135,0.0345110955923547,-0.256630691493042,0.453228472367341,0.598119913663024,-0.247059841327829,-0.547377270634626,-0.348415509731335,-0.401566642520081,0.232520856066556,0.271800977047537,-0.214347555215815,0.0156779437914251,-0.0170347647002811,-0.0146198832021115,0.220818014133299,-0.036324293190354,0.0139315238435088,-0.00349788686447128,0.072726006301436
-0.34602404189478,0.343021340513018,-0.166976509795602,0.266486749470056,-0.109199949750437,0.244433931287419,-0.141259465617268,0.283041248899936,-0.307722838071815,-0.139695162819757,-0.535674148035108,-0.235827260796983,-0.359696393421444,-0.000184771141477244,-0.359846590602677,-0.293927537945671,-0.171013809652544,0.0905976073269506,0.147033876658816,0.215458352439761,-0.137089708785847,0.0357174842626868,-0.168482093013678,0.0265945904297691
-0.371741483745179,0.332013037084477,-0.178474315746455,0.247537349918925,-0.0774199427936132,0.217038850613307,-0.184073676109125,0.346233529473031,-0.385896358108194,-0.14161821675051,-0.53570602151172,-0.236233558302678,-0.380456056124073,0.0470687989231421,-0.356586443989993,-0.315613263065449,-0.134789151642562,0.0826958560111601,0.14935594575847,0.21978843023586,-0.129077049324831,0.0303008288145607,-0.140619786698542,0.0122366703924033
-0.418932800291356,0.286161452486066,0.223298228423916,0.157171613548575,-0.011853490328078,0.140388605698605,-0.279192292627992,0.453001046696441,0.551091974915813,-0.173848548916044,-0.532610977545476,-0.256130708282281,-0.42220972112954,0.180047717646865,0.340890970453726,-0.323793277670115,-0.0218749716917662,0.0406716915102671,0.107758938380357,0.237005188416494,-0.10886466461402,-0.0190946548939908,-0.0595221340739854,-0.00964984273749933
-0.429388476904471,0.286049519932973,-0.21967717674333,0.137261995821532,-0.00964704791942092,0.118805703813578,-0.282594290117313,0.458749045608003,0.569395156057022,-0.184057864562598,-0.538043840859012,-0.269447167057296,-0.423247512825996,0.194241478401993,0.329348773652906,-0.311162714509808,-0.00839677610875136,0.0323984958853014,0.090579500672856,0.23574456866237,-0.0993813246662671,0.0225540361424033,-0.0475133741627741,0.00152443782628879
-0.453751473987468,0.287123074173348,-0.205959978453973,-0.0862778717397792,-0.00998375797207223,0.0674807031689445,-0.280141301491206,0.464079291926452,0.600984663078092,-0.211916906285433,-0.544855620364213,-0.304559207281743,-0.417411916828512,0.226115918283351,0.300316366513393,-0.269165962020826,0.0163842142380243,0.00976897606051101,-0.047933511253374,0.230423544713098,-0.0730963360013838,0.0279767670362033,-0.0185779562467303,0.0325718986029573
-0.434915374341974,0.263121764484404,-0.21303400343325,-0.0278126960009199,-0.0272768811577729,0.0583093678845817,-0.235265378180808,0.423852241468263,0.626329077189227,-0.268930770681003,-0.564483765953626,-0.272175172778657,-0.39246799398326,0.217904445530789,0.296735261689882,-0.224861512306188,0.024275561730318,0.0353094561338526,0.0126330420442472,0.227492610443575,-0.128671531980523,0.0581213050323225,0.0084324587806691,0.0311953202170026
-0.364414889825197,0.33728335013817,-0.183860688629223,0.231573239920803,-0.0876726841254072,0.240638161424482,-0.145156865526798,0.300185312111757,-0.366544021413924,0.147078127605667,-0.561513367697489,-0.20324571459185,0.379752592746929,0.0191099019487814,-0.360665432242704,-0.312573077253287,-0.150997400349055,0.116476281796036,0.133090607317251,0.214787048784853,-0.158938010360231,0.0132840634923306,-0.14040430902581,0.00875703711769496
-0.390598325490047,0.316093843973554,-0.202554818406262,0.205841470731507,-0.0523173305941869,0.20324820931659,-0.20210069027206,0.372698444972718,-0.456284507721873,-0.158796599809968,-0.555324062958147,-0.2150265079894,-0.399678969610258,0.0846756188975594,0.357872584649123,-0.327744628963677,-0.0978633060919148,0.0932682552771352,0.126909787997673,0.22190275559514,-0.146404633040492,0.000582556680570085,-0.10564127868916,-0.00564299209726222
-0.411025383081979,0.289694427674403,-0.222977280118483,0.161582043667259,-0.0237304157824838,0.16082246457728,-0.248923920498258,0.423971278185026,0.535382958325104,-0.179274745659733,-0.550878984373145,-0.230663654730869,-0.414915303492,0.152920357478569,0.349763351378997,-0.324734817497644,-0.0395514058133516,0.0664770168763021,0.102457281837282,0.229774878980223,-0.136081088600144,-0.0240073710152861,-0.0653336318148851,-0.0134422029912093
-0.422760501263234,0.26678913958638,-0.2300556196018,-0.103239828920192,-0.0182376828306906,0.121277746294376,-0.24610533667398,0.426526279072799,0.588124981569372,-0.215007255737623,-0.565509720501203,-0.231734616795996,-0.410098292733629,0.192278677800205,0.337009938710006,-0.294868270949908,-0.00175448906432638,0.0618494328772658,0.0524166291224118,0.225858366243254,-0.148695558963885,0.0539793054773232,-0.0249845666413107,-0.00714950497578865
-0.421906664627912,0.248685855982779,-0.224926618336534,-0.0548869836475431,-0.0235800137589778,0.0858722127651586,-0.22976209809912,0.416793792267342,0.617605633383978,-0.249829856941921,-0.570692496197847,-0.234051026417487,-0.393929871310242,0.209110102451064,0.31969519808973,-0.255637956671855,0.0182838268055827,0.0588939425981737,-0.00728787503855209,0.221597898743056,-0.160936536118613,0.0695392477381934,0.00368622296798665,0.00518264770109015
-0.413701831488068,0.238350407230227,-0.220050376837314,-0.0261894899196386,-0.0305387941762911,0.0684663161635629,-0.214480158736564,0.40455324438326,0.630025308944911,-0.274241624235829,-0.57177481356047,-0.230872659813599,-0.379892510892966,0.207217021913472,0.307151225757337,-0.228842441754004,0.0244677932016781,0.0613409142917416,0.0214996975218677,0.220320997929507,-0.173107186900688,0.0754758011866754,0.0169383556757321,0.0125794559797336
-0.490915878651792,0.328249845577258,0.0594965988837938,0.299102003114674,-0.221020650374352,-0.0245155185260589,-0.0181816668538281,0.318379191055986,0.243272666577599,-0.165299847764207,-0.467746447931198,-0.320616991968921,-0.175645425916062,-0.0556365615099084,0.184039762215598,-0.0744715477109816,-0.0673623920425059,-0.149167547000506,-0.0621960090324699,-0.0895481310644595,0.0858460955035466,0.274377807099721,-0.138218755930604,0.0661089405652954
-0.494209296936338,0.351443181190455,0.0294081270206073,0.285060127609387,-0.226893255051629,0.0156255358538787,-0.0370790947999237,0.317040365218878,0.26279367458461,-0.184349074686499,-0.493189974206506,-0.313449926310401,-0.205166915127247,-0.0504452279072484,0.186963448536667,-0.082327644720036,-0.0761901541068163,-0.122841204303625,-0.0492651968747768,-0.0569460459911731,0.0728776172695947,0.243177487759751,-0.128840188989822,0.0590349749027949
-0.515385657737273,0.366519670120774,-0.00286362635086165,0.244526247684534,-0.186283978059619,0.0207726568959967,-0.083992107177371,0.347127380649138,0.317401590389132,-0.212255881344034,-0.50206490725605,-0.359277461432843,-0.243666636820222,-0.0707240275469756,0.190237745450883,-0.102141818148281,-0.0745130225951534,-0.12677837092896,-0.0520064533141091,0.00511988568152513,0.0961237348756633,0.220064363769237,-0.109617936167213,0.0913882543162121
-0.531982511896729,0.380839166831448,-0.0388672860975812,0.187818521367588,-0.147209529855287,0.0291158234982033,-0.129715010796542,0.373031504346575,0.377308692592693,-0.243222405188512,-0.515660963210799,-0.399566634603905,-0.286765079976544,-0.109682771704269,0.197516950961506,-0.115845577035498,-0.0607422753617758,-0.123015452809554,-0.0402141356286735,0.0679036189353036,0.107092088277966,0.172465843979242,-0.0814931171910576,0.121388660587283
-0.517731389524859,0.387992293004637,-0.0601066894171738,0.182340559114256,-0.155944081410193,0.0559319689756435,-0.133181774798543,0.359180037197625,0.389476157058798,-0.265565295855983,-0.529759462050096,-0.377897913017332,-0.299788946079555,-0.0819999772815565,0.195576775014634,-0.116885948321258,-0.0685380232821297,-0.0987851560268993,-0.0272320881589494,0.0867047073218569,0.0801580069255271,0.163038999508808,-0.0850154905138572,0.105288373764405
-0.519661957237769,0.386624020324656,-0.0946730131712414,0.119272063128272,-0.12146724679481,0.0547565028138624,-0.166302504283468,0.379252580468379,0.456086986235091,-0.295091397860479,-0.54328109164333,-0.397097740772001,-0.334987478311426,-0.122314928004748,0.207847120227037,-0.125110212437724,-0.048989111318297,-0.0831026650136917,-0.00561552950186384,0.141357625561908,0.0623129300964222,0.110567678434463,-0.0574544251976286,0.121461775952976
-0.518652063705231,0.37463977362462,-0.120123464972792,0.0638325616417842,-0.093955257836216,0.0474365511121941,-0.185394945247119,0.394400635802988,0.505708969854382,-0.309222491267644,-0.551161689857334,-0.406446458058668,-0.357440630738061,0.170513548279844,0.225212401168428,-0.128711579743461,-0.0281543197578547,-0.0695130231127655,0.014567146689954,0.176582436159734,0.0399667151599987,0.0583773118002637,-0.0307157377326877,0.129693266492713
-0.497739383189285,0.370092428349248,-0.138326060777747,0.051966462028514,-0.0978753882759422,0.0617617845112011,0.183274181136625,0.3827200467826,0.526248117884195,-0.333940999949215,-0.555262509862652,-0.379449997526392,-0.361167400016941,-0.136589790579873,0.222470396923182,-0.126963307306255,-0.0388537422290717,-0.0439120871820586,0.0239694471524108,0.19760888357868,0.00577901445504489,0.057692128413739,-0.0308836667520673,0.113461069556213
-0.493513497220037,0.349753394837539,-0.153023909838687,0.0229510351132995,-0.075867776258724,0.0476295062168707,-0.196721506017098,0.399541136231033,0.560307786834253,-0.326651256628098,-0.556330618495833,-0.376236077714042,-0.372135995798432,0.176367207987302,0.239371584681899,-0.137353827830848,-0.0192395479130243,-0.0339014281204207,0.0295954225417623,0.212002671710862,-0.01500429949739,-0.0226356017684817,-0.0110436035899583,0.110065370035202
-0.467122811738825,0.313293727363986,-0.178913548679117,-0.00354081034622478,-0.0532402961380477,0.0412761170884877,-0.212956192021155,0.413264639721163,0.604514710471987,-0.316051111665477,-0.556805664410198,-0.339011505487146,-0.381265293186118,0.19452259665976,0.258253369425585,-0.161650960948132,-0.00058812662065782,-0.00317224352000496,0.031766916075146,0.229727249197468,-0.065311233902553,0.0135940399093099,0.00702298306277076,0.0837938388427792
-0.435274972534704,0.272091584217986,-0.199206202671693,-0.000450007412672338,-0.041015204436603,0.0454880805288641,-0.213452284782471,0.413050901926074,0.630968780849254,-0.304617507525444,-0.558511461202085,-0.285861305472365,-0.378317360900872,0.197404453427258,0.278205461127804,-0.186007231565983,0.0105266901428956,0.0319557323927835,0.0309623939467575,0.234380306433335,-0.12450075291956,0.0437745098051398,0.0210413342691078,0.0510134257743504
-0.408959541063277,0.237738047414822,-0.20901586549408,-0.0124285239178049,-0.0379562535802808,0.0577640724302184,-0.200899536811267,0.401365131974143,0.636192536951324,-0.29311209964418,-0.565596074947403,-0.234430127419569,-0.368402919695003,0.193133159172521,0.296044055075694,-0.207479194191673,0.0161322139103186,0.0625430210507532,0.0294428559417637,0.224382315022212,-0.176249109118479,0.0669848636492724,0.0289654614604785,0.0233148964715818
-0.361132660969079,0.345165224821212,-0.180176633422174,0.213682430151545,-0.0928594549604181,0.258980676502538,-0.0969394022284343,0.246661202522402,-0.342892338597955,0.147915860934792,0.586255423428791,-0.168012380247673,0.380100022997059,-0.0197723730802958,-0.349556036219127,0.308090624506856,-0.175873356446144,0.155537823238084,0.112769291855693,0.207136855558462,-0.181477427683869,0.00555759336910371,-0.141111066819103,0.0143667214111424
-0.383374821935594,0.326001677182734,-0.199948470776581,0.190192920422947,-0.0613907212179292,0.231495393780882,-0.143079080098836,0.310301284394173,-0.431099036338135,0.162126754908615,-0.59084160856096,-0.165844373412903,0.396840295448307,0.0362629082711786,-0.354284031614916,0.326647585434359,-0.126458751473888,0.146552665518443,0.105084298646253,0.208648685561006,-0.184479040558069,-0.0136934375991021,-0.106293378920687,-0.0048088303196371
-0.398707801359696,0.297476357730968,-0.219760654016088,0.160577753220357,-0.0369977496301139,0.197658257241251,-0.185235065161197,0.360642454262535,0.506885393229745,0.183866186009704,-0.58943544736029,-0.172568562007522,0.406010230806232,0.0967183030003771,0.354843718691307,-0.32919627469772,-0.0721430150554607,0.12546733313601,0.086413101915674,0.211152796539487,-0.185229586415502,-0.0372345961123546,-0.0694216059451788,-0.0182508040601562
-0.40597680448208,0.266424651515429,-0.229835228608462,-0.124162400250937,-0.025264812488193,0.159227580505663,-0.206354865925958,0.386955625017336,0.563461825865777,0.210102384076026,-0.588760784049365,-0.179715270028134,-0.403160581524376,0.146648734162749,0.348107863837117,-0.313318634382574,-0.0261215593198807,0.106483914781486,0.0557464147645796,0.21018865703961,-0.190847465335828,0.0607546929400071,-0.0328323809531764,-0.0215389611871195
-0.40453559794134,0.239795403492965,-0.22623521692961,-0.086154427582747,-0.0264686350645751,0.11986794652684,-0.204561557816427,0.39226152454512,0.599897625193989,0.23881691095242,0.588056439487314,-0.185463529343957,0.388454713553532,0.175577751016369,0.33374096232674,-0.282266813072874,0.00320370466884142,0.0947685839693278,0.0193892490702994,0.206429960797467,-0.200758801185008,0.076419812814854,-0.00123879638654889,-0.0142315443278462
-0.39491417634834,0.220739317805183,-0.211037500867818,-0.052225151601223,-0.035958915218118,0.0834910447975609,-0.190472736949851,0.390300013826076,0.622862621730111,0.269263054344906,0.580919421084068,-0.192129606293742,0.366051687352796,0.180474778921038,0.31322348822373,-0.243144406200918,0.0140850928448852,0.0882454585203786,0.0119931901820694,0.205987574180163,-0.21026779191188,0.0780939344552829,0.0251001891590713,-0.000972120994338882
-0.381321638731784,0.337492201016296,-0.187197385751264,0.172508749112573,-0.0565383235328244,0.246529037543253,-0.0902876029084912,0.25595752798943,-0.412777371253812,0.157545256863092,0.618715346555762,-0.123767108078835,0.402655502205537,0.0130571742670068,-0.329117305294742,0.327242642622873,-0.154958112433406,0.197539686854809,0.0816697949432936,0.196215403272994,-0.206208578892143,-0.0169165728633619,-0.105103877890693,0.00536837563626366
-0.392189003932675,0.309778327969878,-0.207320174488278,0.154088463648103,-0.0354079175852084,0.220245505435583,-0.131835720023466,0.307029155707713,0.485595764146066,0.180027333530019,0.621018449560012,-0.126183980530343,0.409194292859472,-0.0447556781843928,0.337657290100994,0.333953770616304,-0.0996309165335379,0.179275872983489,0.0682742157424854,0.193220365980319,-0.21307816636419,-0.043826545874665,-0.0686657467332533,0.0135047641577703
-0.395323131338698,0.275156604867378,-0.218895308870474,-0.136592809929056,-0.0254642770162703,0.188420338734174,-0.161267189480073,0.34264440182234,0.539295594058976,0.202729847636189,0.617115137564903,-0.133476169286146,0.403566433514385,-0.0970095545785637,0.3409545162918,0.326950570491415,-0.0508624405789656,0.154990421118606,0.0504623001901545,0.189820781752558,-0.220562865924114,0.0661635563995335,-0.0347592094821464,0.0237682672711472
-0.481974710983381,0.358517858863841,0.030904527927489,0.293702495048361,-0.248150893219586,0.0360255002904801,-0.0274914531384351,0.305183719246798,0.25381414145727,-0.178286967007046,-0.505737708032656,-0.284719830822941,-0.206849832302685,-0.0423762534961195,0.185921609357137,-0.0798204430220057,-0.0804582076664729,-0.0969708018703089,-0.0368564920659397,-0.0653780729173201,0.0477318603108384,0.227995336468248,-0.130790603621213,0.0418196086282943
-0.47026788252783,0.380276445803161,0.00671240762684789,0.286708314624245,-0.247224412874143,0.0727909499837646,-0.0538631318722316,0.305538951352933,0.279844905702673,-0.188074365094716,-0.532707417205742,-0.269933922352824,-0.241405575381484,-0.0243264133889342,0.179099976120278,-0.0986721022994634,-0.0863119218633392,-0.0583539939307756,-0.025089167973131,-0.0312957883573387,0.025319954698713,0.198506038563939,-0.127626571144975,0.0333810301133836
-0.487729290591006,0.381689219800909,-0.0246836239873581,0.253782162122514,-0.210609431695866,0.0684771114555348,-0.0872147136914491,0.324680928040323,0.322483579243391,-0.219112343256193,-0.529580912240453,-0.309245308616957,-0.264400867139798,-0.0279002515251156,0.183147062663538,-0.111268773342846,-0.0897724019265731,-0.0738097096432817,-0.0360015638333263,0.0208810817431498,0.04729296330993,0.199434457188733,-0.116442462979316,0.0565940785132095
-0.503930676334211,0.387149023041145,-0.0556093837808634,0.207173288217931,-0.175786570526907,0.0686058750956831,-0.119597042393589,0.344311195377944,0.370200907218771,-0.254985081218222,-0.531111500393797,-0.348168833570833,-0.291099637348574,-0.0497341019798063,0.19022899307666,-0.117644675269858,-0.0842691207123631,-0.0826792875183403,-0.0323211202115377,0.0738567700055184,0.0628414843217361,0.177918067188038,-0.0970968274921045,0.0838135555104756
-0.482907473702131,0.387267445603166,-0.0780271704518088,0.199759289581973,-0.176894589031968,0.0934616774807129,-0.129489008839656,0.335279652556462,0.394682063545332,-0.262021071538292,-0.541827745684978,-0.315845832981519,-0.309650826719143,-0.0154228990505736,0.185046545715697,-0.131858363192063,-0.10338104557222,-0.0409245381139742,-0.0332274861163014,0.108982104675636,0.0220776521691655,0.168735845609506,-0.0948794043167308,0.0641996391717004
-0.490730381826897,0.384608093869471,-0.104355707994569,0.146564298746432,-0.146986804096853,0.0867367846878851,-0.152389532459091,0.352771964896731,0.447716884050759,-0.296137259797196,-0.544770193146021,-0.341302776717086,-0.33154809206673,-0.0456806280761734,0.195921596122246,-0.132277110442224,-0.089276950088384,-0.0417272782207313,-0.0211671508040843,0.153515190693478,0.0177853218517657,0.13859084973156,-0.0709843822058354,0.0835789233686681
-0.479423010279527,0.368937703906676,-0.143455884481098,0.0701270528560914,-0.112322229660473,0.0804020479063621,0.17468147342893,0.367022634519737,0.522568451010299,-0.337627198367475,-0.549738978025002,-0.345697347448986,-0.356891547651946,-0.0787246508103983,0.211962836484133,-0.131136601171764,-0.0699687662028387,-0.019796558190803,0.00552534782200267,0.210436815430521,-0.0191490001367498,0.0855809435344528,-0.0376111938729633,0.0912800498175723
-0.45934961010479,0.341799440840226,-0.169962497398524,0.0136356541066569,-0.0864083471887565,0.0681445678001876,0.185925734137644,0.377982971207218,0.579236942653179,-0.358059143936971,-0.54991477983518,-0.332011533616217,-0.367130319167342,-0.108106278287689,0.227389617926158,-0.131539430271053,-0.0482901327293743,0.00349425835983593,0.0287416096685234,0.242359541089097,-0.0616776639884982,-0.0387531282918542,-0.00839265170615018,0.0871596373796536
-0.453574074377518,0.320677575303798,-0.179245604338818,-0.00926964157318482,-0.0681580087296997,0.0520326876821457,0.195163001247316,0.391765377260585,0.604498099503573,-0.35072989505486,-0.554558359427633,-0.328354552568288,-0.371652743003445,0.150667336724556,0.243118165535428,-0.139078448170049,-0.0205072066900996,0.00848604760814993,0.0447391434266633,0.241647864497413,-0.0783501826445725,-0.00181654276622006,0.00567000816667409,0.0850769471029514
-0.426272758908185,0.306712671552107,-0.187417108188689,0.0170228181799198,-0.0720819207850638,0.0616287710753043,0.186133319965423,0.380825776014735,0.620031179770012,-0.36639062404075,-0.541153919722479,-0.29338932089459,-0.363192539161828,-0.104707070693159,0.236168815976664,-0.136559502995041,-0.0421374470133595,0.0361897090341581,0.0345985338150526,0.264991531251397,-0.115096643625356,-0.0130948473652983,0.0176656418153695,0.0690721218925795
-0.420229484819519,0.282530375165137,-0.190932534336412,0.0180359194419268,-0.0587913896952498,0.0500856209553527,0.192628140122711,0.394557143866263,0.634669475037122,-0.346974094778817,-0.548079049714518,-0.281421433822202,-0.363226311544662,-0.141401616977764,0.253977477753104,-0.153641492305592,-0.0172407909313323,0.0422153667891545,0.0402113149975657,0.253495701846374,-0.133555046665784,0.0176881613119879,0.0281119693358839,0.0615703009258821
-0.395900165241509,0.243107706670812,-0.193623615637184,0.00269173534220087,-0.0512106081062852,0.0503066027608586,-0.186354738458656,0.39645484651967,0.644490118806382,-0.32431879413956,-0.55331849268532,-0.237494522037683,0.352645243971683,-0.152098794093234,0.273356111609202,-0.179307508127678,-0.00353919623322225,0.0674394816390371,0.0353991403426604,0.239320138250952,-0.180197590145566,0.0445545188746347,0.0416799891505512,0.039004824219549
-0.381626303985073,0.214001180350441,-0.189854544888793,-0.0321340326416134,-0.0482468078296023,0.0618717758098911,-0.172945155482501,0.392804226022436,0.636095359132019,0.297450505853114,0.561961050911196,-0.198466096404158,0.34356097407361,-0.156334698452166,0.293863097158181,-0.208577774096886,0.00014666415243306,0.0881237195242787,0.0183289589015095,0.217295387789808,-0.21670161884074,0.0608927550447734,0.0493835503891999,-0.0188233822970896
-0.452621067019294,0.389852884306275,0.0125543267942501,0.293686618274762,-0.262831909176623,0.0960361412665487,-0.0502162563277638,0.298088676742726,0.280807962680673,-0.177391549070734,-0.549757725153539,-0.239423638299037,-0.250606346223417,-0.0130814415451566,0.17193207069716,-0.105172709740298,-0.0930955614071311,-0.0200017724029198,-0.0121797218347421,-0.0297096473034298,-0.00893293072479787,0.179031899793108,-0.129014083902425,0.0218231701627479
-0.45242044111186,0.389312810028157,-0.0371514472132118,0.260181668362826,-0.223624896855073,0.110364135516025,-0.095247517425815,0.309060462853342,0.340510948126532,-0.206779169582942,-0.554740883203638,-0.252583145160419,-0.289626696384737,0.0175077704222776,0.168226703321348,-0.135775739099148,-0.114207849821274,-0.00269461481230076,-0.029764401461982,0.0516551371812946,-0.0170509331659849,0.178953249472929,-0.119732727674196,0.028380309304418
-0.462915459518945,0.385734849983676,-0.0730030744242916,0.220437948301773,-0.191187122329928,0.107783032920257,-0.123276238295835,0.321971843967485,0.38520419741894,-0.242421567358686,-0.547960408676383,-0.280099914514611,-0.310117953388738,0.0152583704657926,0.174692582987194,-0.142191416460917,-0.117369595510216,-0.011232372652645,-0.037879301642259,0.105297476760469,-0.00687964142494226,0.174139897561119,-0.103724039885704,0.0431360395843167
-0.427685480322096,0.373945320156731,-0.08763030125823,0.215291595411102,-0.186949091139655,0.132693286650429,-0.135754028538466,0.305653986002332,0.414518799066321,-0.231123702298371,-0.554002989657195,-0.227401444324129,-0.331299612420275,0.0667830830710369,0.153349659345651,-0.171147239200055,-0.140714519065063,0.0477752578372105,-0.049559109005031,0.151684513266419,-0.070193901001091,0.171797088815201,-0.0987709827126956,0.0202095710240347
-0.446011451270092,0.371524672370254,-0.11786015171626,0.16428288039553,-0.158613306863348,0.119463635959842,-0.15383772885752,0.325774684232623,0.457435775423973,-0.278527808515866,-0.544588334908295,-0.267678420858956,-0.341333524283461,0.0335670556214242,0.172891638876537,-0.158545126601991,-0.127046068942373,0.0229751968609546,-0.0435322113185897,0.187282331574395,-0.0500518885810744,0.154137175002894,-0.0750924201236632,0.0411364745806568
-0.438761100650287,0.353894467209545,-0.15829160770057,0.0848680722376395,-0.121602262617649,0.108720669549777,0.174214401833693,0.342584015477374,0.530947205452735,-0.331630109357016,-0.535616642062587,-0.280429574790293,-0.357712575220379,0.0040604017528808,0.190839207796581,-0.149609355649739,-0.109892571751967,0.0304216081345488,-0.025741379005936,0.246241718922377,-0.0738975065629963,0.112955680992442,-0.0363862108799342,0.0528988692920712
-0.439735739463244,0.342608401390415,-0.173759798391844,0.033554470230815,-0.0994418459001483,0.0898445510305759,0.180283884028319,0.359072043853108,0.570324401760205,-0.359068225240571,-0.537486776085933,-0.299095253560648,-0.362962089930578,-0.0432351523000446,0.21040291802258,-0.136953409610743,-0.0831161546630438,0.0260508317735882,0.00280775016057143,0.260129279084247,-0.0810041068517139,-0.0723528741836316,-0.0145144947708793,0.0670278830030947
-0.406982365763735,0.323834562527835,-0.185356167286205,0.0334789332824352,-0.0995373742121483,0.106305731082648,0.182529648507947,0.344690846506174,0.583095103492105,-0.358316488973096,-0.517252621615121,-0.252108754924968,-0.359261125202635,0.010882572094142,0.195050904811527,-0.148588212669473,-0.106399732698759,0.0590360755547771,-0.0218890607623631,0.292201790368064,-0.121472766810097,-0.0877878108348611,-0.00209358293839236,0.0430844658948394
-0.407514361176327,0.309014740354782,-0.189752489248173,6.6314155851171e-05,-0.0843219469141109,0.085283962314313,0.183512183970575,0.363231494683464,0.612786951799638,-0.371117696043972,-0.522419469983764,-0.263554710415159,-0.358083132507932,-0.0352973667820641,0.214462140762111,-0.140941258489613,-0.0788383965267912,0.0555179113666489,0.00285902413919577,0.290438006681542,-0.130940440252641,-0.051359195050255,0.0174894473699354,0.0537608951664751
-0.389597438800765,0.276412647440264,-0.190308656923692,0.018155694640903,-0.0710791694459953,0.0676684044852462,0.180645006835493,0.378768455531363,0.640890990759239,-0.369166214362692,-0.521120064113351,-0.246704397387239,-0.347932845900644,-0.064125523271649,0.232300977250689,-0.145136844778934,-0.0565585685070377,0.0683060775976136,0.0144551784309343,0.286961839847519,-0.163625911673935,-0.0171611905601519,0.0432607537885187,0.051032666778739
-0.376158084926687,0.245416816550849,-0.183325995454321,0.00868169834242102,-0.0640653839896366,0.056817579991845,0.174633409965898,0.390486499719347,0.650576089001456,-0.350933193364118,-0.527860444526671,-0.226129974244261,0.336780082135694,-0.0908521550767416,0.25128189030178,-0.160537345759979,-0.0367699116173765,0.0796317991057405,0.0176457647062641,0.267539646081034,-0.192511274873526,0.0111574833731861,0.0587247027620433,0.0445355034289385
-0.383690700023536,0.390153252886962,-0.00319704550602253,0.279393320630875,-0.248958122238823,0.167945606582579,-0.0839645811715684,0.273042049184417,0.345933669862016,-0.162504934528873,-0.586380957649365,-0.149588879698936,-0.303798653188764,0.0817001171159086,0.117279787594427,-0.173888267022412,-0.136101397685396,0.106393378211503,-0.00595761875863649,0.0717416655629231,-0.138948063327131,0.159615464476904,-0.130546984107072,0.00669501311504146
-0.393170595951511,0.376564748890748,-0.0433070859324805,0.258600023060137,-0.219266765615157,0.155343920229919,-0.111568206994251,0.280888849479569,0.378294061999258,-0.178376588240957,-0.57370034542819,-0.167842027237623,-0.322101579285865,0.0967057355427316,0.124681183726249,-0.186793937878357,-0.147591886418057,0.096254475983191,-0.0357912253435308,0.116382632072464,-0.123067776434076,0.172075283485483,-0.120349535052083,0.00297379028862276
-0.382562035173013,0.345747653606498,-0.0849128995550519,0.218435917197713,-0.184476754920452,0.157634244703632,-0.143331802454353,0.276374884321642,0.433831241008886,-0.197324897373725,-0.548901035186819,-0.15144609004349,-0.342336437818546,0.137366279999053,0.11007935128245,-0.211394874448364,-0.166217462341012,0.112799479878978,-0.0716708506606764,0.198926104085077,-0.151064241369332,0.187069172485915,-0.0925026681541234,-0.0023254879725958
-0.395866089219429,0.342114513163726,-0.127120560195357,0.168482778421621,-0.157057743808081,0.147314652518181,-0.162511925194114,0.29542119550922,0.47639166395601,-0.250792194437737,-0.532366421139587,-0.187164866292383,-0.352205524446827,0.111309322291414,0.136101002622977,-0.194656179026472,-0.158525120691404,0.0898773742905474,-0.0734497596956397,0.237629028700517,-0.128574029537916,0.169058098645395,-0.0659579521062692,0.00629165082831977
-0.397905656768145,0.33235052982808,-0.1601161701293,0.111323525872976,-0.131128439732243,0.137761245765039,0.176515944554374,0.312285336178848,0.524495679874856,-0.300557332526079,-0.517491633996577,-0.208337577964833,-0.356924223782206,0.0848059018619044,0.156374168521254,-0.178963328894914,-0.145190065601329,0.0789340814325895,-0.0644871572428687,0.275817650833035,-0.127512771244763,0.14382606678362,-0.0353373613471533,0.016863819862615
-0.390837960491662,0.31873736182408,-0.182410618842262,0.0602932305092628,-0.109669267287203,0.126045258143889,0.183473158155493,0.326328179154097,0.566998213689504,-0.337945040297468,-0.50603774919937,-0.217662576835244,-0.357132379696819,0.0603451750304561,0.173239222347432,-0.164937299318361,-0.130054685604709,0.0778105538018681,-0.0500340895460216,0.302909596986825,-0.13837983632322,0.115450786922035,-0.00731018527618312,0.0245348889395602
-0.359475818747632,0.317957191989287,-0.123315719896235,0.173831469259422,-0.159314523176212,0.167395076447317,-0.17405518061955,0.271431942316347,0.481271552199659,-0.223889015923916,-0.51664646967709,-0.128597836995416,-0.353728166374928,0.168177729295915,0.095494252283992,-0.222424569398041,-0.170747434390188,0.128016870713822,-0.0963939997104468,0.270717676865678,-0.17642280886469,0.183548017596826,-0.0546122175428072,-0.0115244891630983
-0.35760720323867,0.30702543627885,-0.153580584675012,0.13047177435581,-0.140558504636207,0.165833198545895,0.186999113216364,0.283589189824648,0.517968103366411,-0.266281592939389,-0.497319798144283,-0.139400573042594,-0.353582501406444,0.154439849166199,0.110837908639387,-0.209900288551591,-0.163736957713843,0.11905694335612,-0.0958523780593369,0.305751969224447,-0.176486288660301,0.166486841263194,-0.0258591218725274,-0.00775257308114887
-0.35403336658555,0.296730035743407,-0.180986288000805,0.0771413072356218,-0.118947686664658,0.155287824843888,0.195376033351947,0.303763123971779,0.562404623308719,-0.316479035899791,-0.482532232447483,-0.157849159343522,-0.350187018755864,0.124470385308094,0.13549870762419,-0.189381750439058,-0.147251849096046,0.109091883865913,-0.0815169832442835,0.332860793913789,-0.1780746015891,-0.136313978093146,0.00607619417015662,0.00171816968728613
-0.35844958764837,0.290069436990176,-0.194272543434185,-0.0247716758199105,-0.0977246974758932,0.12626408902354,0.194452060743808,0.33495556579267,0.607230501136296,-0.359770991651007,-0.485937805998491,-0.191518973375993,-0.34651701489298,0.0667474401577506,0.171322157663158,-0.16431505511088,-0.117274501783869,0.0958166690988047,-0.0471696045608945,0.334969369061314,-0.175706526264494,-0.0919855256681056,0.0316785222553854,0.0217661544304248
-0.366016576669065,0.273144607567541,-0.192911508262897,0.0068989832072259,-0.0802836185938524,0.0916130074920571,0.181025222173276,0.361062146765547,0.635776356867221,-0.373363336267715,-0.494081426980957,-0.213256554193013,0.340138503860743,0.00540292055949774,0.207161785574207,-0.149724421748218,-0.0907563967259733,0.087435302556731,-0.0199576021288017,0.318298124509012,-0.182037233947867,-0.0536596086504106,0.0502331933340614,0.0364919423468952
-0.347290455569464,0.315744017049874,-0.0632375083986861,0.223812154144408,-0.187306434841773,0.175817444607302,-0.15212769487596,0.246341159804146,0.43697434691437,-0.156572792660918,-0.532587048910401,-0.0830186878110048,-0.335015792509993,0.203801763652969,0.0500348841770303,-0.249828901716088,-0.177407484038253,0.151589224540498,-0.0936641526595572,0.234621419613958,-0.209458072759543,0.218414164096175,-0.0853269413227568,0.00675942643685016
-0.348869658680096,0.30627985986975,-0.0995329209932427,0.1946029226032,-0.170301553179594,0.174802492607548,-0.168263998412685,0.255621314462538,0.465462543685916,-0.188821827814925,-0.514867377275221,-0.0951644481465214,-0.345962206216787,0.198368242571711,0.0669608201732733,-0.241742132417637,-0.179918149609203,0.145063780938631,-0.106883765461197,0.269102935455182,-0.201277290284165,0.205110452827704,-0.0606725959123767,-0.0137732993550053
