0.0662943931841611,-0.212821293655572,0.534847506680916,-0.10265741087909,0.117158077411634,-0.013512107445015,0.135229391239226,-0.289320887478281,-0.100481610769005,0.0374607050123806,0.0906096976644258,0.00424420468024855,-0.277921211363735,0.125538890156384,0.104492522134648,-0.217653250294347,-0.347247539224608,-0.112474432066208,0.469865587827846,0.465243270835431,0.211258596785307,0.230190989075644,0.422476211709248,-0.0807719865251157
0.0528809341520928,-0.202586296875735,0.536406736594971,-0.117952056537214,0.119024687790922,0.0121547414813215,0.134721178101441,-0.279362199485179,-0.0996527972267112,0.0404250780461867,0.0726520894878976,0.0093188713072443,-0.285564856627602,-0.114918884049409,0.112950476875738,-0.223912716955137,-0.351884809232342,-0.121608288068239,0.456285299180288,0.4663317062645,0.218897615219338,0.226703177822716,0.419873868823399,-0.0786970083587068
0.0191871030265889,-0.158411385743963,0.539967794503364,-0.134989748866232,0.129146876563318,0.0633260813489817,0.150147772595437,-0.248526182662368,-0.0777590401604545,0.0394144430946785,-0.021911327254791,0.0239284144828686,-0.300013233131475,-0.0860810781884361,0.139470686614055,-0.240929092616532,-0.365643148368265,-0.139314955530326,0.424080696479416,0.460106394016142,0.22901984722284,0.22368592605616,0.415508442479972,-0.0847634512684102
0.00983408653762401,-0.216823371728961,0.519443402934073,-0.134755621173367,0.10785006113207,-0.00630932732175624,0.0937592896345402,-0.279012150582672,-0.195798100256716,0.0408112453450168,-0.0761687124416251,0.00997964115329373,-0.280468066990097,0.0891102365607821,0.119301365645686,-0.242109650790253,-0.347813234047375,-0.0685198775954046,0.480933589026387,0.43838782052446,0.262562939677942,0.197251150983802,0.444415254877344,-0.0495326449664956
-0.044614269671582,-0.147538470983992,0.533878901355084,-0.16036589141226,0.112735319453181,0.107207261045785,0.121041749260552,-0.251553319171155,-0.141749132434101,0.0423462316614611,-0.000118881350756102,0.0537516306337954,-0.285229176978503,-0.0386927976849227,0.170687223324576,-0.285783934049407,-0.375464282643455,-0.0963665026618999,0.411030191012769,-0.429023027379873,0.292613571617202,0.19753399189134,0.438768063815767,-0.0637728669719813
-0.0822388695229411,-0.102104733863876,0.531907768766786,-0.174359622152302,0.104520520383753,-0.157088678632457,0.134935661674434,-0.232396718204627,-0.117188684136052,0.0380161900140774,0.0407383038301715,0.0800078488442512,-0.279273128811926,-0.00419700637628872,0.198482705668576,-0.315579506046021,-0.385249158710644,-0.100422791200676,0.366345732651952,-0.412212169500677,0.311765721801473,0.192673990151707,0.438556761827311,-0.0714476648460931
-0.0439344310109828,-0.232777917228194,0.449543150704314,-0.127544363919877,0.0724323957732862,0.121836150207489,0.0534000899799984,-0.254792766918368,-0.329275497451357,0.0173197314159985,0.10994799694109,-0.017808497678956,-0.270418589155405,0.081644596479993,0.0980043933481815,-0.228459069606573,-0.312823854491541,-0.0216570340123561,0.557722223542433,0.369407892737115,0.282338711726707,0.160838177705354,0.483235787074506,-0.0322059493120067
-0.0244747405482455,-0.238979036575823,0.471173371164794,-0.142662061768567,0.0943825058666018,0.0495788546689299,0.0456055563236015,-0.258470965876315,-0.317411174424468,0.0354583418772106,0.0942689103273038,-0.0183309206251996,-0.281925417858811,0.0755408098387333,0.104187102356986,-0.230134204815395,-0.321378352066116,-0.00787449549882289,0.5313024554851,0.395521601579531,0.283390825873514,0.158684684021613,0.463601539362433,-0.0152973248840791
-0.022504049663835,-0.23842170100563,0.481166852120489,-0.153094825020138,0.103695838470077,0.00341787538729453,-0.0405600973431174,-0.261173539750655,-0.307209098455293,0.0461043412451591,-0.0809307003531889,-0.0103265644920093,-0.284399132782426,0.0672276484223626,0.113509187722801,-0.235006212780148,-0.326351732657492,-0.0199792461605435,0.508280105382009,0.404653732140284,0.287947977817264,0.157840272848023,0.451329681234604,-0.00710166725056597
-0.112081302146241,-0.0630328054298866,0.523491637954685,-0.180760595310212,0.0962686050259507,-0.187501588442774,0.146989870185943,-0.214256175803884,-0.105194877792179,0.0311894458665239,0.0718465399799469,0.0973293269096859,-0.273629790700893,0.0255999322986574,0.21889960396801,-0.33859302377573,-0.391951617685421,-0.0940942693034489,0.336029048569113,-0.390627804271963,0.327178236868893,0.189174899733389,0.446047205475679,0.0784645627571841
-0.0378901923786298,-0.227836838810899,0.482768855055557,-0.163784376206211,0.102521092894107,-0.0357860609579979,-0.0390117137794765,-0.255457490566903,-0.306635386665132,0.0526866525691996,-0.0585658761604541,0.00257113024209274,-0.286183442191779,-0.0504022305535275,0.127676965535645,-0.24754883400838,-0.333477641604172,-0.0243214710046055,0.489348710857228,0.400880791678392,0.30323007746024,0.156659423040273,0.451244960737593,0.00270972429055503
-0.0616108135467242,-0.192233995294015,0.49885472063768,-0.176122838303329,0.093395136064234,-0.0949584674662106,0.0612488002658348,-0.250118147662274,-0.261226989856193,0.0531544279402222,-0.0191219412966478,0.0369146613733147,-0.281816718314107,-0.0273800747452172,0.153988845897951,-0.281290108222434,-0.355227855261109,-0.0452278315998411,0.444415042744196,-0.401897428083905,0.324359821228262,0.168771443143679,0.455721033555432,0.0200251313586357
-0.105896504415756,-0.121605195942485,0.508911233800073,-0.186507091839584,0.08279974509085,-0.168496039359984,0.100890588631336,-0.232827053457065,-0.189485721163756,0.0453519115384768,0.0404708022016562,0.0846104400955065,-0.27198700683244,0.0151148763572091,0.198213555432803,-0.328637534972133,-0.379913776556079,-0.0656909876584529,0.375637471767073,-0.385975362201328,0.348437393866603,0.178370205849602,0.459366680707845,0.0485394532289638
-0.152359428281265,-0.0381138710566751,0.494393872362709,-0.193231725195923,0.069172312641827,-0.221868349523422,0.138488149250362,-0.194339997662555,-0.139980433097919,0.0276050803519329,0.100796181640673,0.11647600222955,-0.262949739549744,0.0659821126539691,0.233166110049188,-0.368638589536039,-0.394930773948812,-0.0671506071472643,0.30939672553924,-0.349919133879803,0.366368419585795,0.179691913815298,0.469242207752612,0.0749920923075112
-0.159467204172985,-0.208138069827664,0.334791256345605,-0.17667898640712,0.0166302185476973,0.161799477606316,0.0169428012994537,-0.188588990157236,-0.426734118646408,0.020443333312895,0.0872846261232634,0.0248233143242463,-0.273007460909011,0.0356177733403557,0.12501113039255,-0.218292146909213,-0.262895354299731,-0.0704722303980255,0.574244144535688,0.275328543360159,0.319071854957785,0.127678237701628,0.493778481985579,-0.0228033700305969
-0.109243664416882,-0.220124304956252,0.376215903099153,-0.158750564387907,0.0539673015675549,0.128996421934814,-0.0199679908048691,-0.201390592238094,-0.422127741968214,0.0226243254412341,0.0904678325511158,-0.0427240973080708,-0.284889342591543,0.0427553703216177,0.111131726239854,-0.214785457262179,-0.279955063819446,-0.0480172857677656,0.577898816733106,0.314434351114303,0.306919309801825,0.122349588707861,0.486048720670542,-0.00528274505058958
-0.0767697335010661,-0.230744277909118,0.408217943652312,-0.161220902794008,0.0824809052810336,0.0675973016825001,-0.0127309967260028,-0.208097472345672,-0.417674568967261,0.0365835298806862,0.0772573092425513,-0.0468551685570105,-0.296767893266224,0.0418767401896922,0.107834376063307,-0.215233074965142,-0.295157444038815,-0.0245495337958591,0.560364979886438,0.345886877492774,0.30528990984628,0.120350173400916,0.472049128661529,0.0151036949843837
-0.0604922383503854,-0.231795098218285,0.440837449893751,-0.169348533710324,0.0988249004638814,-0.00543146073831502,-0.0132361899971514,-0.222347431802697,-0.386445110538934,0.0516499347183123,-0.056688821940963,-0.027412533372893,-0.298763423929784,0.0360625943362166,0.119067545823786,-0.228733556055354,-0.314189565965783,0.00291310758825821,0.522688208020836,0.370942305773007,0.311230165113892,0.130213212905062,0.45944199540732,-0.0216124302448629
-0.0816238387131567,-0.209886183517483,0.451571517723254,-0.18700914926364,0.0915824492081985,-0.0820306840801751,-0.016013013523824,-0.214491623745429,-0.369345761605054,0.0609409601814401,-0.0134333194312564,0.00421092821932505,-0.296412140125965,-0.00943474659496107,0.139903369600569,-0.258700579638071,-0.333535699713833,-0.01074711154639,0.475790975648215,0.369371085290522,0.339288266534949,0.136381125624875,0.461023776212015,-0.020804690392333
-0.1218359742155,-0.150700233748209,0.457775908839692,-0.200156301455144,0.0749476841240975,-0.158632386167547,0.0484394151573183,-0.193189565762268,-0.3200451635642,0.0582757067951664,0.0480333086725944,0.0494661140826012,-0.289947653869372,0.0328877069616076,0.17573294144606,-0.305806112831511,-0.363468399027595,-0.0310963771848436,0.41087980248057,-0.354133845869287,0.377506306029016,0.151516977608671,0.476594637489569,0.00524139699714992
-0.155078355373574,-0.0836348581922011,0.464771011690186,-0.203524659979451,0.0563484497505296,-0.216725371473287,0.0928075081361387,-0.18499048907195,-0.237054081460686,0.0438452048218058,0.0933624858937337,0.098538722143753,-0.27239836363214,0.0671819981226083,0.211192928512328,-0.354139332986224,-0.384820952627263,-0.0471342865841318,0.340865189287853,-0.33570359326289,0.394036000059118,0.166600614324693,0.483346250050942,0.0432395205630129
-0.179678777331386,-0.0033134402823552,0.450211826985905,-0.203379649546064,0.045148904598306,-0.248380239930834,0.138315086825954,-0.141718692739256,-0.183208053280389,0.0190649960483991,0.139585549092471,0.115731900875959,-0.268869591818243,0.105113502170282,0.227972315228253,-0.385392061613863,-0.398341822527241,-0.057292849430818,0.278178602247529,-0.311242564110069,0.398494718196242,0.172411601427169,0.491830429202488,0.0775482441980776
-0.207638844460642,-0.181308177291063,0.252430396882587,-0.202609112396116,-0.00135945394098753,0.144061886332308,0.00335573138121954,-0.138995893865756,-0.458854382814624,0.0352620776063327,0.0781238406995571,0.0566340294124284,-0.270049656149405,-0.000730220890595948,0.149376824130004,-0.196962766627391,-0.214803542878975,-0.0746144451339262,0.569885004162514,0.226670370871906,-0.324888028044834,0.106798992434845,0.469949221883797,-0.0129650765816024
-0.16740800841601,-0.195615081964894,0.289609719339759,-0.185619155157126,0.0309143875839798,0.12372726524199,-0.000704215069777581,-0.141051035609191,-0.482611911028897,0.0336871739408736,0.0722196760114527,-0.0751863718228787,-0.288357514247778,0.00182913446169237,0.128308864142125,-0.191379967078153,-0.234942479503522,-0.0562027478206944,0.58214908677865,0.259272523278675,-0.321670564386439,0.090235709437481,0.470954420345363,0.0142098567888241
-0.130690559672019,-0.206040182804637,0.329083193672898,-0.177279084292807,0.0667271944054585,0.0809773146597365,0.00491026025901231,-0.146650596561666,-0.488628110298096,0.0407347446710104,0.0575053372523735,-0.0821726931939404,-0.306325248285471,0.00220330557939,-0.120474877396838,-0.189531809615529,-0.258798941152453,-0.0400753668965608,0.577536962478396,0.292235086195945,-0.319083762203791,0.0865233106439637,0.467442691513268,0.0360293910162678
-0.112773469533223,-0.207229762516024,0.359721152922531,-0.18453737358704,0.0892706034297164,0.0115202693877099,0.0139276146128759,-0.140620407733135,-0.491854934189324,0.0548641555842937,-0.0228576818070246,-0.0740465494839442,-0.318153210865349,-0.00871956615586092,-0.120317228983734,-0.197587576473589,-0.283966133564933,-0.0232634970141726,0.546995330955991,0.315849025148211,0.331819249398605,0.0886010077202547,0.463110578456957,-0.0547391340352238
-0.103751766335795,-0.205089765630698,0.397559355302785,-0.192085842029991,0.0946981898554251,-0.0577592306199119,0.00952996203800448,-0.159383177014147,-0.457270928398267,0.063861656894884,0.00255232437764565,-0.0385223871390603,-0.317023935265268,-0.0124130753554463,-0.130030421269304,-0.226328287367577,-0.311962724065555,0.00811814967485594,0.506158270312755,0.335996101643969,0.345435300713259,0.105882493542788,0.46322315851931,-0.051164588302922
-0.120472417419963,-0.173737105511655,0.413976789845501,-0.201748422382908,0.0863624110875661,-0.117969953626786,-0.0105048883414015,-0.153002294759256,-0.420129580825547,0.0653751927393736,0.042437880666465,-0.00359557112629198,-0.312863985620941,0.034559927183832,-0.15011848364845,-0.260978414177037,-0.339191333662887,-0.00919236977251815,0.458051744546586,0.336579741457796,0.373203098143272,0.123179792107637,0.474635333575785,-0.0330381032383696
-0.251094886623328,-0.13857710866879,0.16995403593369,-0.215600797442875,-0.0219700801007177,-0.129968784978578,0.0111320586983077,-0.102067737546312,-0.431257740064108,0.0510905935042639,0.0787087922329759,0.0823561456016965,-0.239184481070519,-0.0294826670309958,-0.186036527016479,-0.169562090909918,0.16119026010104,-0.0861458238057813,0.546116492510051,0.180147437218983,-0.314971702507379,0.114257696211534,0.427030269816914,-0.0275398403830657
-0.218028998178693,-0.154662017045898,0.200804158872976,-0.200065091716362,0.0089733436774051,0.121146665194443,0.0032037917976793,-0.0937084089346127,-0.479842351070723,0.0461522044659861,0.0678236662525067,0.108037570080343,-0.265864030440288,-0.0397159290792775,-0.16409821215148,-0.158106010121293,0.183255534130043,-0.065147066001126,0.567803210898176,0.209266216635431,-0.321925051981192,0.0828182577663944,0.44073351565601,0.00874450528166695
-0.182061803250148,-0.169182805106838,0.244287056610088,-0.189667258026579,0.0459364600963244,0.0924691278933565,-0.00610892151971734,-0.0891740836176448,-0.514429826105294,0.0478579299391246,-0.0458919275715168,-0.118213294031969,-0.294715041156099,-0.041260644736887,-0.1446207219086,-0.156551443276635,0.21381577616424,-0.0477579543427566,0.574507598498298,0.241289239163366,-0.327042897301519,0.0653798707081997,0.450190452485144,0.0415841572246877
-0.154546674752749,-0.175935064669826,0.286957255160524,-0.187208423827494,0.0770113731511467,0.0499854050660248,0.0110430425915956,-0.0890222462926718,-0.524336417177262,0.0536032718176964,-0.0191355972138269,-0.113393165573797,-0.315830526019765,-0.0414819973157149,-0.136583089833869,0.163557928252456,0.246654536137467,-0.0342020620121766,0.563514172930277,0.269951115595543,-0.334064509153079,0.0663700700279305,0.457188319036749,0.0589618139247005
-0.207990920734654,0.169363184615571,0.428798145772329,-0.191874166952315,0.0675617701361376,-0.261038185151506,0.23149540004321,-0.0640391544635537,-0.0352334559446464,-0.0389383246769759,-0.206083361054663,-0.114321186499513,-0.255088839994468,0.162881401515414,0.269480280735148,-0.404145324778053,-0.397923378054622,0.0469846822170368,0.174594847802957,-0.270262632183411,0.335672956636267,0.174416800305044,0.471553991611876,0.137624865934708
-0.203599557690924,0.238606514613872,-0.360576728950444,-0.177954026080975,0.0458346604842342,-0.271810344580755,0.269168073932724,0.0149166356048218,-0.0265236304607261,-0.0797875418925576,-0.241823053791055,-0.0991984512558174,-0.265166486566499,0.199217984939996,0.241512668237081,-0.417188027744667,-0.403916682276514,0.0599415619019831,0.106926350375093,-0.227268702762563,0.337706244657408,0.176782131458887,0.476345207799691,0.186283430167378
-0.158905270631313,-0.0981618149959273,0.433723335054712,-0.209942405617148,0.0570563808727489,-0.206791560649492,0.065805251992875,-0.150381748751842,-0.313955637595482,0.0525047902916939,0.102851246931756,0.0700216526710098,-0.289496299619171,0.0750072195211677,0.19303246217009,-0.332450175200543,-0.377989786638829,-0.0368343343651925,0.362537587374705,-0.32178353014611,0.409457118027219,0.153724658714837,0.492079565546079,0.019822760838736
-0.17625129462122,-0.0269756852803832,0.417587240589466,-0.209049004586715,0.0472192702826815,-0.233422342554094,0.107127318637142,-0.0985456915138528,-0.279702316926409,0.0310972925829181,0.149736013720413,0.0793081646781732,-0.293791856303183,0.108033512911986,0.199188313995799,-0.358487800395236,-0.39700213155994,-0.0543702712757352,0.307116426616134,-0.30285220473521,0.422476148346718,0.162532978824725,0.505248450461992,0.0529773934122479
-0.1874917842131,0.11257793772776,0.392194605030283,-0.193296648738658,0.0448551820208654,-0.259959255049505,0.200798528292994,-0.0243453122517396,-0.158283153710311,-0.0200798527476505,-0.212716939451225,0.0918778344296842,-0.293685587299171,0.154432836998281,0.215727317324392,-0.393181074527413,-0.419527687018742,-0.0824855228920472,0.200903846684793,-0.271012225064688,0.402163865348196,0.180431403033771,0.504956060164548,0.127998062557504
0.150714644651389,0.236534529503056,-0.302298427442804,-0.153780256715552,0.0314491505418629,-0.257717743030217,0.287058434084248,0.113509127298432,-0.106603687955529,-0.0799218472386208,-0.267402423706321,-0.0566282570818946,-0.319054012124396,0.191047044657578,0.162310176079444,0.397356655684021,-0.43139657371765,0.141934759624059,0.0858667362577279,-0.223144841555652,0.385662101587841,0.1861240637941,0.493604842984708,0.203727066484939
-0.126443752733771,-0.186067280014238,0.351123314706257,-0.195020252626422,0.0963941018857176,-0.0390074848923847,0.018246162140553,-0.106834658010161,-0.508954497134259,0.0649177283229642,0.0212919770459283,-0.0729928051427543,-0.32846381453665,-0.0373009416274746,-0.129821688203018,-0.199283277467908,-0.294947973067689,0.0153599778641163,0.519294703504305,0.307631472845073,0.35190325411312,0.0843731701180494,0.463354590331611,-0.0673240439938074
-0.139333442750154,-0.15363434875028,0.360644968142296,-0.203137080611247,0.0941764879122917,-0.0841774782701361,0.000703697138060566,-0.0835117701129779,-0.49079315689909,0.065692348659424,0.0629398721358284,-0.0540433413458722,-0.330969746273402,0.0593728101608572,-0.141971162956983,-0.222358931744746,-0.321894102450386,-0.0015767751539672,0.479178125392979,0.308318069535903,0.380030528996779,0.0994199136794502,0.477455289909923,-0.0525611190512611
-0.155820533867943,-0.0858848513708898,0.388520385624101,-0.209233800627597,0.0741478614331725,-0.16504188456095,0.0502697126367311,-0.0634159247575767,-0.411974799408967,0.0523036181694282,0.125224553638514,0.00412670405963793,-0.322456923827882,0.0882809338906017,0.160696810876238,-0.289325638772421,-0.373441342896886,-0.0376062831977178,0.387882597522791,-0.310880294135357,0.42056208027033,0.135871566938202,0.501082406870531,-0.00125298465539431
-0.16500382720326,0.0554505666266325,0.353509874518443,-0.195406500841649,0.0649023828342513,-0.208469918796632,0.141849300856573,0.0536521267894889,-0.329893356112536,0.0137950275130205,0.221624596744804,0.0149442576842254,-0.335663677746841,0.139092691910009,0.160032692798987,0.325016574541037,-0.422405857977321,-0.0947366217954686,0.264750600850907,-0.279888277551891,0.446109418107463,0.169182754090501,0.5171449740051,0.0779613282182831
-0.134922831141833,0.174305370101695,0.303071269389779,-0.160990899734343,0.0552376995969043,-0.218199079975748,0.230417121749351,0.157445277606667,-0.242006932059514,-0.0337692945353581,-0.275138202739263,-0.00691992678318794,-0.346457568837416,0.164265538543271,0.129759341192543,0.343063686938021,-0.44553744946601,-0.154991331922042,0.148698755721333,-0.250107852561201,0.433891189327215,0.188700406015954,0.504629665262567,0.153631769119741
0.0822262749039405,0.254408787751546,-0.245905352400007,-0.121210896947983,0.0540045341667936,-0.203499558939154,0.298270691047139,0.241761930302805,-0.170486173825444,-0.0716463205974039,-0.297323286054564,0.0192358098792288,-0.358315461496104,0.168691028531386,0.0922543065948803,0.337131398618103,-0.452104647741813,0.211817298975117,0.0612757382401744,-0.22365270204839,0.405524485529775,0.199247308909606,0.474869129106867,0.213763306059239
-0.268679720159031,-0.105698833129314,0.109208901399872,-0.212608359327821,-0.0231611785982428,-0.119284947706292,0.0171744246975188,-0.0536994268754302,-0.432729328224194,0.0597364992516754,0.0697814235545913,0.135686387563318,-0.212613698490056,-0.0796567195536885,-0.206731618661763,0.117985164625779,0.123353532360654,-0.0831188232405034,0.527474908433982,0.159858174953576,-0.314438364115671,0.0950700543090867,0.394088265401922,-0.0121012868953877
-0.236319121734947,-0.122634305100953,0.153745700691921,-0.203186030454292,0.0165312535785937,0.104521134792668,0.00445608404147677,-0.0379781882640161,-0.495605912134767,0.0577662928741001,-0.0433826522014955,-0.153033835606893,-0.252985042324757,-0.0916818174080767,-0.183395988658334,0.115546812170585,0.158833631003255,-0.0612010503963136,0.545939822840518,0.191270694279116,-0.3320369740926,0.0605183382322112,0.421354537210879,0.0317948697506844
-0.20178093565344,-0.131413708777886,0.210765836524727,-0.197651563461747,0.06156118066267,0.0689354685686686,-0.00413136549633478,-0.0264193118380592,-0.531780235905928,0.0591984611746997,-0.00550476952373484,-0.15314205507555,-0.291567235405248,-0.0927286036126981,-0.165882491332641,0.124548778978898,0.206709224664386,-0.0428188897476169,0.545412609615805,0.226227257290305,-0.346353067249538,0.0518093063283664,0.44407694912925,0.0589641140320977
-0.163136245633069,-0.139597213451221,0.288538781012066,-0.198894817384917,0.0928439275248478,-0.00163234961196787,-0.00906642789296222,-0.0282580456508817,-0.541227560503121,0.0622769474449673,0.0435020871356573,-0.119922051600376,-0.324263888791704,-0.07982051393109,-0.142537074748333,0.164036836479761,-0.27295843526309,0.0174239976699897,0.515434817958078,0.27213303203984,-0.368678001657701,0.0685433350806645,0.466731669160366,-0.067172164812504
-0.162941431946442,-0.0681537071535987,0.307520913827734,-0.201711371372065,0.10162046548966,-0.0714024485584613,0.0235047829643423,0.0526374885272489,-0.525035865579868,0.0561424791522284,0.135468457569264,-0.100185457381006,-0.338563984974369,0.111717398876271,-0.135766604747593,0.19902859175233,-0.335504909373501,-0.0248928889095008,0.426259978377651,0.280065655706482,0.417869484352812,0.0977072799538106,0.489431429175492,-0.0384051725070717
-0.151699651934543,0.0316153939670727,0.309213962708189,-0.188299308367557,0.101719839105177,-0.120165860551499,0.0921510660497174,0.14001937322927,-0.45925475244026,0.0332979607258605,0.218729898512369,-0.080412303165515,-0.350562306740135,0.134551646239682,-0.125673127601223,0.235652759042736,-0.39783281417275,-0.0829349580865966,0.318885174859565,-0.278602214817564,0.450390840723238,0.142155596112488,0.502416333477296,0.0266132871943516
-0.117239556315442,0.139519836470342,0.282409569113972,-0.15460842219695,0.0947422394687239,-0.14174319527064,0.173362215884273,0.235441131491689,-0.375078211706798,-0.00287684009486704,-0.27939615314257,0.0753602020596541,-0.358235065751264,0.148107022801551,0.0967040845454068,0.261999461261441,-0.439287754224029,-0.148399780174279,0.2013082227886,-0.264424055630375,0.454652379855572,0.176061867732865,0.491881957439831,0.100809570938575
0.0674432955083647,0.222929942036512,-0.242910140875045,-0.116701943921608,0.0920746066193954,-0.140090902232193,0.246563259944673,0.306436179693156,-0.282068399712237,-0.036399737965321,-0.307598217653144,0.0838914920629454,-0.363876448082296,0.148155381497209,0.0709690970624528,0.268629996735367,-0.458430873760606,-0.207533575991131,0.105686295801571,-0.245237843090385,0.432931546779046,0.200038188496514,0.463342221250227,0.168546931858999
0.0176552710410629,0.270411443327798,-0.209526163563314,-0.0845951413069508,0.0912133096061596,0.128063104914769,0.295375421210657,0.346973716567407,-0.212505001657105,-0.0607426894824186,-0.3096569440578,0.0983313284741311,-0.366748123749844,0.141147764540076,0.0524872514684471,0.26968668064455,-0.461412343506493,0.248878400290743,0.0459145032909251,-0.228773775249551,0.404947213336097,0.209367677479809,0.43437773766975,0.21262835284022
-0.317821982661161,-0.0563465337569743,0.0218793489051746,0.226216717544731,-0.0646678955709357,-0.118209322914825,0.0351402192196107,-0.022784660745814,-0.350263977413766,0.0708645742042005,0.0720750112251526,0.153629297049421,-0.136781241184123,-0.112948699774737,-0.253798032595776,0.0713195928039017,0.0623657385322629,-0.117616295531111,0.463020530150359,0.112327895890365,-0.295427078104582,0.130670839407686,0.334328149873796,-0.0446575360315789
-0.293705989915213,-0.0758210758509973,0.0604210890566817,0.222305867121312,-0.02688887686267,-0.117927504430743,0.0193885400992259,0.00282844635025296,-0.437218513238909,0.0676397718289158,0.0482148059330055,0.181230647420132,-0.181953916063159,-0.142573305140949,-0.233335926829185,0.0672042135937118,0.0953227099183624,-0.0904368520036189,0.49102909778687,0.140885555182821,-0.329618246265161,0.0766935999192355,0.380505580515861,0.00883902865149423
-0.259854750209763,-0.083471606379426,0.115847447764236,-0.21409178813118,0.0281749699473386,-0.102179394915132,0.00735667322360441,0.0299201426811288,-0.500662941068261,0.0650210782840748,-0.00989385358021557,-0.195072810787831,-0.23097692845418,-0.153107395660201,-0.212190067322437,0.0723061716957362,0.143793334580778,-0.0672554414167635,0.504162121090699,0.172904891428689,-0.35215943503731,0.047901125049468,0.417414290887857,0.0465571714825322
-0.222365791018019,-0.0809686132870402,0.177608910064946,-0.20879033555606,0.0749056093264063,0.0660666978784627,-0.0022548298758035,0.0672368977740947,-0.548769369301272,0.0629914541156032,0.0453660622271037,-0.192065497267444,-0.276134169812931,-0.150263839812233,-0.180271008831082,0.0919243348264287,0.204197096844752,0.0399490470778825,0.489131979375777,0.208823263558703,-0.375829376213384,0.0426677323478001,0.446341577401465,0.0684770196444887
-0.19056755278026,-0.0434939867519445,0.227129130581865,-0.201043603898911,0.111071381860062,0.0213552337144689,0.0133350953451816,0.128855696559028,-0.557142315997171,0.0568242588551402,0.120011369883627,-0.181568186286655,-0.310545275618163,-0.147264885251023,-0.152588596432109,0.115231801817188,-0.275518013527395,-0.000501076885938423,0.436820914759082,0.238612207598933,-0.404937165161698,0.0685306924522297,0.466637267806852,-0.0560465595895819
-0.156745828478783,0.0296073844235765,0.249640143316654,-0.180846736149438,0.127703309078011,-0.0182377254483657,0.0545896020115433,0.219108627752363,-0.53437975324787,0.040778736343838,0.20098169442382,0.170929388205656,-0.331259261462804,0.148314166070516,-0.118164480144159,0.144020883023843,-0.345096266329555,-0.0558266390047585,0.346670916240957,0.256039953200466,-0.434583449697206,0.106701063217678,0.473143894510623,-0.0147292040359917
-0.110571542099198,0.119151695589039,0.249983505453198,-0.144325007737599,0.133442705068604,-0.0403653596141341,0.119278807873035,0.309616693791157,-0.472924716344144,0.0146558731890842,-0.264999217642655,0.164392246656523,-0.341945628099224,0.144117948610339,0.0830084809978426,0.169715363101082,-0.403615939120819,-0.120350685804454,0.241030816089222,-0.262723383328882,0.447149506641756,0.149672181682129,0.461227251259568,0.0482050378452736
-0.0579334667380431,0.199335037258706,0.230980984449041,-0.105456545926664,0.134603943535877,-0.0502972828428071,0.190572581543519,0.374525418263976,-0.382010085108237,-0.012156014451176,-0.302787388075813,0.162065418503243,-0.34897369899489,0.135204132757521,0.0597013117519766,0.185151506134629,-0.441837177454552,-0.182862385872159,0.146158149418628,-0.256568417626647,0.437316483785613,0.187296121024373,0.435546778862514,0.117215093737697
0.000358864918745087,0.254857392627086,-0.202448879318965,-0.0678361643886649,0.134858014132387,0.0444162899011955,0.247005810358149,0.415463794632396,-0.295383415149006,-0.0342181177093028,-0.313294899288545,0.169295649287339,-0.350705216399387,0.123198251671273,0.0477376208894965,0.192638604138918,-0.458367497826466,0.232019930693979,0.0765040458578671,-0.241435045889062,0.413219072218111,0.208649456486237,0.403533551819973,0.172193241477732
-0.021541729369468,0.276019164155632,-0.197776665558026,-0.0542594689919441,0.11196207419682,0.0728746325588804,0.289030980258592,0.398450585836265,-0.236171058714409,-0.0565059780032391,-0.306681393826237,0.144724392263877,-0.357945868207909,0.123736109758337,0.039745714620063,0.235220470770926,-0.463155684822898,0.260944542742625,0.0441172339569804,-0.230665001200657,0.401938724185203,0.208968366444544,0.407506111502342,0.203336487784591
-0.352680310907164,-0.0395859559221726,-0.0276554249848988,0.252893948107927,-0.0864229335242795,-0.125584028033056,0.031577510166595,0.0361760226328461,-0.354838085651803,0.0739980824254408,0.0462644990805388,0.197816193959374,-0.0978213622270818,-0.183589485556717,-0.289159984672107,-0.0122467024374844,0.0345297052239276,-0.138492894368731,0.41371097892439,0.0915459819821373,-0.315839267413775,0.12259233630336,0.33005445324978,-0.0218724684893206
-0.317295474124305,-0.0498287174502354,0.0272210135185988,0.240659177098939,-0.0214121336944226,-0.126016816286293,0.0167373961025036,0.0666993578129994,-0.440615224570727,0.0702308848896065,0.0199079118978908,0.222577370898841,-0.154025437707925,-0.205704980881759,-0.266253723169913,-0.021117120105166,0.0782935979727379,-0.105210513918198,0.443666088778859,0.122221657542847,-0.349485256507984,0.0659913305976976,0.38305017865233,0.026290262935204
-0.278873924927243,-0.049382522204615,0.0835764350536094,0.231231401658501,0.035818975402391,-0.113004925102247,0.00200659626495737,0.114081399157369,-0.510156997433776,0.0654784060462474,0.026293584660764,0.235500570470179,-0.205369226595082,-0.209092695599971,-0.232462771635487,-0.0334019806913504,0.129772819341785,0.0756701043211634,0.444294332893973,0.152885098857845,-0.373174979571443,0.0388932029877371,0.418651907737684,0.0601962523959133
-0.235659832147534,-0.0261910261061682,0.140455277690378,-0.215990463652552,0.089745587106638,0.0926055484492561,0.00358351662931106,0.179316098293183,-0.546546608098713,0.0579207596077215,0.0916030935363987,0.239286826217596,-0.250561129790959,-0.195854066621901,-0.193687639150242,-0.0459398745682248,-0.197357546194242,0.0354685143918009,0.415529206456359,0.186236760465839,-0.393375713105136,0.0477736377280851,0.438850062861933,0.0648560374785183
-0.184964594553111,0.0233942764515348,0.182938426959407,-0.18901684408614,0.125895423245063,0.0685986166090651,0.0243571075672496,0.264230779055655,-0.556309917457992,0.0445128570186227,-0.165150493103006,0.237138022847501,-0.283956604126694,0.177361317651843,-0.144246569661502,0.0669844243899901,-0.270322568740225,-0.0171740912677523,0.352495996062385,0.21694392100362,-0.413607216938196,0.0753429580012832,0.443310533192197,-0.0443486011279614
-0.12908213766365,0.0961689613541578,0.205960044143394,-0.149701157294478,0.15294412756464,0.0546468897031449,0.0731734256779149,0.351657968972603,-0.518006396938108,0.0257921685945901,-0.23288282741639,0.236193038032537,-0.305181948211333,0.154215331491871,0.103299390423687,0.0804293192408661,-0.341446467742301,-0.079683829145061,0.269425945343309,0.240025154980412,-0.423435809208586,0.122654453447132,0.428181816427217,0.00520920293709253
-0.0649325468114182,0.171443544550294,0.205088432723112,-0.0986102248432697,0.166183924800134,0.0574190773096351,0.128346713566656,0.431220840875544,-0.456480054891473,0.002912248132362,-0.277292718318364,0.240880237685181,-0.309033235996166,-0.132181976381472,0.0689932217668162,0.0903507053573334,-0.391686216697418,-0.138753532344699,0.179196305512832,-0.248184322331755,0.418056081762706,0.162544901696732,0.395257735362279,0.0602984631258551
-0.0149164597242238,0.227126374447882,-0.197871725267489,-0.0680754508627051,0.162180885268755,-0.0262064076346263,0.191363955653636,0.451836048408382,-0.372365611508974,-0.0147661143730734,-0.303988976674078,0.221547479296745,-0.326339262268345,0.120060009997017,0.0569029319397177,0.125527243229498,-0.433277350416767,-0.194234134484418,0.115737208695139,-0.244727238679727,0.41288953808602,0.194241293322989,0.383781716569786,0.121525378360188
0.0130415569469369,0.251684758358936,-0.18923907154495,-0.0513719071060084,0.159785364457512,-0.0161445848895002,0.220612640648315,0.459300536075134,-0.326873500737364,-0.02343276465157,-0.310204070439479,0.215013052049536,-0.33077305894725,-0.11301283769117,0.0514281623608396,0.139249726988789,-0.446847170203203,0.219620331031053,0.0843772083855368,-0.239656850091812,0.404714234462971,0.206190275481766,0.372547202355532,0.150544053133963
-0.361899924026148,-0.0372179504927337,-0.0367797515452112,0.272730636940035,-0.0708673764799588,-0.132975057380768,0.020471443657731,0.092115925448546,-0.386878543613301,0.0715421830965263,0.0186996796141628,0.236831128030316,-0.0973130492134475,-0.237854886093408,-0.312351081095288,0.0216902195112272,0.0320676650928257,-0.142307283613606,0.386287484029419,0.0831131405990604,-0.339736363519593,0.100661004966802,0.35280342058541,0.00960139249014371
-0.333557922704175,-0.0406850620424846,0.00117718348841422,0.267609008381188,-0.021235984398485,-0.132708109932466,0.00425746166285605,0.136405441114832,-0.453125864679734,0.0679264021593275,-0.0096085476196478,0.258505604977628,-0.138426339051316,-0.252256964661414,-0.29037772990824,0.0164948934814201,0.0612072231070289,0.116503956975638,0.391252377060688,0.101343243378059,-0.361662250653225,0.0617284811753152,0.387349819566952,0.0470274540644985
-0.290663089453173,-0.0302735398133478,0.0557063418783819,0.25100173672518,0.0411781644462869,-0.130686892635844,-0.00495174759539974,0.199394222421463,-0.505407060508156,0.0613466725388887,-0.060100617315386,0.272763712973093,-0.185549396565595,-0.241023487593135,-0.253867998835529,0.0116099287932705,-0.115127401744892,0.0768429557660424,0.380143474332975,0.130279948961373,-0.378302336800695,0.0506602943225849,0.409563078025188,0.0660501936694412
-0.234497045708931,0.00056835617189258,0.107716263313991,-0.22095542248303,0.0916113372405227,0.123248557814458,-0.00168000900677837,0.279345345621437,-0.541726560104586,0.0496047519242538,-0.123084282182756,0.278876682043769,-0.227115127744781,-0.215381078586791,-0.199518045820438,-0.00326607260410477,-0.181990654673102,0.0259510257876217,0.34276011865404,0.16378694450442,-0.392380249577668,0.0593611673194331,0.416686840523817,0.0652316588061216
-0.172197537310692,0.0558167644714031,0.149981566077391,-0.177306924984175,0.134008809161004,0.118357743571801,0.0294488191882517,0.360510918123227,-0.53302045840391,0.0340569286423437,-0.189048907050678,0.280002671306041,-0.259005210169084,-0.17903565091525,-0.149465704092094,-0.0140879534746131,-0.258597400721853,-0.0347529324999064,0.285803796508372,0.197104018956465,-0.399671833570635,0.0966852030423056,0.40477712825006,-0.033366069996352
-0.107713858161537,0.12056477150649,0.173894765602949,-0.126155288825874,0.158803016235226,0.112797157188411,0.0718821211754711,0.428948507547237,-0.502491998523308,0.0155603744221934,-0.239643813849658,0.277666525616257,-0.275825622131684,-0.14919767786085,0.103950943459338,0.033527991711381,-0.323731784040235,-0.0895667836719957,0.219493424912066,0.220970815376884,-0.401931373664284,0.131497950261377,0.384391201726964,0.0086097823132648
-0.0710054971490758,0.158151658943475,0.183477424240257,-0.0957141330678334,0.173404118955943,0.112927238459823,0.0997027864450209,0.460194908865305,-0.472995576641334,0.00601070063875001,-0.262276965311713,0.276658132152184,-0.280825252748558,-0.130853787230392,0.0814973680212676,0.0389900644119729,-0.356693205210347,-0.118348105369598,0.181938261299931,0.233172644165498,-0.398075099229812,0.153135986987324,0.366321059438917,0.036105953306683
0.252298250010376,0.331100535261419,-0.361717018074053,-0.212283034060878,0.101008362858035,-0.239945901895801,0.248326944471568,0.0332190152772622,0.0564105914145848,-0.100935817448653,-0.247742126851539,-0.05698730234046,0.193021471323805,0.2270665578631,-0.309131813089911,-0.383021719606127,-0.336178420923798,-0.0778449577891752,0.080931394372506,-0.198896956163818,0.224063737935917,0.156833675810599,-0.408566848232328,-0.168236239650045
0.228568839461875,0.31974865066097,-0.332401973699635,-0.174327061579733,0.0471126991357297,-0.267278795188581,0.287416385112771,0.0381635837226457,0.0462143891261672,-0.130052466406747,-0.24479367538716,-0.0866691388558355,-0.217853113762418,0.23780007871915,0.265626767213517,-0.42733034015891,-0.366886996843857,-0.0047658466645252,0.0503692172037206,-0.192484760789528,0.272554124939046,0.159713275274094,-0.436380399915066,0.212661749731574
0.160139017371229,0.317588183326997,-0.279857297892168,-0.13241822973913,0.0241368971371701,-0.270484030632542,0.333390717707166,0.11105911562612,0.00210379736495102,-0.139544593778697,-0.261987028746423,-0.0687897016562408,-0.282350052407797,0.226549690407134,0.18294679799272,0.429600397534183,-0.407452365758756,0.111138212483138,0.0191875898768696,-0.189086080826055,0.324336719637248,0.170635811713273,0.461396572597217,0.250862670821763
0.0897446848288353,0.298906364024629,-0.239851252463686,-0.110990555838359,0.0321982162417609,-0.235978121551145,0.343529447622634,0.202525483452685,-0.0702141508334685,-0.114827382543579,-0.281783302309112,-0.0168567179897336,-0.339973262965697,0.192363312186333,0.111175510664242,0.384349612385141,-0.435684864380412,0.20183325458293,0.0156118436842488,-0.199832482262432,0.363858922892779,0.188346261926279,0.467147653615631,0.252214032355883
-0.0324039063565032,0.290993684049799,-0.196499884136905,-0.049063137443284,0.0969937743281013,0.0947711020355185,0.320511451380038,0.375459801997844,-0.185028401655782,-0.0762903078539895,-0.295351160768855,0.127415880641521,-0.36212669379903,0.129220747977449,0.0462521416604941,0.269494212441891,-0.461779442910535,0.272015444162094,0.0263687902660013,-0.220868993197826,0.386939162945923,0.20762521171495,0.413580370417799,0.226670894032028
-0.0926480868143925,0.296919222034382,-0.184163312709206,-0.0111399393201107,0.1232574793768,0.0294345336591563,0.322698736080452,0.406420148401856,-0.172112788240938,-0.0790541898705786,-0.273871095251728,0.182756710166551,-0.347979110440921,0.111245656029912,0.0722024328743672,0.250481902838874,-0.461815245868395,0.271119118610036,0.0369840088123605,-0.206795561819656,0.365452132419281,0.211272930039013,0.390254752053815,0.230100351742211
-0.025568135712255,0.260368747793161,-0.184661577691456,-0.0457255689634289,0.156704549700516,-0.0113798172846014,0.234740233085222,0.457519909226092,-0.303016510228774,-0.0287395148148322,-0.309540128236765,0.211900984285642,-0.333983020920243,0.112071887940484,0.0557889464014586,0.150106105580371,-0.45116858092143,0.229796477954978,0.0744201063156017,-0.23367052529577,0.399878568305413,0.209681821317196,0.372055655408566,0.16421348322016
-0.0502475768726356,0.273362325643211,-0.180382708664802,-0.0315286611963529,0.142373550991872,-0.0021955488340037,0.264776951830822,0.44222385392778,-0.257871339593352,-0.0461608641593261,-0.29909780570278,0.203388083577608,-0.338711586449571,0.115872449440478,0.0728501185556045,0.18866541035254,-0.456350770247465,0.245522376937066,0.0656270315582399,-0.215169142806741,0.391377722173957,0.207308237231185,0.384826976965184,0.186494392888568
-0.112340779997372,0.270973100255326,0.148855405222345,0.00650231337868512,-0.166483913618538,-0.0779865139258539,0.257324821491839,0.454604690694225,0.219319709769073,-0.0457766974689785,-0.272679716222242,0.257133434245553,-0.31620165828029,-0.105799981174649,0.142524218928985,0.170318413534527,-0.445568284496028,0.228846180375063,0.0916566165992137,-0.165287567856656,0.355614402623507,0.204326588749341,0.367046146767543,0.192091347812706
-0.38874743123099,-0.0170669591630926,-0.0766813599509954,0.270082927279136,-0.134445142580938,-0.122811308168971,0.0430845210810042,0.0386274068125496,-0.266799815556398,0.0746383462578124,0.0387656141073401,0.182874089756164,-0.0398185834819392,-0.172093277611018,-0.321749632589021,0.0181877155834186,0.00673352219782424,-0.184073858784847,0.35614951398634,0.0607675560710741,-0.282540098687454,0.195462214843015,0.272985844028103,-0.0684330533500479
-0.0568663833695738,0.172810982460195,0.183946463219657,-0.0853538218990748,0.175969996364181,0.109684769001064,0.113480185561476,0.469776438592548,-0.456220448864034,0.00249317900165906,-0.271145676319155,0.274866266141672,-0.284668578075904,-0.125473916555547,0.0783353889050313,0.0439071160621418,-0.36973789262687,-0.131753889279875,0.167526694928526,-0.234405095842202,-0.397055565554199,0.162687970417471,0.361200594561067,0.0495637954350185
-0.0378268327671518,0.193771495646423,0.176574740336455,-0.0751764013857547,0.173437523247527,0.0987091957063299,0.138198117753055,0.47804199532963,-0.42175131985601,-0.0022680161601736,-0.28427521832818,0.269687452762512,-0.294948119575559,-0.123785812177337,0.0882100779298724,0.0581111470940199,-0.387726048964957,-0.154549893627015,0.149309361443835,-0.22549170576359,0.396599876837997,0.176036058986447,0.361565510958891,0.0736923228092005
0.0090607326103462,0.235652519496913,0.164703372825338,-0.0502524628306517,0.171386871058002,-0.0757620577974641,0.188738765766275,0.482905738676919,0.346409950214433,-0.0138478752494749,-0.300375280222118,0.256655761546245,-0.311702153861044,-0.119130385933529,0.100168461514657,0.0947493486166984,-0.420546276908939,0.195133647308108,0.112384054338287,-0.209376417377203,0.390605708258649,0.195390125022746,0.361519647234557,0.123476704703015
-0.0515828129293857,0.244028267545118,0.126427715254799,-0.0224557242441691,-0.175692010404314,-0.116830268857262,0.1911815723312,0.48433188572967,0.29859693111017,-0.015613783033782,-0.287593784175204,0.283245480077609,-0.296801497844965,-0.127896233995978,0.173631358527895,0.0994323801496945,-0.410543363225284,0.187654222021865,0.126809235934789,-0.146073610090857,0.365449992643776,0.183173991685744,0.362727391623333,0.131384611975418
-0.0958634616879019,0.235721034345993,0.0827275169914221,0.00126226682098929,-0.191669572944227,-0.165170002418911,0.174934918106663,0.472557233793727,0.252629547779073,-0.00894545370677322,-0.268404419542552,0.313438478712343,-0.277378477045826,-0.131374482346892,0.249774719609886,0.0885178482908828,-0.390727547819552,0.160616105325086,0.156157648789604,-0.0774009729723161,0.327635423005966,0.169046039504272,0.357800994848284,0.134633052611198
-0.400205945269391,-0.0340757039869967,-0.0844712920378411,0.303019599415097,-0.133289963347337,-0.124819126404662,0.028663777490671,0.0920325658152504,-0.322398110029398,0.0679988272470182,0.0100830389661212,0.224456593933744,-0.0594122011797271,0.222408179595927,-0.343124624647994,0.0496172935015068,0.00688907514394272,-0.184122578855689,0.343317948031257,0.0541476585451892,-0.308042809213272,0.175215283503373,0.30668281633201,-0.026864290115023
-0.382394318931275,-0.0471735324519031,-0.0652313077752031,0.310746330003682,-0.0846951759184831,-0.126436505631399,0.0117611662304836,0.146475428011669,-0.385751634792884,0.0676207954674707,-0.0120235667176243,0.264640114492162,-0.096786777042428,0.263110346982843,-0.346643053597127,0.0644483170528978,-0.015043656530708,-0.153707971346747,0.34255151346949,0.0573669323591268,-0.335062218786098,0.124923502674445,0.347255062346643,0.0232738531980797
-0.347441040089875,-0.0530866490774835,-0.0268563375050101,0.302772788477517,-0.0286156339306514,-0.12926913903168,-0.00936477843146549,0.205713663148533,-0.45263358321309,0.0648519922294039,-0.0435303894289469,0.289152358504696,-0.140479565898891,0.270839513607128,-0.31975209351078,0.0633794659478625,-0.0407340195327323,0.114513477498376,0.339884123085711,0.0729765126784062,-0.353031193091357,0.0840185456266217,0.375745757056336,0.0636069713090824
-0.298006114485801,-0.0411765522501936,0.0272469830643704,-0.274758885263123,0.0327623492686446,0.138662693124241,-0.0179571310854485,0.273117742981096,-0.49590266474074,0.0579278032896514,-0.0913967519596659,0.299953367675808,-0.182838570066943,-0.245081382348038,-0.276382122769739,0.0607652299106306,-0.0942579006204449,0.0625826957577142,0.325202846086954,0.10241679235604,-0.363755080441626,0.0767878971327656,0.38486807182311,0.0760571894162985
-0.236559737725642,-0.005268604938637,0.0758179686353911,-0.231217027615241,0.0807354810858432,0.145014879550251,-0.0104418275003793,0.349235186364135,-0.521773299534883,0.0442945107411405,-0.147220748644778,0.304570225568866,-0.218064251257658,-0.210205548192,-0.221728125579096,0.0463116087146227,-0.160716523375036,0.00639120288383994,0.292138687614236,0.134252987211942,-0.371570884663968,0.0864623897206401,0.382434770847026,-0.0676391920736385
-0.170728400940715,0.0530666268939326,0.115562195648285,-0.177039050944939,0.123113257570655,0.150458684730862,0.0234604515401267,0.416941367021,-0.507059205914333,0.0291503205641298,-0.204196205965778,0.304036424121044,-0.246367889616189,-0.170102683869457,0.176362237876795,0.0337985003181633,-0.237576598515309,-0.0522184990119723,0.248183965267862,0.165438724535835,-0.3744537987315,0.119417718215226,0.367103664444914,-0.0326453684005501
-0.0973628750076125,0.129608401053082,0.143850472681081,-0.115730510822935,0.154380582534766,0.142385242536436,0.074784065922293,0.470073137359207,0.471548407503904,0.0115325630161895,-0.252959578614237,0.29750129434643,-0.267231236978664,-0.142051920988536,0.134323585201567,-0.000217059510928951,-0.315004187100748,-0.105715899864839,0.195515046006012,0.190494128990393,-0.38022034261078,0.148891699639868,0.356032706653473,0.0158957684158062
-0.0611024120473244,0.166360882099699,0.123752800325692,-0.0893209128669505,0.161092044465145,0.148794895015806,0.102371396012907,0.493594476296655,0.418506600026492,0.00798303739800078,-0.276742087586245,0.301669809541553,-0.274883278331737,-0.137641924990971,0.166343863784981,-0.00477002386834817,-0.338952013930428,-0.132753382027137,0.174147538165449,-0.161363295277196,0.368381293341717,0.164850540497767,0.347494008715496,0.044313747096025
-0.0253704936537404,0.192986598804814,0.0926346624859306,-0.0638555429602067,0.164457131210059,-0.160720629167387,0.115258902444815,0.497452981612733,0.373393517199552,0.00736269183101742,-0.282273262818013,0.310800272308711,-0.269626123785214,-0.149918851648289,0.217738024782261,-0.0209375882066158,-0.34343608304392,0.134918204910071,0.173604702337303,-0.109987989379092,0.354564464198622,0.155896010466578,0.354648631236314,0.0581681750796501
0.00557955703285527,0.196019591293297,0.0389414332044316,-0.0490230463550505,-0.177778636703195,-0.190162004114964,0.0993647119381014,0.484094946023763,0.326883466033917,0.0212337126868487,-0.274356977240413,0.331152107959134,-0.254492508009545,-0.169147547379014,0.301112981927255,-0.0128242821487545,-0.318356928743521,0.106498317924311,0.197612290885573,-0.0283926263872995,0.320253832352986,0.1302484686182,0.358102161326657,0.0525031586187519
-0.0537853802602103,-0.195785723180257,-0.00213378450223699,-0.02781592212745,-0.192761776932415,-0.208691913770975,0.0936601358815149,0.460455111884027,0.270791053639439,0.0257843349824859,-0.261058993578722,0.344254444251245,-0.244426599151883,-0.176559548161838,0.356656210960983,-0.0206966078205744,-0.306378459246891,0.0843486108430769,0.215730376373062,0.0344071214060294,-0.285448654255387,0.114561246158647,0.362027456238361,-0.0678570714502318
-0.417279387377661,-0.0607006477157801,-0.117412907005766,0.359360919332978,-0.149846230670888,-0.0988584726715223,0.0197190951032381,0.165381322727682,-0.341421330777719,0.0566451116344412,-0.0401106992869553,0.267440971692816,-0.0943628140658621,0.248009308200068,-0.385062235240134,0.104935662184262,0.00537288279305234,-0.187467460869874,0.300464421101915,0.0214400272093353,-0.294579304614203,0.208756812943281,0.305026527440202,0.00199649880060575
-0.393994568986233,-0.0833818285721625,-0.104493101703716,0.363461256119169,-0.107455072458637,-0.0904708944607665,-0.0043849153286918,0.21625385892279,-0.402464016526432,0.0626483739267348,-0.0544306298329201,0.299193757636097,-0.133919685985949,0.276519733631161,-0.377496765697045,0.113801269981135,0.0147963482244837,0.142075102493177,0.299339076192241,0.0177492418097104,-0.309538173572385,0.148426780942482,0.333682633516308,0.0602692239241048
-0.358044376626803,-0.0938752904799838,-0.0611035701876856,0.342566549681007,-0.0501716721840091,-0.104549864962466,-0.0277576325069718,0.266627512978779,-0.450812080618612,0.0644238708601629,-0.080750050607695,0.309657275923177,-0.167888504778321,0.26485307828341,-0.348328268678002,0.115604448569135,-0.0105418483604508,0.0896309204501016,0.29814183531493,0.0349965358036132,-0.322305276391883,0.113884214244291,0.346658216759445,0.0910089919154904
-0.30957773147851,-0.0814941101847497,-0.0139734443828118,-0.304849337891422,-0.000704630599770792,0.124104136941118,-0.0420106338876014,0.327172384119749,-0.493507907867537,0.0554489937160275,-0.119033804605934,0.313705332267899,-0.197510254907737,-0.237563306171782,0.302904391839292,0.103696446416026,-0.0567300078021577,0.0376291763664449,0.288124954603851,0.0577783003746118,-0.331454936991448,0.0960157445779858,0.352715278661971,0.101131653563216
-0.255008830955727,-0.0421502661856597,0.0320870431515787,-0.253394838651249,0.047278659345853,0.147258747244483,-0.0301793646567867,0.385042323039498,-0.501445893627398,0.0428717373646311,-0.16719706124901,0.312084525270938,-0.223765958648113,-0.197867524418048,0.262891005626336,0.0943675490458432,-0.1248305849081,-0.0150587470215681,0.270045337579803,0.0849251814043605,-0.335996376896745,0.109543561075356,0.346846383585977,-0.0817885018355282
-0.199189318549836,0.0180823904427667,0.0579048988039751,-0.199371279163712,0.0819507465122205,0.161356892023022,-0.00444467860545369,0.438219732427295,0.493389864213003,0.0282275934133732,-0.212175137674581,0.313595345725991,-0.240463242775908,-0.174662561417186,0.23489332207089,0.0740651035770101,-0.18808487372972,-0.0552802495623259,0.245485717979914,0.0980709113501765,0.339720480320243,0.122074564549734,0.344697063950904,-0.0536729945122198
-0.152980369103658,0.0742101296046675,0.0633374940595362,-0.156369021889115,0.110546812004786,0.173619557872852,0.0247338197757314,0.470452554429492,0.460155548902161,0.0226163753371799,-0.247486564642872,0.315592975784572,-0.251399698892978,-0.161838286254418,0.238120264501473,0.0641217201021576,-0.236125904459257,-0.0825334249266167,0.227124847803245,-0.0921892982393288,0.336107325338749,0.135785816428078,0.340433579208141,-0.0248680085166111
-0.117203480383432,0.11505312944801,0.0457473293258605,-0.127753103239995,0.13085539323085,0.185683139675031,0.0408196834769645,0.483328821233632,0.42135102780978,0.0261175722162959,-0.266695056482684,0.321987829375075,-0.252875616805086,-0.166296828092212,0.271181694540544,0.0582992422540596,-0.255997993278392,0.0884711267904371,0.221355464294769,-0.0597467269841521,0.324961670596296,0.13321580798583,0.341476307428311,-0.00984147324068591
-0.0893984808606248,0.140493781647151,0.00781816705685031,-0.106872229872718,-0.139779572548437,0.196293275717007,0.0393221980222167,0.479335203657506,0.388005870361586,0.0326937413810493,-0.26889247533594,0.332662030367842,-0.240140120552369,-0.189336630242579,0.324486706375982,0.0469413537149876,-0.245832050022995,0.0701114574804107,0.230799439046991,0.00189500447695433,0.307050046572987,0.10746528606078,0.353842865079724,-0.0116548825830302
-0.0724443592475699,0.147221996292988,-0.0296514790779309,-0.0997680380396733,-0.150560667125126,-0.205117163329583,0.026804530459927,0.465388587891308,0.359217304596014,0.0459528082934309,-0.265566816692996,0.340473719067726,-0.229775562624402,-0.208284129199372,0.374051594174486,0.0502644796716051,-0.224628464707387,0.0451271946526207,0.244057138120873,0.058181790484599,0.283636066127755,0.082110885702234,0.358985952455452,-0.0216329982538854
-0.0334274517433802,-0.160345896917771,-0.0503898166563687,-0.0827376061273919,-0.166544345989149,-0.206986238679001,0.0328847597501135,0.455244197371003,0.322475469025374,0.0492172449698431,-0.263000555562768,0.347601506101244,-0.228996397377287,-0.215906829736624,0.399522220762809,0.0350531450459399,-0.228128478657696,0.0366682338203784,0.247471723129586,0.0897532564531906,0.26893583134994,0.0724781666327385,0.366430648220384,0.00591758292238344
-0.394274933614704,-0.137192177445911,-0.147535390527381,0.408324668045177,-0.134569098776212,-0.0309326319732296,-0.0201950850644541,0.272036294618779,-0.406116787737037,0.0639326213518671,-0.0960615519772013,0.319549806262396,-0.19184323388464,0.264868379110303,-0.399811018090055,0.167263125434724,0.0564005646762851,-0.100419480294252,0.261801906719813,-0.02802928673387,-0.257636461431523,0.169152118051038,0.294985112043051,0.108577337128799
-0.368652086623216,-0.153090044434708,-0.102564674842034,-0.378524145057542,-0.0884267291233565,0.061101834343485,-0.051376799379014,0.303325352548561,-0.445796738612529,0.0650739849593547,-0.11364495900649,0.31095906927268,-0.208964271110545,-0.243489954011915,0.372016234134073,0.161708905119719,0.0313070346465819,0.0499441141880175,0.270785939026056,-0.0131680852492844,0.271975642840314,0.133530172679421,0.303794047209349,0.12815337270776
-0.333457348208085,-0.137398316097725,-0.0630883999796686,-0.336640930919667,-0.0478506713499561,0.0955680328128954,-0.0685793089776367,0.346364730727054,-0.478898215820785,0.0534008307914169,-0.14353580070018,0.306171508895694,-0.22267988447233,-0.219657188881002,0.339267283827044,0.144975244693717,-0.0116965400914561,0.0098482991277162,0.274457630834864,-0.00132952276408156,0.282033064022668,0.111771988916053,0.3137765762697,-0.127402898037052
-0.293693261491268,-0.0922326122799265,-0.0349717443287062,-0.287573747240681,-0.00990445156706588,0.128201841826809,-0.0650909243572381,0.390644131364925,0.490320866063284,0.0390824569065875,-0.179822473269517,0.30628155223673,-0.231552826056265,-0.20105963060832,0.316783409520012,0.127083571622493,-0.063870425591001,-0.0198744103633668,0.272786210939517,0.00433143091529671,0.288364298955911,0.104792280851275,0.32309493168807,-0.11030317524142
-0.254047716314485,-0.0349934573276709,-0.0180651218334327,-0.241444655018791,0.0294890403455351,0.156151621637245,-0.0463309257043654,0.423824865416269,0.475381642029965,0.0323891579665512,-0.21635585640809,0.307819345883533,-0.239669265488812,-0.187432259259567,0.313212974108183,0.118441738691556,-0.116799393320316,-0.0413986766653789,0.268657438328839,-0.00362775877817923,0.290255007000759,0.109467701333996,0.328316250145694,-0.0859284688780261
-0.218463295453172,0.0204475349089362,-0.0220991467459168,-0.20590833796759,0.0629064904356613,0.174995630164237,-0.0295766067164358,0.444481573875154,0.450159758057814,0.0338913138631071,-0.24354823840047,0.314154221340199,-0.241876282997236,-0.190626698820237,0.330295395443349,0.111711045878902,-0.149423271727493,-0.0459413887911736,0.26604384756863,0.0165949327137176,0.285681958775721,0.104002090331573,0.335935642450788,-0.0704400018670079
-0.186290617663473,0.0659839490810668,-0.0467022473917108,-0.176701646827215,0.0830660426826903,0.185568796385615,-0.0229803265141182,0.451545774794321,0.424619653135204,0.0383547138403137,-0.254141948019922,0.325438566245862,-0.230321662279002,-0.212228144664272,0.363196342178543,0.0970554796030688,-0.153718714380312,0.0313231779773071,0.269447579385117,0.0612758604830792,0.275223255901658,0.0796404289411202,0.351128459497984,-0.0682213233377436
-0.106952480187855,-0.12343826954123,-0.0866741179920912,-0.130874878532026,-0.134457994269343,0.198062985755481,-0.0113018392987539,0.442052737485224,0.356775404678294,0.0599966839047854,-0.259771266781035,0.342555679999022,-0.219817819005809,-0.239847793631927,0.424453801489649,0.0744806410800693,-0.163151088598107,0.00411253027019118,0.271397883202195,0.130357702032543,0.250581738586813,0.0447440679982654,0.367270747762874,0.0574511248348022
-0.36549996292678,-0.184486270094726,-0.120347062425566,-0.366438406139854,-0.100509915695806,0.0602909112980835,-0.0991298064261671,0.338636035396828,-0.465688802058992,0.0448905548853448,-0.160474270148096,0.284868692580955,-0.244461132043277,-0.212217400630153,0.371786392245948,0.166311181613933,0.0383783604267764,0.00126131411816031,0.275936463664901,-0.0712111868125922,0.22649189363229,0.104369304019293,0.283276390831827,-0.150609183934583
-0.339939401982472,-0.133772948984645,-0.104222719980136,-0.323547407337045,-0.0612437078054164,0.101548188616788,-0.0995857073767956,0.370143751066986,0.472476495239113,0.0339014041912876,-0.189820184724686,0.28767779490472,-0.240733050488425,-0.209736531061907,0.367941081132367,0.150573401280524,-0.00368527912048846,-0.00800949651716327,0.288296604693471,0.0812589652583483,0.23516666442096,0.087595275494982,0.305319360306287,-0.132804332733138
-0.309453114933279,-0.0749547550674772,-0.0951237386507821,-0.284943922583834,-0.0171123640392905,0.134117317887999,-0.0871946765859081,0.393829389070888,0.459434439948645,0.0341420909043739,-0.219043492476042,0.293556069394034,-0.240160473058684,-0.211087075130482,0.376845611741045,0.14467705121311,-0.0448911312700253,-0.0119448860349856,0.294688943490972,0.092412896348889,0.23971218297395,0.0794412893901567,0.322211014570436,-0.115715154966572
-0.281228332279291,-0.0173086031906256,-0.109993542638052,-0.258079460349677,0.0212686769286499,0.150746453160455,-0.0789064260554108,0.407550982248646,0.438405806571104,0.0418191026882639,-0.241647366586128,0.304308992104763,-0.236918667286472,-0.230050717057629,0.40160183986815,0.139495181314718,-0.0625935824124873,0.00243103061432687,0.299876763933469,0.125521229809831,0.232705141392251,0.0576700837447387,0.339473178496986,-0.110349865969592
-0.23673486633373,0.0339875934388817,-0.113402780472307,-0.218620950390423,0.0529679579753944,0.167958659815887,-0.0645959975957256,0.419863818668598,0.419028482817686,0.0479589617567215,-0.248095666988877,0.319225302439513,-0.222301081781755,-0.244628089283397,0.415780205745332,0.121888925961241,-0.0804396776018539,0.0105101007886118,0.29806076049028,0.144185733717431,0.234452283784493,0.039822083739349,0.355740663284196,-0.105179314097867
-0.349260937702251,-0.0921780674721959,-0.157839820492286,-0.319974866399166,-0.0462069914929643,0.105144487223061,-0.11621183889341,0.369103580398632,0.449283630674289,0.032216476663938,-0.221223896110719,0.28400199311298,-0.241112156531626,-0.239594602253993,0.413651427920537,0.152524961829729,0.0106171270654601,-0.0234252364606862,0.310992296715594,0.165091752853147,0.200236181316585,0.0462662633173011,0.32195482711328,-0.133509463504417
0.299858820658864,0.365888467378111,-0.309351676905916,-0.233851582974552,0.0770292519319211,-0.229674087586593,0.20115487963364,0.0620072392350682,0.0671786523186189,-0.166354290081878,-0.239417401925591,-0.0318430726450386,0.113230397600227,0.269769872292741,-0.317730600999718,-0.393307939917088,-0.288190429611261,-0.187324997621616,0.0265014607416822,-0.163338677096355,-0.172496858542682,0.13523025010678,-0.346610884409627,-0.205149318534237
0.273641673954212,0.371713746943095,-0.301602147202889,-0.186239918341619,0.0471740319962649,-0.257108980429312,0.259808605273635,0.052954976052279,0.0876252034910101,-0.17961537833869,-0.24195345032639,-0.0674663571341974,-0.145383143962091,0.274319298783817,-0.295900387838312,-0.427944217980168,-0.320468543723593,-0.107831035985794,0.00931060984888482,-0.158014078471528,0.208079972403049,0.14069346872812,-0.377565288458084,-0.233900669579184
0.201054178334862,0.378052956710566,-0.27118120732795,-0.125991898142818,0.0285017144838769,-0.276685068877285,0.329773826571208,0.0976228805530596,0.0690342360974707,-0.194679294984919,-0.252913860400242,-0.0691250159843125,-0.214535955182013,0.268082144497913,0.224242814015821,-0.452709918109034,-0.373267956060576,0.0249493251458495,-0.0176906632954509,-0.160809735805463,0.264555346035351,0.146530551393845,-0.414566158276111,0.27622906863484
-0.283465028043246,-0.000782962556073504,-0.15371261527429,-0.258425247889717,0.0194072351505083,0.142615617262801,-0.0925283730308693,0.397476198359536,0.425049499179606,0.0456411542180674,-0.241152933061651,0.310327288836534,-0.222201472156874,-0.261587491963529,0.432522443703563,0.134737085559262,-0.0285964929313722,0.0338334934790746,0.312679879019652,0.18539449170578,0.209565207744937,0.0203475237463939,0.3533125663709,-0.12471312326091
-0.251561192429961,0.0337936803948247,-0.169856235327679,-0.241119540596155,0.0475432985362683,0.144152029876277,-0.0859359396155314,0.400926519845331,0.403282579959812,0.0567798867643147,-0.249070463269818,0.32231402225202,-0.219173336083296,-0.279492961837926,0.452149229591903,0.12598176864312,-0.0344347330527337,-0.0471301183477743,0.313301045183708,0.210790373997035,0.203362314432971,0.00254000815129847,0.366014020308534,-0.121750978733356
-0.216954295839719,-0.062673733311169,-0.211756083344508,-0.231272515183127,-0.0713895994333498,0.134430689144361,-0.0888843585147349,0.389774392241667,0.3657405884419,0.0722073402849561,-0.252488228981168,0.334534269780225,-0.211627382927555,-0.308171414265079,0.483434241085458,0.119169972758574,-0.0190464318053702,-0.0736393006468852,0.318905004741451,0.264217892205519,0.179540446516588,0.0291974094826257,0.381202257913168,0.121471992666406
-0.162183602200339,-0.0854907301038634,-0.222907208392055,-0.205518769875363,-0.09496507653061,0.14362330415994,-0.0777049634023044,0.389758324930117,0.329213808439946,0.0762351053373262,-0.254306144505027,0.347952055402861,-0.208272172114054,-0.309972488190628,0.495889346718054,0.106584623943859,-0.0395283781756484,-0.0741093653118966,0.316536802561784,0.27740487700778,0.171867330466649,0.0286402814511464,0.389115003464619,0.0956262697452471
-0.307573979766638,-0.0129492101154183,-0.257804515341163,-0.299418314890612,0.0152624910483503,0.0847542082064434,-0.128329547649352,0.366980150358374,0.395599381423536,0.0603996409820163,-0.245933171883153,0.318887950423691,-0.21190362095724,-0.328074376607386,0.476135524004632,0.138577024858356,0.0541941649464586,-0.0998922649178212,0.332951152710669,0.297151587114962,0.154118171024406,0.0505220516007395,0.368634324522364,-0.145845593712568
-0.262153083296904,-0.0435743488942412,-0.260822526548416,-0.272609551180687,0.0445663599641473,0.0972075948916866,-0.118069193491171,0.369542550346183,0.369738718717932,0.0749146878899463,-0.249753622324399,0.329490198737843,-0.205401368653204,-0.333921029865719,0.489929780013558,0.133323673033816,0.0387774238785715,-0.10156494059318,0.330637189057965,0.308912628629463,0.1522524840149,0.0585673815483368,0.38039212317289,-0.141506719098928
0.299393480201922,0.395237320266173,-0.260185653618169,-0.170128188104612,0.0241854397010476,-0.267958856129522,0.247185233384933,0.0687731575778034,0.103813262668163,-0.243731746574426,-0.24213533379656,-0.0626049933663751,-0.100884219974983,0.30773727833171,-0.291964183297091,-0.447226207033045,-0.305648157386626,-0.143278839569411,-0.0299898750864149,-0.129983095375047,-0.184178173007696,0.121632635018954,-0.33218566337037,-0.281570331293377
0.288974190708861,0.408793060327277,-0.22470414116012,-0.151313601050832,0.0293142290350071,-0.286485563502213,0.242644873762632,0.118096732694695,0.0772112258187983,-0.294925102722217,-0.257293170867183,-0.0243965195091421,-0.103952416961083,0.329061412297695,0.265099484633201,-0.455689677631861,-0.319777419676026,-0.12107953072246,-0.0448702299173223,-0.120078834021575,-0.187808298773635,0.103901165448098,-0.306519031577361,-0.324233367212089
0.246191252059171,0.411883346393752,-0.249341127307428,-0.126427082898459,0.0279786683981594,-0.281322827596473,0.299835793766123,0.100048293554482,0.0960636702098879,-0.249408617413894,-0.250947464237524,-0.057217707586521,-0.149132410172097,0.304892381115866,0.251552000220795,-0.463083751475249,-0.342843514651025,-0.0559383042164253,-0.0433003420384183,-0.134074035177244,0.219012545246449,0.123051730486514,-0.359416644847395,-0.303250320894744
-0.223983541577848,-0.0604803550589667,-0.260262805567098,-0.252292034293854,0.062433038107802,0.109567075035498,-0.108305077432473,0.374413086808333,0.34983755925913,0.0784802129133474,-0.252412480454841,0.339408328112567,-0.203814147817708,-0.33179395313345,0.496809404649973,0.126365375370816,0.0181000225828732,-0.0974610706623117,0.328195532973674,0.309537531071925,0.152840409187058,0.0536861067031023,0.386531808570394,-0.125106023181418
-0.330145608233751,-0.0114141182388531,-0.294120342183401,-0.321847016880749,0.00495161694319908,0.0553103061840441,-0.145522575247518,0.354952002646157,0.392352600647962,0.0628861805003405,-0.245624222010606,0.318336479516691,-0.204255173709341,-0.348529119037231,0.477055490637847,0.142879152874427,0.0904636678579995,-0.119990490417073,0.33810559268364,0.328776614856802,0.135792853784151,0.0742519640688217,0.366691701689209,-0.152718746911992
0.140551190182778,0.0838776077964833,0.207097456972754,0.323459749787253,-0.123402097452714,-0.0309103717169117,-0.0972875775791972,0.246632079317993,-0.393186264697056,-0.241288062822963,0.186416101494405,0.30451808586119,0.227676833616653,0.149664681539316,-0.114205969434332,-0.226291305224752,0.313550091546317,0.142338403036296,0.305550824719518,0.267032315787314,-0.138120487819005,0.0974212008733869,-0.329105359631816,-0.235373186221188
0.195562222959265,0.126471184235006,0.213412098979393,0.33644041255704,-0.0960858182714047,-0.104866047994271,-0.0604200634732643,0.237146566464888,-0.331968205020422,-0.262472642776179,-0.209825854583649,0.262952272723612,0.196464399629502,0.199347459237542,-0.14109725642049,-0.264528576010865,0.308642323557881,0.169344998455809,0.221009637444722,0.264270245312971,-0.149726193922383,0.0970520503536192,-0.293818531714291,-0.244932278093287
0.260585426119774,0.1919230965236,0.203792997621597,-0.331142114851111,-0.0676138474963307,-0.187264841427219,-0.0103396694287019,0.22356851126114,-0.236999247050357,-0.291626254567128,-0.242206400502709,0.202608701519441,0.157447473880217,0.25251031918672,-0.18213571956204,-0.313107338016927,0.300649636451963,0.182134412098261,0.134077737738862,-0.224265522880767,-0.15645896701503,0.0942860275107848,-0.263779541406869,-0.273327140065413
0.306101609703865,0.269498474624718,0.200411890218203,-0.291601356651345,-0.0503116474149535,-0.243686958472634,0.0562931550198502,0.195518997985216,-0.124542935028285,-0.313637092056965,-0.261187089602025,0.130071444181178,-0.117674902054869,0.296702312709022,-0.227181209021519,-0.364640794782159,0.296648325051299,0.189989342085902,0.0589492934736547,-0.176989715491281,-0.15842251368874,0.093292655655522,-0.250552651220719,-0.303102614762282
0.321847268591389,0.33300222174109,-0.19831996259657,-0.239097397549111,-0.0387183637726871,-0.274929364452612,0.120500584202632,0.169363453977796,-0.0350597266630875,-0.32612228368195,-0.268049931614798,0.0690028014074296,-0.0933729769150057,0.323586234338386,-0.252399709466796,-0.405272900569606,0.298836454091276,0.180693237914528,0.00551663231803757,-0.140454004052556,-0.16168210911011,0.092067085035259,-0.250906422469022,-0.325758222457805
0.0548217435734951,-0.0852316482126253,-0.166485593428788,-0.101335544812271,-0.1264098403151,-0.245595756173078,0.030063170983088,0.372068927163013,0.131706587605996,-0.0182031794397014,-0.258353654133935,0.391745835358652,-0.237670220697485,0.200581378322635,0.489106557668739,0.0643220223573199,-0.234342815358417,-0.0103678918600858,0.350318740103482,0.19020792471654,-0.128803969733379,0.161793474935514,0.417604684059742,0.172247997324651
-0.260388969901371,0.292245061855487,-0.243194751841555,0.129862817223228,-0.187591765146205,-0.135860984647537,0.349441235248971,0.395900460490296,0.150757168786963,-0.107362359226127,-0.149211088333209,0.320281406045861,-0.274539315315332,-0.0520776417808841,0.132325533546483,0.248187894895057,-0.448878673962498,0.192520793426887,0.138999429865188,0.209553083234454,0.289282779473802,0.247958815509558,0.396200348474157,0.208876880397728
-0.276747515247601,0.326235369852342,-0.295106335428403,0.153681315042863,-0.226124155861674,-0.118098136151435,0.367066783416233,0.368595920376361,-0.166671819493727,-0.10484720296716,-0.112343168330045,0.34064775689135,-0.249336791441788,-0.0899586155798653,0.133562609376503,0.272206271798877,-0.442069750745245,0.170082060866915,0.152349557028087,0.242094858241023,-0.304042240113893,0.21293663490778,0.437871014540382,0.168162553828494
-0.269834084033398,0.291105266473287,-0.260459099400681,0.146440439922647,-0.21681637364608,-0.176123123039521,0.343420484981208,0.381958678450578,0.152282661289472,-0.102287216023382,-0.129018511253555,0.351335051478053,-0.254617884970409,-0.0672002782400453,0.173774647434853,0.228598439952343,-0.442262091143394,0.152943087548661,0.184893292430505,0.209961137347224,-0.278169948457214,0.24912549031288,0.426619649961234,0.192487614277105
-0.254905012672278,0.254106796429208,-0.202823445725127,0.124564041541527,-0.199100385429005,-0.211810507716162,0.307644214138178,0.398832501161216,0.137258506973888,-0.097549387325356,-0.159141241175314,0.35048232654403,-0.264758139409728,-0.0495059698294336,0.208849649493119,0.187093909229255,-0.439351760403087,0.148807812021809,0.200107836038415,0.160543238899972,-0.256120326887339,0.270566299928574,0.402529596799091,0.220822886073611
-0.254712627065593,0.249947127500692,-0.217798707061091,0.13315636691033,-0.220608925291281,-0.244485851904269,0.304587556412342,0.37906993126303,0.131740889524576,-0.0940627888520037,-0.141186577013676,0.374751979046186,-0.248781443849413,-0.0678105926252574,0.250622756626696,0.166664911224447,-0.429455789437119,0.109903013824434,0.24560931585564,0.161911532198714,-0.241573357231867,0.274646090913106,0.4358560679658,0.207814858358851
-0.223552980706232,0.202047294730825,0.137640267528195,0.0925196755100549,-0.206868681787812,-0.281001719776602,0.249121754169044,0.379189784984427,0.109648292763356,-0.0826249414824787,-0.172575451645027,0.385515897190026,-0.252576910598507,-0.0799286539925746,0.325868455736513,0.102298775901465,-0.406660844240314,0.0798866290293028,0.290049246926093,0.0863906796970736,-0.205299307020167,0.283577408870937,0.435928140178178,0.227658491414059
-0.26477910365684,0.354152350475873,-0.323426915813039,0.127651316760513,-0.279262927597799,-0.079379550234083,0.360194170351239,0.342657568007513,-0.165176936696006,-0.094718975916763,-0.10840085386853,0.356770040339026,-0.240742971013352,-0.150297738842015,0.165734854292162,0.277522939982563,-0.441075082419595,0.153545967895919,0.160801915980698,0.257903309308727,-0.321018692767125,0.16332825992078,0.47616837069994,0.142686373877754
-0.279069582789144,0.337915730594219,-0.311357327654662,0.154338843042592,-0.24415939878915,-0.107487766840017,0.368135827490023,0.356505399941548,-0.171002899209776,-0.102302593539173,-0.102818385352525,0.348138612710332,-0.241415312602263,-0.110694285258119,0.139438431214832,0.278755498882682,-0.440323684173333,0.163267701231402,0.157802141028122,0.251793575914426,-0.311406353035321,0.192700573017009,0.455205333648709,0.153492098052403
0.252420608709989,0.294605258307485,-0.326175391801963,0.110240640632472,-0.302699405946928,-0.199843685097864,0.328187672112375,0.301154853495248,-0.139891003366901,-0.0779600990772063,-0.0869453458040338,0.395929135438611,-0.231986240946756,-0.172887216103511,0.279446033820227,0.203022885768099,-0.428240098034876,0.0930366810283522,0.271719308971369,0.246062449392942,-0.287937524567228,0.174367230468377,0.538904991735068,-0.133520873681157
-0.268079301841794,0.298489746794562,-0.289786952127785,0.143740432041445,-0.255672044483072,-0.189342742317891,0.340669801030732,0.351128928041334,-0.150394697722895,-0.0929623553354981,-0.107790253044876,0.376720537049043,-0.238927808675257,-0.112038198235052,0.220850607393551,0.219336433418997,-0.435486035919223,0.121027711286852,0.226493020812526,0.222859845582877,-0.281383991930007,0.222657830746812,0.477562910926198,0.165716444452509
-0.262245164825144,0.268237777607998,-0.249901067834287,0.143700837228744,-0.23428767825526,-0.230642389072621,0.321161882732069,0.368254804635518,0.139096640234316,-0.0942299113441537,-0.124453327707185,0.37744543788451,-0.24211131199238,-0.0801002475943537,0.238572311080422,0.18541872466775,-0.431330483356997,0.109877248551145,0.24183782949915,0.18840395854611,-0.254161991055709,0.260954413725889,0.451521455362406,0.190936501157201
0.22197277934453,0.238846065113909,-0.267373949080086,0.101064312072292,-0.284004970419878,-0.275227509750467,0.290257908907386,0.294470831463272,-0.108076995879146,-0.0695646888384678,-0.0981270112019107,0.40633210472989,-0.223316943963595,-0.165337039397257,0.364731912098004,0.132822110842494,-0.402038004393844,0.0441713443682044,0.333804025594931,0.184388292038506,-0.240042310027988,0.217099130367971,0.536658326517849,0.154331093176902
0.224326648219497,0.219208922466694,-0.196689234396961,0.102102309539163,-0.238918784582483,-0.280380951058115,0.273058049560816,0.343311784738815,0.107366447046046,-0.078115640870066,-0.139492113436513,0.400143483129791,-0.238611067052971,-0.115573883926403,0.346114506060084,0.113536115425802,-0.404693766539975,0.058564331246532,0.318136786500607,0.131692723347854,-0.216243393550222,0.267612074814563,0.48550350325897,0.198355570644679
0.178258649996272,0.152889685792525,0.0823784532279362,0.0425281888005053,-0.202163897772005,-0.305508187969896,0.201226563418738,0.342824217928094,0.0782992887812444,-0.0650922142628448,-0.184033264234533,0.403970859470536,-0.244923528539512,0.122783044495105,0.420662591973287,0.0303907267296332,-0.366780757135041,0.0255776905386855,0.362625716291887,-0.0333860582497664,-0.162738017081117,0.285103954817506,0.471970426187715,0.226425195103711
